0.00760678,-0.075685866,-0.035654373,-0.022072276,-0.06664848,0.09236679,-0.0024872664,-0.062841184,0.010611292,-0.12568814,0.07783596,-0.040715624,-0.032015726,-0.060147066,-0.07824383,0.010070658,0.039786637,-0.01943113,-0.0144733265,0.10274685,0.033357732,-0.02262313,-0.079040214,0.0570804,0.073856816,0.035574008,-0.056579478,0.010922319,0.13487391,0.009077945,0.05913524,-0.04227806,0.03233575,0.011536493,0.06846345,-0.116201445,-0.032767877,-0.1133157,-0.120940484,-0.0909119,-0.057434637,-0.07673937,0.039744604,-0.07218093,-0.04352846,0.052664325,0.064239055,-0.0014803791,0.035798583,0.08360243,0.07553771,-0.033128217,0.042554595,0.007709833,-0.03211087,0.084043734,0.0023688949,-0.058447186,0.012640604,0.021399558,0.05316514,0.035910457,0.013672175,0.063427344,0.02797691,-0.07999899,-0.021463199,0.10120292,-0.00399585,-0.059506156,-0.011332796,-0.1487463,-0.06289971,-0.11323674,-0.14606841,0.056860253,-0.0023642995,-0.054744374,-0.10508379,-0.030717779,0.099156216,0.07854884,-0.08519945,-0.06333168,-0.048203845,-0.24268359,-0.09072404,-0.06094495,-0.0010266551,-0.07032466,-0.08249121,-0.064220056,-0.07838766,-0.15988001,-0.23842964,0.099016905,0.046201646,0.03601501,-0.007521098,-0.039056208,0.06348361,0.01403234,0.17102319,0.019795325,0.12829085,0.03634694,-0.008808189,0.1296027,0.08057396,0.07183492,0.07402239,0.08415175,0.0071250037,-0.021814842,0.020941148,-0.074052386,-0.06131998,-0.09901005,0.021713007,-0.009375853,-0.026046256,-0.02058717,-0.09841975,-0.094939776,-0.0776749,-0.21090752,-0.2328116,-0.23905887,-0.18268092,-0.1060935,0.02942887,-0.07002774,-0.11618435,-0.1980791,-0.18650304,0.09123053,0.10972832,0.108168855,0.09468573,0.026101884,0.05361761,0.006752484,0.06964052,0.11012188,0.08878134,-0.08128033,-0.015188151,-0.045738954,-0.11279496,-0.10113853,-0.045680005,-0.095035315,-0.03046189,-0.07068954,0.065406345,-0.13454364,-0.045590166,-0.0009180013,-0.10111854,0.02305939,-0.08851177,0.02215348,-0.03679096,-0.11137306,-0.10419703,0.03923625,-0.088897705,-0.07611199,-0.01751941,-0.06786283,0.04463327,-0.056879576,0.092781276,0.14102174,0.17529382,-0.01005212,-0.05953574,-0.07627859,-0.06701605,-0.115346186,0.007412609,-0.07678655,-0.10063254,-0.12281607,-0.098274894,-0.0060250005,-0.13712324,-0.21301648,-0.12318894,-0.17274104,-0.04934186,0.027998632,-0.01438538,-0.11652705,-0.031487558,0.09938273,0.028759662,-0.007009223,0.05638501,-0.043822628,-0.025260853,-0.1233511,0.0132495975,-0.062045958,0.052715786,0.006338535,-0.014901795,-0.004879691,0.0041788523,-0.078016974,0.09058995,0.10016892,0.18020068,0.068925,0.07472516,-0.006252265,0.046864085,0.030024964,0.085249715,0.017206587,-0.0034883455,0.023704024,0.034858305,0.017190676,-0.058334325,-0.017172983,-0.008562291,0.012156475,-0.06287305,-0.064626694,-0.079017095,-0.01905619,0.09247775,0.12110508,0.1437184,-0.09287408,-0.09661292,0.04308532,0.092915624,0.12522313,-0.054098584,0.002140675,-0.060677826,-0.02640433,0.002750118,-0.009152467,-0.062467147,-0.03459042,0.06483277,-0.012906786,-0.01379208,-0.10409379,-0.09984689,-0.11822997,-0.11166335,0.022693852,0.06459853,-0.099295475,-0.1310678,-0.056879073,-0.0020304292,0.05682296,0.031189498,0.032436263,0.035972435,0.06743765,0.009379771,0.020419069,0.1352987,0.1640219,-0.036740173,-0.027989877,0.10491363,0.07908689,0.0634416,-0.13844772,-0.01617662,0.019207416,0.007932035,0.094729714,-0.06390741,-0.00030606653,0.103658006,0.013210414,-0.032732844,-0.1414735,-0.059180364,0.030052524,0.09404383,-0.12230476,-0.113084264,0.03308789,-0.07882192,-0.15376465,-0.09281087,-0.012830663,-0.14652815,-0.12528747,-0.09373515,-0.03693053,-0.11702055,-0.01856912,0.0764715,-0.059725437,-0.031604465,-0.08350024,0.005268012,0.052397296,-0.026939739,-0.028249715,0.005881857,-0.09875835,-0.13890783,-0.116032474,-0.12704211,-0.057070274,0.0043085334,0.011827009,-0.056390908,0.06936267,-0.02185328,0.046746846,0.029198598,0.10055121,0.017652811,0.14304519,0.15923576,0.050888147,-0.089397825,-0.029490992,0.08041462,0.16521566,0.06887728,-0.014548193,0.105976306,-0.05501661,0.072558016,-0.017133748,0.10540483,0.10030268,-0.056764703,0.04978782,0.0021840085,0.08104518,0.12656906,0.0071454183,-0.16010323,-0.043957554,0.010796425,0.06562704,-0.10613543,-0.041819084,0.0016578672,0.008527616,-0.09260325,-0.17200793,-0.07895734,-0.044271536,0.1477894,-0.018531345,-0.09795792,-0.168273,-0.1212138,-0.04386855,-0.0757163,-0.001765818,-0.0031397734,-0.14990298,-0.0830522,-0.15270205,-0.111287385,-0.06672002,-0.0897763,-0.104493044,-0.1750367,-0.048268337,-0.0958341,-0.09846699,0.0311504,-0.13042635,0.042481422,-0.07195413,-0.10056271,0.06316703,0.021223255,-0.033736404,0.04923562,0.05671497,-0.03911559,0.087892905,0.1734427,0.11804592,0.13416256,0.056886613,0.051970895,0.14748445,0.071767785,0.02962549,0.05510866,0.014267619,-0.021723919,-0.029383628,0.03490142,0.08419398,-0.0005203321,0.04399395,-0.003927043,-0.0009825702,-0.0122792795,0.10830619,0.009169843,0.14913978,0.012363311,0.04765934,0.052179933,-0.0023538074,0.01265398,0.018881388,-0.087649934,0.01651869,0.0055235215,-0.097807124,0.026524477,-0.08648216,-0.05154706,-0.12735413,-0.099519156,0.07811065,0.0067919656,-0.02754313,-0.11310572,-0.08988342,0.06911451,-0.003747338,-0.023468025,0.10111918,-0.14436659,0.015604465,0.033396892,-0.018197125,0.11618883,0.144959,0.036042314,0.012404935,0.10889775,0.05266685,0.1308585,0.14598872,0.021070737,0.016135763,-0.101812415,-0.08588992,0.028826619,0.06419515,0.08132956,-0.022791285,-0.021712618,0.016194128,0.015824948,0.0004094154,-0.10061243,0.019003754,0.076766625,0.029568851,0.04838743,-0.06047978,-0.015327745,-0.061767884,-0.036864784,0.061029326,-0.044235185,-0.04411606,-0.006219232,0.07327484,0.067487516,-0.021615382,0.04836619,0.054028835,0.09294803,-0.0045793927,0.021055564,-0.021499367,0.14131261,-0.096365,0.0007389536,-0.14896025,0.008144921,0.05301382,0.062030043,0.14333372,-0.018817248,-0.046726573,0.13126558,0.16810857,0.19207835,-0.0064724353,0.048909076,0.14355513,0.016037112,0.07233981,0.05690603,-0.041794702,-0.061636254,-0.121062,0.044051837,-0.005688702,-0.00089360174,-0.082877174,0.020757727,-0.027300783,-0.091835186,-0.03862826,-0.013942696,0.10000587,-0.058083724,-0.065322444,0.01638537,-0.0012608989,-0.053050008,-0.034494385,-0.0016332509,-0.026638635,0.05076071,-0.018896762,-0.021605652,0.046863705,-0.033259783,-0.067646876,0.0073602377,0.12319445,0.030890418,0.08427944,-0.0060114344,0.102885336,0.117053226,0.014621824,-0.030587023,0.11313521,0.056589987,-0.016237669,0.0635147,-0.008154012,-0.07595129,-0.104502395,0.021917865,0.013126828,0.008986566,-0.08900821,-0.14704476,-0.13343102,0.1349068,0.06348761,-0.031560883,-0.08387043,-0.07628132,-0.045162167,-0.13972802,-0.17426457,-0.054524887,0.06749376,-0.15141852,-0.24538086,-0.2543599,-0.1758425,0.035084855,-0.06743986,-0.22547458,-0.21695818,-0.07260813,-0.014450523,-0.059715297,-0.05281179,-0.08444005,-0.03242885,-0.0069331964,-0.14219403,-0.0018415413,-0.043470312,0.1519246,0.17610209,0.052435413,0.07859651,0.12338459,0.12415778,-0.0027685966,0.09345504,0.020883132,0.098758176,-0.0015692145,0.07806192,-0.07001579,-0.00301748,-0.07142164,-0.07094834,0.010764887,-0.01538236,-0.03747035,-0.041812863,0.05056522,0.01907383,0.031145861,-0.09510753,-0.08238921,-0.09047063,-0.064634174,-0.078560635,-0.12089818,-0.16975325,-0.004263398,0.07950312,0.07626757,0.06505579,0.09638337,0.07818422,0.080470316,-0.22243679,0.08534552,0.095856495,0.058817163,-0.10297879,0.005544712,-0.012997666,-0.022694334,-0.10487809,-0.16249418,-0.07313405,-0.015741188,-0.1056307,-0.12262964,-0.06904475,0.045316212,-0.041104108,-0.18250339,-0.046776567,0.03207591,-0.038632456,0.03467485,0.122307636,0.032151263,-0.08360655,-0.1190399,-0.10733165,0.068698175,-0.0108626075,-0.025204705,-0.096944965,0.028934354,0.040738385,-0.023361484,-0.057164736,0.0032420575,0.07966455,0.11298062,-0.010470636,-0.064986035,0.08448954,0.06858838,0.056776367,0.06553436,0.03109373,0.06952532,-0.01791075,0.026834987,0.1417841,-0.0508082,-0.087660156,-0.15311538,0.09004913,0.03919948,0.07820039,0.024939243,-0.049201507,-0.0066010808,0.06909307,0.02435291,0.07917731,-0.04956791,0.1019975,0.08236509,-0.089308076,-0.01076916,0.014064883,0.023899952,-0.008298846,-0.038700037,-0.08441306,-0.13220602,-0.09402955,0.014156508,-0.09829063,-0.08013103,-0.16207814,-0.09131341,-0.10071527,-0.055536225,0.035845898,-0.0021395409,-0.020343874,0.017900376,-0.034154158,-0.05144012,-0.024097083,-0.0583703,-0.036192063,0.013791803,-0.14153527,0.05302097,-0.004480987,-0.14003652,0.014380578,-0.21852177,-0.012221732,0.063564815,0.0026004761,0.05452266,-0.2398147,-0.0027173972,0.019316474,0.006038621,0.075019754,-0.101283215,0.057215612,0.1269155,0.07615583,0.049077474,0.04437031,0.05643812,0.11330867,0.018909683,0.11505122,0.11380146,0.031912096,0.07826762,-0.10498969,-0.08205224,-0.038770147,-0.08941787,0.06966839,0.059137866,-0.08970656,-0.19403896,-0.2492088,-0.11592623,-0.06941735,-0.1434986,-0.11277571,-0.1301919,-0.1212004,-0.031544324,-0.15123922,0.024965806,0.033719007,0.058658242,-0.021595325,-0.053685203,0.13446374,0.008147576,0.03622448,0.05312967,0.03858062,0.054340202,-0.02772372,-0.05318145,0.0729812,0.06781448,0.04907538,-0.1987446,-0.09123785,-0.013759727,0.08534199,-0.08797242,-0.27677348,-0.13320632,-0.14971764,-0.16527747,0.15471016,0.0741267,0.15935467,0.023730787,0.1628183,0.12681434,0.10280462,0.11226635,0.034081917,0.08322917,0.13089631,-0.046819232,0.0063198414,-0.020087745,-0.056918807,0.04064224,-0.12349884,-0.15224667,-0.004552697,-0.08192931,-0.00076452596,-0.20148465,-0.084173165,-0.0556563,-0.05168072,-0.080898866,0.009006985,0.03486471,-0.0194827,-0.05164832,-0.032713603,0.030574515,-0.037458774,-0.08849707,-0.10703325,-0.028774654,-0.062455054,-0.01579363,0.00907512,0.095590174,-0.07413976,0.05014627,0.12788564,0.015218442,0.058093544,-0.032595176,-0.00638463,-0.02789322,-0.03271178,0.026000045,0.06660519,-0.033196025,-0.1003281,-0.062780544,0.018724669,0.101372585,-0.018468106,-0.065396376,-0.025936957,0.004114209,0.023049168,-0.06906574,-0.048032634,-0.18296878,-0.09200974,-0.039112847,-0.026673187,-0.063031346,0.003187587,0.018190913,0.040809754,0.15005395,0.13407402,-0.0056384616,0.08309109,0.0025324563,-0.008083342,0.0165307,-0.008732303,-0.040936615,0.04002731,-0.03314652,-0.056589242,0.031309817,-0.008171829,0.01888729,-0.1512464,-0.042608928,0.047364213,-0.0049584317,-0.0064156256,-0.18127027,0.022488665,-0.034981873,-0.0644167,-0.1448025,-0.1681466,-0.031643126,0.037356976,0.06068408,-0.02468126,-0.008144326,0.032884885,-0.0701642,0.034808632,0.025310898,0.05003299,-0.10307727,-0.18402353,0.00656974,-0.026301831,-0.16712022,-0.20409079,-0.110712975,0.04038966,0.055518694,-0.07150396,-0.09543822,-0.051626414,0.12233074,-0.10158929,-0.12728317,0.0029985511,0.0461029,0.05341143,-0.054951705,0.052927513,-0.0094153425,0.08976457,-0.049325712,-0.051663622,0.06142497,0.07205646,0.04868656,-0.090053484,-0.036417827,0.010776285,-0.0112468675,-0.10580884,0.0062681725,-0.08474264,-0.106806986,-0.029908407,-0.0990026,0.04063541,-0.0105468705,-0.12364301,-0.023843663,0.050149176,0.005572325,-0.009459161,-0.10771176,-0.028304158,-0.08498439,-0.018116843,-0.0007487272,-0.058312945,-0.01751726,-0.03268777,0.07421376,0.075466566,-0.08714531,-0.08656571,0.0071301903,0.0552863,0.011097848,0.020203836,-0.12762693,-0.00070127565,0.030758899,0.08259384,-0.087052576,-0.046624713,-0.098998256,-0.107294165,-0.05382831,-0.054603186,0.020408617,0.030644083,-0.07106181,0.026729248,-0.010149906,0.051065065,0.013505297,-0.11751721,0.071195744,0.122024246,0.1361975,0.059520267,-0.17309414,0.112392664,0.0060595856,0.091908544,-0.017705526,-0.14022312,-0.052513402,0.0038909875,-0.018278025,-0.03260552,-0.019170908,-0.087886564,-0.15803978,-0.08938559,0.00805123,0.07961917,-0.0072682584,-0.20741998,-0.058448818,-0.06642322,-0.0086715035,0.069280066,0.01205165,-0.1040598,-0.025504956,0.024771465,0.19118997,0.017382322,-0.11570791,-0.037844088,-0.034463283,0.19898191,0.029928418,-0.10864101,-0.106260344,0.052430544,-0.06628042,0.10520849,0.057428334,0.06178895,-0.015796138,-0.1941585,0.04162029,0.13047098,0.044414844,0.09077714,-0.07856346,0.097993724,0.059430856,0.20934612,0.039768014,-0.0489706,0.12825726,0.20617755,0.16110043,0.058457676,0.0059415405,0.059669156,0.096636795,0.05749794,-0.044760115,-0.10006967,-0.10155668,-0.15723912,-0.14167242,-0.015196725,0.02339999,-0.02027327,-0.18580317,-0.13367602,-0.043576747,-0.02553971,-0.0024494801,-0.14665145,0.027561178,0.053718545,0.06438297,-0.11369181,-0.029319517,0.054380473,0.00059005985,-0.019083433,0.002750503,0.0037037556,0.05615411,0.12599003,-0.02107683,0.0037730462,0.027542312,0.048428517,0.08081111,-0.07064723,0.011657112,-0.037049264,-0.00020728025,0.13646068,-0.016713807,-0.09253147,-0.086935945,-0.08239791,-0.018871745,-0.038273007,0.036884084,-0.050821275,-0.08457715,0.09753367,-0.09308238,-0.108041584,0.07108813,0.034243777,0.03518995,-0.052505523,0.066232845,0.031710725,-0.025544567,0.0022419891,-0.14185701,-0.14087589,-0.061107755,0.13542368,0.05323902,-0.11781254,-0.07668404,-0.0038321023,0.02895445,-0.036497783,0.016668946,-0.04346132,0.015463845,-0.13469413,-0.1135191,-0.09860791,-0.03732575,-0.07945387,-0.055312175,0.033403873,-0.088306345,0.009653631,-0.040848807,0.012902817,-0.012239938,-0.07157561,-0.03924868,0.106214486,0.054327074,0.0012779606,-0.003720124,-0.13157539,-0.08183453,-0.10363844,-0.12490764,-0.11420749,-0.12508416,-0.10131563,-0.1889934,-0.037706353,0.029578306,0.104558766,0.15601103,0.050370153,0.03645715,0.05931737,-0.012911406,-0.08373634,-0.10473707,0.031068938,-0.061223026,-0.02337652,-0.05989933,-0.0091628255,-0.09136522,0.07531266,0.16916153,0.120212756,0.07336431,0.013008315,0.0975445,0.03220568,0.11361557,0.089391805,0.13764682,0.0076538515,-0.07418473,0.051486045,0.06837444,0.13179345,-0.03615487,0.041258257,-0.011699088,-0.023252206,-0.068854205,-0.043571122,-0.0834539,-0.10379455,-0.006512882,-0.019270778,-0.2198053,-0.17536253,-0.09595177,-0.10092557,-0.017727112,-0.19530448,-0.21553762,-0.041133817,0.06438483,-0.06591438,-0.040484086,0.010017978,0.06594062,0.020433092,0.0022382883,0.063235536,-0.082687974,-0.09548891,0.021533988,-0.12588948,0.2011832,0.08067206,0.12084453,0.09261304,-0.08155747,0.13139074,0.07323201,0.016272081,-0.04014692,-0.13875595,-0.03899845,-0.07435364,-0.0710428,0.005809844,-0.035332274,-0.06658167,-0.02460917,0.0029795473,0.06364281,-0.024011051,-0.02399085,-0.03735476,-0.19829638,-0.103618495,0.019091094,-0.009759085,-0.20542273,-0.114096686,-0.11649304,-0.011952426,-0.16524194,0.028672762,0.100164026,0.023930827,-0.03073158,0.11714273,0.021803487,0.0026352885,0.090792626,0.02427814,0.11268474,0.06263433,-0.06585207,0.07389082,-0.093100294,-0.17440179,-0.10024615,-0.15855159,-0.08340457,0.017893082,-0.0017443582,0.022797858,-0.015059839,-0.13417651,-0.029792588,0.1561601,0.105381414,0.23489915,0.05163026,0.007613881,0.1125034,0.24318458,0.20904021,0.0153004415,-0.051697195,0.073933825,0.039230984,0.035587054,0.08577068,-0.0048079924,0.025064288,0.016777337,0.084713146,-0.01079739,-0.12504126,0.10427092,0.043817647,-0.031880908,0.06968244,-0.15896413,-0.17535149,-0.1873737,0.012585658,-0.014639186,0.020429574,-0.013764667,-0.11929361,-0.12066318,-0.023611441,-0.03715997,0.064368114,-0.02378823,-0.033380143,-0.028459786,0.03459994,0.15229806,0.034013983,-0.053324692,-0.02461224,-0.06222437,0.026879605,0.02830763,-0.08232515,-0.11601774,-0.11323119,-0.0074158963,-0.052675717,-0.08110019,0.018810894,-0.007878931,-0.08687676,-0.0003077325,-0.07131848,-0.019207852,-0.03878974,-0.0716927,-0.06268736,0.06651726,0.030041637,-0.045592636,0.05933002,0.058271617,0.06738056,0.10155665,-0.047849838,0.110431105,0.013532915,0.033824235,0.08178525,-0.083391406,-0.048961006,-0.036463235,0.061681587,-0.098390594,-0.0036996212,-0.14856048,-0.04553141,0.02666835,-0.09572258,-0.056294803,-0.090544224,0.04283015,0.048956007,0.113416225,0.011777739,0.05454861,0.15692092,-0.044288624,-0.121777765,-0.0405713,0.073156424,0.034295212,-0.046152085,0.038851313,-0.06032399,-0.07794516,-0.108989984,0.007782225,-0.0013955778,0.008862279,0.0006010412,0.03455285,-0.029773965,-0.05762515,-0.051748045,0.0136170965,-0.084099695,-0.05993051,-0.09885583,-0.028060682,0.06393283,-0.036851678,-0.039530285,-0.017184347,-0.057831626,-0.10846194,-0.003097317,0.10637544,0.014597181,0.020041633,-0.056968644,0.029690081,0.07819916,0.046281457,0.1028001,-0.12788872,-0.05470414,0.071505025,0.026054537,0.03252135,-0.15110227,-0.069864854,-0.035550043,0.037966184,0.08034968,0.062010337,-0.0028719578,0.09139458,0.073654436,0.086565256,0.039841242,0.11760521,0.18384212,0.038910985,0.10050971,0.102377586,0.15496105,0.16298312,0.05093918,0.028264958,0.10938699,0.029960137,0.024814926,-0.005854789,0.012535966,-0.015724381,0.026351381,-0.034757484,-0.06486972,-0.11376519,0.11874239,-0.008929592,-0.02041889,-0.009505214,-0.05713326,-0.040166825,-0.0030182085,-0.098746024,-0.091208346,0.06343152,0.036752775,0.0011600273,-0.084021054,-0.091831006,0.017805345,0.04002597,-0.05822214,-0.007638787,-0.057418097,-0.03703014,0.044248756,0.07427914,-0.030930297,-0.07416024,0.007959083,-0.075057514,0.009753389,-0.08539028,-0.07404159,0.031275377,-0.06362985,-0.03877014,-0.097003475,0.039666038,0.08484617,0.060344618,-0.029998474,-0.11576144,0.056866407,0.14545783,0.052583665,-0.09496004,-0.07376237,-0.034961578,-0.0333099,-0.06356288,-0.0032967061,-0.114718996,-0.042775083,0.03017524,0.087130636,0.13748594,0.06921083,-0.1058735,-0.13025506,0.039443925,-0.05800305,-0.08916934,-0.12937798,-0.08063351,0.035639174,0.013857927,-0.13143004,0.01602517,0.057338387,-0.05185733,-0.012390817,0.01257655,-0.01962945,0.032397255,-0.020143144,-0.05357543,-0.036864936,0.048426837,0.02779254,0.0022142339,-0.011840332,-0.14947222,-0.2311875,-0.16801016,-0.035016634,-0.17143178,-0.21504752,-0.116278164,0.08383369,-0.061373226,-0.1880125,-0.16898082,-0.0687644,0.056764215,-0.19538586,-0.19460832,-0.09243766,-0.021388581,0.08656036,-0.1638966,-0.23188524,-0.13288936,-0.013177058,-0.043962747,0.11338607,0.07207932,0.07181019,-0.07140679,-0.087446526,0.019205894,-0.015575656,0.14539373,0.027038863,-0.08235575,0.032060403,0.07673227,0.0495644,0.017142113,0.047890175,0.055789597,0.07885098,0.046745513,0.01781468,-0.054594222,0.05865748,0.03981953,0.06019946,-0.0176843,-0.13235787,-0.065720476,-0.03208663,-0.035912305,-0.14894596,-0.20312014,-0.026451422,0.01589768,0.077051796,-0.09269432,-0.08177619,0.060428422,0.08041936,0.060723502,0.104977444,0.020045092,0.024049666,-0.04263131,-0.04643543,-0.031714607,0.026256083,0.055316035,0.10267439,0.08600094,0.034595814,-0.08272039,0.043839805,0.015434522,0.013505551,0.041873172,0.09795859,0.08352266,-0.09319208,-0.1479555,0.026823064,0.12742087,-0.039542347,-0.052295096,-0.073715396,-0.07497509,0.05001664,-0.07046206,0.020307655,0.0071587227,-0.07631596,-0.09390026,-0.011837068,-0.02404052,-0.033768855,0.019147715,-0.10160859,-0.003234193,-0.0033532518,-0.031899136,-0.1341444,-0.15074618,0.021029942,-0.012255992,-0.110804945,-0.077787176,-0.17073658,0.12784193,-0.1474521,-0.028297042,-0.10624927,-0.060916055,-0.005512928,-0.15309393,-0.11594801,-0.03607726,-0.13339432,-0.0749481,-0.09633618,0.07614193,0.014146919,0.0108033605,-0.103602774,0.0709509,-0.10799709,-0.14275971,-0.0026331306,-0.12453568,-0.05107097,0.030076806,0.031793978,0.09487839,-0.10155917,-0.016739096,0.12196845,0.14126702,-0.024063991,0.032415926,0.00011737673,0.001689709,0.09713245,-0.038121063,0.040442187,0.1664631,0.04041671,-0.06324484,-0.04359484,0.017619522,-0.06966352,-0.06445684,-0.044725467,-0.019922836,-0.11824457,-0.17674433,-0.15219449,0.035500072,0.01358184,-0.13531859,-0.033371888,-0.119599625,-0.17986193,0.009687124,-0.06802536,-0.12803361,-0.16519266,-0.13460015,-0.06765062,-0.08223969,-0.04735264,0.001484211,-0.025440302,-0.15013303,-0.04642456,0.02739095,-0.21701394,-0.008797235,0.056148414,-0.050719798,-0.036497153,-0.16984142,-0.006926959,0.09903114,-0.030637477,-0.06425589,-0.19679447,-0.0589912,0.08102791,-0.040143035,-0.16683398,-0.14127088,-0.00650136,0.062208593,0.0041605886,-0.014782638,-0.037437398,0.06992514,0.16509277,-0.0005603522,0.07575897,0.018112132,-0.17306899,-0.17067009,-0.117588945,-0.111969255,0.060902055,-0.16671886,-0.1553705,-0.03583682,-0.031984944,0.08102933,-0.07354661,0.008807623,0.0019171317,-0.02479369,0.034846727,0.056481916,-0.0023523879,0.0047144783,0.011467164,0.046410274,0.10609421,0.043811273,-0.051027715,0.02247901,0.10220197,-0.0029860958,0.12619993,-0.03316956,-0.036810186,0.02325679,0.088504575,0.05482427,0.0010635662,-0.020722289,0.15057802,0.11002967,0.0071314424,-0.014142876,0.033863448,-0.08930588,0.012632176,0.02216174,0.021621423,-0.012992837,0.051708832,-0.077396885,0.02573395,0.1104092,0.025821233,-0.012156976,-0.0076794145,0.037080415,0.021137258,-0.019018536,0.06899627,-0.036414362,-0.045562968,0.060575787,0.07218907,-0.02913224,-0.0966896,-0.06741876,0.12959494,0.13049416,-0.027021678,-0.047571238,0.11802833,-0.009258604,1.6835875e-06,0.028652234,0.04659246,0.10222241,0.10054302,0.0900694,0.053827427,0.086887285,0.10714911,0.121222414,0.048044357,-0.1094271,0.10889243,0.08102115,0.11717092,0.07590757,-0.13345936,-0.012233877,-0.009378873,0.045186322,-0.076977745,-0.2142198,-0.017869618,-0.010108468,0.06744934,0.054053165,-0.038452525,-0.115131296,0.00092936796,0.022301529,-0.122108735,-0.036282413,-0.088983834,0.0036184972,0.05445081,-0.02839025,-0.061794758,-0.1262094,-0.019916289,0.19587184,0.11054522,-0.046053372,-0.13608973,-0.077126846,0.06747666,-0.11365896,-0.17276274,-0.02909497,-0.019306546,-0.032148022,-0.11684994,-0.06413267,0.077380925,0.114804104,0.0054272045,0.03172627,-0.07159958,-0.051198248,-0.101903476,0.037492644,0.0022120192,-0.0519761,-0.088936396,-0.08067566,0.057989668,0.022628058,-0.01718634,-0.15114947,-0.13414043,-0.02053622,0.06239441,0.08704734,-0.010370854,-0.058681652,-0.0149275055,0.08010585,0.04656714,-0.0035402759,0.020909768,-0.02225014,-0.025071017,-0.069349796,-0.1454382,-0.20853257,0.10005448,0.009916426,-0.01752139,-0.10389394,-0.16092415,0.07519486,0.046128336,0.018043742,-0.023007343,-0.15601617,0.016837027,-0.0036968915,0.06497515,0.0028411397,0.05515447,-0.04097554,-0.099898,0.011173683,0.11370788,0.10132675,-0.15270406,-0.059781633,-0.19254963,-0.09866895,0.023087017,0.025935719,-0.014596684,-0.007183924,0.010759583,0.05400068,0.0825524,-0.06476827,-4.6756395e-05,-0.08209401,0.07792985,0.035354793,-0.091355,0.023006879,0.019318959,-0.008846302,0.012545358,0.018312095,-0.010339164,-0.088303976,-0.006095823,0.14921808,0.06474276,0.05030068,0.12176835,0.20187359,-0.04825293,0.043024234,0.101829685,0.049737766,0.003818762,0.036986955,-0.104482256,0.008329514,0.013093917,0.09327469,-0.23965769,-0.20538168,-0.14962159,-0.11282582,-0.03530591,-0.09703419,-0.035133112,-0.22775781,-0.25881675,-0.13904297,-0.045482736,-0.10547597,-0.114979394,0.001497241,-0.007383686,-0.22212683,-0.08974702,-0.13653974,-0.044953257,-0.025997544,0.004220536,0.09957215,0.012977542,0.042221427,0.041348558,-0.027896978,-0.05062981,-0.00045138717,0.102149636,0.14531428,0.026890391,0.047946267,-0.05793986,-0.018172104,0.043125868,-0.03639792,-0.03873411,0.050465196,0.04432337,0.053308226,0.05598246,0.037577357,0.17581716,0.11873897,0.1106912,0.04698572,0.12481665,0.007432292,-0.06516791,-0.14747837,-0.040395703,0.09816728,-0.034588218,0.035604153,-0.043120407,0.10642796,-0.013894243,0.04117058,0.046901997,0.10093448,-0.050283287,-0.14825255,0.026652383,-0.022547439,0.0005019534,0.060945414,-0.036647487,0.07939235,0.0717525,0.14600581,0.03797724,-0.0557496,0.107227385,0.06890726,0.07363011,-0.15320286,0.010704939,-0.020705849,-0.09181983,-0.0062063537,-0.1154933,-0.06292508,-0.094156094,-0.07015342,-0.06367797,-0.0158758,-0.092192635,-0.04106568,-0.062386774,0.0008474753,-0.091766015,0.0012150346,-0.013361307,-0.059148036,-0.035162482,0.014109325,0.025372755,0.08064315,0.035383794,-0.012557591,0.055101767,0.07901208,-0.06814277,-0.010848018,0.04533523,-0.09535296,0.011062369,-0.13320634,0.04659963,0.09449621,-0.058298573,0.06363608,0.016099501,-0.09169177,-0.042628396,0.038565706,0.00768908,-0.111956306,0.065876916,0.04543624,0.12245762,-0.02293259,-0.054823544,0.020019444,0.010239104,0.11186635,0.010788109,0.07164826,0.06431874,0.123959996,-0.09792786,0.05039215,-0.056882504,-0.028673358,0.068592645,-0.02913483,0.016127693,0.06341289,0.029180415,0.03246875,0.12506483,0.07121902,-0.034496874,-0.03155469,-0.1405446,0.00028481742,-0.09038762,-0.15433234,-0.23085786,-0.2256269,-0.15494977,-0.1735156,-0.22143082,-0.14714284,-0.14938262,0.044370428,-0.11093117,0.021024136,-0.11443836,-0.06897537,-0.033100646,-0.16746812,0.006629451,-0.06749671,-0.10811448,-0.20555396,-0.10178332,-0.06283359,-0.076698974,-0.066268295,-0.09724848,0.054189797,0.052179642,0.09374446,0.08359586,0.122445405,0.23621249,0.06334209,-0.02095397,0.11383146,0.044605482,0.037008442,0.009046229,-0.070481524,-0.0320362,0.0053428626,-0.048742294,-0.033182185,-0.08352738,0.025570918,0.18662292,0.04572149,-0.0037875175,0.021806918,0.002034582,0.0164392,-0.062298886,-0.13033058,-0.11268003,0.050299693,-0.108235106,-0.07314656,0.07735122,-0.004928533,-0.029702788,-0.07711726,0.12674478,0.051355116,0.04457704,-0.060652714,0.033466544,0.07679751,-0.044325985,0.05068836,-0.025552604,-0.042134702,-0.1094286,0.038702298,-0.03165145,-0.042575363,0.00031688472,0.05221552,-0.049233552,-0.08473891,0.04870657,-0.028198732,0.005951745,-0.0744576,-0.10689617,-0.08395493,0.0055974415,0.04248225,-0.08351271,-0.14755946,-0.02182432,0.019617531,0.12017179,0.07340761,0.07864348,0.09551543,-0.089936554,-0.037478007,0.124708675,0.049433593,0.06070364,-0.23882477,-0.14434427,-0.08175722,0.016129829,0.055011626,-0.036105644,-0.06756021,-0.17828657,-0.029723696,0.015277199,0.06508513,-0.029483296,-0.10600288,-0.102169655,-0.14219952,0.087277174,-0.017215917,-0.0051913117,-0.036744766,-0.03511892,0.13449746,-0.02659493,-0.061451275,-0.04862706,-0.052915238,0.16001074,0.1279961,0.05297378,-0.032573063,-0.2589395,0.06620268,0.11207004,0.14251176,0.05726946,-0.18729515,-0.06886669,-0.036127858,0.002057621,0.12114506,0.11905751,-0.01623364,-0.08041788,0.0616948,0.059662685,0.11502277,-0.047585998,-0.10733631,-0.09264452,-0.045441717,-0.025103917,-0.100268506,0.07052821,0.06731215,-0.012746974,-0.024740826,0.0321299,-0.01314946,0.047235217,-0.008113175,0.011041936,0.053317904,0.029490309,-0.18312457,-0.029210784,0.034866307,-0.03723421,-0.083864264,-0.066391714,-0.14104989,0.008751493,0.092135526,-0.043041386,-0.04744828,-0.17283775,-0.06621198,-0.032589763,0.008672777,0.0023286592,0.08650774,-0.029376838,0.015569293,-0.05003641,-0.015761182,-0.020946419,-0.016638584,0.015265877,-0.084609136,-0.15542515,-0.013101609,-0.059882786,0.029288705,-0.110444434,0.029813692,0.13048637,0.035893306,0.051378503,-0.040215187,-0.1475346,0.08680771,0.15431538,0.017628122,0.08231086,0.047826648,-0.077523716,-0.037868243,0.068802826,0.05296655,0.12342584,0.035235465,0.08521716,-0.17640993,0.042555217,-0.006552157,0.037668016,0.04220046,0.20514433,0.116316594,0.06428851,0.005748078,0.089324504,0.04211541,0.074813895,0.070894815,0.017895047,-0.037408117,-0.043685414,-0.002573869,-0.07717826,-0.05318068,-0.19633919,-0.05495453,-0.085370705,-0.051943526,-0.025333162,-0.18385126,0.076364815,0.03886172,-0.053726353,-0.14475514,-0.10595373,-0.061938543,0.0010586987,-0.04271935,-0.036484107,-0.07598009,-0.015351788,-0.12488486,-0.24038269,-0.17795661,-0.16516054,-0.10862174,-0.11486483,-0.15858541,-0.1434858,-0.23306586,-0.069480136,-0.076113895,-0.067354746,0.022582203,-0.11845717,0.055711277,-0.089790374,0.031595014,0.0487766,-0.19531348,0.043063357,0.059903536,0.09631635,-0.079824805,0.036323234,0.06573949,0.15759262,0.03718078,-0.013282317,-0.03568239,0.105152994,-0.007950693,0.011485178,0.068599835,-0.056905806,-0.017079657,0.02569243,0.0246275,-0.073513746,-0.010210556,-0.04127772,-0.083486184,-0.1036863,-0.0512761,-0.040433347,-0.026624577,-0.022208134,-0.11162229,-0.02934261,0.039535183,0.05994757,0.06704658,-0.0040888297,0.016782006,0.0692355,0.16188031,0.10788055,0.09878535,0.05602035,0.0533141,0.0941261,0.116556086,-0.032809433,-0.003301292,0.07590841,0.11245027,-0.00039959853,-0.041434176,-0.01239258,0.039049122,0.07536421,-0.04970492,0.041737583,-0.10901962,-0.035838563,0.055225655,0.022054076,0.045818094,-0.03362119,-0.07719833,-0.03858055,-0.011604452,0.12492846,0.022989545,-0.0072777923,-0.062879436,-0.008645018,0.03888337,-0.023562113,0.026055288,0.023625314,-0.04228078,0.04370795,-0.04095156,-0.052338805,0.007126532,0.08317314,0.08923488,-0.027351711,0.08528244,0.114349835,0.12693733,-0.004845723,-0.13452558,0.01345554,0.123903036,0.056483027,0.04902107,-0.068058096,-0.0452452,0.08985233,-0.06417366,-0.027208788,-0.005110437,-0.041939385,0.035891004,-0.043095082,-0.027592998,0.05041557,-0.03345385