-0.033757754,0.0045557576,0.0022970752,-0.02055182,0.010017638,-0.0150115555,-0.044857405,0.0031376325,0.03607543,0.02288721,0.012562627,-0.039096173,-0.02477167,0.036385912,0.02682691,0.0010483578,-0.02321113,-0.04119023,0.0051768506,0.050385084,-0.052096616,-0.053018223,0.041059084,-0.00483857,0.045800276,0.006549489,0.0059228837,-0.048305333,-0.017534068,-0.0063727456,-0.004558739,-0.008932849,0.008656548,-0.016068136,-0.028831122,0.041908856,0.03421225,0.012977136,-0.030668356,-0.035499025,-0.018659169,0.019533897,0.04246397,0.03412403,0.021917785,0.014192195,-0.029176481,0.026895074,0.040395886,0.0313585,-0.023747351,0.047009967,0.01810342,-0.0365372,0.010372758,-0.02194125,-0.003696804,0.032875456,0.042848635,0.030918343,0.004171204,0.003286055,0.04933733,-0.03928913,0.04238184,-0.013463597,-0.008008789,-0.038728815,0.03512925,0.051964425,-0.0064562648,-0.024833634,0.0061124186,-0.049058594,-0.028636875,-0.035398547,-0.033996243,-0.0021636249,0.033896215,-0.020860739,-0.0012697282,-0.00061239686,-0.018693818,-0.010743864,0.020016342,0.0077026,0.025818454,0.0034981216,0.036382865,-0.027087761,-0.0044424776,-0.005889032,-0.018480336,0.010452375,-0.0072724936,-0.040531334,0.010833874,0.028097976,0.04490685,-0.0036182583,0.0049676383,0.0024684346,-0.05637335,-0.0027509385,-0.038570955,0.038664784,0.0053913635,-0.0020143199,-0.028379623,-0.014267601,-0.05607135,-0.0035081375,0.04621795,-0.008076931,0.03190072,0.011284926,-0.02987273,-0.004917306,0.027929794,0.015986688