0.002505835,-0.035382535,0.004901863,0.027733555,-0.036143,0.037488915,-0.01079013,-0.0045475313,0.005507256,-0.043322656,0.0059121125,-0.0020752205,-0.04013295,0.0065184385,0.045171972,-0.020196086,0.006089676,0.023692077,0.047996867,-0.035632182,0.0032082843,-0.021551607,0.03308741,0.006146627,0.013633757,0.038777545,0.00854331,0.036969207,-0.022810487,-0.035182007,0.022097806,0.0034219143,-0.045367282,0.0020011484,-0.012282076,0.05196378,-0.018403074,0.008922074,-0.005013528,0.024470842,0.029327685,-0.023447659,0.037321385,0.021195887,-0.032228626,0.03930128,-0.0016431006,-0.02725438,0.03128308,-0.022994665,0.0026380676,-0.049997743,0.015255276,0.04129232,0.02126956,-0.0038685515,-0.032060966,-0.034064785,0.011482098,0.051128596,0.049678303,0.008432058,-0.008657321,0.020904161,-0.044626933,0.007755906,0.035076465,0.016457377,-0.03180553,0.03008683,-0.0068602483,0.024704829,0.04146915,-0.03018518,0.034083683,-0.04985812,0.032800034,0.031023337,-0.03631426,-0.006437063,-0.011989095,0.0639912,-0.034550395,-0.0037356133,-0.013523001,-0.030242648,-0.02682129,-0.019050552,-0.042228144,0.027759522,0.02437025,-0.0053370427,-0.01630036,-0.049521405,0.008786037,0.016131269,0.04492147,-0.047303077,0.047585692,-0.020951407,0.0052058534,0.03289483,-0.013254356,0.022908766,-0.04980679,-0.008128648,0.026053369,0.025664395,-0.036612052,-0.044925444,-0.052119534,0.017493647,-0.035101585,0.00067263964,0.028221397,-0.045899745,0.011952303,-0.0437583,-0.004187817,0.05143163