-0.04048645,0.009418095,-0.07012632,-0.0097449925,0.062808014,-0.07246506,-0.08893286,0.017337862,0.010845518,0.04435905,-0.086271055,-0.039881513,0.04470428,-0.04988945,-0.016395982,0.06911197,-0.021345595,0.0009894933,-0.071808815,-0.029168054,0.02312157,-0.0053980225,0.017329538,-0.078712754,-0.08262892,-0.056833953,0.0404165,0.08299165,-0.03279505,0.057606462,-0.033302907,0.046146717,-0.026215432,0.08202375,-0.00044825513,0.01396567,-0.06643044,-0.09122356,-0.049427845,0.013769385,0.014987921,-0.06310077,-0.09020642,-0.03837972,-0.055412803,-0.06544869,-0.06314387,-0.060242813,-0.060793813,0.03937938,-0.046069324,-0.012613841,0.07753344,0.07665467,0.0770587,-0.030435763,-0.025736976,0.0635977,0.06661471,-0.07220488,-0.03826326,0.021160938,-0.023455132,-0.07174389,-0.052814305,-0.023195615,-0.027894868,0.011057336,-0.038206562,0.08192592,-0.006733738,0.015012199,0.083439544,0.071333975,0.023284,-0.087502144,-0.051635347,-0.05990526,-0.0020055638,-0.03015277,-0.036640886,-0.018113425,-0.073228754,-0.078792326