-0.09243668,0.02635541,0.061641775,0.03306965,0.014405696,-0.21288446,-0.07877293,0.19587664,-0.015788825,0.25811112,-0.04246876,-0.2541556,-0.22069457,-0.106830455,-0.13590705,0.02498074,-0.06732364,-0.022128833,-0.17259607,-0.0922645,0.16190869,0.022174625,-0.058110267,0.187907,-0.08844848,-0.03677682,-0.05059157,-0.02463055,-0.18814665,-0.15363578,0.087166786,-0.103653036,0.008336311,-0.2514398,0.036539726,0.05619291,-0.14222649,0.09598419,-0.16117737,0.25663987,0.10705197,0.18326688,0.17507315,0.1406331,-0.063954994,-0.18068933,0.08182316,0.15549381,0.14024499,-0.13902955,0.027428316,0.1280339,0.04773464,-0.0045345305,0.02529178,-0.015441149,-0.09567573,0.08779301,0.17700303,0.055793367,0.09490658,0.24718565,-0.17018887,0.05607878,0.032594584,-0.0812777,-0.20549716,-0.06829203,-0.118827604,-0.21382469,-0.19892424,0.021511197,-0.13986515,-0.044130206,-0.012954689,0.053523134,-0.17451885,-0.15829958,-0.10553954,-0.00422475,0.073783316,0.105109125,-0.117745526,-0.107126005,-0.042520672,-0.05263517,-0.08213417,0.09173882,-0.25992614,-0.20326295,0.20765446,0.20323285,0.15751137,-0.021014016,0.0776588,-0.14194676,0.22718552,0.015614647,-0.13417962,-0.15316534,-0.09294881,-0.22460988,-0.11642123,-0.16462217,-0.018161153,0.19710498,0.08739929,0.1553556,0.0747412,-0.10543668,0.14373852,0.09351094,0.20355973,-0.0037491415,0.015168946,-0.04368431,-0.078372374,0.13163157,0.026861614,0.14328393,-0.15015228,-0.20875466,0.039070036,-0.105827354,-0.050637078,0.05703067,-0.045132034,-0.14015487,-0.10590499,0.13470136,-0.20989966,-0.05435388,-0.21919034,0.10521111,0.06138168,0.0069686696,-0.11875116,0.08424427,0.18472886,0.022723202,0.06395904,-0.1499816,-0.11052364,0.2007597,0.14746039,-0.15753073,0.06585412,0.01563228,0.17811218,0.14263561