0.10035467,0.08810057,0.070917,0.091879815,-0.041832995,0.02795785,0.029575264,0.0068662497,0.035277653,-0.10495167,0.05194738,-0.0543727,0.029471787,-0.09476481,-0.08016309,-0.119685404,-0.08982964,-0.009782161,-0.14114982,-0.15359636,-0.0135206105,-0.043921497,0.0010663151,-0.06405,-0.039487846,-0.103548266,-0.13624518,-0.061911274,-0.030465174,0.07169181,-0.021245625,-0.045067377,-0.054853696,0.04129932,0.036002237,-0.037172016,-0.026691934,-0.012429897,0.051777363,0.045570172,-0.022048462,-0.04660543,-0.06360744,-0.098933734,-0.03217208,0.031142982,0.0023971775,-0.08076255,-0.07194488,-0.16838877,0.028883673,0.032498892,-0.1012204,-0.06753246,0.0015628308,-0.060625933,-0.025028184,-0.08292729,0.052755434,-0.07328876,0.01659141,0.011053196,0.050364904,0.0762073,-0.021852665,-0.10606809,-0.028361285,0.00015856567,-0.049533643,-0.11334041,0.041870423,0.04831837,-0.05845854,-0.045025587,-0.07315669,0.006265858,0.08026649,0.07257921,0.013105984,0.028881414,0.037695963,0.114760205,-0.019101677,-0.025518525,0.03130133,0.11409615,-0.02175775,0.03277655,0.02142172,-0.094294496,0.03341604,-0.027747925,0.04622825,-0.0794692,-0.03784899,-0.07296142,-0.013591445,0.06904715,0.014972516,0.06916993,0.09047212,0.079715304,0.0010484857,-0.0017416966,0.0015694516,-0.11703819,-0.01207277,0.055664014,0.071510755,-0.041799724,-0.09321162,-0.13010237,-0.01581467,-0.10917739,-0.12185614,-0.061633352,-0.119099244,-0.05101079,-0.14970084,-0.17443629,0.037090484,-0.02214106,-0.056362513,-0.07196477,-0.185778,-0.09078329,-0.011519492,-0.056645107,-0.036295637,-0.06218385,-0.004412806,0.038783934,-0.075674765,0.057666615,-0.038756125,0.06271938,0.01433144,-0.031308472,0.08456685,0.08709745,-0.084996395,0.039933126,0.11515842,0.05359612,-0.008278348,-0.066249065,-0.026735473,-0.028467624,0.039836083,0.025771352,0.0010785477,-0.08279345,-0.08384271,0.029917419,0.111326374,0.027571978,0.081958026,-0.029196912,0.03885021,0.018374722,0.12381583,0.020459235,0.054607566,-0.036153954,0.038659025,0.0034645556,0.03587589,-0.029634569,0.14322922,0.124011815,0.08710641,0.13094072,0.053702373,0.1261566,0.09655799,0.056641433,0.0721705,0.01740368,0.025232198,-0.10663892,0.018878324,0.058478013,-0.04780045,-0.016190697,-0.04435246,-0.020583276,0.08704181,-0.027638534,0.015010716,-0.019116364,0.037138443,-0.01867134,0.039203532,0.0068589766,-0.0823597,-0.1168619,-0.04474381,-0.019153953,0.011550316,-0.019903196,0.055911094,0.035773035,0.10905797,0.06570649,-0.026019918,0.1582618,0.109156504,0.062198166,0.04757972,-0.114647165,-0.014393386,0.04029765,-0.063181505,-0.0023324653,-0.008818814,0.013911501,-0.03195636,0.004074231,-0.0036079865,0.09679426,-0.032595716,0.002931121,-0.008714359,-0.048036255,0.002783592,-0.12075758,-0.017134544,-0.042525023,0.049504094,0.07074099,-0.013954867,-0.058117293,0.03759307,0.050741505,-0.055556834,0.00064935716,0.030086648,-0.022638217,-0.050939225,-0.056766655,0.05646989,0.08497137,0.09328919,0.047874056,0.009378061,-0.027641999,0.028376812,0.08102313,0.1177611,0.105390206,-0.040751576,0.019243306,0.031517364,0.029569197,-0.044538494,0.09208751,0.06818048,-0.008257573,-0.14641166,-0.17830521,-0.018536767,-0.13459572,-0.027445776,-0.07495529,-0.06001598,-0.090528384,-0.0876732,0.00092128635,-0.053068817,-0.017546088,-0.089678235,-0.056537997,-0.012235179,-0.0030198847,0.027516484,0.07295326,0.010948807,-0.008961903,-0.0009326734,-0.03629862,-0.08977611,-0.06060993,0.08001412,0.093933254,0.10073063,-0.12072007,0.05238414,0.081495054,0.09172163,0.038061153,0.10952125,0.08691542,0.03773966,-0.00090385997,-0.10992633,0.008738017,0.0062093493,-0.048549782,0.048487328,-0.08438901,0.015905553,0.033075172,0.007571577,-0.033703748,0.032638334,0.023665762,0.039132908,0.012847225,-0.02434454,0.12539789,0.1652916,0.06452281,0.13142756,0.035257604,0.16893895,0.1384324,0.14182614,0.16331783,0.0042192084,0.11102023,0.061744433,-0.07494011,0.0025547636,0.052745096,-0.015166714,0.021902809,0.008923768,-0.017011741,5.3731696e-05,0.05270866,-0.004340791,-0.09214872,0.025534824,-0.033943713,0.046398014,0.008722461,-0.03528437,-0.06738445,-0.15320255,-0.16198604,0.09100121,0.071312405,0.081098296,0.027053729,-0.035830177,0.020697968,0.06941559,0.060863186,0.100668326,0.00062229135,0.005371376,-0.068288215,-0.012794734,-0.008391437,0.072169244,0.11974485,-0.024817003,-0.02760567,0.027830811,0.041877102,0.09458451,0.114160925,0.071591094,0.1033888,-0.031180784,0.08035009,0.14563191,0.11794824,0.03659828,-0.029663254,-0.1020637,-0.10299637,-0.02281666,-0.10462863,0.033924825,-0.06498114,-0.019010456,-0.026799569,-0.010862696,-0.0984128,-0.06983627,-0.08804828,-0.007425308,-0.026100902,-0.0041609206,-0.0548756,-0.028413454,-0.006733381,-0.070600614,-0.01892553,0.017512089,-0.07322847,-0.011157362,0.014204064,0.009706859,-0.037442587,-0.06930597,-0.06397554,-0.005853282,-0.036787856,-0.089705706,0.005973982,-0.05360163,-0.07468592,-0.03825304,-0.028253628,-0.05559678,-0.020581085,-0.079734415,-0.08092179,-0.07314337,0.025642438,0.050162487,0.0016347609,-0.0025784418,0.05050009,0.06887241,-0.011174308,-0.08717172,-0.0071729235,-0.022859152,0.039316848,0.03527793,0.051578693,0.032291055,-0.047628783,-0.0047354405,-0.014765848,-0.004848661,0.070899576,0.051189464,-0.009781751,0.07070212,-0.009820165,-0.063461795,-0.12576737,-0.092822686,0.02201222,-0.059179656,-0.06565709,-0.0721313,-0.06518557,-0.06731128,-0.06257767,0.024328107,0.1067673,0.06848219,0.041060787,0.12759703,-0.044512775,0.07887447,0.077476904,-0.053712532,0.06789639,-0.0018584346,0.032405797,0.12025583,0.01501506,-0.03614003,-0.06352624,0.0369358,0.1581322,0.052234463,-0.13470472,-0.07871656,-0.11694951,-0.108101554,-0.12314091,-0.034533717,0.04183322,-0.059475802,-0.11386463,-0.13021092,-0.111618675,-0.08107489,0.09169649,-0.024225218,0.01450438,-0.080150366,0.0466447,0.06120355,0.10513986,0.0052659335,0.07545095,0.102215126,0.07194276,0.056965128,-0.00025312442,-0.009477582,0.003012827,-0.011879558,-0.023186784,-0.085353285,-0.10779257,-0.040023487,0.07222296,-0.080861375,-0.020960808,-0.014149979,-0.00889899,0.066744015,-0.08342799,-0.10889977,-0.006080369,-0.09616825,0.0034944473,-0.043691665,-0.07726335,-0.13131964,-0.021783536,-0.04063099,-0.032155644,-0.087047115,-0.020172536,-0.09912408,-0.029994152,-0.099437654,-0.029826304,-0.01922512,-0.10821664,-0.091155335,0.0059765233,-0.021795144,-0.038504243,0.041974075,0.082447335,0.07984268,-0.0111075,0.14146997,0.054047666,0.17196532,0.056282636,0.029397793,0.10904857,0.00051802665,0.20993765,0.05459238,0.09973568,-0.029268539,0.016066281,0.12105798,0.028832931,0.001114271,0.00790704,0.030053403,-0.044781256,-0.006350666,-0.021232268,0.015936155,0.09287813,-0.03916145,-0.03499864,-0.082984164,-0.02145154,-0.0290602,0.08523501,0.07702516,0.046114277,-0.02623373,-0.108689435,0.10253191,0.06651157,0.035926573,-0.053455103,-0.08426184,-0.033709195,0.011502261,-0.008144372,-0.03910104,-0.05138978,0.061018966,0.04946396,0.06791692,-0.035232272,0.040691234,-0.04700894,-0.0021942444,0.10977933,0.018297585,0.037373647,-0.07307533,0.022063883,-0.022921586,0.0559634,-0.082802005,-0.11412513,-0.019238017,0.051790383,0.024135701,-0.08128506,-0.043669097,0.029478697,0.0065986374,0.12366109,-0.030998517,-0.06687911,0.011531352,0.042779073,-0.012132877,-0.044441786,0.0700476,-0.033098143,-0.008968604,0.09864094,0.11219483,0.07513218,0.0518866,0.105267145,0.086135976,0.038979523,-0.022550372,-0.09619251,-0.043493465,-0.045202635,0.0015123647,-0.19806483,-0.08180863,-0.10028223,-0.11387136,0.053705722,-0.10361146,-0.073366486,-0.047881417,0.04174569,0.06702551,0.076759465,0.022206983,0.008522868,0.011887602,0.025707334,0.008235094,-0.060459044,-0.000335791,-0.093804546,-0.09196701,-0.04165344,-0.017899564,-0.12899157,-0.11424691,-0.035375476,0.025611756,-0.10407113,-0.12251722,0.044063017,-0.024065599,-0.059970967,-0.06614666,0.0671904,-0.017320847,-0.02170014,-0.025473822,-0.08391212,0.06403413,-0.030107124,0.07174681,0.035749465,0.07680337,-0.02137237,-0.0064420532,0.062199537,0.000550015,-0.081604205,-0.06990412,0.043884415,-0.037085354,0.07638518,0.0012730586,0.072733,0.06906757,0.005928194,0.07661965,0.056593645,0.057385355,0.009890149,0.12844399,-0.083543755,0.017746251,0.086205006,0.061290056,0.007886174,0.117921196,0.10386542,0.023598598,0.0685515,0.022328008,-0.05579144,0.043044325,0.026059799,-0.020531453,0.016039908,-0.0014500199,-0.13199705,-0.16347015,-0.13489117,-0.057540864,-0.13504907,-0.018165125,-0.10664968,-0.017772576,0.04263423,-0.026377844,0.081498735,-0.017698122,0.017459728,0.09782358,0.08408701,0.005398664,-0.06251141,-0.056695916,0.07676692,-0.048027,-0.07389316,-0.084992565,-0.09005703,-0.058269296,-0.066393964,-0.012027503,-0.13197769,-0.13379261,-0.00036685553,0.0041877152,-0.019981356,-0.08566371,-0.012134669,0.050092973,0.01166024,-0.038324278,-0.07137388,-0.067285106,-0.016386073,0.06886226,0.10053832,-0.024064576,-0.005753538,-0.021651229,0.08138156,0.057194144,0.08750604,0.04057514,-0.031527303,0.004463195,-0.008889921,-0.004061337,0.045871176,0.026490266,-0.12638856,-0.13072751,0.09761475,0.006926744,-0.0519809,0.06649314,-0.058187887,-0.06641244,-0.11532397,-0.047273718,-0.11127559,-0.06494212,0.0119449,-0.0036748108,-0.055809125,-0.081446245,-0.080387086,-0.05524819,-0.0082383165,-0.009378931,-0.008061362,-0.061323095,0.05127393,0.05982115,0.059174757,0.12930135,-0.017805742,0.070354156,-0.01077359,-0.04130977,-0.013391754,-0.0019706516,-0.0053337216,-0.04162129,0.06983728,-0.031324085,0.022309005,0.110974915,-0.0037769387,-0.002497473,-0.04241171,-0.1059139,-0.07763917,-0.039810874,0.08813836,-0.13814579,0.017265175,0.09172307,0.15080626,0.04718004,0.031807177,0.1036672,-0.012177477,-0.08496572,-0.14828038,0.09487337,-0.046740133,-0.0059527853,-0.0027240666,0.066228144,0.0026897804,-0.03364484,0.08417088,-0.0046127983,0.004642968,-0.10362307,0.0181428,0.09039988,-0.08530486,-0.031015001,-0.123623714,-0.039184358,-0.026840298,-0.11649785,0.011392339,-0.0945655,0.020445833,-0.018206453,-0.011178907,-0.049683955,-0.057726484,-0.023039794,-0.06930167,-0.066045135,-0.003055762,-0.13556367,-0.020351434,-0.08242215,0.07285411,0.024235401,0.0030586831,0.024888214,-0.075339645,0.000539872,-0.11039247,0.08314353,0.03215147,0.031056866,0.036789134,-0.06173165,0.056470897,-0.0011346247,0.029766453,0.013380192,-0.014135724,0.02295081,0.001394485,0.039030965,0.1008925,0.01711908,0.08940106,0.011445195,0.109209105,-0.010019423,0.09505385,0.03809917,-0.011399505,0.039784595,0.09964086,-0.0030048708,-0.05978574,0.021839911,-0.07830617,-0.013574196,-0.034921955,0.059984982,-0.04365482,0.10040716,0.096089475,-0.017451528,-0.0934932,-0.14364934,0.06260084,0.0013902064,-0.078182936,0.048668075,0.06646057,-0.0915494,-0.17230938,-0.09133257,0.017392976,-0.0018307872,-0.017622113,-0.11579668,0.045866832,0.0042094155,-0.06668801,-0.096192434,0.070757,-0.049451273,-0.040056713,-0.049532518,-0.023384405,0.009080039,0.013319284,-0.04594943,0.08041815,0.11651479,0.09262573,0.03747137,0.0024690935,0.008122654,-0.045979492,-0.03931983,0.012817593,0.08093223,0.13186245,0.057409182,0.063347295,0.08150867,0.03940212,-0.04332396,0.031941906,0.032204647,0.08404039,-0.06173117,-0.06926577,-0.07157574,0.02701149,-0.11137812,-0.10487941,-0.10398959,-0.060639787,-0.020646416,-0.06260253,-0.109024465,0.0030278198,0.008029995,0.07786897,-0.032939646,0.05075752,0.06786442,-0.011913595,-0.029040825,-0.009534896,-0.036363885,0.06690377,0.0721779,0.083634265,0.07950881,0.0012733493,-0.012131946,0.079957634,0.05904639,0.029991446,0.051873412,0.0025566968,0.01676203,0.03253705,0.0493238,0.090339854,0.050939217,-0.110440396,-0.111641586,-0.050752666,0.09654286,0.035110723,0.10299223,0.10612676,0.041445844,-0.063588746,0.08398058,0.055135995,0.00061929977,0.053504366,-0.025352387,-0.07522295,-0.12288735,0.07280528,0.03742363,-0.027672684,0.016520891,-0.08869513,-0.1349347,-0.16740139,-0.035246372,-0.06516193,0.0027354427,0.13543864,0.044749424,0.025306514,0.004836924,0.04406142,0.06832151,0.014178742,-0.15098998,-0.054432694,0.013655368,-0.022055985,0.004967933,0.041255325,-0.056469858,-0.05012794,-0.07061447,0.026662853,0.03645213,-0.0033709442,0.04215683,0.0017583524,0.0361705,-0.050324436,0.09782644,-0.009119506,0.010110383,0.10059633,0.038540993,0.0632565,0.03502838,0.064552896,0.008330429,-0.05395418,0.079708256,0.07117617,-0.03685169,-0.022498237,0.012949229,0.025158195,0.06401233,0.03554817,0.10740501,-0.12932657,0.043919235,-0.016062321,0.025697056,0.036180135,-0.06788318,-0.036269348,-0.06528097,0.07620698,0.111784644,-0.054646324,-0.08758248,-0.079335235,-0.097504094,-0.10996995,-0.11405659,-0.048372954,0.04359818,0.08100878,-0.030418314,-0.10811392,-0.062364522,0.024953766,0.0014823229,0.081678584,0.10683965,-0.020538464,-0.08254069,-0.060609292,-0.13763143,0.021781776,-0.13683566,-0.08295287,-0.14141424,-0.04284468,-0.123323075,-0.11728162,-0.07076985,-0.0775941,-0.041676793,-0.09189282,0.089597546,-0.05299306,-0.009227752,-0.0033396136,0.030975815,0.09054092,0.06303316,-0.12245731,-0.058288403,-0.049843803,0.13731155,0.07168371,0.08333266,-0.008768792,0.051169336,0.027891753,0.08998612,0.01904149,0.07458391,-0.07477081,-0.03718155,0.064906396,0.03913187,-0.029832883,-0.00853363,-0.07984676,-0.05451406,0.07831578,0.028267093,-0.044337433,0.024697207,0.020475822,0.13791586,0.05094131,-0.023104697,-0.040430613,-0.009940554,0.017448496,0.0110422075,-0.024518043,0.03455392,0.021326667,-0.0913682,-0.02850239,0.04518271,-0.1340087,-0.13122818,-0.067793965,-0.11516278,0.06265919,0.03241626,0.03156192,-0.11972245,0.050023068,0.05312626,0.0041243806,-0.030954808,0.030845162,-0.10263653,0.004969607,-0.028431725,-0.058982138,-0.0979519,0.0082236165,-0.04758556,-0.12225366,-0.14648423,-0.0904408,0.02385485,-0.083447345,-0.0035219465,0.09428314,-0.044247933,-0.006094787,-0.045399632,-0.027584424,-0.023417516,0.06468645,-0.020214982,0.10048622,0.036761235,-0.026150279,-0.013241536,0.019340878,0.028080883,-0.059930615,0.045931768,0.097066656,0.089358084,-0.0068869875,-0.056667708,0.010334207,-0.06980072,-0.011020227,0.069688275,-0.04848952,0.009312178,-0.015177605,-0.039073817,-0.081678055,-0.038899478,0.07251056,0.13677818,-0.04158061,-0.034386937,0.05704318,0.022145497,0.007554583,-0.038304668,-0.087278076,-0.12871829,-0.037322607,-0.037424188,0.009860093,-0.0052628536,-0.07227869,-0.055822056,0.03168446,-0.017448926,-0.009531962,-0.055518027,-0.09795339,-0.06464382,-0.053275052,0.07650325,-0.060631305,-0.11537599,-0.064597085,0.021849971,-0.08992363,-0.01519731,0.0022645195,0.0016724168,-0.048755284,-0.10096648,-0.07233581,0.0023220398,0.08313423,0.07566046,0.034234457,0.0393914,0.098504364,0.0206173,0.046652094,0.051710106,-0.027825726,0.0340079,-0.047462966,-0.1184957,-0.030437736,0.070322275,0.01864061,-0.083233245,0.114758216,-0.011054015,0.049524084,-0.03449294,0.017553573,0.09779329,-0.05717869,0.015933197,0.063686445,0.06618589,-0.09952708,0.019256212,-3.2916098e-05,0.07224942,0.022154769,0.014852419,0.08736033,0.02603185,0.0006283521,-0.022360737,0.047764197,0.02392953,-0.00048556947,-0.084557034,-0.11681459,-0.02907757,0.106873944,0.0056384075,-0.057917442,-0.025854157,-0.06602398,-0.034357958,-0.034811422,0.096451886,-0.0067738923,0.10796145,-0.08837197,0.100225024,0.023872638,0.16768743,0.019258592,-0.06923363,0.02369663,-0.17644542,-0.11230804,-0.15728012,-0.15328687,-0.103123665,-0.15742953,-0.051339317,0.0481583,0.014718369,-0.047200862,0.13415107,0.023600584,0.089725286,-0.1352174,-0.030992426,0.045478776,0.06678296,0.10484873,-0.022483727,0.06528184,-0.013822768,0.0016222183,0.01697382,-0.028848873,-0.065951124,0.0665978,-0.07490601,-0.040994648,0.009018684,0.0059864027,0.016821228,0.04817084,-0.10502769,0.08766509,0.068997465,0.011156807,0.049792923,0.055434555,0.08496045,0.0027469862,0.034732614,-0.013653055,-0.0021531144,0.15782459,0.13707165,0.0008325803,0.060206972,-0.11455285,0.033894848,-0.013487728,-0.031968463,0.003263024,-0.045973204,0.07511359,0.06162573,-0.04587068,0.017023047,0.023444626,0.030309731,-0.070283175,0.019438548,0.007660848,-0.00025885302,-0.06268781,-0.01767229,-0.0399509,-0.110964574,-0.036722276,-0.047235996,-0.013033215,-0.112083964,0.0091951955,0.0026076592,-0.077953935,-0.03473908,0.068170875,0.018632662,0.12418861,-0.046132863,0.02261825,0.057142794,-0.024177596,-0.009941475,-0.15034962,-0.14792277,-0.0612711,-0.12223609,-0.16170572,-0.13185984,-0.0048955875,-0.12517755,-0.03266821,0.01739071,-0.007558715,-0.027882706,-0.13709617,-0.19975156,-0.053544503,0.03894946,-0.10439045,-0.18673597,-0.15923983,-0.026878625,0.09259109,-0.057098523,-0.05686416,-0.020685801,0.016798586,0.024490723,0.020238943,-0.011122409,-0.0365286,0.08594396,0.034906056,-0.021751547,-0.047074236,0.047233064,0.021447329,0.038163647,0.05994536,0.081015304,0.0023478027,-0.01307205,-0.07894276,0.013173217,-0.052181885,0.10000823,-0.02546961,-0.13588297,0.017684016,-0.01600563,0.075442106,0.11128296,-0.04100424,0.044902533,-0.008679209,0.1302887,0.086128324,-0.120624766,-0.15351729,-0.061781105,-0.0016314724,-0.04428793,-0.09270048,-0.18343168,-0.14500318,-0.042636774,-0.01533611,-0.085069835,-0.11897069,-0.009346021,0.043668654,-0.044264536,-0.06874042,0.03699657,-0.0050879745,-0.082870476,0.11345715,0.04952518,-0.011554382,-0.09226963,0.029279584,0.049191296,0.04794224,0.072759636,0.08719386,-0.04899873,-0.012180743,0.045682855,0.029410955,-0.102737844,0.059246987,-0.04162042,0.057984043,-0.028688842,-0.116351046,-0.054519102,-0.06326252,0.11802993,0.14576893,0.057188302,0.07051795,0.015150781,0.10416781,0.060583312,0.060859106,0.06316539,-0.027870573,-0.0039996677,0.0027663412,0.0053797374,0.061785247,-0.025407623,0.0182352,-0.013633741,-0.09159201,0.03552999,-0.008870037,0.0414707,-0.0063338554,-0.08486667,-0.07365299,0.06314684,0.0020726633,-0.02444271,0.0106972335,0.12654285,0.019436885,-0.03818139,0.075130925,-0.04052303,0.06267781,0.066347145,-0.019819202,-0.08494746,0.0050404007,0.0135692675,0.026130969,0.05548342,9.056882e-05,0.046629734,0.05083373,-0.028274912,0.04908268,0.010067267,-0.03483967,-0.06595084,0.08067416,-0.11584331,0.019409498,-0.044261668,-0.13320202,-0.07119855,-0.03532172,-0.013405881,-0.082378745,-0.18969601,-0.0896019,-0.06516931,0.035258126,-0.06568784,-0.053526323,0.072537616,-0.06865132,-0.0182522,-0.124631606,-0.009668627,-0.030351043,-0.03985137,-0.025958858,0.0050196564,-0.027872166,-0.095665775,0.13699356,0.009093004,0.06818993,-0.11383466,0.019361861,0.12593636,0.113391034,0.008121862,-0.039217927,-0.053149063,-0.013487717,0.051525217,0.01220484,-0.06638963,0.013453189,0.015798183,0.000307892,-0.078054585,-0.0068392516,-0.05160036,-0.03211657,-0.061182484,-0.06644444,-0.0461219,0.0054358603,-0.067826405,0.055122543,0.0362043,-0.13075939,0.025226897,0.096006215,0.16165009,0.1111612,-0.04143842,-0.101107195,0.04879663,-0.04419643,-0.0028882734,-0.06457847,-0.10225278,0.037318822,-0.09738964,-0.13538589,-0.051796224,-0.036726344,-0.011504347,0.004349197,-0.028166965,-0.09052965,0.08591485,0.10673041,-0.053930186,0.047221597,0.020324716,0.04716696,0.08747024,0.09438763,-0.08619207,0.05511967,-0.021365367,0.033186436,-0.02622116,0.08376709,-0.07069489,0.06252157,0.049971193,0.00036891008,0.119527765,-0.0030216374,0.08365074,0.020716904,0.041519374,-0.021895781,-0.09298871,-0.003404399,-0.1135279,-0.042472728,-0.10773019,-0.1149275,-0.10614752,-0.010291256,-0.042304352,-0.11461322,-0.1299077,-0.030056166,0.023067627,-0.001894566,0.04186883,0.06686731,0.11713638,0.020547865,-0.06782408,-0.018681467,-0.03850319,0.06750629,0.006222993,-0.080866866,0.010811043,0.029172603,0.0074862656,-0.024630237,-0.0035702717,0.057308316,0.020519057,0.027510462,0.090083845,0.1261732,-0.055148724,-0.0035528883,-0.025464443,-0.04627289,-0.008416006,-0.012420004,-0.021896554,-0.12476539,0.034870706,-0.03195448,-0.025103444,0.022366146,-0.092414945,-0.038027547,0.0015021708,-0.121169895,0.12589164,-0.1399151,-0.0027813693,-0.12679404,-0.07960062,0.01686432,-0.06472136,-0.051400702,-0.052012842,-0.0042001717,0.02353366,-0.106104866,0.15670957,0.042081106,0.051518526,-0.064731814,0.022803558,0.10285848,0.140553,0.13744792,0.13684848,0.07778683,0.1010954,0.019816073,0.15119235,0.19745757,0.036749274,-0.0019391732,0.065428235,-0.021889795,0.13419233,0.17201859,-0.06849348,0.11930811,0.013950269,-0.026730902,0.041496724,0.10063209,-0.011331299,-0.050871547,0.02441965,-0.0039430084,0.06521991,-0.034141768,-0.093485475,-0.032233793,0.01187322,0.04806427,-0.041373767,-0.035137422,-0.062570356,0.04765057,0.025150824,0.061682455,0.09379423,-0.005865904,-0.07572964,-7.249224e-05,0.0365051,-0.0052849688,0.044229444,0.08840013,0.06638182,0.06370284,0.074041255,-0.026900709,0.006539389,-0.066348,0.028280014,0.018800694,0.0177328,-0.09419851,-0.1338335,-0.026823202,-0.11617776,-0.0015112637,0.06873951,0.039873976,-0.021587558,-0.015723614,0.1383704,0.14688511,0.07809569,0.069002576,0.100863546,0.010014993,-0.030935762,-0.010247092,0.061592013,0.04289967,0.03344084,-0.0042867893,0.034172256,0.1045158,0.08023221,0.07716069,-0.074463695,0.10383721,0.090532854,-0.02136203,0.015433797,-0.06323592,0.014635978,0.081485584,-0.04937799,-0.0044440296,-0.00045479607,-0.010147974,-0.002714493,-0.045567174,0.0040263217,-0.095447004,0.091594286,0.038128287,-0.0123012755,-0.031142587,0.00655836,0.06887086,-0.1245844,-0.0916142,0.054378036,0.098110676,0.03483405,0.0022403332,-0.16834222,-0.045208327,0.023439184,0.010688802,0.0005180658,-0.0649378,-0.12927683,-0.03123709,0.020621378,-0.062933326,-0.04347916,0.051608942,-0.036206197,-0.09089438,-0.009126712,0.07749069,0.041315638,0.011492005,-0.0483603,-0.061639566,0.012396687,0.083221465,0.10911041,-0.031140253,0.03679571,-0.02615715,-0.08947292,-0.046499595,0.044346996,0.036335,0.030006059,-0.09425885,-0.02936043,-0.124217436,-0.10984163,-0.01720812,0.017940108,-0.003797916,0.03580861,0.013180601,0.031843558,0.07011445,-0.010043091,-0.01054342,-0.0035116686,0.059448708,0.0019371636,0.12098108,-0.0046414253,-0.018747663,0.03469255,-0.01931861,0.006034596,-0.1462592,0.009597022,0.06818511,-0.041324984,-0.06417154,-0.116267525,-0.05063131,0.019073682,-0.032267433,-0.010890978,-0.03320981,-0.070230626,0.05765116,0.054014176,-0.038961872,0.050169364,-0.07846125,0.0011340574,0.102196984,-0.07366039,0.12670298,-0.04284538,-0.038130607,0.11419032,0.0885604,0.030102551,0.09559704,-0.12750028,-0.022105578,0.041990723,-0.1096615,0.025642764,0.040378265,-0.082580924,-0.08136311,0.058707017,-0.09185169,-0.15766759,-0.07150164,0.025593447,0.034153745,0.10166032,0.003081684,-0.15191711,0.075250976,0.007662376,0.06994348,0.076151714,-0.088529624,-0.039475072,0.0033403174,-0.00029155903,0.011499704,-0.019302247,-0.16138792,-0.0064175143,-0.0408994,-0.01605409,0.021048024,-0.034686558,-0.025251055,-0.076488234,0.02816852,-0.0733041,-0.13793959,0.06180946,0.057220876,0.0505978,0.0021688126,-0.08194194,-0.013131637,0.11992732,-0.062390003,-0.06051068,0.058230236,-0.07789904,-0.009420539,0.059979845,0.083997615,0.07028117,-0.049973205,0.01442191,0.025506021,-0.04051724,-0.05486198,-0.00921253,0.035031423,0.06821389,-0.039661534,0.07650713,-0.055065703,-0.1016974,0.015958903,0.13210678,-0.021806752,-0.11673831,-0.045865614,0.044630278,0.121435076,0.06881549,-0.050653644,-0.09975046,-0.06892739,0.104049236,0.061162066,-0.11879639,-0.048228428,-0.079078466,0.032969717,0.062293936,-0.12275176,0.04991495,-0.037264965,-0.0484178,0.08371525,-0.05746457,-0.06295319,0.034048334,-0.030371873,-0.00058228336,-0.07470917,-0.0009971623,-0.034991965,-0.05368862,-0.026948314,-0.06969366,-0.003703822,-0.0023636452,-0.08808076,-0.043233868,0.040925764,-0.041135,0.036957357,-0.038192715,0.008675658,0.038938414,0.03966908,-0.026940659,0.039751142,0.044328906,0.045330178,0.004371464,-0.121921934,-0.010916103,0.03372161,0.046830162,-0.04271125,-0.12302351,-0.050935373,-0.089452624,-0.0546898,0.0023431832,0.030519173,-0.011327859,-0.051028784,-0.075926386,-0.07154752,0.08964599,0.07315492,0.078751735,-0.032316756,0.030720234,-0.028654383,0.020562865,0.050682697,0.106362924,0.101824775,0.0371577,0.04678463,-0.029105276,0.0035235346,-0.07635576,-0.077653155,0.041658606,0.076916166,-0.15745525,-0.12902275,-0.08885293,0.07951599,0.03993512,-0.010818354,-0.00026311516,-0.026518878,0.028913146,-0.02376113,-0.14232695,-0.07236784,-0.009913843,-0.13680889,-0.089579076,0.01903407,-0.012298274,-0.033877727,0.0667878,-0.003229236,0.06618709,0.037054792,-0.030477183,0.0032283408,-0.039826695,-0.03360589,-0.08698495,0.019331228,0.009365264,0.06837272,-0.0336853,0.052268703,0.15266061,0.088436656,0.06725737,-0.012584751,-0.08884819,-0.027154155,-0.039118655,0.08854024,-0.048946936,-0.08283178,-0.0705415,0.08127199,0.1096358,-0.0919976,-0.0057841777,-0.016645381,0.047216795,-0.06836703,0.020437825,0.12482796,0.048436753,0.041806802,-0.0047124783,0.016246205,0.112534285,-0.01209273,0.038313843,-0.008584793,-0.11740209,-0.14233474,-0.044815846,0.0154907955,-0.05658929,0.052883886,-0.016146384,0.03488974,0.042908136,-0.044888265,0.10643311,-0.022294462,0.0013447353,0.007919228,-0.13108152,0.075091325,-0.10566832,-0.042908527,-0.13264912,-0.08098496,-0.1634808,-0.14872146,-0.034474447,-0.04729861,-0.05034579,-0.007959768,-0.004019398,-0.040304597,0.007853619,-0.08736543,-0.11156298,0.03498266,0.039061867,-0.022934433,-0.020278972,-0.066383086,-0.11158281,-0.05823359,0.030098049,0.024997946,-0.10992019,0.03484409,-0.0346073,0.00047368492,-0.015693033,0.04710071,0.053511262,0.09958883,-0.08459704,-0.17677104,0.018886583,-0.0044772057,-0.004006363,0.085271314,-0.06909671,0.007543665,0.012381876,-0.029071031,-0.07251847,-0.11814703,-0.05587685,-0.062452994,-0.021858245,-0.2057683,-0.07682775,0.05034972,-0.021294044,-0.12554403,-0.034257162,-0.07739683,-0.030304335,-0.101140805,-0.055250015,-0.019950883,-0.00039746723,0.062367387,-0.100421,-0.10006673,-0.06256338,-0.001154871,-0.03774901,0.031499837,0.04722178,0.028634954,-0.06716709,-0.09878098,-0.03851359,0.04609772,0.055292774,0.0616042,0.039298452,-0.024331396,0.090017885,0.07137747,-0.014475955,-0.001776099,-0.020805264,0.07758139,0.0012652113,0.03627992,0.11191987,0.02496666,-0.012359301,-0.0006694542,-0.050935216,-0.051702023,-0.008235597,0.027421633,-0.006415929,-0.064520344,0.037281495,-0.14371188,-0.0050211344,0.058070667,0.07992629,0.04186069,-0.03258023,-0.040895633,0.14764181,0.12681927,0.08147233,0.05732697,-0.046945393,0.04475349,-0.06504144,0.090646245,0.16855535,0.1521715,0.068888776,0.15356,0.045034237,0.04341686,-0.030958587,-0.12025098,-0.10044885,-0.025741328,0.022220157,-0.10387474,-0.036822062,-0.07007235,-0.0730019,-0.08869666,-0.024846995,-0.09006959,0.020514302,0.004159393,-0.063018,-0.02673565,0.009164855,0.06610267,0.049604807,-0.0069729122,-0.049456898,-0.029717086,0.046849,-0.00964691,0.0044357376,-0.038581505,-0.11082174,0.10196008,0.028172854,-0.039328065,-0.1542546,0.07128915,-0.024138505,-0.07923704,-0.116777346,-0.1389965,-0.0058396324,0.102363795,0.06410727,0.06864296,-0.060351558,0.1130475,0.017442603,-0.054255344,0.043115538,0.048259538,-0.06659912,0.07003206,-0.04252894,0.032702897,0.0055944575,-0.0006009263,0.03944218,-0.0062533575,-0.008732154,-0.10798119,0.017732197,0.03570333,0.07088684,0.067483924,-0.058457647,-0.015725292,-0.098666765,-0.034441676,0.07444228,-0.06979637,0.0070462567,-0.12373343,0.0055016526,-0.03931946,-0.024669895,-0.005598625,0.0078421505,0.026178641,0.0306559,-0.021736814,-0.0098093795,0.042670377,0.040063445,-0.027568733,0.043579493,-0.022526816,0.012676864,0.114810266,0.040676925,-0.03535559,0.0674605,-0.029573359,-0.03435861,-0.008666176,-0.029166246,-0.06725867,-0.101691976,0.04355181,-0.027752437,-0.092620246,-0.059337575,0.06656107,0.048041224,-0.08736061,-0.084990725,-0.04138078,0.069139,0.024388643,0.0056901197,0.04529809,0.08389126,-0.081377506,0.03672978,-0.015108426,-0.0068021,-0.032073893,-0.12229699,-0.110554196,-0.10477695,-0.15819338,-0.12455128,-0.15375024,-0.14019059,-0.14406434,-0.16532788,0.010806571,0.042886693,-0.048882797,-0.10843426,-0.0039231274,-0.00020628073,-0.03528608,0.05422466,0.080628075,0.07333076,0.061134472,-0.05496043,-0.022530463,0.07217639,-0.008648193,-0.071109526,-0.014426301,-0.0077836737,0.064040296,0.05483438,0.004519641,-0.006590456,0.07201593,-0.046484243,0.020725857,0.040878505,0.053419035,-0.010019232,-0.06762526,0.016994819,0.021769455,0.023123771,0.028668085,-0.020868741,0.035701703,-0.07990132,-0.0070174094,-0.012612888,0.07450374,0.025249861,-0.09159194,-0.078655265,0.031092077,0.056976404,-0.07128839,-0.15129413,-0.11670538,-0.10696777,-0.066531315,-0.24225567,-0.15069395,-0.049779773,0.014895685,-0.052466944,0.04139736,0.035413712,0.08672126,0.04496824,0.059338126,0.07387479,0.071704976,0.051034674,0.11271532,0.17553085,0.17373614,0.10593542,0.086288795,-0.011853738,0.053328097,-0.035629634,-0.01970928,0.022157114,-0.0045558047,-0.009901087,-0.043792438,-0.021667793,-0.04703456,0.019972168,0.041774344,-0.05539655,0.017383618,-0.07154394,-0.046475135,0.036748603,-0.017082622,-0.09965481,0.049081862,0.08337321,0.017988538,-0.07964065,-0.00434355,0.037867337,-0.010331162,-0.029055534,0.03869405,0.056824017,0.064262606