-0.0124697,0.014286006,-0.034619834,0.010523666,-0.015949108,-0.049553286,0.022104457,-0.04408956,-0.046729308,0.0163929,-0.0370841,-0.049659885,-0.033194266,-0.015789213,0.057020757,-0.030394845,-0.026617128,-0.028881097,-0.035874385,0.04388644,-0.0082659,0.010373209,-0.01979982,0.038799357,-0.038904127,-0.008597769,0.017668825,-0.026896654,-0.025648145,-0.011040853,0.027505469,-0.011237692,0.010452806,0.04919775,-0.009686448,-0.011015629,0.04665557,0.0008220124,-0.02186139,-0.03127807,-0.033100855,-0.034017675,0.01757929,-0.01087884,-0.004153009,0.020953536,0.02886196,0.035351973,0.00803316,-0.015856298,0.036713324,-0.004210844,-0.03939025,0.047829855,0.02984913,-0.030488258,-0.02460222,-0.02099472,0.0002039633,-0.03723898,0.015431295,0.01638627,-0.0043314896,0.011025647,-0.03125017,0.017002152,-0.013735596,0.030931838,-0.027068973,0.0186182,0.027278153,0.014893002,-0.0007981081,0.019235486,-0.023007648,0.0054211025,-0.032636832,0.0106989825,-0.028057257,0.03689835,0.0034767962,-0.043578506,-0.017184976,-0.044370197,-0.033051122,-0.02429538,-0.00073520734,-0.038124293,-0.042287488,-0.0036164583,0.03170127,-0.0054894094,0.022863507,0.046697572,-0.011512641,0.022168359,0.001989277,0.041111328,-0.03994695,-0.04329064,0.020739937,0.05033331,0.028722018,-0.017118644,-0.018378243,0.020175489,-0.015869418,-0.03810263,-0.034432866,0.04827707,-0.035390887,-0.021712337,-0.03545571,0.025929626,-0.042019874,0.02669087,-0.048202932,0.017728409,-0.042449944,-0.0057452903