-0.040672697,-0.11350255,-0.07110961,0.072176896,0.038187083,-0.02554534,-0.031582016,0.051487923,0.045206666,0.010705129,-0.05987511,0.0016224975,0.027234476,-0.023488179,-0.051756594,-0.022588274,-0.030767018,-0.09058728,-0.06400839,0.007558601,0.064988114,0.0060889213,0.07187829,0.009201324,-0.051046103,0.029224012,0.08909048,0.06509091,0.037217986,-0.033770494,0.09523202,0.16425009,-0.057139333,-0.047214653,-0.049503632,0.036649227,0.040076964,0.06893666,0.080879636,0.039293308,0.06886632,0.021552589,0.06951164,0.08131442,-0.031332158,-0.03891281,0.06755751,-0.032718036,0.021478673,-0.010132731,0.07272038,0.042258974,0.012851436,-0.055250343,-0.06189603,-0.0085700145,0.016363988,0.049326785,-0.03779695,0.0086894175,-0.0029212476,0.03098482,0.026864823,0.032186184,0.039787937,0.06379804,0.06780219,-0.05235542,0.016127575,0.015685907,-0.0026206519,0.02669147,-0.056802105,-0.031508666,-0.039287496,-0.0654639,0.053664938,0.09899573,0.0052744765,-0.032015786,0.01660774,-0.09680152,-0.026292346,0.029898481,0.06935615,-0.01839091,-0.08940017,-0.036745507,-0.102591656,-0.02020376,-0.07874392,-0.05118439,-0.04192904,0.05738788,0.047847606,0.043519426,0.03135974,-0.08929222,-0.031154392,0.08256686,0.05374904,0.015947089,0.10262242,0.14871645,0.16242673,-0.028482962,-0.041413285,0.059339188,0.06394103,0.06558405,0.017667573,0.04950031,0.011609969,0.043721832,0.024677273,0.02710273,-0.015345013,-0.009702555,0.023343123,0.0015379321,0.030472599,0.075729065,0.0517784,-0.031866737,-0.066862494,0.09080161,0.031662464,-0.08621775,0.021345323,-0.015796915,-0.012644548,-0.097806714,0.055238545,-0.06630439,-0.08181843,0.042201664,0.03562562,0.03844522,0.009843615,-0.06139516,-0.07345014,-0.00942965,0.05227906,0.06401018,-0.039610084,-0.02747574,-0.014029789,-0.011362955,-0.03572303,-0.021252355,0.025491234,0.0132544665,0.07987496,-0.0349809,-0.08412362,0.03434045,-0.026584884,-0.044248786,-0.00468158,-0.08670263,0.034934618,0.019959847,0.04518079,-0.08824879,-0.032175597,0.036397483,0.041999552,0.043277025,0.046528112,0.01944112,0.039597873,-0.03308632,0.008881025,0.023048585,-0.03491546,0.03161021,0.051686168,0.01970216,-0.014501976,-0.019696329,0.039567284,0.06881367,0.09079876,0.051832397,-0.07731267,-0.0068128635,-0.05577199,-0.040972896,0.0758821,0.06547206,-0.096875496,-0.010194049,0.02636836,-0.0039581866,0.007976078,0.005575255,-0.04010653,-0.014660249,-0.01691619,0.05309916,0.015276178,0.014760874,0.04333307,0.046520744,0.084829845,0.07781334,0.14016831,-0.031205954,-0.058896028,0.02376409,0.06982498,-0.021700494,0.030951245,0.07786004,-0.048567448,0.052950803,0.023929676,-0.040349815,-0.087725855,-0.016618682,-0.07176001,0.05370704,0.01380326,0.0051961197,-0.030135749,-0.054560084,-0.1228977,-0.017671142,0.029269435,-0.013696343,-0.06694023,-0.07550315,0.06646812,0.07440787,-0.043455396,-0.036451142,-0.14476067,-0.09573623,-0.07678564,-0.010989647,-0.05672399,-0.085481256,0.015549392,-0.01508858,0.014085241,0.0010815171,-0.06837187,-0.019735757,-0.03997386,0.024995228,0.0040774103,0.060677763,0.022537537,0.07910264,0.036693744,-0.0030283849,0.01773061,0.07435678,-0.04545308,-0.11657406,-0.09466123,-0.00042949145,0.010126195,-0.042907108,0.028567344,-0.043594327,-0.03377359,-0.037203867,-0.01385447,0.016560383,-0.108106166,-0.110812664,-0.067193665,-0.05034953,0.03177119,-0.0052370494,0.10269213,0.012006325,0.13993731,0.0015883243,0.03780329,0.07285556,-0.051413015,0.0023044392,-0.017199058,0.033351418,0.042184487,-0.013426711,-0.05055201,-0.018098172,0.0020774943,0.023992496,-0.0041269995,-0.06536481,-0.043505665,-0.009839196,0.024242736,-0.030417547,-0.060658094,-0.07577578,0.031161359,0.016935969,-0.00093069574,-0.024032813,0.029587757,-0.10285101,0.012121837,-0.011491675,0.016572634,-0.059227563,0.009885494,-0.041034516,0.0261777,0.014638706,-0.047094677,-0.011737667,0.040962458,-0.0033168388,0.061554268,0.017979715,-0.0014712501,-0.07004101,-9.290248e-06,0.01825249,0.07682067,0.037846196,0.13628337,0.009859487,-0.0071219313,0.04276159,0.0056347484,0.02638562,0.105492,-0.011884555,-0.06165527,0.041650705,-0.029342458,-0.036937058,0.0068531027,-0.013990436,0.017714782,-0.030834204,0.029952755,0.058730338,-0.0168712,-0.11904537,-0.10550569,-0.06651159,0.0029995998,0.023227295,0.044721257,-0.03723519,-0.05852863,-0.05553839,-0.024360137,0.048229497,-0.012132284,0.043787573,-0.018526783,-0.086304784,-0.094762444,-0.02302063,0.062264502,-0.012530883,0.00224704,-0.04499815,0.024024796,0.05312404,0.014571952,0.0019142302,-0.0026543748,0.022880245,0.02202725,0.012340319,0.04874225,-0.01670384,0.021683075,-0.030066233,-0.032287493,-0.10786839,-0.082546525,-0.039240647,0.038718514,0.008964015,-0.036883898,-0.0767177,-0.024216298,-0.018862246,-0.0011374298,-0.05356102,-0.035942208,-0.07328207,-0.037961327,0.04556,-0.043184143,-0.0876152,-0.04249227,-0.09960798,-0.03268961,-0.091164514,0.061898272,0.015089909,0.011949266,-0.063793845,-0.022228036,0.06871707,-0.001075112,-0.042789184,-0.03743911,0.023044545,-0.0072100395,-0.07235979,0.0039165737,-0.031975057,-0.022655077,-0.018757358,0.030443328,-0.052277364,-0.06408112,-0.05326117,0.11031883,0.027425205,0.02263017,-0.04924904,-0.024952779,0.07103057,0.13215268,0.21018393,0.023032675,0.107900575,-0.09296511,-0.04417773,0.031008208,0.057949133,-0.0061260234,0.043029167,0.0064406875,-0.068173654,-0.005601448,-0.024273,0.005674612,-0.06397911,-0.031837877,0.036339596,-0.04808595,-0.023777014,-0.021298805,0.021877319,-0.024477242,0.00058890576,-0.010370454,0.07152121,0.08990356,0.071816385,0.08276153,-0.06748653,-0.014065848,0.02165085,0.058134187,-0.043914758,-0.037067868,-0.0023185636,0.0014419169,-0.05281434,-0.042549122,-0.014446294,0.021301614,0.032583766,0.053305566,-0.055706766,-0.014601518,0.015073536,-0.013667079,0.0041451463,0.03652078,0.036306836,-0.09438302,-0.12745945,-0.028642302,0.024143826,-0.012596385,0.054816082,-0.122039944,-0.024198605,0.050984103,0.065152206,-0.07649331,-0.0315537,0.012683273,-0.004038924,-0.0030088285,0.013175698,-0.02568192,-0.008200778,-0.09654274,0.0012774676,0.036608644,-0.048228085,-0.045764025,-0.048365127,-0.045289453,0.14092271,-0.082719475,-0.091081336,-0.099184595,0.005423829,-0.05003999,-0.018695056,-0.02084641,0.054449067,-0.0016589507,0.03267952,-0.050672196,0.09024673,0.047249295,-0.011802674,-0.03512636,-0.051035028,-0.036800567,-0.04277535,0.021770274,0.08170744,0.0019957917,-0.030855915,-0.04614784,0.06538734,0.017271025,0.05314243,0.03890369,-0.02342243,-0.0056429375,0.06748215,0.06924472,0.067060135,-0.031619254,-0.03158783,0.018342327,-0.04458372,0.050906673,0.019986786,0.0066877618,0.054753713,0.035671808,0.08912426,0.10325676,-0.012869703,-0.026768357,-0.015079936,0.008456318,0.0795503,-0.012926189,0.047933817,0.15667705,0.1591204,0.12105304,-0.08713199,0.016951052,0.04857058,0.057322204,-0.05458529,0.040189493,0.07212505,-0.012089374,-0.09608309,-0.119428135,0.0014179143,0.018818177,-0.018939236,-0.019089382,-0.020559434,-0.012936921,-0.01563512,-0.028713621,0.017473841,0.0702177,-0.101333894,-0.046606466,-0.0189582,0.016038036,0.07524749,-0.015555656,-0.010153318,0.05264431,-0.03314902,0.036301456,-0.009583076,0.050437503,-0.009696188,0.0039227717,0.09450137,0.026694858,-0.05703181,-0.018790826,0.09221311,0.070171006,0.025847107,-0.04793948,0.08901597,0.018429358,0.010489987,0.037772868,-0.025808673,-0.09110585,0.07081078,0.026007969,-0.019447401,-0.029407563,0.014939808,0.0018933297,0.06731148,-0.06211846,0.020871995,0.04169057,0.008594083,0.047336664,0.04656286,0.04426281,0.0057332935,0.034852337,-0.013561758,-0.027712274,0.02354067,-0.04298638,-0.094730616,0.0019633025,0.057617746,0.019222926,-0.112095,-0.027176017,-0.0524249,-0.026258348,-0.032502647,-0.09347567,-0.0775377,-0.048285317,-0.027980251,-0.10807623,0.00064137403,0.03895674,0.010242365,0.005719821,0.013699156,0.0021631713,-0.021627186,0.013757885,-0.016905507,0.0074439524,-0.0063841003,-0.042360354,-0.03705336,-0.036027856,0.004370192,-0.018789347,-0.021821352,-0.044567976,0.045602627,-0.01056908,-0.016781028,0.097474605,0.03881875,0.002580893,-0.0014626575,0.022945097,0.021800168,0.04947606,-0.015527232,-0.0015232,0.04216146,-0.039818507,0.037194785,0.0174542,-0.018890806,0.012483207,0.05593149,-0.034108486,-0.03947747,-0.0018828185,0.037093394,0.10319724,0.05374948,-0.016627084,-0.012367536,0.084432766,0.014276535,-0.0365194,0.010850169,-0.020456271,-0.08379215,-0.06371563,-0.112858064,0.023939384,-0.02866985,-0.08067514,-0.08511281,-0.030301793,0.0027893614,-0.021217154,0.0021813607,-0.016172426,-0.010923056,-0.051120732,-0.015854102,0.08717569,0.13791433,0.04850463,-0.043572184,0.07695843,0.08525221,0.068209834,0.105658755,-0.042336974,0.080736354,-0.09821384,-0.16090934,0.0030447706,0.0016841906,-0.034787923,-0.052812837,-0.11451903,-0.031693064,0.0062410356,0.011042327,-0.005012363,-0.012487871,0.0010074611,-0.052290123,0.016262531,0.01984427,0.10244789,0.06737467,-0.067401364,0.0023280228,0.042975895,-0.0043998663,0.05222176,-0.028619492,-0.024148263,-0.038193144,-0.017939826,0.0231865,-0.050502542,-0.052400384,0.011173407,-0.05253508,0.085773915,0.027730355,0.0029001485,0.066265814,-0.0032775493,0.04488772,0.04792447,0.06496756,0.062349956,0.08406711,-0.066580765,-0.053529684,-0.13369386,-0.046757832,-0.08027154,-0.010058068,-0.10054882,-0.072545424,0.028300242,0.0948655,0.058862288,0.08199588,0.0703875,0.020282103,-0.025816847,-0.03682878,-0.0065716445,0.062275693,-0.021970512,0.0002789598,-0.043728895,-0.022058599,-0.004391922,0.027375592,0.067664206,-0.017456789,-0.009918926,-0.013455283,-0.060577102,-0.010235337,-0.049030427,-0.08057823,-0.052873977,-0.017814599,-0.03993936,-0.09316605,0.0050916476,0.043692466,0.018708242,-0.072811455,-0.00022144188,0.020920865,-0.002025914,-0.03594976,0.0415126,0.015465061,0.025446342,0.0066291834,-0.04610974,0.076803714,-0.009344536,-0.054278772,0.0022683528,0.092762,-0.056309495,-0.07308539,-0.0058431583,-0.019801011,-0.028899046,-0.03747756,-0.09399316,-0.024969472,-0.05065524,-0.032101117,-0.043755606,-0.025371151,-0.03701426,-0.007878911,-0.00017822719,-0.007748723,-0.004180479,0.0036418296,-0.06682562,-0.14413214,-0.031796508,-0.0319876,0.080653824,0.00590026,-0.015152784,-0.044452514,-0.0512966,0.041060526,0.035681922,-0.025685174,-0.033711594,0.032519598,-0.02258824,0.009900169,0.023134558,0.0047989534,-0.005475117,-0.00014046744,0.011572532,0.030236311,0.039135173,0.0053034876,-0.029920341,-0.06415796,-0.053197604,0.022222253,-0.0021404286,0.02793113,-0.066007994,0.015004259,-0.10152076,-0.03563592,0.058933925,0.056197915,0.008949047,-0.0026599988,0.050625745,0.031574212,-0.031524856,0.023901066,-0.030805435,-0.011382988,-0.011790049,0.06049889,-0.022514686,0.016183494,-0.01859355,0.050532084,0.10203428,0.010973743,-0.0063975593,-0.10277111,0.0040335935,-0.0077157407,0.044038426,-0.05693491,-0.018668838,-0.04665121,0.08406943,0.009281212,-0.007842057,0.027348543,-0.07338515,0.027617,0.08705803,0.015981521,-0.0069302646,0.0484066,0.030256618,-0.07629328,-0.067952186,0.03783997,-0.0211157,0.0065178717,0.11192521,0.091045395,0.0002667651,-0.01904263,0.08997554,0.05165671,-0.051546264,-0.028909417,-0.04384525,-0.062270418,-0.069528945,-0.05298968,0.009656596,0.03753064,0.040985517,0.02526398,0.08459403,0.08514553,-0.041926466,0.05291279,0.08157932,0.029693626,0.005743871,-0.031406365,-0.100242846,-0.06542263,0.060279056,0.11589356,-0.08813478,-0.041858397,-0.047146305,-0.06622568,0.031874362,-0.058447376,-0.0682861,0.019706216,0.10730104,0.03614068,0.056214906,0.08073159,0.039875068,0.021002447,0.011460726,0.09725591,0.011325224,-0.005383716,-0.02902231,0.024765132,-0.034413766,-0.045822036,-0.10700739,-0.0901312,0.025357008,-0.0019587371,0.002443001,-0.019239757,-0.015132388,-0.009161466,0.057482325,-0.01885769,-0.017742498,0.057802852,-0.060331613,0.083736524,0.05698859,0.010290463,-0.016317168,0.03886131,0.007133104,0.0026669689,-0.020450432,-0.08422175,-0.040394492,0.02040461,-0.022942191,-0.1010716,-0.009684141,-0.004149857,-0.030938106,-0.11189767,-0.12064484,-0.03862545,-0.043448154,0.012387627,-0.03006328,-0.0715337,0.049610462,-0.028606348,-0.049431626,-0.002010516,-0.042516373,-0.03084098,-0.012675249,0.038943246,0.04102801,0.07033783,-0.04364626,0.012867251,0.010549051,0.045030706,-0.005586368,-0.12284031,-0.02458452,0.030303327,0.040421348,0.012368592,-0.022054983,0.027522016,0.06583616,-0.027726779,-0.08963954,0.052142754,0.06063987,0.01179478,0.07776018,0.1090775,0.05836878,-0.0631276,0.057364073,-0.04778525,0.01597979,0.024329958,-0.048610985,0.035056822,-0.09527193,0.091378234,0.031999096,-0.0412655,-0.06972068,-0.011947149,0.039315272,0.006148079,0.01532092,-0.0126248915,0.01632181,-0.038625058,-0.03991446,-0.02551412,-0.03217555,-0.049688563,-0.054790612,-0.018684303,0.058537733,-0.017850103,0.050524335,0.00746005,-0.0058963634,-0.040232413,0.0837848,0.13294117,-0.004606246,0.05731162,0.001319152,0.013965904,-0.035268478,-0.047914002,-0.093327545,-0.011307628,-0.003739094,0.019940611,-0.04894633,0.06496081,-0.0053437194,0.034809474,-0.03349234,0.0014177779,0.05113303,-0.0067108455,0.015716959,0.027903007,-0.032771815,-0.011048967,-0.04379468,0.021426886,0.06567716,-0.058719892,-0.076130815,-0.105929814,-0.05129505,0.06867882,-0.04356678,0.022957943,-0.053133048,-0.020227354,0.040240962,-0.035565253,-0.033078603,-0.031247575,-0.013329398,0.0050197006,-0.01117859,-0.021275759,0.0030524596,-0.065240376,-0.0013133513,0.019102694,-0.020059178,-0.06754096,-0.020625548,-0.010244117,-0.07996784,-0.0856088,-0.05949729,-0.013275379,-0.06608632,-0.0068893144,-0.0022219052,-0.07603368,0.026463715,-0.054051146,-0.034512803,0.0045109745,-0.05037662,0.009545958,0.025891138,0.04233314,-0.036545515,-0.04106239,-0.046398558,-0.057043348,-0.047658373,0.018614775,-0.0060528866,0.023393549,0.010118686,-0.071248844,-0.040541396,0.02083872,0.057281777,-0.061367206,-0.15167163,-0.12525368,0.022029918,0.04603192,0.004437807,-0.0027550717,0.023275955,0.008938842,0.023195524,-0.020289224,-0.02564516,0.035296835,-0.05828122,0.0129962675,-0.026132282,0.09801815,0.007864014,0.01874978,-0.14910056,-0.10783984,-0.10473437,-0.06370992,0.113481835,-0.026239244,0.057716817,0.04669611,0.19811183,0.117115736,0.023526352,0.0020925885,0.014138936,0.034838017,-0.05755716,0.022601806,-0.01726678,0.06876606,0.04625255,0.0036268868,0.02281153,-0.0028040248,-0.0028696836,0.001802373,-0.047230918,0.05000454,-0.016517527,-0.075629644,0.026203608,0.010079352,-0.06553048,0.027022004,0.05723325,0.009566995,0.03934522,-0.044159893,0.026322015,0.04950432,0.08065367,-0.021623615,0.036569364,0.016790865,0.026655074,0.072412945,0.015611473,-0.007448285,0.03682809,-0.042663094,0.008897573,0.033831026,-0.008589852,-0.011535233,0.09100343,0.065559246,-0.062432826,0.117517896,0.043431178,0.068724096,-0.052374706,-0.009933686,-0.0151696,-0.08377673,0.025287058,-0.023696167,-0.00787154,-0.057465587,0.0003764227,-0.011314415,0.023418756,0.014454407,0.08657403,0.01422221,-0.019760262,0.04825529,-0.021852992,-0.0458447,-0.0032698908,-0.10531041,-0.008166377,-0.052130178,-0.024796404,-0.0152977705,0.084218375,0.008848645,0.0061037433,-0.020512579,-0.070441395,-0.047876984,-0.12331898,0.08461285,-0.05099336,-0.022612117,0.042220253,0.05914696,-0.028026331,0.049320724,0.08832998,0.021988923,0.06471587,-0.032830097,0.0108535085,-0.018470127,-0.05476768,-0.0133879315,0.04548773,-0.14970961,-0.059929095,0.0412977,-0.018014798,0.12411552,-0.045676935,0.007107178,0.002863394,0.10022509,0.028832328,0.047744658,-0.008003282,0.03964574,-0.056778498,0.0013234264,0.06880229,0.005084608,0.04192635,-0.05653662,-0.055175524,0.06826054,-0.041864656,-0.023982162,-0.06242008,-0.117208,0.041870307,0.032982063,0.0745671,-0.028513867,-0.11737246,0.09459184,0.003573966,0.049556114,0.036911517,0.041346624,-0.026159903,-0.048983723,0.026466763,0.031145781,-0.016287407,-0.063587025,0.010002973,0.008668633,0.07865524,-0.032263286,0.019244144,0.093834974,0.056133855,0.053371888,0.03918109,-0.001225528,0.097043075,0.030283373,-0.07706154,-0.10523406,-0.16839576,-0.056679115,-0.07644026,0.059883226,0.106219046,0.036234397,0.076909825,-0.06526763,0.053081166,0.04088937,0.06422287,-0.006518757,0.09731156,-0.057565045,-0.04904413,-0.015856666,-0.072717264,-0.051997453,0.055453945,-0.04715101,-0.07304197,0.013616006,-0.0049993596,0.023187516,-0.010664142,-0.003399764,0.009984031,-0.024620842,0.050947182,-0.046721913,0.024709832,0.038084935,-0.03798433,-0.029311882,0.003450073,-0.017819183,0.024708536,0.008420979,-0.02609349,-0.06794684,-0.06590516,-0.0349417,-0.06771607,-0.034314524,-0.038690347,-0.13340202,0.015289313,-0.023462856,0.05933237,-0.0071795247,-0.04489368,-0.043677356,0.020703062,0.022224285,0.06291709,-0.0067597814,-0.042530086,0.005492128,-0.06791651,-0.013926836,-0.0060293577,-0.004516601,0.00604905,0.015449215,0.025904683,-0.07720334,-0.10402515,-0.0910272,0.048993595,0.024778374,-0.0035906828,-0.02992346,-0.015685862,-0.020541046,-0.054537185,0.033976607,0.04705348,0.020752605,-0.04136804,0.01648362,0.0716368,0.033170085,0.029422136,-0.04155211,0.01271275,-0.101804785,0.048769135,0.008893183,-0.0048579173,0.013549444,-0.0795611,0.06028186,-0.035457306,-0.12387161,-0.06218231,-0.09987636,-0.0053120023,4.2984568e-05,-0.036253106,-0.001866797,-0.04958439,0.08606624,0.017012984,0.04062191,0.042290825,0.040872496,0.0014830548,0.034277663,-0.06365439,-0.08808084,0.05912567,0.026630346,0.0120016225,-0.044387683,-0.086608216,-0.0061869123,0.040713936,0.013359877,-0.0074347355,0.017897237,0.05461398,0.06774225,0.03868751,-0.005127441,-0.043896638,0.103242606,0.11341595,0.021983847,-0.08524268,-0.037517168,0.017147264,0.024138276,-0.028632158,-0.06320299,0.05766345,-0.17996217,-0.052840453,-0.026027372,-0.032248553,-0.008995981,0.028060125,-0.04271944,-0.052497037,-0.10523019,-0.01181687,-0.04473651,-0.10024548,-0.018489124,-0.05124087,0.036685523,0.056395363,-0.027124401,0.10010061,0.04477991,0.027639344,0.019553958,0.026740009,-0.06801273,-0.02798963,-0.07488368,-0.0021691343,-0.033182833,0.029596789,0.038967285,0.041098192,-0.023583295,0.028852044,-0.07036296,-0.03712299,-0.07973564,-0.12313696,0.032637954,-0.012399225,-0.030852327,0.006032733,0.006784542,-0.015747532,-0.023058359,0.022193532,0.01967738,0.05188324,-0.000170018,0.0145707065,0.011308832,0.010528721,-0.039277513,-0.018241916,-0.029517151,0.012784466,-0.0063662385,-0.13378544,-0.056948554,-0.010221316,-0.07316749,-0.117516324,-0.13247576,-0.05619477,-0.067704864,0.0037623388,0.018267289,-0.06553752,-0.059444685,-0.0025794771,0.039982185,0.011181965,0.008025636,0.05600476,-0.12695304,-0.07030606,0.0064026234,0.008744782,0.05801399,-0.06976998,-0.13028128,-0.004487904,0.086035125,-0.04072663,-0.018218426,0.056869574,-0.051995296,0.03423681,0.07730078,0.004674715,0.002374351,-0.08844258,-0.047036868,-0.09371559,-0.055784464,0.0789454,0.05396109,-0.034554653,0.06514619,0.04323854,0.098338015,0.02854797,0.024487587,-0.032081634,0.07390244,-0.0033901362,0.018138807,-0.042878855,0.040246904,0.02498585,0.04401889,0.1327273,0.09209915,-0.04318455,0.042989794,-0.0232314,-0.030713785,-0.0052663214,0.054442022,0.012609315,0.029946908,-0.10702131,-0.033832047,-0.062098797,0.04466849,0.027887842,0.05475087,-0.011751806,0.02529126,-0.07272946,-0.07703089,0.028975595,0.0012898741,-0.046632815,0.065203235,0.036384728,-0.083170764,-0.035289124,-0.023843596,-0.07304233,-0.09816217,-0.0014272131,0.05616919,0.026502937,0.019263744,0.02897177,0.005276771,0.08557821,0.028358316,0.041087255,0.013732812,-0.04009982,-0.051155075,-0.04305449,-0.01702974,-0.038971305,-0.06817461,0.00159303,0.052511927,0.044657584,0.06313762,0.007190668,-0.028818063,0.03699072,0.048896067,0.043508846,0.03605704,-0.08859517,0.08162042,-0.028211745,-0.039169602,0.09281582,-0.05829697,-0.03807391,0.0481073,0.13205665,0.08595845,0.010176382,-0.00431473,0.041379213,0.020643372,0.021580946,0.054498762,-0.037470702,0.018798806,-0.029666089,-0.07109913,-0.023904089,-0.032778002,-0.036477774,-0.0013898847,0.051882915,0.040279087,0.05822208,-0.014593379,0.03443309,0.0034402604,0.058565546,0.030515477,0.035724837,0.013696272,-0.0030456565,-0.016522491,0.0003455439,0.08321011,0.08108495,0.012628486,0.009495011,0.0001741311,0.003949619,0.014868262,0.026299348,0.060118232,0.08421896,0.050354026,0.013765231,-0.07162424,0.041409716,-0.023418097,0.06490095,0.020391911,0.034735978,-0.043130115,0.08379276,0.033580925,0.040577844,0.06607535,0.0951821,0.02425613,-0.060954,0.015012294,0.0153225735,0.027539268,-0.015213302,0.031268273,-0.041915163,0.004289221,0.0073018763,-0.059175413,0.061897717,0.031510938,0.01595411,-0.031306922,-0.020583544,0.1049539,0.10384756,0.02838098,-0.021650674,0.0010820033,0.03193511,-0.012672288,0.033665236,-0.03476383,-0.047589757,0.015041276,-0.008050299,-0.002375161,-0.010049274,-0.12885234,0.059701983,-0.05587387,-0.022662096,0.12822287,0.013188778,-0.03019412,-0.0060353316,0.034673665,0.046655964,0.10692326,-0.030785108,0.056771904,-0.013138477,0.076504745,0.0820109,0.041249942,0.015978944,-0.037013747,0.04674051,0.09374563,-0.09109124,0.0313247,0.07500919,-0.180701,-0.12188673,-0.027023751,-0.049918257,-0.031448077,-0.12084903,-0.043428656,-0.04824356,-0.023136463,0.07039196,-0.06560877,0.058170725,-0.034485452,0.0004949483,0.027755225,-0.03369085,0.036566287,0.020683786,-0.027481083,-0.028957475,-0.027383527,-0.011478407,0.060327772,0.0005386336,-0.067092285,0.016836945,-0.05295004,-0.039638527,0.00228999,0.005747935,0.08033619,0.054708365,0.0061287074,-0.0013238519,0.0023822782,-0.06498112,0.008958477,0.06218761,0.06731339,0.036556564,0.0047970773,-0.008961146,0.06870956,0.023718273,-0.098635554,-0.015440632,0.023252567,0.0146310665,0.02184499,-0.06938149,-0.13897564,-0.080318846,-0.06999448,-0.025826994,-0.055427726,-0.07053189,-0.00026851342,-0.05698647,-0.02220874,0.06309878,-0.024521697,-0.031756397,0.030693058,-0.005047889,-0.06557215,-0.050213095,0.003090507,0.090947345,-0.059493884,-0.07633036,-0.08269654,-0.08788342,-0.07533545,-0.043079425,-0.13632013,0.07564256,0.112103395,0.054604296,0.03197139,-0.048898306,0.10267231,0.072688155,0.0079281395,0.07500121,0.002193114,0.18225709,0.045277506,-0.015062532,-0.018859651,-0.021145016,0.075598285,0.10514115,0.022819001,0.019321134,0.02484441,0.017891102,-0.011208957,0.03438127,0.04579527,0.03343155,-0.0862116,-0.09722229,0.029639306,0.011891085,0.028768461,-0.06561735,0.015139279,0.0028741893,-0.044305176,0.051875737,0.0102872,-0.02693026,-0.067972064,-0.117912665,-0.12341862,0.061106537,-0.03077013,-0.028560756,-0.050784282,0.018644163,-0.056525063,-0.042573042,-0.031018633,-0.062003195,-0.017163355,0.076425046,0.10894659,0.058780774,0.11070693,0.024281353,0.028416168,-0.070666485,0.06376935,0.0031054604,0.05069571,-0.014492486,-0.050579995,0.010208299,-0.0776764,0.068966,0.060686253,0.056136478,0.0856168,-0.07646419,0.024513349,0.064495906,-0.04551957,-0.07005443,-0.025060523,-0.0013495055,0.07375422,0.10386652,0.042617653,-0.06041757,-0.054903027,0.016505547,0.088274285,0.04386744,0.016373679,0.011504086,-0.0751892,-0.049579814,-0.02657503,0.10500033,0.04147818,-0.030399252,0.05906859,0.10346336,0.021095417,0.009935671,0.044149213,0.011747759,-0.004370875,0.045627363,0.090550356,-0.031203333,0.055101756,-0.07758648,-0.052808635,0.013917668,-0.004303013,0.03376976,0.054727565,-0.08572541,-0.0035315938,-0.008659082,0.029789973,0.062168837,-0.024385246,0.017166052,-0.06953932,-0.02305719,0.060650345,0.021512304,0.01800469,-0.09460647,0.014566172,0.03950931,0.05566793,-0.06511117,0.00049065606,-0.0063480646,-0.031445492,0.019160232,0.0802363,0.00503946,0.10666308,-0.06881289,-0.037250403,0.07902303,0.0068952264,0.110456474,0.018134292,-0.01031633,-0.0071915435,0.057801295,-0.011661972,-0.0022449323,-0.055271633,0.022348488,0.0056981617,0.0103414105,0.010077449,0.013180815,-0.07299531,-0.13234243,-0.07201902,-0.021347778,0.00018344777,0.0242244,0.029115546,-0.026423741,0.03402669,-0.024645887,-0.072574355,0.014504495,-0.00095183006,0.061644506,-0.029624201,0.13452387,0.049532674,-0.0465755,-0.075952716,0.062282722,0.14430612,-0.103550546,-0.092531405,0.005273216,-0.03037642,-0.019356992,0.016241636,-0.0034955516,0.04062542,0.030545952,0.05994819,0.016624201,0.0010191086,0.083162844,0.13338998,0.115233734,-0.0009609966,0.104347885,0.04250926,0.09711158,0.01872008,0.057297662,0.0471353,0.026783464,0.04858516,0.044977244,0.03100992,-0.062305514,-0.02407628,-0.08489809,0.021542378,0.0519716,0.06307235,0.03026332,-0.0560122,-0.0046639093,-0.020235263,0.05224274,-0.032950703,-0.014634629,0.03478064,0.0014941478,-0.039459217,-0.12676194,0.03332249,0.029689338,-0.019001994,-0.061492767,-0.17846274,-0.06346677,0.048540253,-0.04158232,-0.0093124835,-0.061766755,0.018500052,0.041131806,0.014291335,0.012852532,-0.023806607,0.064579636,0.047346864,-0.033635247,-0.013677774,0.022215737,0.09330046,-0.001378543,-0.0024329557,0.031368304,0.03184608,-0.06417378,-0.08145542,-0.004345186,0.06454861,-0.022056216,-0.0047621788,-0.004013133,-0.100033164,0.03371695,-0.0046837875,0.03671114,0.07794793,0.040529132,-0.034358554,-0.09547233,-0.08706936,-0.03734498,-0.040916275,0.037513714,0.062088333,0.07528311,-0.08320072,-0.02849031,-0.017054342,-0.053044863,-0.10278112,-0.07383502,-0.051033784,0.0796365,0.058961373,-0.121608,-0.005415709,-0.0066367695,-0.009912328,0.07075334,0.07655276,0.11558256,-0.025560234,0.044076826,0.002904631,-0.057996564,0.062013716,0.068413086,-0.008737312,-0.029652454,-0.06959956,0.07800786,-0.022090279,0.005431995,-0.030299317,-0.04259258,-0.036364336,0.07345885,-0.052746624,0.008917375,-0.080767594,0.028968927,-0.017990835,-0.041501705,-0.009964939,-0.16055809,-0.022952493,0.05293918,0.0049768253,0.010257945,0.032546245,0.047759037,0.03847529,0.05309968,0.08836099,-0.0026584014,0.006044286,0.05100024,0.013204395,0.10342674,0.0038250217,0.018780554,-0.08965734,-0.039543908,-0.0071243397,0.083658084,0.043375343,-0.00089552044,-0.00953515,-0.080378555,-0.015694037,-0.07891342,-0.061602976,-0.04203681,0.023789277,-0.029438348,-0.077567406,-0.044679217,-0.056005023,0.06311319,0.02095766,-0.050829392,0.040097363,0.007961413,-0.11622716,-0.06107826,0.020996854,-0.04483014,0.015316871,0.04431729,-0.020179281,-0.0027945733,0.024752138,0.017481258,-0.035935495,0.0029063772,-0.10303856,0.008076258,0.012307823,-0.047507737,-0.033098333,-0.055114508,-0.031626232,0.08579314,0.028180102,-0.032938343,0.003189959,0.0009159447,-0.03239485,0.038687613,-0.04399699,-0.0852029,0.049825072,0.0048077777,-0.031083938,-0.07021721,-0.023357753,-0.046156097,0.016347144,-0.014756207,-0.057114597,-0.026382947,0.02059215,-0.08037356,-0.007973162,0.10285328,-0.0007975261,-0.0065306355,-0.01818282,0.00066559674,0.023242014,0.04372374,-0.020339042,-0.015589658,0.027701257,-0.09652839,-0.082586505,-0.069774106,-0.027974272,0.007748855,0.08229812,-0.06377529,-0.03772384,-0.033940032,-0.0763061,0.02200053,-0.05944422,-0.06433088,-0.07016838,0.008820162,-0.073178895,-0.051529862,0.0236768,-0.032051645,-0.0171984,-0.049077827,-0.024855876,0.075425304,-0.04175872,-0.012420298,-0.10159798,0.049464423,0.0012802946,0.012172471,0.00875177,0.035981968,0.019603796,-0.04997415,-0.0135453995,-0.057026584,0.06758576,-0.038276136,-0.034485575,-0.08415949,-0.046236638,0.059078284,0.037812028,-0.118889116,-0.01387418,-0.026585506,-0.022474237,0.041337848,0.026854973,-0.018749325,-0.078662165,0.014302474,-0.013200895,-0.049038205,-0.08427313,0.05488427,0.015943231,-0.02861987,0.10477332,0.038231608,-0.020465786,0.010404352,-0.10850232,-0.07518235,-0.0068979333,-0.047894463,-0.0020511942,-0.0108181145,-0.09685094,-0.15350091,-0.09476726,0.016371325,0.06328376,-0.026486821,-0.070074014,-0.0660759,0.031530254,-0.016091745,-0.00536778,-0.04058233,0.017243695,0.027030608,0.03846381,-0.019842979,0.018966291,-0.0044518886,0.009090496,-0.034135625,0.069315016,0.023271013,-0.017717328,0.012332469,0.03729389,-0.010076676,-0.03170472,0.007098026,-0.026037661,-0.07757268,-0.011102232,-0.1296305,-0.086546354,-0.011206776,-0.06645798,0.03014052,-0.07041357,0.010022483,0.04098163,0.023263332,-0.049222466,-0.06712402,-0.041954048,-0.0022229045,0.009366617,-0.09555192,0.01596151,0.05349781,-0.04631752,0.079285726,0.03155088,-0.08113938,-0.114030905,0.054309122,-0.059342686,-0.058224417,0.0060839974,-0.070457764,0.071324416,0.009122264,-0.029436452,-0.042230304,-0.08404167,-0.08666502,-0.061259434,-0.0074181342,-0.042168174,0.021553924,-0.043600958,-0.08812985,-0.08809086,-0.011260814,-0.0069360277,0.011582748,0.045622487,0.04033119,-0.12920196,0.015532672,0.09000239,0.08984918,-0.024590027,0.046573043,0.014655719,0.01667111,0.08676015,0.00785938,-0.010664631,0.11902779,-0.045452293,0.009349139,-0.0052356785,-0.05726243,0.028325498,0.010147843,-0.042127244,-0.085771024,0.092011556,0.11149121,-0.014702741,-0.057731003,0.005075453,0.008772495,-0.008544369,-0.070126176,-0.073229134,-0.029448433,0.05667075,-0.013634024,0.014986173,-0.00032073652,0.067882754,0.015972322,-0.030597549,0.002911232,0.020770337,0.014413435,-0.021085842,0.116369784,-0.06738493,-0.051647786,-0.0750832,-0.08458603,-0.06271796,0.07703421,0.011478374,-0.061048396,-0.02378703,-0.07178763,-0.096965685,0.020760056,-0.076002814,0.008944809,-0.036012292,-0.07768727,0.025036525,0.038872875,-0.014901274,-0.06750844,-0.091249764,-0.030015144,-0.0032958856,0.0040062102,0.05446502,0.0129692005,-0.009021336,0.011076072,-0.0032320353,-0.01870836,-0.025319261,0.020535065,-0.050597694,0.053187948,-0.05158634,0.0063863536,0.012291064,0.10927691,0.045249935,-0.03663631,-0.009412872,0.038873382,0.021562852,0.045563716,-0.09221979,-0.054661468,-0.03051531,-0.0490214,-0.002301622,-0.106937915,-0.03861931,-0.0075537926,0.14849846,0.009354194,0.08904533,-0.024055058,-0.046895027,-0.08009393,-0.072596766,-0.056589108,-0.014316576,-0.07001165,-0.0999494,-0.13766555,-0.08388377,-0.014269362,-0.0034936408,0.069360726,-0.06394001,-0.06392415,-0.0023911532,0.0380052,0.019180916,0.034112908,-0.04063931,0.068745665,0.024302786,0.04434343,0.047765933,0.023311434,-0.009937025,-0.057801872,0.055271592,0.0018081241,-0.063207306,0.048805945,-0.07072395,-0.075651474,-0.12629397,-0.0699686,0.026893422,0.031181112,-0.08715329,-0.07305547,-0.037328467,0.10370657,0.026436204,-0.011220197,-0.04018687,0.06313594,0.030090533,0.03960266,0.06651253,0.0046086796,0.07611886,0.040426493,0.018003896,0.0020211875,-0.06022519,-0.03311101,-0.05546592,0.029857017,0.03181759,0.016380796,0.018116198,-0.016298914,-0.016315235,0.007946699,-0.0128611615,-0.09234036,-0.07193214,-0.040587686,-0.06404973,-0.04794358,-0.06962733,-0.10034599,-0.03255194,0.006165615,-0.108689755,0.04833439,-0.02118136,-0.02927072,-0.07228404,-0.058471527,-0.0023576696,0.05652593,0.00053302787,0.06016947,0.009686552,-0.012884295,-0.08523974,-0.021487702,-0.1113945,-0.07812164,-0.01747564,-0.029308414,-0.031699106,-0.02285748,-0.021021636,-0.07201916,-0.025489803,-0.08316601,0.07386378,0.04551084,0.032431547,0.044233315,0.051572766,-0.06732355,-0.028226823,-0.0403619,0.026669996,-0.05695468,0.08239553,0.018611582,0.07001993,-0.041881155,0.045707814,0.09464464,0.09455337,0.005420338,-0.048997767,0.048065245,0.0018439477,0.09612103,0.10208752,0.08750289,0.03448427,0.051719096,0.00079109526,-0.039233524,0.035295468,-0.0061775493,-0.019064337,-0.08618548,-0.059273075,0.016188128,0.029886262,-0.053083207,-0.022438953,-0.030405048,-0.008085399,-0.0048404243,-0.17409584,-0.1073795,0.017296206,0.0388201,-0.0024486962,-0.11396795,0.001357659,0.03977454,0.06963635,0.058959614,0.0059349746,0.04649094,0.03318221,-0.0043280656,0.028355958,-0.013501981,-0.009569279,0.043555386,-0.031879157,0.057097033,0.018623678,-0.05032105,0.041467614,0.009122983,0.06581084,0.09021446,0.0763846,-0.031327464,0.029938934,-0.0016939963,0.16009869,0.028699921,-0.058140974,-0.07854039,0.06864456,-0.019622948,-0.074576885,0.013389699,0.025022963,-0.050628487,-0.09336671,-0.053985924,-0.026066942,-0.010119686,0.028869087,-0.11242176,-0.027424548,0.004002434,0.03460905,-0.045446627,-0.06817632,0.005697731,0.058476493,-0.0040145097,0.033126652,-0.07609133,-0.021535661,0.026250884,0.083255194,0.078106016,-0.008721911,-0.07561538,0.032519132,0.002509475,-0.04408925,0.0106230015,0.079846874,0.041966323,0.027137702,-0.0030922568,0.046606757,0.057298597,-0.071828604,-0.025859822,-0.053863868,0.061935842,0.07881221,0.036193594,-0.009424065,-0.021897826,0.09626023,0.10171191,-0.011666145,-0.01231613,-0.09071403,-0.12116033,0.026907353,0.00810343,0.014093739,-0.020456648,-0.069339074,0.054028064,0.00017038714,0.035939716,0.026782254,-0.04519103,-0.053056683,-0.027605066,0.027000176,0.054429203,-0.007229145,0.03314189,0.09102005,-0.027959827,0.045403626,0.035657916,-0.033270523,-0.03869378,-0.051645733,0.012141139,0.014501073,0.055025186,0.05965505,0.055121146,0.059866883,0.0021439048,-0.0025311064,0.038090367,0.08409692,0.012923907,-0.067563914,-0.11435398,0.00010404692,0.0030389756,-0.042782504,-0.09273272,-0.05431227,-0.032851417,-0.01487627,0.057184353,0.005337256,0.08544743,0.06810846,0.057057362,0.016403466,0.008052836,0.029078377,-0.037347194,0.022387708,0.09435433,0.0529197,0.054620337,0.067729585,0.029915549,0.066284396,-0.027467882,0.05092024,0.05315279,0.04901202,-0.012394756,-0.05188761,0.016455527,0.062114578,0.048743483,-0.016444845,0.06379949,0.061215177,0.033562727,-0.018367255,0.016543178,-0.005427678,-0.003180968,0.003754865,0.026130645,0.021235187,-0.058429103,-0.035007477,0.046955496,-0.0800567,-0.039408468,-0.051495787,0.083245136,0.03861222,-0.07092409,-0.065760076,0.029126683,0.046751052,-0.017664492,0.003106789,-0.00975025,-0.05180408,0.061095867,0.023726074,-0.021744559,0.0025862847,-0.059516307,-0.027112434,-0.023455853,-0.021237092,-0.055552706,-0.060773462,-0.04721235,-0.071281455,-0.055205498,0.058314133,0.14741242,0.053771626,-0.0036757323,0.10081822,0.14745018,0.094554365,0.0601894,0.045566026,-0.0033161878,-0.062471855,-0.052117903,-0.00023284217,-0.019799322,-0.067715056,-0.051218193,-0.102885924,-0.028370151,-0.08636557,-0.058453187,0.008349218,0.06154692,0.04801066,-0.078930244,0.023069033,-0.0010156297,0.032772705,-0.018738179,0.010925031,0.037825305,0.019585589,-0.033511378,-0.07814342,-0.019698946,-0.010460138,0.033536576,0.010292821,-0.021902192,0.02573099,0.0062682563,0.018646453,-0.009437788,0.061613515,-0.028941331,0.07818051,0.051487964,0.010533576,0.023114061,0.02278911,-0.003324814,0.07036501,0.0755713,0.043417923,0.12992904,0.06888682,0.06798321,0.023859648,0.16057181,0.020724922,-0.032671206,-0.035446253,0.13928317,0.04345731,0.009557728,-0.036622476,0.012364891,-0.0527409,-0.096108094,0.08437262,0.0011721922,0.015994882,-0.06344728,0.007884651,0.080739796,-0.020187052,-0.017688086,0.024939304,-0.008221633,0.027059473,0.008142672,-0.06255336,-0.048764914,0.0041943444,-0.048109427,-0.12098767,-0.033799227,0.022729026,-0.056108285,-0.14388008,0.01613674,-0.012739063,-0.04467518,-0.018834678,0.0062294225,0.030215155,0.04346675,-0.059416745,-0.05208355,-0.00081881887,0.047926564,0.04167881,-0.15000309,-0.085776605,0.038005844,0.09823033,-0.0019043109,-0.040748112,-0.08116561,0.010926838,0.008960957,-0.030561378,-0.09481383,-0.050993107,-0.041757423,0.057306513,0.09265711,0.08630465,0.050660953,-0.06356498,-0.014550272,-0.007969147,-0.0147554055,0.043170605,0.024642508,0.12117086,0.081292704,0.060923163,0.066699155,-0.011618181,-0.012619743,-0.013685598,-0.027801936,-0.026382046,-0.03575911,-0.030724095,0.043917973,0.06823841,0.103114635,0.014833657,0.03718794,-0.05801513,-0.0012608283,0.09173042,0.11134694,0.10168324,-0.053256754,0.030638797,0.022584062,0.024447143,-0.047078576,0.05123506,-0.0463979,0.079721086,0.007310747,0.001866185,0.031110398,-0.13762319,-0.053588193,-0.07049183,-0.011386338,-0.05633221,0.012929674,-0.11179976,0.015312129,0.03720934,0.033264726,0.00095077645,-0.019396918,0.0044299746,-0.049935102,0.0058203377,0.07772507,0.065591365,-0.006228769,-0.033101223,-0.0418851,0.047182534,-0.06033355,0.049415108,0.015783962,-0.02827097,-0.13109036,-0.11224034,-0.03173453,0.015253154,0.0034418383,-0.07413949,0.03593783,0.011043145,-0.032768432,0.027814083,0.023497721,-0.027255222,0.019510098,-0.028575087,0.01722615,-0.10234436,-0.104121715,-0.036599256,0.008653325,0.062454574,-0.09991091,-0.090603225,-0.00741232,0.030943632,0.019092098,-0.13622186,-0.022166722,-0.015909078,0.046746302,-0.07063044,-0.09736563,-0.072371095,0.055730797,0.06744536,0.03683912,0.002794616,-0.07819021,-0.04325296,0.032278486,0.10258981,-0.014350686,0.0025172967,0.04934446,0.022660023,0.032044284,0.057588276,-0.052626185,0.008472282,-0.011147379,0.03323488,0.07073067,-0.05631543,-0.014548708,-0.07129773,-0.026489833,0.030277926,-0.018314855,0.013020528,0.0009009171,-0.009225419,0.053289544,0.037329465,0.021825828,-0.09024235,0.0072417203,-0.09332499,0.058970448,-0.016959036,-0.05147395,0.023139654,-0.047317993,0.06529738,-0.11278426,-0.035376348,0.004650539,-0.08751302,0.06042297,-0.039540555,0.032791354,0.030389467,-0.060263027,-0.08976709,-0.08727967,0.026325718,0.015011696,0.13708721,0.005547335,-0.0110434545,-0.1277519,-0.10742273,0.08275942,0.036328487,0.0015770787,-0.061611474,0.0061696344,0.09064282,0.018904623,0.04039905,-0.04753197,-0.006869009,0.029596437,-0.0053612744,-0.030367637,0.02101148,-0.037002753,-0.0690731,0.035942793,0.08716793,0.08412419,0.040943477,-0.0659936,-0.033142578,-0.0012148862,-0.024651483,-0.015910873,-0.05173649,-0.08788694,-0.044843458,-0.0103025455,-0.0013701589,-0.11128742,-0.13835117,0.0008894624,-0.015374447,0.023990922,-0.015116691,-0.08109027,-0.07347039,0.024976535,0.058497064,-0.067581795,0.007842106,0.0047545885,0.020970447,-0.046770893,-0.027685463,0.041227825,0.11545714,0.07545421,0.039283454,-0.15287979,-0.050554927,-0.020745393,0.05372862,0.027085336,-0.04928472,0.057239376,0.07405519,0.03785639,0.033977058,0.03066069,0.008952146,0.03713568,-0.021438235,-0.034944333,0.023916133,0.10112522,0.02444287,-3.7313876e-05,-0.03712062,-0.005849388,-0.07782692,0.024333239,0.042284597,0.08659259,0.01191338,-0.044769708,0.11407007,0.046739712,0.0689964,-0.07780835,-0.037505478,0.07297349,0.025071839,-0.013514181,0.010418803,0.015374819,0.0139430165,0.020274589,-0.09937316,-0.016578665,0.06899087,0.028278556,0.06028722,0.0057562143,0.06420914,0.035112474,-0.00064028887,0.03345838,-0.071232684,0.048311427,0.07304408,0.008183065,0.05908094,-0.02779901,-0.053082272,-0.12038262,-0.034182098,-0.058833163,0.007842821,-0.037920065,-0.068752095,-0.12619291,-0.011749944,0.0645637,0.034022138,0.05257572,-0.005115306,-0.04620573,0.025178043,0.026157672,-0.02338157,0.03388314,0.029669056,-0.012028969,0.075718865,0.050662383,-0.00639344,-0.006679514,-0.07462936,0.020614108,-0.023164768,0.0012720653,0.03817129,0.008776448,-0.08773363,-0.05759549,0.028700765,0.04963855,0.024583273,-0.060364433,-0.016757298,-0.019272564,0.030712008,0.033147812,0.018266395,0.03273034,-0.011096188,-0.06615574,0.015772771,0.031112168,-0.037650965,-0.034315787,0.060665447,-0.048153546,-0.08240748,-0.04497459,-0.040411633,0.049925398,-0.017205106,0.019686485,-0.099822246,-0.12928088,0.0066624763,-0.007641995,0.022864264,-0.041947704,-0.049840577,0.040745914,0.015155019,0.033384107,0.039630964,0.045461267,0.0067465813,-0.06643271,-0.028044594,0.03611023,0.042673487,-0.011541016,0.003194076,-0.048169464,-0.025541067,-0.0423596,0.08354725,-0.0386157,0.073364444,0.01843652,0.012434746,0.07174,-0.024766099,0.058724053,0.10241495,0.09408749,-0.0055418354,0.01045054,0.030913202,0.00932586,0.08444328,0.010123432,0.00094687945,0.026824212,0.045614626,0.050600216,-0.0198427,0.012256888,-0.021687608,0.09837055,-0.06892206,0.059176475,0.058447875,-0.013532697,0.13839397,0.038742576,0.031887572,0.014140207,0.14355868,0.103174515,0.048611116,0.017393291,0.054903768,0.07217813,0.03282159,0.081540115,0.028341418,0.07538613,0.020957178,0.047787424,-0.02075601,-0.025385426,0.0073206094,-0.011721259,0.063172355,0.0048463526,-0.006582766,0.02762843,0.085645236,0.07730203,0.10859894,0.10874063,0.053569324,0.050910015,-0.05717605,-0.042181566,0.06893173,0.0686581,-0.041445658,-0.06040782,-0.01217044,-0.04225762,-0.043726563,0.018458845,-0.042379737,-0.03734643,-0.030137593,-0.05119049,0.027305556,0.0023957593,-0.013705264,-0.0022876542,-0.035956394,0.0049873847,-0.012298333,-0.05543309,-0.040845744,-0.09385478,0.11482435,0.020593433,0.0520008,0.021477964,-0.046001136,0.044051126,-0.042764686,-0.020936338,0.068154916,0.10010051,-0.006175941,0.012392749,-0.025012571,0.113221765,0.02701814,0.020483488,0.05150538,0.07786383,0.13166384,-0.008356575,0.050677888,0.054690324,0.055246852,-0.0142679205,-0.02954631,0.10389992,0.029769965,-0.06291052,-0.15816684,-0.0956238,-0.061711825,-0.014963228,-0.13148697,-0.017797949,-0.022121591,0.035222966,-0.014874755,0.009101224,-0.04023239,0.0409741,-0.031712893,-0.03307998,-0.09505947,-0.07563627,-0.072450094,-0.08752234,-0.03898007,-0.057326768,0.010387847,0.08438674,-0.07106479,-0.046977177,-0.0018812547,0.049869295,0.08514885,0.046242088,0.07845969,0.06632944,0.025613507,0.04708616,-0.011835038,-0.021070251,-0.0116644455,0.009102583,-0.041591406,0.005702588,0.010527621,-0.01960193,-0.018116618,0.076126024,0.049081773,0.032978248,-0.02241609,-0.04302425,0.08881516,-0.05187513,-0.03566966,0.017555382,0.05767987,0.10022685,-0.09847329,0.022495214,0.018560892,0.069426455,-0.044778876,-0.02647842,-0.032958556,-0.026962837,-0.015497875,-0.04571801,-0.07356296,-0.026048066,-0.038129196,0.022958934,-0.05198203,-0.100202635,-0.0073930756,-0.027861563,0.029384315,0.047796622,-0.09122754,-0.012873754,-0.041533615,-0.0087946635,0.03337952,0.004525912,-0.05774763,-0.010052932,-0.008153474,-0.083835155,0.074676156,0.067060076,-0.0045719454,0.0044558127,0.027858708,0.038895022,0.039688624,-0.057773553,-0.014164237,-0.053725403,-0.045553137,-0.045145553,-0.09332624,-0.06513025,0.0054127397,0.016035702,-0.03581834,-0.0863675,0.0062678247,-0.04694616,-0.11020128,-0.048175506,-0.08687072,0.030582996,0.05059002,-0.055474527,-0.008172876,0.011967126,0.013990371,-0.07625704,-0.046003103,-0.06385639,-0.04422238,0.0853252,-0.056474403,-0.04126761,0.05710182,-0.08975676,-0.064539745,-0.008417316,0.021910777,0.034828965,0.032073,0.018954512,-0.026967447,-0.05839628,-0.038428005,0.008359917,0.008228764,0.0037846586,-0.08022076,-0.09295693,-0.03945875,-0.00011678828,0.03870965,-0.06288266,-0.09168529,-0.04267467,0.004063312,-0.016569862,0.028074061,-0.041009627,-0.06020734,-0.060255367,0.057251863,-0.07673068,-0.07512509,-0.10750183,-0.026079845,-0.013127924,0.026190737,0.07754857,0.009051267,-0.04616378,0.029667985,0.02821799,0.016383642,0.037285227,-0.0054913033,-0.04759705,0.055828266,-0.040375788,0.049806066,0.05991515,-0.07173738,-0.014929441,-0.0061587407,-0.044085853,-0.049663123,-0.07111232,0.02861381,-0.053486224,-0.06835236,0.0125733465,0.027708592,-0.027543114,0.0021171146,0.057444386,-0.025443703,-0.023878487,0.0043331617,0.052677747,-0.042570412,-0.0015598626,-0.08759556,0.015420875,-0.043281678,-0.11444334,-0.018134171,0.02738042,-0.051921304,-0.04196834,-0.059857376,0.01128876,-0.08200274,-0.053211328,-0.08637886,0.03308591,0.02322339,-0.023545196,-0.0009561269,0.014748881,-0.040904906,0.042923033,0.022174979,0.012095677,-0.038421646,0.019594371,-0.04035545,-0.0018398617,0.004270721,-0.010602158,0.07045706,0.05274267,0.035991047,0.040297955,0.009766109,0.08900237,-0.00215265,-0.011434472,-0.0065057296,-0.06572057,0.009990907,-0.035721548,0.009149625,-0.018950125,0.004492808,0.01782897,-0.019724106,-0.061017197,0.041823566,0.042486962,-0.014318774,0.07936651,-0.0033670308,0.016982954,-0.0482116,-0.055266485,-0.059812125,0.018497473,-0.0058412272,0.03347922,0.029000152,-0.048310615,0.008985886,0.050319657,0.059988692,-0.022717936,0.016353657,-0.06561585,0.010490682,-0.036844864,-0.010701275,0.046528656,-0.004661233,-0.052133985,-0.04576149,0.037712198,-0.0047464063,0.04808621,0.01975836,0.06799416,0.0088345185,-0.014303708,0.03363587,-0.029659104,0.0058996133,-0.00058226724,-0.0025631317,0.072397634,-0.13693891,-0.08892755,0.004107354,0.049692027,0.082976624,0.036453187,-0.008409285,0.0052301977,0.021145124,0.06804648,-0.0551425,-0.037795033,-0.04658734,0.041628893,0.11424963,0.030783325,-0.0387965,-0.038280115,0.050869502,0.04566855,-0.035770547,-0.0028551975,-0.04444729,0.06467759,0.00024979174,0.042406242,-0.0115717985,-0.016022496,-0.008501235,0.086746804,-0.015024939,0.06926751,0.09877163,0.059435673,0.07930697,0.040035848,-0.009766788,0.05012519,0.103801765,-0.031519603,0.07892323,0.096720725,-0.03502386,-0.058482625,-0.18420683,-0.010955412,0.047028877,0.0102702975,-0.09134104,-0.015049457,0.029787047,-0.052890673,-0.08646397,0.014467694,0.05178776,-0.032728035,-0.02265796,-0.030457385,-0.0555985,-0.026115004,0.04249351,-0.034859214,0.004370461,-0.02102105,0.03552404,-0.026101533,-0.036159754,0.033363268,-0.10281616,-0.08689862,-0.07475573,-0.03396403,0.011055545,0.004071569,-0.060624324,0.0036290186,-0.03015785,0.029458888,0.03251652,0.0030544712,-0.05127801,-0.010791887,0.0326145,0.016142437,0.009984796,-0.027211187,0.03384976,-0.009370618,-0.004113081,-0.018836496,0.018734155,-0.045450702,-0.05172567,0.07164008,0.061979007,-0.021618977,-0.09243052,-0.04242317,0.07242025,-0.007968555,-0.033571996,-0.049962863,-0.005378276,-0.050533965,-0.05486883,0.009441638,-0.015942197,0.041815512,-0.042009417,-0.009179604,0.079064414,0.075649574,0.09251394,0.0069468,-0.035199333,-0.03659603,-0.05875599,-0.029109789,-0.012444868,-0.01461392,-0.012395122,-0.11168561,0.012050117,0.09139444,0.019300181,-0.08675484,-0.033535946,-0.057972945,0.054946803,-0.00908548,0.021560203,0.0024418237,-0.034758046,0.0073924446,-0.03665609,0.044561595,0.039868556,0.022814581,-0.06434851,-0.080346316,-0.0005898643,-0.050667398,-0.07312224,-0.013081795,-0.047726683,-0.015096462,-0.025596589,-0.099487185,-0.024137774,-0.009619213,0.005715347,-0.01973131,-0.12500788,-0.035385888,0.03811409,0.0030080704,0.0142183155,0.016047573,-0.0046428493,-0.060002614,0.090862185,0.022163592,-0.05106218,-0.058025382,0.0170042,-0.07925643,0.012886614,-0.051266827,-0.012824329,-0.071086295,-0.04741228,0.007989429,-0.036383625,0.038591392,-0.012481796,-0.018030655,-0.04975199,-0.024599528,0.043985605,-0.06273716,-9.121387e-05,0.03296247,-0.030019386,0.05147216,0.00838947,0.017118687,0.06644051,0.06901387,-0.003500091,0.054949205,-0.09624257,-0.023899738,-0.06021168,0.011470547,-0.02679943,0.042909026,0.00922725,-0.11434693,0.007190038,0.018492846,0.040399425,0.020640157,0.04376703,0.09709942,0.06623004,0.05752509,0.016854629,-0.030567674,0.0075902403,0.05127731,0.05195611,0.0066515733,0.053207308,-0.042609453,-0.0559871,0.012580313,0.013088875,-0.048039746,-0.074464485,-0.052897044,-0.024099639,0.0058632856,-0.018067634,-0.12904716,-0.0444673,0.0149076525,0.023348946,-0.03658887,-0.03988258,-0.039463647,0.028977297,0.025247997,0.047704678,0.027007041,0.058898147,-0.06324031,-0.026779627,-0.06781916,-0.040310644,0.02393216,-0.038968075,-0.069350496,-0.07485424,0.023295375,0.08763419,-0.036025412,0.023136482,0.005563709,-0.018412631,-0.008091775,-0.013877005,0.08332956,0.12513621,0.06579962,-0.012817812,0.013494977,-0.011047016,-0.018105851,-0.07613226,0.038937658,0.018279016,-0.119869255,0.0049941908,-0.012379349,-0.0741676,-0.06332721,0.03564218,0.03319988,0.03830751,-0.053960476,-0.047923174,-0.07451259,0.08413313,-0.01487591,-0.018937597,0.045559313,-0.05177645,0.037030254,-0.036267597,0.046367202,-0.06772317,-0.10030989,-0.055517334,0.004367471,0.050568495,-0.10065281,-0.03466901,-0.018857049,0.06423937,0.07295979,-0.05589243,-0.12186293,0.02846137,-0.032224707,-0.02052886,-0.0052895923,-0.033602566,0.02677304,-0.009786166,-0.040781144,0.08917329,-0.024932325,0.0030294054,0.016971968,-0.030472199,0.04790639,-0.013554571,-0.021538964,0.021250041,0.14282699,-0.0133941,-0.016849026,0.0066339914,-0.032905646,0.056857836,-0.004421464,-0.02777909,-0.0012200477,0.011853055,0.03166213,0.020527901,0.012937334,0.032643244,-0.04010603,0.014027528,-0.006237954,0.044379104,-0.018497542,0.018147236,-0.009269661,0.04449844,0.069291644,0.032034032,0.049516775,-0.02247899,0.02634376,0.011537775,0.09410369,0.08051203,-0.14071453,-0.07066426,-0.035187364,0.030483255,-0.026837038,-0.084758796,-0.018331107,-0.058005862,-0.029241271,-0.055538755,0.012782792,0.0032959466,0.08932536,-0.010231988,-0.029315742,0.029879859,0.036710426,0.0023168714,0.03681369,-0.06987913,-0.17296182,0.037561756,-0.075904325,-0.0644975,-0.041670963,-0.03994171,0.010562861,-0.029218307,0.014639048,0.027996061,-0.06177253,0.009075682,-0.054599002,-0.00251224,-0.00490125,0.00046478544,-0.023264363,-0.01239649,0.037894532,0.044782825,0.07451362,0.1120436,0.052856214,0.048149098,0.03362575,-0.010766723,0.016863542,-0.06888878,-0.044474825,-0.09332067,-0.034150347,-0.06130504,-0.090420865,0.027960973,0.060055636,0.08702908,-0.081692494,-0.13106899,-0.13327774,0.021289105,-0.042690743,-0.039401535,-0.05544243,0.0053092567,-0.0015747373,-0.03508257,-0.06336423,-0.016086977,4.7657355e-05,-0.067675695,0.017321484,0.06747272,0.09622302,-0.094589606,-0.032656353,0.02759855,0.0331017,0.09267515,-0.009914724,-0.07049054,-0.059530973,-0.04457137,0.026484983,0.009385232,-0.010484607,-0.014171802,0.008652356,0.09145504,0.023368489,0.048778653,0.044875927,0.07664364,0.11435485,0.05370573,-0.044561174,0.016415043,-0.07927566,-0.0094986865,0.08835155,-0.040019523,-0.05986553,-0.04339567,-0.0037545618,0.044499278,0.030771622,0.10195169,0.029355912,-0.022372203,-0.008989511,0.0284121,-0.01941656,-0.011054822,-0.04423633,-0.0017334347,0.030585926,0.0151815815,-0.01977003,0.04643649,0.019523764,-0.0037658124,0.060086194,-0.08776628,-0.00045420477,0.022920046,0.076529376,0.0011421525,-0.061395556,-0.04791239,0.0034556154,-0.018133003,-0.044710606,-0.007977111,0.05533837,0.045720946,-0.07417389,-0.0667609,0.0038121897,0.049055204,0.0063815666,0.00084320205,0.02286032,-0.07863519,-0.11445715,-0.04572015,-0.025346395,0.06849886,-0.015395511,-0.004128112,-0.023117503,0.02956475,0.008249261,0.10816334,0.09169286,-0.06473182,-0.08835262,-0.0076408186,0.02550685,0.049883712,-0.025922133,-0.087690026,-0.009016156,-0.027291117,0.01860451,0.05409984,0.062461536,-0.041945696,0.055622056,0.058408756,-0.048630808,-0.07405449,-0.009752909,0.019449137,-0.049876407,-0.07740421,0.04368806,0.061995823,0.055398103,0.019161846,0.036710825,0.111186706,0.05727862,-0.026513683,-0.0513757,0.012734736,0.012510709,0.021492468,0.018066727,-0.05155189,-0.03339111,0.018053383,-0.08006679,0.012738896,0.039019234,-0.005665867,0.105660275,-0.10750468,0.011890456,0.02909247,-0.044063877,0.016795589,-0.025770262,0.07978923,0.047873173,-0.024651902,0.048902277,-0.10757414,0.007827397,0.014767681,-0.028879298,-0.052860618,-0.059082396,0.05941305,-0.03938742,-0.09676631,-0.12345254,-0.038221925,-0.044186864,0.043323983,0.06889852,0.058797617,0.14977054,-0.095170446,0.05035771,0.07554993,0.024931792,-0.07937944,-0.002115937,0.022636835,-0.04939374,-0.0118048,-0.05075462,0.06259343,0.013146456,-0.012993341,-0.06826029,-0.11441258,0.061225988,0.05542018,-0.033802126,-0.07888893,-0.07410613,-0.06892338,-0.005612615,0.097414866,0.108507015,0.1288084,0.02059131,0.031665284,-0.0146530615,0.06554371,0.010046877,0.073401615,0.003576707,-0.039281152,0.06063633,0.0057954784,0.06202452,0.05361597,0.04246784,0.082415156,-0.0150477085,0.02488079,-0.07859064,-0.116015725,-0.033920288,-0.05948852,0.002686488,-0.021296324,-0.041552458,0.02042402,-0.0037977966,-0.04012344,0.07253456,0.049088813,-0.018552896,0.09400358,-0.022996083,0.101763345,-0.013617108,-0.058360603,0.034795173,-0.027784932,-0.04633458,-0.010466945,0.0228699,-0.021689203,-0.03472693,0.040267643,-0.025458824,-0.14717731,-0.094303615,0.0016819574,-0.06874914,-0.08352753,-0.0005201858,-0.018111771,0.01933825,-0.08572584,-0.03156845,0.03297397,-0.03341684,0.06964167,-0.11744719,-0.060551673,0.012803119,0.056674983,-0.016877549,0.028413663,-0.01745462,-0.052645218,0.014111441,0.004343316,-0.058173582,-0.07190458,-0.062290557,0.0732148,0.001909734,-0.056342985,-0.075729,-0.023226343,-0.046040487,-0.064923465,-0.01821671,-0.09556153,0.07440263,0.054344095,0.029705223,0.014306714,-0.10984296,-0.0058264663,-0.024677157,-0.016822236,0.02243665,-0.0093457345,0.035847437,-0.09009009,-0.012959825,-0.010645391,-0.10878497,-0.010253703,-0.10670976,0.08830728,-0.04270701,-0.033208184,0.01345116,0.009157662,0.0736583,-0.026825322,-0.014851346,0.035148922,-0.030341366,0.0036216953,-0.0021432107,-0.11504166,-0.018213665,-0.043706622,0.025687926,0.061388485,-0.12707418,0.009542929,-0.016248846,0.022717437,-0.00053571246,0.024902105,-0.036337476,-0.044418454,-0.012479437,-0.0034870245,0.0034018746,0.065727904,-0.021604246,0.009634438,0.03684739,-0.06154291,-0.02690422,0.015253257,0.03174898,-0.063136585,-0.09095313,-0.028441487,-0.046768926,-0.05444231,-0.030256093,-0.1455376,-0.064328834,-0.053202905,-0.0055503584,-0.021266837,0.021635475,0.004519956,-0.0037924112,0.040875338,-0.04058223,0.057491828,0.044852577,0.063612,-0.066509545,-0.04437921,0.023293687,0.058463037,-0.01746609,0.017055703,-0.09437522,0.0100194495,0.05254947,0.038181756,0.036187015,0.057637546,-0.0055612233,-0.022407934,0.046532705,0.028899591,-0.066787735,0.0048401826,0.0077204225,0.015260399,0.074832685,0.03396458,0.07752818,0.08399467,-0.09150141,-0.011222568,-0.04875566,0.013782351,-0.03867976,-0.11517145,-0.101142436,-0.041718658,0.033571403,-0.04138062,-0.0907609,0.019946488,0.033687867,0.018580357,-0.09277813,-0.032703906,-0.027787147,0.049869493,-0.06146258,-0.010856181,-0.021810208,-0.042144824,0.07137112,0.0003675228,0.051845636,-0.05923532,-0.05331068,-0.021735258,-0.024405003,0.004150189,-0.096512236,-0.0025972212,-0.0076588057,-0.024042444,-0.15337972,-0.14312503,-0.00041147313,-0.016728634,-0.017088624,-0.1705349,-0.08646469,0.034460906,0.031882912,0.00028779748,-0.10600537,-0.1787598,0.0205629,0.033918448,0.002802465,-0.06480234,-0.07043357,0.045622904,0.049303785,-0.04302664,0.03485609,-0.07742956,-0.06809951,-0.04658757,0.061706476,-0.07484522,-0.012541422,-0.107968494,-0.06193854,-0.0276158,0.03552175,0.023597034,0.12221381,0.033548854,0.0050474517,-0.027350716,0.031893272,-0.09441479,-0.055595297,-0.044780713,-0.027172506,-0.14538115,-0.13165455,-0.011732769,0.078496866,0.08217472,0.09658713,-0.086330205,-0.04039137,0.06608217,0.00017063587,0.05222486,0.068094976,-0.0057205544,0.10667624,-0.032354593,0.039535616,-0.06438856,0.03423185,-0.021432634,-0.07116224,0.03484171,0.022189219,-0.008400804,0.039387673,0.05649525,-0.015406775,-0.020496534,-0.038711715,-0.03497658,0.03408796,-0.025087288,0.056470137,0.052365873,0.010839332,-0.040353213,-0.018513354,-0.04585012,-0.06767132,0.020961484,-0.03917481,0.0443403,0.043917645,0.04765133,-0.14911534,-0.06707201,-0.02019856,0.09124515,-0.0005027994,0.035049334,-0.049553636,-0.05107792,0.035575844,0.05261886,0.005066684,0.042412072,-0.003770241,0.028365748,0.030432386,0.009894904,0.017340949,0.02175843,-0.055384275,-0.03610182,0.024023741,0.024728432,0.020319425,-0.039949022,0.06887365,-0.00537164,-0.028531631,-0.062211715,-0.06521626,0.04253498,-0.086839825,-0.066654116,-0.022421252,-0.061137076,0.06421452,-0.018758979,-0.10206531,-0.065541565,0.046588175,-0.040509712,-0.017524378,-0.0123407645,-0.02345556,-0.010298388,0.13277751,-0.0056754164,0.04072874,-0.022306595,0.08914802,0.032682583,0.08442931,0.014486924,-0.049771268,-0.09301702,0.00933351,-0.023286106,-0.11381894,-0.024202637,-0.004745032,0.034547523,0.04876184,-0.015632141,0.03998248,0.037347153,-0.037981506,-0.01789615,0.036602493,0.099822335,-0.009209272,0.019762045,0.03283165,0.029134778,-0.024065964,0.050354753,-0.037248425,-0.057853684,-0.01465094,0.075240545,-0.035261046,0.026088687,0.017400594,0.032082293,-0.034322836,-0.069287054,0.004978693,-0.08550497,-0.0072745113,0.0063810064,0.030393722,0.0372419,0.061759226,-0.0053723357,0.06893882,0.024030957,0.012677996,-0.0032618707,-0.09485374,-0.025093576,-0.05776492,-0.015214113,-0.048017424,-0.09261435,-0.018463882,0.03980666,-0.058512654,-0.022365646,-0.07247173,-0.011316105,0.0694464,0.023597667,0.009458131,0.032161087,0.010823803,0.03162356,0.045768585,-0.014452787,0.036794297,0.014673311,-0.059234984,0.0627739,0.006874165,0.002130991,0.008544591,-0.08894591,-0.00806245,0.0067679887,0.04598018,0.045248404,0.052023023,0.049411096,0.028755916,-0.0037575017,-0.0013105422,-0.03606097,0.04657133,0.13444644,0.033041656,-0.02690015,0.043406665,-0.0573191,-0.047267295,-0.017700406,0.05016367,-0.0016616087,0.011112447,0.07412082,-0.00421406,0.022928407,0.027530741,0.0113731995,-0.044163205,0.0045182854,0.031951472,0.13588578,0.08304337,0.018210243,-0.019918099,0.02473726,0.108691946,0.11492306,0.025297815,0.12150647,0.020708708,-0.077065535,0.04448144,-0.0044558966,0.05530752,0.04250842,-0.09596878,-0.09215244,-0.08791658,-0.0023428157,0.054209534,-0.120792724,-0.0803903,-0.069557995,-0.009858884,0.010435723,0.030861558,-0.03260757,-0.0036633585,0.013565387,0.052141547,0.12682194,0.02328379,-0.0088256365,-0.086494625,0.00869698,0.11524086,-0.02883311,0.08597858,-0.10202563,-0.03107506,0.03841739,0.019913383,-0.0075896652,0.0069966535,-0.057163376,0.056961067,-0.06035169,0.024615884,-0.069563136,-0.0070153098,-0.044708703,-0.037685063,-0.05732798,-0.11575125,-0.020581046,-0.044882458,-0.108561315,0.060291305,-0.02322221,-0.04338133,-0.014274102,-0.031047339,0.01580983,0.013076926,0.042663187,-0.08567377,-0.05863011,0.0026121153,0.051980734,0.026979955,0.0068686064,-0.12847894,-0.0628257,-0.01965854,0.007253387,0.05579818,-0.12687398,-0.007935781,-0.014705527,-0.022789558,0.07914595,-0.0033101263,-0.034426216,-0.07477694,-0.02869472,0.028706286,0.007971994,-0.03180637,-0.01871524,0.03438942,0.047454327,0.023558674,-0.020838508,-0.04570943,0.023949904,-0.0095091835,0.030258825,-0.006262038,-0.07420744,-0.0065453863,-0.016969183,-0.056642,0.044446696,0.017645726,-0.045006674,0.11781988,0.0436218,0.046799753,0.09715491,0.1364922,0.017258171,0.06436883,0.009522693,0.040509984,-0.034946483,0.08619394,-0.0072836084,0.0646774,0.035360873,0.028416464,-0.024393173,-0.043064445,0.023564685,0.011503995,-0.01885603,0.052871183,0.0253012,-0.021520406,0.054534085,0.14807929,0.044519566,-0.0026947684,0.028811317,0.051632274,0.0532779,-0.023714926,0.048095793,-0.036316313,0.0027205239,-0.09553867,0.017598009,0.08142165,-0.05080802,-0.00018836929,-0.013841554,-0.005498647,-0.11021569,-0.08475539,-0.049283117,-0.035887696,0.0576524,0.072457574,0.067129895,0.055433556,0.09192845,0.10701839,0.07721771,0.06706932,-0.01678994,0.099866815,0.088099375,0.04107724,0.0037580044,-0.026314896,0.08902667,0.035353385,0.12020409,0.025149474,0.0788698,0.07225044,-0.0089999335,0.03737509,0.031610634,-0.036684785,-0.025122367,-0.039122697,-0.0015236585,-0.0647538,-0.036429577,-0.0010722649,0.027302843,-0.02405775,0.02099527,0.06692309,0.006750934,-0.11673425,-0.012918061,-0.033798456,0.058667086,0.023714704,-0.09007507,-0.049346283,0.054454785,0.0336652,0.07560657,-0.034915395,-0.09828996,-0.021051448,-0.05947414,0.043026533,-0.11259571,-0.046777368,-0.023024805,0.003612485,0.033097144,-0.009572199,-0.0023488519,0.11976816,0.06458977,-0.015481247,0.012435318,0.106013715,0.102903925,0.022603983,0.026979242,-0.023164082,-0.0234154,0.0018510708,0.041218244,0.011212162,0.000599556,-0.0020351328,0.025669107,0.046409864,0.036989275,0.07293493,0.080327556,-0.014315649,0.05893085,-0.010637779,0.058790646,0.09345505,0.02686533,0.0059029697,0.03644366,0.0013519132,0.111657605,0.09904082,0.055270974,0.08953885,-0.0072918376,0.041769676,0.036049735,0.010476484,0.108021975,0.01872806,0.0570589,0.068946056,0.08352422,0.09377687,-0.00784369,-0.0638946,-0.046908554,-0.055525433,-0.048626915,0.010160847,0.020058524,-0.021218315,-0.09373435,-0.057193268,-0.03234529,-0.099492036,-0.04400975,-0.015713943,0.020967253,-0.05206725,-0.03803962,-0.023936812,-0.021781052,-0.008513776,-0.039832044,-0.03233132,-0.03913366,-0.055877063,0.049459204,0.075847186,-0.048927456,-0.012266945,-0.034485336,-0.08735759,0.087691225,0.08107424,0.10077914,-0.019740738,0.0120198615,0.011248375,0.018353527,0.03431218,0.06864681,-0.0060051205,0.011275967,-0.029559528,0.03140918,-0.09692491,-0.01458301,-0.04282504,0.014853937,-0.031999476,0.06764197,0.036491126,-0.06656947,0.0012039341,-0.011403927,-0.009649161,-0.04131316,-0.10819485,0.0018429849,0.005408246,0.0029036931,0.05476922,-0.0616352,-0.014911507,-0.017460512,0.027226934,0.021043956,0.029988538,-0.07928529,-0.034369398,0.008232289,-0.020367652,-0.03513813,0.03557732,-0.029125666,-0.0055416566,0.026736358,0.06179234,0.04798615,0.01128747,0.07784132,-0.030857982,-0.019667173,0.09221908,0.003964574,0.028107772,0.099982806,0.043149948,0.026791353,0.07862498,0.10066951,0.04516101,0.01746209,0.05360216,0.07706091,0.023686843,0.0038874599,-0.0019086077,0.033701953,-0.00029458216,0.046626266,-0.0004891662,-0.1289083,-0.11003787,0.05091084,-0.06535025,-0.03225863,-0.10111389,-0.06379015,-0.063280925,8.553843e-05,0.013006476,-0.030482,-0.00847542,-0.04933221,-0.04600056,-0.10100202,-0.0026893376,0.07471494,-0.025424397,-0.17714332,-0.05731084,-0.027558323,0.04463106,0.039599497,-0.012432619,-0.074137524,-0.0057008644,0.001780573,0.06348767,0.044486955,-0.047823444,0.0170314,-0.04247708,0.01232084,0.0236201,0.016308295,0.10762452,-0.014674083,-0.020189526,-0.06512725,0.056230612,0.04599965,-0.014477735,0.023601744,0.06584382,0.01196456,0.03226357,0.1275344,0.039842952,-0.014492642,-0.039523326,-0.023330683,-0.0044897795,0.04539678,0.09181237,0.039765052,-0.007415719,0.034721464,-0.054509044,-0.106619954,-0.030067248,0.042938627,-0.013428649,-0.10506972,-0.11107953,-0.06761121,-0.043054767,0.027510514,0.077911474,-0.083045095,-0.031474993,0.05753525,3.9041333e-05,0.080920264,-0.016517011,-0.040237308,0.035693835,0.045403533,0.0041263346,-0.04804485,0.011438302,0.0361139,0.010899189,0.047970228,0.019537654,0.09943126,-0.0035665059,0.047243576,0.041284416,-0.03249991,0.08424773,0.05164762,0.04173366,0.06125645,0.059598234,0.083818376,0.056942057,0.0076219933,0.05911124,0.03063624,0.063204005,0.020252855,-0.08578189,-0.087419465,-0.03188086,0.04129152,0.026237583,-0.01642844,0.032855693,-0.0038209718,0.064803794,-0.0004910534,0.002114498,0.08488278,0.101146,0.055981435,0.026251733,0.046899814,0.11419947,0.095452145,0.05027887,-0.038290624,-0.07396761,0.031912096,0.054906648,0.020104097,-0.006256284,0.061629247,-0.06513564,-0.039230023,-0.011817242,0.0038499502,-0.036284823,0.040714327,0.031333525,-0.034154177,-0.09449191,-0.02355118,0.021749964,0.05210117,0.01686937,0.02774812,-0.0801216,-0.046265423,0.008874317,0.012623636,-0.0011572391,0.05644883,0.0067315893,-0.07185315,0.025480289,-0.0027831448,0.02213933,0.031247308,0.053384464,-0.06513298,0.0017078524,0.05744606,0.05113065,0.049281616,0.04843512,0.057525072,0.015725955,-0.044054277,-0.045275133,-0.07043798,0.035940398,-0.058957007,-0.011367724,0.007566954,-0.034538068,-0.014387438,0.07933877,0.021370128,0.04595486,0.04251715,-0.005092975,-0.012812604,-0.0052433996,-0.06480248,-0.0018447427,0.102129266,-0.015560674,-0.03178701,-0.08102269,-0.063858286,0.036460113,0.015502166,0.011609222,-0.009182318,-0.0040150736,-0.014939593,0.0028751367,0.009296926,0.053456802,0.04952817,0.016408524,-0.008143898,0.06512841,0.058613125,0.02425761,0.03055633,0.0009145146,0.04038476,0.017416766,0.04665915,-0.088929094,0.028884048,-0.04056129,-0.010382272,0.061808944,-0.1139923,-0.0207444,-0.030883927,-0.012068271,-0.0183173,0.06339264,0.03078067,0.010281226,0.087958135,0.13653183,-0.03504562,-0.03278174,0.03624123,0.08724823,0.09563161,0.0878523,0.12469497,0.056465533,-0.07561727,-0.062533006,0.015426056,0.07961635,0.012951184,-0.103891104,0.007721995,-0.015174924,0.03630532,-0.02906511,-0.005706966,0.05389201,0.011132695,0.041744616,0.040308926,0.035851587,0.0639441,0.09636212,0.008480346,-0.014489026,0.05944624,0.05427135,0.018269293,-0.018694451,-0.08826011,-0.051191896,0.049833834,0.07408234,0.039024282,-0.0032774087,0.07884118,0.07364536,0.0668022,0.0034718493,0.041717306,0.0036129449,0.08411001,-0.035636038,0.037413597,0.021124514,0.052992076,-0.014310447,0.103387214,0.093033396,0.0047703413,0.00737155,-0.022985471,-0.017852748,-0.053175982,-0.08773987,0.02687693,0.029429575,0.00080373784,0.07732207,0.036180507,0.0148492865,0.03600853,0.051631574,0.030797293,0.07111539,0.08311513,0.045566317,-0.013702634,-0.019231023,0.09261082,-0.0012532818,0.07952005,0.015675588,0.009261544,-0.04698228,0.018608173,0.045137096,0.035840224,-0.079000905,-0.03668187,-0.11228559,-0.005628701,-0.039115805,0.060165234,-0.018855201,-0.12340949,-0.073777474,0.025720347,-0.06971532,-0.027853163,0.023401022,-0.014431815,0.004848122,-0.009967986,0.032629576,-0.04413479,0.049519155,0.038817305,0.071007065,0.0781843,0.062120084,-0.021552822,0.03180328,0.056763545,-0.025518266,-0.11514644,-0.05627384,0.050644215,-0.026747497,-0.058641423,0.082973905,0.0015935553,-0.026859105,-0.027781345,0.0060568135,0.21324548,0.023847928,0.0059945667,0.03820095,0.03661547,-0.02025076,0.015504034,0.022602996,0.029409915,0.04384323,-0.04606752,-0.013096215,-0.14767244,0.016362436,0.116906084,0.11666006,0.050572462,-0.11135449,-0.07859191,0.015781349,-0.019976825,-0.0032983094,-0.08302521,0.015336711,-0.022318358,0.031179534,-0.040791288,-0.07191,-0.035401642,0.02774008,0.0028607864,-0.088373184,-0.031357255,-0.057804767,-0.07811015,-0.02707637,-0.030601993,-0.073100895,-0.042288814,-0.13945329,0.02398173,-0.0029053877,0.009065817,0.06493806,0.07218921,0.026805926,0.07316452,0.06609498,-0.04774722,0.016431656,0.027496004,0.11699158,-0.044651397,0.0063243904,-0.01046433,0.03841998,0.0815331,-0.0533124,-0.021258386,0.0026272885,-0.06457567,0.038685422,-0.04690189,-0.0056298976,0.0071132192,-0.027049901,-0.07502671,-0.117546946,-0.09157251,-0.010709831,0.006320756,-0.018062698,-0.042634405,-0.03613182,-0.06116895,0.034233578,-0.029044004,-0.059316956,0.026355801,-0.07088208,0.021885565,-0.056240816,-0.046097834,0.002047517,-0.007426644,-0.009790833,-0.013173451,0.046765804,-0.050569844,-0.08283161,-0.007348472,-0.012909837,0.07258937,-0.10763435,-0.0023351663,0.06367367,0.04543689,0.006915699,0.013740684,0.042024024,-0.03538702,0.009870248,-0.031947188,-0.07992541,0.01940947,0.04842791,0.06029397,0.0062898006,-0.10568591,-0.062180385,-0.001805093,0.018072747,0.012842998,0.11074173,0.12744763,-0.021580003,-0.06590182,-0.0119228875,0.02175962,-0.0006666513,-0.015704615,-0.02129708,-0.098533094,-0.038632162,0.041667484,0.012681849,-0.040834934,-0.05045283,-0.010537286,0.04456555,0.047461532,-0.08171831,-0.076064825,-0.04650894,0.01398908,0.015635865,-0.013517969,0.057571445,-0.094934486,-0.06362103,-0.0060492437,-0.0036362344,0.05506602,-0.09162737,0.03715615,-0.034177262,0.06796627,0.07603013,0.0058834977,0.04306437,0.009511265,-0.00038583434,0.059727505,0.033494927,-0.1259549,0.024702419,-0.008116241,-0.043728992,0.019030802,0.013321104,-0.012226307,0.04385989,0.085005894,-0.039486535,-0.13890904,-0.051830057,-0.038983185,0.08802651,-0.0063681323,-0.09182959,0.0076032337,0.048941396,-0.013521807,-0.007830153,-0.035589322,0.115820564,0.11657035,-0.053406384,-0.011214376,0.023977235,0.07082921,0.0053838613,-0.016300553,-0.103588104,-0.09213528,0.046349056,0.02175546,-0.05199687,-0.12701426,-0.026658192,0.031703446,-0.04836947,-0.050922655,0.009262701,0.01775212,-0.030399544,-0.057550546,-0.03925885,-0.043190602,-0.030957097,0.080225,0.042481825,0.02738335,-0.03981048,-0.060951665,0.0061625456,0.04370848,-0.035368506,0.0016535491,-0.013438071,-0.060738645,0.00011849346,0.028899811,-0.028136173,0.07835155,0.027450735,-0.028039416,-0.038758077,0.012661295,0.03470273,0.009525772,0.02721399,0.026639443,-0.035389867,0.06622223,0.12569809,0.039338335,0.026227513,-0.004942751,0.107623056,0.028162718,-0.035710722,-0.03328558,0.03732705,0.0403341,-0.037498504,-0.0032212876,-0.07845839,0.048705254,0.077499494,0.06527604,0.041633174,-0.005607618,-0.053407975,0.026461575,-0.0377907,-0.06986954,0.028582497,0.100481786,0.008727459,-0.04467665,-0.17784528,-0.0045374287,0.0006055521,-0.025237108,-0.046057966,-0.017966328,-0.0143716,-0.048685327,-0.035381213,0.0037217983,-0.0901386,-0.01879438,0.030352216,-0.049714267,0.047123015,0.09773199,0.024534866,0.020729495,-0.022803955,-0.030214027,0.029912496,0.0036768017,0.028286368,0.059683524,0.022038246,-0.07428354,-0.026337836,0.06782429,-0.008748029,-0.0026913465,-0.03456392,-0.021435747,-0.05185518,-0.005673899,0.016412852,-0.007718513,0.07029315,0.029694792,0.049860716,-0.07909274,0.0050478647,0.00302084,0.102498375,0.003143164,-0.06830598,0.046655294,0.043265752,-0.008242388,-0.035361808,0.0047749267,0.047184754,0.042823616,0.010675574,-0.0954464,-0.033823967,0.008018817,0.008431113,-0.059325233,-0.11369059,0.0023625337,0.033628263,0.10932453,0.041811842,0.0127970595,-0.0835917,0.058366995,-0.013466848,-0.08670398,-0.02540444,0.05711722,-0.028748788,-0.04010912,-0.09087249,-0.031390518,-0.05020078,-0.08392212,-0.022626702,-0.15864223,-0.114198655,-0.00926978,0.063972615,-0.08505401,-0.03893564,0.055584718,-0.01600141,0.025416037,-0.013179673,-0.02598204,0.0187123,0.033643454,0.040267877,-0.061335627,-0.084819146,-0.025895601,0.07052486,-0.025843047,-0.14655645,-0.019284852,0.07876354,0.0055415686,-0.09818107,-0.011530441,0.016145835,0.021988995,0.07273547,-0.0009377579,-0.038584925,0.00082276494,0.049254145,-0.068509124,0.02718933,-0.05250785,-0.05975489,-0.0025755665,-0.026251217,0.009687438,0.009761049,-0.047968794,-0.0071313092,-0.10638859,-0.010905166,-0.006390648,0.03136788,0.026730344,-0.059147906,0.0020404765,0.074382685,0.051251367,-0.003374166,-0.06356787,-0.055099715,0.00935809,-0.005359815,-0.06347298,-0.07619349,-0.01703019,0.12846503,-0.033801842,-0.014989242,-0.040372558,-0.018505776,-0.036258332,-0.041854758,-0.15640172,0.08042987,0.022766715,0.028076727,-0.102191634,-0.011866712,0.034241173,0.11774578,-0.10901158,-0.12638648,-0.073242106,0.022611585,0.019065855,0.014817223,-0.0039696433,0.012083756,-0.020766739,-0.061368167,0.08467888,0.018891416,0.08088459,0.011361182,-0.0003614321,-0.11117738,0.018556356,0.057456683,0.013166445,-0.09350136,0.02067709,0.023302397,0.012754244,0.02906226,-0.043353103,0.00943799,0.02216509,-0.0024738822,-0.041541476,-0.025369892,0.07230768,0.039722186,0.04012777,0.013827485,-0.08312018,-0.04911184,-0.041288134,-0.009206914,-0.016869713,0.07553567,-0.09142338,-0.04978161,-0.010102637,0.059254054,-0.03039987,-0.151799,-0.044337034,-0.0051289354,-0.080821425,0.04014519,-0.050031938,0.0010423769,0.016408606,0.09752176,-0.06722653,-0.032135148,0.035998743,-0.015166154,-0.0018435876,-0.0046656956,-0.0763665,0.032857675,0.004239226,0.0098028295,0.12819031,-0.03830197,-0.0612857,0.015387939,-0.056717973,0.065957904,0.05270981,0.02130498,-0.06655244,-0.042013172,0.039772056,-0.015410532,-0.011367415,-0.030316833,0.0028981532,-0.111877054,0.09417057,0.0028948244,0.0046691136,-0.09929849,-0.13060822,-0.038851965,-0.049573075,-0.00061918807,-0.019714382,-0.07488166,-0.06571925,0.0066028587,-0.059685748,0.002423077,0.037497424,-0.10233672,-0.016538372,0.050485633,0.08436164,-0.0035925203,0.000822028,0.010781,-0.04901076,0.06819192,0.06203308,0.016134487,0.10430064,0.06882539,0.09466597,0.018038567,0.088390455,0.038748544,-0.021621404,-0.035331775,-0.03186758,0.06286198,-0.039327342,-0.030709418,-0.03244646,-0.08367641,0.10047966,-0.00846013,-0.030330896,0.022511257,0.0005221334,0.05374711,0.018239338,0.022502603,0.02693361,-0.0902465,0.0057738665,0.016313596,-0.0792559,0.062175754,-0.04430266,-0.1303213,-0.08489378,-0.061045673,-0.035514373,-0.012402268,-0.10570941,0.04717367,-0.07177608,0.062434547,0.03570195,-0.06565956,-0.027106294,-0.0645917,0.040030804,0.099142164,-0.009839659,-0.03797021,0.024732575,0.028045388,0.06667981,0.048090577,0.048547212,-0.054490056,-0.017427415,0.016800782,-0.0062550944,-0.00611981,-0.04586624,0.033875205,0.09091745,-0.027576657,-0.047717817,0.0127245905,0.01595162,-0.004255265,-0.0023259926,0.03937408,0.045733463,0.025872424,0.007820582,-0.05217237,0.06010809,0.03313189,0.058910687,-0.0022984706,0.0027629854,-0.0061657596,0.07435897,0.027194742,0.034922026,-0.087591164,-0.048443254,0.07940759,0.05715974,0.10087473,-0.040492896,0.05088054,0.034628026,0.028379004,0.11474748,-0.044888664,0.05072057,-0.014688595,0.024090353,0.0021265543,0.027203444,0.05980043,-0.043607265,-0.040846374,0.008476625,0.06415292,0.019368272,0.0016196013,-0.07386597,-0.06543335,0.057472385,-0.04695247,0.09685033,0.029843539,-0.049587812,-0.16590433,0.022763059,0.034092594,-0.007211469,-0.08109268,-0.08132906,0.0005878102,-0.061163392,-0.068984784,0.056186438,-0.03924369,-0.02252441,0.03445021,-0.015928207,-0.006773113,0.039107528,0.062377945,-0.032321684,-0.057194132,0.007619259,-0.029707918,0.06657954,0.023774752,-0.01631222,-0.05331419,-0.03437022,0.006366957,-0.008140785,-0.11220802,-0.05554511,-0.025286596,0.044104975,-0.017100912,0.06936811,0.01645352,0.017254326,0.022293886,-0.03785856,-0.06873137,-0.0027865719,-0.03537254,-0.03312406,-0.020910729,0.027019639,0.0054175924,-0.09462291,-0.011936813,-0.026811803,0.053274088,0.0042224103,0.025019264,0.021670958,-0.017313069,-0.010943966,-0.019169666,0.00079647405,-0.050081667,-0.021604177,-0.054336425,-0.10338374,0.06445219,-0.06827863,-0.031941246,-0.16934213,-0.14903706,0.015302416,0.03453453,-0.012869761,-0.05534949,-0.018802464,-0.026216341,0.036887567,0.07611298,0.12221989,0.03998166,0.053210907,-0.019023316,0.09096859,0.0038531213,0.027977956,0.058332507,-0.0058889445,-0.04320268,0.07184684,0.09423608,-0.0894272,-0.012194912,0.015564466,0.025244538,0.049455978,-0.019011745,-0.06955431,-0.01683307,0.067331515,-0.008499786,0.03501598,-0.014542009,-0.055053227,0.00652541,-0.034575284,-0.06459844,-0.06654043,-0.03978859,0.004713201,0.07099155,-0.04877935,0.008300536,-0.05185552,-0.02225575,-0.07895588,0.035571404,-0.059578802,-0.083340935,-0.07947466,-0.055372357,-0.030188408,0.006822939,-0.03058338,-0.04755127,-0.031327747,0.082399115,0.046804994,-0.021542799,-0.058846544,0.005379483,-0.116407335,-0.017621145,0.03656384,0.053309325,-0.047165003,-0.07260669,-0.010852619,-0.01883733,-0.060070287,-0.11693939,-0.009792489,0.0043172445,0.10279775,-0.0010183248,-0.12278062,0.08364047,0.04673164,-0.021135226,-0.04686873,-0.07815092,-0.054192256,0.013672525,-0.0240547,-0.001494037,-0.035487335,0.029229557,0.058212575,0.026456589,0.0175323,0.042989712,0.0887986,0.024302235,-0.05842706,-0.009885405,0.04797821,-0.0003821169,0.005855426,0.033691905,0.09500485,0.009819664,-0.09809705,0.029164284,-0.052727327,0.058249123,-0.06068203,0.067121856,0.03098237,-0.08338864,-0.00076505233,-0.03478906,0.010723134,0.036990542,0.028572772,-0.05757343,-0.04049536,-0.11816848,-0.09153363,-0.08908983,-0.037602063,-0.039222106,-0.029681223,-0.07941767,-0.062475678,-0.0174252,0.051625196,0.03443646,-0.099189,0.05384614,0.13729247,0.031196255,-0.010866301,-0.026087,-0.057719078,0.008097744,0.038403094,0.0068197954,0.024585681,-0.04705467,0.0067965183,0.061554834,0.0065062363,-0.00087301247,0.05201732,0.03567356,0.0029409255,0.06698791,0.034423094,-0.035320196,-0.0989162,0.0031386246,0.064546965,-0.0012300911,-0.06309525,-0.025849657,0.007368092,0.005472915,-0.0063444246,-0.041914724,0.034659397,-0.04927569,-0.0729875,0.012602911,0.026381543,0.047208995,-0.026077256,-0.0854605,0.019029543,-0.06823235,-0.0257034,-0.025874319,0.008010966,0.039221615,-0.0105254995,-0.017616773,-0.058709733,0.1348023,0.037026957,-0.020513657,0.0218194,0.031002538,0.00077650894,-0.07104812,-0.043471273,-0.009798162,0.05916865,-0.021069735,-0.06663328,-0.06888428,0.0049084513,0.08918802,0.08505233,0.04932044,0.029010283,-0.10569152,-0.02040844,0.038123593,0.024444846,0.00087686756,-0.03287991,-0.009999281,0.056305144,0.07257473,0.08266015,0.05725952,-0.030826252,-0.00835939,0.106703795,-0.09851494,-0.007071678,0.008579659,-0.16216582,-0.050323665,-0.11667682,-0.10952662,-0.03484586,0.03208967,0.08695814,0.0070029683,0.047870312,0.017574484,-0.009113104,0.010233029,0.027286328,0.017167322,-0.06342127,-0.029790316,0.07499502,-0.003629472,-0.057521492,-0.01812959,-0.04064378,-0.055292796,-0.05075007,0.03266648,-0.016867653,0.04467647,0.027134988,-0.03348167,0.05595254,0.03732693,0.10300774,0.09159296,-0.030176347,-0.06994889,0.028090449,0.09402558,0.08684784,0.07183911,0.032900807,0.03430533,0.041836757,-0.027266972,0.005825851,0.013651843,0.057542518,-0.11599523,0.053834084,0.034115557,-0.04397285,0.035044722,-0.07380428,0.008146948,0.060838617,-0.014492632,-0.0057090847,0.073170945,0.00021619408,0.06260912,-0.041984975,-0.16911113,0.05051935,-0.004167546,-0.025223661,-0.040978074,-0.052928302,0.038449563,0.013100509,0.04380546,-0.002826303,0.06285821,-0.02045114,0.05679812,0.0219098,0.008087402,0.009923977,-0.018962715,0.03403606,0.07462527,-0.079522446,0.017720753,-0.06605596,-0.088119,0.140841,0.064532906,0.0009642949,-0.021449458,0.037351005,0.0021440564,-0.03888732,-0.03586519,0.008756029,0.024290353,-0.038125753,-0.019322533,-0.0131806545,-0.031788927,0.030120404,-0.012105936,0.028755482,0.05220363,-0.10356281,-0.05718369,0.07241693,-0.0013455742,0.024941484,-0.056126717,-0.034578886,-0.0045863744,0.0121125365,0.07602674,-0.049879063,0.011336577,0.000424305,-0.03410972,-0.00089707394,0.027269965,0.01526126,-0.0044397693,-0.07409457,0.033026617,-0.09660258,0.002938007,-0.0041545946,0.041651405,0.072287984,-0.057632115,-0.007756409,0.00042192006,0.003658242,-0.037996393,0.07879526,0.054720074,-0.05326571,-0.10386061,-0.09511344,-0.009814972,0.040526662,0.077472694,0.06885291,0.12108699,0.066627905,0.07380607,0.08878557,0.027021509,0.03484944,-0.005594838,-0.07676011,-0.028236236,0.086641945,0.15271804,0.12624638,-0.010889318,-0.073141105,-0.090661764,-0.026049307,0.06135706,0.013559123,-0.020037822,-0.035444777,-0.030780472,-0.060648866,0.000779307,-0.006755739,0.064508595,0.018253336,-0.041769028,-0.0353065,-0.014318646,0.07107937,0.078997836,0.0013252335,-0.016989535,0.0013393644,0.009749945,0.0014587615,-0.094793096,-0.04265812,-0.048381466,-0.023939867,-0.004851051,0.046258744,0.026339456,-0.007926906,0.020323846,-0.010311788,0.008515989,0.05452595,0.010927361,0.03677881,-0.0016238017,0.08186438,0.016339697,-0.019645737,-0.009830598,0.010263774,0.0662727,-0.02509917,0.028051468,0.034640104,0.052954476,-0.074337795,-0.020005412,0.049726035,0.1590857,0.008824877,-0.07962948,0.012993344,0.013359597,0.016695501,0.0048658266,-0.05769973,-0.09754013,-0.002926222,0.0442424,-0.0945415,0.08160873,0.03958379,0.04482086,0.022089697,-0.06224533,-0.044106457,0.048904054,-0.06077571,0.058810655,-0.0137501545,-0.043104656,-0.0811773,0.021648508,0.09617008,-0.014235039,-0.003167109,-0.0047350232,0.015000912,-0.04505067,0.008772365,0.09742216,0.11784077,-0.018254576,-0.05246697,-0.0248288,0.05717455,0.12033638,-0.004423952,-0.0937815,0.020767346,0.035241697,0.054134037,0.050886888,-0.019507183,-0.030354798,-0.032789886,0.02752088,-0.03471636,-0.1293567,-0.08618856,0.029630957,-0.033134144,-0.0068957373,-0.061527897,0.026452731,0.033510797,0.0105226515,-0.018145507,-0.06456153,0.057059232,-0.013074768,-0.09291792,-0.1781982,-0.08313049,-0.054547273,0.016505688,0.11815221,0.069842726,-0.04245248,-0.0114489915,0.050186217,-0.0023971372,0.001553275,0.011004605,0.07051023,-0.10013971,-0.052876946,-0.00067969656,0.11820997,0.03038243,0.035212122,-0.032894894,0.039917193,0.011692794,0.0018699543,0.07356351,-0.028310942,0.016891137,0.052389435,0.06058221,-0.09790672,-0.121876866,-0.030278472,-0.021439955,0.0021790715,0.02457506,0.08014249,0.050731096,-0.043145057,-0.007004922,0.05561813,0.0059043453,-0.043266583,-0.11326027,-0.09979723,-0.008731959,-0.00042602915,-0.008911941,-0.027883604,0.009434325,-0.008726198,0.08019482,0.06286373,0.025397044,0.047691483,-0.16170838,-0.13774148,-0.07663296,-0.08580566,0.034634136,-0.046605144,-0.040174976,-0.059630416,-0.051363062,-0.08294287,-0.05699004,0.0019026548,0.023092972,-0.016684242,-0.015573512,-0.038905215,-0.024519559,0.033563178,0.05984139,0.0019815525,0.0039932835,-0.09292194,0.0054401685,0.04390708,-0.0054414636,0.04081853,0.027313424,0.023998708,-0.024600333,-0.063728414,-0.049097694,-0.040725823,-0.020004535,-0.08643558,-0.011132931,-0.009699148,0.03104018,-0.03206409,-0.08189876,-0.08610002,0.025131242,0.023288617,-0.005642716,-0.14271377,0.032325834,-0.0074284566,-0.050117787,-0.069675684,-0.087961085,-0.106631674,-0.009875133,-0.048741255,0.009948742,0.0056508663,-0.08439375,0.045981392,0.009752171,0.061834164,-0.028662113,-0.06727481,0.0010113938,0.007900972,0.015170244,-0.036828466,0.018160844,-0.056066588,-0.038433813,-0.034818634,0.011724181,-0.0066612978,-0.1158936,-0.09379457,-0.033693146,0.082820065,0.05512897,-0.062859066,0.01518067,-0.025353927,-0.03534063,-0.044182748,0.045834273,0.023055267,-0.04527806,-0.08606855,-0.056027982,0.04822599,-0.045540374,-0.015313946,0.0044411523,-0.038199298,0.039038617,-0.017595729,-0.047092654,0.03840732,0.04220106,0.09353515,-0.01502043,-0.09542411,0.11636569,0.05455761,0.011384423,-0.006034741,0.023543019,0.04558688,0.021577995,-0.058058206,-0.04427261,0.0024418982,0.022633582,0.070329644,-0.043998178,-0.10636009,-0.054875076,0.100455664,0.046622086,-0.12454859,-0.078800805,-0.03197911,0.12322591,0.03043473,-0.09037404,-0.07378566,-0.109420784,0.028662754,0.09171031,0.053121623,0.027222743,-0.045931,-0.021941707,-0.052989647,0.048262343,-0.0119852405,-0.045540042,-0.05641111,-0.08281582,-0.06448131,-0.05042326,-0.020574065,-0.022839686,-0.07996039,-0.085727215,-0.018878248,-0.121728726,-0.033015,0.01118072,-0.14717928,-0.0082149105,-0.03858274,0.008644372,0.009208337,0.008124683,0.09026677,0.010550467,0.0055265897,-0.002830282,-0.00046065208,0.027121827,0.065146774,0.0068041473,0.004082831,0.04127336,-0.07590529,-0.033531815,-0.09290644,-0.06314991,0.042389397,-0.034461997,-0.063116625,-0.07184969,-0.07417157,0.03207072,0.027067471,-0.094377905,0.0070563373,-0.03169478,0.019100565,-0.04204014,-0.025389997,-0.06684892,0.047984328,-0.02063566,-0.022329183,0.06978318,0.00067373825,-0.092522725,-0.004366526,-0.027007787,-0.035869136,0.000115131,-0.04551791,0.03686099,0.012737484,0.04300316,0.053044163,-0.07072784,-6.527417e-05,-0.064606674,0.0033709279,0.036480643,-0.07151,0.03369473,-0.0052734693,-0.008294049,-0.015638668,0.059420142,0.06366234,0.043540414,0.020642238,0.053086594,-0.0026534963,0.05224188,0.050225627,-0.10843857,0.0036197945,-0.05171668,0.057737496,-0.10658286,-0.023475807,0.0015333851,0.0027766435,-0.095766075,0.018170217,0.055542856,-0.032055303,0.0065455814,-0.0132128,-0.052495215,0.003431671,0.0074361055,0.074057065,0.015443741,-0.024189765,0.025803601,0.027044017,0.043315396,-0.008826037,-0.058122355,0.026235232,0.023467286,0.013869994,0.080808476,-0.06296042,-0.0009644491,0.09634108,0.07708318,-0.009387378,-0.05543144,-0.0044233925,0.030966656,-0.028598681,0.03739622,-0.046259116,-0.02254322,0.02571149,0.050243065,0.020636037,-0.020178271,0.08838168,0.09895779,-0.02675988,-0.034544017,-0.04860031,0.0022859632,0.020372499,0.039697587,0.027492933,0.056354027,0.01135737,0.048745245,0.10504524,-0.08561416,-0.06960177,0.019871796,-0.030583939,0.014943328,-0.09492053,-0.0589585,0.0050065937,0.009697028,0.066296816,-0.0068151955,0.044641737,0.05762882,0.016684463,-0.0029620468,-0.038456935,0.0008708021,-0.036825832,0.032409985,-0.0020378844,-0.0645656,-0.05033279,0.03945241,0.051697884,0.080964506,-0.059442203,0.015394773,0.048012074,0.021524224,-0.0035453397,0.054505225,0.021771563,-0.032231886,-0.04146217,-0.06566348,0.0394494,-0.005210231,0.011607797,-0.054304298,-0.07007982,0.02640054,0.001162652,-0.08376553,0.024159055,0.026155895,0.028582912,0.057785455,-0.06630252,0.037692893,-0.036079288,0.024325687,0.017380586,0.06479989,-0.010191971,-0.011669617,0.028877107,0.05124354,-0.037980825,-0.076312974,-0.059727073,0.08344895,0.033409618,0.03677793,-0.011258146,-0.06798795,-0.035319645,-0.053910617,0.030259512,-0.056364894,-0.027414773,0.06166283,0.014091722,0.06067959,-0.012708411,0.0061581526,0.046909295,0.027210526,-0.024767758,-0.050129075,0.0057080807,-0.029934172,0.04960414,0.06182216,0.023609431,0.083414696,-0.018738413,-0.005174812,0.018439002,0.010577826,-0.02717419,0.053457923,-0.016746262,0.07239163,0.044644784,0.0055207564,-0.017754318,0.028375572,-0.030924555,-0.011607522,-0.0277571,0.03726132,-0.02133213,-0.047014937,-0.042445064,0.030854091,0.03808352,-0.014197556,-0.05145307,0.038581766,0.06541027,0.039005045,-0.0081171775,-0.008849391,-0.009365997,-0.07548713,0.03531174,0.064475566,-0.0366777,-0.06901673,-0.15315521,-0.06414662,0.05107087,-0.0016212243,0.036917906,0.0054624295,-0.08554698,0.06904489,-0.033407874,0.015181834,0.042594913,-0.023158582,-0.13109761,-0.08436289,-0.076434374,-0.11655197,-0.002047746,-0.0927162,-0.116282515,0.004684391,-0.026786057,-0.06963776,-0.025219787,0.028719395,0.018735088,0.033262543,0.07531241,0.056184486,0.022206647,0.038157985,-0.034636322,0.010935835,0.014258573,0.028196739,-0.056393716,0.030591812,0.07530763,0.009092961,-0.024965035,-0.094112985,-0.04804672,0.08049015,0.021315884,-0.029040774,-0.036746908,-0.060985357,0.008054145,-0.035168618,0.060980108,-0.0018935507,-0.04920349,0.03158194,0.054035377,0.051722202,-0.0045957584,0.0059177387,0.05694467,0.09264574,-0.0026185154,-0.028917877,-0.060334828,0.114973314,0.057521027,-0.044109393,-0.0058579254,0.02767822,-0.1029188,-0.12105888,-0.05043295,0.028199363,-0.0013095889,0.021954684,-0.051255904,-0.042443145,-0.07945476,0.06971883,0.0036510488,-0.044397376,-0.024482632,0.04290667,-0.016437817,0.016922198,0.012250855,-0.054734025,0.0053595463,0.08487708,0.037100527,0.049046803,0.042046074,0.07269736,0.04890731,0.057706833,0.10316245,-0.080122404,0.0008639329,0.011113496,0.13480017,-0.025661966,0.0013988075,-0.046091665,0.011742931,0.0046494068,0.004152499,0.009240494,0.0058754557,-0.02119047,-0.0004439325,-0.016112402,0.07236482,-0.011497503,-0.032923903,-0.15911195,-0.08705715,0.036089182,0.1574492,0.06509493,-0.046423636,-0.09032557,0.009382519,0.060113784,0.061371934,0.0017470823,0.008089005,0.004564977,-0.026605124,-0.03509607,0.04723886,0.0050542164,0.0010917048,0.07227302,0.034118123,0.019513141,0.01974253,-0.0046217013,-0.0074282847,0.029027395,-0.028079925,0.0604646,0.047977213,0.03244021,-0.04932446,-0.07837444,-0.0009587033,-0.032180246,-0.0034675272,-0.028221438,-0.044374432,0.016030943,-0.006534265,-0.01075335,-0.13616557,0.0056655444,0.088653125,-0.0080872895,0.011698221,0.005261481,0.053930596,-0.04626737,-0.07585993,0.02498533,0.06766607,0.10826759,0.13250925,0.058951635,0.0034808645,0.01634016,0.0013590374,0.0020168843,0.0434879,0.076171346,-0.03388867,-0.03340206,-0.01131749,-0.056428596,0.04984297,-0.020183511,-0.07339067,0.00222264,-0.057528198,0.095256,0.0019846738,-0.014376868,0.018181652,0.0882568,0.015199242,-0.0182707,-0.05828095,0.07704262,0.023930548,-0.004614653,-0.067315936,-0.03012015,0.047016934,0.014089557,0.011619712,0.032703932,-0.07768598,-0.024761261,0.061837867,0.037680663,0.11841037,0.004248402,-0.07778869,0.0900121,0.05790894,0.07780671,0.06443827,-0.006707782,-0.02050362,0.023197098,0.06213558,-0.0011441624,0.07303077,0.0544497,-0.10716966,-0.09092554,0.09088982,0.006410561,-0.014617292,-0.05630115,0.04710807,0.021976292,-0.01722294,0.070290625,0.015738664,-0.011072336,0.047816925,0.014061301,0.045578517,0.033112418,-0.043894168,0.08348728,-0.01796226,0.0033589234,0.025475396,0.008628824,-0.11990541,-0.08802003,-0.09165493,-0.14856032,-0.032610495,-0.019065479,0.046587918,0.012884046,-0.011840412,0.049895782,0.07289283,-0.03389981,-0.025102733,-0.028925411,0.020114183,0.004896197,-0.022857606,0.01452846,-0.009392013,0.08740507,-0.015613401,-0.015726814,-0.023247138,0.08378947,0.055880167,-0.018641487,-0.08589491,-0.111873105,0.035403877,-0.05732768,-0.016645037,-0.036463488,-0.09495362,-0.020853445,-0.06619798,-0.017836625,0.08948992,0.0357002,0.12678659,0.03300651,-0.04690391,0.067259625,0.035947457,0.08606292,0.09847778,0.03305671,-0.012355658,-0.015070194,0.00826556,0.09680857,-0.024654051,-0.050796583,0.051082175,0.07588116,0.061434593,-0.017912215,-0.0032579899,0.03873462,-0.01025203,0.026634546,0.023437,-0.04731546,-0.010813968,0.06273622,0.09091773,-0.03328376,-0.08973555,0.0070895953,0.038756322,0.07759569,-0.08229341,0.0032059674,-0.005881107,0.06517279,-0.03811245,-0.033346508,-0.020601233,-0.07929773,0.024096483,-0.045618173,0.029967701,0.066155754,-0.08204107,-0.12961744,-0.061024003,0.05323547,0.05965408,-0.058443774,-0.03177541,-0.062760524,0.04827639,0.050667897,0.051505376,0.007291783,0.013322293,-0.004658309,0.03057661,0.04738243,0.043017693,-0.069992244,-0.07741185,-0.03655258,-0.07208229,-0.08769229,-0.010126157,-0.070998475,-0.05370984,-0.015322039,-0.05298653,-0.013478518,-0.022857375,-0.02003766,0.0016244808,-0.09096278,-0.024577912,0.037398744,0.060622443,0.03201974,-0.029520798,0.028089022,0.029767422,0.09916762,-0.046597894,-0.011659213,-0.03677106,-0.035396025,0.057550292,0.10789074,0.105992965,0.061983217,0.008802135,-0.043636132,-0.014420229,0.046614412,0.033765566,-0.065270506,-0.029712984,-0.072073996,0.008869572,-0.022886785,-0.021938246,-0.08399861,-0.024504693,-0.13092086,-0.04442049,0.068914324,-0.022450916,0.025728328,0.045496512,0.0072532063,0.010230629,-0.033139326,0.0069842027,0.03579372,0.06298429,-0.06455607,-0.013282495,-0.057222825,0.11969625,0.027645824,0.044885267,-0.0694196,-0.043360133,0.09537862,-0.06031157,0.028358214,-0.0026065295,0.06559682,-0.050856844,-0.09553962,-0.08258568,0.06287501,0.037513964,-0.017332293,-0.012872837,0.08910928,-0.06568487,-0.108145475,-0.122322306,-0.20247033,0.06551374,0.025223486,-0.024822114,-0.10802256,-0.076401845,-0.011565274,0.05496639,-0.06403997,-0.08557656,-0.071656294,-0.008863176,0.007365886,-0.08175342,0.06309121,-0.020993087,-0.018173276,0.0334851,0.0337463,-0.027587198,-0.041179612,-0.033902798,-0.053633023,-0.03535302,-0.14038785,-0.085297935,-0.008612565,0.00024544794,-0.06916308,-0.05584692,-0.08615491,0.040319886,-0.037827864,-0.0023358697,-0.09711998,0.016643025,0.040762164,0.011192263,0.026982188,-0.00026429942,0.016369179,0.001269195,0.07641691,0.011798565,0.0037420953,0.008369192,0.07361774,0.06616334,-0.004499051,-0.07001162,-0.020878429,-0.0154620595,0.009357046,0.030925112,0.06000552,-0.041638155,0.0641192,0.034609247,-0.015794655,0.04306832,-0.038670816,-0.05384504,-0.059279814,-0.07497994,0.023971226,0.0057878327,-0.08244215,-0.08428674,0.044478234,-0.024522351,0.0419518,0.023819936,0.08212376,-0.07209889,0.0013958539,-0.00030634963,0.072424136,0.005357949,-0.062721714,0.027491955,0.012112656,-0.008523723,-0.004032224,0.012340951,0.004184292,-0.07988551,0.092800945,-0.033755653,-0.07091467,-0.03592378,0.058329113,-0.02954005,0.048645023,0.0029257003,-0.01380974,0.016366567,-0.072004996,-0.053041596,0.048335418,0.11849852,0.007094556,-0.07798223,-0.037650704,0.022190558,0.114039004,0.030509707,-0.017827727,0.03680805,0.0028983029,0.056875274,0.07932092,-0.084457286,-0.05525364,-0.04099986,-0.06256087,-0.006244007,-0.04724089,-0.012804805,-0.007477749,0.005071535,0.015362909,-0.057291355,-0.04270373,-0.13086855,-0.055598304,-0.10162424,-0.087226644,0.0856766,0.031635806,-0.020088572,-0.060393006,-0.016281448,-0.001876051,0.092348546,0.0021447206,-0.064241,-0.024425955,-0.03565249,-0.052604962,0.019985821,-0.055299796,-0.029928591,-0.07243304,-0.03465635,0.037066877,0.015059694,-0.030663049,0.03272916,-0.0053050085,0.032013454,0.034691177,0.034456287,-0.033817742,-0.014431718,0.01317493,0.009690178,0.0936127,0.088524796,0.03085733,-0.02980266,0.01787197,0.04500914,0.09913535,0.030768132,-0.04037537,0.016358415,-0.09524747,-0.030528573,0.09423092,0.01133846,0.0029351336,0.064522795,-0.02491681,0.052654117,0.0014058587,-0.06599666,0.03665066,-0.00033798986,-0.017706573,-0.0912681,-0.041218024,0.021459023,-0.02456834,0.03456646,-0.012929713,0.059542876,0.01833111,-0.03429175,0.033694595,0.010033036,0.043919012,-0.0073914407,0.021573884,-0.03974993,0.032506008,0.073811755,-0.018743746,0.050894238,0.020537546,-0.105948046,-0.04247518,0.0016731452,0.06904092,0.004977508,-0.12096419,-0.0133370245,0.0055809007,0.020699743,0.12394638,0.044960015,0.056726083,0.015591777,-0.013473107,-0.007721381,0.015878337,-0.022688128,0.005884801,-0.041394755,0.05369469,0.017071335,0.057487357,-0.00068929716,-0.011405258,-0.021568205,-0.045546956,-0.026250374,-0.024205877,-0.02594799,0.05982495,-0.027757583,-0.04199228,-0.05680379,0.033939864,0.028660988,0.0059080515,-0.07652755,0.05027426,0.01677224,-0.036723018,-0.060817458,0.026506165,-0.033704873,0.01057517,0.0033656463,-0.009703636,0.08519451,0.050483175,-0.008244135,-0.07046306,-0.057857595,-0.103903264,-0.084907584,0.031952295,-0.054595105,-0.12045068,-0.095341295,-0.015692208,-0.054467753,0.009789343,0.03772841,-0.028815929,-0.03666835,0.0128993625,-0.02098259,0.083505474,-0.019316489,0.002159028,0.0023739,0.01290337,0.04372617,-0.0073661795,0.029932203,0.07504641,0.013945339,-0.008950756,0.094647236,-0.0018576705,-0.020095766,-0.022266027,-0.026826797,0.053194612,-0.022953337,0.04882699,0.052843187,0.09705698,0.08282822,-0.0022716583,-0.04463819,0.040762663,0.008935002,0.03777245,0.03393212,0.009164775,0.009403435,-0.02188622,0.0005114009,0.049897846,0.0065660956,-0.0764818,-0.024307828,0.08262093,6.1741615e-05,-0.089241974,-0.011528968,0.047625482,-0.040250164,-0.03321057,0.009055345,0.04167399,0.0062958715,-0.041319426,0.012029552,-0.012836583,-0.03269872,-0.028552407,-0.049532153,0.014001625,0.053245045,0.022217745,0.004369753,0.02612951,-0.05538422,-0.07291456,-0.011945181,0.006807336,0.079624005,-0.12180596,-0.12415858,-0.024260884,0.059401266,0.053943552,-0.15097268,-0.015904063,-0.014877433,0.04048383,0.023969432,-0.059063133,-0.051613096,-0.053768665,-0.055414557,-0.04439358,0.055448215,-0.006049536,-0.018465798,-0.021707801,-0.018742109,0.08610559,0.106305316,-0.0052658403,-0.061588652,-0.05919737,0.039209474,-0.015091371,-0.021415245,-0.004521491,0.0237677,0.037641566,0.025109299,-0.06839794,0.06468037,-0.015453234,-0.03155758,-0.030374674,-0.03169501,0.0744449,0.047007326,0.06349435,0.071785286,0.012262485,0.061913,-0.019146437,0.03234424,-0.009018593,0.06980307,0.05057164,-0.007028087,-0.04491957,-0.0024532932,-0.08184886,0.07691931,-0.031914722,-0.07419254,0.007998599,0.04602209,0.03636629,-0.0031001063,-0.018477941,0.026238782,-0.054961696,-0.066297315,-0.019235536,-0.031439673,-0.01195751,-0.035434242,0.020968448,0.035287697,-0.07533353,-0.10880774,-0.041479785,-0.06219812,-0.037768774,-0.1018133,0.0015314096,-0.012209329,-0.03822798,-0.11526845,-0.06645739,-0.025485747,-0.0021483689,0.06593253,-0.11410663,0.06315252,-0.06514338,-0.112273276,-0.042227354,-0.058168735,0.031912066,0.010427511,-0.043075744,0.029252728,-0.05006088,-0.092893794,-0.056125335,-0.016234778,0.0060757785,-0.06299518,-0.06756157,-0.12317485,-0.022293994,0.019047206,0.03952126,-0.15886724,-0.0121947285,0.0009416128,-0.003551831,0.017756548,-0.018034616,0.036006983,-0.051920895,0.010397512,-0.038458638,-0.014561943,0.036732223,0.010134303,-0.033391017,-0.10426346,-0.036791738,0.005475488,-0.024306763,-0.027189406,0.009033365,-0.08517681,-0.07164996,0.044994563,-0.027476277,-0.045866877,0.08094038,-0.082482554,-0.046689663,0.00676834,0.008369704,0.07770438,-0.03989913,-0.073086485,-0.033581637,0.007927877,-0.0854677,-0.0500699,0.052317325,0.058710888,0.010756844,0.02371986,0.08884673,-0.09201102,-0.12713291,-0.08853468,-0.05245652,0.01641901,-0.04256778,0.055399742,-0.04174122,-0.011797077,-0.014186647,-0.08482671,-0.0017971004,0.04783956,-0.012739647,0.09856117,0.019156318,-0.027756574,-0.03780171,-0.07862702,-0.086225815,0.004083243,0.00561764,-0.02723291,-0.020569557,0.05233065,0.065009125,0.044167195,-0.073601596,0.076831445,-0.024894211,0.02787522,-0.0320232,-0.0456581,0.13063,-0.002777237,0.059287027,-0.043225735,0.015065492,0.034645014,0.018907065,-0.05482735,0.089111656,0.093189836,-0.04065852,-0.117800035,-0.03024754,0.0801832,0.032192867,-0.1245628,-0.03263557,-0.11373602,-0.04458445,-0.02673569,-0.12324852,0.02455726,-0.0996588,-0.049324013,-0.0012359379,-0.01365225,-0.07441201,-0.08855465,0.014878405,-0.03347396,-0.0047247624,0.02691562,-0.10050275,-0.03502689,0.049273383,-0.084167235,-0.019921763,-0.015393576,0.045931414,-0.054938085,-0.06095404,-0.010941339,0.020475913,0.048625685,-0.039825343,-0.070248455,0.048934963,-0.00895803,-0.003224573,0.008346959,-0.025065554,-0.04784864,0.020036085,0.045683127,0.03382456,0.029834628,0.045233663,0.00030442496,-0.0051444382,-0.041585542,0.03878004,0.01449345,-0.081760466,-0.0072966907,-0.079389974,-0.09915801,-0.09007539,0.0024433776,0.011354553,0.0036731826,-0.015391024,-0.07815647,0.058583345,0.030292379,0.07964732,-0.07045018,-0.13630988,-0.0024541107,-0.028780695,0.0028895284,-0.009710194,0.019364236,-0.048772424,-0.027877001,-0.020710174,-0.010540555,0.044750027,0.03783901,-0.017252637,-0.070761845,-0.029662494,-0.06752503,-0.008991075,-0.02538936,-0.068886384,0.02894366,0.0024554085,0.04129894,-0.05371669,0.015868673,-0.017744679,0.020784479,-0.0076331515,-0.02008844,0.015069486,0.06909915,-0.044323836,-0.06148714,0.068132564,0.012515507,-0.041228637,0.03113068,0.049152493,0.011157216,-0.02235904,0.036273878,0.104680575,0.012650187,-0.011639558,-0.023498219,0.062397543,0.039183572,0.036767185,-0.012516593,-0.008682709,0.020146247,-0.06871433,0.012846701,-0.0005514422,0.019982254,-0.0039973203,-0.00537715,0.043537155,-0.052007098,-0.0017517881,-0.028483763,-0.062356614,-0.08901276,-0.075494446,-0.035257544,-0.10196531,-0.035292227,-0.11420112,-0.087617084,-0.104616314,-0.033982873,0.034222543,0.025390804,0.024600284,-0.043105137,-0.02883222,0.0069006756,-0.041683372,-0.045891777,-0.036564264,0.02854065,0.0399734,0.018154195,0.013772508,-0.061216522,-0.037164144,0.0026801992,-0.023988536,-0.0250457,-0.030502906,-0.021437282,-0.0070314715,-0.028423248,0.04733939,-0.037928883,0.013281261,-0.049904432,-0.023763096,0.023928465,0.051263843,0.006635639,-0.03429442,0.06208148,0.041833565,-0.07121497,-0.001524063,0.06839603,0.013242365,0.014180556,-0.004052782,0.09885441,0.0896527,0.015179648,-0.07149884,-0.016287643,-0.022094127,0.08655765,0.02692198,-0.033483054,0.07906787,0.021660022,0.016463272,0.05775576,-0.008083584,-0.048866082,0.015336021,-0.039179526,0.048410933,0.029683607,-0.013859705,0.06890574,0.024791278,0.048794884,-0.056285173,0.0335539,0.10181222,0.047695994,0.020129673,0.04514323,0.012090942,0.017590128,0.04227806,0.07977466,0.04632917,0.042654403,0.06571678,0.0090260375,0.036958616,0.053755436,-0.015325144,0.053647716,0.038420834,-0.05730696,-0.058946885,-0.037870016,0.00699147,0.002504064,-0.05378076,-0.049388647,-0.05016215,-0.07002309,-0.07137225,-0.03710119,-0.0032059993,-0.0018376313,0.029936453,-0.061117154,-0.086707406,0.05108899,0.05888165,-0.018953577,-0.041351136,-0.028862141,0.036000583,0.10592177,0.023678685,-0.057280004,-0.017849846,0.098705165,0.025188966,0.056214336,0.015384371,0.00090791547,0.054281246,-0.04952522,0.023042867,0.011232516,0.026287876,-0.06995469,-0.04688661,-0.006063199,-0.0046359287,0.025970805,-0.06780648,-0.13716511,-0.10063129,-0.022434773,0.043007445,-0.04494347,0.003249363,-0.0130692925,0.04239158,0.030253924,0.006674297,0.018936886,-0.00012591109,0.008341695,-0.036548115,-0.0087470645,-0.054713223,0.052913047,0.010237052,-0.041629512,-0.08878647,-0.057954364,0.07805043,0.077389106,0.0052915886,-0.010058195,-0.09158637,0.007036348,0.04719145,0.0786982,0.027253965,-0.0900714,0.06506005,0.014896962,-0.031722955,-0.125206,0.028063351,0.047955085,0.083104,0.057458136,-0.047054388,0.042787176,0.005458869,0.017403157,-0.011555821,-0.023849707,-0.030802758,0.05741345,0.043938827,0.100616135,0.106494755,0.006088767,0.031981677,0.06227643,0.060924962,0.062469747,-0.014558333,0.06487589,0.071197204,0.01429148,-0.050463807,-0.087266386,0.00047863805,-0.017612223,-0.03531327,-0.06655971,-0.051572144,-0.040106602,-0.0912135,-0.04730583,0.0054979324,0.0052051283,0.016888283,-0.04487015,-0.08592416,0.037523,-0.024377568,0.05100456,-0.034337625,-0.06694457,-0.054560438,-0.033218477,0.006788959,-0.063226104,-0.0794433,-0.07984586,0.10187119,0.06739018,-0.035774507,-0.030648319,0.042927776,0.047168918,-0.04688069,