-0.051584974,-0.07572867,0.044914316,0.0219785,-0.070878014,-0.08564955,0.06102444,0.076771624,0.07821935,0.04215415,0.04921108,0.037478793,-0.050713923,0.08256235,0.07279218,-0.03334685,0.07263788,0.08984997,-0.07331003,-0.07880282,-0.008529815,0.038241807,-0.07357991,-0.074247755,-0.047832213,0.049729623,0.005828578,0.035233382,0.055762116,0.059910953,-0.02842034,-0.059567533,0.015398599,-0.08502156,0.06840097,0.02670504,-0.08934092,-0.04368748,0.056502763,-0.060219083,-0.090448745,0.0536812,0.05633835,-0.03968716,-0.015836494,-0.038282115,0.08950341,0.037417263,-0.018271616,-0.00080742314,0.06151755,-0.02706176,-0.043575738,0.056704603,0.08202575,-0.017674988,0.092866674,-0.08704337,0.03296817,0.05873071,-0.08959668,-0.067253254,-0.070232324,-0.04923315,0.010587371,0.00014460749,0.07951729,-0.014944839,0.03962544,-0.038732395,0.04765278,0.05593855,0.084705524,-0.0046474347,-0.022150163,-0.054465946,0.03412943,0.0027819476,-0.059551977,0.036097217,0.037739582,0.054820325,-0.065796085,-0.058738574