-0.01089395,-0.16940713,-0.26634946,-0.06323475,0.17426273,0.1498907,0.24631438,-0.25100535,-0.19713767,0.19787934,-0.048574686,-0.08578615,-0.3393743,0.10242066,0.049668968,0.07280906,0.19281125,-0.13030832,-0.11295244,0.2141514,0.08053351,0.23432523,-0.09624869,-0.1467962,0.23339699,-0.29904407,0.16628626,0.021319337,-0.34389248,-0.020255862,-0.12073435,0.22240344,-0.2739052,-0.18711072,0.18522482,-0.32470384,-0.10245624,0.22361048,-0.2993582,0.20782058,-0.19091599,-0.034342,0.14785762,-0.22550294,-0.043726876,-0.19145526,0.12064995,-0.36775562,-0.15435222,-0.1799306,0.17418513,-0.2731283,-0.25264764,-0.025118392,0.17908698,-0.26783854,-0.24599063,0.09383216,-0.2607941,-0.30931407,-0.118657134,-0.23617469,-0.25238112,0.072260156,-0.16686909,-0.26148418,-0.2822746,-0.17917743,0.26380244,-0.30304584,0.25522262,-0.2531465,0.25785172,-0.19393764,0.24992163,-0.30356994,0.28796762,-0.27043295,-0.17026958,0.16350235,-0.2735905,-0.2695696,-0.26380605,-0.21596634,-0.27552584,0.17203641,0.23923102,0.24331734,-0.12969288,-0.27876663,-0.15774044,-0.1998207,-0.15064065,-0.029182851,0.25680354,0.16075087,-0.121693164,-0.21716629,-0.25577784,-0.293075,0.2267819,0.22755867,-0.10063789,-0.33906904,-0.14337385,0.023316838,-0.22099431,-0.2632442,-0.31029528,0.04621786,0.06772816,-0.26837716,0.1708423,-0.1552914,-0.13467038,0.24703722,0.24802023,-0.12490335,-0.21342649,-0.12553133,-0.04170266,0.19096294,-0.17953221,-0.045165688,0.1996091,-0.24433175,-0.13318999,-0.08073534,-0.03237166,0.10192305,-0.23677726,-0.020957997,-0.11465101,-0.1909007,0.249473,-0.26931772,-0.23407379,-0.081392586,-0.2347838,0.22909828,-0.1628177,-0.32679316,0.24932699,0.16902284,-0.11439079,0.12966235,-0.085961275,-0.025984706,-0.26827714,-0.153194,0.23652661,-0.23995432,0.114950225,0.092280135,-0.35267147,-0.1842449,0.19138034,-0.15524139,-0.046475537,-0.11770066,-0.3420236,-0.2349177,-0.26570806,0.024387628,0.16055922,0.23458816,-0.15222368,0.20621236,0.29386395,-0.23733628,-0.013061173,-0.018409666,-0.122267276,-0.11830012,-0.25097746,-0.105227545,0.078439735,0.2618136,0.008659633,-0.012950474,0.21020725,-0.15747945,-0.028470686,-0.24860357,-0.26519963,-0.19657205,-0.2398422,-0.00051090686,0.13404539,-0.22871391,0.06346754,-0.30782977,0.19909461,-0.33390096,-0.19502251,0.021762459,-0.16841832,-0.19486779,-0.34050816,0.15845968,-0.06928411,0.22570187,-0.26175532,0.24944423,0.016879408,-0.1951031,0.24046753,-0.25757885,0.16269943,-0.17984775,0.22335163,-0.36231357,0.23882256,-0.3097938,-0.26832297,-0.205046,0.13281196,0.25044787,-0.22444333,0.25455543,-0.094723485,-0.10853266,-0.21056007,-0.260279,-0.11410221,-0.005785577,0.03237529,-0.20347156,-0.13551827,0.24027652,-0.3474724,0.22406465,-0.30223086,-0.25782934,0.1532584,0.0476602,-0.021645794,-0.05558705,0.16890062,-0.21614708,-0.21570274,-0.09513069,-0.42449683,-0.27405307,0.005161005,-0.18122166,-0.2168666,0.15936719,-0.24527726,0.05131599,0.2340147,-0.26257792,-0.18832,-0.28846535,-0.16436426,0.08735953,0.2238115,-0.16045086,0.25370196,0.19864726,-0.17244662,0.14161688,-0.38561714,-0.110022955,0.15261172,-0.2848588,-0.20754282,-0.22872595,0.21971177,-0.3785773,-0.22700751,-0.254201,-0.19168437,0.26457065,0.10334333,0.21120173,-0.12057517,-0.045847464,-0.14292137,-0.19596915,0.041892327,-0.20281577,0.17327163,-0.3565827,-0.24313802,-0.261747,-0.22166385,0.120335154,-0.21087483,-0.32309923,-0.2673651,-0.27025434,-0.25110114,-0.27926075,0.20795852,0.16248584,-0.17774,-0.25365224,-0.23194848,-0.2501676,0.07690083,-0.114895664,-0.17571865,0.09795849,-0.23920935,-0.1340933,0.26934883,-0.050938565,-0.18089351,0.183762,0.1280474,0.17488737,-0.14521357,0.13746677,0.24916396,0.14218397,0.22154608,-0.31073955,0.015951183,-0.16697118,-0.37154633,0.27395508,-0.14752382,-0.20358877,-0.26768568,0.25158912,-0.3104335,0.29449722,0.084842265,-0.22892125,-0.04735456,-0.134624,-0.02999592,-0.23695251,0.19980422,-0.27077067,0.1934659,-0.036967404,-0.13606492,-0.19250612,-0.39490303,-0.1848415,-0.20469595,-0.0809326,-0.26945516,-0.1120221,0.25948584,-0.25048873,-0.39494666,0.20799094,0.20061685,-0.22518875,-0.27957758,0.27165347,0.2788731,-0.24048331,-0.09270167,-0.10318708,-0.25355208,-0.10852647,-0.22618662,-0.26163578,0.15626028,-0.04889159,-0.023628369,-0.12091246,0.20601203,-0.06526182,-0.23762612,-0.040305287,0.00753369,-0.11035148,0.21035638,-0.15405495,-0.0071703712,-0.30002886,-0.24474627,0.13172203,-0.19816263,-0.33841813,0.2338648,0.023807356,0.08571416,0.1690755,-0.12534426,-0.15666051,-0.002663272,0.080839045,0.25292984,0.2207155,-0.25248265,-0.25561523,-0.011750953,0.26830587,-0.261804,0.25820974,0.21436124,-0.17573929,-0.3254476,-0.27122933,-0.21905644,0.14487259,0.0080799395,-0.23161715,-0.20915055,-0.20050545,-0.18696652,0.11812824,-0.053771608,-0.16903764,-0.114928715,0.043856908,-0.372712,-0.0761987,0.12209697,-0.094210416,0.16405998,-0.20714875,0.20059924,0.20709784,-0.3133451,-0.16167,-0.1391558,0.022799678,0.08899154,-0.21508978,-0.06714118,-0.14918205,0.23179479,-0.15902047,-0.14114937,-0.22105984,0.22814631,-0.2153916,-0.096035786,0.16423897,-0.17835924,-0.20788041,-0.23278129,0.17868826,0.20236185,-0.2962839,-0.22872747,0.1895748,-0.17543115,0.1968803,-0.19375007,0.22511175,0.24635291,-0.06102372,-0.21256697,-0.23646854,0.16416566,-0.3520671,0.22263849,0.23536642,-0.2544507,-0.13894983,-0.16587411,-0.1616753,-0.09452331,0.21401714,-0.2730655,0.22954458,-0.23089167,-0.04702421,-0.09427863,-0.33833686,-0.18549538,-0.17511491,-0.27019268,-0.27817482,-0.24477968,0.2732492,-0.107707284,0.24201211,0.16447096,0.14523023,-0.3267995,0.17218505,0.024183663,-0.253839,0.23004802,-0.17249039,0.1340776,-0.11505068,-0.33078957,-0.18701683,-0.18483931,-0.23446572,0.03635704,-0.1618807,-0.20378265,-0.17973353,0.17104948,-0.046698265,0.1725986,0.16680877,-0.021975538,-0.23552614,-0.07685963,-0.0813021,0.20466447,-0.18591504,-0.3402172,0.20287083,-0.17000817,-0.1290784,-0.054153048,0.16887374,0.26208168,-0.34150678,0.23176387,-0.2325391,-0.14861894,-0.057413436,-0.20213984,0.23375478,0.09373104,0.25526217,-0.03909694,-0.27072787,0.24305056,-0.0931015,0.15622309,-0.039756797,-0.3169278,-0.10321325,-0.3564326,-0.03162362,-0.08081134,-0.27183175,-0.21115653,0.19342566,-0.29199237,0.009310619,0.22322258,-0.33896983,0.14079902,-0.13069676,-0.08447626,-0.30188215,0.02381665,-0.07847469,0.2483622,-0.20587096,-0.23775497,0.20703658,-0.018366136,-0.36074942,-0.032862607,-0.18387838,0.28132385,0.24465205,0.2815325,-0.17767802,0.15210555,-0.13064484,-0.17162521,-0.14218177,-0.15323524,-0.10252006,-0.19013408,-0.27988207,0.25321314,-0.14340247,-0.15768147,-0.12788738,0.25159046,0.080084495,-0.1841753,0.21542609,0.21014,-0.037708167,-0.2565644,-0.12162508,-0.14861964,-0.20030689,-0.017392306,-0.31265736,-0.19331828,-0.18544228,-0.14515112,-0.20069546,-0.1393685,-0.23645943,-0.17076536,-0.25925136,0.053663537,0.08122418,-0.09801076,-0.1508109,-0.31683296,-0.2506931,-0.31942716,0.27382475,-0.27776605,-0.10721494,0.0007943348,-0.12026803,-0.15267873,-0.34470624,-0.19244795,-0.2794286,-0.12608644,-0.22031613,0.18632096,0.23730136,-0.24423404,-0.27466944,0.13337205,-0.16633843,0.05341836,0.23298366,-0.31605443,-0.2265059,-0.20442146,-0.344417,-0.18971585,-0.24351533,-0.2240837,-0.19034806,-0.23684411,-0.11960633,-0.11503937,0.21565585,0.12261937,0.15830643,0.22911209,-0.20053744,0.09962699,-0.29178157,-0.24712902,0.22926809,-0.2106561,0.25936708,0.22279641,-0.34763685,0.05232022,0.012863279,0.11982614,-0.032040764,0.104248285,-0.25706205,0.24155405,-0.032011867,0.24983616,-0.3246406,-0.13256648,0.08661169,0.082113594,-0.12299567,-0.11948606,-0.2027532,-0.20269118,-0.37188497,-0.26232445,0.010975066,0.20257644,-0.18382774,-0.1536126,0.043580785,-0.13850248,0.16601399,-0.1594822,0.111576974,0.24900039,0.12691408,0.06174832,0.15008472,-0.21002257,0.20512949,0.05789087,0.20641917,-0.17809997,0.23296262,0.17355992,0.17155188,-0.15416607,-0.18825552,-0.06268223,-0.12545648,-0.17935878,0.18145858,0.19710657,-0.29677403,0.27158853,-0.13868019,-0.22902185,0.18432356,-0.35967153,-0.33355832,-0.28385088,0.1468454,0.050487697,0.23391883,0.26399362,-0.18192028,-0.22805089,-0.17219777,-0.17227499,0.22581221,-0.13908195,-0.20310566,0.122219026,0.21275048,-0.11581584,-0.14009103,-0.22445309,0.20208803,0.0055408925,-0.2434442,-0.28939044,0.09183464,-0.036216833,0.07594253,-0.212177,-0.27496347,-0.14777073,-0.17937808,-0.15060797,-0.040888138,-0.22802049,0.02048618,0.038689014,-0.12774432,0.060815815,0.21870023,0.1376592,-0.23444733,-0.25450647,-0.29807478,-0.26949745,-0.19110873,-0.10462048,-0.15928818,0.020094998,0.22206978,0.093076654,0.23435636,-0.23528554,0.23305382,0.022720078,0.26669002,0.22289531,-0.022311836,-0.016019933,-0.099803105,-0.27780998,0.16371426,0.10715762,-0.4138213,-0.32493675,-0.3017043,-0.15246476,-0.309115,0.19146822,-0.22416224,0.1806065,-0.044088945,-0.31622148,-0.18169837,-0.12199964,0.123902656,-0.15463746,-0.06299223,-0.20160289,0.253507,-0.11906634,0.25934678,-0.26601416,0.24902613,-0.14450474,-0.20725743,-0.12258608,-0.09247827,-0.10158874,0.15202601,0.21709913,-0.24579592,0.024211232,0.08097107,-0.16221762,0.252141,0.18645886,0.2223702,0.17540619,-0.21306857,-0.30140594,0.007439355,-0.16813263,0.051244996,0.22401898,-0.17708594,-0.23977965,0.20470376,-0.24004449,0.19906533,-0.17437716,-0.27293864,-0.1595447,0.1976636,0.22958055,0.18517263,-0.22248599,0.066585965,-0.08246567,0.09364243,-0.19754839,-0.099558175,-0.07394329,0.11718249,-0.12402164,-0.22009191,-0.27422112,-0.17515127,-0.2268381,-0.1904608,-0.029383233,-0.22466601,-0.03164154,0.064459495,-0.2796582,-0.21044084,-0.12198239,-0.075905114,-0.03542368,0.16125451,-0.29618376,0.21481308,-0.12506488,0.16513832,-0.0978561,-0.026738344,-0.057444952,-0.24984804,0.17111202,-0.13125038,-0.2620312,-0.009322966