-0.007245596,0.0508099,-0.05509029,-0.05088897,-0.010297596,-0.047783926,0.01143172,0.0061255475,-0.042537577,-0.03800515,0.045531906,-0.049836304,0.065085426,0.0136348475,0.038585097,-0.00522515,-0.034917798,-0.044629753,0.0039003799,0.02901998,-0.073584296,-0.14764377,-0.06308621,-0.062348563,-0.01425486,0.07923585,0.019041937,0.07742141,-0.029534308,0.024027506,0.022374043,0.028583566,0.05566412,0.0676934,-0.075867146,-0.0066031497,-0.049995895,0.068560936,0.04733159,-0.0029205545,-0.09508558,0.015254139,-0.05787362,0.07609537,0.008959408,0.012562281,0.010580663,0.1027927,0.13011315,0.060258433,-0.0068242135,0.06255711,-0.06332631,-0.014838112,-0.04383389,-0.044650164,0.012023558,-0.020849634,-0.08915212,-0.06662942,-0.052886005,-0.09709245,-0.057003498,-0.04983526,-0.048863698,-0.050172117,-0.03496034,0.06159741,-0.023164598,-0.047093365,-0.093577705,-0.008172899,-0.06898268,-0.08980252,0.02310496,-0.033049848,0.08306668,0.010101967,-0.009969484,-0.07408042,-0.021507785,0.015126576,0.04538444,0.013290505,0.09879428,0.009364203,0.03763648,-0.003686417,-0.053610627,0.01233541,0.0018530951,0.016879968,0.00014217786,-0.07143976,0.046788093,-0.012646168,0.008751369,-0.11554476,-0.020918103,-0.024179846,-0.036558647,0.038139652,0.016510874,0.08784017,-0.041721728,-0.07753276,0.051112946,0.064499885,0.074416064,0.024557209,-0.08856135,-0.0021349126,-0.019875228,0.0048445407,0.067242414,-0.13477424,-0.0525764,0.073065914,0.04084726,0.035110194,0.050317854,0.09281042,0.03597485,0.0793235,0.004147201,0.042988256,-0.0040709437,0.026244307,0.041582417,-0.009093987,-0.072804585,-0.014902183,-0.022423944,-0.023813335,-0.046245765,-0.0029241918,0.041157458,-0.03749269,-0.06421414,0.010380877,0.07933453,-0.012452766,-0.018508373,-0.00031939102,0.119049996,0.06827413,-0.05726768,-0.13857387,-0.005763519,-0.027774455,-0.00037893796,0.01919146,0.047027837,0.13069801,-0.006285119,0.04343133,0.08162234,0.047830265,-0.030014249,-0.0453682,0.057212997,0.042263273,-0.019710124,-0.033466373,0.0059933797,0.03717321,-0.04772613,-0.06513439,-0.11538272,-0.059801213,-0.009795231,-0.08226384,-0.09037324,-0.10301724,0.017707374,-0.056220584,0.04310645,0.07803271,0.018645532,-0.022536324,0.029602649,-0.026122758,0.09228339,0.023317764,-0.046859425,0.0028848727,0.037669055,-0.012315771,-0.08097672,0.016707063,0.071979664,0.09695625,-0.059576932,0.050612867,0.059921384,0.033004586,-0.008118748,-0.023333138,-0.0743295,0.022347145,0.02201976,0.04530462,0.07061096,0.021161186,0.0061507453,0.07357261,-0.054077327,0.009642217,0.039972723,-0.027815608,-0.03597455,0.036848895,0.11133438,-0.0685675,-0.050364133,-0.056273546,0.08733876,0.047171965,-0.041283265,-0.076669745,-0.023270687,0.1317741,0.026225248,-0.09351589,-0.050525296,0.009999237,0.014611205,-0.05042128,0.030647796,0.0182777,-0.13188933,-0.06118678,-0.06742077,-0.054554045,-0.08247376,0.0012443919,0.02194426,0.008982284,-0.02023357,-0.028321596,0.07880879,0.077127166,0.043557473,0.06391809,0.0018369942,-0.065326564,-0.013882884,-0.077100314,-0.08605543,-0.033820152,0.0286085,0.025523093,0.024436954,0.049163792,-0.008853412,-0.07492288,-0.04587286,-0.019296156,-0.020783849,-0.013065796,-0.045453425,-0.057363726,-0.022013769,-0.007228105,0.018261285,0.057028193,-0.00648136,0.027388902,0.027240863,-0.040802088,-0.0022961681,-0.05690016,-0.051410332,-0.106768966,-0.079822615,-0.0073133577,0.036826827,-0.022506138,0.05007664,0.0021491586,-0.053201776,0.054369457,-0.02338156,-0.011692239,0.06664787,0.0058463966,-0.11200614,-0.1049934,-0.0443208,0.012428183,0.030339794,-0.08820189,0.0047894362,-0.0030711615,0.055375177,0.0114963995,-0.033318195,0.046072263,0.08537432,0.10141946,-0.00020727809,0.060083576,-0.016552942,0.028026605,-0.040380035,-0.0037050315,-0.035314187,-0.08436545,-0.055308342,0.07757081,-8.24657e-05,-0.001499803,-0.024428211,0.051883493,0.029283235,0.07405835,-0.033882312,0.054100264,0.12650937,0.09052823,-0.09367397,-0.03854267,0.049670942,0.111457445,0.014447188,0.054688983,-0.080176435,-0.019736731,-0.028385948,0.07097763,-0.04406593,0.008902624,0.00939373,-0.018960241,0.030884102,-0.08567175,0.024926944,-0.03936731,-0.11883006,-0.046880577,0.02614701,-0.06657413,-0.051073264,0.011238256,-0.07421975,0.02145557,0.033970136,0.034517404,0.08808938,-0.058317408,0.004280555,-0.020186523,0.03660581,0.009800322,-0.053335845,-0.072544366,-0.032440685,0.031591542,0.07418002,-0.09491529,-0.016513865,-0.05277737,0.04792319,-0.12285321,-0.090904534,-0.04957583,-0.043892663,0.036304176,-0.020103225,-0.0499096,0.02107703,0.07984334,0.004132968,0.044198047,-0.0069484874,-0.03779537,-0.016775109,-0.0015641566,0.031097623,-0.024144458,0.0018834163,-0.033445846,-0.041840736,-0.057993762,-0.014661637,0.063254476,0.023071473,-0.04202133,-0.028713075,-0.01074599,0.10709145,0.12093261,0.033551086,0.022160716,0.07368067,0.031202817,0.019519048,0.0007626525,0.017361011,0.0013505041,-0.015998287,0.021684043,-0.100571886,-0.101890825,-0.08181584,0.04514186,0.03456336,0.052956183,-0.07780459,-0.14782642,-0.007903005,0.0077532292,-0.0041347425,-0.06906022,-0.12542456,-0.044968996,0.01995168,-0.016734574,-0.095364586,-0.13887148,0.04188187,0.011300296,-0.029018203,-0.025469527,-0.025598668,-0.05787895,-0.009388694,-0.09932968,0.124721326,-0.03542002,0.06600191,-0.029243836,-0.038058855,0.028771557,0.04176682,0.0671743,0.042074706,-0.047661107,0.010280778,0.06256273,0.068556435,0.04225329,-0.019053534,-0.048000045,0.012599835,0.001005203,0.0020631377,0.04121781,-0.0970436,0.03245472,-0.055625606,-0.024470523,-0.037698697,0.050595555,-0.04561421,-0.075667955,-0.020994205,0.011740762,0.0710988,0.01784655,0.01776744,0.016170418,-0.0629366,-0.0119563835,0.009038253,0.00061465974,0.0045271073,-0.0017528294,-0.048153043,-0.091974236,0.034422144,0.0062421,0.0062454254,0.025222715,0.010892693,0.0058409,0.055109248,0.04407292,0.02024472,-0.029473051,-0.02361841,0.021755565,0.017197132,0.040487178,0.027842516,-0.008792593,-0.10188202,0.024801519,0.01942046,0.02155033,-0.025165336,-0.063283,0.007661468,0.025799124,0.025080686,-0.107838616,0.07888962,0.04261777,0.037722707,0.041245136,-0.063193634,0.007119198,-0.08577477,-0.068334185,-0.03088914,0.023886906,0.0070240446,-0.05851126,-0.06988588,-0.021926755,0.053514812,0.022354769,-0.0059432257,-0.077515684,0.0050349566,0.028527562,0.040175375,-0.0013515524,-0.033811282,-0.008513533,-0.08402686,-0.020304404,0.066597335,0.06799006,-0.035546016,-0.044207636,-0.06263278,-0.024450395,0.02559767,-0.039974496,-0.03642556,0.008719736,-0.01412186,0.06735102,0.005018986,0.050692737,0.03721474,-0.031601474,-0.020850854,-0.022907065,0.016700814,-0.017041415,0.0058988403,-0.06844927,0.03786257,-0.04856115,-0.030296285,0.0011919821,-0.046392776,0.03915424,-0.000977581,0.016469315,-0.026139667,-0.08933101,0.010776773,0.045974817,-0.05014213,0.035667144,0.011100916,-0.035905134,-0.061912373,-0.05537312,0.00729108,-0.0029826458,0.014955886,-0.048547667,-0.047581226,0.0012157588,0.051529605,0.05012841,-0.05728742,0.06636915,0.10446611,0.06659728,-0.009266665,0.0054551186,0.012737469,0.028339388,0.08094314,-0.09290269,0.015570808,-0.13924843,0.017878471,-0.024155837,-0.07548578,-0.045445267,-0.033355884,0.00674683,0.011226377,0.017412167,-0.07490582,0.029682117,0.03379232,-0.109853536,0.07519196,0.01181041,0.012460217,-0.009046671,-0.031712145,-0.017119799,-0.031727523,0.073571645,-0.008863203,-0.0093395375,-0.011739137,-0.054498967,0.009951152,-0.092730395,-0.025719836,0.09999614,0.06160158,-0.030770494,-0.024159199,-0.016990282,-0.030618612,-0.004500709,-0.006344557,-0.1142973,-0.06421391,0.0702916,0.036219016,-0.03040004,-0.00433449,0.003065436,0.10513659,-0.010541842,-0.07462107,0.024569236,0.054067638,0.09687016,0.014984104,0.077843174,-0.009919745,-0.03580798,-0.077973366,-0.025580477,0.021262124,0.07292081,-0.036138985,-0.12551986,-0.026536688,0.000623704,-0.05980823,-0.09319811,-0.034522995,0.036904663,-0.022552669,-0.007279532,-0.031800684,-0.07526701,-0.047750372,-0.049558703,-0.09198825,-0.0131856585,0.02730605,-0.06533252,-0.091484554,-0.062613115,0.052154142,0.107533276,-0.06423176,0.007471989,-0.043489654,0.039237306,0.021547431,-0.03400937,0.03593606,0.08332398,0.06312461,0.018641079,0.06597962,0.012440365,0.042841043,-0.03919711,-0.034701705,-0.015621232,-0.09880185,-0.011696407,-0.034828678,-0.10675931,-0.027950147,-0.11970798,0.057115912,-0.033015024,-0.09706386,-0.095953844,-0.08222662,-0.0062466073,0.014056015,-0.005324627,-0.04334909,-0.07768816,-0.015505086,0.03882615,0.01983235,0.012573005,0.04496201,-5.421161e-05,0.029259233,-0.03671118,-0.114665344,-0.11297472,0.0056389375,0.041906696,-0.070377134,-0.039424147,-0.06812006,-0.10799975,-0.0082666585,-0.06783707,-0.018383862,0.042757668,0.010865006,0.032810483,-0.0182583,0.09563665,0.02614419,-0.02816735,-0.04410499,-0.11562021,0.044924483,0.0022920058,-0.104582086,-0.062203623,0.06439905,0.05910763,0.038036235,-0.067179196,0.008317513,0.03972542,-0.0054670847,0.006673021,-0.05814502,0.079753496,-0.00985868,-0.02179509,0.05430012,-0.081178606,0.06500043,-0.035071112,-0.04703544,0.032795507,-0.117931426,-0.014802327,-0.0109775895,0.017901668,-0.002135268,-0.042763047,-0.014053269,0.0297998,-0.04364236,0.06407891,0.094656095,0.11042188,0.12578672,0.015365071,-0.049814746,-0.05481665,0.03051627,0.07620141,-0.07981468,-0.109752856,0.029359786,-0.021031708,-0.0211566,-0.029637454,0.0064516617,-0.04587392,-0.070848815,-0.06553514,-0.08200946,-0.010533007,0.022416934,-0.046589028,-0.017959645,-0.061530326,-0.025394375,-0.03459311,0.030807573,0.09504057,-0.04721664,0.058725048,0.01228208,-0.055774335,-0.030776924,0.05167528,0.015355009,-0.037122052,-0.10979539,-0.028943872,0.0059649628,0.07403576,0.0720762,0.017300073,-0.03155659,0.08602527,0.032937095,0.029635612,-0.037917078,-0.1321028,0.0016156586,-0.005811804,-0.015078274,-0.005173445,0.009161941,-0.025487144,-0.07866786,0.062749565,-0.010487569,0.088138424,-0.030507458,-0.066941164,-0.035298944,0.011117983,-0.0051822336,0.08165816,0.06968387,-0.044016056,0.03697145,-0.015261665,-0.04037398,-0.013282958,-0.0260702,-0.06785849,-0.046161957,-0.039661102,0.037032254,0.1025772,0.023707971,0.03267013,0.074672446,0.040020306,0.065080844,0.00024603517,-0.1508117,0.06304324,0.045182142,-0.011291614,-0.019858193,-0.0348397,0.016900007,0.0031132365,-0.06247398,-0.00072031835,-0.046939794,0.05540595,-0.06163219,-0.021463638,0.00022317821,0.008869002,-0.012719563,-0.051767632,-0.047054414,-0.1158494,-0.04109951,-0.07461578,-0.017505039,-0.014626167,0.044190753,-0.0015265271,0.042892568,-0.025307337,-0.021578968,-0.008966734,-0.050291933,-0.08253921,0.048971195,-0.014281599,0.033375368,0.076859616,-0.029804882,0.017345844,-0.037547972,-0.05037011,-0.011219902,-0.065935746,-0.082249835,0.0065046963,0.0071545052,0.052880127,-0.015297226,0.05936071,0.056959588,0.03138437,-0.008092055,-0.022863524,0.028319456,-0.03216616,0.03680983,0.02280147,-0.027837299,-0.021161124,0.004633427,0.07351746,0.03977754,-0.04449654,-0.08316517,0.026898505,0.04037736,0.049317986,0.055242542,0.07943794,-0.028956352,0.03976396,0.07820226,0.05056426,0.036684997,-0.02999538,0.023253048,-0.029794341,0.08799813,-0.06037923,-0.053712346,0.05613736,-0.04056454,-0.00044445862,0.019553408,-0.018564546,0.04524737,-0.0250048,-0.03137777,0.012786919,-0.0045883097,-0.06154811,-0.10627345,-0.021062225,-0.037643123,-0.004227187,-0.03340981,-0.080040075,-0.06528519,-0.06476626,0.0254005,0.036299482,0.067139,-0.076143704,-0.037795175,-0.014216058,0.02429295,0.053486716,-0.042385567,0.022406686,0.012283373,-0.023864118,-5.537505e-05,0.046417937,0.08775531,0.0377248,-0.06962874,0.0032121583,0.080696225,0.05964072,-0.030198421,0.07429924,-0.023212396,0.08476432,0.015558587,0.010434141,-0.04864504,0.008605603,-0.0038238917,0.00800314,0.07285121,0.051585644,-0.0040881885,-0.054098893,-0.04431619,0.06357574,-0.03537847,-0.015490483,-0.03274029,0.0014264792,0.054499257,-0.040872075,-0.054140083,0.12750024,0.00831643,0.017398028,-0.009553122,-0.043859765,-0.010333199,0.048703942,-0.043297123,-0.02435222,-0.024616968,0.037700962,0.0554774,0.063999504,0.06958291,0.08052811,-0.043296687,-0.0631307,-0.0018726093,0.014097911,0.027550748,-0.05940769,-0.062464137,0.029100578,-0.025678227,-0.024704136,0.011854866,0.026096394,0.05970266,-0.029955832,0.0076347184,0.028014412,-0.042841326,0.08296515,-0.096993946,-0.012634875,0.05126696,-0.025162302,-0.03330274,-0.048956223,0.0699706,-0.031711772,-0.042744536,-0.060511697,-0.030891418,-0.07440024,0.07416214,-0.045355935,-0.06103083,0.091170736,-0.024329828,-0.045925483,-0.026273984,-0.086359344,-0.117563635,-0.058682673,-0.06629906,-0.024429124,-0.07414204,-0.022384424,0.09244153,-0.05206406,-0.054324836,0.037550833,-0.04894372,0.044532258,0.027540827,-0.05101297,0.0062029352,0.014773652,-0.007285335,0.013227365,-0.05498863,-0.04313603,0.026762953,0.009095963,0.09126378,0.12086101,0.01860502,0.0071689123,0.05895774,0.05476035,0.07171997,0.114329964,0.11532255,-0.037864387,0.001891998,0.013414107,0.010496885,-0.07640853,-0.04921394,0.0247987,0.012280429,0.024670033,-0.006110405,0.010801781,0.04647464,-0.02664262,0.00141539,-0.063073136,-0.060071103,0.14424215,0.042958163,-0.08841388,0.05100948,0.042163014,0.15204437,0.011315398,-0.0669146,-0.09019109,-0.0819205,0.030039772,0.025083058,0.07502395,0.029292755,-0.02066679,-0.0007591534,-0.086033925,0.05033705,-0.041395362,-0.08329083,-0.021414623,0.006719337,0.08923388,-0.007628868,0.041832898,0.0538554,-0.092157625,-0.11273067,-0.05111368,-0.100477435,0.011463101,-0.0034878787,-0.0071821045,0.035819866,0.06972342,-0.00034026426,-0.016541217,0.0432062,0.016756823,-0.051003635,-0.00022830705,0.012831124,0.08427879,0.020877104,-0.020513844,-0.016769316,0.0090979645,-0.01707522,-0.02687882,-0.023159279,0.020813929,-0.0031896688,0.04911331,-0.14061446,-0.022173988,-0.025144048,0.04074251,-0.023046756,-0.14714773,0.0016427445,-0.06823598,0.057033937,0.027425723,-0.14642055,-0.068277955,-0.012899539,0.030538144,0.010067647,0.121163145,0.040683534,0.025911797,-0.02073451,-0.012673488,0.06259253,0.015318317,0.06388241,0.05773857,0.0040686973,-0.050870303,-0.054173604,0.024075232,-0.030416042,0.009087849,-0.072598666,0.01628134,-0.07232704,0.018251395,0.06302893,0.053106062,0.08758944,0.010610454,-0.05511887,0.021759564,-0.0060611516,-0.038763467,-0.021968761,-0.05384672,0.0033603515,0.04010236,0.012520239,0.056991186,0.07203811,-0.039929442,-0.13706887,-0.119132355,-0.026415145,-0.06946291,-0.10356831,-0.025627464,0.042790435,-0.006507035,-0.026521202,-0.060708564,-0.038985144,-0.0154592395,-0.011840339,-0.045110025,-0.10335777,-0.033344563,0.06415638,-0.013679908,-0.050995037,-0.055467505,0.043935936,0.020275926,0.008869833,0.09340283,0.07608816,0.044728927,0.0540195,0.0651573,-0.10002574,-0.0026201727,-0.053992193,0.042208172,-0.05789274,-0.007888803,-0.019681064,0.028400505,0.019110018,0.056285694,0.104681365,0.04848142,0.09051279,0.016503796,0.095560424,0.06919538,0.035435226,-0.057606194,-0.037119787,-0.04107767,0.02002682,0.025689714,-0.07209487,-0.052664228,0.021391507,-0.02760251,0.03148629,0.0011227845,0.075457655,-0.03723249,-0.027771153,-0.04593874,-0.0064670355,-0.0330716,-0.017152512,0.061835915,0.03145764,-0.029411089,-0.039065637,0.008542656,0.04821663,0.10368402,-0.057863783,0.012348475,-0.03877991,0.026219744,0.07424685,0.020371921,-0.029238496,-0.04625004,0.0052730897,-0.030791685,0.006831063,-0.036343254,-0.107669055,-0.034256246,0.020477341,-0.11806857,-0.10103773,-0.04829712,0.015994323,-0.04672512,-0.04116883,-0.06598292,-0.087715305,0.0433404,-0.0019479993,0.0012355578,-0.08799257,0.015099726,-0.0059034904,-0.018154114,0.060347483,0.031256393,-0.05918213,-0.0279279,-0.010413014,0.032601096,0.062456142,-0.032581437,0.088093705,0.08218124,0.09536277,0.057671636,-0.027317973,0.11413937,0.07213186,0.0032327794,0.06705932,0.018055286,0.022777213,0.015676448,-0.005628864,-0.0019316806,0.10210858,-0.076680586,-0.026977664,-0.06813766,-0.056425877,0.031068562,-0.047526408,-0.0151285855,-0.0069602104,0.042061582,0.036360666,0.006906401,0.0533635,-0.046408333,-0.057568297,0.013178388,-0.07490002,0.03159478,-0.09514254,-0.033025227,0.0019073177,0.011073162,-0.002118397,-0.0056836098,0.092800535,0.06961486,-0.0065370565,0.0041012787,0.061392296,-0.0028001955,0.031143744,0.06341813,-0.07004772,-0.04732392,-0.014044013,0.013767282,-0.031680096,-0.058175568,-0.021826364,-0.02800633,-0.06697777,0.07510749,-0.03320925,0.011423321,-0.002867355,0.016503362,-0.046393856,-0.022682454,-0.0076744757,0.001138079,0.01153027,-0.02110275,0.012464608,0.0055368138,0.024946414,-0.058611214,-0.014416525,0.008307818,-0.00529474,0.0010738702,-0.032365013,-0.03632506,-0.0057037524,-0.09062568,-0.06355873,0.05823235,-0.12232576,0.019589124,-0.0069219847,0.023007309,-0.031759776,-0.00046420252,0.025956493,-0.01989434,0.0066214674,-0.12942639,-0.039721932,0.054092623,0.041125,0.066642076,0.030275427,-0.05289653,0.06131305,0.008133362,0.11240103,0.08261134,0.093425006,0.042125564,0.024619902,-0.10798735,0.09023832,0.09656829,0.0034455482,0.054543372,0.0036603035,-0.0072370167,-0.12061911,-0.09214528,-0.024376102,-0.108794816,0.026279775,0.02060896,0.040081758,-0.08344298,0.07189066,0.07215254,-0.0022413468,0.06812059,-0.07380774,0.1221669,-0.092597365,-0.0561905,0.07943069,0.021905316,0.05580288,-0.027840188,0.0021432159,0.053177748,0.00068200653,0.050587352,-0.043793555,0.019110879,0.07763768,-0.05510425,0.113401696,0.035859656,0.09792212,-0.033210725,-0.030662334,0.009455852,0.07065567,0.009366682,0.0499415,0.047814667,0.06939492,0.091692135,-0.008757316,0.0322265,-0.02134085,0.04415076,0.03054365,0.11262244,0.049261,0.07065319,0.03151638,-0.0032403364,0.044692952,0.075527765,0.03176098,-0.035072695,-0.13015075,-0.055964865,0.008823423,-0.039405417,-0.048956893,-0.00021651456,-0.0088394405,-0.08285987,-0.1409513,-0.049200978,0.08573779,-0.038909096,-0.010785416,-0.047302175,-0.0047118273,-0.047474228,-0.034927882,0.007711766,0.0125685,-0.03839993,-0.058342822,-0.04539878,0.01088373,-0.056267325,0.0059219515,-0.043078862,0.016019946,0.06826921,0.058242105,0.09612182,-0.06980819,0.08022604,0.043295816,0.056497805,0.040016443,0.026665397,0.047792412,0.12530535,0.029850494,-0.057369478,0.07244501,0.002519544,0.08002131,-0.055886332,0.066150784,0.020171158,-0.046284527,-0.0040411367,-0.0030705913,-0.038585056,0.0014967313,0.046333984,0.02666197,0.062436882,0.013064111,0.049212646,0.08878674,-0.025527269,-0.03162904,-0.03298825,0.029120961,0.026524097,-0.07385794,-0.11424225,-0.005010134,-0.043175247,-0.080952495,-0.13324694,-0.051069085,0.026630407,-0.061364822,0.011730541,-0.034162916,-0.07807134,0.03378521,-0.0070423684,-0.050624818,-0.06851594,-0.035526667,-0.04903505,-0.010918453,0.031830788,0.053563613,0.121629,0.030594105,0.068713814,-0.017794594,0.006354584,0.012555587,0.08215746,-0.034182932,-0.020124828,-0.09911685,-0.037732664,0.03903979,-0.02078403,-0.017577821,-0.038396113,0.043883875,0.010877038,-0.05261588,-0.0745202,-0.049756076,-0.03699894,-0.05794692,-0.11203767,-0.054365072,-0.0119568845,-0.005334058,-0.013657381,0.014625869,-0.009197233,-0.013746138,-0.046577163,0.009946206,-0.007699354,0.012510843,-0.083616346,-0.08529025,-0.09920246,-0.04153174,-0.07731114,-0.0845721,-0.05541128,-0.042680714,-0.055225275,0.021225894,0.042216,0.026925877,0.06582038,0.07311471,-0.011442701,0.030667605,0.034445543,-0.0052674036,0.045677688,0.06143891,0.05008705,0.0047875913,-0.00015681857,0.011623387,0.13487987,0.055298142,0.037587486,-0.07366853,-0.028116824,0.07619455,0.0035036812,-0.051139202,-0.099904515,-0.0018844868,-0.078838974,-0.07547637,0.014277106,0.0896277,-0.030508598,-0.039228532,-0.07189167,-0.05139599,0.04370215,0.028082367,-0.030577397,-0.048723206,0.03199321,0.059796408,-0.06755075,0.0009966051,0.020590223,0.0874753,0.016402468,0.09172453,0.056718934,0.019192813,0.012381033,-0.031218896,-0.030179277,-0.0081492085,-0.05318203,0.031800415,-0.087920904,0.040430278,-0.015419517,0.0115230875,-0.028463146,0.019702384,-0.085105725,0.065727,-0.10435655,0.022000307,-0.04775004,-0.04824676,-0.016006494,0.07784228,0.034156393,-0.01646939,-0.0283175,-0.103163116,-0.06981048,-0.06846939,-0.07126573,0.031433947,0.0027807995,0.05940338,0.11437025,-0.00031264054,-0.022855101,-0.009071113,0.017621836,-0.0013217682,-0.025296776,0.009630492,0.030660242,0.034797158,0.08897151,0.038200416,-0.042802125,-0.021396112,0.027895588,-0.02224482,-0.12595545,-0.007713155,-0.06620145,0.0056516104,0.05833166,0.04589792,-0.008258985,-0.021811232,-0.10568399,-0.054816976,-0.029153137,-0.036388632,-0.051832005,0.005109244,0.11337009,-0.047565244,-0.042858616,-0.031427763,-0.025209134,-0.14805341,-0.034037266,-0.00046352117,-0.031165069,-0.064575166,-0.0306978,-0.050316863,0.008172401,-0.034287035,-0.02472132,0.010941701,-0.017836353,-0.07213231,-0.101689085,0.045229208,0.022286918,0.0067300024,-0.034934897,-0.020014402,-0.059810128,-0.041617453,0.029167324,0.10888995,-0.020484088,0.03918062,0.03903553,0.06538748,0.025092432,-0.014189588,-0.033750705,-0.025339892,0.015619893,-0.027818767,-0.12382956,-0.11760637,-0.034947444,-0.049450025,-0.053692237,0.01245501,-0.006905038,0.025428899,-0.013403649,-0.026433354,-0.07205071,0.019620417,0.036412593,-0.010212548,-0.13172098,-0.11200924,-0.059936855,0.0012157469,-0.072348006,-0.2307448,-0.083895884,-0.024217114,0.01976852,0.048328985,0.036959782,0.006832311,0.112456016,0.04325136,0.0013733217,-0.07923244,-0.022762364,0.042720124,0.0048208297,-0.032199197,-0.0053971596,0.014588931,-0.054903783,-0.06504703,-0.038598042,0.13917965,0.01794005,-0.044986874,0.053142745,0.09724332,-0.009765538,0.059398003,-0.012880908,-0.08300979,0.029493738,-0.04774039,-0.07245688,-0.0010309581,0.03916204,0.06112417,0.008711918,-0.028664581,0.01848902,0.043614097,0.016786164,0.051496267,0.014989816,0.04147684,-0.053935945,-0.022040324,0.004017241,0.01008649,-0.1340879,0.020357827,-0.02214289,-0.08024727,0.0067932988,-0.011777904,-0.024101935,-0.10343953,-0.08234773,0.0038754062,0.02238754,0.0552202,0.05379595,0.007651838,0.009024989,-0.038989615,0.030425252,0.032269135,-0.034170292,-0.018074868,-0.08616853,-0.066886164,0.020563703,-0.036531094,0.055877447,-0.078548126,0.029114086,0.048111178,-0.017299982,0.035704046,-0.097893536,0.02365415,-0.047292925,-0.07158465,-0.05671076,-0.019714952,-0.036899135,0.046070773,-0.0032486513,-0.017950676,-0.042479057,0.0391995,-0.08226876,-0.037786394,0.0002087268,0.049462438,0.040359695,0.081594005,-0.018687071,-0.04193103,-0.0036530439,0.014499599,0.009799027,0.033639915,-9.259838e-05,0.033630345,0.008330301,0.07794039,0.07719197,0.06190538,0.048402794,0.02992062,0.01140654,0.0023017032,0.061123908,-0.00026936844,0.0070008794,-0.025610011,0.042870104,0.07081987,0.027526805,-0.0068718125,0.0728592,-0.034357604,0.039698966,-0.01788393,0.09102654,-0.05327763,-0.05328379,-0.055752788,-0.030677674,-0.13035524,0.0089607835,0.01317861,-0.010109991,0.13991997,0.07712338,0.19682544,-0.019100428,0.0062408787,-0.012685186,-0.033384927,-0.05436022,-0.06863624,0.053513456,-0.04232797,-0.05120154,-0.0038829092,-0.028332088,-0.0623774,-0.05559239,0.087347336,-0.027921472,-0.025868947,0.02737314,0.008178561,-0.04038926,-0.08366184,-0.10726738,-0.047456328,-0.04338195,-0.06982956,-0.11766445,0.01936882,0.037367024,0.0049533434,-0.035924945,-0.028910136,-0.070127234,-0.06203113,0.02439624,0.027334554,0.039509732,0.005266956,-0.025950087,-7.447503e-05,0.060517166,-0.072773874,-0.109696314,-0.036634773,-0.010536129,-0.012519067,-0.021603568,-0.065316424,-0.018596707,-0.049940467,-0.05286163,-0.03951765,0.032142103,0.045618214,0.024029333,-0.05636372,-0.053578064,0.0038814968,-0.02157423,-0.04075062,0.02522869,0.05681586,-0.040390536,-0.03178931,0.06496985,0.03441652,0.024317546,0.026852544,-0.0036083197,0.08476469,0.035511937,0.07623996,0.055503603,0.01912426,-0.033049963,-0.09815184,-0.13354428,0.08762813,-0.005923871,-0.0035969582,0.062257428,-0.04797587,0.03364473,0.1179659,-0.01426279,0.021152478,0.0105709545,0.033273324,0.024656875,-0.106870994,-0.07922173,0.09229652,0.02063982,0.04437219,-0.11856263,0.055411104,0.042218726,0.0023430614,-0.02989374,0.048617482,0.018725216,0.03829022,0.122942485,-0.015958501,0.023074511,0.06444122,0.036478695,-0.038690116,-0.02908119,0.039220408,0.01470871,0.0013512453,-0.033124086,-0.06516067,-0.05567982,-0.02860688,0.035304993,0.04147105,0.031696983,0.022377359,0.018750818,-0.011564538,-0.011158349,0.007342232,0.003876795,0.021364717,-0.042486746,0.021603374,0.07385442,0.07338688,0.0153701715,0.013458452,0.010290743,0.06995162,-0.0045280135,-0.0313486,-0.036526233,0.018816408,0.01931366,-0.027766664,-0.074533015,-0.0044000675,0.056883037,0.08815805,0.003447356,-0.07265781,0.048225615,0.107148595,0.07902656,0.051113512,-0.04560159,-0.05721371,-0.0072848154,0.025262566,-0.012208725,0.03383723,-0.060155872,-0.037620686,-0.03792214,-0.017412717,0.05676144,-0.0016611906,0.01083223,-0.058405057,-0.060660463,0.108025946,-0.01185729,-0.042960398,-0.036612447,0.024747655,0.076322235,-0.07761094,-0.05317192,-0.013212576,-0.07226021,0.039002128,-0.0018937495,0.038322084,-0.016626902,0.063559964,-0.050533414,-0.032258287,0.017058585,0.040472697,0.05722246,0.07096267,0.0018995422,-0.08537907,0.032776784,0.04555204,0.04287038,0.020242058,-0.14357637,-0.096051686,0.0015135312,-0.029874308,0.0049699903,-0.018750602,0.0020342923,-0.02224833,-0.003782134,-0.03542303,0.012275205,0.065966,0.08402473,0.0019398938,0.03245173,0.021690289,0.024845844,-0.010129504,0.025694938,0.035306506,0.025638483,0.01224873,0.10565243,0.014341608,0.04198201,0.015538156,0.110110894,0.13305257,0.026702173,0.067391865,0.080564395,-0.037275136,-0.018358525,0.034828648,0.026366517,-0.085424736,-0.10375634,-0.021143388,-0.01577475,-0.0024118691,-0.032501977,0.028876957,-0.01205274,0.029468192,-0.05418083,-0.07032136,-0.059768256,0.03640439,-0.007850901,-0.066057496,-0.0960299,-0.037747238,0.10188671,0.02563597,-0.011978888,-0.057830453,0.048333723,0.07419381,-0.08098654,0.013656357,0.0015235678,0.02652983,0.011556838,0.03242205,-0.008154223,-0.03205125,0.11793052,-0.00871442,0.012172754,-0.009803442,-0.022961479,0.09739197,-0.034297794,-0.0461942,-0.07173102,0.04348405,-0.08141487,-0.057470445,-0.050158285,-0.03780914,0.11489618,-0.044075154,-0.052891865,-0.01632536,-0.0076691727,-0.009295899,0.07068615,0.101974204,0.0070272596,-0.011491694,-0.0034931032,-0.04217647,0.0819195,0.07853003,-0.003736214,-0.094543256,-0.054929383,0.12975402,0.06745093,0.05896591,0.016754873,-0.05170865,-0.07583482,-0.045587923,-0.060123436,0.06251978,-0.020261563,-0.011728508,-0.031066785,-0.0055451347,0.0738618,0.07565423,-0.048723813,-0.02732229,-0.087948605,0.007124658,0.058288462,-0.021216748,-0.04305152,-0.0865031,-0.100066856,0.015589463,0.041109186,0.04160194,0.04230578,0.013036806,-0.062807485,0.010152353,-0.011367598,-0.059433363,-0.012151817,0.01905809,0.037579667,0.021862594,-0.0056129172,-0.02056828,0.0058672363,-0.004253057,-0.049919073,0.09076734,-0.057925016,-0.00914768,-0.03461618,-0.03073299,0.07798495,-0.03659606,0.0169213,-0.021001969,0.035086595,-0.009805078,-0.0041198046,-0.04673043,-0.008459546,0.0768032,-0.06484042,-0.09860375,0.015894208,0.04992487,0.08830169,0.044229817,0.056628175,-0.013595515,0.07751158,-0.024326721,0.03425237,0.010339094,0.060439516,0.023486653,0.007065337,-0.0020285724,0.03040182,-0.04054138,-0.0305367,-0.08222807,-0.10534032,0.102655314,0.1115632,-0.107299045,-0.14901283,-0.01894305,0.021860879,0.019271443,0.024415068,-0.04509737,-0.06222508,-0.043799974,-0.03761938,-0.02644325,-0.042943366,-0.03870943,-0.064528845,-0.08207519,-0.0522653,0.021799177,0.03663181,-0.031709585,-0.105819345,-0.01397161,-0.10374141,0.01280835,-0.027150802,-0.06615853,0.044338826,0.03362064,-0.059622083,0.037120264,-0.06456105,-0.04479614,-0.088196784,-0.1525519,0.04090509,0.03053524,0.017986832,0.003906346,-0.0404216,-0.026598308,-0.049605813,0.021183593,-0.10875939,-0.10225562,-0.034206416,0.037473187,0.043764174,-0.068530396,-0.028154243,-0.009626339,0.04037799,0.0017716298,-0.01749506,-0.007972553,-0.073465616,-0.07234443,0.02709956,-0.008510727,-0.044152558,0.027793137,0.039493747,0.023639249,-0.030961124,-0.019292708,-0.015166385,0.026778901,-0.0027439832,0.009867549,-0.02251189,-0.05579378,0.026912926,-0.08931073,0.003954236,0.0055278502,-0.052973267,0.05144711,-0.10429758,-0.0789519,0.03584352,-0.06444736,-0.021519482,0.039512306,0.018017245,-0.019495895,-0.08660118,0.010298435,-0.031205522,0.0266288,0.14928482,0.039152913,-0.007763722,-0.03123489,-0.026704244,0.1042871,0.060635287,0.010888275,-0.003139149,-0.008644902,0.021868907,0.01667156,0.01914777,0.002558252,0.07532572,0.05168204,-0.020585632,0.03053803,0.024886072,0.0021652947,0.05510529,-0.0029302805,0.064275116,0.01880477,-0.024300514,0.062802464,-0.05637218,0.05097554,0.020037577,-0.006253974,0.036809497,-0.032512292,-0.105570205,0.031589493,-0.008209432,-0.11390212,-0.09235836,-0.0586211,-0.05669486,-0.036373142,-0.009755015,-0.057557866,-0.06977377,-0.06562905,0.06160462,0.028717242,0.0020243486,0.016447335,0.005359331,0.03323426,-0.0007090302,0.016214168,-0.013599837,-0.025805429,-0.033842426,-0.0051523023,0.0013589065,0.04010367,-0.050931152,-0.050175,0.016333107,0.047985125,0.057511672,-0.079146005,-0.027113065,0.036224175,0.043527298,0.029523585,0.036193144,0.032948818,-0.040189628,-0.029815346,-0.05394926,-0.0065201116,-0.033336893,0.04509176,0.025512628,-0.040614363,-0.104804635,-0.066459514,-0.0034746802,0.059771664,-0.054749668,-0.09721328,-0.018925225,-0.0683901,-0.002116883,-0.0069628013,-0.009258693,-0.0058283717,-0.05956521,0.06325176,-0.02809352,-0.018516587,-0.07220961,-0.015258373,-0.057729274,0.0024149558,0.012002977,-0.038798846,0.093231596,-0.08237371,-0.07930905,-0.1117272,-0.053087674,0.021342324,-0.06361827,0.03464543,-0.070140734,0.013542358,0.045821175,0.013798981,0.05151408,-0.09337627,0.03310567,0.025977377,-0.032174863,-0.08610265,-0.006299095,0.022793744,-0.05535307,-0.013892741,0.07565662,0.08493786,0.027344925,0.08215269,-0.07301248,0.013392059,-0.06423816,0.034020264,0.06009531,0.008936926,0.026120428,0.0014245509,-0.085769236,0.019885624,0.07234496,0.029067013,0.0030613863,-0.071125396,-0.038121738,0.07203567,0.11795953,-0.024581198,0.0024165844,-0.029846126,-0.0071010087,-0.04638722,-0.052506655,0.009721293,0.045457568,0.030247252,-0.067942254,-0.087994576,0.030891486,0.008946027,0.056266963,0.0035039203,-0.054674365,0.034847967,0.08213842,-0.027612278,-0.013595487,0.052310213,0.02516115,0.06770977,-0.010839569,-0.0007689921,0.072173834,-0.024822028,0.049086817,0.01805945,-0.07554245,-0.022243718,-0.06526122,-0.08239787,-0.062300373,-0.15404348,-0.06880491,0.00926034,-0.06758081,-0.028148925,0.015146918,-0.045101646,-0.047341388,-0.1156468,0.09732966,0.019982964,-0.020303208,0.030656258,-0.0629629,0.08251173,-0.10198139,0.003583256,0.013470587,0.02756265,-0.13151667,-0.048293736,0.015295142,0.0077659125,0.032219756,-0.022134189,0.04606371,-0.06432274,-0.032381773,-0.04096881,0.017367404,0.012680491,0.00026421587,-0.012407228,-0.013684063,-0.05851061,0.0296401,0.014011067,-0.027246026,-0.082025304,-0.046170052,0.0534969,0.039592087,0.07089471,-0.09648927,0.025450045,-0.020452661,-0.03663657,-0.016797833,-0.004446525,-0.11056527,-0.04131604,-0.0039883773,-0.030518759,0.027530141,-0.01839302,-0.0022507973,-0.023801852,0.05533927,0.00276976,-0.0064829346,0.020517979,0.015121781,0.06691449,0.040382057,0.03518759,0.014010757,0.003229621,0.05116864,-0.01472336,-0.09604591,-0.030131739,-0.001048406,0.050250333,0.018781563,-0.005469532,-0.077667736,-0.036473367,-0.052649707,0.058662854,-0.026065795,-0.017619405,-0.009595399,-0.06371323,-0.043754596,-0.0017613352,-0.077764854,0.036765344,-0.0019967041,-0.024458108,0.03291818,0.06284985,0.054391157,0.016817153,-0.06621013,0.037704192,0.04856489,-0.07521065,-0.061918326,0.013773975,0.012311989,0.03481442,-0.062575586,-0.022776876,0.12649976,-0.040819816,0.07020972,-0.11616123,-0.054074705,0.0030927693,-0.039280586,0.053302944,-0.03335,-0.051130295,0.054234717,-0.028736643,-0.069172926,-0.1536522,-0.02657188,0.02889753,0.026562091,-0.082592204,-0.020984309,0.029947594,0.084085226,0.012576047,0.016932331,0.02510478,0.017493889,0.03448652,0.021987868,-0.06688904,-0.053287204,0.015349746,-0.024782652,7.8503515e-05,-0.08502225,-0.10073672,-0.08049509,0.017231757,-0.014456907,-0.050940093,-0.002936847,-0.11356511,-0.11856555,-0.02864023,-0.011226462,-0.058451075,-0.02396821,-0.016930003,0.08035551,0.07845621,-0.10454753,-0.008413126,-0.074067645,-0.018906498,0.041198462,0.058433004,0.068034835,-0.059200533,0.0011826581,-0.025190542,0.0234508,-0.026331307,-0.016841866,-0.079765536,-0.040918488,0.033678986,0.11726042,0.015281132,-0.08940198,-0.102629825,-0.09039223,0.03189662,-0.004570561,-0.06145869,0.0032763197,-0.040490203,-0.0041459715,-0.030801238,-0.045244716,0.022359097,-0.038028836,0.025878496,0.032651328,0.0122458525,-0.008683769,0.046293363,-0.0030431391,0.020145955,-0.0714982,-0.061620407,-0.068824984,-0.051542353,-0.05257389,-0.014191963,-0.050523322,-0.027446032,0.0408426,0.064704664,-0.030643273,-0.008552848,-0.0377854,-0.0059853257,-0.051003836,0.07384488,-0.04324764,-0.07533876,0.003438986,-0.13948365,-0.0103424,-0.026387954,-0.065684766,-0.049615376,-0.06568466,0.021806333,0.033185173,-0.07490176,-0.09283103,-0.12593804,0.10475633,0.0997691,0.025788339,-0.045661274,-0.075006545,0.038699623,0.07295593,0.028995397,0.016978065,-0.049259126,-0.036485612,-0.015741838,0.039598994,0.065938756,0.040759627,0.02097812,-0.1753393,-0.11145493,-0.006478013,0.048678745,0.04552135,-0.049575694,-0.125218,-0.048883736,0.039571606,-0.101660214,0.017063012,-0.006387968,0.04903774,0.02782552,-0.043144327,0.041232016,0.021588838,-0.023848163,0.044786725,-0.02008869,0.05542568,-0.003196439,0.03754146,0.024454838,-0.016268931,0.0697116,0.011288621,0.0042619924,-0.070685685,0.02884676,0.07783678,-0.07763206,-0.11336298,-0.018273875,0.014283491,-0.011684571,-0.008699079,0.07039236,0.042968698,-0.039745998,0.06058135,0.039056815,-0.025004197,-0.015655912,-0.0027938462,-0.005371355,-0.044664115,0.0012491626,-0.07198945,-0.005634786,-0.049074404,-0.041464794,-0.081625156,-0.16421819,0.019697545,0.008633275,0.023600327,-0.11471502,-0.1394355,0.030633593,-0.007019139,0.037593506,0.012489173,-0.025302552,0.056827374,0.012405338,-0.038678147,-0.098628424,-0.11012257,-0.060260218,-0.095856816,-0.00073967053,-0.05415574,-0.095469825,0.019675463,-0.040703632,-0.066246085,-0.1500566,-0.100981064,-0.037131418,-0.045280796,0.002250484,-0.12984058,-0.09564662,0.030785304,-0.062057722,-0.03706369,-0.06643575,-0.04083523,0.046017483,-0.066667564,0.032172102,-0.054174855,0.014754117,0.05564528,-0.0037287583,0.008915348,-0.0044951234,0.017397368,0.0114763575,0.014856035,0.017490676,0.01027014,-0.027237734,0.06262164,0.043758556,-0.045063064,-0.03488198,-0.02846642,0.011524933,-0.026939223,0.0082455445,-0.024225637,-0.026109492,0.024542822,-0.020822711,0.033077773,0.006972835,0.01875987,-0.10599651,-0.061184626,-0.101966105,-0.035397332,0.041628126,0.09956002,-0.06041243,-0.06284645,-0.03192393,-0.042687714,-0.0005000182,-0.011290806,-0.0018002056,-0.05850511,0.022952657,0.024476707,0.026753152,0.04102541,-0.023072617,-0.0917447,0.052524116,-0.031192424,-0.06712227,0.08922736,0.018782288,-0.038410768,-0.10496685,-0.03406596,0.022488136,-0.0497728,0.03393739,0.03757621,-0.049701106,-0.010043243,-0.039444707,-0.033628237,-0.04151056,0.004902216,0.045424614,0.018956318,0.011703498,-0.0049767555,-0.069520265,-0.046600647,0.026350847,-0.014258596,0.06305427,0.0073109483,0.017087359,0.0051939255,-0.006777477,0.007102629,0.028981373,0.06890794,-0.044371083,0.03798522,0.06478328,-0.00039971696,0.022980409,0.05312716,0.16963415,-0.016064273,0.06407184,0.035193045,-0.029377472,0.030665567,-0.03243888,-0.016977707,0.06042264,0.06460338,0.03305804,-0.019446706,0.01785422,-0.028263247,-0.00049253926,0.029817408,0.025324218,-0.09193158,-0.029948387,-0.004725919,0.086374156,-0.032593086,-0.007534329,0.028152058,-0.058951754,0.080950655,-0.0957046,0.0032846632,-0.010700466,-0.21995202,-0.038779374,-0.05504576,-0.08004565,-0.004025044,0.015986424,-0.10428765,0.029383771,0.028066037,0.026265267,0.06507618,0.055916693,0.08426282,0.08742302,0.014009635,0.07042975,0.07573733,0.1436468,0.0004442082,0.024407042,0.03496687,0.06706747,0.059680417,0.10888292,0.07258241,-0.024349673,-0.073098995,-0.10678291,-0.015074473,-0.0010618715,0.011066814,-0.0936472,-0.06061949,-0.02666114,0.00041840103,-0.039103866,0.016978186,-0.055386882,0.005206014,-0.008633242,0.007188188,0.017350875,-0.044587705,0.02053044,-0.008012587,-0.014188482,0.05860871,0.050590012,0.05248255,0.0060160737,-0.06804253,0.044379618,-0.060575426,-0.02424575,-0.004151508,-0.05533601,0.011815763,-0.054130886,-0.04829458,-0.02340624,0.020751394,-0.010728013,0.056024045,-0.0258376,-0.0109262625,-0.027930181,0.043312676,0.029839363,0.012251212,0.015133928,0.08255904,-0.023079123,0.00479166,0.008263408,0.056429725,0.13619643,0.07808434,0.017085873,0.036587097,0.057368796,0.008595628,0.082147256,0.07008199,0.07178857,0.05138016,0.027472464,-0.042731073,-0.12456548,-0.14422664,-0.08742935,-0.08695351,-0.06956654,-0.08838455,-0.13148925,-0.05556234,-0.1022026,-0.012607235,-0.014653556,0.02264648,-0.08665371,-0.08227187,-0.09615231,0.0029452755,-0.07940811,-0.025026212,0.0031106852,0.034443557,0.058012113,-0.037083317,0.02155799,0.053027384,0.019450527,0.09015772,0.01914373,0.06665612,0.0107821515,0.07528951,0.083214805,-0.0032340342,-0.047221404,0.07022667,0.020297535,0.02606415,-0.07045354,0.11415592,0.086289026,-0.013923092,-0.03403761,-0.043696802,-0.023258798,-0.016497929,-0.026171267,-0.14568312,-0.06557791,0.04095208,-0.085442096,-0.013879838,-0.031489126,-0.06457697,-0.049426574,-0.09835175,-0.015623342,0.0060037305,-0.023010366,-0.07070892,-0.047844168,0.017043106,-0.028758762,-0.031268198,-0.032153346,-0.021796098,0.020245835,0.0067839874,0.042461324,0.022389583,-0.014708281,-0.02810724,-0.03361505,-0.091483615,-0.101233386,-0.09695923,0.03125188,-0.0013883526,-0.061434932,-0.13808142,-0.01895844,-0.07400427,-0.050446752,0.0014853376,0.016593087,-0.0779483,-0.039718736,0.00072379486,0.0033916493,-0.08638838,0.046590928,0.025569985,0.06641263,0.06863482,-0.037190013,0.0804714,0.08505404,0.04363862,0.046809185,-0.0018805467,-0.036210068,0.047767114,0.018611534,0.005698938,-0.07093702,-0.055585027,-0.05386305,-0.06402921,-0.10511646,-0.011063141,-0.0023057417,0.047119953,-0.031439546,-0.08792377,0.0061065177,0.035168722,-0.06918656,0.020229701,0.01440088,-0.012943204,-0.021969788,-0.13230915,0.036191024,-0.058921766,0.027021617,-0.022371737,0.08266975,0.017911362,-0.044781603,-0.05192082,-0.06305371,0.05448286,-0.043333977,-0.0044916556,0.009420189,-0.070207074,0.010862616,0.075334564,-0.044114422,0.04266979,-0.019515015,0.058126852,0.001822117,0.029865624,0.01565855,0.013397771,0.034851115,-0.02366049,-0.018000478,0.020992074,-0.09349193,0.07039606,-0.023419823,-0.032421354,-0.05571957,-0.1672046,-0.09826301,-0.09380807,-0.07522287,-0.069945656,-0.0970944,0.022787675,-0.0031343421,-0.051123556,-0.13142541,-0.124816105,0.021662926,0.041826367,-0.024329634,0.058583103,0.09008507,0.03250583,0.013241046,-0.042284053,-0.03877721,-0.063827835,-0.035196263,0.04888247,-0.011935761,-0.09212745,0.014412719,0.047112193,-0.09747161,0.03256409,0.015789308,0.043818478,-0.05211919,-0.081635326,-0.021992557,0.06746691,0.11569836,-0.025155347,-0.001969439,-0.026951045,-0.04422228,0.019967576,0.0061335536,-0.018250117,-0.0047976524,0.069310494,-0.025405655,-0.0027924394,-0.054768573,-0.026092041,0.0063829836,-0.037870627,0.036896072,-0.05541552,0.016760174,0.07230501,-0.0043870886,0.009420028,-0.025615057,0.07726825,0.025256168,0.020799236,0.049668297,-0.0865967,-0.0006508128,-0.012534161,-0.0023393051,0.10057138,-0.017629566,0.021843132,-0.11009625,-0.060513567,-0.046743985,-0.034172103,-0.0005252857,-0.04003902,-0.03969142,0.06249076,0.038576193,-0.013275834,-0.04948697,-0.08725915,0.04376921,-0.002593409,-0.05011032,-0.0064190347,-0.07318093,0.076628745,0.024105575,0.045811884,0.0043301745,-0.020836357,0.039408326,-0.047371216,-0.09890738,-0.024878124,0.042033345,0.080191046,-0.006323735,-0.15662518,-0.004623362,0.057598162,0.052564256,-0.08108912,-0.13682376,-0.07004589,-0.0010666145,-0.014171497,-0.032284796,-0.053271357,0.01947996,-0.020971391,-0.032817222,-0.03799193,-0.05412636,0.012132851,0.024109654,0.015189869,0.049241923,0.048613712,-0.044449165,-0.06310822,-0.11047235,0.044018116,0.038097855,0.0123155825,-0.04405265,-0.08877776,-0.13434717,0.040323753,-0.0063297143,0.014953991,0.11903308,-0.065883756,0.041006986,-0.052046236,-0.019447735,-0.031211834,-0.045619935,-0.065266766,0.022987505,-0.082482405,0.010967857,0.00037316125,-0.0060856584,-0.060343526,-0.024539096,-0.04559028,-0.02375752,0.020330701,0.009429338,-0.10374099,0.051169205,0.08383425,0.037178006,0.014033463,0.0051870877,-0.06690163,0.06679037,0.037235104,0.011038212,0.047117267,0.111879036,-0.047610503,-0.058376588,0.059430793,0.04654358,0.0047960547,-0.054535553,0.021275185,-0.061027754,-0.026910095,-0.098987296,-0.11717707,-0.08345595,-0.043804757,0.047985464,-0.0070897196,0.0062012617,0.028637256,-0.07107547,0.0019029793,0.030849028,0.041130316,-0.08226421,-0.015965777,-0.0148575,0.04985251,0.05907929,0.029521538,0.030835712,0.07194765,0.0021339084,0.030259583,-0.0053761783,0.06659032,0.00597573,-0.025277762,-0.086062685,-0.0026836107,-0.14111823,0.06471985,-0.03287979,-0.035124406,-0.07116958,0.004087755,-0.101888314,-0.053018052,-0.004401124,-0.025642464,-0.0971569,-0.08902057,-0.11497096,-0.014465806,0.0047256947,-0.03503526,-0.0033683456,-0.056076102,0.04188496,0.03681261,-0.04887789,0.0037613749,0.004493396,-0.0032639483,0.009464869,0.023132298,0.107842535,-0.038507465,0.052604504,-0.06976147,-0.021397721,-0.018400077,0.060182065,-0.046527665,-0.07293162,-0.04929433,-0.004241673,-0.078290336,0.008834112,0.040165532,0.020066759,0.015205214,0.05959261,0.0592593,0.04526702,-0.046784133,-0.030400591,-0.008245829,0.10601666,0.06903655,-0.072363965,0.030344069,0.025422627,0.040749278,0.06892221,0.056204055,0.05518379,-0.07409341,-0.06831551,-0.042475346,0.08031211,0.03517216,-0.02192446,0.06801987,0.029439146,0.065717176,-0.03715869,0.020861778,-0.044241942,-0.012473768,-0.054458886,-0.06564336,-0.076082185,-0.052671246,0.13467501,0.047349967,0.030455615,0.028329208,0.07423851,0.0043327343,-0.07415723,-0.09537723,-0.05430675,0.020631561,-0.0077578374,0.06276591,0.09667516,-0.009372844,0.06065817,-0.09516296,0.036295854,0.026950432,0.043267276,0.0552215,0.03677847,0.1081252,0.12624909,-0.02879421,-0.0551234,-0.00041367547,-0.004165172,0.087597646,-0.0064639277,-0.12098541,-0.10232607,-0.037517928,-0.0073179896,0.017548697,-0.028882908,-0.006783064,-0.061824426,-0.055100545,0.007460084,-0.037797153,-0.032371968,-0.02293402,-0.015380755,-0.039552886,-0.020565156,-0.009207022,-0.021716528,0.00954129,0.08093647,0.058375888,-0.05976259,0.027196772,0.01390081,-0.035880316,0.0694082,0.1273344,0.030005394,-0.049744807,-0.02513399,-0.032386586,0.027813314,-0.07389226,-0.014005601,0.011128253,0.025110004,0.066244684,0.053029984,-0.066340506,0.006868306,-0.011243239,0.020334385,-0.013081975,-0.04205998,-0.010830344,-0.021866795,0.036307726,-0.064293586,0.037200697,-0.016306635,-0.0025679064,-0.03469092,0.024750164,0.013188487,0.065207705,0.009802934,0.055793636,0.006199732,0.020543655,-0.0330713,0.024800273,-0.034816835,-0.023320861,-0.025936792,-0.006234075,0.02485616,0.0031419648,-0.047996055,-0.11590293,0.06551192,0.060205843,-0.05988907,-0.025248837,-0.118016034,-0.03140764,0.025952993,0.029462444,-0.019028898,0.045574863,0.031376407,0.096592866,0.043526728,-0.04225061,0.02768441,0.00051000057,0.010365581,0.0010090851,0.05899787,0.008907633,0.007848734,0.07263334,0.033841416,0.06347141,0.040367648,-0.01288597,0.088418126,-0.018643448,-0.035989616,0.0022239913,0.0642596,-0.062063787,0.025941575,-0.014432402,-0.03826625,-0.026283404,-0.113093086,-0.087976895,-0.0032777975,0.040502805,0.008588469,0.009249099,0.014322164,0.0850778,0.033738956,-0.030004064,-0.05921445,-0.0015792786,0.07272791,-0.0768093,-0.019840129,0.012683888,0.098927684,-0.012475291,-0.05569248,0.02030792,-0.092786565,-0.058483593,0.015552214,-0.024569651,0.033042103,0.046675604,-0.10741306,-0.13776718,-0.11831189,-0.061484106,0.028847305,0.010088078,0.049190283,-0.103891745,-0.052279636,-0.037403427,-0.002569958,0.099198855,-0.01810394,0.03807109,-0.0359735,0.07416559,0.026476668,0.039623164,0.058514208,0.06367569,-0.045848828,0.016501276,0.05643334,0.020169217,0.054212317,0.010369285,0.036693778,0.016430331,-0.029134164,-0.039531633,0.052658677,0.0372905,0.04447186,-0.0014547145,-0.026164154,0.0058219517,-0.011144986,-0.061730795,0.0007649507,0.019155543,-0.022661008,0.012795455,-0.02254031,-0.04219361,-0.10333044,-0.101735726,0.017781457,0.029892016,-0.052641507,-0.07335192,-0.0015597066,-0.15217687,0.0065847198,0.008068508,-0.0246684,-0.040558435,-0.05930391,-0.05325052,0.0010574292,-0.03791391,-0.042359803,-0.04842357,-0.06770475,-0.008512996,0.016698841,0.056022387,-0.07395855,0.048892178,0.06580116,0.10857087,0.015100093,0.0471585,-0.0036017497,0.12747265,-0.09935969,-0.10231106,-0.061860852,-0.027668444,0.09546629,0.01586779,-0.009157966,0.027348997,0.039757136,-0.08312557,0.015504746,-0.058119986,-0.09526211,-0.06541039,0.038999647,-0.0061087017,0.020704849,-0.07863661,0.021369489,-0.104718156,-0.07483962,0.044988174,-0.02718136,0.090440385,0.08432307,0.13930328,0.04175622,0.017401338,0.07673878,-0.034405,-0.0023975158,-0.045302764,-0.03739588,0.004503078,-0.049371943,-0.04598225,-0.049545657,0.024072498,-0.03695916,-0.028605321,-0.043571465,-0.069696695,0.037711527,-0.005467719,0.054469977,-0.012935959,-0.14448814,-0.091589235,-0.03703366,0.11206481,-0.08012522,-0.09102768,-0.13925532,-0.10042338,0.015994158,-0.046002574,-0.015698254,-0.058960713,-0.07365482,0.02135367,0.047993124,0.051233497,-0.02250434,0.00741222,0.023862777,0.0462345,0.025964428,-0.0028544832,0.040066786,0.006347219,0.09556955,0.0032212415,-0.0065747206,0.043597378,0.071639515,0.0088096205,0.042096224,0.008246269,-0.037875656,-0.056432433,-0.051172875,-0.04400899,-0.017039526,-0.031112488,-0.09503252,-0.021289833,-0.035303142,-0.005738425,-0.024114234,0.051475648,-0.005696837,-0.08697119,0.018801793,-0.04683868,0.018510953,-0.008772203,-0.075260624,-0.0086098565,-0.06684746,-0.05530198,-0.013951498,-0.019551102,-0.12877971,-0.04178557,-0.05078122,0.059466008,-0.00029421557,0.009306685,-0.032089278,0.045283493,0.059139285,-0.060361773,0.15030165,-0.001917187,0.034829292,-0.008622362,0.062743984,0.099721864,-0.033391457,0.01982119,0.036357015,0.064834006,0.083265886,0.033736408,0.032252505,0.07082004,0.13081415,0.078056164,-0.07047271,-0.024046002,-0.0097147925,0.0006583477,0.0020864748,-0.035939768,0.0292402,-0.012414323,-0.08099277,0.042276226,0.04624425,-0.004997895,-0.01795986,-0.027350798,0.0038750402,0.012130482,0.003319939,-0.019081708,-0.06669901,-0.12005148,-0.045062426,-0.070301965,-0.04929189,-0.09836443,-0.068532616,-0.033355974,-0.012264917,0.05453978,-0.014964098,0.0059817084,0.10031311,0.009963572,0.102315456,-0.05192266,-0.040302392,-0.03713105,-0.040656406,0.04005673,-0.061262887,0.05344026,0.09273529,0.01648763,0.028516034,-0.033370674,-0.0957653,0.053293273,-0.0021552132,-0.025019415,0.0010918237,-0.071053855,-0.088015,-0.050129347,-0.056160856,-0.08696952,-0.015949007,-0.08346827,-0.10923351,-0.05680717,0.03094035,-0.074799284,-0.061309356,-0.0009487384,0.02177495,-0.015999353,-0.04417529,0.019935176,0.04567546,0.051806767,0.023254927,0.047883194,-0.0320288,-0.05832899,-0.06820055,0.025688363,-0.031677615,-0.12194132,0.024740603,-0.0070888917,0.08447632,0.013210389,-0.022263687,0.04579465,-0.062650256,-0.065009914,0.030257914,-0.022211077,-0.0046978844,-0.07838947,0.0048827813,-0.015972802,0.030301757,-0.07876414,-0.075289614,-0.032318786,-0.06735948,-0.12332477,-0.06435094,0.028550481,-0.11438666,-0.022160621,-0.043594416,0.019400181,0.03655666,0.07990126,0.0023149997,0.05785652,0.062429316,0.03743702,0.10415036,0.081588976,-0.00871983,0.015884286,-0.0052882,0.022368537,-0.0618288,0.011506431,-0.043740284,0.024497524,0.01968036,-0.024490852,0.06530635,0.005332992,-0.0056673936,0.023377871,-0.004385812,0.03615079,0.07237459,0.07037291,-0.06145778,-0.020775884,-0.058759492,-0.0342225,0.03794311,-0.0051957103,-0.011255537,-0.036166463,0.0018992221,-0.017898174,0.006469256,0.03135694,0.06959611,0.047119524,-0.024981737,0.0047758026,-0.04070867,-0.008808362,-0.008898424,-0.02977435,0.0056519615,-0.043713477,-0.19052723,-0.0014738154,-0.005786973,0.0051628826,-0.013475917,-0.0035542017,-0.0047823465,0.045768537,0.053969905,0.05331662,-0.06317444,0.101751305,0.04097254,0.035853025,0.012632227,-0.090526514,0.055458322,0.07236486,0.013541079,-0.0112598445,-0.07014519,-0.19745967,-0.15268363,0.005543362,-0.004666623,-0.105982125,0.027708353,-0.038155902,0.015841348,-0.012007541,0.016506905,-0.014105209,-0.01851953,-0.002519443,-0.04085172,0.0041506346,-0.01222505,0.1148508,0.08748976,0.029640008,0.050394475,0.05093685,0.06950099,-0.09591088,-0.008954194,-0.02269838,0.030892316,0.05984021,-0.022963138,0.012086964,0.01012155,-0.008200445,0.06916653,0.030663611,-0.060146574,0.030658592,0.050313428,0.010879191,0.009230152,0.07832209,0.05395527,0.010778862,0.018795617,-0.024248788,-0.01595077,0.119617395,-0.034706634,0.008747806,0.079360716,0.018209679,0.015995707,0.021658184,0.014218123,-0.0008057394,0.006328067,-0.076399684,-0.079420574,0.03982268,-0.010849618,-0.07154436,0.082763575,0.043492068,0.020649485,0.09433208,0.07654489,0.049264576,0.023291286,0.05803997,0.02785503,-0.030304141,-0.026701642,-0.04073947,-0.058967747,-0.049347237,-0.020159584,-0.062247124,0.0282025,0.028202355,0.07221424,0.029477395,-0.051233884,0.04935058,-0.05143122,-0.123844974,0.03254874,0.048601296,-0.062124625,-0.026475491,-0.0059922375,-0.020090887,0.033413097,-0.09616996,-0.08572096,0.067323856,0.037686054,-0.07545266,-0.03408097,0.077116504,0.06628671,0.031772625,1.7365179e-05,0.08716701,0.067572854,0.092525564,-0.01792365,0.05524777,0.061454665,0.043536805,0.03254081,-0.01835591,0.02706346,-0.005585924,-0.03668894,-0.012100741,-0.008606146,0.010047344,0.01182822,-0.07749055,-0.05851301,0.04211962,0.012986699,-0.0016432971,-0.03710922,-0.13349202,-0.05216327,-0.041175403,-0.15468207,0.061971884,-0.0137078455,-0.051816527,-0.14000778,0.029556613,-0.0033971476,0.030011673,0.038407315,-0.0447055,0.006530944,-0.063836604,-0.0052348915,0.009003049,-0.08157727,-0.010923222,0.0033751274,0.044790894,-0.030478625,-0.08480859,-0.029625293,-0.012702215,0.017880734,-0.10630688,-0.032493405,-0.017370656,0.0824299,-0.038114656,-0.07520103,-0.02298524,0.039538264,-0.009816281,0.0010474693,-0.004173585,0.06434953,-0.0256798,-0.042187065,0.015209715,0.02672918,-0.011318969,-0.0034932727,-0.097957924,-0.035168145,-0.051007714,-0.062630534,-0.08329341,-0.016657831,-0.015510457,0.032552015,-0.098570935,-0.036922913,0.03510804,0.10406535,-0.0048436164,-0.06210504,-0.028636009,-0.07877926,0.058521114,0.048059635,0.07827228,-0.07750268,-0.054560393,0.035165343,-0.011027887,0.05758836,-0.004564313,0.048184913,-0.022304446,-0.06941934,-0.09343855,0.019409927,-0.028830767,0.045448672,-0.0041957055,0.043807127,0.007889162,-0.004607106,-0.06362207,-0.044317987,-0.09110051,0.05414442,0.085559376,0.04678957,-0.008709329,-0.053834252,-0.0049560787,0.036529846,-0.022059053,0.025861282,-0.038038146,-0.049544808,-0.0132741975,-0.026978334,-0.038649432,0.02837501,-0.028227132,-0.07517138,-0.072291434,-0.0011757049,0.0651398,0.012331487,0.039243836,0.042915132,0.0034355484,0.044958986,-0.1419661,-0.09756382,-0.039031904,-0.027607493,-0.03410432,0.011095673,-0.051495638,-0.095913745,-0.040085755,-0.031508893,0.02772481,0.04847432,0.04833759,0.02420906,-0.016016446,0.08729292,0.07108367,0.08991343,0.042396877,-0.024117488,0.0014422783,0.07716268,0.059138875,0.029231625,0.023431467,-0.058304347,0.0021601634,-0.04943996,-0.027018854,0.023106303,-0.06490004,-0.026933627,-0.0049017495,0.08926743,-0.020077033,-0.07316464,-0.031627286,-0.03658597,-0.023962965,-0.02303667,-0.04928795,-0.0052259327,0.036074635,0.104907736,-0.029516065,0.00047511057,0.07912702,0.098586,-0.080940545,-0.06747462,-0.16575211,-0.09926575,-0.028177753,0.066514105,0.08581163,-0.13318127,0.046264082,0.110034585,0.03463922,0.13354601,0.022534568,-0.005568144,0.031566836,0.109863155,0.077888526,-0.019329038,0.06746746,0.08170825,-0.009987364,-0.04172855,0.0029826642,-0.011729197,0.033521295,-0.014095875,0.047034305,-0.106891535,-0.0103604235,0.08021787,0.033861283,0.104982756,0.057508517,-0.007903565,0.016230177,0.095292106,0.01436837,0.05235761,0.044662427,0.03968459,0.02034974,-0.008736941,0.0055569927,-0.010988152,0.0050311834,-0.09231248,0.0020466635,-0.026120728,-0.06079114,-0.018265283,-0.06147017,-0.12879512,0.04404426,-0.050602626,-0.08734132,-0.03886228,-0.0836049,-0.029510014,-0.0024729809,-0.04271888,0.038226657,0.04947566,0.027094936,-0.0068103136,0.010669312,-0.029040126,0.040624686,-0.032803427,-0.008730554,-0.011360546,0.03055474,0.056816224,-0.014440873,-0.044019043,0.0033424725,0.0035569814,0.04653227,-0.03236285,-0.054129865,-0.046673432,-0.06375054,-0.06802957,0.051755242,-0.14041759,-0.084547594,0.06291853,-0.016013552,-0.059182834,0.08232532,0.08359641,-0.035111416,0.047011234,0.070528835,0.03308685,0.02802053,-0.0506585,-0.03464593,0.02494467,-0.04083904,-0.084966816,-0.0317316,-0.09606712,-0.0382991,-0.013742656,-0.057161868,0.00048341925,0.02378505,0.021131432,0.0136982985,-0.08221378,0.016636437,0.022166159,0.074689694,0.082018286,-0.008908421,0.014345679,0.020534616,0.07441643,0.104555406,-0.049599726,0.033461586,-0.048588675,-0.010004092,-0.01431084,-0.11027553,-0.04004382,-0.075141214,0.027892116,0.06265006,0.028220298,0.011936991,-0.08839069,0.028078318,0.028383903,0.041218992,-0.021544108,-0.18158332,0.030727385,0.031316493,0.009059267,-0.057059515,-0.060284555,0.020450635,0.054046094,0.06681466,0.063181356,-0.017986754,-0.0134052625,-0.047789544,0.059649684,-0.028018398,0.010459934,-0.0339898,-0.063866846,-0.106141225,0.025049578,0.04759744,0.038049843,0.032343186,-0.06373539,-0.063674994,0.026921682,-0.08329706,-0.027955811,0.061375044,0.039377466,0.015622534,0.0072496072,0.006235084,0.069328815,0.0069175204,-0.0014747048,0.013517596,0.015703857,-0.018195262,0.010470574,0.13288479,-0.04076171,0.015057235,-0.07276707,-0.05549286,-0.006699106,0.003349094,0.021667361,-0.055362005,-0.03715533,0.10056521,-0.0061842334,-0.023190882,0.01426013,0.042563047,0.03274927,-0.013517545,0.017265007,-0.0052302545,-0.013134165,-0.039297357,-0.0074165864,-0.014226193,-0.07345603,-0.056057535,0.014955178,-0.02230134,-0.11472697,0.0037194304,0.027141502,-0.029430099,-0.03222481,-0.045166656,-0.010050935,0.0506866,-0.03105028,-0.00980956,0.019943245,0.006378842,0.011570691,-0.06296196,-0.029969878,-0.0016026738,0.048979998,0.027723726,-0.05826893,-0.026469538,0.046496466,-0.013678479,-0.060353167,-0.061365176,0.091446005,-0.006260446,-0.08935851,-0.14184259,0.03433761,0.034070794,0.077745706,0.039684914,0.016360747,-0.038966488,0.009886242,-0.027113782,0.015970165,0.060682908,0.07464686,0.0594029,0.017198596,-0.02475257,0.10458365,0.13406922,-0.07874085,-0.0750683,-0.040957212,-0.019008556,-0.026934134,0.018299714,-0.024740683,0.018478911,0.029443761,0.09423201,0.02876242,-0.023787556,-0.015044559,0.03235779,0.0103519205,0.07490108,-0.030022737,-0.0044093677,-0.042246673,-0.046275847,0.09450932,-0.000716019,-0.05239826,-0.0134620955,-0.04884848,-0.015043553,0.009392174,-0.027976595,-0.04964427,-0.008424599,-0.08202374,0.081372574,0.03214429,0.0034542675,0.031995814,0.0010317353,0.059663277,-0.038790792,0.048533425,0.081084326,-0.074991114,-0.016960328,-0.009148192,-0.006276282,0.08552255,0.074702546,-0.030629098,0.050216727,-0.00802751,0.016126096,0.05310058,-0.06420443,-0.046269465,-0.019356402,-0.007435272,-0.028740104,-0.021305166,0.12799118,0.015702922,-0.14205618,-0.039160125,-0.09588605,0.04660882,0.032955375,-0.07228898,0.022984702,-0.0048487554,0.007756932,0.0014258943,0.020777822,0.0762126,-0.001298697,9.890902e-05,-0.071134456,0.06966572,0.03949692,-0.007418857,-0.01779756,-0.054781057,0.018769596,-0.019848969,-0.024416532,-0.09176222,0.021234648,-0.055430513,0.003430605,-0.024763456,-0.043285016,0.013395744,0.03947359,-0.014943166,-0.11322441,-0.06609379,0.055831175,0.031073928,-0.077207625,-0.11580095,-0.046074416,0.04798916,0.07623801,-0.018843424,-0.03251771,0.04051759,-0.039748926,-0.055592127,-0.074514695,-0.056624528,-0.03761057,0.096904546,0.09105843,0.029519832,0.112688564,0.018572545,-0.05944933,-0.02515783,0.06472403,0.056740966,0.005600431,-0.10123585,-0.1583848,-0.00393716,0.03321798,0.043570526,-0.07375964,0.0135186445,-0.022366354,-0.017563697,0.097847596,0.06339782,-0.16550018,-0.02717527,-0.034858394,-0.08977378,-0.02947941,0.056371644,-0.0240212,-0.030579463,-0.024524266,0.03670527,0.14439775,-0.025155585,-0.07097446,0.038808215,0.0035367415,0.017768607,0.012679325,0.059863295,0.030765582,-0.014747244,0.007517412,0.036185566,-0.044190258,0.011664072,-0.06693761,0.007796744,-0.112491354,-0.0353772,0.04207678,-0.04734403,-0.059714682,-0.05183636,-0.020006588,0.029883176,-0.0066684447,0.0057954914,-0.034830537,0.027018001,-0.0066228905,0.096380316,0.06585154,0.08614141,0.056940235,0.054701116,0.0021213933,-0.04113749,0.026744738,-0.0023876908,0.036054224,0.028331237,0.027994562,-0.056070775,-0.00045876924,0.042560108,-0.04747037,-0.029054359,-0.0074571967,-0.020973358,-0.0056280373,-0.06432387,-0.021825088,-0.001802143,0.069135435,-0.024805006,-0.02779406,0.037185695,0.041133247,0.0010048038,-0.009830806,-0.06516505,-0.03868607,-0.02917996,-0.008416849,0.0021564127,0.014268446,0.05359193,-0.019697864,-0.08750419,-0.076034926,0.03652226,-0.11652913,-0.013923892,-0.069306225,-0.06128043,0.08459967,-0.07387997,-0.031850692,-0.014181594,-0.050863877,0.013605184,-0.12720832,-0.041186467,-0.016993133,0.09585185,0.06285663,-0.070423394,-0.053047184,-0.0040660976,0.036809143,0.11502281,0.01874433,0.0057306313,-0.08437708,0.028868457,0.11697191,0.09201118,-0.009643454,-0.023873765,-0.03012772,0.03339845,0.09285836,0.064601466,-0.00633732,-0.06827893,0.03250839,0.034549035,-0.02565502,0.026574977,-0.02097494,0.049799394,-0.015986867,0.0591835,-0.03801449,-0.026000148,0.015965253,-0.07516956,-0.1259857,-0.06443956,0.029704263,0.070018694,-0.027630951,0.050910875,-0.057314213,0.031813,-0.03869951,-0.045388784,0.096641116,0.10603226,0.06465292,-0.048213765,-0.07521402,-0.032870475,0.022980172,0.06414919,-0.0585771,-0.028675565,-0.05361197,0.021911047,0.07060144,0.054816965,0.025372762,0.06558821,0.076607235,0.05254925,0.04644607,-0.021330109,0.009817861,-0.04530547,-0.016999643,0.10210033,0.04761439,-0.10241449,-0.07066924,-0.0074051707,0.021973543,-0.010439113,-0.06546905,-0.07795849,0.0056626387,0.028276907,-0.13060421,0.024608728,-0.057086814,0.028230803,0.05947306,-0.04624444,0.04097154,0.02253975,0.06100999,0.0031921684,0.047335118,0.04471345,0.06924429,-0.0028613284,-0.02194314,-0.044581294,0.034215946,0.055439454,0.06307761,-0.03800692,-0.015278598,-0.0036841722,0.02010938,0.035977457,0.0718826,-0.0030312785,0.118072614,0.020310547,-0.03922164,0.012388515,-0.10746797,-0.0555414,-0.089699894,-0.044270623,0.0019086206,-0.007298858,-0.106616266,-0.13115832,-0.076860115,-0.07033999,0.0025758897,-0.058617104,-0.034576785,-0.06621231,-0.0836977,-0.021135125,-0.00083115237,-0.0126249865,-0.061511915,-0.009917394,-0.0011927843,-0.044393945,-0.032281887,-0.07449774,0.03087395,-0.053430546,0.021558775,0.01796333,0.0045061437,-0.025908649,-0.0047101914,-0.0150779085,-0.031514086,-0.019689854,-0.022138868,0.047402255,-0.086245716,0.011931275,-0.014854647,0.03040502,-0.043731555,0.04031523,0.0030380688,-0.07314,-0.1183756,0.047956537,-0.046287283,0.017662777,-0.070094466,0.005703897,0.051975295,0.04054764,0.017699644,0.059162993,-0.02926026,0.003208117,0.02543586,0.04059508,0.06869487,-0.028425254,-0.05989265,0.15081033,0.08135697,0.058422796,-0.053346887,-0.0726477,0.026491178,0.023995526,0.0345558,0.061390284,0.009097226,0.01767698,0.022819681,0.114843965,0.07325645,-0.018181732,0.010868982,0.020979451,-0.08193356,-0.03025455,-0.047211707,0.064628266,0.0508466,0.0007717099,-0.055833187,-0.025574911,-0.043418422,-0.054439086,-0.08433707,-0.036413744,0.077183,-0.10606173,-0.032441925,0.050737556,0.005961983,0.027613478,0.07971925,0.014980587,-0.033751458,0.018211672,-0.08307271,0.016534058,0.03942884,0.05393159,-0.013893967,-0.0034006091,0.0007120939,0.11942518,0.0071195494,0.014219113,-0.04363343,0.21007058,0.092548914,-0.038202025,-0.053566843,-0.005757617,0.056540996,-0.064836755,0.01997343,0.06109161,0.07814393,-0.1431647,-0.067111,0.038395002,-0.032791294,-0.013549768,0.021976905,-0.07050765,-0.019547066,-0.049928013,0.00977484,-0.013729928,-0.016952904,-0.020359335,0.022106403,0.019231595,-0.043087795,-0.0620058,-0.022707604,-0.009850471,-0.043406874,0.0014276342,-0.031058652,-0.1123403,0.048171602,-0.00070077635,-0.005816251,-0.033324525,-0.08775055,0.027720526,0.009519214,0.045267724,0.04060002,0.021156782,0.01952511,0.020579373,-0.00258033,-0.054274425,0.0064710104,0.089714706,0.041031167,-0.01093381,-0.0084860455,0.082239844,-0.016836649,0.0045250338,-0.056261744,0.030423062,-0.040821593,-0.088302225,-0.026143575,0.023565402,0.055875957,-0.05639412,0.0851659,0.03560445,-0.0072399,0.013726933,-0.022717206,0.008476459,-0.061676785,0.058323883,-0.07282372,0.02897002,0.07061367,0.009543697,-0.12086957,-0.147489,0.02502465,0.07827952,0.007501133,-0.10409215,-0.09098881,-0.060601614,0.00069721905,-0.011289198,-0.06637268,0.015483357,0.050823476,0.017897064,-0.014528844,0.09753771,0.11603152,-0.031646535,-0.045870017,-0.008536256,0.123070806,-0.062447697,-0.010440096,-0.059259735,0.019487524,0.026049085,-0.0016940823,-0.021992993,0.029666247,0.072190106,-0.013746432,-0.003082154,0.039768547,0.042762585,0.032595754,0.046781223,0.038198628,0.038948167,0.067592286,0.014745445,-0.02371151,0.10621236,0.051678035,-0.024407977,-0.05954559,0.050033942,-0.003491361,-8.488438e-05,0.008901612,-0.012624051,-0.024958503,-0.086129285,-0.054305486,-0.050430384,-0.06979199,-0.055501778,-0.13182662,-0.07365829,-0.045677725,-0.008758554,0.032568574,0.0015448075,-0.040810965,-0.003573891,0.012526356,0.015721485,0.003403942,0.042883307,0.0028136496,-0.08690412,-0.057444822,-0.022592248,0.056686737,-0.021039398,0.04819495,-0.062593326,0.033708345,0.0434749,0.0012958682,-0.027241787,-0.0037661388,-0.06977662,-0.01298297,0.01361366,-0.023803102,-0.05855668,-0.07890317,0.033366732,0.046017904,0.031395495,-0.100513786,-0.054632206,-0.029941471,0.004150403,0.0153065445,-0.046419106,-0.011740058,0.118927754,0.022030119,0.05463812,0.032499082,-0.009168161,0.04102053,-0.053209767,0.039134692,0.06095352,0.03544613,-0.012926994,-0.14220767,-0.023387011,0.050576534,-5.9100552e-05,-0.002699828,-0.108447,0.023680236,0.012516338,-0.09982029,-0.06091101,-0.0018630382,-0.03396304,-0.08015154,-0.104919404,-0.08562081,-0.02082847,0.0031769248,-0.028973686,-0.050337024,-0.11974335,-0.048534933,0.022111215,0.056909457,-0.041753095,-0.067828506,-0.034699563,-0.05874904,-0.00824732,-0.057274774,-0.012305616,0.0019790146,-0.1094616,-0.0322602,-0.050298885,-0.0038596664,0.013760918,0.037858013,-0.044662584,-0.07236317,0.016197057,-0.0037486898,-0.0059436364,-0.058101576,-0.19359653,0.0006820951,0.022574669,-0.014250276,-0.09657886,-0.0009452502,-0.022626555,0.060701445,-0.08437192,-0.016811013,-0.007447974,0.0006686291,-0.07576078,-0.06411296,0.018340793,-0.08597072,0.08046954,0.08270952,0.004552054,0.047320407,0.0070813852,0.027481414,0.05829792,-0.06275917,-0.044801276,-0.044041973,-0.03703987,0.03483881,0.024762522,-0.00082859973,0.03871165,0.053801768,0.07641584,-0.025473664,0.04940086,0.03367534,0.042943425,0.055568486,-0.079000816,0.051991843,0.011008818,0.09337125,-0.056265812,0.008105047,0.000116741685,0.03868098,0.122132,-0.03848264,0.0197252,0.0210046,0.080431946,0.15418454,0.003986592,-0.067521505,-0.094615944,0.034577448,0.042641506,-0.022734983,-0.07384377,-0.016683988,-0.03870316,0.08319398,-0.044868518,0.0844464,-0.061788242,-0.06901314,-0.0072967014,0.112657085,0.026075605,-0.049794007,-0.031511817,-0.062307883,-0.06939766,-0.03839869,-0.15221536,-0.0907996,-0.017569285,-0.040810492,-0.017998049,-0.059754487,-0.047739957,-0.039021984,-0.06071153,-0.025429443,-0.0067500765,-0.035204414,-0.042097945,-0.006126499,0.048329636,-0.01893472,-0.14372,-0.05865446,0.046310514,0.108085066,-0.14245166,0.017355267,0.04222288,0.097376265,-0.0094598485,-0.036072202,0.06282964,0.009790313,0.05199447,-0.0039325324,0.073870026,0.08156967,-0.04485274,-0.063577645,0.059823364,-0.020624675,-0.013553419,-0.10581771,-0.025701286,0.057028733,0.16867508,0.067482315,0.06100461,0.0331057,0.007969405,-0.024182988,0.008244733,0.030925032,-0.042607687,0.026778245,0.015795756,0.06898268,-0.0053254524,0.08222245,0.010520962,-0.07939955,-0.0057686637,0.05500087,-0.004415593,-0.08668936,0.089525245,0.07870551,0.0767926,0.015737303,0.020547077,-0.028310142,-0.050061002,-0.05505529,0.013048509,0.10005525,0.045139074,-0.11034447,-0.014510098,0.040804666,0.006876034,-0.041558444,-0.035203356,-0.11172046,-0.0720792,0.013271465,0.03821116,0.0067504295,0.035589848,0.049882237,0.044168618,0.12164129,-0.03390239,0.04625755,0.1132015,-0.04405498,-0.02173184,-0.067650236,-0.047564916,0.05558813,0.043128196,0.00453244,0.025184114,-0.06959146,-0.052061133,-0.02916612,0.014388138,0.03967238,-0.028530352,-0.032066815,-0.011392042,0.023044491,-0.045499474,-0.013721218,-0.08833482,0.01389601,-0.034671154,-0.004977014,-0.01287174,-0.007913264,0.058212496,-0.09172684,-0.114105344,-0.018707063,0.0005715469,0.03851566,-0.022089174,-0.04318916,-0.0015351013,0.019956445,0.04164185,0.033834968,0.05514159,-0.04471887,-0.071757466,-0.11800192,0.013620866,0.08858258,-0.025695214,0.05747041,-0.02836599,0.044379964,-0.045676433,-0.10850507,-0.04170346,0.024049148,0.011955028,0.063110985,0.04131655,-0.013098549,-0.022968842,0.05836668,-0.005413317,0.035289787,0.035215504,0.039712887,0.0646596,-0.06731758,0.023119971,0.0221481,0.019100089,-0.028760202,-0.044192072,0.05193693,0.060628414,0.039252892,-0.03352164,-0.0013378309,0.055081252,-0.0021214338,0.089066885,0.028395476,0.034393076,-0.015530857,-0.0678411,0.038960185,0.035541862,0.041468963,0.027717706,-0.035741597,0.039584868,0.010390062,-0.0010176335,-0.0073602227,0.02638652,0.064403705,-0.02755166,0.0071284007,-0.015859721,0.014823636,0.026400749,0.013728174,0.036831617,0.0061905365,0.018732058,0.05948796,0.015566284,0.008143406,0.031282492,-0.07282308,-0.08332394,0.0114114825,0.109278895,0.045612056,-0.04261741,-0.036936745,0.11803659,0.08376572,-0.010396669,-0.009961151,-0.049387876,0.06875911,0.011219491,0.024466628,0.06335705,0.00197946,-0.018774763,0.029742507,-0.089812495,-0.062474973,-0.032291405,-0.09314157,-0.026723852,0.05481503,0.063125454,0.03261481,-0.10907588,-0.025364334,-0.020530459,0.15108618,0.061430547,0.02048914,-0.046097983,0.014860588,-0.003329837,-0.015004686,0.03454269,-0.09416313,0.05625291,-0.008032245,0.02122162,0.006803179,-0.040364552,0.022381585,0.007673299,-0.059062347,0.04241614,0.051143736,0.038410477,0.031703733,0.046819087,0.02071629,-0.005228104,0.022350634,-0.032130625,0.015018118,-0.037693284,-0.04176506,-0.01911991,-0.0015781615,-0.06792757,0.016570538,-0.030778449,0.03489293,-0.014615074,-0.04040854,-0.11592805,0.00012313687,0.005223677,0.02226096,-0.08398792,0.054016717,0.036160637,0.0065591666,-0.024894545,-0.049830295,-0.013875208,-0.000380079,-0.014065689,-0.056176934,0.023192925,-0.054417867,-0.00820592,0.01936824,0.056390032,-0.037614148,0.024351308,-0.066282764,-0.006177943,-0.040447842,0.015734045,0.008064997,-0.03913356,-0.073449194,0.0166695,-0.029799301,0.022945484,-0.16961107,-0.035868544,-0.06746889,-0.036228776,-0.000731931,-0.12070886,-0.04883608,-0.036982976,-0.06827473,-0.014390528,-0.06680511,-0.09423744,-0.08481392,0.050238725,-0.052588925,-0.035527226,-0.10390526,0.012662404,-0.056947216,0.037276246,0.03790125,-0.077542804,-0.035472658,-0.022617731,-0.041264236,-0.04851578,-0.05206935,0.027092611,0.021642784,-0.013308173,0.013049817,0.04088248,0.048996214,-0.016930604,0.0045453086,-0.029019356,0.049626995,0.120130576,0.025619624,0.011650733,0.003956388,0.0028666698,0.024315283,0.11130168,-0.061233316,0.030777272,-0.020833002,0.026179269,-0.043509975,-0.06742868,-0.090851255,-0.015981423,-0.054607254,0.00032104817,-0.07525393,-0.036720578,-0.046251606,-0.050033193,-0.013068825,0.0058330763,-0.017893342,-0.030630222,0.013027027,0.04441158,-0.030742494,0.040037572,-0.051743533,-0.086103745,-0.024486596,0.0048551233,0.031804867,-0.0927117,0.0350398,-0.0050632474,0.01697928,0.085981,0.012131152,0.014564578,-0.006999586,0.0413641,0.03972037,0.044922728,0.00077080436,-0.05199652,-0.009731754,0.050943214,0.0066792,-0.04234636,-0.022175282,0.01194953,0.055155583,0.04523782,-0.04342619,0.085711084,-0.008175726,-0.0065746866,0.093959376,-0.010254563,-0.0077417586,-0.040143985,-0.062995665,-0.00016851426,0.041059062,0.09423542,-0.050897967,-0.051311392,0.044546742,-0.057337478,-0.108349875,-0.07012693,0.012560954,0.039676905,-0.10488871,-0.03595125,0.044243522,0.07058251,-0.0034221965,0.019143423,0.04505202,0.09231109,0.080332905,-0.03598749,0.016801134,-0.08774337,0.027960477,0.007087355,0.0359859,0.065661915,-0.011555977,0.013446849,-0.023011656,0.019713128,0.008435844,0.04799561,-0.06691565,-0.07209625,-0.085131116,-0.037681907,-0.037255604,-0.052936766,-0.0027797401,0.0141060725,0.0218634,0.06267272,0.03738411,0.1134049,0.042425614,0.030686265,0.07950185,0.111846596,-0.016000789,-0.0011077551,-0.028453346,0.036724985,0.033440363,0.069787815,-0.027831212,0.02554545,0.05498095,0.14399287,0.012394603,0.09634429,-0.028287532,-0.046856117,-0.0123492,-0.09498163,-0.023879651,-0.0340991,-0.047912262,-0.12045913,0.053107567,-0.03410617,0.04410421,0.032323807,0.0053444696,0.026759213,-0.07982544,-0.07032112,0.03393927,0.032789312,0.022039907,-0.0036780136,0.0033977344,0.01053954,0.0019373443,0.013253767,-0.059450272,0.11085123,0.062190726,-0.013310047,-0.019913284,-0.012353534,-0.05870519,-0.08743841,0.022092596,0.09208324,-0.034452423,-0.12996534,-0.115122676,0.045322035,0.1093882,0.037080698,0.07441772,0.005657363,0.044577543,-0.02735022,-0.08019222,-0.034916926,-0.020098716,0.015830878,-0.06946482,-0.020505344,0.009180673,-0.0151634645,-0.090543814,0.011786798,0.11335798,0.11229892,-0.031733625,-0.10918636,0.044010617,0.09037596,0.070647225,-0.09955542,0.047065537,-0.07023905,-0.01882591,0.010256593,0.056963034,-0.07003087,-0.013475413,-0.00976391,-0.022332666,0.03884013,-0.037066765,-0.075714365,0.007998045,0.012363368,-0.0044716527,0.021376457,0.0132131325,0.089448735,0.056960557,0.0075375116,-0.082397476,0.045922764,-0.044427715,-0.0058111264,-0.0458231,0.019938478,0.08825115,0.074755326,0.054207534,0.03449639,-0.00823756,-0.00887075,0.037304264,-0.014396362,-0.0038492985,-0.015182239,0.020888954,0.0052263015,-0.01777591,-0.008374284,0.03447023,-0.02347018,-0.033576284,-0.06366263,0.020929532,0.001566119,-0.05923892,-0.08888167,-0.03565707,0.18136923,-0.054863915,-0.099523604,-0.14535159,0.023729904,0.036769915,-0.112017505,-0.12922063,-0.08589824,0.012921999,0.021236321,0.058493596,0.012881683,-0.019588696,-0.012269284,0.08995418,0.07120298,0.022330854,0.048738454,0.027105954,-0.042765897,-0.03109438,-0.105310075,-0.02125445,0.025710868,-0.028129354,0.09479045,0.020756919,-0.0050652646,-0.044979256,0.0042560417,-0.04707635,0.0065898905,-0.025823962,-0.09086752,-0.11279343,-0.05716978,-0.047403377,0.07979564,-0.0051965937,0.08284339,0.029412806,0.096287765,0.07459265,0.058057196,0.09868966,0.07241489,0.08751099,-0.010606689,-0.005831429,-0.025054438,-0.033016603,-0.068362854,-0.028889688,0.08124735,0.11375954,0.023899488,0.039377753,0.0019955537,-0.030201472,0.097693324,-0.027079687,0.013160992,-0.0055400115,-0.09716464,-0.054296724,-0.0154623585,0.00074693107,-0.014682583,-0.016541576,0.0006802756,0.045876835,0.07820677,0.0004147385,-0.09404572,-0.08759325,0.0002187509,-0.049395118,-0.015599872,0.04520619,0.09226608,-0.07467505,-0.04632943,0.0077560376,0.05473068,0.07627495,0.01887499,-0.008040246,-0.029357811,0.051507324,0.001936984,0.042647082,-0.02197218,-0.0057087443,0.011016701,0.01679946,-0.029539557,-0.036638707,-0.0023931074,-0.009415462,0.025897665,-0.056185573,-0.039257143,0.004434782,-0.027064422,0.0037069006,-0.028244238,-0.0143773835,-0.020007558,0.0055841994,0.021160016,0.056047495,0.01696036,-0.02601644,-0.03708754,0.036643967,0.045959868,-0.06682581,0.0478597,-0.049029883,-0.018462162,0.03933566,0.02150114,0.024647618,0.0361638,0.009827472,-0.035186734,-0.13692467,-0.105199456,-0.063722715,0.014445241,-0.013554528,-0.0025451703,-0.011833337,0.024510631,0.037252367,0.0013029122,0.039992716,-0.030874703,0.0105681,-0.04344078,-0.0096733365,-0.06887145,-0.047545567,-0.08714999,-0.1007377,-0.018607518,-0.061363656,0.016536959,0.01411784,-0.047437876,-0.032128215,0.005567848,-0.09501898,-0.07658676,0.0031352884,-0.0015554971,-0.06294188,-0.09779966,-0.033649597,0.07456041,-0.017718773,-0.045905203,-0.023193369,-0.080505006,-0.05453421,0.048608147,0.0020938911,-0.0016483824,-0.007008731,-0.055606592,0.014189512,0.0104613835,-0.015896542,0.028866319,-0.019392207,-0.08616189,0.00083509,0.018485533,-0.013794084,-0.04135986,-0.04150751,0.05427108,0.013130852,0.026293535,-0.008892001,-0.02383882,-0.14082378,-0.050198995,-0.03428439,-0.12776145,-0.06868399,-0.09516682,0.0020904327,0.02162561,-0.025091482,-0.025343176,0.031459346,-0.031040886,-0.03286911,0.027115356,0.0291466,0.031221135,0.06628062,0.14389426,-0.032456942,0.018674573,0.018897252,0.020487178,0.03607276,-0.041919068,0.07186547,0.029556561,0.07255174,0.021133179,0.041211046,0.06706981,-0.039805148,-0.03170428,-0.025894526,0.06807102,-0.0012262679,0.054702897,0.034464106,0.06884119,-0.014327043,-0.01249997,0.02174394,-0.02076878,0.04389244,-0.06113565,-0.0392489,-0.13074706,-0.11279678,0.0058156303,-0.028676685,0.013414636,-0.0968131,-0.07121407,-0.06863402,-0.05835798,0.056849077,-0.026934976,-0.059806462,0.070720255,0.033870455,0.01681745,-0.035727702,-0.13099436,-0.028849829,-0.047989316,-0.07801597,-0.01706548,-0.08334804,-0.04450634,0.033243887,0.026518546,-0.010226824,-0.03704017,-0.04239914,-0.079595536,0.022885783,0.030351257,0.006227743,-0.09832362,-0.06465864,-0.006758211,0.01687994,0.070838,-0.05698564,-0.06819765,0.07398643,0.11963425,0.031473972,-0.05741875,-0.12089929,0.029138468,0.13322137,0.027915243,0.07737665,0.08034437,0.055259436,-0.015455953,-0.01475638,-0.033104606,0.031497166,0.072822295,0.07662859,-0.03634495,0.079262584,0.016485317,0.021661868,-0.07165742,-0.07052469,0.0067769676,-0.029860627,-0.009356599,-0.031575866,0.04626086,0.09357299,0.014415421,-0.019178363,0.0099012805,-0.0055667725,-0.004329181,-0.018266743,0.008916522,-0.030254504,0.008547613,-0.015174227,0.0071975826,0.029837854,0.021835687,-0.061666287,-0.012556853,-0.011079074,0.020485468,-0.092971295,-0.08861905,0.012086309,0.026737757,0.07500143,-0.00015286196,-0.13360858,-0.15398467,-0.07490141,0.008405827,0.080257766,-0.0077257836,-0.014083268,0.03701275,0.04431946,0.046726577,0.045959894,-0.030774875,0.010234598,0.01138981,0.08134084,0.04665645,-0.032772593,-0.061409794,0.08213876,0.0710441,-0.04752974,-0.03908261,0.0018805589,0.06266711,-0.05704475,-0.094781704,-0.05563031,-0.037044454,-0.0050545875,-0.062005874,-0.0023452085,-0.003280395,-0.04585045,-0.0031449755,-0.028629303,-0.104635626,-0.12559551,-0.04337888,0.11007209,-0.023510609,-0.09547592,0.05801752,-0.007864957,0.04123568,-0.022253636,-0.00585385,-0.07843502,-0.004146134,0.059091307,-0.02140172,-0.03089499,-0.036487088,0.022839464,0.030020388,0.0076777674,0.058022995,0.02557157,-0.015198052,0.041508485,0.060214467,-0.03653256,0.07180834,-0.08580251,0.03221497,0.0391121,0.04489243,0.13417864,-0.058165498,0.058798343,0.021573076,0.10359334,0.1254107,-0.02715773,0.082721844,0.009162476,0.120651506,0.047879815,-0.11827194,0.072071224,0.0370334,-0.0023084912,-0.04070327,-0.013251453,0.062860064,-0.00851371,-0.0564285,-0.009151733,0.036882464,-0.0339061,-0.10639617,0.07319521,-0.024844522,-0.058801886,-0.06151599,0.022455769,-0.07683675,-0.038078193,-0.053346794,-0.09024365,0.022858113,0.0028264818,-0.025618155,-0.03244093,-0.023949338,-0.0291883,0.01407228,-0.04631484,0.015933385,-0.04746099,0.040446926,-0.032962456,-0.004053059,-0.008819107,0.0550765,-0.03743783,-0.0504559,0.0022614563,0.045047272,0.07695709,0.07855768,0.0445477,0.051865138,0.029063364,-0.0145350415,0.020149598,-0.08968994,-0.041283987,-0.07536734,-0.025482474,-0.026139878,0.07442786,-0.058035485,0.07723988,-0.07341708,-0.022036849,-0.024066754,-0.10494179,-0.18148902,0.016270109,-0.08566613,-0.045679014,-0.081584044,-0.026689138,-0.011060415,0.017310027,-0.055698004,-0.01521584,-0.0055705225,-0.0031740156,0.00084695674,0.037130073,-0.02946756,0.047912277,0.026189577,-0.0027177366,-0.04665263,-0.05368878,-0.076069914,-0.0012121068,-0.032297995,-0.020626808,0.012951776,0.024749555,-0.07483992,-0.019636596,0.006972293,0.041182466,-0.06426217,0.095890045,-0.012436141,-0.005967372,0.06278729,0.056625657,-0.03792948,-0.098157704,-0.06814694,0.0957114,-0.027616916,-0.03419722,0.057601087,0.066703305,0.012525389,0.07941458,0.027542153,-0.0071025756,0.07596808,0.03235145,0.005524014,0.023894168,-0.0066939844,-0.023073735,0.00049550575,-0.010907,0.024731409,0.043097854,0.0056279,0.04390737,0.0023754088,-0.05008757,-0.052311346,0.045973282,0.0619663,0.10383591,0.097449705,0.020476706,-0.06462572,-0.08507192,-0.1343798,0.029012484,-0.01621821,-0.013515895,-0.070649244,-0.011448293,0.0054684235,0.015424531,-0.04175315,0.01793557,-0.07379663,0.031790137,0.015437042,-0.020683823,-0.045770787,-0.11906467,0.0026129563,0.06296693,-0.00041821387,0.0698876,-0.004686039,-0.033821736,0.010789476,-0.044429798,-0.0570241,-0.03790201,0.010451963,0.033015367,0.021113487,0.060423534,-0.04324013,-0.0069926907,-0.009025964,0.07391032,0.07331975,-0.05886782,-0.01634356,0.016720194,0.060961932,0.019151919,0.08719528,-0.052682675,0.038059868,0.05421,0.059462957,0.026902454,-0.068613805,0.014376219,-0.012665211,0.01035796,0.020050684,-0.078274615,-0.05865237,0.025230912,-0.053359345,0.07638124,-0.05255184,0.02628225,-0.005421456,-0.0017872486,-0.06292613,-0.072035395,-0.03724726,-0.04600574,-0.03485474,0.07663798,0.044427503,0.016532948,0.0006353348,0.016572641,-0.034700222,0.085828416,0.007896314,0.0036710852,0.105192594,-0.01998214,0.028577521,0.040744472,0.049859446,0.045484196,-0.024822613,-0.0063702157,-0.050144486,-0.03556951,0.14416511,-0.04670075,-0.105873935,-0.09961444,0.052385084,0.00036716115,0.0038035798,-0.004941575,0.013439356,0.02069388,0.06680261,-0.025812596,0.043062933,0.038251705,0.0014063515,0.048732672,0.0312557,0.034482554,0.049385507,-0.011174764,5.085952e-05,-0.046908226,0.005431088,-0.008690197,-0.048271842,-0.021950763,-0.06847713,-0.016810762,-0.027977863,0.051672664,-0.04398199,-0.01858551,-0.08663146,0.02804088,0.04867544,0.047055736,0.04344462,-0.016090259,-0.0992758,-0.056452885,0.10387744,0.067165084,-0.15046155,-0.2069009,-0.028735928,0.07201554,0.106081106,0.012074193,-0.017805727,0.043181524,0.030680608,0.00015036223,-0.037064213,0.048491128,0.0026214675,-0.07729099,-0.0030974804,0.07522422,0.0015425134,-0.012534005,0.0034744414,0.00037524092,0.05139186,-0.015398345,0.047151037,-0.05305198,-0.028982254,-0.025152853,-0.046362367,-0.012836703,-0.052988958,-0.052721374,-0.054551143,-0.06529419,-0.020745311,-0.03870726,-0.08022391,-0.0393671,-0.0023299519,-0.014172319,-0.036908887,-0.011757331,-0.047513016,-0.09008016,-0.018354395,-0.035190016,0.06280146,-0.04796288,-0.06765914,-0.015992394,0.018070906,-0.020009583,-0.05199714,0.13067904,-0.004130701,0.0077983304,0.004041754,-0.023977073,0.014302686,-0.05824303,0.044312514,0.05070276,-0.0548954,-0.055158485,-0.013590939,-0.016799208,-0.0062539307,-0.050431617,-0.019877765,0.019294634,-0.022296848,0.03660132,0.017399358,-0.006321786,-0.021616185,0.071700215,0.042834684,-0.054324478,-0.057207692,-0.057549275,-0.055000305,-0.0047287154,-0.062659875,-0.00036343577,-0.056078978,-0.012100692,-0.042267554,-0.05600159,-0.056320973,-0.09970369,0.0006307383,0.010286739,0.079107255,-0.06783962,-0.044213943,-0.022956228,-0.026914211,-0.1359763,-0.08012092,0.019775825,-0.003344768,0.040640946,-0.033204723,0.042631518,0.08227821,-0.035775412,0.019641792,0.025324231,-0.0032887,-0.058374483,-0.037771244,-0.14387201,-0.03197194,0.04475908,0.003909211,0.022509685,-0.0016690702,-0.046379197,-0.06334327,-0.055959582,0.03720094,-0.03563977,0.073954456,0.055585265,-0.13361265,-0.068417564,0.068856835,0.07357327,0.061953567,-0.106996864,0.0051576747,0.054733198,-0.009669747,-0.026105309,-0.058659196,0.020030996,-0.10373564,0.070698366,0.07484108,0.04843278,0.050537217,-0.00782044,0.012372757,0.053449463,0.04929058,0.07130446,0.06433499,-0.07318924,-0.060039785,0.021612218,-0.01665694,-0.11525568,-0.07338979,-0.02220014,0.11713179,0.11344687,0.10858736,0.03682147,-0.08278998,0.010468891,0.035637483,0.09910416,0.07454558,0.04016141,-0.046761394,0.018745799,-0.017814847,-0.0077730203,0.04650855,0.036034275,0.019453485,-0.01739356,-0.11354638,0.002733145,-0.08097379,-0.058726553,-0.099998035,-0.018253388,-0.03845173,-0.08122134,0.01180078,-0.06749459,0.04093028,-0.032337215,0.009176561,-0.044659592,-0.00901638,-0.044593494,0.021876615,-0.016505858,0.07206054,0.04074401,-0.061713554,-0.037942782,0.018534804,0.040099606,0.0038794903,-0.113736145,0.033066932,0.07286665,0.03163664,0.07250505,-0.051418643,0.047063842,0.073087744,-0.06573426,-0.037827376,0.004084937,0.038054164,0.03237808,0.024802465,-0.087102376,0.012562796,-0.044813912,-0.03548834,-0.026332857,-0.050305236,-0.06117161,-0.07536352,0.032508884,0.015999718,-0.010123936,-0.0031193928,0.14072224,0.0923153,0.0068047154,0.033543468,0.08431851,0.104853615,-0.06492953,-0.05540016,-0.09617822,-0.022852072,-0.008841216,0.0003846936,-0.067595914,-0.01947586,-0.0271506,-0.04180594,-0.09107047,-0.028949767,0.022005739,-0.08059797,0.006225661,-0.02411435,0.030791393,-0.009535221,-0.01813348,-0.007926861,-0.04921422,-0.017697155,0.063557744,0.029991027,0.07476078,-0.0211389,-0.03475406,0.0056243544,0.052156042,0.0026783906,0.023401184,-0.07106413,0.13478273,-0.0024685783,0.046310227,-0.040513,-0.03839622,0.01591961,-0.06966502,0.038459625,-0.045727566,-0.05379461,0.01782814,-0.06760507,-0.035099637,0.05953564,-0.018937076,0.020548005,-0.032301866,0.052005447,0.062010765,0.039780173,0.064611726,0.05000683,0.0148365665,0.097904935,-0.008480474,-0.07195086,0.036938947,-0.105058566,-0.013139813,-0.024475535,-0.037144374,-0.011987341,-0.043024875,-0.092422575,0.04921184,-0.06580568,-0.004321536,0.017436843,0.0062773726,0.06125463,-0.01767406,-0.012883482,-0.08121939,0.011223821,0.052832156,0.051102724,0.021025816,-0.025438232,0.11785237,0.019994115,-0.055174038,0.05753832,-0.0065380055,0.01641537,0.0033648598,-0.015306326,-0.09871054,-0.0070487605,0.04517783,-0.0042385454,0.003907686,-0.042141195,-0.0043876516,-0.0045909067,-0.049182467,-0.0041554812,0.05453889,-0.0060477667,0.08301502,-0.045621105,-0.04302076,-0.03910772,-0.06529002,0.021888668,0.10168349,0.023639191,0.15946017,0.089421034,0.061196804,-0.023562923,0.08313008,0.07455357,0.14731139,-0.020275611,-0.06511683,-0.09809782,-0.059447728,0.003361198,0.06199939,0.0432791,-0.0045629325,-0.03147027,0.0532718,0.0042139334,0.0029227228,0.022414718,0.029554024,0.08853815,-0.066666245,-0.0078826295,0.042902566,-0.057953037,-0.06677769,0.010384462,-0.04906002,-0.02595364,-0.07291334,0.018246884,0.04338953,-0.031696416,0.012348622,0.011539074,-0.032710597,-0.024891362,-0.055374306,0.041659962,0.084424704,0.023259595,0.05103766,0.008529305,-0.016191276,-0.03191964,0.087443635,0.026194029,0.02305016,0.029414296,-0.106562376,-0.042908337,-0.069393806,0.027264912,-0.032617174,0.03534794,-0.00096714916,0.03712597,0.0538738,0.034470387,-0.00038394268,0.043830395,0.016459435,0.11459995,0.066056214,0.053773727,0.0053534224,-0.00047463342,-0.008470389,0.062995926,-0.08475821,-0.106696956,-0.0534373,0.10977098,0.016635181,0.09484924,0.12627058,0.11153268,0.07037287,0.061416112,0.044874042,0.08924375,-0.0160459,0.028273564,0.017250502,0.013472088,0.021173708,-0.061002005,-0.02960061,-0.053474765,0.06524295,0.059359152,-0.017977264,0.032175623,0.017506517,0.021359356,0.013274083,0.020795602,0.014803182,0.0273933,-0.16035156,-0.11780758,-0.020848997,-0.034131043,-0.018020144,0.009582565,0.08433464,-0.0065938244,-0.023435041,-0.003993141,-0.015929112,0.032102775,-0.030767515,0.013053677,-0.029745651,-0.006971405,0.025393449,0.016993346,0.03808603,-0.035281595,-0.06789198,-0.060275875,-0.028986642,-0.05213843,-0.019654017,-0.01012746,-0.04885691,0.06797451,-0.051823463,-0.056230795,0.05688836,0.09354687,-0.036065776,0.03982696,-0.025105024,0.0071315016,0.104149595,-0.0005350013,0.014544261,-0.036531046,0.025800448,0.01807269,0.036962055,-0.014599156,-0.04029941,-0.029900286,-0.07206775,0.032994673,0.009726438,-0.034452327,-0.12153881,-0.05559153,-0.027353834,-0.025825778,0.00077717204,0.00643211,0.14644694,0.04176642,-0.02424261,-0.059174955,0.049587704,0.024316765,0.01056325,0.017141638,0.025670426,0.0056006103,-0.04421071,-0.04599963,0.02048086,0.13444696,0.05108133,0.033087388,-0.026600918,-0.0034446833,-0.089282595,0.049889587,-0.022901654,0.030021697,-0.008889584,-0.05877344,-0.059458565,-0.0066235294,-0.0332828,0.053286467,0.028666701,-0.029764965,-0.0015784396,0.013469735,0.028900962,0.07962045,-0.027040878,0.018523686,-0.024051014,-0.022764385,0.06324964,-0.04442761,0.048946947,-0.041639917,0.023752123,0.016078863,0.028408473,-0.050884683,0.055639975,0.044134595,0.0746052,-0.056495853,-0.018776473,0.024673026,0.0448713,0.07456224,-0.01893685,0.00063242257,0.03304972,0.06946404,-0.0447482,0.01467255,-0.054433618,0.014244828,0.044449814,-0.01055933,-0.009645414,-0.015248961,-0.012681301,0.021030895,-0.009392513,0.0952243,0.07051572,0.030150669,0.06922541,0.015093766,0.04994574,0.09285543,0.085782744,-0.021047149,0.031806014,-0.055278745,-0.064632066,0.033571284,-0.018651925,-0.023780352,-0.049364116,0.009602177,-0.017298408,0.044477113,0.03384894,0.12652837,0.04117423,0.025833877,-0.01981759,-0.033544317,0.0054946323,-0.03542985,0.008817869,-0.11504927,-0.021568978,-0.1146982,-0.053776275,0.07069982,0.038691793,-0.058787737,0.07269701,0.04715207,0.03753035,0.028338592,-0.025984643,0.004580036,0.025607202,-0.060752086,-0.009992948,0.0022262994,0.022137607,-0.01900804,0.077270396,0.018306106,0.0036381197,0.0020501532,0.06384095,0.046133015,0.057024304,-0.072249904,-0.08127363,0.051259886,-0.031209044,-0.007696555,-0.07514249,0.045787834,-0.037071083,-0.0071805445,0.051511224,0.02597244,-0.0036409781,-0.06582159,-0.0077744434,-0.028605428,-0.031907402,-0.017620368,0.03171446,-0.015472614,-0.11109639,-0.10414548,0.02652301,-0.064353675,-0.11680977,-0.02355641,-0.035737697,-0.0038026755,-0.04657806,-0.054875214,-0.06464291,0.03530333,-0.025638208,-0.06168405,0.086293995,-0.010185528,0.04070736,-0.008552797,-0.039727688,0.012475541,0.030041508,0.014452311,0.06943359,0.018205164,0.027645469,0.08323169,0.069551185,0.030283997,0.03334133,-0.039906286,0.08763637,0.06978592,-0.10875864,-0.07873654,-0.08149394,0.06129197,0.012320662,-0.011157819,-0.032166786,0.06668379,0.04131072,-0.076318495,0.08333822,0.011072628,-0.05933226,-0.043382335,-0.003229898,-0.014487232,-0.008487478,-0.015580623,-0.048808124,0.0070105223,0.045630693,-0.055550095,0.015961235,0.006179366,-0.04108727,-0.16955458,0.011388746,-0.03699579,0.0034956376,0.038142957,0.037218172,-0.00199012,-0.004215139,-0.003314801,-0.030629428,-0.030281259,-0.030354125,-0.050443362,0.04187956,-0.008260715,-0.016891673,0.013356611,0.076364905,0.04670569,0.04343069,-0.02636214,0.015663203,0.042526413,0.031912237,0.0023590946,-0.021050306,0.027792297,0.0032038514,-0.044232078,-0.054056607,0.11497026,0.0021731525,0.014649397,0.032519594,-0.03002019,0.023836596,-0.01856187,-0.06808631,-0.1149695,-0.06755051,0.003936803,-0.05403872,0.12960178,-0.030194713,0.005463521,0.014887097,-0.04898862,0.025285196,0.0007135107,-0.053275563,-0.004573947,-0.05123784,0.0051088454,-0.060202345,0.026313644,-0.016076617,0.016127039,0.11013431,0.015276859,0.017987192,-0.016605934,0.03275818,0.01843612,0.06325743,0.049214005,-0.014167472,0.04506865,0.089244545,0.008402153,-0.03364534,0.017490653,0.10988203,0.036107365,-0.031352945,0.02468504,0.119545415,0.054580383,0.08842506,-0.010785054,-0.048339136,0.02750763,0.028790226,-0.07977856,0.08161689,-0.010748097,-0.041719694,-0.031038877,-0.00036778528,-0.018448448,-0.07636655,-0.07283174,-0.0009288597,0.0048831683,-0.02886462,-0.009302305,0.009431168,-0.078431435,-0.03871705,-0.044881977,-0.06819481,-0.0002286956,0.029048018,-0.0287464,-0.0034703342,-0.042416353,0.018802468,0.038580343,-0.070044525,-0.06705568,-0.07959054,0.025331251,0.053561915,0.047494493,-0.00637232,-0.062244266,-0.014197876,0.028916249,-0.08956461,-0.10242336,0.038928725,0.049939957,0.016150372,-0.07516198,-0.006202209,-0.005700837,0.0055786795,-0.036736663,-0.12618932,-0.052650504,-0.009863356,0.12496839,0.11930153,0.030333593,0.007872715,-0.03366167,-0.037885994,0.013696654,0.027970985,-0.069542035,0.01420161,-0.04872871,0.017700277,0.06236038,0.033079065,0.051528685,0.021384375,0.050039243,0.004396208,-0.005226773,0.06836964,0.14315864,0.10121217,-0.017759955,-0.012927172,-0.0113812145,0.026290473,0.021619933,-0.08749422,-0.00913304,0.019414697,-0.0010349811,-0.09373483,0.012276756,-0.043759726,-0.043004755,0.008691879,-0.061080072,-0.05774526,0.010233982,-0.05335328,0.020266272,0.022163125,-0.045676585,-0.04173811,-0.049247883,0.043607697,0.05363567,0.07408359,0.06633584,-0.015842475,-0.061863955,-0.053462047,-0.0126474565,-0.019936599,-0.00474255,0.012635493,0.020914398,-0.024696432,-0.021949625,0.077135995,0.026890678,0.10288153,-0.020707158,0.03749948,-0.011554774,0.11719574,-0.0015542783,-0.047346745,0.035079975,-0.01993413,0.03985731,0.0027007642,0.00717714,0.013191262,-0.03681836,0.038543694,-0.09228665,-0.0508881,0.028633397,0.08155643,0.024588417,-0.0018239102,0.022184104,0.00020757661,0.14149886,0.0075787967,-0.013151819,0.036171827,-0.04737466,-0.06763851,-0.029651098,-0.07316465,-0.07763577,-0.028405208,0.0699858,-0.021024922,-0.033860423,-0.050728843,-0.022201573,0.029484909,0.028215703,0.06452923,0.04299806,0.09918158,-0.019314233,-0.0028084472,0.05135087,0.057754654,0.117042184,-0.08435409,-0.02702605,0.039242808,0.07071475,0.0565573,0.026643591,-0.011726496,0.06967622,0.070294134,0.0548646,0.025182,0.067116536,-0.03209273,0.045555674,0.011768256,0.06367603,0.08897075,-0.066383116,-0.046266645,-0.08872096,-0.09703059,0.09492475,0.031461194,-0.04126125,-0.11007248,-0.0678824,0.036645576,0.039881326,-0.017405877,-0.100756705,-0.091881245,0.02343795,-0.040948357,-0.0048390827,-0.03300564,-0.02497144,0.02425705,-0.026986044,-0.02807822,-0.064054035,0.004876335,-0.012265541,0.063342445,0.032256998,0.1088909,0.05696726,0.06670311,0.069181204,0.020253982,-0.028939938,-0.0947228,0.015003078,0.038039044,-0.0077514322,0.035765845,0.021165894,0.025720758,0.061608233,-0.00814643,0.048862427,-0.008387128,-0.03725843,0.1443432,0.0050053718,0.008211237,-0.046353668,-0.13046163,-0.104881324,-0.08334124,-0.007286553,-0.003280728,-0.031460293,0.104247935,0.039518345,0.028289272,0.16237316,0.030311367,-0.018033653,0.021687085,0.13851678,0.057553217,0.026688017,-0.053181138,0.052808095,0.055800956,0.05179424,0.036328945,-0.061487768,-0.10722446,0.005588456,-0.043654334,0.004581784,-0.010378886,0.0006072193,-0.009175743,0.047661647,0.012514728,0.016290419,-0.00592058,-0.03228131,0.016193774,-0.0035340511,-0.018781202,0.049842097,-0.058300138,0.07750043,-0.05942454,-0.023662714,0.0053403527,-0.014452571,-0.026370585,0.094185606,0.021771353,0.033414178,-0.040910333,-0.10057578,0.044515055,0.011752442,0.04891188,0.012312141,-0.101675145,0.04153882,-0.06651322,0.057149354,0.13956843,-0.09670259,-0.021775248,0.0005803875,0.012599598,0.0048249373,-0.0051753833,-0.061304107,0.026541881,-0.041942928,0.0074194907,-0.019712297,0.023937197,-0.018472442,-0.07419817,0.035780184,0.05792527,0.045457773,-0.1009767,-0.13082187,-0.08436435,-0.1411744,0.09215871,-0.050011992,-0.09582409,-0.050053317,-0.03333179,0.00018618398,-0.012820729,-0.045122784,-0.0005188832,0.023102138,0.06676173,0.023333937,-0.03623884,-0.030103212,0.036370933,-0.0066024708,-0.009586266,-0.071330264,-0.034532763,-0.102294795,0.11285307,0.006762765,-0.07818621,-0.028858554,-0.014478401,0.05905401,0.05599134,0.05949219,0.022354417,-0.004844994,0.016385142,0.062137082,0.010944091,-0.025012039,-0.027513754,0.023798568,-0.020301722,-0.012397236,-0.0480457,-0.050534073,0.04022688,-0.02737152,0.031045068,-0.045369837,-0.06515086,0.07602132,0.006827643,-0.049818173,0.0021755018,-0.057737015,-0.05533093,-0.061776847,-0.022644239,0.056631733,0.0443847,-0.086947866,-0.060119767,0.010764314,0.00058725534,-0.037898485,0.009103704,0.04669028,0.061390013,0.0011467454,-0.03849319,-0.02674878,-0.020486346,-0.056962743,-0.046739087,0.000640233,0.07006946,0.08775995,0.08085063,0.027352499,0.047532976,-0.049021028,0.06445807,-0.014684048,0.0031526953,-0.0311763,-0.027945947,0.090061486,0.08632399,-0.08231336,-0.09962311,0.027491434,0.007503706,0.04303368,-0.020418258,-0.002884609,0.02762213,0.03432068,0.077314965,-0.0013036531,0.0041818772,-0.06626715,-0.053483844,-0.12104859,0.03721107,0.009942347,-0.034742586,-0.07338228,0.017050778,0.011940284,0.021203594,0.09227182,0.03343739,0.026309818,-0.009258765,0.017886223,-0.028885987,-0.024722032,0.018412387,0.12100509,0.07727265,0.03242321,-0.006729328,-0.035644926,-0.038272873,-0.027722575,-0.034560166,-0.09628048,-0.10319414,-0.08165401,0.013770828,-0.013566127,-0.0596881,-0.0025136203,-0.055835113,-0.030376304,0.011661343,0.05313697,0.03352436,-0.053897273,-0.010874556,0.06225188,0.0043026586,0.036631875,0.011788226,-0.003956897,-0.03242485,-0.038523193,-0.018911699,0.003975407,0.0058722743,0.12937017,0.11566281,0.13183525,0.07961625,-0.022070691,-0.07705457,-0.034756474,0.018035676,-0.05783564,-0.035586514,0.10713116,0.027097216,-0.049031895,-0.052976504,0.016535467,0.071949236,-0.04104496,0.02496711,0.06355534,0.086502716,0.039592266,-0.039955765,-0.03962775,0.012647042,0.036116816,0.0048441994,-0.008311033,-0.010815184,0.018378215,0.012119475,0.018980756,-0.034918737,-0.035311773,-0.037477158,0.03141109,-0.039131917,-0.09273919,-0.016105596,0.056543466,-0.04762597,-0.099012464,0.057961192,-0.03057142,0.012377115,-0.028323514,-0.011170125,-0.011389498,-0.030349731,-0.0649789,-0.07278143,0.004896324,-0.089963295,-0.06284692,-0.007428639,0.017499123,-0.020405784,0.037709728,-0.019307725,0.009391289,-0.024257822,0.14572528,0.07295532,-0.033377957,-0.011975552,0.099396184,0.024527246,-0.019026225,0.006473483,0.0027045694,0.077932715,-0.008000286,0.06969971,-0.044414137,-0.008458968,0.027036319,-0.018599104,-0.17967731,-0.07711237,-0.0197367,0.024221638,-0.01638757,0.048952483,0.023788406,0.03645902,0.011406558,0.043746673,-0.016883224,0.05974266,0.08838426,0.030598221,-0.033645123,0.017550545,-0.010451092,0.004466115,0.020448582,-0.0040883794,-0.047886807,-0.040385548,0.019843262,0.037584472,0.017186826,0.067719184,0.046910755,0.007847038,-0.05062527,-0.02807875,0.067145474,0.032625508,0.07108069,-0.07871326,0.0146992095,0.045669846,0.08902381,0.15636481,0.047367796,0.030900193,0.0001061775,-0.017662955,0.09752449,-0.058061495,-0.0026685433,-0.027290953,0.0120565705,-0.048943125,-0.04578709,0.04973205,-0.0075623114,-0.062493894,-0.09442869,-0.07494581,0.033811353,0.045614827,-0.09165919,-0.1441752,-0.054621503,-0.042718235,-0.04888671,0.028005851,0.0017790037,-0.0014605906,0.012711608,0.0138126835,0.042645857,0.020636167,0.028926127,0.0077261296,0.09770054,-0.005674293,-0.013687258,0.0026865723,-0.043723278,0.119720995,0.028103292,0.04651371,0.050380103,0.12256781,0.14215185,0.11840394,0.029887782,-0.033188812,-0.008827315,-0.063431874,-0.04839371,-0.011432571,-0.006822601,-0.036309484,0.045407385,-0.005293484,-0.045630857,-0.035793,0.049696818,0.06604178,-0.0043069553,-0.03696768,-0.12288336,-0.15295368,-0.121695295,-0.108911216,-0.032712538,0.048965108,0.026126472,-0.02689541,-0.07097726,-0.031168466,-0.013775357,-0.006290983,0.060496733,0.026282012,0.11278351,0.1314106,0.028523853,-0.012852188,0.1114377,0.07844348,0.10224078,0.016741987,-0.017853716,-0.014961051,0.02872272,0.04526093,-0.06754416,-0.04770056,0.025779746,0.05455144,0.03877379,0.09232306,0.04017321,0.054849014,0.034559164,0.0547603,-0.03332941,0.026041452,0.03268199,0.023878485,0.0273998,-0.003881567,-0.059526548,0.04085298,0.0021162503,0.029729638,-0.032685764,0.024077628,0.007931537,-0.096505135,-0.06103383,-0.035712536,-0.066417724,0.021669127,0.0011102912,-0.056914028,0.057004504,-0.072481744,0.039650276,0.0822829,-0.007429284,-0.036191154,-0.03001026,0.04726681,0.019901197,-0.10852531,0.00827033,0.062701486,0.009135994,0.02436743,0.023984028,0.024130434,-0.03056105,0.0007933536,-0.02182029,-0.010742519,-0.0060903733,-0.14215511,-0.15298752,-0.10857407,-0.0030136842,0.11875306,-0.13035703,-0.008421002,-0.039661147,-0.010481318,-0.0036435407,0.009182739,-0.009547645,0.047811467,0.029670551,0.090304755,0.059583884,-0.031608894,0.06446649,-0.015442456,0.083241746,0.025283279,0.037806116,0.015796866,-0.017736578,0.07198108,-0.086600825,-0.14871895,-0.08634674,-0.028949382,-0.022091143,0.022581058,0.07723685,0.008679191,0.024529116,-0.041106697,0.015678681,0.013961447,0.054999948,0.0011700478,0.0025670384,0.0625871,-0.006757859,-0.04315888,-0.016867518,0.003923457,0.0080899345,0.043983974,0.042930324,-0.07117106,0.024417136,-0.017472755,-0.058224447,-0.07948573,-0.05899403,0.0021866383,-0.04513351,-0.012694891,-0.00014037333,0.012358247,0.006024116,-0.027260931,-0.114646606,-0.071691625,-0.06113622,-0.03555673,-0.080777764,0.005524932,-0.04036009,-0.0358326,0.031347748,0.04581026,-0.004374619,-0.039699815,-0.07762931,-0.024736596,0.010827264,-0.10355882,-0.050413888,-0.020877259,0.05354074,-0.0007434575,-0.10821468,-0.04562216,-0.009919746,0.06310569,0.05424431,0.0007762841,0.081593975,0.117863454,0.0074353884,-0.034200862,-0.014206213,-0.09871492,-0.018245824,-0.09666617,0.006597556,0.098738,0.012151903,-0.084015004,-0.00819915,0.0047769006,-0.07262268,-0.06541555,0.047916584,-0.08118971,-0.023212291,-0.07399492,0.044791102,0.06900344,0.029070502,0.03261336,-0.10697553,-0.09191029,0.009296482,0.038260713,0.03602287,0.0083761,-0.055979494,-0.033343576,0.043799482,0.022113327,0.036583733,0.03002289,-0.073217794,0.10759876,0.028564466,0.07061833,0.07896118,0.048389047,-0.016820291,-0.041727465,-0.059135128,-0.035995502,0.052026168,-0.10669329,-0.076028,0.03744486,0.034823842,0.03151726,-0.08254755,-0.05413706,0.044071764,-0.011216648,-0.048794184,-0.046137415,0.07911172,0.09572865,0.08082583,0.016151821,-0.1002963,-0.070513085,-0.13422637,-0.027779052,-0.07047773,0.03180338,0.02991951,-0.017694246,-0.02041392,0.050391093,0.10883746,0.0043013594,-0.0028092507,-0.08383728,-0.077475525,-0.08752272,-0.03862972,-0.041458327,-0.0068152742,-0.08233271,-0.09114676,-0.04050562,0.028463317,0.045542996,-0.0012701635,-0.040897463,0.048844665,0.054604366,0.03522494,-0.024422016,-0.0029667637,0.0077597024,0.0045365077,-0.026483536,0.029098853,-0.018040964,0.0229687,-0.050113875,-0.04706163,-0.072938904,-0.032172356,-0.036632158,-0.0041915798,-0.01525177,0.004555504,0.04434609,-0.00029381996,-0.0007969178,-0.016083546,0.038217478,-0.022315389,0.018122584,0.05360864,0.0074461573,0.0205137,-0.071714595,-0.0016556459,0.07480589,0.04553846,-0.054152206,-0.070332564,0.031900313,0.059227057,0.043110102,-0.027656112,-0.09074844,0.05250712,0.024777178,-0.013561122,-0.009364458,-0.00917592,0.03130415,0.06894896,0.017890736,0.0030541015,-0.058615983,0.0012010564,-0.08240152,0.024103798,0.074034184,0.0028997876,0.019861503,-0.029781573,0.007253777,