-0.14720005,-0.008731717,0.051883847,-0.0026789145,0.003130347,-0.11784426,0.008668238,-0.11627338,-0.09137592,-0.074595444,-0.10072192,-0.07189636,-0.05129449,-0.12638603,-0.014917941,0.058172837,-0.02762857,-0.004977428,-0.023391848,0.07763083,0.055603035,-0.02378583,0.04269975,0.050015792,0.085521534,0.10941185,-0.009728267,0.026028357,-0.051773574,-0.036808643,-0.008898136,0.04500887,-0.0037270675,0.022784457,-0.043850616,0.033770777,0.12176053,0.1397509,0.106450826,-0.0074879713,-0.030215407,0.0406773,-0.03942003,0.029795276,0.15722026,-0.0026171792,-0.025380401,-0.015360709,-0.013140683,0.0928177,-0.021059763,-0.039287653,0.110723324,0.05701747,0.032659024,-0.17437458,-0.0904512,0.11884641,0.14980847,0.073874645,-0.016419522,-0.10139968,-0.16134141,-0.09657961,-0.082734466,0.051784016,0.12815589,0.10095513,-0.08981248,-0.14983785,0.018689705,0.088296436,0.019724172,0.09376396,-0.010748983,0.04378017,-0.032973506,0.0029860567,0.06382235,0.019430948,0.015112395,-0.025663178,-0.1274185,0.019724468,-0.007511328,-0.045467168,0.020637471,-0.053435534,-0.05400383,-0.04847009,0.03684431,-0.03700641,-0.035259422,0.058174144,-0.03176065,0.06964393,0.060616877,-0.017711421,0.055523284,-0.032760628,-0.025945649,0.025979752,-0.0074516134,0.0853105,0.04789422,0.01004843,0.07622387,0.009076572,-0.06950261,0.004725598,-0.1318897,-0.051034007,-0.13253973,-0.14588058,-0.04408834,-0.019022465,0.03757626,-0.068389036,-0.02247025,0.0046487865,0.043650262,0.10775711,-0.010308457,0.061270658,0.058008067,-0.026466835,0.027036726,0.08412808,-0.05761605,-0.0014356854,-0.04351835,-0.010533357,0.08620368,-0.0039962116,0.012073411,-0.03406515,0.026547996,0.08379924,-0.03448173,0.09457827,0.004660577,0.058508813,-0.036108475,-0.012300139,0.03758092,0.12434339,-0.019170836,0.016611444,-0.017713955,-0.013721392,0.012249146,0.0049533984,0.0059385104,-0.06498857,-0.035719223,-0.065684535,0.01152483,-0.10968397,-0.12576742,-0.039190844,0.048619058,0.054933507,-0.06117611,-0.05881809,0.10617108,0.11459296,0.0857858,0.006196967,0.07829891,0.06816134,0.0713702,-0.041059226,-0.07789494,0.03663239,0.038414773,0.09341427,0.030491702,-0.0942087,0.0452793,0.08358793,0.005320667,0.014101876,-0.060665756,0.082782805,0.16336101,0.09703904,-0.04583235,0.04111703,0.0685791,-0.018404415,-0.07951496,-0.02019756,0.04209716,0.034119453,0.024798354,-0.012328955,0.0466253,-0.025551375,-0.07241093,0.038047023,0.014143349,-0.032286394,-0.07652158,-0.06677602,-0.09443762,0.0474714,-0.04092238,0.042427495,-0.015507994,-0.00845381,0.09085441,0.011872481,-0.014275188,0.06620845,0.0542406,0.11768403,-0.08410791,-0.072445445,-0.070727475,-0.012619103,0.099787906,0.041376267,-0.006808824,0.021341199,-0.04631331,-0.17274234,-0.1200244,-0.05611495,0.02292564,-0.050860338,0.05554866,0.10346469,0.103635676,0.06799663,0.026114346,-0.03625476,0.037959043,0.016315086,-0.023530785,-0.10642143,-0.15673526,-0.058545005,-0.062698044,-0.14113855,0.05252679,-0.012796088,-0.07106709,-0.035772372,-0.003328245,-0.040332224,0.027122179,-0.07866203,0.054407496,-0.08504805,-0.030702785,-0.024059987,-0.014874186,0.08328484,-0.087421924,-0.005776056,-0.045092996,0.012110778,-0.11893192,-0.090072565,0.11425922,-0.050391894,-0.08567637,-0.08322526,-0.068681404,0.035416443,-0.028844537,-0.07251683,-0.06634285,-0.02181436,-0.028095242,0.060755085,0.08163968,0.07591403,0.038997285,-0.067353465,-0.07417312,0.03732597,0.0197942,-0.017088993,-0.16090289,-0.05252143,0.06746616,-0.036366597,-0.10427045,-0.053527158,0.059528895,0.021757444,-0.06973714,0.03778703,-0.036332354,0.0031431674,-0.0747848,-0.028940363,-0.024079775,-0.02893814,0.025082707,0.04227195,0.000405058,0.02408937,0.08427909,0.034293182,0.04089867,0.03388237,-0.034837775,0.0030819578,-0.026332015,0.06472455,-0.011423318,0.077001534,-0.0010731722,-0.0035187006,-0.0017617514,-0.00533907,0.011866455,0.020434259,-0.047547683,-0.090870626,-0.019276166,-0.08904273,-0.03684315,-0.041039392,-0.083196655,-0.099857144,-0.052116185,-0.102746926,0.03045167,-0.02635047,0.10508862,-0.025584182,-0.0058241016,-0.030923354,-0.040589064,0.07652098,0.09683138,-0.028069744,0.0078082136,-0.0030238596,0.0596999,0.054649137,0.014775424,-0.020615494,-0.17361303,-0.04531383,-0.12061193,-0.02488104,0.04448863,0.010902452,-0.055766728,0.03010652,-0.084056966,-0.117254466,-0.07539978,0.015754122,-0.06862884,0.028792197,-0.031451546,-0.09730408,-0.05665894,-0.060886413,0.0043962463,0.08941898,0.003964742,-0.12596461,-0.12696403,-0.10378834,0.07074131,0.11034977,0.11969503,0.020104598,-0.021979272,0.02969067,0.08292135,0.046063267,-0.04955588,-0.02069744,0.08775753,0.10177256,-0.03589262,0.022400878,-0.032234468,0.031108191,0.1038095,-0.023401743,0.069756195,-0.044093587,-0.026956609,-0.013178314,0.11986135,0.07675815,0.032311022,0.0061594425,-0.12195398,-0.07921699,0.097477645,0.052468654,0.048546035,-0.124386504,-0.069296174,-0.032371968,-5.6927405e-05,0.056012895,0.0551131,0.022224195,-0.005657159,0.043608,0.036839046,0.007825179,0.15775985,0.14890128,-0.011559893,-0.04620824,-0.13103957,-0.02375955,-0.02173053,0.13150829,-0.11975013,-0.12331218,-0.16390099,-0.16480958,0.047942042,-0.06437153,0.120379485,0.05346901,0.09571434,0.031311423,-0.08289242,-0.003680194,0.013430993,-0.07756237,0.004796605,-0.09086641,0.0145229045,-0.005181294,0.0042582685,-0.030321285,0.053417556,0.11375672,-0.045025773,-0.044092633,-0.006767976,0.003814423,0.044840697,-0.0048807156,0.03042211,0.05091727,0.049671914,0.0023266273,0.07708548,-0.04172853,-0.004959672,-0.052964635,-0.011357802,-0.047634788,0.020030184,0.040069636,-0.09655791,-0.11751913,-0.042517338,0.080216095,0.013954253,-0.054929297,-0.021886235,-0.022692066,-0.03600191,-0.045148868,0.07706089,-0.020833572,-0.0023672788,-0.030934483,-0.0059798616,-0.10407988,0.015638147,0.067992784,0.04403921,0.05732786,-0.101303026,0.014091705,-0.10113839,-0.028905267,-0.020343121,0.05643255,0.0027076304,0.09007182,0.13892269,0.06790674,0.17351815,0.0058061164,0.042159997,0.18700998,0.06521841,0.050703436,0.11649249,0.06578263,0.030573858,0.009934251,0.030443897,-0.029390946,0.010774653,0.03481421,-0.036190696,0.03517481,0.13874847,0.09084024,0.016074192,-0.071051374,0.06618015,0.10487654,-0.005220395,-0.06799992,-0.05561469,0.11086978,-0.02767066,-0.14859627,-0.062457137,-0.095660426,0.018625436,-0.04379789,0.06735627,0.04921372,0.053427737,-0.008596596,-0.069730155,-0.028920507,-0.052933656,-0.021847298,-0.05895846,0.005026146,0.046832204,0.057378143,-0.0511723,0.026097568,0.08344793,0.13581067,0.046724714,-0.083229,0.05395526,0.09603051,0.06398432,-0.0004742514,0.049895823,-0.013974656,-0.001467355,0.05546766,-0.017749324,0.050478358,-0.035588823,0.055479605,0.08014842,0.011302098,0.008840534,-0.07530759,-0.04894245,0.011094594,0.018254131,0.03500098,-0.007274983,-0.037162084,0.0012529568,-0.088407785,-0.060980443,-0.08684074,-0.08973208,-0.043998767,0.04623786,0.021529112,0.15335049,0.09516799,0.076072186,0.0494432,-0.11432439,0.07935785,0.018971037,-0.00582609,0.04240111,-0.020319048,-0.028647685,0.08317943,-0.054545943,-0.067139566,-0.16844766,-0.12953849,-0.101079874,-0.13589835,-0.094921164,-0.040767267,-0.12291057,-0.09257184,0.051870763,0.046426907,-0.056185704,-0.07092704,0.05207055,0.08819975,-0.011508967,-0.0001921242,-0.04820797,0.050679237,-0.036424927,0.0811264,-0.060974505,0.0061283056,-0.020405179,0.020926226,0.049375042,-0.123266764,-0.010175643,-0.031219214,0.06873501,-0.069797516,0.08309826,0.05620042,0.0649843,0.028043574,-0.049872566,0.0768057,-0.0032972496,-0.06616441,-0.003039554,-0.1114291,-0.00069076987,-0.0015571632,-0.023675608,-0.03939984,0.014250895,-0.026806379,-0.056297597,0.0712481,0.048006628,0.023381604,0.05298398,0.04074178,-0.017664673,-0.06266521,0.040852137,-0.0605232,-0.04316138,-0.05178127,-0.032107987,0.040153027,-0.036723822,-0.08217898,-0.13541943,-0.047628433,0.011527567,-0.15496252,-0.037195064,-0.053008385,-0.049017865,-0.09105608,-0.099805646,-0.08303653,-0.008477835,-0.12521467,-0.07861309,0.07869245,-0.11792134,-0.030528646,-0.1876408,-0.032634694,0.08686483,-0.01918127,0.04973363,-0.17449518,-0.0021176909,0.059471097,-0.030189563,0.09417633,-0.079508066,-0.0938262,0.0009334027,0.12720402,0.11085275,-0.02146573,-0.017061574,-0.028930027,0.08163276,0.12998904,0.07393142,0.07147998,0.0011441774,-0.068687655,0.023938777,-0.04141645,-0.08282409,-0.11710079,-0.17248197,-0.036183007,-0.042073652,-0.024606448,-0.04316783,-0.06221112,0.036471587,-0.045751546,0.026278438,-0.057840806,0.008283564,0.053424645,0.09647133,0.09166352,0.095518984,0.04485071,0.09748854,0.044842232,0.1389016,-0.057371646,0.06310209,-0.020878827,0.113089465,-0.06547323,-0.029587978,-0.007312199,-0.09140631,-0.009030539,-0.038333002,0.016481778,0.021346085,0.025180904,0.04809745,0.012490054,0.0079096155,-0.007902061,-0.023679726,0.020841192,-0.11982966,0.030102713,-0.12993479,-0.08261992,0.05934546,0.0760213,-0.047217026,-0.016519692,0.004533581,0.10191755,0.034862667,-0.113582045,0.043636654,0.011071531,0.049467925,-0.08245866,0.0064991512,0.0630622,0.085501194,0.021374404,0.099522896,0.026872244,-0.08108032,0.060525563,-0.026462778,-0.09306614,-0.13766058,-0.1049511,-0.026305052,-0.047205288,-0.10663791,-0.05678053,0.07099645,-0.084568694,-0.06107729,0.011258204,-0.012098607,0.06363496,0.013012985,-0.055841926,0.038135964,0.11726826,-0.079649165,-0.0084734,0.041045707,0.018442709,0.09807652,0.050139967,-0.047904767,-0.110782444,0.08076629,0.0020815344,0.14333002,0.044354692,-0.026024178,0.061417162,-0.045195658,0.06562707,-0.02863652,-0.072913714,-0.11747164,-0.06745035,0.045639876,-0.025059167,-0.024223879,-0.12294211,-0.10962613,-0.113745466,-0.1454702,-0.13337399,-0.036002353,0.05979913,-0.04201561,0.030858243,0.034352418,-0.04067361,-0.06501181,-0.07759885,-0.021201894,0.06374012,0.0133053325,-0.16357662,-0.13138215,-0.05456739,-0.054591138,-0.0638985,-0.063696705,-0.062328648,-0.028836107,-0.16944514,-0.17827702,-0.16038632,0.032322284,-0.027271217,-0.02959907,-0.12207541,-0.010071054,-0.08916005,0.09035092,-0.028191227,-0.030942861,0.0397562,0.008516466,0.09552641,0.08865325,0.03289319,-0.07537329,0.06572178,0.103469476,0.071498506,0.029609539,0.0030531373,-0.089704655,0.03937801,0.052603163,-0.017852614,-0.08088128,-0.010812569,0.008646925,0.107868716,0.06052204,0.064096674,0.028043857,-0.037870534,-0.035475463,-0.1258054,-0.013207608,0.028555958,0.121423535,-0.08665768,-0.027856039,-0.0027582482,-0.05057364,0.0011129556,0.06453603,0.032865666,0.046964534,0.013008162,0.019491337,0.026520016,0.014590901,0.09562624,-0.08855706,0.03043737,-0.061371714,-0.04664053,0.12134428,-0.0181924,-0.043965146,0.06334605,0.055140622,0.054942004,-0.0019696667,-0.008877667,-0.027758323,0.12395858,-0.011292499,0.04843994,0.082421124,-0.0033942289,-0.037526704,0.028860807,-0.033016764,0.026924003,-0.06294951,-0.034667827,0.05393525,0.06427514,0.017979963,-0.0506118,-0.023769904,-0.041318197,-0.015711084,0.0034930992,0.077124335,0.07789578,0.024061086,-0.01858076,-0.022982981,-0.019345153,0.016251003,0.10406851,-0.049720053,-0.08100946,0.03300763,-0.0006887095,-0.026003102,-0.00035213405,0.0056858533,0.0053911568,-0.00022598337,0.024670705,0.022005241,-0.04153219,0.029397627,-0.0109474175,0.005475629,-0.120464936,0.009192408,-0.010248132,-0.06802469,0.031914815,-0.049088627,-0.00034965522,0.029547758,-0.0709511,-0.03760796,-0.006564791,0.004070692,0.015763108,0.056490976,0.06641442,-0.049003057,-0.041370213,0.007470329,0.051614475,0.07355708,0.0021332337,-0.034793574,-0.022099338,0.026577791,0.05024413,0.10744079,0.051387902,-0.03320407,-0.006492007,-0.06025688,-0.15181337,-0.13218848,0.011102094,-0.06791207,-0.039242823,0.063774906,0.0018675715,-0.00022564389,-0.041713234,-0.06103239,0.09872762,0.031925965,0.042528547,0.022069534,0.023148825,0.06805274,-0.042214923,0.005299569,-0.12525105,-0.091856614,0.044952154,0.013180312,0.0062368778,-0.041095782,0.0029235117,0.0077203927,-0.050028313,-0.021772092,0.061444994,-0.040850922,0.051148213,0.042116016,0.0038514105,-0.065622665,-0.13769643,0.11382007,-0.010601596,-0.00018466552,-0.09977506,-0.093268275,0.017728351,0.09434785,0.06615224,-0.002712692,-0.1563531,0.020041782,-0.11223484,-0.0387528,-0.015538016,0.06446199,-0.16510142,0.008505066,0.08738919,0.13907465,0.06596591,0.110242136,0.08205781,0.08016587,0.10224671,0.027402839,0.011499615,0.002524229,0.063237,-0.043911234,-0.039368447,0.018555786,-0.06097374,0.008663334,-0.1004113,-0.0051679686,0.055334866,0.020631686,-0.023803072,-0.047612756,0.04078765,-0.09420659,0.06775251,0.10261609,-0.094046175,-0.04393552,-0.06363772,-0.03401855,-0.04857546,-0.045578163,0.0058243577,-0.10981812,-0.013241022,-0.12462376,-0.036894746,-0.017738435,0.023593225,-0.094382145,-0.1096093,-0.11382459,-0.022266665,0.041750047,0.049624354,0.066111036,0.02580885,-0.05106613,0.09278714,0.0149575975,0.013823978,-0.06404906,-0.02004658,0.058851745,0.0062129386,0.034755033,0.05966204,0.07909073,-0.048271585,0.03131509,-0.064438745,-0.025228756,0.029511685,-0.09945307,-0.1363533,-0.09768829,-0.09160467,-0.007382187,0.079875916,0.030251749,0.06227816,0.017808203,-0.022488568,0.0846926,0.018079717,-0.022092236,-0.10132325,0.034310985,0.06260821,-0.0632174,-0.13387966,-0.0903804,-0.10654451,-0.08898148,0.0054091206,-0.0014249021,-0.019043058,0.08387628,0.059162978,-0.040012877,0.118421584,0.1375586,0.07664999,0.009297715,0.03368199,0.0012182343,0.033836763,-0.011428445,-0.09559763,-0.032998566,-0.004980134,0.035372626,-0.057286028,0.0054866895,0.07321008,-0.048997384,-0.022016834,0.0025175782,0.13538112,0.039161276,-0.018517109,0.077430815,-0.07898546,-0.029953144,-0.034625106,0.016811216,-0.0746692,-0.097644016,-0.17135024,0.022470431,0.101539224,-0.0237517,-0.022589482,-0.08929282,0.013678546,-0.01423628,0.04104534,0.012606689,-0.08658042,-0.07347537,0.024311826,0.034265466,0.0106871165,0.044866968,-0.02026714,0.045003302,0.07880397,0.12065282,-0.02032005,0.037103225,-0.05388893,0.045927357,0.10929475,-0.022518776,0.124701455,-0.035421528,-0.013589019,-0.11917738,0.0941408,0.027591744,0.05177545,0.03473888,-0.056677196,-0.034305643,0.060288385,0.07032222,0.11726579,0.013805012,-0.08586297,0.04115933,0.023723701,0.0031757203,0.08709303,-0.106742576,-0.173406,-0.0076151867,0.0516727,0.02388947,-0.08663225,-0.062086664,-0.12531513,0.043983273,0.06856976,0.06661139,0.065737404,0.030550113,-0.006630785,0.031715248,0.077634834,0.0066500925,0.02245372,-0.084487416,0.0645008,0.0051819547,-0.05911068,-0.15350398,-0.16643773,-0.01476516,0.03905441,-0.013911505,0.010627363,0.073581986,-0.043481477,-0.027469471,0.040436104,-0.062153224,-0.05240288,0.10919147,0.07807659,-0.04924921,-0.06341154,0.11824437,0.11683853,-0.037087277,-0.09760384,-0.027979467,0.03608569,0.07538341,-0.009615559,-0.13289146,-0.12619023,0.08490482,0.028518707,0.011196956,-0.11149327,-0.015959227,0.15095292,0.14545855,-0.11407418,0.025396805,-0.05434051,0.09253351,0.0766306,0.059957966,0.08625357,0.087041214,-0.058475774,0.055824533,-0.016656402,0.08235587,0.10320919,-0.003535851,-0.021255465,0.15415311,0.08220365,-0.040491927,-0.057440896,-0.089989476,0.13520963,0.10843193,0.045182146,0.05738449,-0.05515492,0.067979105,-0.03330095,0.0065602986,0.071448885,-0.056500666,0.056980856,-0.08485855,0.03992458,0.09405008,0.068775445,0.027445087,-0.069995835,0.0014389064,-0.02774756,-0.041859593,0.009117913,-0.02484676,0.012257072,0.07676447,0.034440916,0.018365247,-0.03291689,0.109114185,0.083266094,-0.026679138,-0.04896119,-0.10388062,-0.084164225,0.035103403,-0.17480694,-0.054713413,-0.060014818,0.080791414,-0.005907853,-0.16749759,-0.0069425143,0.02773723,0.11456081,0.028485775,-0.069997415,0.022710823,-0.003856298,0.09970564,0.0102824895,-0.00460804,-0.050775163,0.02899243,0.018251335,-0.047664896,-0.019181296,0.032279227,0.056951955,0.020592442,-0.13023219,0.021734124,0.07259154,-0.028354762,0.011043279,-0.110845394,-0.08274515,0.080261186,-0.00063717586,-0.055242922,0.022791848,-0.035676774,-0.028922297,0.042535774,-0.050722357,-0.040171713,-0.010726659,-0.046499517,-0.058721736,-0.069378644,0.043558195,-0.05921553,0.018204462,0.093915045,-0.07485582,-0.17557345,0.046850227,-0.013849567,0.11883675,-0.023809215,-0.004396687,-0.055751093,-0.0046697776,0.031473283,-0.043535125,-0.0831767,-0.03572804,-0.06616098,-0.041088466,-0.022911314,-0.034958474,-0.010085101,-0.030585289,0.029441308,0.068359956,-0.074220404,0.019243158,-0.0870919,-0.10243116,-0.033795886,-0.014045401,0.016514955,-0.12219876,-0.09745678,-0.10333197,-0.09914753,-0.12647268,-0.078331515,-0.060406744,-0.0845016,-0.10438075,-0.06493947,0.050860025,0.048725367,0.06645934,0.02898335,-0.03249482,0.06388277,0.046714265,0.0145786945,0.042049043,-0.016508274,0.011006807,-0.020427546,0.032800306,0.040247824,0.007522541,0.116763055,0.052620586,-0.008118123,0.03706519,0.047318157,0.018758524,-0.029932769,-0.024803454,-0.04148357,0.012211491,0.071443364,-0.053818442,-0.009816341,-0.16884932,-0.11474619,-0.062924184,-0.078901015,-0.07157599,0.010637093,0.03437227,-0.09726071,-0.037658807,0.0103586195,0.104214184,0.031568103,0.03423565,-0.05919794,0.036611952,0.005318013,0.055408668,-0.08667609,-0.054978307,0.057159353,-0.0257467,-0.11996522,-0.087405466,0.023722334,-0.060928695,0.0748652,0.053008262,-0.06953016,0.00035440119,0.062435508,0.016236838,-0.030344428,0.14280897,0.05190355,0.017935125,-0.024175292,0.022117248,0.08268469,0.13978975,0.11478868,0.04607879,0.051455304,0.119782075,0.063486144,-0.033665903,-0.017502958,0.05467592,-0.02157995,-0.05617285,-0.028611666,-0.042724587,-0.0332834,0.0017136607,0.03740378,-0.06757574,-0.008502603,-0.05165483,-0.049318425,0.009637281,-0.089234725,-0.002342672,0.031059915,-0.108230874,-0.1537563,-0.0844605,-0.12209979,0.004480271,0.06318547,0.018274529,0.027325198,-0.11665479,-0.07084239,0.06452053,-0.05891085,-0.004271103,-0.045431785,-0.055678353,0.0012595794,-0.027307313,0.011205743,0.029730683,-0.0155386245,0.014593084,0.12893523,0.042498093,0.00025106716,-0.05477928,0.109876156,0.12088551,0.13643833,0.08172341,0.008598388,-0.05137514,0.05927451,0.0697131,0.0032431514,0.06495745,-0.07591182,-0.073871374,-0.04913853,0.076474465,0.02817917,-0.04109137,-0.019362671,-0.08177128,-0.031495757,-0.035910357,-0.04156944,-0.03338352,0.07595192,0.0038033968,-0.05205568,-0.06764021,0.09842967,0.13361913,0.099609874,0.022580286,0.03215565,0.043292917,-0.015033642,0.099206,-0.06901869,0.025374731,-0.0015845487,-0.015241961,-0.11010247,0.05569285,-0.09306731,-0.008633455,-0.055858377,-0.0080617815,0.046662826,-0.121655576,-0.16338195,-0.14347199,-0.1680478,0.004098207,-0.16874631,-0.17881866,-0.16304992,-0.106935345,-0.043643404,-0.060631577,-0.10037138,-0.07355942,0.012076078,-0.04796098,0.06948782,0.121014684,0.056529645,0.027291987,-0.028473847,0.03663628,0.12818797,0.05106289,0.087591216,0.06508419,0.004272917,0.025504638,0.026278455,-0.121675014,-0.1042252,-0.114324264,-0.09309114,0.0004294529,-0.11632607,-0.09824357,-0.107544474,-0.13428585,0.015793696,0.015718274,-0.022282762,-0.077142246,-0.08912432,-0.030189572,-0.048128996,0.021155681,0.039984893,-0.004519268,0.010665104,0.099275105,0.08494768,0.041666027,-0.07415373,-0.004362149,-0.057344586,-0.015162491,-0.007929895,-0.08790774,-0.059935134,-0.041945763,-0.054120958,-0.050089218,-0.068873055,-0.06951711,-0.13473238,0.028769959,0.06425788,-0.009153871,-0.07685039,0.05486521,-0.054661743,0.002851101,-0.02641011,-0.0033807815,0.079038925,-0.009988167,-0.055337075,-0.014073274,-0.10400053,0.019371754,-0.06674567,0.040698446,-0.043032214,0.047032088,-0.026709449,0.017576957,-0.052077893,0.0151397595,-0.0039788466,0.057317697,0.033403344,0.002589526,0.0018432,0.09101165,0.10850322,0.028520383,0.021792963,-0.002906115,0.035519455,0.011829575,0.1362315,0.08119835,0.058936305,0.07188051,0.040877394,-0.075970344,0.1140652,0.09773706,0.07477169,0.049234986,-0.077755824,0.011275014,0.036603104,0.05562031,-0.024890164,0.013703032,0.051717963,0.005656294,0.017317949,0.07115587,-0.058805816,0.026736856,0.014664016,0.049092103,0.04215846,-0.0047857086,0.06522231,0.004377618,-0.0474894,0.072922625,0.056031752,-0.07631731,-0.0004833284,-0.0038279258,0.041491363,-0.064177476,-0.042939298,0.004858267,0.032158904,-0.10399079,-0.08196883,-0.037728738,0.019202981,0.033711273,-0.012051319,-0.10916421,0.061198685,0.028630603,-0.0769192,-0.1099122,-0.056162614,-0.0841886,-0.009838092,-0.06762215,-0.013383161,0.07355263,0.028854981,-0.037926465,0.054815236,-0.08334953,-0.053545006,-0.0063923914,-0.015520443,0.034057066,-0.08599342,0.045827467,-0.019693473,0.056235548,0.038757898,0.07456076,-0.007907155,-0.04994741,0.061177153,0.02880595,0.005338069,0.112827204,0.020348841,0.048015993,0.008509706,0.043616157,-0.00019745463,0.08094189,-0.01863223,0.021599036,0.04939407,-0.047364604,0.10233273,0.051467914,0.06651455,0.014998873,-0.08997495,0.029551532,0.03160584,0.023248918,0.060181312,0.0366442,-0.044040535,-0.06546574,-0.060767237,-0.069871254,0.0034493632,0.042931505,-0.06273349,0.084841296,0.030643836,0.08949999,0.060502276,0.07808152,0.16945133,0.06222581,0.085193165,-0.022928245,0.09719899,0.08697641,0.113162085,0.06614821,-0.123556584,-0.083632946,0.052610926,0.08770854,-0.026212117,-0.13149312,-0.16243383,-0.17861155,-0.14585957,-0.17554264,0.010099454,0.021912351,0.015785614,0.091904745,-0.02345234,-0.054882973,-0.008380575,0.00059363164,0.12533732,0.0939566,0.021723682,0.036090337,0.08294705,0.0267106,-0.032195263,-0.046122976,0.0030358778,0.035881516,-0.023787487,-0.025348892,-0.058213,-0.08959983,0.048996396,-0.062154166,0.039339468,-0.040499136,-0.024811868,-0.08522771,0.0012023654,0.050123863,0.11833728,0.04018005,0.08103431,0.015367415,0.06841832,-0.12435175,-0.010444669,-0.043509126,-0.055098563,0.044667657,-0.026339773,0.04925097,0.0005241478,-0.107942544,-0.11499499,0.089433,0.055036843,-0.0030746188,-0.05763571,-0.1323264,-0.009695065,0.059402145,-0.039035134,0.07873802,-0.014070352,0.08878233,-0.0049937973,0.08208977,0.032565847,0.075786024,0.12565868,0.03503379,0.071202345,-0.08618811,0.011614426,0.08103908,0.0047262344,0.072252624,-0.021276064,-0.012514995,0.065803654,0.06241683,-0.022019295,-0.08850364,-0.090494715,0.062027708,-0.016317591,0.0072131134,0.09168757,0.12968878,-0.057219673,-0.07299772,-0.035251386,-0.044525716,0.013428351,0.010804991,-0.008328837,0.03799068,-0.05870535,-0.19972561,0.05879433,-0.009074972,-0.102913156,-0.26735252,-0.21811657,-0.061011076,-0.03947623,-0.113797955,-0.029570086,-0.00962777,0.02387366,-0.096841335,-0.06994788,0.011086851,-0.17915303,-0.00072275026,-0.16553502,-0.028606195,-0.0022749167,-0.011047878,-0.15024576,-0.05612411,-0.045633335,0.024202568,0.012293171,-0.139275,-0.002120118,0.02417421,0.011810312,-0.01257584,-0.05706394,0.07538874,0.050758343,0.04176544,0.075864635,0.016503753,-0.025257321,-0.024104817,-0.0886205,0.066016085,0.04259395,-0.09982913,-0.04054438,-0.022479942,0.043634888,0.031217534,-0.068741426,-0.0485584,0.04889669,0.00898428,-0.03947149,-0.097553425,0.067444734,0.042839468,0.12700239,-0.05179106,0.00964817,-0.10340523,0.0025982421,0.108891524,-0.05957951,-0.024105797,0.03511246,0.0673353,0.09654536,-0.048381947,0.009219085,-0.050958857,-0.013658064,0.022370169,0.054894246,-0.0007772409,-0.041119885,-0.014530869,-0.045321964,0.08063707,-0.029734017,-0.06922941,0.0061043473,0.06020467,-0.0029246628,-0.043914787,-0.011799494,-0.026397757,0.007330373,-0.01613835,-0.039900724,0.010369914,-0.024097195,-0.017615085,-0.01150547,0.026952907,0.03543312,0.056534395,0.02789489,-0.10059068,0.018309455,-0.0014738501,0.06650873,0.07664415,-0.011097136,-0.025134291,0.082062855,-0.06449595,0.15406494,-0.018486189,0.0056861173,0.08027493,-0.037539054,-0.0069925813,-0.020296684,-0.011640082,-0.044255592,-0.03417389,0.038364656,-0.020685116,0.007699042,0.03925745,-0.05333022,0.02719465,-0.016542092,-0.047255155,0.04498741,0.016890397,-0.011200158,-0.08219232,-0.0048097656,0.012189585,-0.12853625,-0.054967,-0.14777927,-0.105617054,-0.10842998,0.008800135,0.009303425,0.04026645,0.013122091,-0.07260011,-0.008424688,-0.074457936,-0.05070964,0.05916259,-0.10648428,0.022506667,-0.089273885,-0.043948684,0.047528774,0.0636855,-0.035775505,-0.1056502,-0.025543794,0.082601905,0.07538696,-0.12296824,-0.20457841,0.09147865,0.06545489,0.0024633321,-0.04466629,-0.078481376,-0.010338056,-0.06481649,0.053391196,-0.041445337,-0.10991145,0.0666418,0.061232585,0.004807219,-0.0007547023,0.029360851,0.015503111,0.037614256,0.00022067837,0.07129985,0.052223116,-0.07979794,0.04966301,0.059439953,0.09656053,0.0738689,-0.08996232,0.011522364,0.058546722,0.0703961,0.015375341,0.03332403,0.047773026,-0.06509807,-0.0870548,0.07752071,0.0058436124,0.034438998,-0.037368212,-0.05420192,0.020886132,-0.030521702,-0.114100695,-0.10769118,-0.09909391,0.0013676056,-0.06832677,-0.099695206,0.017627245,-0.05682937,-0.011404777,0.0023906322,0.029195229,-0.08042109,-0.02155215,0.030497605,0.05166439,0.052139822,-0.014294494,0.039832704,-0.053420734,-0.053638764,-0.10657808,-0.021192402,-0.070572354,-0.05120838,-0.16417415,0.055875078,-0.016767493,-0.089000106,-0.16051678,0.01474466,-0.012951083,-0.075752504,-0.16727786,-0.13027658,0.00733769,-0.07943781,0.01999317,-0.18645877,-0.035788927,-0.048671182,-0.0003755314,-0.04080322,0.04407012,-0.0523121,-0.09449394,-0.06187583,0.08066727,0.046265837,0.01906172,-0.13026766,0.0019218668,0.04376305,-0.010216147,0.019835945,-0.028795177,-0.056857813,-0.0775725,0.047159325,0.062083103,0.06761296,0.009301199,-0.13926256,-0.09747058,-0.037552603,0.037854567,-0.011700293,-0.0082507385,-0.111732006,-0.0772605,0.016987422,0.05047336,-0.12499594,0.041041255,-0.10379091,-0.036895163,0.022683062,-0.048482444,0.064669184,0.017038625,-0.07875412,-0.06513525,0.060499337,0.058965992,-0.014103973,0.038619116,0.033976484,0.020179743,0.06326241,0.06873051,-0.15527385,-0.08268614,-0.10724836,-0.039827105,0.09589556,0.0020646448,-0.06437516,-0.06800353,-0.110152535,-0.00981597,0.060372505,-0.016027927,-0.24831595,-0.12753713,-0.13375214,0.004804862,-0.022687824,-0.092526354,-0.10154604,-0.032209907,-0.103707686,-0.027155796,-0.104009785,-0.050571933,-0.03318369,-0.023290435,-0.011049222,0.039005212,0.015934467,-0.015135829,-0.032925054,-0.032242436,0.070739865,-0.03891173,-0.07989337,-0.0067534163,-0.09395622,0.070190296,0.08583612,-0.0060357433,0.032633822,-0.06899043,-0.059567183,-0.042542666,-0.03852841,0.01442359,0.012646167,0.0069660703,0.046058875,-0.13074589,0.004487006,0.09655741,0.10753665,0.112103336,-0.01618776,0.083995596,0.08346736,0.11936877,-0.058293287,0.052769035,0.023748903,0.09678765,0.051099636,0.049748573,-0.048792567,-0.00320125,0.10533431,0.14498813,-0.046412997,-0.060741995,0.09809082,0.07445824,0.1348523,-0.009837355,0.006634246,-0.0066606016,0.053421944,0.07437382,0.04273845,-0.039114837,-0.0069315303,0.10404495,-0.024849666,0.012102475,0.018301953,0.060528398,-0.0443364,-0.037436485,-0.05301151,-0.068191886,-0.023215525,-0.03366685,0.047658674,-0.10808505,-0.04642001,-0.084889255,0.032290086,0.015027113,0.07001562,0.11021781,0.06312968,0.039697167,-0.06691625,0.0074226693,-0.065088786,0.028047321,-0.0074883914,0.029852822,-0.011555185,0.005460883,-0.05382431,-0.020181933,-0.04346182,0.052588616,0.103625,-0.080102295,-0.050937966,0.0013834445,-0.06117085,-0.004904216,0.14979556,0.104749486,-0.023606744,0.022271793,-0.048601482,-0.044266373,-0.088052325,-0.03530938,-0.028307622,-0.012061569,0.015348683,0.014926464,0.019035706,-0.01890535,0.046196282,-0.08928407,0.016682895,-0.09055858,0.022861827,-0.07138227,-0.12845598,-0.087741695,0.0002676066,-0.05066899,0.052491195,0.03714113,-0.019045675,0.016024048,0.038238484,-0.021559374,-0.031038042,0.037729383,0.052118365,0.13856621,0.13650723,0.06154659,0.03970353,-0.0057555316,-0.03611579,-0.097171016,0.024781296,0.075636774,-0.06344026,-0.1000602,-0.07011441,-0.06625247,-0.09572159,0.04621462,-0.026195232,-0.03234928,-0.061976846,-0.038115516,-0.07732681,-0.0891314,-0.039730318,-0.17549767,-0.004577992,-0.04492528,0.05614256,0.025735911,-0.08197532,-0.14084093,0.027968882,-0.03761706,0.062342342,-0.015510409,0.034607805,0.12485404,0.09634012,0.10112876,-0.08559668,0.07943555,0.0599732,0.06268379,-0.055603825,0.026915263,0.046122547,0.047628738,-0.05165446,0.047067277,0.013657733,-0.062123492,-0.07281139,0.020004433,-0.020064108,0.06795706,0.0100362515,-0.054496795,-0.014920505,-0.07699669,0.038645867,-0.055815592,0.0966447,0.092035726,0.099596456,0.08587199,0.045765076,0.018789731,0.052270215,-0.016974857,0.07465104,0.083201446,0.12073076,0.058795355,0.04192998,-0.004212655,0.008463097,-0.038479205,-0.11074621,-0.0571025,-0.019790199,-0.06487791,-0.019645773,-0.091695406,-0.107658274,-0.023099557,0.052894343,-0.04876004,-0.075547606,-0.11607331,-0.061551172,-0.011019596,-0.016450156,-0.08063392,-0.017326105,0.009458138,-0.07368872,0.07452193,0.06279288,0.036810514,0.039193444,0.080390535,0.047439747,-0.051610924,-0.0055147186,-0.10119128,-0.02568337,0.06770864,0.07314065,-0.005027709,-0.072995104,0.04932345,0.023029108,-0.0014568134,-0.06306178,0.16205771,0.12485086,0.030539589,0.07695466,0.07431047,-0.19845217,-0.005993789,-0.031833697,0.021406652,0.032428496