-0.06350768,-0.09708256,-0.039877024,0.10481105,-0.010991014,-0.05420466,0.045798946,0.042844635,-0.05368104,0.015897132,-0.09206445,-0.037852235,0.20679027,0.05181956,-0.021418367,0.09640461,-0.009250772,0.069763586,0.10112938,0.11256243,-0.03594606,0.08252354,-0.024450263,0.00012336808,-0.04204161,0.042261153,0.05475103,0.03725673,0.060367115,0.15612482,-0.050852172,-0.032076437,0.10702455,0.05379724,0.121098876,0.031690348,-0.107458495,0.039859615,-0.122874446,0.0036567233,-0.022073613,0.00021053596,0.101822734,-0.016817413,-0.03450401,-0.10445235,0.037992302,-0.06939668,0.016635897,-0.006489477,-0.008187975,-0.021304397,0.05240444,0.021335743,0.03734833,0.0001858544,0.03910721,0.14071518,0.06681972,-0.036486454,-0.07512019,0.021117711,-0.004711402,0.03666923,0.06918872,-0.016518185,-0.095511526,0.033825528,0.046030562,0.022831107,0.029079193,-0.04743662,0.05955145,-0.08278135,-0.008169099,-0.032896586,0.05189497,-0.040351007,0.16874173,0.113666326,-0.0121947555,0.057604015,0.0070372424,0.07842507,0.14630148,-0.0979559,0.021003038,0.09516043,0.09306505,0.021357533,-0.06357267,0.0016148255,0.096042596,0.06312257,-0.0689905,0.05293174,0.009716672,0.005057014,0.03766947,0.089099795,-0.13506435,0.07561835,-0.059830535,-0.030676968,-0.014813565,0.072772235,-0.14055793,-0.06619155,-0.05875765,0.048066758,-0.060867082,-0.08286381,-0.024771344,-0.13660194,-0.0464136,0.11225828,0.029493708,-0.03129481,-0.17470732,-0.012104559,-0.032998003,0.14841694,-0.014047266,0.15084231,-0.009216602,0.08370568,0.1199209,0.12787539,-0.1420064,-0.02210671,-0.030829066,0.028970007,0.020582587,0.019597739,0.08155122,-0.037064485,0.052417368,0.036341004,0.0062628454,-0.051381472,0.09136565,0.12079614,-0.040207345,-0.07530861,-0.0040872255,0.05700067,0.019012162,-0.06840261,0.109043784,0.06787139,0.054176148,0.14357468,0.037297767,0.06984802,0.18234356,-0.014137997,0.052793127,0.0064776368,-0.008805613,-0.015911633,0.047973473,-0.09431425,0.08015303,-0.13588892,0.061870046,-0.05358904,-0.018662885,-0.022652805,0.08338368,-0.033084728,-0.05222183,0.02859997,-0.059531637,-0.07132957,0.06251055,-0.045380976,-0.023782112,0.15241568,0.009445523,-0.07030561,-0.09428833,-0.01088162,0.07066832,-0.03817499,0.0292207,-0.07396434,0.026196323,-0.0809585,-0.13675201,0.07202374,0.03157605,0.059064355,0.022258222,-0.06010177,-0.02354321,-0.050251152,-0.04200051,0.048017938,0.07737121,-0.055722546,0.0119604925,-0.06371371,0.017991763,-0.0077140196,-0.016653258,0.1296773,0.01890063,-0.024289487,0.034278736,-0.023220753,-0.0024642365,0.009614502,0.081727795,0.029419601,0.10530054,0.15457077,0.005713584,0.100759886,-0.03955827,-0.0766829,-0.08394375,-0.12849855,0.08694627,0.050996177,0.03718515,0.044946007,-0.068938404,0.08611776,0.006862476,0.055006217,-0.017677044,0.005115625,-0.03661158,-0.012460264,-0.08636431,0.028208574,-0.021680428,-0.018001655,-0.14270625,-0.0653246,0.07816869,0.056185603,-0.04924746,-0.028743763,0.019717278,0.00461397,0.10034544,0.00937092,0.008223122,-0.044808228,0.0136720585,0.0019845576,-0.015505848,0.00791789,0.08509753,-0.04867272,0.15020297,0.13919143,-0.11681457,-0.12523894,0.053904105,0.0010534003,0.0028698428,-0.08918231,-0.0052740057,-0.004292708,-0.057859566,-0.058250118,-0.027969876,0.06249111,0.028110579,0.17952628,0.100664265,-0.041502237,0.012713259,-0.08755365,-0.029133556,0.0019888964,0.07192229,-0.010326626,-0.04596666,-0.020726286,-0.006526042,0.029587219,-0.00017650827,0.038480714,-0.09255324,0.025709428,0.014969908,0.07648603,-0.0787341,-0.030944718,0.051019352,-0.026250614,0.030376272,0.019343443,-0.014708212,0.0811142,-0.15176484,-0.10772213,0.0236886,0.060845,0.098982535,-0.1015142,-0.14706045,0.053464845,-0.014745521,-0.050823443,-0.0020551924,-0.05826045,-0.036797725,-0.025604578,-0.03595099,0.054915473,-0.011164001,0.047146294,-0.119334705,0.13573392,-0.0020194931,0.03918867,0.10490278,-0.033092428,0.058577094,-0.03084004,0.019532233,-0.064948335,-0.18408495,-0.031088682,-0.10191299,-0.03644521,0.0015255185,0.032262042,-0.06777793,-0.06513498,-0.048236493,0.02094331,-0.03617378,0.02371333,0.07139838,-0.15528248,0.025031064,-0.10350129,0.06331902,0.13127874,0.025957914,-0.0063299784,0.02378721,-0.048167385,0.11403098,0.083775245,0.07754118,0.08246953,-0.043605793,-0.004102501,-0.034849014,-0.12619732,0.03933761,-0.0007795204,0.050506286,0.10704209,-0.10359947,-0.079447195,-0.0011075144,-0.108620726,0.0015209364,-0.12168932,0.0034927526,-0.04120785,0.03768398,-0.109642975,-0.10205117,0.042355336,0.104358606,-0.045369826,-0.01299093,-0.118635155,-0.11977785,-0.09191517,0.120644726,-0.031346507,-0.021282455,0.08374401,0.070954554,-0.040792078,-0.032246936,-0.010383731,-0.048594046,0.06903037,-0.027364677,0.045510884,0.03428509,0.017962275,0.17761628,-0.03516678,0.027335953,0.13461943,-0.014194646,-0.12485452,-0.0028580911,0.080454506,-0.06452117,0.09549835,-0.0019035138,0.025370862,-0.00039104396,-0.014101482,0.0842319,0.10602186,0.110015735,0.019328432,0.04730322,0.10354801,-0.0018911203,0.1883867,-0.08267311,-0.027615618,0.064129606,0.0041788793,-0.005238523,0.03269901,-0.04016461,0.0012590186,-0.11661493,-0.074095756,-0.013165894,0.059246596,0.06657192,0.08127598,0.04955911,-0.13901491,0.07955841,0.13238086,-0.019470748,0.15435489,0.04252738,-0.112310626,0.13127281,-0.048475172,0.098399624,0.14382468,-0.029080937,0.04074602,-0.01030597,0.12634298,-0.010648555,-0.06337042,-0.09825539,-0.03121398,0.026813535,0.013791719,-0.032586288,0.001180021,-0.027645811,-0.00011891611,0.093999065,0.046559248,0.010754289,-0.109137855,-0.009387576,0.05400563,0.045264024,-0.018641282,-0.03400118,-0.041719086,0.015749622,-0.045145545,0.033157993,-0.010459899,-0.046297364,0.09417806,-0.19269013,-0.026704019,0.074834384,-0.0060929926,-0.0038846317,-0.036580715,-0.08051807,-0.039485764,0.0042450987,0.07652284,0.0019212072,-0.048138253,-0.05686925,0.015586436,-0.082298055,-0.08702847,0.009310544,0.04359223,0.020548478,-0.09767275,-0.077476524,0.057346974,-0.0038930227,0.06326785,-0.118868195,0.0065580867,-0.03942314,0.03702369,0.01908446,0.033313308,-0.030611474,-0.050100945,-0.05529178,0.012410237,-0.08871004,0.0723783,-0.019002443,-0.0180895,0.042190574,-0.12093339,-0.11600705,-0.028254915,-0.1115,0.052746955,0.02922745,0.06010115,0.08144316,0.08121295,-0.07143165,-0.08132184,-0.103341855,0.076329626,-0.09341953,0.09957665,-0.023873221,-0.030021848,0.038500812,-0.09525657,0.093540505,-0.039531257,-0.02581495,0.0035150333,0.12962003,-0.06277706,-0.014492572,-0.02968949,0.105771,0.08911822,-0.11573744,-0.012448843,0.08022221,-0.116795376,0.014374535,0.044511054,0.0164232,-0.08531383,-0.0064625638,-0.03823744,0.067477025,0.072895534,-0.049130958,0.11561045,0.13102084,0.007114468,-0.09030546,0.040078104,-0.069111355,-0.08953612,0.0276375,0.029834393,0.06430714,-0.04958545,-0.040338345,-0.05425914,-0.06956544,-0.05968881,0.024096161,0.14606272,0.076182194,0.023340495,0.02892283,-0.029710507,0.09947871,0.0654613,-0.029306535,0.022843475,-0.040533528,-0.046117935,0.016659502,-0.10746647,-0.050372735,-0.054621357,-0.08638703,-0.0964334,-0.10698897,0.046830036,0.015786087,-0.10050461,-0.059357934,0.002832311,-0.012345661,-0.07014488,0.026900982,-0.028555773,-0.00034004118,0.026868485,-0.006802408,0.11850205,-0.010238935,-0.075044334,0.13804258,0.016944597,-0.010331812,0.06836136,-0.11861034,-0.032552093,-0.0052762832,-0.0040720887,0.07672162,0.06420201,0.037890404,-0.022369664,0.056436848,0.012657507,-0.030312428,0.16138354,-0.027566653,-0.06644757,0.03440943,-0.008771938,-0.15487269,-0.09827966,-0.013298224,0.09674453,0.10686326,0.14923954,0.030473828,-0.18477155,0.03978437,-0.0641502,-0.060793832,0.009756228,-0.016370367,0.048361983,0.005577271,0.10104199,0.04339535,-0.13260065,-0.037376877,0.012507531,-0.05222627,-0.0002445114,-0.07962219,0.003340136,0.101690084,0.080710046,-0.010544154,0.0011710181,-0.10980279,0.025782302,-0.045409128,0.06449359,0.03349226,0.031281248,0.09550765,-0.008404696,0.058964368,0.060215086,-0.000595792,-0.005444495,0.07531769,-0.115403876,0.03688783,0.033802334,-0.044222772,0.00632617,-0.054435365,-0.09648493,-0.04154592,0.013765241,0.00066848396,0.12481504,-0.022812417,0.06252521,-0.092398554,0.060856227,0.01184075,-0.06788495,-0.16052148,0.026358563,0.019367522,-0.03658587,0.03538832,-0.026632125,-0.022620263,0.0471516,0.073125616,0.051260624,-0.12897512,0.0068838415,0.12966697,-0.009434201,0.09520849,-0.004852746,0.06179616,-0.11400024,-0.028172234,0.062070634,0.021288743,-0.0074680345,-0.07225849,0.043895062,-0.061221924,0.03174351,0.026074635,0.023090033,0.14245333,-0.12779962,-0.05007569,-0.03268833,0.15310779,-0.031620808,0.14357609,-0.0021350067,-0.055164453,-0.072492234,0.10638486,0.076217696,-0.0313007,0.0428985,-0.0902367,-0.012293818,-0.026907321,0.11363656,0.050235603,-0.070474915,0.15877736,-0.008971179,0.0057251886,0.08083467,0.08319828,-0.026674185,0.028619595,-0.033630613,-0.045103334,0.007706723,0.049932666,0.057147037,-0.059696067,-0.031079171,0.12311687,-0.021554362,-0.07708994,-0.009145736,0.11034165,-0.06133383,-0.08143357,0.13984741,-0.011441414,-0.1108913,0.045769673,0.09453534,-0.119766995,0.049631953,-0.03363401,-0.010703619,-0.043749146,0.004205964,-0.034994096,-0.09864275,0.04757699,-0.11276619,-0.07468304,0.028127713,-0.033720247,0.058131512,0.027239634,-0.15006204,0.026916463,-0.04198094,-0.056976084,0.08505979,0.08762383,-0.0316789,-0.11760102,0.032787815,0.010622459,0.040812433,-0.07371114,-0.023632262,-0.113007605,0.06472763,0.002849251,-0.046504598,0.048930354,0.085468285,-0.098900646,-0.092427365,-0.09141369,-0.0752125,-0.13657737,-0.082150884,-0.046341624,-0.009094726,0.0030329705,-0.0014334572,0.059749313,-0.07336713,-0.019889742,0.02031549,0.13970438,-0.034572765,-0.10269637,0.010440828,0.03946014,-0.002619555,0.08326253,-0.026990639,0.11361334,0.033092916,-0.060937874,0.12738878,0.040913813,-0.036756083,0.0033721055,-0.0010452515,0.013881363,0.08739954,-0.0070241694,-0.079842,0.09397357,0.10779611,-0.11610576,0.021885587,-0.067067906,-0.054585915,0.034663644,0.082064554,0.0696864,-0.03245022,0.009838464,-0.017708879,-0.15238981,-0.053487502,0.045677755,0.057546813,0.09230566,-0.082686625,0.024634665,0.076086625,-0.0070643653,-0.0018580108,0.0048500076,0.12681077,0.122624986,-0.04996116,0.033504136,-0.004413149,-0.024084708,-0.01627107,0.021847567,-0.17712657,0.047381118,0.011355864,0.14650689,-0.012392435,0.03383921,-0.021426346,-0.00042183703,0.10924628,0.04026945,0.059663456,-0.04246125,-0.06016175,-0.03799348,0.06366608,0.106682174,0.07938867,-0.07720222,-0.011166719,-0.010829106,-0.01070795,0.06055253,0.04240384,0.06404328,-0.0011624383,-0.06415472,-0.03354536,-0.0710404,0.027152963,-0.04153032,-0.08076183,0.13776349,-0.11107693,0.043258507,-0.033838157,-0.00083378854,-0.026694946,0.14082249,0.15006082,-0.0100947255,0.032723084,0.050956436,-0.047642857,0.04390038,0.023618182,0.010425695,-0.035572805,-0.024454227,-0.042071108,-0.07982416,-0.057679858,0.101495065,0.15300553,-0.07595685,-0.105658375,-0.06576485,0.014985084,0.109303646,0.067478456,0.057191137,-0.008699581,0.04866774,-0.05483265,0.016148318,-0.05658994,0.04899934,-0.09191263,0.066044554,0.08182875,-0.015641144,-0.0023376774,0.06033144,-0.10456322,0.123684086,0.058431476,0.008725503,-0.098613456,0.09096339,-0.02590727,-0.030928435,-0.007916035,-0.037252553,0.09081825,-0.074031465,0.024252592,-0.049896225,0.11575181,-0.01780557,-0.042883202,-0.1550976,0.0872693,0.09357254,0.02496597,0.011197476,0.0452195,-0.048623018,-0.0062656603,-0.02667304,0.10357523,-0.028212016,-0.03114947,-0.09633183,-0.054258708,-0.039892443,-0.054817982,-0.006850488,-0.009209371,0.02129225,0.00207179,-0.091875605,0.10876558,-0.05906615,-0.06396547,0.147637,0.062412173,0.072569795,-0.036066983,-0.1237357,-0.013361843,-0.10099993,-0.04757018,-0.03038326,0.061606124,-0.001075419,0.10011337,0.03824338,-0.032957103,0.016605178,-0.18524449,0.12024329,-0.086254135,-0.056253284,-0.018252311,0.005639547,0.06324592,0.06509804,-0.0154575445,-0.02057617,0.057795625,0.031146295,0.036005173,0.035188,0.085295476,0.12521291,-0.077221476,-0.023044603,0.006628005,0.09857278,-0.12525491,-0.0047506415,-0.059012298,-0.07080824,-0.15974583,0.08842336,0.05382386,0.03472746,-0.09090572,-0.047796115,-0.007280766,0.035908215,-0.013234562,0.025036179,-0.016869675,0.039097123,0.081702664,-0.11179545,-0.019119639,0.033765454,0.0039323904,-0.14526258,0.06932978,0.12749244,-0.040406287,0.032632418,-0.055636458,-0.092782125,0.05812891,-0.15556552,0.10856548,-0.023527622,-0.07477202,-0.16558374,0.034399584,0.060993295,0.0030296016,0.09975119,-0.051767595,-0.09982724,-0.03642631,0.049846023,-0.07700989,-0.031303808,0.07302462,0.07908926,0.12582068,-0.0076719383,-0.087265655,-0.10788581,0.042927492,0.0187925,-0.037893996,0.07149929,-0.12990937,-0.030586584,-0.047937825,0.038497344,-0.011146886,-0.046973474,-0.0044424934,-0.0018650685,0.008651493,0.07540394,0.019270813,0.122973435,0.09069553,0.07931395,-0.06601799,0.026473276,0.026014281,0.04233773,-0.05192574,-0.04034362,-0.0017680489,0.011276618,0.05787264,-0.052290387,-0.021248981,-0.06150446,0.11237787,0.016549097,-0.02189938,-0.032122053,0.059145726,0.100552395,0.016058274,0.054209724,0.060975663,-0.06167928,0.11548093,0.053522147,0.08018095,0.07018056,-0.012898726,-0.058195803,0.0987812,-0.071213044,0.0777909,0.05152848,0.030041922,0.028765531,0.043777276,-0.05404036,-0.078301325,0.01018498,0.029005803,-0.062817276,-0.03614541,0.07401401,0.03979358,0.14918956,-0.016713765,-0.05601848,0.122432224,0.06807872,0.01626083,-0.017162008,0.06345719,-0.09064755,0.021037497,0.13995138,-0.10139329,0.00837892,0.004784412,-0.026855003,-0.09892799,-0.0018203264,-0.06237841,-0.01886805,-0.06119845,0.017460104,0.048177086,0.039038315,-0.07790639,-0.12325476,-0.021619255,-0.04943034,-0.025277533,0.023868553,-0.07237198,-0.08870408,0.10568137,-0.09361482,-0.13623862,0.054740783,0.17545018,-0.08589515,0.121615656,-0.10903647,-0.062239915,-0.030825606,-0.070369065,-0.052408148,-0.12064955,-0.12431349,-0.06674762,0.04194581,0.116010986,-0.14092197,0.04563997,-0.018672783,0.012978114,-0.13915907,0.053350173,-0.04433548,0.08065068,-0.02471284,0.060661994,0.0015292095,0.009873715,-0.05089303,0.014849715,-0.025019394,-0.0060555837,-0.007216219,0.018026693,0.05137878,-0.042843964,-0.12465034,0.07931604,0.07797439,-0.05532112,0.039195612,-0.020164121,0.0418807,-0.113850325,0.072061606,0.09942856,0.053991247,-0.13502969,-0.08146601,-0.097619206,-0.0797925,-0.015566658,-0.06268238,0.026552534,-0.033981852,-0.16773596,-0.020590452,0.032192674,0.021099906,0.053894453,-0.100578785,0.09683063,-0.09138607,-0.065316424,-0.01772419,0.0835781,-0.077625945,-0.0054343,0.02038094,0.06980076,-0.026999755,0.1115839,-0.06903638,0.026756564,0.0391901,-0.017836986,0.06629513,0.117772974,0.095945954,0.12456502,-0.091408834,-0.06445779,-0.10940154,-0.07895949,0.07897143,0.020700714,0.07921128,-0.023306878,0.121385776,0.00050593994,-0.06301212,-0.048539035,0.011741297,0.09454714,-0.07083696,-0.022089396,-0.0474632,0.11238988,-0.031922538,0.034513973,-0.015822656,-0.12620911,-0.10688347,-0.051225938,0.05654989,0.006359699,0.091439925,-0.0676284,-0.01765054,0.03770672,-0.04614825,0.060265064,0.027133713,0.018555906,-0.02467747,-0.06936999,-0.07877425,0.11685412,-0.13242161,-0.040460218,0.08162258,-0.01863319,0.09267843,-0.08092164,-0.042240188,-0.0016291434,0.0449011,0.090888634,0.042580057,0.026453221,-0.046268556,-0.013305321,-0.051350564,-0.08435249,-0.0066178255,-0.08028422,0.112551294,-0.11797921,0.07739473,-0.093745075,0.050910745,-0.17128265,0.0075344336,-0.018019544,0.048486587,-0.017370658,0.10157529,-0.058329944,-0.044289537,-0.033744585,-0.029134853,0.036627423,0.06849374,0.13447005,-0.064786024,0.10075006,-0.10345244,-0.08614527,0.019215597,-0.0316026,0.04046919,0.035137232,0.0050685457,-0.07173898,-0.06780865,0.049487367,-0.026658636,-0.06628004,-0.015082631,-0.007682829,0.0042329514,-0.023644978,-0.095638186,-0.0040907105,-0.09019458,-0.07171197,0.033803225,-0.0674722,-0.020775607,0.0074688965,0.018321125,0.055906285,-0.117896415,0.009393654,-0.04481817,-0.004459989,-0.0024478096,0.008056114,-0.07376714,0.0173922,-0.055358604,0.07922085,0.00030462042,0.07728007,-0.04276627,-0.0020562343,-0.04633072,-0.01652307,-0.019468626,0.026722243,-0.017862402,-0.03219574,-0.052924335,-0.10622474,-0.10655261,0.017286088,0.09454314,0.056646585,0.096329905,0.012204275,0.08408908,-0.052541684,-0.015593711,0.008743918,0.04995241,-0.0051930696,-0.08679793,0.10301657,0.045580328,0.093882814,-0.046114534,0.08449822,0.06030807,-0.09568373,-0.07532886,0.12333631,0.048751593,-0.0375308,0.124445416,0.032182373,-0.14941236,-0.025922224,-0.09748939,0.054183487,-0.07923532,-0.029612117,-0.048974168,-0.088088535,0.1468317,0.029138088,-0.025493853,-0.16617425,-0.12734963,0.13903537,0.04255495,-0.037172265,-0.077108584,-0.035391103,-0.102672994,0.042046636,-0.053761058,0.0022244032,-0.08065946,0.054613076,-0.06838241,0.10372587,0.031200089,-0.047982648,-0.109369725,0.03129192,0.0077404794,-0.0658801,-0.057456378,-0.013900808,-0.14504616,0.074883774,0.05870285,0.034514032,0.053339027,-0.012168226,0.035809528,-0.01681339,0.14410691,0.035468817,-0.05253905,0.045599427,-0.005263306,-0.004657611,-0.034490608,-0.042239487,0.07010968,0.070049204,0.102092355,-0.057508748,-0.15423709,0.05387944,-0.10672496,-0.10997629,-0.0215003,-0.11887865,0.0025183447,-0.03649303,0.031595495,-0.025771558,-0.027259585,-0.0663449,-0.07481339,0.0067415484,-0.07689946,0.017252741,0.018683223,-0.08321895,0.11199533,-0.09173805,0.016056443,0.051160336,-0.009717712,0.028072068,0.07139711,-0.05241032,-0.02189223,-0.006779673,0.047199924,-0.09625315,-0.19003643,0.026091253,0.03840774,-0.014093234,0.032414258,0.0063355016,0.047897983,0.05714685,-0.047083322,0.0040733907,0.0701608,0.08068255,-0.022318881,-0.11044721,0.15705308,0.0023266585,-0.0602479,-0.051931396,-0.011308243,0.05148238,0.043352842,-0.060034007,-0.030644901,0.07281911,0.0735607,0.048206005,0.056005087,0.09643549,-0.06765035,-0.024080846,-0.0824171,0.08896279,0.023213254,-0.019010354,0.002877099,0.02527025,-0.030407555,0.11386146,-0.06029643,0.026427329,-0.0072767353,-0.21032268,0.02847106,0.04326293,-0.08246089,0.13400985,-0.04650203,-0.033130728,0.019572401,0.0016969402,-0.052524004,0.14749226,-0.00482826,-0.021780722,-0.028391665,-0.0058996286,0.010058043,0.009136946,0.062215265,-0.041673444,0.06498097,-0.0012476749,-0.07432813,0.10699503,-0.07235961,0.0529344,-0.03884491,0.09050425,-0.12809472,0.08091401,-0.04384458,0.013387502,-0.04809267,-0.063601665,-0.0953098,0.054935746,-0.048011348,-0.027634544,-0.011912241,-0.054982837,0.025443878,-0.14491215,-0.15054853,0.008429572,0.033509277,-0.016915027,-0.002926428,0.07498339,-0.084126644,-0.061848175,0.101803534,0.020981675,0.016899912,-0.10796233,-0.060436185,-0.04606958,0.03390264,-0.02886858,-0.07386569,0.11937034,-0.13057348,-0.14054643,0.01848433,-0.030648159,0.079989,-0.0882529,-0.056306556,-0.013752204,0.06583854,-0.11403962,-0.02690271,0.14496605,0.070652284,-0.071265124,-0.02663939,-0.081403546,-0.09614854,0.03674716,0.09650836,0.0264528,0.094326064,-0.03302788,0.09061994,0.06728053,0.05033744,-0.030951018,0.029099412,0.002457449,0.05199465,0.006933712,-0.07801008,0.0861892,-0.08540031,-0.121445395,-0.043338902,-0.06352966,-0.048564255,0.04091648,-0.025141764,0.11014531,-0.065235466,-0.13704027,0.107811846,-0.04546764,-0.077997066,0.013201013,-0.0074203294,-0.04773279,0.11773167,0.15419218,-0.08767074,0.03816191,0.0023475606,0.021064669,-0.06836584,-0.078552134,-0.03904411,0.08989684,-0.12511072,0.11421914,0.06770201,-0.041736897,-0.018212374,0.048826743,0.07958636,-0.080038674,0.083087005,0.015784431,0.03329499,-0.113539696,-0.11864309,-0.09492037,0.07099692,0.0064501325,-0.058684032,-0.12269148,-0.020754285,-0.012780002,-0.010573795,-0.057053015,0.07095373,0.03839365,0.10531334,-0.08431945,0.004305955,0.05034727,0.10904467,-0.085035786,0.07173101,-0.029640837,-0.09932677,-0.051124234,-0.10612081,-0.076596074,0.041874018,-0.09924432,-0.011743846,-0.037519846,-0.09038628,-0.0008529404,-0.14484432,0.008022743,0.018098481,-0.13341676,0.0069318884,-0.03994296,0.032371845,-0.0429387,-0.08890062,0.0033272007,0.061216418,0.07023915,0.07077309,-0.05815343,-0.051619645,-0.0009401691,0.058253117,0.020201162,-0.052052215,-0.099872135,-0.080025114,0.062405113,0.037279118,0.0838491,0.10749485,-0.03549995,-0.054491963,-0.026016401,-0.06010309,0.18396993,-0.013433113,0.03128897,-0.10586207,0.14689034,0.0136654535,-0.030191325,-0.029301351,-0.030856028,-0.06535496,-0.03244376,0.019978413,-0.04046472,-0.06722702,0.078738324,-0.03624135,-0.107990615,0.11056412,0.007335789,0.09603112,-0.0066421716,-0.078330636,0.120282024,0.12679169,-0.058610883,0.08651526,-0.047041904,0.012800222,0.07103047,0.13557939,-0.014279191,-0.0113735655,-0.040260285,0.01633143,-0.0755871,-0.052100025,0.069153145,-0.14440167,0.11917867,0.09425434,0.10363797,-0.032281384,0.07571026,0.035773735,-0.038309038,0.061883066,-0.068400726,-0.06786797,-0.121963434,0.044202123,-0.0040654736,0.0055946945,0.061426293,-0.06775526,0.043073628,0.05502966,0.06420796,0.119860806,0.10832608,-0.030760074,0.004563932,0.0045340545,-0.1361229,-0.05010939,0.106829725,-0.14016637,-0.05050726,0.052720547,-0.006199803,-0.06470513,0.04663129,-0.08596341,-0.015542925,0.07705842,-0.08480995,0.16786268,-0.03327832,-0.0653954,-0.035051588,0.0263432,0.06604986,-0.08085445,-0.051241156,0.10880941,0.049928427,0.09374256,0.04619593,0.11493085,0.026163822,0.030895587,0.09639195,0.02301961,0.052945066,-0.041250117,-0.021860795,-0.04625246,-0.014481695,-0.021184035,-0.06639846,-0.044185117,0.03918787,-0.0495266,0.10999827,0.0628675,0.03264,0.0013114499,0.014954202,0.02219456,-0.008547813,-0.023208601,-0.028006436,0.06525967,0.0746221,0.110327594,0.08677236,-0.09362534,0.13327771,-0.09230205,-0.06985888,0.15010338,-0.14991508,0.10689845,0.07616769,-0.05186031,-0.09094877,-0.0058782226,0.04735947,-0.078642696,0.058942474,0.06727708,-0.090629034,-0.08625631,0.014865183,0.10345119,-0.011069175,0.040563818,0.03639518,-0.06962339,0.01507837,-0.030192994,0.009516813,-0.042387366,0.03883868,-0.12931404,-0.06487385,0.080486126,0.06749201,-0.05465514,-0.030148031,-0.014652098,0.03244892,0.055568494,-0.1458253,0.0935857,-0.07455052,0.021855425,0.04510975,0.094602,-0.05622083,0.0095406445,0.054014582,0.06468783,-0.10835495,0.02061503,0.07679217,-0.08195997,0.12875251,0.0014138137,0.052094672,0.03454757,0.070134245,-0.080592535,-0.021287791,0.019489964,0.12411476,-0.13640825,0.01573813,-0.025636926,-0.034322068,-0.0024962053,0.056152444,0.017774781,0.039884005,-0.045663334,0.056996256,0.120651715,-0.04895775,-0.024913833,0.073639795,0.09837099,-0.040240567,0.06185489,0.04414982,0.05098268,0.16374955,0.012049872,0.018370189,0.05693444,0.04961834,-0.041939143,-0.024643095,-0.001781499,-0.022371868,0.038563095,0.012022047,-0.07285188,-0.08583222,-0.10059245,-0.01132399,-0.031368278,-0.078828685,-0.047761865,-0.07713165,-0.017603286,-0.0060043302,0.07690125,-0.010672402,-0.03245147,-0.05700768,-0.04298974,-0.006888191,0.08619246,-0.042846896,0.085048884,0.0724223,-0.09462395,-0.04846379,-0.016339637,0.004652269,-0.09458263,0.09347294,-0.11614174,-0.050285026,-0.08805662,0.017764866,-0.012343696,0.082989365,-0.12177672,0.102271184,-0.058573823,-0.07786567,-0.058422495,0.0017616793,-0.10101105,0.0050617387,-0.04158807,0.09649102,0.101394095,0.13098876,0.011561368,0.02517831,-0.03929006,-0.05819739,0.11189966,-0.0047113113,-0.025868531,0.050299473,0.03604817,-0.04312853,0.08224794,-0.007521176,-0.008139721,0.07078621,0.056289174,0.07284932,0.01780288,-0.02737307,-0.09836597,0.03771573,0.1053285,0.08130493,0.011223111,0.03643502,-0.16726029,0.024513533,0.009011792,0.029522603,-0.011661835,0.02562161,0.0057842415,-0.03961557,0.08038292,-0.10987107,0.1206232,0.09741975,-0.05563504,0.12779625,-0.10703615,-0.040763877,0.015159937,0.114278704,-0.08381137,-0.070052534,-0.081204206,-0.046981283,-0.03098221,0.087038785,0.005884485,0.04042826,0.04396391,0.0392323,0.07495232,-0.07911157,-0.096757635,0.10833143,0.076793745,-0.029182995,0.124991484,-0.07941511,-0.036498297,-0.042187847,-0.00889403,-0.11192252,0.0890937,-0.008244111,-0.04380134,-0.10612432,-0.08187681,-0.061304256,-0.051394396,0.13055845,0.006474541,0.08576042,-0.034279797,-0.017681595,-0.014022891,0.057054266,-0.0029395586,0.028756952,0.05957104,0.03566554,-0.0411086,0.08929308,-0.017790549,0.10082797,-0.029474765,-0.014853159,-0.032803096,-0.0023762677,-0.0057969787,0.04640192,-0.11984318,-0.09007353,0.029585276,-0.064202204,0.003994184,-0.024547284,0.023646029,-0.11351744,0.010505574,0.16128673,0.07142817,-0.06509316,-0.009778159,-0.084143154,-0.031560272,0.052564252,-0.020918181,-0.044821426,-0.12744407,0.0144791305,0.0020574802,-0.056626324,-0.03215063,0.04047119,0.011783112,0.04283128,-0.074466474,-0.097770534,-0.04199548,0.08206542,0.07627496,-0.039846413,-0.02460363,-0.16144103,0.03730429,-0.13027832,0.03946612,0.12290934,0.02312983,0.046898425,-0.027239475,-0.11529273,0.06692589,-0.056534708,-0.15973829,-0.019771703,0.063789494,-0.13555624,0.04018389,-0.106955945,0.02052192,-0.020196337,0.097670816,-0.079192534,0.010936326,0.05033975,-0.0012097603,-0.03207739,0.08746596,0.014001225,0.025990814,0.11423529,-0.015442513,-0.12856318,-0.085590206,-0.025099596,0.001060961,-0.117894076,0.11967365,-0.09586474,0.024985773,0.07557111,-0.014822911,-0.039481904,0.030513434,-0.042883225,-0.011963546,-0.029074974,-0.03586069,-0.02132559,0.04942354,0.0035659804,0.018316686,-0.084825024,-0.028495692,0.060365584,-0.11813021,0.036850534,-0.0616084,0.040161613,-0.11949895,0.13357815,-0.11601842,-0.0063834502,0.0010748091,0.044736926,0.03288959,-0.053576034,-0.0899909,0.016063862,0.0155171715,0.028465176,-0.06949589,-0.053420156,0.022095049,-0.12390119,-0.06644685,-0.11020617,0.050241437,-0.00803182,0.044533305,-0.09904724,0.11769925,-0.09989938,0.11499338,-0.023619045,0.067125216,0.058277182,0.11185735,-0.0016036344,-0.0067993836,-0.037788853,-0.080255404,0.07003717,0.10383526,-0.03228501,0.07285739,0.11160545,0.028505916,0.00319612,-0.09247485,0.065106995,-0.008642439,0.009528163,-0.022902096,-0.10789915,0.14678952,-0.088383585,0.07015939,0.019235708,-0.07057072,0.09650665,-0.1202877,0.09064574,-0.08579589,-0.10460485,0.09912991,-0.03242168,0.10514903,-0.0077991486,0.05885265,-0.04293062,0.08726571,-0.034073837,-0.047342937,-0.03864505,0.091428466,0.035889737,-0.030209564,0.009890039,0.048361447,0.024315957,0.032059606,0.0012095772,0.034816556,-0.0088580735,-0.027348721,0.0071288645,-0.08804489,-0.10036005,0.025193553,-0.030170811,0.04911109,-0.11115446,0.02371568,0.035621192,-0.07076386,-0.0011058646,0.025474576,-0.040744387,-0.07082322,-0.019827686,-0.12466175,-0.051064633,0.027867349,-0.08273931,0.020484617,-0.047751177,-0.06847845,0.10891659,0.017476987,0.09560587,-0.014858697,-0.08373212,-0.04042038,0.06260197,0.062402133,0.00881247,0.017853066,-0.017122049,-0.017204402,-0.1039565,-0.022421803,0.079170346,-0.055186357,-0.13412812,-0.007153731,0.12957597,-0.050835732,-0.10324395,0.1518149,-0.02532212,-0.029336624,0.086658485,-0.017107151,0.11308205,-0.002168132,-0.04976212,0.105585456,0.008588406,-0.04557874,-0.07903674,0.045975268,-0.10148017,0.002437123,-0.04321125,-0.027257258,-0.121271215,-0.018825708,-0.025042543,0.032217488,0.059590623,0.14265184,0.16339302,0.017272634,0.06943763,0.11377317,0.06987783,-0.055143606,0.10526893,0.08616277,-0.056985766,0.035414606,0.04345099,-0.07139804,0.038634293,-0.054187123,-0.101633385,0.015262279,0.007707971,0.07592697,0.022566957,-0.013815645,-0.019817099,-0.026449965,-0.037899066,0.01250496,-0.05408824,-0.007418409,-0.0030072627,0.037215456,-0.03397622,0.059673462,-0.034253564,0.048434403,-0.021356573,-0.086432196,-0.084306,-0.008240011,-0.14642611,0.035692375,0.06377569,-0.021103917,-0.0027103915,-0.09240684,0.056526132,-0.039662145,-0.116056606,0.004723118,-0.02818214,-0.049865752,0.04553419,-0.02638584,-0.07966953,0.044532772,-0.084884025,0.09663522,-0.020713646,-0.07996506,-0.039894737,-0.08208787,0.08099543,0.030326,0.13041905,-0.11520846,-0.12963718,0.065365255,-0.11889651,0.049364604,-0.06298403,-0.03269554,-0.014171926,0.06589691,0.011245434,-0.03893527,0.028996043,-0.07812934,0.13797675,-0.05991996,-0.08738862,0.029701512,-0.09879397,-0.073689386,0.018243928,0.048971556,-0.06200755,-0.034943875,-0.019633247,-0.112056434,0.036287844,-0.0640308,0.03337076,-0.001110455,-0.049421273,-0.13918206,0.05683592,-0.065926224,-0.012372483,0.037903883,-0.07513713,-0.007557686,0.123805724,0.08697083,-0.045145437,-0.024969488,0.04271852,0.21844815,0.053118736,-0.029330967,-0.037670966,-0.12016471,-0.073679864,-0.024544463,0.040146105,-0.08419311,0.031651516,-0.05175002,-0.029987136,-0.078508474,-0.019896006,-0.058054913,-0.062050026,0.103420906,-0.05943502,0.06930608,-0.10395535,0.09285452,0.033532422,0.02629831,-0.07898577,0.047272433,0.12762226,0.020937119,-0.038587645,0.05716244,-0.028590787,0.034359105,0.064448394,0.042011343,-0.11722122,-0.046085253,0.02105766,0.0013683594,-0.0765452,0.008673933,0.089016564,0.0486754,0.024230007,-0.042676914,0.018348321,0.012807578,0.0018340207,0.025631117,-0.05398592,0.079353645,0.0553978,-0.015763544,0.02241615,0.077284515,0.10287733,-0.17012762,-0.015362193,-0.06662187,0.1014999,-0.017762644,-0.049858328,0.009818906,-0.0035432195,0.08130543,-0.036863454,0.048437405,0.048543707,0.010463186,0.021267157,-0.063829556,0.026099846,-0.08363418,0.15077707,-0.10918141,-0.07659625,0.12636328,0.002688906,0.071246006,-0.10578641,0.10982415,0.09205177,-0.01017394,0.064593196,0.028731186,-0.033841457,0.029087022,-0.15516946,-0.117136076,0.016795596,0.010318801,0.04077554,0.11196222,-0.018938895,-0.06090817,0.08327579,0.020327423,3.3431457e-05,-0.04626599,0.09958182,0.049349923,-0.009660085,-0.067585036,-0.0249295,0.091817826,0.059056085,0.040701434,0.02735038,0.014809087,0.06723762,-0.0042263484,-0.098940566,-0.023237133,-0.03375045,0.088079855,0.009660282,0.012055222,-0.14371742,-0.07797574,0.015338837,-0.09244896,-0.048752222,-0.1416512,-0.06659574,0.08410666,-0.0038640057,0.08719611,-0.005025934,-0.027110698,0.033984095,-0.03835172,0.07867999,0.07403072,-0.10933075,-0.0624551,-0.14564937,0.1538649,-0.03635509,-0.0038015377,0.09509743,0.037300397,0.050451178,-0.2013996,-0.04458531,-0.02532829,0.06907502,-0.01942575,-0.061865117,-0.010146333,-0.014021919,0.04007167,-0.067607865,0.0516666,0.051081356,0.012035944,0.02618732,0.0059406124,0.06936389,-0.041660912,0.004090607,0.14261252,-0.1192529,0.015568958,0.028387146,-0.039144885,-0.010472744,-0.045429938,-0.000775272,-0.07520692,0.1679031,-0.09413277,-0.12684478,0.11556643,0.09008632,-0.1092804,0.111144505,-0.002072856,-0.0129116345,0.1274898,0.0597184,-0.11020521,-0.008016046,0.1557581,-0.01817473,0.085607335,-0.07742178,0.039010018,0.071208514,0.044706754,-0.031456493,0.09104216,-0.10552404,0.011440241,0.107690915,-0.06869046,0.03280584,-0.038379647,0.031476207,0.02738385,-0.07892772,-0.010567209,0.0735761,-0.01146983,0.11713065,0.17113683,0.068664454,0.010358146,0.06512825,-0.03295503,-0.109789506,-0.01988744,0.033944566,-0.09249335,0.015478224,-0.031323563,0.08139785,-0.07969775,-0.053349216,-0.015155201,0.016279275,-0.05298242,-0.06597467,-0.029932927,0.0036995492,0.034369115,0.030202156,0.0008842946,-0.09080966,-0.039097678,0.12538853,-0.08616851,-0.04712562,-0.004357338,-0.060620923,-0.07393643,-0.0081849145,0.018142736,0.045567986,0.08340931,-0.07759368,0.005719376,-0.047298785,-0.07794686,-0.08139525,-0.10351253,0.07265787,-0.017610822,0.06267049,-0.027760316,-0.004786523,0.014734475,-0.034023833,0.0015024517,0.07285785,0.10743029,0.08238483,-0.049575366,-0.0026700047,-0.04298534,0.09553433,-0.046909325,-0.0028523805,0.06142062,0.05730161,0.0076430193,-0.10937932,-0.034421843,-0.0054402743,-0.055256836,-0.09652563,-0.030047528,0.062051997,0.044602077,-0.0366942,0.030578313,-0.042275596,-0.09924995,-0.09710312,0.040943943,-0.059744272,-0.19320798,0.124785714,0.07547384,-0.07435369,0.061743148,0.013770756,-0.04707164,-0.0843319,-0.15484072,-0.021744767,-0.099770635,0.10989238,0.011546556,-0.11417539,0.13476378,0.07266722,-0.051912643,0.06377745,-0.12289079,-0.043883927,0.08107777,0.02198274,-0.049065832,0.025556937,-0.031897455,-0.05172195,-0.02836868,0.16147712,0.016227435,0.021029525,0.020777406,0.110025175,0.01929517,-0.023134049,0.11694992,-0.044078894,-0.011304824,0.0063438225,-0.043959666,-0.08841149,-0.01881851,-0.040750474,0.046534915,-0.005823452,0.025846694,-0.06542253,0.052587926,0.0024317794,-0.062157933,0.07136076,0.034158718,-0.0982268,0.03556503,0.008017926,0.06717225,0.029470133,-0.075555734,0.015584925,-0.06917352,-0.031615306,-0.102037154,0.057830486,0.034989618,-0.005208104,-0.018651819,0.11238554,0.07282871,-0.015845183,-0.15612625,0.043043546,-0.026217127,-0.111550935,-0.11462941,-0.02966216,0.024352686,-0.07703281,-0.017355418,-0.045254797,0.012828135,0.045639906,0.06324329,0.008770824,-0.028022781,0.07582157,0.14173356,-0.02360922,-0.030692948,0.038241845,0.10611173,-0.059608262,-0.06798057,0.07090566,-0.039308567,-0.09716257,0.06728913,0.033011604,0.039118264,-0.06095408,-0.090980224,0.07249441,-0.04560954,0.011990212,0.08654302,0.10986862,0.07585074,-0.0046878997,-0.03649538,0.017571308,0.011349075,0.09529697,0.070055634,-0.037676286,-0.19212879,-0.053948846,0.029125726,0.044894546,-0.0034759375,-0.13412668,0.016226044,-0.02308552,-0.068068795,0.067095146,0.019248651,0.012874186,0.03156364,-0.06579176,0.07683835,-0.004727247,0.03708163,-0.13871261,0.10456501,-0.02718077,-0.0012275954,-0.04373054,0.04414558,-0.10378548,0.03928393,0.05813587,-0.041924536,0.04333815,0.022207063,-0.033009503,-0.006791551,0.038677145,0.07219333,0.028468233,-0.019201014,0.053185996,-0.14630467,-0.08992284,0.112499684,0.07220185,-0.14889859,-0.06537884,-0.0769128,-0.0144792665,-0.020911383,-0.111092046,-0.038608003,-0.0027659198,-0.039527595,-0.044425935,0.08303616,0.005381616,-0.082335345,0.0414213,-0.14596151,-0.032773633,0.034581788,0.12887001,-0.06624638,0.0083524315,0.019102536,-0.0461529,-0.090048276,0.10088675,0.10401785,-0.0930293,-0.06668559,-0.02788099,-0.010662326,0.06472642,0.04521139,-0.023476,0.027512796,0.083398186,-0.023779083,0.048101727,0.07012423,-0.06270495,-0.023855912,-0.060956586,0.10424853,0.03917187,-0.009525326,0.14118695,0.065911986,0.03159711,0.00064722373,-0.015811129,0.09683632,0.06844681,-0.02213174,0.080648124,0.029307244,-0.018285356,-0.12969764,-0.05227839,-0.027079627,0.06996007,-0.073822916,-0.018127715,-0.08667065,0.01674042,-0.071155265,-0.17060947,0.09267326,-0.00020374419,0.047840107,0.029211113,0.10127781,0.016228883,-0.05053204,-0.020950383,-0.038202588,-0.05035768,0.19238669,-0.046094872,0.060770653,0.072311,-0.061319597,0.03536451,-0.045722317,0.03431088,-0.030273965,0.06720741,-0.104915224,0.02349781,0.12074624,0.0023911824,-0.12256264,-0.051548686,0.11442328,-0.0014670207,-0.07973426,-0.17226057,-0.056377273,0.04724823,0.043988626,-0.0107154865,0.007783927,0.11294964,-0.09385231,0.0040970882,-0.004354508,-0.015075757,-0.024112983,-0.07739299,-0.004220232,0.04032272,-0.0535755,0.072495535,0.059270978,-0.02749772,-0.0015272491,-0.075173326,0.025649335,0.05005375,-0.12111659,-0.05466353,0.11405062,-0.1818425,-0.0017263587,-0.0669857,-0.055047512,-0.015248481,0.016221268,-0.04522953,0.0132545475,0.08641985,-0.058197323,0.07017013,-0.007462146,0.018652668,0.022079097,0.05419285,0.0054342533,0.026639886,-0.00075214973,-0.07617938,-0.1010342,-0.055867318,-0.07949434,0.14704305,0.04381523,0.019499132,-0.03307557,-0.15218621,0.046933983,0.04011133,-0.008571472,-0.051239043,-0.07991196,-0.09232628,0.053264253,0.090127766,-0.0073335986,0.00050143606,0.17564209,-0.012986754,-0.037038945,0.069597304,0.035641775,0.08100074,0.041837875,0.091773584,0.02906259,0.11218765,-0.05578795,-0.04571375,-0.068234295,-0.0052574985,0.031850956,-0.0020089122,-0.03861077,0.028852044,0.078314304,-0.023095254,-0.01803151,0.011545408,-0.012321367,-0.016794588,-0.13444617,0.0017169651,0.032947034,-0.040144224,0.049756397,-0.11929539,-0.009491869,0.021537594,0.08243864,-0.08424566,-0.100444205,0.0076184403,0.05209938,-0.13127393,0.15532663,-0.019253884,-0.014656057,-0.0066432296,0.037537318,0.10156655,0.096179344,0.118489236,-0.10143259,0.0041798702,-0.025926663,0.06491143,0.121201575,-0.11669274,-0.07046468,0.030972961,-0.029338494,-0.009024365,0.095592424,-0.057157002,0.03857526,0.012110267,0.04076408,-0.032684043,0.017221337,-0.0752133,-0.10456188,0.07759359,0.11194463,-0.056985434,-0.06311242,0.10087556,-0.043629367,-0.013503865,0.15134749,-0.13416818,0.013957262,-0.11717416,0.080399185,0.03188269,0.08089718,0.07830277,-0.123966634,-0.07738964,0.012498517,0.03340635,-0.04565214,0.12839632,0.050499454,-0.05742671,-0.08814801,-0.092923254,-0.013097561,-0.0055799144,-0.0016773347,-0.08080631,0.038322683,-0.017802002,-0.046499662,0.13091065,-0.12017983,-0.15002328,0.030343244,-0.022850076,-0.1460034,-0.020817414,0.07831311,0.03751856,-0.07278496,0.111479804,-0.015594523,-0.08131991,-0.06296304,0.06494469,-0.047466192,-0.039228138,0.078224875,0.0447435,0.08957772,-0.092145756,-0.14342007,0.045849144,-0.036869157,0.09736913,-0.042692233,-0.027152596,-0.06942614,0.056048207,0.07984669,0.02298477,-0.0161896,-0.049740016,-0.06687945,0.011835369,0.0032238562,-0.004038626,-0.05162945,0.05041029,0.007574957,-0.014014396,0.054417107,0.0037261555,-0.06698607,0.04752739,0.033857305,-0.00019818715,-0.01287907,-0.14024813,-0.11399611,-0.00019641015,0.02238992,0.040715404,0.12902449,-0.027154576,-0.07375514,0.066288315,0.05999157,0.050376296,0.030888256,0.054855112,-0.0018660763,-0.022080833,0.064985566,0.037044227,0.10618866,0.09599233,-0.0692816,-0.13125584,0.079399034,-0.017399026,0.11873504,0.004968156,0.043334283,0.1071536,-0.0026635234,-0.03372514,-0.022845933,-0.07682957,0.06930961,-0.08773328,0.048328064,0.2060015,0.1051444,0.0725116,-0.16316,-0.052590918,0.08276851,0.007961677,-0.002846272,0.062643334,0.0148096625,-0.102020726,0.023657689,0.051810086,0.025258688,-0.06174388,-0.05756576,0.10092169,-0.023052871,-0.02105232,-0.08043908,-0.06185962,-0.043393638,-0.05971502,0.061576705,-0.06724348,0.0051748534,0.01671581,0.07997076,-0.0004460659,0.043655563,-0.046511713,0.035386752,-0.12564038,0.07600013,0.15582599,-0.029246328,0.15155962,0.02995095,0.02820759,-0.07690154,-0.02333584,0.042000677,0.04929577,0.09878815,0.07229702,-0.033541095,-0.019686047,-0.057117593,0.09056069,-0.008459043,-0.0752723,-0.06660027,0.019976506,0.08009456,0.118634544,-0.13966313,-0.042169034,0.025800535,0.0066560176,-0.117329784,-0.07050161,0.010295661,-0.078567706,-0.03755815,0.08541848,-0.03516989,-0.05630796,-0.13243997,0.0142747415,0.0746238,-0.09579366,-0.007152156,0.019364526,-0.0062651527,0.072938755,-0.0189977,0.032855146,0.024252199,-0.015129502,-0.10093486,0.027003452,-0.042269357,-0.08693288,0.0123030385,-0.058364958,-0.08535828,-0.014032962,-0.1384794,-0.046162926,-0.08596831,-0.019214265,0.07883237,0.039100144,-0.05381203,0.012875636,-0.08437564,-0.040637493,-0.015038449,0.049850453,-0.0562444,0.09174639,0.0144441,-0.07195243,-0.11380075,-0.08455042,0.014805558,-0.034071278,-0.09633676,-0.086469576,-0.03571142,-0.032852713,0.026433252,0.0544545,-0.013107777,0.0058381436,0.01589528,-0.032430235,-0.10174211,0.091343515,-0.078899056,-0.17241365,-0.00024166596,0.0002627544,0.058078486,0.14476512,0.009296974,-0.024129791,-0.07022741,0.034712497,0.11425123,0.036467634,-0.108281404,-0.054045364,-0.13840106,-0.016835164,0.051215056,-0.029625023,-0.02670899,-0.06551964,0.019640645,-0.18473774,0.07547405,0.10977239,0.08889995,-0.0044628778,-0.08144898,-0.040874258,0.033149794,-0.037715398,0.12797582,0.15113787,0.043904558,0.06739787,0.05629341,-0.023570914,-0.05733722,0.02358888,0.052621193,-0.12349896,0.041056592,0.061922688,-0.10638181,-0.07923941,0.066040836,-0.08044594,0.051850397,-0.060383562,0.14011419,-0.11975786,-0.04291898,-0.054921634,-0.05805604,-0.08475355,0.0025313396,-0.06510891,-0.012437582,0.037884228,-0.024578994,0.06523104,0.0071014194,0.067234986,0.04794986,-0.0021398773,-0.04346447,0.057561357,-0.029206928,-0.11823867,-0.041330423,0.08729632,0.017962446,0.04207,-0.030026758,-0.115050845,-0.058257,-0.0027784195,-0.062418617,-0.076910734,-0.09255983,-0.06734213,-0.07420834,0.15389195,-0.041447446,0.060600545,0.058318887,0.06695482,-0.004285737,-0.05865577,0.114571184,0.06936889,-0.002960199,-0.0061834697,0.022898043,-0.086127274,0.050439563,0.018098587,-0.05528402,-0.10625997,-0.031949647,-0.027894668,-0.08644044,0.07760387,-0.060331505,0.06686372,0.052220732,-0.10341531,0.08900892,0.10079344,-0.056896053,-0.03816741,-0.08038177,0.012743439,0.015780808,-0.048650358,-0.059374105,0.1431522,0.08839087,-0.07681595,0.0831904,-0.0019925323,-0.07404877,-0.011964552,0.032140985,0.068693064,0.039664198,-0.053154632,-0.05372523,-0.15007302,0.066051304,-0.010164079,-0.0030751985,0.070773855,-0.04152908,-0.11129461,0.020447405,-0.04890532,0.02766698,0.011006897,0.121824324,0.031573594,0.085081585,-0.031385154,0.027779007,-0.023372851,-0.14416617,0.027669283,-0.08679123,-0.05240543,0.04845247,0.008407252,0.050295167,0.00088214665,0.06856187,-0.07208832,0.053700663,-0.016596975,0.03450648,-0.024939716,-0.012345114,0.04828614,0.016037876,-0.12408926,-0.14137802,-0.02423369,-0.10765213,0.0484026,-0.012286574,-0.040702112,-0.02951397,0.0064465282,0.039867267,-0.0145857865,0.1208999,0.07070776,-0.009171576,-0.05883436,0.027025843,-0.024449874,-0.027533974,0.057203855,-0.07764895,0.023648774,-0.005852121,0.05851098,-0.02882577,-0.03972115,-0.08877793,0.12923628,0.09657601,0.041623738,0.020195134,0.009726915,-0.12604363,-0.011865822,-0.054704294,-0.061971303,-0.13344267,-0.036403492,-0.08362283,0.09796849,0.12534687,-0.051238224,-0.07430267,0.10516036,0.017607426,-0.09219541,-0.07240764,0.0065729814,-0.08347414,-0.12453817,0.11102416,-0.06433657,0.06648125,0.109173745,0.10677631,-0.0046745623,-0.038593136,-0.051387142,0.008085069,0.11996517,0.123976596,-0.08660051,0.03683198,0.028789073,0.16081463,-0.021585578,0.038410436,-0.043201234,-0.021246763,0.026419014,0.113010064,-0.047681626,-0.04772211,0.078668416,0.013521867,0.03588144,-0.012908363,0.0647747,-0.06504553,0.0048072427,0.01418772,0.03875408,0.033602633,0.045738705,0.05816755,-0.13193277,-0.13456157,-0.087594256,0.1423336,0.12171165,0.059231393,0.03475017,0.0608858,-0.15325491,0.027722994,0.031156996,0.055942025,0.024711728,-0.020911798,0.087250635,0.09894375,-0.009844875,0.039012548,0.009247634,-0.043750837,0.026181174,-0.03173819,-0.022273252,-0.030497402,-0.14593142,-0.0175007,0.011028661,0.14250255,0.121134795,-0.0023544396,-0.09713765,-0.04998836,-0.079983786,0.09589918,-0.025614565,0.07487363,0.025249988,0.013552223,-0.06062175,-0.0346554,-0.1658603,-0.023261705,0.013696825,-0.014782012,-0.015545689,-0.09836892,0.061061513,-0.06214774,-0.093352236,-0.02731488,-0.10460566,0.016921226,-0.090581425,-0.02666926,-0.087853506,-0.0480386,-0.04465772,0.015389532,0.097498626,-0.080926396,-0.10135394,-0.028412824,-0.056392886,-0.07131471,0.0045386557,0.055034794,0.074323,0.012903199,-0.08522108,0.05579952,0.0966299,0.07709412,-0.035430536,-0.12157247,0.046390552,0.042133573,-0.05531451,-0.024872657,0.11964349,-0.043253742,0.056322068,0.019607231,0.039120287,0.018764354,-0.035157967,-0.03946753,0.0902107,0.102339305,-0.040755294,0.035167772,-0.0887178,0.11298759,0.13224451,0.13766314,-0.0019588557,-0.08195228,0.13283068,-0.024015106,-0.074518725,0.008298306,0.09743151,-0.07036318,0.00680742,0.017655663,-0.1151568,-0.03847307,-0.05965687,0.079203844,0.044036258,-0.048043802,-0.06483756,-0.09295014,0.052268732,-0.070775725,-0.0038521215,-0.118073426,0.012811775,-0.06563585,-0.11136149,0.11689879,0.01938464,-0.061180476,-0.027140986,-0.028315498,-0.08157619,-0.115253024,-0.09456719,0.069495425,0.07023563,-0.08631679,0.026919883,0.07900992,-0.044439014,-0.06104887,0.0061067855,-0.00020576917,-0.14323707,-0.082418986,0.03224075,-0.09006941,-0.039455462,-0.109406926,-0.060066774,0.00044368362,0.09558507,-0.019898046,0.038641214,-0.065435454,0.045774497,-0.07436549,0.08862367,0.06739963,1.9984334e-05,-0.04257342,-0.059304092,0.1299123,0.10222043,-0.0218364,-0.041735698,0.007676247,-0.07405174,0.033304732,-0.00019495204,0.042469166,-0.049915735,0.05565428,0.014346754,0.07803561,0.09446679,-0.034472432,-0.17300384,-0.04685294,0.08643201,-0.048533894,-0.097068794,0.09010468,0.072268814,0.12385878,-0.014677286,0.005428489,0.110651895,0.04700951,0.009300574,-0.024041668,-0.038903188,0.0627914,-0.07103238,-0.035990134,0.011841078,-0.14560306,0.01126486,0.057127684,-0.12316832,-0.06952708,-0.04462973,0.11038748,0.04040381,-0.025154117,0.021251848,0.04641106,-0.01442725,-0.033548303,-0.03819687,0.15038209,0.021667141,-0.047190025,-0.079126775,-0.0007105898,0.099065065,0.034514602,0.09147285,0.021896157,-0.0892284,-0.046935663,0.031539604,-0.03615023,-0.068690434,-0.1640642,0.11106422,0.00387057,0.07319887,0.0672481,0.0057135285,-0.0134077035,0.04421094,-0.06592577,0.076748565,0.021274222,-0.02582642,-0.07128191,-0.009442188,0.017685916,-0.10464112,0.006578269,-0.08134451,0.12231181,0.064410985,0.05835335,0.06243755,-0.061082244,-0.07769923,-0.00560344,-0.015506505,-0.12319719,-0.053957004,-0.044884384,-0.073542506,0.036737546,-0.009365726,-0.088194504,-0.0032812415,-0.048152927,0.04748939,0.05576656,-0.12140854,0.066218756,0.05923182,-0.06739154,-0.17646243,0.114234164,-0.1067808,-0.05062414,0.027486354,0.027494816,0.09963926,0.019677699,-0.0045160097,0.06156815,-0.07078393,-0.051850148,0.00806392,-0.013376653,0.0089281015,0.022187551,0.0153367445,0.09410301,0.11628811,0.09684805,-0.0126124155,0.06713386,0.060360145,-0.10755945,0.067548454,-0.107636884,-0.0034634066,-0.035733033,-0.07638734,-0.044300128,0.0569621,0.103762254,-0.022370176,-0.04060572,-0.122751616,0.049019914,-0.07725216,-0.032850195,0.07105312,0.053567655,-0.0623805,-0.05513806,0.093339555,0.036029693,-0.03172655,-0.10568012,-0.018401608,0.0480838,-0.026980529,0.10598604,0.007407858,0.014999424,0.05442376,-0.029204484,0.09115243,0.014607623,-0.0069488226,0.07502836,0.043061547,-0.009904248,-0.064404406,0.1397755,-0.089361064,0.059195727,0.018373335,0.05501161,-0.0934292,0.037204787,-0.08038916,-0.02794241,-0.03168999,-0.00905259,-0.0649039,-0.017802456,0.06400139,-0.12108197,-0.10961106,-0.052644692,0.1734181,-0.08269738,-0.15778664,-0.05956347,-0.023062801,0.070514284,0.018273124,-0.028754119,0.042715102,-0.08726019,-0.070182815,0.07853373,-0.12545565,0.062478736,-0.15382421,0.052744754,-0.09535182,0.065844215,-0.086739205,-0.058215365,0.07598302,0.13732079,-0.04737907,-0.075997196,-0.1368155,-0.0063663074,0.022058686,0.08002985,0.017050268,0.035730068,-0.11648707,-0.027265852,-0.014151313,0.045954213,-0.04752536,-0.010539058,0.12903745,-0.05835963,0.02819306,0.031133633,0.054103866,-0.03862893,-0.15862219,0.054548338,0.03646133,0.07935678,-0.0857334,-0.08597885,-0.024114333,-0.059724264,-0.10529849,0.123319246,-0.0064845616,-0.06600955,0.16397968,-0.07640463,-0.014966143,-0.041965935,0.057796042,-0.12224407,0.059849434,0.00819784,0.021796212,-0.09338937,-0.046337105,-0.040122807,0.048819046,-0.10099804,0.10649402,0.03004424,-0.029040022,0.007947021,-0.06649514,0.17304572,-0.048541058,0.07712244,0.037268575,-0.050169796,-0.012488007,-0.085850194,-0.08481906,0.14462069,-0.057776704,0.011968831,0.011073745,-0.07213114,0.120114595,0.059990726,-0.054269522,-0.0071217027,-0.014830219,-0.024963744,-0.07512026,0.02281228,0.07325252,0.038227297,0.098591655,0.10654855,0.044829793,-0.062481515,-0.035982028,0.039901715,-0.032162998,-0.114696965,-0.031267043,-0.011966086,-0.020642968,-0.1157779,-0.089018665,-0.0094206715,0.013545417,0.1678308,-0.1106674,0.009820691,0.0060961624,0.0583072,0.021727294,-0.096291915,0.054449707,-0.024523685,0.06425749,0.027290197,-0.057850946,-0.060148384,0.001844553,0.07861347,0.05135722,-0.086690105,-0.07201167,-0.045013927,0.048321746,0.02397518,-0.055394195,-0.041860644,0.0821897,0.043781508,-0.0043150443,-0.12471881,0.11064224,-0.083393306,-0.043380015,-0.06997608,-0.058699664,0.08591046,0.07218514,-0.040246714,0.014111072,-0.07819764,0.14454058,-0.04274333,0.06245075,-0.053372573,-0.11598896,0.024558604,-0.06310941,0.008093747,0.016071841,-0.06472843,0.006411249,0.055249125,-0.07640659,-0.068156764,-0.008202903,0.042077366,0.109484695,-0.037949476,-0.13033874,-0.057190564,-0.11951756,0.028917812,0.09617786,0.10009227,0.0428976,0.12333016,-0.064639725,-0.09800023,0.074103266,0.021910248,-0.11430783,-0.025559902,0.08463026,-0.14197591,-0.050519858,-0.014968666,-0.03998323,-0.0031150861,-0.050919045,0.15645488,-0.14791913,-0.040477242,0.015122482,0.038874302,-0.061635032,0.029022105,-0.06978858,-0.04534651,-0.09297166,-0.1124067,-0.03417452,0.029074252,0.039022412,-0.08053939,0.001837218,0.03893936,-0.0739754,0.0024842084,-0.046366263,-0.047884144,0.016302072,0.019777806,0.07516376,-0.083104886,-0.10234497,0.031971484,0.06851601,-0.031913564,0.010170701,-0.108273275,-0.045321412,-0.012210623,0.08424924,0.027085327,0.1385918,-0.06639297,-0.053287826,0.05154671,0.028896486,0.079435065,-0.009074211,0.118429795,-0.0068680705,0.011789828,-0.003980781,-0.008403424,-0.093176454,-0.019382028,-0.024369078,0.09849736,-0.06611657,0.0011446403,-0.061544266,-0.046000514,0.020978749,-0.02042202,0.055687465,0.06218097,0.14413185,0.06290467,0.023641363,0.079407945,0.040119987,0.056364268,0.03311868,-0.0052598123,-0.12910822,0.07876702,0.070672885,-0.043016285,-0.015615707,-0.024400823,-0.05879183,0.030938277,-0.0181599,0.08662388,-0.14378607,-0.09368925,0.061810017,0.07939855,-0.04521547,0.05829461,0.088185765,0.11127204,0.043850504,-0.052464068,0.08173012,-0.09350252,-0.062100492,0.02788155,-0.05093183,-0.03502574,0.023210745,-0.020831494,0.026064213,-0.03223171,0.02365594,-0.074148275,-0.028826304,-0.11422369,0.008471796,-0.11049389,0.14909205,-0.055134248,0.110955216,-0.13156214,-0.044737354,-0.071797036,0.016002085,0.013753404,-0.05641743,-0.06412941,0.003522602,0.025705036,-0.067396775,0.022118282,-0.015357991,-0.04490208,0.058451634,0.041198794,0.08125778,0.013525842,-0.092970505,-0.027036963,-0.14648251,-0.090239935,-0.10606224,-0.037138462,0.06686514,0.052756887,0.04996131,-0.031956006,0.021883577,0.07606148,-0.021351581,-0.05681938,-0.10163194,0.004099195,-0.017888399,-0.05343422,-0.00044960552,0.0074983994,-0.09023738,0.0011264101,-0.10698675,0.10019465,0.035048224,-0.050597217,-0.10208651,0.067974806,-0.03570106,-0.09417711,0.079528466,0.10519497,0.049346212,-0.025511187,0.1313153,0.08106029,0.09619699,0.063134186,-0.08218038,-0.061998136,-0.028688518,-0.009476707,-0.06847476,3.8809343e-05,-0.028337518,-0.035525277,-0.0263651,-0.06330096,-0.14782363,-0.064734116,0.114591576,0.044420533,-0.03900653,-0.121009,0.10891919,-0.050969988,-0.032941863,0.12358229,-0.08816027,0.00745325,0.014122212,0.05589811,-0.08261581,0.079252034,0.11396159,0.08807805,0.07024487,-0.072311856,0.08544933,-0.07650804,-0.06991077,-0.039213825,-0.08045272,-0.03706341,0.042788036,-0.021046083,0.07592248,-0.05558276,0.09439625,-0.13734417,-0.014068435,0.092489064,0.0099220425,0.017546512,-0.08451747,-0.0059954585,-0.023611415,-0.014054377,-0.0075294534,-0.004680305,0.019290863,0.0655966,-0.109608024,-0.13795595,-0.09674078,-0.106156275,0.182186,-0.016287083,-0.043273166,0.07145427,-0.040923785,-0.0012745194,-0.08025425,0.16937126,-0.054937202,-0.083273135,0.14194237,0.04564508,0.05934222,-0.06198454,-0.10888496,-0.09767335,-0.074625865,0.09555538,0.10918321,0.030813953,-0.013014844,-0.02160268,-0.0031162102,-0.06739811,-0.0411402,0.051707722,0.10700348,0.008364848,-0.029788872,0.031797126,0.0039443257,0.05391343,-0.10147659,0.0064122993,-0.067390904,-0.11024889,0.015803754,0.06793839,-0.05220094,0.03650827,-0.039318025,-0.0056344415,0.034543637,-0.014224627,-0.021446748,-0.101216055,-0.07204464,-0.045834646,-0.10262762,-0.082101695,-0.071186356,0.0028939852,0.039082564,0.08456078,-0.032113492,0.07003587,0.054477368,0.01772543,0.017722405,0.043400805,0.035605315,-0.031639434,-0.12711307,0.059616357,-0.05858175,0.06449726,0.015938537,0.029067272,-0.021914715,-0.1532384,-0.07695503,-0.108349204,-0.02215442,0.06258424,-0.03973485,-0.067942664,-0.072574615,0.007446822,0.0035805122,0.060478844,-0.02099917,0.049196478,0.11170427,0.064222135,0.04606899,0.011549543,-0.030062277,0.001589522,0.043864284,0.005079772,0.018194875,0.051560305,-0.07319797,0.06465248,0.1279914,0.0796231,0.017225096,-0.053610146,0.04130773,-0.0047855116,-0.116599455,-0.0454298,-0.06285819,0.053421672,-0.03606381,0.013712772,0.02804197,-0.03102375,-0.05074462,-0.09035225,0.1291143,-0.08606049,0.092999086,-0.034755547,0.0076298527,-0.10834053,-0.010675562,0.05679134,-0.005652298,0.05197985,-0.0506495,0.05280821,0.056136824,-0.049348574,-0.08096303,0.057664394,-0.045449104,-0.041496538,0.06590948,0.15010265,-0.004925102,-0.0063060517,-0.015011,0.007334662,0.043675706,0.04350664,0.0055895774,0.0016932442,0.08129036,-0.104007035,0.055874225,-0.022345882,0.061038367,-0.06826042,-0.046478927,0.0634694,0.12822734,-0.122945696,0.05824126,0.05973668,-0.044240825,0.09512269,0.009138076,0.09640715,-0.021785015,-0.029804705,0.056517065,0.06369895,0.055790223,-0.03842072,-0.065348394,0.11934623,-0.040063974,0.046069745,-0.015509349,-0.07670675,0.10732771,-0.08262168,-0.05498209,0.0060314815,0.043312706,-0.0151637625,0.0629362,0.09990049,-0.12467163,0.03417638,-0.049691346,-0.038549826,-0.13769197,-0.09497193,-0.10411687,0.03066281,-0.042674292,-0.030490663,-0.06748493,-0.028807286,-0.031832777,0.0028940025,-0.0272696,-0.077731125,-0.0013562741,0.07753718,0.02872693,-0.07336054,-0.039298516,0.049776807,0.13930072,0.06359795,0.02715848,0.110924006,0.09386015,-0.11025487,0.04314156,-0.084693514,-0.032723945,-0.09211774,-0.014887044,0.014009035,-0.06594113,0.119286075,-0.057981893,0.0021859587,-0.005837737,-0.10988375,-0.15142244,-0.0102900965,-0.04181202,0.08105002,0.04462884,0.02394638,0.0060826764,-0.00779556,0.027464526,-0.05106073,-0.08764263,0.065659456,-0.07607042,-0.1223128,0.12502322,0.10006824,-0.103519775,-0.1036352,-0.035947766,-0.10254599,-0.1318242,0.015282477,0.056566495,-0.08774789,0.13815767,-0.049641896,-0.06017084,-0.06312701,-0.10903319,0.07497232,-0.008700899,0.032427154,-0.047238268,-0.045184255,0.077263296,0.024033953,0.015665397,-0.07792752,0.010107884,-0.04558438,-0.063271485,-0.05717179,0.004836288,0.11040588,-0.09580405,0.015729234,0.0043876073,0.23617789,-0.119135514,-0.04255012,0.043819554,0.12888892,-0.11128282,0.10340187,-0.05438008,0.008222431,-0.12520903,-0.041260242,-0.030986756,-0.073725425,0.109951854,0.046719078,-0.114107475,-0.07970311,-0.034390815,-0.003284129,0.060969964,-0.081828594,-0.020533673,0.0077283555,-0.00085444946,-0.034207933,0.061808266,-0.05376985,0.037109174,0.09008393,-0.050995868,-0.06580934,-0.10694517,-0.07889369,0.004542194,-0.09943449,-0.021862326,-0.08343462,-0.024492672,-0.028337464,-0.08873547,0.05608038,0.08499515,-0.012885496,-0.0175729,-0.021761721,-0.028153755,0.06199947,0.05489211,-0.014642815,0.061093602,0.10964023,0.046683483,-0.05128565,-0.01186551,-0.039263736,0.043540135,-0.14058095,0.07462851,0.014519407,0.022737358,0.02181291,0.0051075057,0.052606918,-0.0040769917,-0.040795345,0.056623507,-0.13092291,0.0040261135,-0.047202356,0.03246388,0.08687333,-0.07727448,0.018845543,-0.19428642,0.09745954,-0.14919664,0.16239329,0.03851231,-0.122529835,-0.10378107,0.053400625,-0.05277378,0.0069332793,0.09305589,0.052674863,-0.043875474,0.0032316272,-0.12997653,-0.040397324,-0.012187212,0.040410876,0.057839468,0.10759818,-0.01839419,-0.06863661,0.00036626137,-0.04037843,0.02961769,-0.087391764,0.052954488,-0.03952631,-0.036012877,0.029254878,-0.06007791,-0.043306906,-0.0011749913,0.025074754,-0.07342482,0.07720812,-0.03121512,-0.07294779,0.08764029,0.0033523748,-0.14022298,-0.042644203,-0.009398204,-0.07314104,0.047355097,0.101978414,-0.013905535,0.046056528,-0.03971017,0.16524081,-0.015113965,0.038310476,0.02924828,-0.02885561,-0.02822114,0.07582909,0.096586436,0.051175017,-0.0059762043,-0.08527352,0.032195993,-0.06397449,-0.059776492,0.07937889,0.030504972,-0.01775617,0.03282804,0.11977607,0.06253073,-0.034737945,0.010173914,-0.06788891,0.04977978,0.08611367,-0.011158326,-0.05096965,0.013445383,0.009467439,-0.11508935,-0.0052149533,0.005031477,0.00940231,0.029538734,0.0657897,0.07254075,-0.063006125,-0.0791906,-0.029210132,-0.1666848,0.092565805,0.011636677,0.04319674,-0.08539242,0.10859991,0.025230458,-0.09018538,-0.055796746,0.017400892,0.06128084,-0.027126787,-0.113371484,0.05099368,-0.03768585,0.11004621,0.11729857,-0.030930938,0.076120235,0.011039921,0.08025358,0.07315751,-0.08991435,0.12113381,0.07385425,-0.028826628,0.024837147,0.050596584,0.051168166,-0.07264691,0.025052253,0.030453166,-0.087716185,-0.034486637,0.024977105,0.13052024,-0.10975535,0.051187493,0.059767716,0.025097998,0.13061778,0.027080707,0.10396322,-0.12555748,0.024191158,-0.0030390217,0.0042772144,0.024925338,0.02762506,0.016059857,-0.13852726,0.034973312,-0.0018292039,-0.0016300291,0.15121411,-0.03585779,0.02422177,0.053949762,0.08258404,0.049174067,-0.07584657,-0.057182226,0.14910522,-0.02447287,0.19540922,0.059320047,-0.10755605,0.06563132,0.07551241,-0.024841512,-0.124416985,0.046332214,0.057940125,-0.015505454,0.026215207,0.00021099967,-0.09929885,0.028400108,0.024284612,0.0172145,-0.13879351,0.026004009,0.104164995,-0.06543407,-0.064454176,-0.037608467,-0.093881644,0.031246856,-0.051340435,-0.14276928,0.11153432,-0.08377854,0.05232749,0.0974218,-0.07277725,0.037840568,-0.064173155,-0.07507466,0.05700145,-0.08666475,-0.09617474,0.08547412,0.086791135,-0.05484506,-0.13019459,0.040218536,0.010433961,0.08348107,0.07261226,-0.0122280065,-0.023639336,-0.075919524,-0.011124718,0.015837785,0.113212,-0.07485481,0.0524912,0.09420953,0.12351615,-0.0017883264,0.101154596,-0.0053153164,0.05815524,0.025764111,-0.033967003,0.038376704,0.0017462856,0.08114709,0.053678464,0.08120604,-0.09145249,-0.0070450245,0.12491818,-0.014762398,-0.065906614,-0.07856071,-0.0040190388,-0.020370215,-0.08241022,0.094743475,-0.11229495,0.038467344,-0.019346477,-0.1148337,-0.018857542,0.0064324364,-0.008364108,0.111575186,-0.012808828,0.028608225,-0.016515402,-0.11058422,0.010649361,-0.04910691,0.13031021,0.051982794,-0.07240387,0.0010235872,0.084556475,0.09535262,0.11954833,-0.081892185,0.007091055,0.06473293,0.12707438,-0.17705213,-0.034034707,0.0009954436,-0.03811339,0.048498437,0.112531684,0.033516295,-0.04230893,0.04157007,0.11852715,0.01471032,-0.07123437,-0.033818506,-0.010493174,-0.17370613,0.072505966,0.028945997,-0.006601375,0.008279955,0.008423694,-0.035539854,0.04693187,0.037542615,0.052060347,-0.09699175,0.017461983,0.017214207,-0.0220184,-0.050771877,-0.03513836,-0.044967167,-0.03083138,-0.073016465,0.053055804,0.021982547,0.0012413847,-0.008626969,-0.104417145,-0.044220444,-0.03498891,0.028095912,-0.036798824,0.07933906,0.03612387,0.06423771,-0.035067555,-0.061131142,0.05492181,0.022533534,-0.034744542,-0.023255331,0.02760361,-0.009169549,0.12714154,-0.098086424,0.03204298,0.15178573,0.04237736,-0.02020245,-0.05738614,-0.036218293,0.1173507,-0.0051399576,-0.05262049,-0.12029253,0.08784881,0.031628918,0.0017839201,-0.07575492,0.06829863,0.10263432,-0.02902599,0.056283068,0.059168633,0.13672552,0.041321434,-0.08020502,0.09110615,-0.0067458414,0.02054285,-0.052631345,0.10997012,0.100523256,0.08561696,0.105328925,-0.049922224,0.020311808,-0.01529667,0.0071309414,-0.118825175,0.00958272,0.061157834,-0.07703493,-0.06503419,-0.0054645836,-0.02051716,-0.08175474,-0.05965895,0.076577485,-0.07180487,0.039662227,0.04367386,0.024174003,0.10656973,-0.115824,-9.4547926e-05,-0.07478112,-0.022508806,-0.01113093,-0.047180988,0.03082384,0.11446998,-0.006146921,0.03976352,-0.12431186,-0.05120305,0.08711619,-0.0079559395,-0.038323242,-0.052559268,-0.011327639,0.09462329,-0.09263868,0.09100015,-0.076918334,-0.02282589,-0.013345974,-0.11781017,0.09111399,-0.052223187,-0.10857742,0.05141497,-0.01295408,-0.09322018,0.107100025,0.028706443,-0.02615478,0.060253937,-0.08573366,-0.11887434,-0.0947437,-0.104789905,0.008371572,-0.06797452,0.047142975,-0.056199048,-0.0032987057,-0.07699148,-0.04764883,-0.06526454,0.10218622,0.06258125,0.010860878,-0.092703134,0.036019135,-0.101561904,-0.052119985,0.21952696,0.038970336,-0.023088735,-0.056663144,-0.055985782,0.021836394,0.059956893,-0.001101191,-0.018731127,0.10308238,-0.05633178,-0.06926656,0.061272252,-0.048805963,0.04926428,-0.01815583,-0.1657357,-0.04125085,0.057599355,-0.05303101,0.04881877,0.0400499,0.009172643,0.046099372,0.0098594045,0.0039439355,-0.17111468,0.0033743654,-0.024825571,-0.017450714,0.07933399,-0.005949892,-0.035954405,-0.031200841,0.053126488,0.09007942,-0.045959014,0.116538964,0.011789556,0.08120504,0.0016695206,0.07623917,-0.10607486,0.049902543,0.026003975,-0.112492464,-0.058304314,0.1143876,0.042868108,-0.12897794,-0.09563498,0.013859464,-0.04905066,-0.012643881,-0.04208728,0.02827183,-0.028904554,-0.10859766,0.027707234,0.056623515,0.043082505,0.011213988,-0.02883035,-0.025353262,-0.14107233,-0.08487372,0.09246684,0.10884904,-0.06647039,0.04730533,0.033506405,-0.015485215,-0.10400833,-0.06433331,-0.16757976,0.08742495,0.1035895,0.096635416,-0.029059077,0.07965334,0.015733965,0.053761076,-0.016592873,0.023758156,-0.024745978,0.013490053,-0.02830128,-0.007185015,0.10435342,0.020158058,0.08068584,-0.053381342,0.03567739,-0.041575007,-0.046800002,0.038068347,0.023961129,-0.057000387,0.12006412,-0.05300129,-0.06847503,-0.030147132,0.014442336,-0.0105052795,-0.014552186,-0.0069419467,-0.027340285,-0.054010868,0.02298151,-0.022142457,-0.0461974,0.02646207,0.18432893,0.017751839,0.051081907,0.031492934,-0.010165278,0.07061826,0.029648356,0.126238,0.022992557,-0.02234548,-0.009409268,-0.087524936,-0.11293322,-0.0070537473,0.02121904,0.065725625,-0.07410597,-0.011193263,0.049740244,-0.0110574495,0.03765959,-0.019660095,-0.06755168,0.07933871,0.06847976,0.06985992,-0.086524226,0.06996782,-0.100120686,0.091024846,-0.029664192,-0.10181862,-0.0305559,0.092684604,-0.009871333,0.15180087,-0.084566616,-0.039665952,0.05551736,0.13399564,-0.042490657,-0.03722571,0.0595728,0.0041089193,0.082131326,-0.055338204,-0.0101752905,-0.05484452,0.10439431,0.08636611,-0.047172938,-0.042766698,-0.025868163,0.07805734,0.00890472,0.07458649,0.0698024,-0.0026034438,0.025597744,0.052477803,-0.046310626,-0.120653756,0.10964277,-0.0457006,-0.10094015,0.0017189933,-0.1311095,0.074518904,-0.0060654255,-0.01821578,0.060223218,-0.10695279,0.05564953,-0.050531797,0.088123746,-0.03257332,-0.07669745,0.13551795,-0.031704616,0.0066189347,-0.050458077,-0.08266966,-0.06779019,0.016487727,-0.021988288,0.0066008233,-0.14926721,0.026547717,-0.032805882,-0.039189305,-0.03687945,0.15714233,0.057672005,0.059371926,-0.065051906,-0.11652808,-0.009126546,-0.03230662,0.051488206,0.013534922,-0.09347357,-0.10041742,-0.011270862,0.12594299,0.0042737233,0.10745599,0.07135523,-0.04191343,-0.060406376,0.10272067,0.058121085,-0.044571955,-0.031532463,0.13801153,-0.07127425,-0.040924624,0.04249527,0.028529277,-0.04128147,0.09043043,0.10744116,-0.12555766,-0.04283341,-0.035940755,0.09857731,-0.056923922,-0.050602414,-0.08390264,0.040674254,0.043758612,-0.001623811,-0.12073766,0.03604774,-0.046651587,-0.0050771567,-0.11281685,0.0032381606,0.07010913,-0.006682616,0.0949573,-0.016374547,-0.11740306,-0.020261431,-0.02336354,0.057438172,0.12768935,0.088399835,-0.10611188,0.10482323,0.08020984,0.012764558,-0.023798287,0.03833206,0.056570012,-0.035912085,-0.033832442,-0.047733918,-0.05167565,-0.066118665,-0.0017138544,0.0016947053,0.028761644,-0.009440219,-0.10303315,-0.029566057,0.104273394,0.016936649,-0.078265004,-0.015849758,-0.06571595,-0.11057638,0.00053801644,-0.0952693,-0.008369534,0.020639155,0.070255965,-0.00046504114,-0.018547919,-0.025227088,0.0410624,0.14675799,0.028456137,0.07099678,-0.12541547,0.08657552,-0.08058304,-0.112589,0.055106215,-0.007974385,-0.007059013,0.009265174,0.034445416,0.01802798,-0.07329909,-0.033169508,-0.05990636,0.14362252,0.020676913,0.0021220897,-0.032632988,0.10693581,-0.050318953,-0.00344319,0.09204271,-0.02745697,-0.07471997,0.039804954,-0.034421433,-0.042664327,-0.06191252,-0.024933752,0.010291836,-0.05203916,0.06559434,0.032067824,0.11690146,0.03412552,-0.11296763,0.025493994,-0.04417937,0.076628715,-0.039330166,0.09022589,0.051441997,0.09378942,0.0827727,-0.01313608,-0.012659616,-0.024643872,0.006673775,-0.11425589,0.17711331,-0.064645685,0.020285193,0.0042840852,-0.03064667,0.03978799,0.0076504755,-0.07625746,-0.037762113,0.043230947,0.058752265,0.028476479,0.03979293,-0.102555715,-0.056446448,0.08835426,-0.0835846,-0.0033307474,0.05132571,0.023439584,-0.13866988,0.17522493,0.041860208,-0.06909242,0.012717453,-0.023159001,-0.03843097,0.024375398,-0.13018318,-0.092515655,0.017870607,-0.14274777,-0.11617421,-0.094634265,-0.05958084,-0.022277977,-0.0002992971,-0.04377396,-0.05415859,0.030474732,0.1661378,-0.054959424,-0.066153936,0.073505,-0.0028214117,0.06327426,0.042172074,-0.067624584,-0.0063494686,-0.016190281,-0.06270608,-0.015398708,0.062751375,-0.1385265,0.00425151,0.04514904,0.10409325,-0.085675634,-0.105111286,-0.07379505,0.018938791,-0.05653479,-0.003826007,-0.012418971,0.047428995,-0.07653863,0.036039855,0.02766324,-0.0063609728,-0.08029025,-0.029487083,-0.012731791,-0.026625136,0.038929638,-0.03162029,0.15497987,0.039631344,-0.048620027,-0.10426149,0.06862162,0.20664473,-0.087433435,0.12875961,-0.0011585924,-0.008780279,0.061248466,-0.032672714,-0.054504097,-0.048013035,0.018614585,-0.106159836,-0.02406125,-0.018936146,-0.014493527,-0.01753543,0.080746755,0.05962053,-0.048650045,0.05927143,0.107980624,-0.107208245,0.044228744,0.11466584,0.09589621,-0.057349965,0.1108004,0.08120677,-0.09548554,0.09779512,0.08323463,-0.13870093,0.03846073,-0.02973476,-0.006659022,0.00738119,0.007760422,0.010652752,-0.01661103,-0.15680759,-0.10845135,0.04379482,0.1128521,-0.0114870705,-0.034704536,0.12124153,0.015199171,0.044800475,-0.014263092,-0.016100459,0.025439566,-0.06678113,-0.081817925,0.031624243,-0.05905219,0.104259826,0.0034414118,-0.027752027,0.07219969,-0.036621604,0.0074970205,0.060669072,-0.0685038,0.074368134,-0.091753125,-0.0069288057,-0.043295026,0.037265703,0.018706787,-0.020360142,-0.089244574,-0.061184324,0.08595189,0.014275284,-0.029598517,-0.080649406,-0.07767958,0.04083768,0.04137751,-0.13116989,-0.071004085,0.0010894792,-0.013878829,0.0643943,-0.039534308,0.10720543,0.0727981,-0.09000518,-0.017437989,0.010452498,-0.048397686,0.103075765,-0.098686226,0.12407001,-0.0019534566,0.086955935,-0.07913115,0.040293492,0.046976455,0.07284526,-0.018542375,-0.09817916,0.14642702,-0.003661556,-0.063351795,-0.04975534,0.15963486,0.14420678,-0.041670937,-0.054752544,0.059915327,0.08311685,0.02969302,-0.0005830235,0.037175916,0.078401715,-0.01701382,-0.022515481,-0.00040966124,0.06864537,-0.06947554,-0.07057069,0.005644728,0.043838277,0.0948535,0.054987866,0.04154416,-0.10682636,0.012052073,-0.022797706,-0.1675944,0.019964712,-0.011100553,-0.07736372,-0.0031486617,0.012620999,-0.04738369,0.05553395,0.08702811,-0.014431232,-0.04994653,0.0038098316,-0.08807555,-0.012328278,-0.09971456,0.07566917,0.016117746,0.09129142,0.068349466,0.01562587,-0.102242105,-0.040962007,0.054132,-0.08721732,0.09009867,-0.067507625,-0.0310315,-0.14445055,-0.05997035,-0.04803585,-0.03305819,-0.021505058,-0.07403807,-0.043224595,0.000498356,0.061246563,0.07616274,-0.052066747,-0.16405416,0.0025118075,0.07211985,-0.09329185,-0.0158911,0.12537985,-0.0291413,0.05854818,0.012702907,-0.06182832,0.0038983454,0.08015698,0.08966043,-0.03382977,-0.022820476,0.19049472,0.0960864,-0.044246405,-0.027351543,-0.06764919,-0.06055308,-0.003913634,0.032598153,-0.07856555,-0.0036673448,0.029697789,0.036630206,0.06001933,0.0009738722,-0.068312526,-0.05470916,0.030131737,-0.00024848423,0.0007660407,0.028739255,-0.123691864,-0.08279747,-0.08953452,-0.037640944,0.08297893,0.04142227,-0.0393533,-0.005659275,-0.09729759,-0.015647734,-0.050456803,-0.10462194,-0.027559118,-0.06725662,0.002198633,0.04839717,-0.03937647,-0.015577556,-0.08617336,0.094552204,0.04006907,-0.038886122,-0.054478537,-0.024461104,0.056502353,-0.093215585,-0.05780671,-0.039876375,0.12894887,0.044001058,-0.12159338,0.06313775,0.119802274,-0.11610293,0.015870765,0.005648353,0.080877185,0.05503425,0.06275008,-0.1516695,-0.0054496005,-0.04250367,-0.004712203,-0.023713779,-0.12036037,-0.10516718,-0.02418802,0.087148435,-0.09791548,0.055861205,-0.035970528,-0.08925401,-0.09818382,0.14681973,0.032896277,-0.03321276,-0.020672238,0.0673732,0.013074602,0.025946666,-0.03958783,0.12414193,-0.1141876,0.1080915,-0.030821668,-0.10182409,-0.04275509,0.14015914,-0.1344163,0.14447266,0.06316632,-0.06996537,-0.07106918,0.052996267,0.057267737,0.04581197,0.03502185,0.09564379,-0.0042823376,0.054352183,0.049845774,0.037069794,0.023813268,-0.053339247,0.06807687,0.07567292,-0.08682366,0.06434266,-0.039951324,-0.014480111,0.044461887,-0.018595932,0.15504473,-0.08547798,0.07486644,0.010294572,0.08524648,-0.108246244,0.080969684,-0.10873633,0.03408761,-0.06460292,-0.03980589,-0.09650409,-0.0341206,0.04791571,0.06529944,-0.1295489,0.11115733,0.13716473,0.043603946,0.08531897,0.023362566,-0.0068930504,0.071009144,-0.08271446,-0.05159455,-0.011341073,-0.033423122,0.079158194,-0.0067725345,-0.012451692,-0.037369423,-0.045294423,0.09558414,0.0353387,0.015173553,-0.0010210044,0.101223774,-0.018729595,0.11717883,-0.002030698,-0.06517152,0.0948362,0.041009586,0.0154184885,0.055962946,0.0833846,0.069921665,0.06232274,-0.008520505,-0.06430398,0.028075457,0.104437485,-0.0009047473,-0.053034354,-0.0035937116,-0.017436547,-0.06308739,0.013072356,0.017362341,-0.033065986,0.04402998,-0.017277554,0.10368127,0.041341532,-0.072951615,0.08877189,0.015855385,-0.07380101,0.09251794,0.010748249,0.00622633,-0.049901865,-0.01467653,0.03184876,0.12582764,0.091544665,0.055803366,-0.11899647,0.094376475,0.08843694,0.119416915,0.038973335,0.087010205,-0.051766597,0.048883792,-0.0022052855,0.029438399,-0.026475664,-0.11338382,0.15190768,-0.049675535,0.09829542,-0.048657358,-0.014353066,0.012148612,-0.011125279,-0.0018553395,0.010636484,0.052638844,0.052994076,-0.034775693,0.040867347,-0.079506345,-0.103904024,0.024085078,-0.032106515,-0.11076446,0.04658957,0.009797473,-0.019966466,0.026459744,0.07682472,-0.0068242424,-0.009374538,-0.010089294,0.024004074,-0.026914094,-0.060088214,0.010322292,0.12339433,-0.04664748,-0.047269806,0.11500035,0.1649579,-0.0042383675,-0.04328268,-0.0062861163,-0.08318784,0.035675954,-0.03985964,0.059168614,-0.010878658,-0.08579583,0.04185894,0.05512462,-0.039414763,0.030023798,-0.03575703,-0.016086683,0.107395254,0.10085685,-0.058328066,0.11154443,-0.07707374,0.034045912,-0.086277336,-0.040866178,0.18373148,0.0448597,0.12741898,0.014831461,-0.047013227,-0.027749214,-0.005792579,0.045519464,0.07395006,0.057342548,-0.06384024,-0.053293534,-0.010738822,-0.13751918,0.04281897,-0.012252234,0.11073166,0.16195,-0.058858473,-0.020676514,-0.05914601,0.09603664,0.017312974,0.012862819,-0.009414298,-0.02266022,-0.08129315,0.075830214,0.033818673,-0.12759438,-0.0032134126,0.021101482,-0.07091988,-0.042232532,-0.11031573,0.0378276,0.09215358,0.04793037,0.05611373,-0.060397,0.056373734,-0.086095996,-0.034070384,-0.026810693,-0.013542096,-0.10995475,0.027161304,-0.050128434,0.01227616,0.029723365,0.07047363,-0.009210243,0.031199537,-0.021606304,0.05190573,-0.032754693,0.0057872515,0.105563976,0.025595985,-0.029941062,-0.04892409,-0.06535013,-0.042354513,-0.13130748,0.07664014,0.07917662,-0.14188257,0.041658096,-0.0044737067,0.049146865,-0.016652912,-0.04441067,-0.06437624,-0.018218378,-0.04300538,0.037792277,0.1349498,-0.11533461,0.119401336,-0.036438208,0.0045693545,0.018275643,-0.02680436,0.0423924,-0.05688408,0.114831716,0.015720958,0.01755254,-0.015837079,-0.0571298,0.03800304,0.011242747,0.022941444,0.082133226,-0.03803018,-0.11745018,-0.017883003,0.10270994,0.117753476,0.016499856,-0.08663452,-0.043542035,0.049508095,-0.05234763,-0.04995809,0.10991013,0.06254909,-0.065728694,0.045137763,0.076144665,0.031833902,0.036100987,0.0036064938,-0.105915956,-0.08098379,0.07885979,0.030386506,-0.06754941,-0.111677736,-0.13539295,-0.016615687,-0.052801985,-0.05062749,-0.1398096,0.04378214,0.13552547,0.10607592,0.06556343,0.06271923,0.0022058194,-0.010924696,-0.08898078,0.029468587,0.17625551,-0.027737325,-0.02725267,0.0020946553,-0.16420405,0.062282402,0.055829555,0.023804387,-0.025663566,-0.057330027,0.07688788,-0.09077481,-0.021139441,0.06507639,-0.030581519,0.048363503,0.0633185,0.016557137,-0.030766208,0.048177615,-0.021212807,0.08269792,-0.102802366,0.032619357,-0.059692886,-0.031470038,-0.1240858,0.07727346,-0.0023392732,0.11144565,0.010671945,-0.06651831,0.037356846,-0.07961149,0.0170712,-0.15508117,0.07243895,-0.024274701,-0.15053184,-0.030333322,0.092813425,-0.035574995,0.030599192,0.042255264,0.042283796,0.025088213,-0.037208647,0.008914628,0.012638787,-0.063846245,0.007109036,0.02476305,0.14965843,0.0046535754,-0.067013346,0.023709308,0.016809473,-0.105811566,-0.052093696,-0.010268815,-0.14712133,0.10392073,-0.04174478,0.06625266,0.029736184,0.11183064,-0.10685543,0.016815059,-0.012851787,-0.016757991,-0.010197461,-0.08767462,0.06955005,-0.04418449,0.029394174,0.05606647,0.006998609,0.051671915,0.049700204,0.073801026,0.07984152,-0.0783789,0.023153229,-0.11763917,-0.07263023,0.008508712,-0.13572636,-0.13862097,0.048591077,0.05467373,0.059315063,-0.06503168,0.09525812,0.037706256,0.01577387,0.011394975,0.03993515,0.10420276,-0.023879457,0.027562715,0.0411478,-0.07666263,0.04174437,-0.042711314,0.031349994,0.0215192,-0.06943444,-0.1331887,-0.106755994,-0.054492094,-0.124373406,-0.065512024,0.06767064,0.03175033,-0.0253732,0.07792252,0.042291444,-0.09598266,0.066755384,0.04516064,0.030749135,-0.010183432,-0.05554431,0.08287634,-0.14383191,0.056269754,0.01020017,-0.06925993,0.038266763,-0.006506895,0.008114289,0.027564906,-0.015732804,-0.027596503,-0.114216045,-0.031310253,0.040630903,0.1450901,-0.102008834,0.12509422,0.08395592,-0.085260145,0.0630068,0.028082708,0.06861734,-0.11423773,-0.031162482,-0.008510852,-0.052027173,0.05063749,0.039514855,0.024119996,0.036578357,0.042331964,-0.059349548,0.05381895,0.024425413,0.015469508,-0.04828409,-0.025196083,-0.04917341,0.12248417,0.020578446,0.04327638,-0.07670091,0.016639547,-0.06153141,-0.05129386,-0.030124594,0.017631311,0.026195351,0.024885785,-0.05849925,-0.13504502,0.095193654,-0.022916133,0.049663696,0.030753644,-0.011491502,-0.108184546,0.018641135,-0.093493454,0.035728015,-0.031057507,0.01323716,0.07616364,0.0756059,0.079443656,0.092494376,-0.10729754,0.111232765,-0.0915213,0.0730353,0.16345626,-0.032110617,-0.14988464,-0.02150549,-0.05211849,-0.15975657,0.056272812,0.078240365,-0.028734345,-0.064794645,-0.0035598984,0.13267002,0.012413463,0.09331559,-0.02989575,0.031082029,-0.1073019,-0.07625308,-0.08803709,0.09722545,-0.0058662486,-0.07044377,0.0042093657,0.0019130796,-0.046884384,-0.069980085,0.059220914,-0.047022603,-0.113091946,0.059552457,0.07081553,-0.006374405,0.01714383,-0.017781517,0.08188717,0.0523387,0.033326484,-0.04754792,0.01827328,-0.038304605,0.043522596,-0.06621942,0.0660925,-0.030346591,-0.03833697,0.08305418,0.0020572937,0.11322025,0.18962365,-0.014211411,0.030406242,-0.071691416,-0.019716926,-0.014116377,-0.13541968,0.10869906,0.08754435,0.11341529,-0.04372122,-0.015077558,0.01043505,-0.14449657,0.036674153,0.11058225,0.070188865,-0.02999794,0.060134225,0.02920865,0.01922564,-0.123912685,-0.1404596,-0.052255917,-0.013488756,-0.10094551,0.0007499641,-0.050225705,-0.12079276,0.065683566,0.042598937,0.061981354,0.033196613,0.04779884,0.03349932,-0.008866368,0.051880527,-0.082763486,-0.13940014,-0.08315409,-0.0067015407,0.023648053,0.045279603,-0.17072015,-0.13557854,-0.010105358,-0.029836386,-0.08585227,0.046639692,-0.029298486,-0.06216273,-0.0966418,0.07593581,0.034288198,-0.076426566,0.06335256,0.21468797,0.02045,0.018821532,0.015674762,-0.062395155,-0.053959344,0.02984338,0.08936356,0.043747872,0.10587562,0.0050104177,-0.0074763033,0.009259003,-0.041841898,-0.035766095,-0.032528084,-0.0014437917,-0.03200235,0.04929187,0.03446469,-0.024562608,-0.072699904,-0.050296195,-0.026913345,0.034422733,0.06255991,-0.035058975,0.044316493,-0.027495034,-0.08661033,0.077818386,0.013434042,-0.041260663,-0.14916962,0.008648845,-0.027927963,0.056669842,-0.055112395,-0.07582272,0.08332619,-0.019173851,-0.03518715,0.046075463,0.04381905,0.0091858115,-0.08823154,0.14891753,-0.0757445,0.092568666,0.019955704,-0.043355174,-0.04829142,0.07293854,-0.02389151,-0.019778112,-0.020072132,-0.101024516,-0.006808466,0.005259443,-0.10430905,0.01294805,0.016913489,-0.15236636,-0.061558228,0.0086726025,0.035466284,0.0036349653,0.0026158886,-0.10791279,0.13377161,-0.053387024,-0.06486956,0.06932708,0.045347687,-0.038753152,0.05692037,0.024523262,0.13415603,-0.0058691744,0.024420742,-0.043066494,0.0375812,0.073402606,0.0054392843,0.06982796,0.08042381,0.0368528,0.017080732,-0.009205795,0.10307938,-0.038740158,-0.12929696,0.12402144,-0.14866784,-0.035793636,-0.04683543,0.056931525,-0.073770665,0.011462569,0.04324424,0.045483727,-0.053147625,0.012056042,-0.11107548,0.07474038,0.034220558,0.026208317,-0.11652695,-0.017522557,-0.10950078,0.069846645,0.02726495,0.030486654,0.094830535,-0.1028623,-0.049387336,-0.07057018,0.09230683,0.04526739,-0.013790466,0.054213364,-0.07127502,-0.04625227,0.035279438,-0.09806672,0.082898945,0.1583809,0.06743108,-0.011209409,0.092159964,-0.09656739,-0.08109348,0.07967603,0.08673901,-0.034548648,-0.08520927,0.06754086,-0.042052377,-0.029847998,0.13343176,-0.034274362,-0.021239799,-0.0678098,-0.0070810476,-0.10479181,-0.09657129,0.002586359,-0.00034164454,0.003841269,0.07206303,-0.05866821,-0.04817173,-0.085997544,-0.048308514,-0.004377886,0.12367134,0.044271376,0.041038834,0.070054494,-0.08220553,-0.04640041,-0.049521197,-0.014016565,-0.13052756,0.06848633,-0.051417608,0.013473863,0.047440387,-0.09531736,-0.03030123,-0.06977796,0.03932633,-0.008095776,-0.11098426,-0.0635063,0.0187694,0.14070246,0.02079923,-0.02111104,0.06816005,0.06419521,0.12231131,0.05485709,0.033395857,0.065132506,-0.009270316,-0.016189987,-0.114488654,0.022153948,0.06923457,0.01647457,0.06147558,-0.06497956,-0.007533306,-0.168648,-0.055008337,0.07206582,-0.052089646,0.01777858,0.011957862,-0.090539336,0.06433088,0.094535194,0.026058331,0.047808927,0.10274089,0.09041988,-0.08637062,-0.0864329,0.09345069,0.017675025,0.0029950873,-0.18994677,-0.024278622,-0.1211096,-0.009475727,0.064477324,0.076815166,0.00398117,-0.061117396,0.0034852924,-0.0005412702,0.05443481,-0.068290904,-0.013233897,-0.08950354,-0.16371818,0.028010685,-0.007560133,0.011779611,-0.027306058,-0.019450266,0.029258877,-0.18461682,0.023314267,-0.15333344,-0.016824648,-0.08284382,0.08666458,0.07300853,-0.0007832874,0.13228573,0.028116709,0.030805955,0.046721634,0.107041925,-0.11247278,-0.07651178,-0.06434051,0.021663213,0.08820606,-0.011393797,0.051513564,0.011016943,0.04232881,0.05767014,-0.036758035,0.118666954,0.0457029,-0.026271941,0.017759807,0.01758171,0.08729513,-0.0029364966,-0.12518801,-0.038497213,0.10664972,0.07352079,0.02531982,0.09629368,0.046832766,-0.09290654,-0.05360865,-0.11159332,0.03780723,-0.0074507017,-0.058631554,0.10607764,-0.023857027,0.08561332,0.11282082,0.06898904,-0.034403566,0.040505037,-0.13053492,0.033005305,0.049389664,0.026779957,0.028293941,-0.07448685,0.048531406,0.12603405,0.051703755,0.09145224,0.021357471,0.047347866,-0.07376473,0.078034386,-0.0183392,-0.10742795,-0.059512425,-0.041120846,-0.016624201,-0.009096676,-0.04294507,-0.05271532,-0.07110616,0.11821889,0.0020346693,-0.008548224,0.0130845085,0.0048482353,-0.04373483,0.10494859,-0.034689732,-0.0060810097,-0.035734136,-0.046124663,0.07191772,-0.11683569,-0.03591889,0.14860766,0.061805632,-0.07264805,-0.018407037,-0.07443402,0.17176527,0.012833703,0.04494467,0.043720827,0.06350184,-0.025079407,-0.14779358,0.027822955,-0.037035715,0.015471233,0.024720857,0.003372574,0.10727631,-0.03546391,0.04084093,-0.098334484,-0.055813733,-0.052600805,-0.06870156,0.05646761,-0.12486941,0.025809674,-0.09832412,-0.012615375,0.02652345,0.087799415,0.031199226,-0.0035805386,-0.05232962,-0.0369386,-0.034389157,-0.048470013,-0.07646929,0.04868411,0.014278751,0.0036699197,-0.048513766,0.16699585,-0.10470089,0.04113077,-0.10900294,0.0758467,-0.06890746,-0.05505347,0.13966605,0.0003974908,-0.021264369,0.025827585,-0.0025870737,0.039560646,0.17183842,-0.009580781,-0.02303144,-0.06357009,0.006459032,0.0086181555,-0.005201088,0.02296428,-0.0220893,0.06689656,0.11820432,0.023022307,-0.033462845,0.050296992,0.11174276,-0.07234956,-0.024742544,-0.051773977,0.06616365,0.076501824,-0.010580902,-0.002700677,0.036205646,-0.077272445,0.06305105,0.0285664,0.050235752,-0.07170434,-0.09312816,0.028936561,0.061078828,0.037081297,0.006610401,0.05919982,0.16064946,0.03484251,0.100356326,0.029193126,0.039093666,-0.079841055,-0.12184068,-0.095335566,-0.009379019,-0.031831354,-0.079431735,-0.0289485,-0.04892359,-0.022822501,-0.088624686,-0.034470268,-0.12465871,0.09382378,-0.124279365,-0.03654646,-0.11497771,0.0029379758,0.054404534,0.1402644,-0.05236245,-0.018051682,-0.054715566,0.0003341252,0.024351995,0.12852293,0.007713896,0.07120161,0.07064812,-0.10075642,-0.12818293,-0.04562018,0.045399547,0.06504885,0.07363336,0.0717011,0.082259476,-0.0038012904,0.0061778254,-0.11402054,-0.034773927,-0.0397759,0.031664915,-0.060743354,0.021088064,0.007072409,0.048829403,0.017143793,0.054438032,-0.13546215,0.10112425,-0.0212856,-0.002823724,-0.081807524,0.06593088,-0.06991294,-0.09925667,-0.009476392,0.06931537,0.020523803,-0.0018542148,0.041832186,-0.107237324,0.027000403,-0.12290586,-0.09985861,-0.09654607,-0.012276404,0.02218735,0.14284779,0.08813882,-0.032261483,0.02515017,-0.038851347,0.0065513616,-0.029885143,-0.019651074,0.069203265,0.06863035,-0.08569852,-0.018532226,0.08174766,-0.09952855,0.05427926,-0.061579715,0.09186923,0.13204247,0.08739083,-0.09489946,-0.11126083,0.06145627,-0.012311696,0.094214976,0.059863184,0.14821881,0.09843854,-0.16287832,-0.06864982,0.020284656,-0.036407672,-0.04753931,0.13376287,-0.10057313,-0.018199984,0.08074558,-0.07409413,0.05428992,0.04393638,-0.11803893,-0.07804492,0.08764255,-0.10538104,-0.07180749,0.034913607,0.030125586,0.010195453,-0.16765569,-0.067889646,-0.16375053,0.024446953,-0.09196805,0.097481176,0.14925385,0.05736355,-0.008789629,0.08291442,0.06732488,0.08920009,0.010684372,-0.056994073,-0.07256298,0.0026436162,0.1054781,-0.007765183,-0.00026362797,0.061215628,-0.045997493,-0.100949116,0.006958714,-0.07360747,0.14277714,-0.09403515,0.023492841,-0.054529082,0.0019373496,-0.03158694,-0.15918018,-0.0023094583,0.042818323,-0.11066198,-0.0042157634,0.0012120949,0.069750905,-0.024522709,-0.13019837,-0.007322156,-0.08643535,0.019458482,-0.029390126,-0.020283485,-0.12742291,0.048199903,0.022418333,0.0029312682,-0.06762764,-0.026721925,-0.035358153,-0.12646218,0.032556623,-0.0901937,-0.098085776,0.015421893,-0.1615389,-0.050360207,-0.03122651,-0.12172693,0.03478874,-0.03153649,0.03051121,-0.062141273,-0.05271265,0.0017103464,0.040496297,-0.016157024,-0.047112,-0.13061386,-0.06298118,0.022318764,0.028984345,0.06244305,0.017290648,0.04540964,0.019160379,-0.02063538,0.07952983,-0.066217884,0.022572957,0.0066678897,0.13297993,-0.091091566,-0.029928098,-0.028014123,0.027640704,0.04241834,0.09186586,0.008225855,-0.09106287,-0.025471276,0.011794144,0.104107626,-0.07155327,0.24960127,0.04219524,0.09364557,-0.0007279053,0.14234345,0.02959915,0.07018289,-0.02317459,-0.052911527,-0.036110714,0.043618716,-0.03324041,0.13477758,-0.1916872,0.07345315,-0.009134324,-0.03643051,0.006209986,-0.029632421,-0.035828263,-0.071363375,0.024029087,-0.00931512,0.06666271,-0.063898414,0.10018156,0.066441335,0.118548624,-0.034262203,-0.09964597,0.040808365,0.03283288,0.05883098,0.001270831,0.056272462,0.038892,-0.035052877,-0.070305355,-0.01654454,-0.1434568,0.046003584,-0.080672264,0.08107071,0.013547566,-0.019377494,-0.01690028,-0.016853424,-0.030507904,-0.057160422,-0.00066197076,0.078329206,-0.07741793,-0.055304803,0.08545041,0.018018743,0.03960699,0.06151379,0.06927226,-0.00055165857,-0.05493698,0.12350121,0.04489257,0.06569184,0.07082597,-0.18890865,0.060583964,0.098559916,0.0032947715,0.051531915,0.0041091233,0.05002143,-0.07485651,-0.017110137,-0.038266085,0.007360064,-0.014885744,-0.015002141,0.05008833,0.039524686,0.052840356,-0.012973802,0.17583543,0.018042184,0.029678425,0.07149233,0.027017647,-0.08265876,-0.13358699,-0.0021450378,-0.01625133,0.085178316,0.08960543,-0.09790651,0.0061350614,0.118801124,0.032099064,-0.113024436,-0.039862324,-0.074625365,-0.055953305,-0.094537504,0.08602311,-0.047243275,0.11767879,-0.04744532,-0.039839614,0.073187456,0.031829562,-0.03288202,0.007566018,0.029718263,-0.057027623,-0.081324644,0.060474996,-0.071400546,0.01811955,-0.017156065,0.033380322,-0.058064807,-0.028740691,-0.07089656,-0.14685449,-0.1274112,0.059126776,-0.078406334,0.0376953,-0.0069596358,0.049447853,-0.025233593,0.0875685,-0.031098757,0.05128007,0.044166774,0.05468731,-0.033125207,-0.072880685,-0.008225683,0.055886373,0.024804069,0.010225078,0.015132156,-0.003513835,-0.10175357,-0.06444404,0.064017415,-0.00972818,-0.10091026,0.014801396,-0.10999775,0.059228428,-0.069244474,-0.060271475,0.018863007,0.14947215,0.0002758252,0.056873094,-0.11517448,-0.022436818,0.07901675,-0.047145978,0.065540925,0.056342002,-0.026188402,0.07279179,0.04287624,0.08561164,0.13504876,0.025647419,-0.03440878,-0.16125916,-0.027895806,-0.0060475455,0.044678766,0.068582945,-0.024183385,0.16927548,-0.1852959,0.050000664,0.011895627,-0.0050430987,-0.078147605,0.010914389,0.05268849,-0.012227283,-0.014261742,-0.12848242,-0.095963806,-0.026934378,-0.017326217,-0.017961167,-0.08478545,0.043445505,0.0037419419,-0.04885061,0.07558765,-0.108160496,0.061774243,0.018089926,0.061317403,-0.051628143,0.058794186,-0.021931784,-0.00515938,0.013364375,0.09749355,0.02928479,-0.027290223,-0.062327027,-0.000728827,-0.01172771,0.08863559,0.11862783,-0.0629301,0.0039759534,-0.05888421,-0.06005934,0.106036685,0.046047866,0.034327276,0.051741466,-0.18934186,-0.10827137,-0.08565281,0.028009152,-0.0010968692,-0.049818836,0.10063422,0.02638565,0.07507245,0.0018297789,0.00423402,0.021482946,0.07721435,0.16515864,-0.010170828,-0.06283673,-0.08328891,0.0054820036,-0.033192225,0.068320215,-0.015777541,-0.0037145985,0.04318202,-0.014060707,-0.12337209,0.03346241,-0.007607765,-0.05585456,-0.055200487,-0.10740592,0.0460647,-0.06872286,-0.0038864356,-0.030786768,0.04372906,0.032413695,0.088485554,0.04261639,0.097736865,-0.082901694,0.0024336616,-0.1164113,0.1454692,0.09635111,-0.08289128,-0.013581168,0.11137291,0.0007193311,0.10897215,-0.08585006,0.01699331,0.050856575,0.011282679,0.0022637423,0.054307375,0.04655091,-0.07230542,0.109647565,-0.09460956,-0.0094295135,-0.029700533,0.111021236,0.12679677,0.013808209,-0.012204571,-0.032771364,0.054770265,-0.040373478,0.045519195,0.092119075,-0.105733536,0.0070223412,0.04807248,0.022336066,-0.12919529,0.050798498,-0.033970553,0.022619408,-0.018523622,-0.067073524,0.0596605,0.03352312,-0.13329571,0.11972714,-0.13083352,-0.017085552,-0.12021042,0.038483232,0.10503641,0.038533963,0.049902864,0.11000097,-0.10594266,0.010665695,-0.052627936,-0.04964994,-0.028832322,-0.048129123,0.0002084359,-0.01481531,-0.023966432,-0.015216783,0.1866021,-0.047833864,-0.0018736592,-0.008234668,-0.0357331,0.10694671,0.012708642,0.073110394,0.12682986,-0.056197036,0.10327929,-0.007133208,0.03082374,-0.023824655,-0.025868146,-0.085746944,-0.013373898,-0.023089837,-0.13524999,0.00057093904,-0.004036021,0.0665425,-0.04905025,0.045985095,0.018970631,-0.08471445,-0.040673353,-0.10505234,0.16482534,0.036246233,0.00782972,-0.11695851,0.00070748845,0.0017945704,-0.018828694,0.14786036,-0.007818676,-0.051363695,-0.10820528,-0.0069678104,0.06102616,0.10936621,-0.086859636,-0.006820888,-0.115740806,0.021740196,0.04568253,-0.038094405,0.08404715,0.0035501614,0.026272632,0.22269483,-0.07591576,0.10928598,-0.03945038,0.088619605,-0.0049686763,0.016384834,-0.0049754567,0.009243594,-0.069511145,-0.0014923508,-0.13951933,0.0122610815,0.056645866,-0.09332458,-0.09066295,0.041474935,-0.02342311,-0.06364101,-0.045227706,-0.03341834,0.10899111,-0.052602038,-0.036828537,-0.0062471484,0.09323462,0.09422717,-0.13645504,0.09999414,-0.009054252,-0.05468263,0.03800636,-0.09878144,0.13817734,0.121496774,0.0011748187,0.028579805,0.010967496,-0.014796188,-0.04724537,0.015233898,0.1268756,0.010848092,-0.018698547,-0.02432999,-0.019510183,0.08322739,-0.015484167,-0.020371826,0.074100986,-0.00086302974,-0.026505316,0.060592562,0.020568786,0.06821187,0.027846383,0.06434069,-0.011930289,0.031296764,-0.04742694,0.13120262,-0.07660726,-0.0126281325,0.10638712,0.092875995,-0.017705675,-0.013041425,-0.10261095,-0.044608124,0.11311294,0.005308169,0.04751999,-0.10569066,0.122688904,0.02206286,0.06740649,-0.097945325,-0.04199945,0.0476577,0.040817358,0.01028845,0.033861447,-0.05987876,-0.011569416,0.13517185,-0.01235082,0.005507992,-0.003320109,-0.10581729,-0.07460347,-0.043475848,0.07314019,0.050588444,-0.10430064,0.09269659,-0.056554347,0.05686778,-0.036088094,-0.11844978,-0.09386298,0.045743473,-0.059026014,0.017412882,-0.031978954,-0.06716973,-0.08775608,0.030498384,-0.06484882,-0.08901651,0.048618853,0.031158367,0.044089366,0.08363997,0.014136173,0.03757215,0.10115941,0.09394361,-0.1352615,0.0014690701,-0.10670642,0.031319715,-0.0048259054,-0.13348876,-0.00072823773,-0.03733716,0.048209548,-0.026232151,0.06877427,-0.114231326,-0.016751476,-0.0106715625,-0.0110913785,-0.096272275,-0.22913453,0.0009493561,0.073002666,0.054799546,0.049030665,0.024981523,0.14359647,-0.025457218,-0.0414076,-0.012565963,0.039661482,-0.032767277,0.02417019,-0.009617591,0.048833318,0.042944558,-0.00669078,0.10360157,-0.04790538,0.016658982,-0.108225286,0.036559977,-0.09272918,-0.039993268,-0.06811344,-0.0602403,0.005946656,-0.012331074,-0.10467877,-0.033654623,-0.049142227,-0.087228246,0.011511636,0.120643646,-0.0645853,-0.0361181,-0.07448823,0.060020376,-0.039734673,-0.082501546,-0.057526812,0.086583145,0.014028469,0.048096698,0.08839935,0.084374875,0.110790335,-0.00468043,-0.11277145,0.047195923,-0.0029409775,0.06084481,-0.050342407,-0.114097364,0.007392531,0.030203497,0.13363165,0.032474853,0.040630624,0.053059876,-0.026617326,-0.032416757,-0.025500482,0.03609461,-0.043745495,0.019213807,-0.039060853,-0.25923416,0.069784485,-0.04947487,0.021577938,-0.084943235,-0.009459707,0.03143133,-0.02458081,-0.105093434,-0.009387172,-0.035379328,-0.107215665,0.09487787,-0.10168171,-0.01537075,-0.047633868,0.008524262,-0.06753103,0.015523874,0.06147603,-0.057402477,0.013107757,0.049177885,0.029156726,-0.043906737,-0.13042773,0.07773062,0.1277607,0.0027422598,-0.10637268,0.078992695,0.076933056,0.074423574,0.044332486,-0.1177419,-0.001907301,0.05286343,-0.045075007,-0.14793684,0.054860998,-0.017774928,-0.059831142,-0.05899615,0.0038550445,0.019491829,0.009011669,0.092748284,-0.013048776,-0.08425684,0.088921666,-0.06712347,0.11097595,-0.037073776,0.05557141,-0.04329915,0.06774358,0.028249882,0.036484696,-0.060227234,0.07328871,0.026589941,0.08691156,0.038208984,-0.12485953,-0.0863565,-0.058871772,-0.06418591,-0.11862501,-0.081088126,-0.047267824,-0.015566627,-0.043385852,-0.024555614,0.0065560476,-0.041493695,-0.074623905,-0.05060637,0.0799518,0.11706138,0.031125475,-0.06510992,0.03395277,0.021988625,0.088505015,-0.024576543,-0.079555295,-0.14953333,-0.022571411,-0.04383022,0.15275626,-0.0073129055,-0.16454814,-0.004064829,0.0065478133,0.06567348,0.10043252,-0.08683605,0.13285966,-0.013935468,-0.06804572,-0.058211934,-0.016828874,-0.053417914,-0.06973479,-0.012790283,0.06475558,-0.15751626,-0.045855768,0.01950296,-0.1296818,-0.10447318,0.039390568,0.07015032,-0.00057402777,-0.120984055,-0.03839501,-0.07987259,-0.10067583,0.10251863,-0.0070038824,-0.13367955,0.12874393,0.15959941,-0.008445523,-0.029093495,0.027786095,0.0052926694,-0.059056923,-0.056320656,0.06740025,-0.04761127,-0.07890356,-0.00045773113,0.081697315,-0.07094481,-0.017283728,0.030982463,-0.07836526,-0.09458533,0.021167241,0.10465097,-0.01961023,-0.010019639,-0.025182404,0.058244493,-0.057350498,0.0052590785,0.08749227,-0.0120806955,-0.009064031,0.041253608,-0.024267225,0.046709318,0.0030467699,-0.07141301,-0.028945303,0.05695956,0.050861478,-0.049216848,0.054732278,-0.078715906,0.039170932,-0.13974284,-0.088150255,0.094300546,0.024078922,0.051573537,-0.034396913,0.025791617,0.05531758,-0.016459677,0.05171725,-0.04805353,0.05746132,0.1491757,-0.021151276,0.016969541,-0.08445221,-0.12255565,-0.061880287,0.03209925,-0.11345787,0.035092026,-0.18525848,-0.07484705,0.044614915,0.051954564,-0.026579846,0.010029091,-0.022216357,-0.04737317,0.10015352,-0.021960676,-0.056611285,0.0798208,0.0779249,0.042321224,0.03269801,-0.04946571,0.050541855,-0.039041318,0.057104826,-0.013901428,-0.00580231,-0.006630073,0.006065129,-0.0019902845,-0.0066218306,0.0056478414,0.055084612,0.0025717008,-0.008384348,0.019459961,-0.1453973,0.11382035,-0.03102112,0.09776982,0.072316244,0.09040619,0.07166557,0.1536004,-0.0015196112,-0.022490608,0.07735353,0.066898145,-0.048214193,-0.007806742,-0.0035218154,0.0014919394,0.09212443,-0.037770394,0.055387903,-0.063307434,0.0014273426,0.07650376,0.020512808,-0.038379397,-0.02336732,0.07098809,0.13742135,-0.113683,0.030872261,-0.10404816,-0.047064696,-0.034794744,0.03742567,0.037952222,0.06438814,-0.05840026,0.03538594,-0.11930138,0.034777224,0.12005396,-0.1178942,0.057645775,0.0469747,0.10799391,0.02075422,-0.01312447,0.12524238,-0.03182244,0.09554262,-0.07956885,-0.017633704,0.008675658,-0.111055605,0.08960428,0.047118858,0.030860534,-0.060687337,0.09942607,0.02354215,0.03156034,-0.11557984,-0.051087845,0.10398355,0.015984666,-0.07196673,-0.057072632,0.015092706,0.073855154,-0.10080966,0.030356228,0.070798226,-0.027780099,-0.0389229,-0.00082879455,0.030232878,-0.07600793,0.033924825,-0.11526425,0.023259904,-0.006977207,-0.0018987377,0.0069784806,0.048737254,-0.065181606,0.06758884,0.004141119,0.05160981,-0.08303954,0.021156643,-0.016761025,0.12689939,-0.04002344,-0.027983086,0.06670668,-0.11489666,0.0645684,-0.006270396,0.004650484,-0.020865502,-0.0647329,0.025252936,-0.0011296314,-0.13734345,-0.102009386,-0.029176284,0.10262014,0.07078177,-0.035219017,-0.0064892545,-0.015332395,-0.043728635,-0.042409662,-0.15124522,0.020760875,-0.014142804,-0.03102701,0.021244869,0.0078492,-0.11238324,0.059812203,-0.08518369,-0.04124633,0.043731507,-0.022335513,0.14366609,0.1491791,-0.093779065,0.015299541,-0.11456548,0.087190114,-0.08109783,-0.050450858,-0.05196874,0.0007720414,0.04069541,-0.061379373,0.05136911,-0.010675019,-0.0032217698,0.003941653,-0.055993013,0.13507558,0.027092962,-0.059743747,-0.08026782,0.063640855,-0.010660694,-0.13055843,0.010429571,-0.0528922,0.072268985,-0.024586558,0.031579636,-0.02783963,0.033460684,-0.076045334,0.09617359,0.011122527,-0.0055078575,0.12583604,0.115591146,-0.025512625,-0.031153677,0.08581474,0.10544648,-0.014173655,0.048171554,-0.03032779,-0.11637583,0.046403773,-0.0475977,0.05213601,-0.003539135,-0.026107032,0.023666156,-0.04171194,-0.06574176,0.123138495,-0.031565554,0.03667075,-0.08488179,-0.14562638,0.034862768,0.031478465,0.12558426,0.03553198,-0.061103262,0.12459033,-0.03524562,0.027016157,0.03715937,0.046651926,-0.009354277,0.008477028,0.03899099,-0.06978018,0.037553463,0.032149956,-0.03807644,-0.019199122,0.038136918,0.08536438,0.015497483,0.112551555,0.023643132,-0.009307591,-0.021331053,-0.10955093,-0.030404449,-0.17320466,-0.123430945,0.03635412,-0.044742063,-0.015974041,-0.013524168,0.0004134868,-0.043626625,-0.038445305,0.060299136,-0.08536671,0.024588685,0.08763535,-0.030020893,0.070482284,0.060591936,-0.060247827,-0.015776118,0.015377461,0.011517133,0.074067056,0.104678325,0.088337965,-0.09096612,0.07882421,-0.13253368,0.050111163,0.036218163,-0.05377334,0.0707088,-0.028234303,0.015284784,0.054882742,-0.05802643,0.08351794,-0.06968669,0.05859186,-0.016888063,0.19575489,0.03497515,-0.0033601131,-0.035122856,-0.040591974,-0.014071807,0.03178426,-0.025901927,0.045814265,0.07842661,0.029830499,-0.08452091,0.051490963,0.015388793,-0.033428576,0.050715987,-0.10477815,-0.016213939,0.009306125,0.042690884,0.07864665,0.040726483,-0.01783169,0.06336318,0.06871416,0.001263893,0.06766632,0.007932859,-0.018174535,0.043588806,-0.02128812,-0.00114337,-0.03897367,-0.14030248,0.10825732,0.0058280057,-0.077862084,0.012251024,0.044117697,0.019686643,-0.0696284,0.14123568,-0.067144014,-0.04294131,-0.042190902,-0.09982765,-0.043488663,-0.12717222,0.07914185,-0.072420314,-0.024371285,0.10984688,0.024329172,-0.050538883,-0.08944867,0.05478294,0.12762345,-0.0058050724,0.024727497,0.07513044,0.009723643,-0.07154416,0.10845419,0.0076539796,-0.08735809,-0.09401235,-0.012263704,0.06367757,0.047852106,0.018565668,-0.07635933,0.086431965,0.07650449,0.019225592,0.019188888,-0.12815544,0.014528111,0.087619,-0.034812585,0.08821903,-0.07931642,0.12851714,-0.0138340825,0.106017485,0.09844755,0.16580302,0.08354764,0.03445706,0.008389776,7.327185e-05,0.045209892,0.017159188,-0.108677834,0.0070332545,-0.09210467,-0.098672144,-0.04379832,-0.06825053,0.17498343,-0.012979722,-0.084834896,-0.037845887,-0.028653203,0.08998673,-0.016001398,-0.12618051,0.09942229,-0.087147035,-0.082494,-0.060302652,0.03288559,0.03393645,-0.018886449,-0.0021720172,-0.07137979,-0.07874165,0.069453746,-0.07449405,-0.068303704,-0.07024596,-0.004798268,-0.06406415,-0.11580626,0.11143559,0.05513579,0.033664204,0.06905843,-0.018489059,-0.02118904,-0.10369372,-0.057605248,-0.0032681548,0.057648756,0.016227322,0.07844768,-0.02979817,-0.012636767,-0.07562897,-0.095293745,0.015385272,0.1821529,0.011490283,0.09062462,0.09172716,-0.02234839,-0.008460711,0.011496868,-0.019115774,0.030833395,0.030568684,0.083067946,0.055352397,0.02300258,0.029130211,-0.0065038614,0.01934035,-0.058481187,-0.052545674,0.112250924,0.026963852,-0.05636373,0.11175221,-0.13448198,-0.074127406,0.023571758,0.104185894,-0.054182973,-0.021751488,0.035596836,-0.015549767,-0.13271827,-0.058477715,0.072103396,0.053272326,0.008565385,-0.0708794,0.113417976,-0.021303628,0.054772533,0.0046703923,-0.116532676,0.022589907,0.013280742,-0.11879164,-0.034445085,-0.077874,-0.14842275,-0.050861344,0.08414904,-0.06022399,-0.015410591,-0.03877745,0.17821683,0.009880071,-8.818887e-05,-0.0064970553,-0.06362717,-0.14886276,0.05651204,0.055121552,-0.052039333,0.083328985,0.06272081,0.100126736,0.07223022,0.032346427,0.116016135,-0.06283628,-0.021514662,-0.03895869,-0.014373014,-0.0372782,0.02989101,0.17319669,0.028770113,0.12778403,-0.011463204,-0.0070586116,0.0097301565,-0.032683857,-0.0019713035,-0.0676852,-0.013863672,-0.0057992237,0.026506767,-0.04044816,0.08184198,0.08009749,-0.04875344,-0.114494175,0.09644003,0.01758444,-0.08346301,0.07556633,0.0037432257,-0.029844405,-0.06978213,-0.07687293,-0.03986919,0.14152011,-0.05087814,0.006669054,-0.1769782,-0.0060644276,0.11272663,0.053366233,-0.012699511,0.08967462,0.022255216,0.114884675,0.044388656,0.08029765,-0.002772394,-0.033298917,0.020463921,-0.089939445,0.022935553,0.0350323,0.05366971,-0.008170601,-0.069617145,-0.12720639,0.02750829,0.041228663,0.08989599,-0.02083352,-0.038302086,-0.08605932,0.085638486,-0.15394983,-0.017374042,-0.08455888,-0.05568273,0.06778152,0.109920606,-0.009377138,0.07825119,-0.057702802,0.009979913,-0.0029850386,0.025472758,0.032749977,-0.009669448,0.14608318,0.007274266,0.00557501,-0.06273402,0.07159332,-0.040699676,0.0024291219,-0.10210893,0.048962165,-0.053238913,-0.012573316,0.10160103,0.018423585,0.016415507,-0.07259673,-0.041617163,0.11290273,-0.020851681,-0.024229843,-0.12787572,0.029332472,-0.03420368,-0.08991926,-0.00042149218,0.042025622,-0.048766766,0.11845282,0.009171397,0.083364815,0.034005247,0.0046199667,-0.020939548,0.14816582,-0.04704223,-0.12707813,-0.0030680168,0.12157444,-0.023131521,0.079912655,-0.041428164,0.025939628,-0.025536614,-0.089911595,-0.014927466,-0.15993299,0.0898985,0.14227425,0.00041366194,-0.10809349,0.057050925,-0.000100742145,-0.06957981,0.0028160377,0.016007343,0.04914117,0.0012670383,0.11492747,-0.011901435,-0.08531413,-0.04926582,0.052632734,-0.014596818,-0.026890073,-0.17854805,0.0956619,-0.0055957814,-0.010439404,0.071190365,