0.20856266,0.27576107,-0.27820003,0.044295978,0.067103885,-0.11222148,-0.099297196,0.2678455,-0.06955073,-0.32111418,0.27467003,-0.18100671,-0.26790792,-0.3182309,-0.29085594,0.25446904,0.258011,-0.1476632,-0.19797325,-0.2293623,-0.25459662,-0.26378182,-0.0110837575,-0.3482835,-0.18304817,-0.12733771,-0.30003121,-0.2653832,-0.3029979,-0.1780346,0.19355129,-0.31477475,-0.33393788,-0.22633469,-0.2808886,-0.14962833,0.2693442,-0.20079984,-0.15421866,-0.18483035,-0.13444827,0.18411316,0.14727886,0.19301707,-0.101200126,-0.046695,-0.082722954,-0.028629234,-0.08314753,0.19189967,0.2591809,-0.0008559485,-0.24299045,-0.34887964,0.099581435,-0.14459345,0.19434881,-0.20735511,-0.20164892,0.21037634,0.22549944,-0.07334076,-0.1850452,0.025201406,-0.17122956,0.2013921,-0.3420976,-0.10255852,-0.1372298,-0.22121944,-0.30626512,0.2703657,0.15475377,-0.12916239,-0.014036514,0.18005659,-0.2018083,0.20137772,-0.32546264,-0.06922768,-0.26894015,-0.23312932,-0.16261105,-0.15273519,-0.2166844,-0.18756463,-0.14810571,-0.29347557,-0.14950548,0.23645578,-0.20483388,-0.10379437,0.23625682,-0.17900278,-0.26796916,-0.28418598,-0.14134462,0.24264106,0.082943864,-0.2470127,-0.17383982,0.18659522,0.24697965,-0.3252209,-0.043433648,0.2580976,-0.2890061,-0.20035324,-0.009817255,0.11823656,0.15671721,-0.25038368,0.21334164,0.17816156,-0.09137377,0.15449531,0.15892397,-0.15475254,-0.2353058,0.025015615,-0.047773827,-0.3069492,-0.24806467,-0.20479201,0.2293334,-0.24529015,-0.24301632,-0.32494736,0.044666097,0.2510792,0.17691411,-0.11499239,0.08566597,-0.22270969,-0.23748852,0.034976453,-0.23830043,-0.109731525,-0.14865145,0.16560018,-0.0802741,-0.25749564,-0.2502233,-0.3344558,0.2657267,-0.05681643,0.030773126,-0.28185654,0.17468071,0.20137237,0.012743922,-0.26602626,-0.18775234,-0.13951986,-0.22527044,-0.02939694,0.20694637,-0.29931962,-0.27038646,-0.13050514,-0.22254714,0.23709658,-0.29908636,-0.18141828,0.18424301,-0.054903377,0.10000377,0.17916147,-0.19864899,-0.315566,-0.19925024,-0.18952595,0.2345535,0.24627133,-0.21485756,-0.30952653,-0.18307643,-0.24441816,-0.30258125,-0.2908931,-0.3000524,-0.2150249,-0.10216926,-0.25263673,-0.052031457,0.2709884,-0.20330632,-0.23524082,0.23744315,-0.2779266,-0.25949007,-0.1330665,0.1056595,-0.09877421,-0.19678289,0.19261526,0.19088814,-0.24272393,0.22327119,-0.18070236,-0.047194228,0.22428395,-0.2129841,0.18010494,-0.09219021,0.12589712,0.2449224,-0.23729679,-0.087316476,0.19821502,-0.2960777,-0.26919588,-0.06170517,0.119354665,0.15236253,0.24653581,-0.2427965,0.039698925,0.17815958,-0.12313539,-0.16290332,0.10527393,0.072275564,-0.0676742,0.20871207,0.09294029,-0.17959006,-0.16218828,-0.1642812,-0.19053146,-0.23694713,-0.27001476,-0.21371594,-0.18388063,-0.2993009,-0.27420813,-0.24017917,-0.19879185,0.18612579,0.23031265,-0.072650276,-0.0139444955,0.25746056,-0.15698555,0.20331502,-0.23210368,0.21953878,-0.16380607,0.18974166,-0.3046798,-0.2901875,-0.11376745,-0.17441776,-0.1301336,0.011397363,-0.18813127,-0.2225914,-0.24870495,0.24325208,-0.042604003,0.1731646,0.17426805,-0.25940484,-0.286875,0.2285814,-0.23822555,-0.14072488,0.27596185,0.055441666,-0.2443542,0.076635845,-0.20502919,0.23269913,-0.19395286,0.25388896,0.22546995,-0.012131046,0.19906513,-0.055635594,-0.2777052,0.23008104,-0.32242468,-0.27719617,-0.20140527,-0.27586108,0.049028914,-0.18684454,0.13788632,-0.033134863,-0.2387421,0.26885638,-0.23866479,-0.29603478,-0.25643784,-0.17907329,-0.096971236,0.26445684,-0.3670728,0.17284462,-0.11267049,-0.38947195,-0.1883915,-0.026036194,-0.2745871,0.21502598,-0.25391963,-0.25258482,-0.2283614,-0.021403894,-0.11628257,0.17297414,-0.17020404,-0.24599871,0.27476892,-0.107633926,0.17780618,-0.18377487,-0.013770624,-0.18984826,-0.05490696,-0.17828757,-0.15440069,-0.039748196,-0.08954617,-0.04199361,-0.12684517,-0.09781396,-0.1525629,0.18787618,-0.17964734,0.20460175,-0.2801531,-0.17467105,0.24796514,-0.19966698,0.06406437,-0.039295394,-0.20411637,-0.24818876,0.061820727,-0.2524398,-0.08283226,-0.32973272,-0.13022839,-0.19941603,0.12869358,0.07402117,0.1798712,0.26828277,-0.12634453,-0.17668052,-0.34119502,-0.010366318,-0.1460269,-0.11367832,0.16632469,-0.29222083,0.2547487,-0.15619412,-0.26343998,0.19273044,-0.3654478,-0.23465085,0.18961713,-0.24607874,0.069517635,0.1964745,0.21930988,-0.18267332,0.08770913,0.10311878,-0.10898226,-0.27781826,0.18686606,-0.24100778,0.20886998,0.29869395,-0.1777104,-0.2053237,-0.303005,-0.30232537,-0.037361514,-0.32037997,0.0449107,-0.21424457,0.21204367,0.21037127,0.16641945,-0.20360982,0.11222346,-0.29061422,-0.24325389,-0.38459668,-0.17932615,0.25504577,-0.2031368,0.04319103,-0.10813952,-0.18683852,-0.12225276,-0.06314439,-0.07554241,0.2228141,0.15368088,-0.22556975,-0.14973351,-0.07800194,-0.25759587,-0.08717823,0.020793706,-0.26122892,-0.24252142,-0.22651766,-0.28552034,-0.26536652,0.16590726,0.14845285,0.008592503,0.25377053,-0.068751164,-0.16668002,-0.11243968,0.15211043,-0.118504725,0.07703222,-0.030692225,0.16566323,0.16611032,-0.07529496,-0.23399426,0.05232821,-0.27920294,-0.15524782,0.2244078,-0.026105398,-0.015853947,-0.297248,-0.34212622,-0.11817991,0.13797702,-0.2068295,-0.23888898,-0.12431842,0.10062586,-0.07563625,0.24386159,-0.13562167,-0.25693306,-0.11589091,0.23379093,-0.21618767,-0.18851188,0.054802325,-0.13277647,0.27973714,-0.16589741,-0.0886939,-0.1735064,0.21058464,0.036903605,0.025464373,-0.14148636,0.22936144,0.18994592,-0.31749335,-0.2420829,0.23707855,-0.22928247,0.05571741,-0.17948897,0.20640361,-0.38190228,-0.12268172,-0.21846047,-0.22379023,-0.11639419,-0.18975216,0.05635432,0.24853037,0.15816489,-0.17251182,-0.18284681,0.22775823,0.18316743,0.028759507,-0.2803674,-0.29040256,-0.24642304,0.25470877,0.05574905,-0.27944478,-0.10566197,-0.17379843,0.26272354,0.044391565,-0.20199487,-0.2104577,-0.26523277,-0.1390578,-0.22187164,-0.30752152,-0.07881987,0.18875553,-0.24454275,0.25744945,-0.16630478,-0.06639978,0.23537129,-0.073139615,0.097293876,-0.3572122,0.17720743,-0.28111085,-0.31751785,-0.2590827,0.05713988,-0.18412818,-0.03553262,-0.27590615,-0.19192223,-0.14853203,-0.27993524,0.20827919,-0.07444187,-0.0774479,-0.27171552,-0.01356162,-0.12992714,-0.29132634,0.03995313,0.10228604,-0.18767175,-0.2505685,-0.2189628,0.03098624,-0.3555686,0.2087008,-0.300595,-0.044180494,-0.2514369,-0.08150691,0.22475213,-0.15313761,0.14012162,0.084374525,-0.11027846,0.24212903,-0.10076183,-0.31521454,0.14095992,-0.30038738,0.27252364,0.23420487,-0.3231504,-0.20389934,-0.08553613,-0.26484817,-0.2939546,0.23643748,-0.059087813,-0.17487194,0.2336525,-0.27235568,0.24955915,-0.21208358,-0.09213571,-0.17319858,-0.11633772,-0.20132296,-0.26572537,-0.23253189,0.26365384,0.1949865,-0.2691312,-0.26255506,-0.0402824,-0.23188502,-0.10800815,0.16670437,-0.21857013,-0.10937075,0.13944356,-0.045160215,0.2800819,-0.12031192,0.19378975,-0.099709585,-0.17695825,0.07484651,0.09634091,-0.19187205,-0.256987,0.22403449,0.012805277,0.10786138,-0.19813998,-0.12684615,0.13535373,0.12783664,0.15851891,-0.17153406,0.053943697,0.22771671,-0.21513984,0.24938229,-0.26933184,-0.11779946,-0.28474814,0.11973103,0.20975034,-0.20931894,-0.21445283,-0.24173969,-0.19275907,0.18673879,0.026428448,-0.22282739,-0.29117954,-0.15125306,0.21698111,-0.2793141,-0.18940453,0.12586428,0.2161385,-0.29476136,-0.2856669,-0.3304795,-0.14213984,-0.1477526,0.19221732,-0.12257633,-0.28774098,0.12444016,0.020679211,-0.11645298,-0.2707307,-0.29543135,-0.15080318,-0.33833456,-0.26049295,-0.16621079,0.19892433,-0.019408159,-0.16344118,0.25374818,-0.26579234,-0.26207054,-0.21761438,-0.3166258,0.15406156,0.12338406,-0.2263561,0.22460409,-0.03981037,0.2138637,-0.15641072,0.011647696,0.2064433,0.12103014,-0.24387807,-0.18308534,-0.180831,0.04650281,0.011123956,-0.08431865,-0.08311415,0.1732022,0.12464922,0.16316701,-0.25243115,-0.22123669,0.111034416,-0.3556091,-0.2064702,0.027199915,0.22600432,0.024103308,-0.18962838,-0.31726143,-0.22211394,-0.21169631,-0.18174715,-0.06238445,0.061606664,0.1986553,0.12963507,-0.23785868,0.16387999,-0.18349366,0.14745869,-0.12217718,0.21821855,-0.30311495,-0.060174268,-0.21516396,0.18939088,0.24868682,-0.15383326,0.15638767,-0.2325069,-0.18866391,-0.17212178,-0.012990109,0.25203696,0.21381055,-0.15185641,-0.19754884,-0.1913534,0.20407237,-0.05886654,-0.0672689,-0.2781817,-0.25629666,-0.19800611,-0.16785876,0.100982785,-0.14864145,-0.27422804,-0.30621228,-0.014105137,-0.032242592,-0.12625967,-0.09535791,-0.028842166,0.11661401,-0.17500356,0.25879198,0.2371436,-0.028813554,0.16445796,-0.21987498,-0.08726624,-0.104546316,-0.27571717,0.1635885,0.21510427,-0.038874928,0.28636768,-0.12832734,-0.15422818,-0.031060709,-0.3004668,0.26229414,-0.16542839,-0.14569774,0.21249159,-0.2133541,0.07339703,0.24877049,-0.2466303,0.19531599,-0.21133728,-0.33195424,-0.25100708,-0.19777119,0.08063126,-0.20654306,0.26785126,0.20834897,-0.18141948,-0.31331784,-0.13903086,-0.02098562,-0.24262157,0.05557417,0.11559216,0.026310554,0.21603079,-0.17611523,-0.1784471,0.06940948,-0.18651192,-0.13189931,0.20956667,-0.16686656,0.11776345,-0.30619296,-0.13494256,0.13480116,-0.15257591,-0.1913368,-0.12288445,-0.27870214,0.16437934,-0.03402457,0.24735294,-0.30263388,-0.16984186,-0.26210058,0.21211436,-0.016516881,-0.2106549,-0.17962167,0.05325019,-0.21352848,0.15274204,-0.29601973,0.1779019,-0.3030976,0.12829994,0.13050985,-0.11002615,-0.18539591,-0.01255396,-0.26805708,-0.042043105,-0.23256136,0.103787005,0.13026822,0.22843598,-0.2236154,0.04548279,-0.045007546,-0.21431202,-0.036643155,-0.14986178,-0.10987541,-0.3429174,-0.18916164,0.16846894,-0.06321994,-0.14223304,0.07259288,0.2433781,-0.10523534,0.22947258,-0.2057404,-0.15449184,0.24381687,0.15548606,-0.16228957,0.23273571,-0.21829285,-0.25551116,-0.19791318,-0.09278038,-0.24449463,0.04213987,-0.14533372,0.2559419