0.11509146,-0.11387745,0.067934595,0.17838345,-0.024293264,-0.13751376,0.05883425,-0.030061148,0.12760767,-0.16313039,0.01640136,-0.10081962,0.016389249,0.22853409,-0.130677,-0.17065561,-0.14721175,0.1382256,0.20671608,0.041421425,-0.11219924,0.14151403,0.17512824,-0.09206552,-0.1183864,0.25076553,0.029920792,0.03219357,-0.049363475,-0.1578407,-0.09752947,-0.15530536,-0.1916479,-0.20946567,-0.026527584,-0.15618564,-0.106239624,-0.08850086,0.023815881,0.042649116,-0.25680888,-0.09224748,-0.13074252,-0.00577757,0.017166665,-0.122093186,0.22318296,0.06828835,0.07466006,0.11362085,0.0119463,0.13248199,0.046470154,-0.112113446,0.114304505,0.06459588,-0.0561969,0.243926,0.18805277,0.11552396,-0.09575189,0.002067803,0.04568104,-0.047833856,0.122798964,-0.26515707,-0.00074356346,-0.19268636,0.10552886,0.15493283,-0.110073835,-0.18626899,-0.16570173,-0.21483962,0.01564668,-0.20040917,-0.14543965,-0.110042766,-0.064071015,0.1519641,0.16744216,0.22551185,0.092434205,0.1456374,-0.06992954,0.10120834,0.19596316,0.061763912,-0.04243765,-0.0896529,-0.16193642,-0.17727605,-0.13927943,-0.118583135,-0.0433844,0.0709737,-0.10880492,0.05907898,0.11566487,0.05895565,-0.14133497,0.115429714,-0.14817055,-0.10472135,0.13552527,-0.18277685,-0.07186676,0.08179611,0.23849542,0.0010612089,-0.088963054,0.17868635,0.20504414,-0.05703266,-0.053893622,-0.03650905,0.18278056,-0.08074199,0.064810105,-0.06874345,0.023081932,0.011554227,0.05019384,-0.07814024,-0.08986223,-0.012139575,-0.15732954,0.0467966,-0.0748023,0.09666137,-0.0834268,0.100956395,-0.009010465,-0.039078142,-0.18747894,-0.050411806,-0.006643846,0.09930939,-0.15080446,-0.18428636,0.06311675,0.21062809,0.18578054,-0.045610007,-0.2626994,0.021434026,0.046291865,-0.05884571,0.17933984,0.18369712