-0.2562672,0.04189588,0.0579235,0.19118597,0.12426993,-0.22692783,-0.10871605,0.10131341,0.102914296,0.15331279,0.005295847,-0.2035411,0.11911093,-0.010748916,-0.02340027,0.035979487,-0.2624579,0.15521732,0.15613797,-0.0668313,-0.08730916,-0.04877764,-0.03035478,0.09544165,-0.051614903,0.07809745,-0.11181274,0.04247148,-0.057353027,-0.21800381,0.04337894,-0.0069905254,0.06423469,-0.13302375,0.023179626,-0.23161295,0.021193838,-0.0066182674,0.26548138,0.16640507,0.10709111,-0.17568408,0.16573586,0.07375748,0.15542668,0.12629941,0.05303513,-0.24165376,0.1485001,0.0013496995,-0.054675564,0.025336267,0.20210823,0.15859064,-0.10303431,0.052264173,0.107005715,-0.048841137,0.051801223,0.04609821,-0.21431269,-0.27960762,-0.16119188,0.2100098,0.041550044,-0.022933645,-0.022889225,0.0074880454,-0.023459999,0.1229476,0.3140535,-0.17561539,-0.13180466,-0.08742585,-0.025316577,0.19969538,0.07441755,0.13614209,0.10567199,-0.07803463,-0.21151114,-0.056026116,-0.1443392,-0.03430462,0.08775386,-0.25830832,0.028293386,-0.19288294,-0.11431082,0.14839776,0.022431707,0.07907627,0.13083205,-0.046272814,-0.070052944,0.17553312,0.030413682,-0.044689916,0.06305854,-0.08958396,0.029175991,0.10274851,0.00058203755,-0.008156738,0.08339767,0.04854262,-0.04983443,0.12842453,0.1044202,0.11041769,0.18134485,-0.010989001,0.1616715,0.021684147,-0.20612301,0.02198641,0.095776245,-0.20966052,-0.08353967,-0.17238429,-0.17706662,0.0045949197,-0.2417902,-0.18965225,0.1992057,-0.16011593,-0.18506624,-0.0084803365,0.120765276,-0.0006092632,-0.25686997,-0.016925933,-0.010796465,0.036518596,0.034218803,-0.06997864,0.06507591,0.18552858,0.2458947,0.0040121796,0.02069769,0.006795308,0.16410683,0.09607392,-0.12063719,0.1101041,-0.032063577,-0.098085225,-0.046769477,-0.07120596