-0.19875886,0.0024339329,0.06902084,0.015012308,0.003758699,-0.13938773,0.0018815718,-0.15769964,-0.1070014,-0.11355688,-0.09801163,-0.08390706,-0.10010984,-0.14898339,-0.040284045,0.04894333,-0.045425724,0.01194198,-0.021396855,0.074720554,0.03091194,-0.031655386,0.0460996,0.05471831,0.107377164,0.10530271,0.010986267,0.036955256,-0.05395091,-0.035703152,-0.02278425,0.02162502,-0.020355346,-0.0064762305,-0.07586142,0.024774656,0.15223745,0.19200057,0.1283806,0.0020886525,-0.033441085,0.07449035,-0.022476703,0.047718644,0.20034286,-0.025050892,-0.041926492,-0.044869874,-0.024493426,0.1054664,-0.04532795,-0.068992846,0.09907817,0.045090448,0.018628143,-0.25461295,-0.1430837,0.13303135,0.18276386,0.09934695,-0.025449358,-0.11818783,-0.20671625,-0.15765725,-0.094529055,0.078167655,0.16999353,0.13623567,-0.11330812,-0.19942279,0.010049254,0.08648924,0.03408141,0.119111024,0.00985169,0.046242476,-0.06114871,-0.017997166,0.07359264,0.032597728,0.029428242,-0.031238835,-0.13265483,0.041461393,0.04427764,-0.06461312,0.012512987,-0.06736706,-0.056558356,-0.057745412,0.024950989,-0.063208304,-0.074424654,0.023210818,-0.07619119,0.08568379,0.050624143,-0.05503945,0.03122979,-0.07744412,-0.031424012,0.0038380898,-0.029814163,0.06510385,0.054469906,0.005354437,0.09874376,0.0113089215,-0.08439919,-0.0017656827,-0.12066874,-0.031249603,-0.14503592,-0.1872207,-0.061898723,-0.010666456,0.04106731,-0.09031769,-0.019632371,0.007880456,0.05854981,0.101346225,-0.0018974593,0.047825437,0.03329176,0.016598605,0.031615023,0.1301039,-0.06605343,-0.01570672,-0.04379036,-0.0023227183,0.09682621,-0.009011829,0.020367015,-0.054747052,0.014207056,0.07306289,-0.046023544,0.10907166,0.03152422,0.035884768,-0.04162719,-0.032725938,0.06863356,0.17795756,-0.03804833,0.00874988,-0.028782455,0.022733347,0.034119263,-0.026794216,-0.004303126,-0.045982905,-0.03325463,-0.045860834,-0.0109047415,-0.14193226,-0.12065558,-0.03334047,0.0709321,0.03271026,-0.10628218,-0.05350389,0.11111908,0.14564452,0.08280683,-0.07848543,0.09799157,0.06753075,0.09774079,-0.011500784,-0.12875989,0.029352613,0.034197967,0.14286283,0.064958975,-0.1028747,0.077428944,0.13866325,0.035489794,0.013281431,-0.047074646,0.13697816,0.19577883,0.11007051,-0.039562467,0.052768454,0.100182295,-0.04913208,-0.08198155,-0.025128752,0.043576337,0.001054454,0.0052984864,-0.037283696,0.046820663,-0.03412278,-0.110999145,0.028766964,-0.0040145717,-0.04699138,-0.11796223,-0.13969538,-0.17134316,0.056005213,-0.022659224,0.056137886,-0.017666088,-0.025828457,0.10288001,0.023902519,0.010761149,0.08949349,0.06782628,0.12610926,-0.11751599,-0.13105758,-0.08592046,-0.027406642,0.15411994,0.039604835,-0.04428886,0.006393763,-0.056880098,-0.2527623,-0.1641711,-0.039831124,-0.008483446,-0.11318381,0.05612379,0.13708922,0.13487865,0.07248788,0.027491847,-0.026443485,0.033302125,-0.018977117,-0.04387035,-0.09488026,-0.18604651,-0.116885394,-0.10883844,-0.14371046,0.0722821,0.014224721,-0.033847976,-0.030712677,0.0042508096,-0.060534813,0.016547626,-0.066438146,0.052244276,-0.10064324,-0.019958863,0.022901105,0.0019119112,0.079784214,-0.05121565,0.01595333,-0.034253724,-0.026352914,-0.14910406,-0.10483656,0.14238036,-0.045194898,-0.11183861,-0.09019328,-0.085719936,0.028275462,-0.029709842,-0.0889478,-0.0951099,-0.03874555,-0.057898957,0.0695672,0.13987754,0.12249533,0.0379836,-0.05421068,-0.097549476,0.07212168,0.026229082,-0.03349313,-0.15658146,-0.040636513,0.10434543,-0.03943567,-0.11718555,-0.029230561,0.05877102,0.029949395,-0.07760955,0.031465124,-0.0018514711,0.00884306,-0.0689236,-0.028340722,-0.018516852,-0.054355882,-0.0012940621,0.038557984,-0.0063014408,0.016769476,0.054223917,0.020336436,0.072424434,0.07370252,-0.019737316,0.0065511395,-0.021750495,0.09425319,0.018509027,0.09881573,0.029235153,-0.028001485,-0.01276825,-0.022766981,-0.026342718,0.016188743,-0.07802375,-0.10970975,-0.051025387,-0.13458736,-0.041321173,-0.06988572,-0.113117546,-0.12402135,-0.050032157,-0.10567737,0.0063886005,-0.046339124,0.10972019,0.0010781122,0.0066236528,-0.019843807,-0.040879298,0.09474022,0.13016231,-0.016902264,0.00017884959,-0.043687213,0.012347466,0.01618433,0.02499263,-0.06387299,-0.27323383,-0.13848703,-0.15061605,-0.046702385,0.03523864,0.003409936,-0.05654732,0.033834513,-0.07931114,-0.15355198,-0.09747047,-0.011799702,-0.07352034,0.040956527,-0.04206489,-0.11862121,-0.09899921,-0.07689499,-0.0022227338,0.07776893,0.019438837,-0.14153948,-0.15730932,-0.075496286,0.059948966,0.115457505,0.14010051,0.021364972,-0.020435387,0.047244415,0.091075964,0.046325326,-0.05111916,-0.025876656,0.116054825,0.1093049,-0.026874766,0.028936239,-0.07236916,0.036149967,0.11187148,-0.032633193,0.049304083,-0.04130051,-0.03761025,-0.03654379,0.12474581,0.107259944,0.040907603,0.0129189985,-0.1348098,-0.06243795,0.15053006,0.0916103,0.039086696,-0.16760789,-0.09675073,-0.030690078,-0.023378449,0.060239654,0.063918665,0.042621672,-0.020269439,0.04376299,0.019843351,0.0050072167,0.18464331,0.1869587,0.013718958,-0.074868344,-0.17214014,-0.030630661,-0.009311405,0.15615118,-0.14836304,-0.16234829,-0.20363137,-0.19766009,0.029707804,-0.083546124,0.117594264,0.076090224,0.11964709,0.019447198,-0.098308526,-0.028118864,-0.051752646,-0.08651438,0.0096026985,-0.11144148,0.021946086,-0.030159507,-0.009501461,-0.024738045,0.07868067,0.15190138,-0.035201784,-0.02493028,-0.0093072755,-0.0030846607,0.04765223,0.01333892,0.027684854,0.055709954,0.0919719,0.018475486,0.09752554,-0.0373391,-0.029832019,-0.06372972,-0.024112388,-0.032985993,0.028954502,0.041629918,-0.14376406,-0.13964371,-0.055820674,0.0943695,0.027224846,-0.04920196,-0.03222102,-0.01250926,-0.024260014,-0.060925867,0.11200752,-0.019968485,0.021768728,-0.031042391,-0.040376976,-0.12956879,0.021759102,0.09877725,0.06992972,0.07820747,-0.12357032,-0.00067399215,-0.10946611,-0.028169908,-0.02322686,0.062945455,-0.013120898,0.09151324,0.14804468,0.06449898,0.2163422,0.04192885,0.07125116,0.21053253,0.08633531,0.07323687,0.12563184,0.07880719,0.04513838,0.035428103,0.014578178,-0.026616475,-0.0019764623,0.020144485,-0.040677495,0.037370373,0.17065491,0.12867354,0.033109527,-0.09721479,0.0687529,0.106914714,0.007077107,-0.062274873,-0.08950568,0.12864834,-0.044855554,-0.17815569,-0.09117979,-0.1135228,-0.0010893187,-0.041320752,0.084929556,0.049647864,0.059631154,-0.029472131,-0.08417586,-0.038171977,-0.026384301,-0.019874051,-0.089181185,0.0067652627,0.055939343,0.055968136,-0.09263559,0.009143729,0.09992161,0.1601254,0.036957636,-0.1291956,0.04962402,0.11678611,0.08601092,0.00025311753,0.05451307,-0.045902513,-0.006287752,0.058036808,-0.0020440863,0.069196634,-0.046551403,0.039644502,0.077305846,0.018514635,-0.0028053895,-0.07745764,-0.048679985,0.029028311,0.030623995,0.014078495,-0.042352524,-0.06751558,-0.011867561,-0.09734748,-0.073856115,-0.1378437,-0.1111692,-0.036563057,0.06597321,0.021247305,0.20067708,0.10026264,0.077547185,0.04037082,-0.15388343,0.0782681,0.014682454,0.011538415,0.038503543,-0.047379002,-0.018355649,0.07790161,-0.068370335,-0.091226764,-0.21269909,-0.18603183,-0.16205812,-0.17489228,-0.122308046,-0.07591804,-0.11111929,-0.09542579,0.0395344,0.030686492,-0.07560614,-0.038031377,0.10498733,0.13486771,0.015701067,0.038541622,-0.078153424,0.054650147,-0.04296311,0.09418326,-0.064740054,0.002959955,0.00019735546,0.017385101,0.062303565,-0.16615348,-0.010050782,-0.008657626,0.08715622,-0.08433879,0.075446375,0.029083602,0.081718974,0.03453977,-0.064081445,0.11035623,-0.042222794,-0.05112132,8.296456e-05,-0.12085435,-0.0074079465,0.0343021,0.022067655,-0.028184712,-0.010244988,0.0022200663,-0.06534556,0.0789466,0.058467645,0.007146996,0.10929332,0.0163173,-0.034767047,-0.10597564,0.035801064,-0.036223426,-0.04896405,-0.083488196,-0.04206422,0.05686209,-0.04777725,-0.05717849,-0.12940525,-0.027071252,0.009661064,-0.18233506,-0.047298837,-0.09680028,-0.09613431,-0.090485774,-0.11185538,-0.09924303,-0.046745438,-0.16352573,-0.09330973,0.08200066,-0.14945365,-0.05364282,-0.204073,-0.05050843,0.10172757,-0.037632834,0.0401203,-0.21426067,-0.0089126285,0.09389071,-0.022771653,0.10851049,-0.07970314,-0.12079997,0.00055947556,0.1521206,0.12141006,0.014697016,0.0024542494,0.004641307,0.0685258,0.14039774,0.115713805,0.10979638,0.027616963,-0.10302217,0.013392806,-0.03897159,-0.07458404,-0.104704306,-0.20872314,-0.065052055,-0.033066854,-0.009055305,-0.046701856,-0.056286562,0.039467998,-0.0062196623,0.04034268,-0.033876944,0.014874869,0.08411503,0.13680859,0.13882877,0.13227983,0.0730111,0.14959495,0.07430768,0.16884424,-0.048917897,0.0847561,-0.016044384,0.11938272,-0.05234264,-0.054905668,-0.00041063066,-0.115396,0.007013911,-0.071471296,0.026022555,0.024715843,0.0029474506,0.027543427,0.042645894,0.027770082,-0.031132104,-0.04856665,0.063679576,-0.13436325,0.0020078933,-0.15138344,-0.08839414,0.09737413,0.09106353,-0.047624413,-0.06471175,-0.016696924,0.121629015,0.037812322,-0.1274835,0.010872739,-0.024318205,0.06741791,-0.12177284,-0.02174137,0.06242972,0.08595698,0.04982756,0.11224538,0.024168959,-0.07606605,0.061589327,-0.008385958,-0.097641446,-0.13639264,-0.13705659,-0.04227917,-0.033476837,-0.08234818,-0.07056828,0.046694297,-0.0909287,-0.05649855,0.0525445,-0.0005910147,0.04167836,0.021864232,-0.046022717,0.034888633,0.13048296,-0.08242094,0.0015766063,0.048705295,0.010618705,0.13460855,0.04436874,-0.046896756,-0.12035695,0.095867,0.015436899,0.17538807,0.06362691,-0.0032979322,0.07298482,-0.033291735,0.11053041,-0.016134718,-0.050766528,-0.120198056,-0.09692932,0.06366837,-0.009349566,-0.042882517,-0.15790951,-0.14784196,-0.13559046,-0.19999807,-0.16455509,-0.01122589,0.08036415,-0.051490974,0.059184827,0.056041524,-0.054893237,-0.05889499,-0.10525504,-0.008179361,0.1029053,0.030846063,-0.18424653,-0.13015214,-0.08168527,-0.07440379,-0.05509505,-0.05791054,-0.07626418,-0.042938694,-0.22929929,-0.21713546,-0.14582747,0.0018255789,-0.020660978,-0.031620152,-0.16151935,-0.06226502,-0.09541472,0.109314784,0.007094939,-0.042342868,0.01770011,0.023760404,0.12882265,0.14301243,0.08837804,-0.0660592,0.07364388,0.16681677,0.107510015,0.051241107,0.033489555,-0.15135102,0.017277477,0.048329677,-0.009352998,-0.06776721,-0.07532855,-0.020095835,0.13265368,0.083175845,0.06356214,0.036961075,-0.020853344,-0.05434031,-0.110378005,0.015202908,0.057306517,0.13631584,-0.08439812,-0.033864155,0.010975885,-0.06149562,0.018413661,0.107480146,0.06016367,0.048424434,-0.009264551,0.03799871,0.047687106,0.045175254,0.10936724,-0.09135033,0.05074077,-0.06984513,-0.0632315,0.12687658,-0.04552304,-0.054580383,0.097822726,0.11997882,0.07106931,0.03209538,-0.02331209,-0.052514903,0.17182471,0.041738175,0.06732666,0.09605374,-0.016301805,-0.0411694,0.002168803,-0.038747415,0.03239162,-0.0605818,-0.030303357,0.047650345,0.040929615,0.013981251,-0.055690438,-0.039603114,-0.02900842,-0.025362283,0.016773952,0.095326245,0.12119074,0.07437397,-0.0132559445,0.00012373044,0.0019110254,0.06142899,0.13114625,-0.03781619,-0.06970476,0.03850352,0.031881165,-0.032403883,0.011449604,-0.0046140878,0.008955612,0.009160914,0.0018983168,0.000955086,-0.05383742,0.027375447,-0.019585658,0.01695896,-0.15554638,-0.0039075394,-0.032621946,-0.07077873,0.056550503,-0.049837332,0.012441043,0.042879827,-0.0798199,-0.008306889,0.001955096,0.016354674,0.020409327,0.051417712,0.08483977,-0.04896091,-0.053451292,-0.002973612,0.037040763,0.0735233,0.0047440175,-0.026530504,-0.028381709,0.03444904,0.05352923,0.15309244,0.08065985,-0.016380744,-0.018593,-0.09759395,-0.18268402,-0.13496003,0.036284752,-0.041859996,-0.057482913,0.045652896,0.008547188,0.03258718,-0.028425511,-0.07478963,0.11102413,0.05781864,0.06432438,0.006147816,0.007525835,0.0632383,-0.032344624,0.03133542,-0.15598626,-0.122603424,0.069374576,0.052748576,0.0421843,-0.035695925,-0.036259282,-0.028274354,-0.02902607,0.022990268,0.042602085,-0.08313018,0.007512148,0.02363596,-0.016211987,-0.1064165,-0.19811234,0.10261937,-0.0077339797,0.0023992644,-0.116635524,-0.11055134,0.014814609,0.1118869,0.108452335,-0.015965894,-0.22677015,-0.001441903,-0.14306203,-0.028681118,0.017205404,0.074401125,-0.2179572,0.030551974,0.103667125,0.1625774,0.11068512,0.12650442,0.10038872,0.098877825,0.13969563,0.06751097,0.007371522,0.004668707,0.05197514,-0.016593318,-0.07006596,0.005892497,-0.10596137,0.0008584183,-0.12897785,-0.03415424,0.05221166,0.0057780426,-0.04690329,-0.08253277,0.0043912614,-0.14036396,0.053162333,0.13066624,-0.10656251,-0.077351876,-0.076528214,-0.06859196,-0.05102475,-0.060287617,-0.023238521,-0.13563576,-0.033681896,-0.17114338,-0.039461594,-0.038079556,0.013035633,-0.123584725,-0.15487982,-0.12100651,-0.006968023,0.046695303,0.07909647,0.09042708,0.046266392,-0.040078573,0.088403866,0.05399123,0.041492462,-0.058836386,0.002820115,0.068334386,0.021948257,0.021016555,0.04634597,0.1150277,-0.07011257,0.012845257,-0.114467084,-0.04828217,0.039818365,-0.10258932,-0.19284573,-0.12153227,-0.12094397,-0.013516003,0.104085304,0.06055533,0.0645833,0.020518005,-0.022989895,0.09692243,0.012109408,-0.016774524,-0.102395214,0.0304575,0.044467922,-0.089025214,-0.18781988,-0.08434217,-0.097273916,-0.10832688,-0.025114488,-0.02019852,0.018704256,0.13802433,0.057970572,-0.04289805,0.15471093,0.17005411,0.10102333,0.025664616,0.026767809,-0.012328138,0.039784893,-0.018473439,-0.08327728,-0.049664956,-0.019387433,0.02990708,-0.07962554,0.0030444434,0.08129033,-0.054042578,-0.026696568,-0.051870454,0.13410492,0.04059958,-0.02466655,0.08193489,-0.11303629,-0.0534266,-0.06268328,-0.016992765,-0.07031819,-0.103162125,-0.21738794,-0.009357702,0.11746093,-0.021763196,-0.07125237,-0.10728313,-0.008163679,-0.003169496,0.06889262,0.012621346,-0.1469307,-0.13782062,-0.009749368,0.06066736,0.040941726,0.049995083,0.0019125779,0.07282509,0.099778116,0.10832694,-0.040324498,0.010098385,-0.079833284,0.07871398,0.15126646,-0.03104166,0.15789013,-0.008704222,-0.0067799347,-0.17368852,0.075208895,0.047086075,0.07047042,0.044138547,-0.0805549,-0.052558705,0.079375386,0.061802857,0.12908466,0.021305531,-0.072902285,0.04395618,-0.0011579123,0.018521165,0.12883368,-0.15875366,-0.21588011,-0.045311324,0.054181155,-2.852405e-05,-0.07302837,-0.07137817,-0.13370062,0.058926273,0.08840548,0.06375629,0.04256865,0.002935627,-0.027658371,0.038570583,0.07465168,0.06424436,0.0171756,-0.108140275,0.05729833,-0.021917103,-0.08674337,-0.2285602,-0.2034043,-0.037329603,0.05196313,0.015130893,-0.0066065853,0.1104461,-0.015262755,3.3412165e-05,0.034560602,-0.098706044,-0.0462614,0.109771766,0.10250304,-0.09005212,-0.11119853,0.11604122,0.1347704,-0.04567009,-0.14825252,-0.09260967,0.051206,0.09452884,-0.037100393,-0.20671436,-0.17707106,0.110035054,0.047309328,0.033554915,-0.14392854,-0.033179015,0.1800851,0.17109475,-0.14406559,0.01064071,-0.049202777,0.10073178,0.08585774,0.051455725,0.09235975,0.08706965,-0.04896427,0.04317987,-0.024064232,0.08482533,0.12724502,-0.00023827211,-0.028513916,0.16517423,0.07689889,-0.037744932,-0.057035424,-0.09869397,0.13744466,0.06461121,0.013856121,0.05844335,-0.05090044,0.105207264,-0.004499396,0.0067266715,0.09336965,-0.035749026,0.05630606,-0.05445199,0.05447612,0.12089093,0.085189044,0.01198177,-0.043998566,0.008344603,-0.024788138,-0.049329087,-0.020154944,-0.02467447,0.03028505,0.096860796,0.053978287,0.047175407,-0.057299633,0.121017836,0.10725076,-0.02607895,-0.0600277,-0.13253967,-0.10077931,0.0509687,-0.18596852,-0.084316954,-0.040483825,0.120264195,0.047666423,-0.18188947,-0.010369546,0.044428926,0.1534211,0.051020384,-0.074154995,0.04000395,0.009572743,0.121157765,0.031765476,-0.03001713,-0.07918143,0.027694466,0.029812658,-0.06325065,-0.060759645,0.002228633,0.033164177,0.0015145486,-0.13735087,-0.01360504,0.06841108,-0.05673784,0.021469211,-0.14901063,-0.10537633,0.07959196,-0.00475782,-0.053428024,-0.0020494622,-0.031192258,-0.039608352,0.01943115,-0.07063291,-0.050296072,-0.018158058,-0.11026948,-0.09464245,-0.11179248,0.027519954,-0.06968643,0.04213277,0.090035364,-0.13922703,-0.20843978,0.079023205,0.021576378,0.14621368,-0.023899779,-0.026558151,-0.05050367,0.029701978,0.059410717,-0.014776409,-0.13357173,-0.05272713,-0.036563583,0.01625895,0.030037437,-0.052610375,-0.0066252346,-0.04819539,0.10460655,0.10494201,-0.13458148,0.0015958336,-0.12417,-0.14311293,-0.050709393,-0.014535121,-0.026211098,-0.15411465,-0.11339001,-0.13568014,-0.1490051,-0.15642777,-0.085933134,-0.04404461,-0.083906606,-0.12744153,-0.06449473,0.06825651,0.07218837,0.092729785,0.03718778,-0.033241488,0.09547492,0.045335226,0.044497,0.038535684,-0.020663995,-0.01034592,-0.026962727,0.02774661,0.055982865,0.01183393,0.15113373,0.06626482,-0.014105445,0.03772342,0.05107465,0.040553845,-0.031214178,-0.036134575,-0.043738008,0.022845568,0.054614775,-0.073500365,-0.028198473,-0.20420109,-0.13695233,-0.09911642,-0.10301717,-0.09931647,-0.0066618095,0.034683216,-0.13394998,-0.0251463,0.05668278,0.1376112,0.039209943,0.019328456,-0.063956305,0.039230365,0.029737817,0.079603165,-0.10056518,-0.06397075,0.051226765,-0.028317515,-0.12070737,-0.11686092,0.015030451,-0.055851255,0.08180172,0.058431733,-0.077631794,0.004287382,0.06807595,0.017717853,-0.057582386,0.16503096,0.051793184,0.015706986,-0.03137578,0.021302355,0.090385236,0.17235784,0.1350664,0.050051194,0.07042715,0.14732285,0.10192507,-0.013272018,-0.023354908,0.07117952,-0.03676243,-0.054055523,-0.034215953,-0.05681088,-0.033193417,-0.02383516,0.042240694,-0.073707215,-0.008262247,-0.06759821,-0.06967343,0.00067925104,-0.12703353,-0.019999456,0.004518115,-0.13809618,-0.16153856,-0.09486717,-0.13928513,-0.019981686,0.06066565,0.050903115,0.027029922,-0.12607771,-0.06612659,0.08475885,-0.027472936,-0.004059036,-0.021620758,-0.03852387,0.010014907,-0.029533774,-0.0048403726,0.03204448,-0.05090753,0.047500864,0.16239488,0.017066296,-0.02183557,-0.072339,0.1186202,0.17399845,0.16969818,0.104789,0.021899253,-0.09169866,0.108255975,0.12319691,0.03267909,0.091891944,-0.12714937,-0.08174172,-0.04072608,0.08234081,0.022220658,-0.047709342,-0.04021804,-0.09883875,-0.02155387,-0.037567206,-0.049916144,-0.043067005,0.09564964,0.038872723,-0.06619426,-0.06932007,0.11252489,0.17440629,0.13658844,0.013208655,0.052864783,0.083536185,0.0014440387,0.13067213,-0.08573279,0.022691142,0.01223185,-0.015621575,-0.113541596,0.0323565,-0.107825905,-0.042518258,-0.0696549,-0.023617757,0.050590605,-0.13447705,-0.17070949,-0.15873948,-0.19237097,-0.028762002,-0.18924443,-0.19119301,-0.1957239,-0.1363351,-0.052370988,-0.05885571,-0.10764792,-0.08155214,-0.018138878,-0.032234143,0.087248504,0.15023555,0.06208186,0.06093241,-0.033350687,0.03962365,0.12833755,0.07901514,0.11578016,0.040836494,-0.025229866,-0.003730977,0.008575946,-0.15002853,-0.15647885,-0.15988047,-0.12615588,-0.008352146,-0.124804184,-0.13645603,-0.1382886,-0.19077392,-0.0017356706,0.012052686,-0.033894613,-0.11592989,-0.12901299,-0.056833908,-0.066517465,0.0062306407,0.047019396,0.01340969,0.040871207,0.11697608,0.11829605,0.047048498,-0.069776565,-0.023871476,-0.096926376,-0.0014269946,0.019928133,-0.08802745,-0.09794641,-0.08906767,-0.07740648,-0.050728917,-0.088219404,-0.103141665,-0.18364218,0.04023382,0.04516454,-0.019054964,-0.08524222,0.06031207,-0.02709134,0.021090347,-0.041658837,-0.004126609,0.10600968,0.0016235134,-0.060780965,-0.0197812,-0.11819072,0.018116605,-0.06420091,0.039031833,-0.059638742,0.040283475,-0.04806322,0.0121330805,-0.07125477,0.007542918,-0.00090417295,0.05388374,0.05086807,0.014384774,0.028106194,0.08628878,0.12606484,0.00039256838,0.03898098,0.024530658,0.049373515,0.037578296,0.1542575,0.10648381,0.086950995,0.098345466,0.078634195,-0.050089657,0.1324116,0.13061483,0.062327918,0.034254555,-0.068269484,0.0017178394,0.050152946,0.057806283,-0.031656973,0.03212421,0.041328065,0.022751763,0.012628148,0.11036707,-0.033650644,0.0024343054,0.039191354,-0.0030056478,0.03065666,-0.022778867,0.082480274,0.008601471,-0.04022461,0.09580883,0.043454465,-0.06896656,-0.024415815,-0.021398678,0.03874792,-0.07468595,-0.015588708,0.0005425059,0.031367674,-0.107806236,-0.09659865,-0.0079587335,0.027370922,0.03887539,-0.03070318,-0.120864764,0.06367307,0.039912328,-0.09447752,-0.1354845,-0.047959812,-0.09069928,-0.030825999,-0.09105745,-0.0043392554,0.06906088,0.023369074,-0.027462859,0.04401098,-0.08788646,-0.033161674,-0.002704669,-0.01553659,0.0004621763,-0.088435784,0.07130088,-0.03588804,0.048677735,0.052715696,0.08718698,0.029885823,-0.066651665,0.056136336,0.04865595,-0.003404302,0.12409321,0.025643263,0.054111753,0.036667027,0.06520298,-0.031193718,0.09190116,-0.035534218,0.049960878,0.06157789,-0.08931934,0.13029118,0.057293024,0.08187045,0.02942561,-0.1359746,0.054876935,0.049153686,0.038029727,0.091984816,0.03243781,-0.043994628,-0.07185293,-0.07482903,-0.05693182,0.011464495,0.042853937,-0.07878843,0.11353095,0.06134885,0.108392835,0.05437673,0.08435168,0.16956568,0.092932105,0.12556353,-0.030851051,0.09984922,0.12838581,0.14084281,0.06720539,-0.17665888,-0.12839232,0.032980356,0.08516786,-0.046050463,-0.15438338,-0.22903997,-0.2501327,-0.21979679,-0.24974382,-0.0043686973,0.015406062,0.0074467217,0.09271238,-0.029614268,-0.045489088,-0.010819295,-0.011306437,0.14965291,0.096430145,0.01840771,0.03649789,0.08038736,0.00896625,-0.06574529,-0.05132239,-0.0072836033,0.027554559,-0.065296695,-0.04000027,-0.072213024,-0.10544317,0.03402241,-0.09720926,0.00823332,-0.058421154,-0.02326778,-0.11872048,-0.006003407,0.07825693,0.12333325,0.08336754,0.084695145,0.016377293,0.092925765,-0.16117467,-0.03408436,-0.042966824,-0.06093659,0.06194502,-0.0057773795,0.07590121,0.01781167,-0.15596153,-0.16132976,0.116315864,0.053631432,0.015131104,-0.11381208,-0.19814603,0.024300156,0.069543906,-0.0013445329,0.092597336,-0.022405777,0.14239995,-0.005769099,0.1185437,0.021335417,0.09332555,0.16850993,0.017469186,0.10059233,-0.09527807,0.0150714405,0.11350535,-0.0007825897,0.10531801,-0.036733106,-0.024265192,0.079645626,0.06542741,0.00185143,-0.105745636,-0.10833382,0.048910063,-0.025527235,0.014827679,0.12186561,0.15625541,-0.054657515,-0.06674325,-0.03615289,-0.049299855,-0.015893603,0.018324483,-0.0023746265,0.014827165,-0.12710953,-0.2753777,0.05624433,-0.02710353,-0.20477489,-0.36043844,-0.2622037,-0.103558496,-0.10621231,-0.15120856,-0.023053452,0.017839994,0.028259374,-0.105881564,-0.0871906,8.0948426e-05,-0.2256442,-0.029163674,-0.19166042,-0.057895463,0.0037574747,-0.011057118,-0.19110237,-0.07612872,-0.05826282,0.03491744,0.04173252,-0.16390169,0.0030637053,0.04879478,0.031054452,-0.00012036781,-0.069989726,0.06788627,0.06531618,0.06359808,0.080043495,0.018707147,-0.0037226486,-0.007916251,-0.089331605,0.06792168,0.020586248,-0.10408,-0.058322497,-0.0037250272,0.09878724,0.020836813,-0.08336714,-0.065272585,0.0625242,0.043588713,-0.02353484,-0.13840954,0.076990806,0.07335122,0.15211612,-0.038199153,0.02192652,-0.11067114,0.003451513,0.09902123,-0.034222975,-0.02551861,0.062243216,0.07787135,0.122353785,-0.03475257,-0.004364458,-0.026646573,0.004723536,0.03536926,0.090837926,-0.005931429,-0.027833007,-0.018707322,-0.024262208,0.12864885,-0.014773623,-0.071406566,-0.0022793624,0.04895511,0.020336779,-0.04448497,-0.024588386,-0.05906348,-0.014778131,-0.022383109,-0.060497835,-0.0084408,-0.016918402,0.0014126218,-0.012662176,0.006240517,0.01407426,0.04192644,0.031895194,-0.10465948,0.004907767,0.0069179684,0.060234506,0.09398783,-0.026339954,-0.047320824,0.08359791,-0.07326611,0.16926764,-0.0048914254,0.0048983814,0.100490734,-0.04336812,-0.022015229,-0.007211561,-0.05054282,-0.062046356,-0.028369984,0.044340782,-0.037741456,-0.0027079715,0.047249362,-0.07288953,0.019852279,-0.006092008,-0.048448887,0.055849385,-0.010520944,-0.04357157,-0.06973044,-0.02620652,0.031084869,-0.14666498,-0.10502965,-0.13800266,-0.15424769,-0.10783793,0.0057795155,-0.003999325,0.03272731,0.029872416,-0.072577655,0.009460261,-0.03870109,-0.026931588,0.074745394,-0.11604351,0.012312107,-0.121248215,-0.03006353,0.07368771,0.07988399,-0.052353725,-0.15761006,-0.029091235,0.08417276,0.06749434,-0.15721679,-0.24974638,0.0971842,0.04137336,-0.02483167,-0.06283053,-0.07926688,-0.0061250785,-0.05973105,0.056579396,-0.05354574,-0.14264648,0.055961363,0.06101569,0.005472986,-0.00053371466,0.027543506,0.0021152475,0.029833108,-0.025311636,0.04213062,0.03455765,-0.102536775,0.047925435,0.07267348,0.09376287,0.038951263,-0.09868297,8.5390464e-05,0.073397376,0.077715114,-0.03214595,0.057660542,0.03821211,-0.083238505,-0.10553442,0.05913053,-0.021500489,0.030782634,-0.02687033,-0.059499774,-0.00041152735,-0.054522727,-0.17359154,-0.16616513,-0.14257458,0.0037731836,-0.08882793,-0.13286637,-0.022086035,-0.048473317,0.0068817637,0.038066454,0.022354934,-0.106156886,-0.004999006,0.037545476,0.05613502,0.013511658,-0.05229307,0.048981894,-0.060822442,-0.052861158,-0.13491675,-0.045451,-0.100154616,-0.054692436,-0.22662827,0.041177236,-0.026332557,-0.13534819,-0.21306375,0.05151247,-0.031127838,-0.10922355,-0.22101858,-0.21256845,0.034702454,-0.098470986,0.0074306573,-0.22957355,-0.044178277,-0.097932026,0.016066287,-0.008579187,0.053394966,-0.100427374,-0.16040799,-0.09211907,0.08470646,0.062028926,-0.0098668635,-0.18839239,-0.03465456,0.03078408,-0.007123268,-0.007310196,-0.01547431,-0.09585828,-0.095847994,0.08194136,0.043108843,0.07695456,0.00737049,-0.16685402,-0.12641461,-0.09058721,0.05332136,0.0043011266,-0.009233582,-0.09971587,-0.09418373,0.043174192,0.04441407,-0.12862852,0.072544575,-0.12799488,-0.031850033,0.025583526,-0.029532026,0.0953686,0.010928473,-0.10418767,-0.05634954,0.06983201,0.09744059,0.010557575,0.033717666,0.06126296,0.026960453,0.0913893,0.10456598,-0.16731183,-0.09815136,-0.14013126,-0.053125706,0.10899538,0.010500959,-0.08304122,-0.10410385,-0.13672706,-0.023767292,0.084837995,-0.021372788,-0.30775687,-0.19683419,-0.19137794,0.016906068,-0.025592836,-0.10897605,-0.13213219,-0.06599468,-0.10420652,-0.040333387,-0.10310026,-0.048601717,-0.03184404,-0.02412849,-0.0042713573,0.06325888,0.028305268,0.0018473355,-0.02746179,-0.0431184,0.09272009,-0.041858125,-0.112913705,-0.023700409,-0.1201138,0.06980679,0.074743524,-0.04241876,0.011171512,-0.07762914,-0.08154531,-0.043822464,-0.04804201,0.01371419,0.019603161,-0.0124991415,0.031157393,-0.13502415,-0.003168388,0.10217196,0.11952516,0.126387,-0.009238488,0.066601455,0.12592123,0.13306189,-0.06949397,0.015387089,0.026894545,0.15899451,0.06713203,0.029533878,-0.07713479,0.002119554,0.15356742,0.1922597,-0.044288315,-0.06337942,0.123710066,0.07930932,0.14095776,-0.00763469,-0.011370999,-0.013406104,0.08205913,0.088441916,0.056676093,-0.04799167,-0.0126154,0.104525924,-0.08764164,-0.047105767,-0.020890413,0.07761944,-0.058432385,-0.07064001,-0.09607993,-0.0805367,-0.010287184,-0.020038104,0.07514491,-0.12276815,-0.041728165,-0.12551814,0.04102106,0.017539699,0.09136122,0.122541495,0.037541285,0.020895472,-0.071971245,-0.0042811814,-0.08955241,0.01827786,0.0050736447,0.05435772,0.003102428,-0.0063456683,-0.07000078,-0.018177172,-0.039934807,0.058044262,0.12337998,-0.092024066,-0.086491,0.001037648,-0.06192779,0.005843082,0.17897715,0.11733943,-0.0448763,0.038465567,-0.04207136,-0.013033495,-0.070575185,-0.055218823,-0.003033701,-0.0054473556,0.044461075,0.013551102,0.015905475,1.1977667e-05,0.023643015,-0.091682896,-0.0019052105,-0.10472092,0.02717999,-0.0890864,-0.16658312,-0.11492685,0.008816953,-0.018928248,0.060336545,0.014375202,-0.062300224,0.035914864,0.044746272,-0.019220153,-0.01079363,0.0402881,0.06869134,0.15272252,0.16282095,0.09068063,0.076611735,0.013439114,-0.056061022,-0.11648718,0.0331028,0.08642752,-0.10766741,-0.14529465,-0.108466126,-0.05236399,-0.07330431,0.05012117,-0.027131105,-0.028111326,-0.10973429,-0.08283873,-0.11952019,-0.10815886,-0.036609538,-0.20247987,-0.041933507,-0.059521258,0.04072149,0.04655039,-0.11997579,-0.17576988,0.017311744,-0.038008127,0.068670265,-0.040949073,0.05126749,0.15617397,0.123269446,0.11645621,-0.11610016,0.09860577,0.070915386,0.06329413,-0.08209591,-0.00095070497,0.05247523,0.048941847,-0.043355756,0.058398187,0.017534101,-0.039925575,-0.05326195,0.037007783,-0.07045459,0.017137075,-0.007602894,-0.059215154,-0.04828698,-0.1374199,0.049099162,-0.053019274,0.10345591,0.12934503,0.11468736,0.047602743,0.02341115,0.015088133,0.023236558,-0.03442729,0.055411838,0.060970817,0.12032109,0.0690253,0.066759445,0.018432157,0.029763062,-0.03538258,-0.10790268,-0.09171064,0.018419683,-0.03961982,-0.065169744,-0.107784465,-0.12574035,0.0113659445,0.060682286,-0.053868838,-0.09766857,-0.15392005,-0.059375335,-0.01774824,-0.04202994,-0.100434564,-0.034077726,-0.019926706,-0.11617065,0.07723964,0.09921252,0.054333623,-0.02429694,0.08163809,0.07252259,-0.05273823,-0.014354751,-0.15933996,-0.05943792,0.0700163,0.092432715,-0.0376052,-0.075685,0.0439795,0.02107072,0.0052848845,-0.07007118,0.21000385,0.17510897,0.076555386,0.08614224,0.077318825,-0.24192911,-0.0148191005,-0.033586938,0.017000137,0.0043495395