-0.06972995,-0.11856842,-0.0393181,0.09016525,-0.009488192,-0.11552954,0.06282325,0.081081666,-0.09115402,0.0673468,-0.12354686,-0.051683284,0.22326006,0.10792967,-0.055221546,0.1292666,0.0051683527,0.07391829,0.10954495,0.14056985,-0.03694596,0.08509531,-0.023943797,0.035582576,-0.046554692,0.03018636,-0.008137979,0.018792463,0.04139177,0.1408331,-0.016905306,-0.01843025,0.10594435,0.077921934,0.13189143,0.045622274,-0.10586694,0.07277168,-0.19679782,-0.048973043,-0.049101032,-0.042410787,0.07291102,-0.019303346,-0.027665233,-0.17836271,0.02865195,-0.062605634,0.054101795,-0.010336808,0.018156908,-0.047864616,0.1072808,-0.014934034,-0.00651068,0.016400352,0.017498493,0.16430792,0.08274163,-0.09682614,-0.13114429,-0.004941026,0.012430908,0.049136523,0.058242854,0.027637701,-0.051624093,0.03519663,0.08385724,0.02878054,0.039681397,-0.021912785,0.055308994,-0.08960837,-0.03416882,-0.026280988,0.05953268,-0.06157091,0.19072975,0.14545289,0.006355301,0.032644615,0.015196672,0.044886127,0.1473323,-0.069943935,0.067380704,0.13007253,0.09696756,-0.015885744,-0.056307893,0.056175116,0.13009092,0.07854179,-0.09399789,0.041188505,0.08676794,0.025033714,-0.034884118,0.12344645,-0.13497941,0.085359335,-0.08458437,-0.06332382,0.003665524,0.0505837,-0.17408629,-0.08565499,-0.039587054,0.048226796,-0.07728689,-0.1308591,0.00046378205,-0.22559652,0.004727494,0.15581933,0.020524098,0.0013027054,-0.19485746,-0.025621265,-0.043673553,0.2013458,-0.004748737,0.20581774,-0.037669912,0.08728494,0.13921353,0.17601475,-0.1463079,-0.018369416,-0.040717795,0.04568211,0.012689854,-0.0037087526,0.074271746,-0.029950768,0.050906807,0.061207745,0.011945614,-0.04908326,0.11219292,0.11916919,-0.04956043,-0.03871363,-0.03748163,0.059140027,0.029699413,-0.07286332,0.12847237,0.03718074,0.06359791,0.17403549,0.04077414,0.06754692,0.22285135,-0.013868749,0.077781156,0.030524269,0.022110227,-0.011457094,0.060069703,-0.12737928,0.068969555,-0.18571407,0.09204473,-0.043657687,-0.025858242,-0.0017026851,0.10449623,-0.017984817,-0.0662551,0.019447098,-0.05686059,-0.07574384,0.031700738,-0.048953023,-0.11141577,0.20140207,-0.003466627,-0.091547,-0.09818961,-0.01633156,0.09130819,-0.04738509,-0.0016586556,-0.115657546,0.06163327,-0.06537219,-0.16217908,0.11749304,0.039142452,0.091121666,0.025625449,-0.106475994,-0.082193814,-0.02278491,-0.044832893,0.071044356,0.09238523,-0.051208243,0.06237974,-0.072777666,0.021276288,-0.045613293,-0.0054792343,0.16781881,0.028783595,0.010718674,0.033959053,-0.025620759,0.02706779,0.020605974,0.092275985,0.029865675,0.09055609,0.21168822,0.002234031,0.06722241,-0.024183078,-0.080723785,-0.06440859,-0.15283838,0.103208534,0.04993144,0.028084315,0.046075065,-0.12008951,0.09966867,0.0291593,0.060006503,0.01622543,0.01019612,-0.035084154,-0.043836433,-0.09597414,0.0070879892,-0.018451039,0.013112706,-0.14462273,-0.051639833,0.06769573,0.055200916,-0.020179447,-0.035135016,0.0831807,0.0185111,0.06943213,0.023551533,-0.022202494,-0.09267794,-0.0018524085,0.0077911587,-0.019216772,-0.02158273,0.089734,-0.043283142,0.1486866,0.14167507,-0.10601083,-0.1383829,0.0839489,0.0043655704,-0.0057592816,-0.06311985,-0.016307887,0.0134192,-0.021452239,-0.056994043,-0.046768215,0.08072884,0.050157506,0.2198797,0.116050884,-0.073134236,-0.0053375424,-0.12687662,-0.009970328,-0.028410565,0.036065474,0.016514676,-0.018956345,-0.019208932,-0.022862708,0.03023025,1.2185686e-05,0.08001925,-0.123095214,0.05771086,0.012907878,0.06603202,-0.067986004,-0.036685437,0.0039305915,0.00059832045,0.042691246,0.04282088,0.025952496,0.09478065,-0.1795587,-0.13338192,0.005706977,0.07375937,0.0729772,-0.16145824,-0.15713404,0.09675271,0.010875957,-0.028506305,-0.056404468,-0.10131364,-0.025262022,-0.056859594,-0.0556176,0.09767769,-0.054036602,0.069437325,-0.1522013,0.1520024,0.025840698,0.035032433,0.12618378,-0.004882686,0.10577207,0.04180685,-0.0035003885,-0.09467164,-0.23473276,-0.039616346,-0.103436224,-0.049553044,-0.020009868,0.07056842,-0.11649826,-0.0639925,-0.017958611,-0.013050127,-0.072361074,0.0055558337,0.110938005,-0.20595829,0.035467464,-0.119256265,0.07015188,0.19300415,0.04641122,-0.016758354,0.042241212,-0.036898103,0.16381864,0.0878864,0.055730123,0.10291822,-0.02930577,0.0010698558,-0.09871763,-0.14655164,0.0670994,-0.0007672697,0.0755967,0.110422045,-0.11737931,-0.073491074,-0.034022346,-0.15343523,-0.013748159,-0.19236198,0.059102297,0.006340298,0.0039541274,-0.10899966,-0.0955921,0.02751608,0.11807005,-0.073762886,-0.024294926,-0.1378799,-0.12081986,-0.09056683,0.13022584,-0.047178634,-0.018428376,0.14854448,0.051306643,-0.028978322,-0.0347008,-0.009688197,-0.050366927,0.07526179,-0.04521301,0.037357897,0.040460065,0.004729391,0.18704121,-0.039880134,0.011624162,0.14431399,-0.02158243,-0.089874476,-0.022219589,0.115401395,-0.12952243,0.07446721,0.017653774,0.04308732,0.0046093455,0.05104089,0.14450622,0.12843356,0.14327224,0.049841985,0.100182384,0.12035855,-0.022505352,0.22572857,-0.063816346,-0.036839277,0.038893666,-0.018540906,-0.019687869,0.032385323,-0.054224994,0.0006194111,-0.0969185,-0.09668911,-0.05904469,0.07464454,0.10901651,0.08344578,0.046964902,-0.16524102,0.113599546,0.16059548,0.009774191,0.17058273,0.04127135,-0.12041439,0.12119977,-0.07363846,0.13295731,0.16083294,-0.026391847,0.02870161,0.004612632,0.17578615,-0.011606407,-0.05049974,-0.11492624,-0.050110992,0.016889514,-0.031873975,-0.086099856,-0.0040828492,-0.020434858,-0.02483219,0.13274813,0.09194195,-0.022239337,-0.12385513,-0.035077803,0.08919823,0.018966153,-0.007252496,-0.011203281,-0.054851137,0.04548133,-0.08100451,0.07011418,0.027216563,-0.031099752,0.07097514,-0.23216681,-0.023699563,0.10818105,-0.014254755,-0.020042697,0.014879474,-0.10982909,-0.029557856,0.0038972932,0.049386665,-0.00926375,-0.016532827,-0.06782074,0.022403484,-0.118992716,-0.11948333,0.03231436,0.07627668,0.070065774,-0.11264154,-0.027456757,0.10916589,0.008892471,0.03774844,-0.101691425,0.0018057177,-0.037450522,-0.0019234499,0.054921538,0.03953682,-0.023006639,-0.033236824,-0.08135021,0.04020771,-0.07902678,0.08646252,-0.031045586,-0.040324356,0.06744012,-0.1453425,-0.17164104,-0.034081362,-0.11231193,0.02319728,0.059898674,0.08260827,0.062306024,0.07563997,-0.0014694929,-0.039725896,-0.14877878,0.085569784,-0.07580595,0.0798905,-0.067007765,-0.019478014,0.029413838,-0.10411336,0.09584771,-0.073543124,-0.08152038,0.014159057,0.09588434,-0.034742344,-0.014405874,-0.071580105,0.11251,0.1327572,-0.17570148,0.034651432,0.054944325,-0.120680496,-0.017365377,0.07239221,0.02018701,-0.10311397,0.03329004,-0.10035825,0.08386537,0.111962855,-0.044263,0.13573332,0.1534844,0.009103174,-0.07404926,0.054887477,-0.099152304,-0.09719904,0.07907911,0.006452901,0.0888038,-0.06000981,-0.051275145,-0.07908816,-0.026320904,-0.09074626,0.070395716,0.20786127,0.05928238,0.012275686,0.05131101,-0.06500815,0.109352216,0.065113515,-0.00885803,0.052536946,-0.04449408,-0.057312775,0.01020782,-0.13365339,-0.044766195,-0.027357845,-0.10265594,-0.1027167,-0.17528358,0.09141341,-0.042538375,-0.12526639,-0.08081237,-0.0042256243,-0.013496653,-0.035873253,0.052859727,0.06709569,-0.023292374,0.006077862,-0.033990566,0.1555133,-0.01617545,-0.13685828,0.16906354,-0.016145252,-0.020632505,0.116245896,-0.13990405,-0.0269234,-0.024218913,-0.036749028,0.14012241,0.03808543,0.03269482,-0.0882253,0.095412135,0.032659944,-0.047268596,0.18404095,0.032744,-0.120691404,0.03885719,-0.036290467,-0.15570992,-0.06544252,-0.030406091,0.11522113,0.13083188,0.20799345,0.057946444,-0.1963994,0.03475261,-0.100288495,-0.060012255,0.01191372,-0.012139748,0.068392426,0.0093816435,0.12681094,0.06734317,-0.0920468,-0.04567264,-0.033893365,-0.10109241,0.0042165,-0.08942194,-0.027266862,0.11938816,0.07901245,-0.05350065,-0.015351165,-0.10706961,0.008980715,-0.03819024,0.0494384,0.05806977,0.024316782,0.07126795,0.009702119,0.046707634,0.022837242,0.0036505545,-0.025268182,0.07381129,-0.1178786,0.046410598,0.078274965,-0.027857598,0.014701806,-0.07933359,-0.10273523,-0.07037071,0.0007422451,0.0050553484,0.1286003,-0.028406914,0.052817438,-0.13131298,0.097580925,-0.027517783,-0.010571784,-0.19407973,0.027550064,0.026760198,-0.03686263,0.07442221,-0.012459691,-0.0056752237,0.029034326,0.054574274,0.051036548,-0.11402434,-0.022928078,0.18170092,-0.019670514,0.13959485,-0.0139923645,0.026333224,-0.10977831,0.000837468,0.111128874,0.035887036,-0.04005856,-0.07043051,0.023464,-0.08128431,0.04543174,-0.02113149,0.038310766,0.16724275,-0.1516672,-0.06541689,0.010436715,0.16922127,-0.030584885,0.20657471,0.020227814,-0.05859878,-0.056668617,0.13470991,0.099750765,-0.0009968549,0.085426666,-0.11624245,0.0033015124,-0.01362541,0.16758761,0.036706667,-0.06870738,0.202477,-0.027324993,0.0042524873,0.094666556,0.06614868,-0.0125332745,0.014081374,0.014640639,-0.02631841,-0.003174696,0.024058048,0.06892994,-0.05400976,-0.013361336,0.1513225,-0.03681408,-0.11896302,-0.0051099015,0.13579749,-0.0615284,-0.13770296,0.1583136,0.025804251,-0.107905395,0.0130658625,0.09403427,-0.10798776,0.10224393,0.0065918574,0.00021817077,-0.07090186,0.027333586,-0.02036122,-0.12023678,0.056164555,-0.0912535,-0.067950584,0.01839532,-0.06275351,0.066018835,-0.026447209,-0.18681371,0.069388494,-0.058832638,-0.06896686,0.09836509,0.13314025,-0.057724338,-0.12875262,0.016929852,0.043945894,0.06485542,-0.06265005,0.02357302,-0.10438826,0.06142967,0.011405595,-0.03117318,0.09992083,0.120104015,-0.08794524,-0.12666473,-0.052502096,-0.08114701,-0.13339204,-0.09789072,-0.023237744,0.0057358653,0.011022912,0.020633947,0.076328,-0.09500551,0.025554864,0.012959422,0.1960858,-0.05761545,-0.1296223,0.00026959096,0.024756717,-0.044766836,0.10610877,0.004363549,0.097719856,0.037591778,-0.051951062,0.13124701,0.0033402876,-0.06209104,0.044891402,-0.0029955723,0.017251037,0.06646444,0.0005464314,-0.11231472,0.10601202,0.12714162,-0.15711969,0.025204409,-0.0730363,-0.046442967,0.0242198,0.073949724,0.119089134,-0.05515645,0.073376335,-0.027481848,-0.21715654,-0.10635885,0.103277825,0.018648628,0.1348649,-0.09307856,0.014377821,0.07323638,-0.050218105,0.0039511602,0.01743588,0.13110152,0.12141564,-0.100723945,0.07061316,0.044441447,-0.00041864638,-0.006552908,0.030185318,-0.17994535,0.020724429,0.040947825,0.16673346,-0.008703857,0.041594546,-0.047113597,0.035594504,0.12794444,0.058275305,0.064405054,-0.06941158,-0.049375568,-0.039260946,0.094093606,0.11162708,0.12738423,-0.07007323,-0.009188392,-0.039737746,-0.013521797,0.035333376,0.064424776,0.074737824,0.0014389196,-0.07575467,-0.039209493,-0.10460689,0.007945208,-0.07267935,-0.06453747,0.16831179,-0.1295774,0.06008537,-0.06921036,-0.017125348,-0.00914912,0.17736574,0.19100115,-0.032913297,0.015430135,0.061259728,-0.03328976,0.08233055,0.05648173,-0.0027366395,-0.00907215,-0.053046435,-0.051237732,-0.12443127,-0.02872408,0.14656042,0.20171589,-0.09505133,-0.13752885,-0.04613502,0.007542641,0.11063089,0.06332452,0.10689944,0.012797798,0.05329225,-0.029124731,0.033901807,-0.09191237,0.07296318,-0.10278199,0.10043501,0.079733916,-0.018036598,-0.0015013826,0.07085238,-0.13017537,0.12763314,0.01201203,0.035193738,-0.06935145,0.13239285,-0.036145918,-0.0042217807,0.0011138535,-0.022777418,0.12094296,-0.062795475,0.013448243,-0.057438273,0.1789923,-0.02918389,-0.04817152,-0.21325509,0.1357155,0.0985271,0.019896716,0.031870667,0.057225253,-0.0456618,-0.059126165,-0.023388848,0.109314665,-0.028554197,-0.004799396,-0.11245776,-0.07448362,-0.03625514,-0.07338846,-0.007884646,0.026113907,0.0152849825,-0.025449486,-0.09981825,0.16135062,-0.054012015,-0.072686955,0.16990155,0.09079481,0.12294841,-0.055824686,-0.16197693,0.025067506,-0.076082155,-0.03481158,-0.034570083,0.06981399,8.25552e-05,0.105850354,0.069761336,-0.010630514,0.0043491544,-0.23711048,0.19618617,-0.10355509,-0.070716426,0.01267178,0.014282547,0.04143986,0.116156384,-0.017944798,-0.019534022,0.08182018,0.06669338,0.053124204,0.028391425,0.06526279,0.14804795,-0.06965734,-0.012784576,0.014212678,0.14035782,-0.09299035,0.021361079,-0.087796256,-0.076581426,-0.15636495,0.11546863,0.031183446,0.03078425,-0.10271073,0.007130766,0.0118407365,-0.019480353,-0.008285476,0.038118865,-0.052109674,0.05253525,0.07747094,-0.12579867,-0.023384918,0.07504185,0.0012385563,-0.19344045,0.096238665,0.12868004,-0.026035607,0.04107381,-0.006452875,-0.099380076,0.076358035,-0.1720681,0.15219188,-0.020951016,-0.10485355,-0.17671664,0.019719029,0.086362295,-0.008834995,0.087534286,-0.061386168,-0.09597143,-0.016584579,0.09137775,-0.071146265,-0.013637539,0.05655514,0.02459153,0.13030267,-0.014787637,-0.08988998,-0.11580312,0.06484876,-0.0029810634,-0.03414434,0.07382517,-0.16401814,-0.021144833,-0.019944629,0.041537065,-0.0037895436,-0.06915328,-0.028315717,-0.026695345,-0.018236352,0.085265584,0.036842916,0.1467696,0.09430875,0.09547967,-0.073535934,0.041869197,0.06681373,0.08019541,-0.034627732,-0.13664716,-0.01102196,-0.018477406,0.07030231,-0.026796812,-0.0928286,-0.042367663,0.16257325,0.014003038,-0.031344585,-0.0005793952,0.08463987,0.1053482,0.0077734548,0.03295704,0.036865238,-0.057533883,0.15686086,0.09499252,0.09943438,0.085133836,0.01161252,-0.055087022,0.13387246,-0.09887027,0.09446245,0.053261872,0.04685217,0.0027337393,0.05895308,-0.03584902,-0.080398865,0.026163299,0.021180771,-0.09870821,-0.06905463,0.089517474,0.09907855,0.17726864,-0.054236513,-0.046899065,0.15323086,0.08542304,0.009029793,0.009103283,0.09441783,-0.08324551,0.032414366,0.14100792,-0.07505797,0.0018808568,0.02442086,-0.07882235,-0.14998142,0.010277161,-0.054553848,-0.04690132,-0.121965684,0.05252776,0.042682357,0.016742198,-0.09348595,-0.09887189,-0.038763463,-0.024759516,-0.03153708,0.081187844,-0.06890152,-0.05549494,0.06673375,-0.11724701,-0.13808694,0.095872596,0.25553742,-0.08269565,0.13642602,-0.08417247,-0.047197353,-0.11077214,-0.080051884,-0.09105866,-0.123647355,-0.15253896,-0.0715749,0.010625753,0.089508645,-0.14636159,0.03204478,-0.047942087,0.04567145,-0.13178603,0.021098174,-0.117214166,0.12168429,-0.03257531,0.067121565,0.027886426,0.046644583,-0.06797128,0.05152108,0.016394604,0.010943958,0.029684452,-0.003630286,0.042089924,-0.041057814,-0.14903836,0.106735215,0.120003246,-0.060382493,0.056930374,-0.023441773,0.041700825,-0.13389196,0.03999347,0.1178641,0.03507146,-0.18331142,-0.074047044,-0.11520707,-0.12071918,-0.017089836,-0.07728749,0.04121246,-0.03615197,-0.19925907,-0.048801433,0.055675272,0.03898361,0.05681034,-0.11119966,0.13213868,-0.08115575,-0.08848966,-0.010322839,0.08451753,-0.0727603,-0.02943443,0.017979775,0.081591085,-0.030241227,0.13980399,-0.039557073,0.042197466,0.0318274,0.03533342,0.075520635,0.1471313,0.08463069,0.15047628,-0.08753346,-0.11165863,-0.15985012,-0.05757561,0.0535863,0.0672881,0.11217937,-0.008636348,0.10927009,-0.023442961,-0.052559465,-0.044515513,-0.0071117035,0.12800002,-0.09823755,-0.018418862,-0.06716895,0.1471106,-0.037340373,0.059809964,-0.017761322,-0.14319693,-0.14150013,-0.08326162,0.06622835,0.0046666116,0.13866141,-0.060747433,-0.03079216,0.049455505,-0.07003248,0.08411475,0.051646017,0.034893837,-0.030243736,-0.0415153,-0.118131064,0.116434366,-0.16025928,-0.040700126,0.11587283,-0.043717314,0.10158851,-0.04325795,-0.024765093,-0.039923016,0.07530093,0.12348061,0.081742704,0.052776627,-0.030324131,-0.013843044,-0.08488805,-0.11293574,0.011209427,-0.035754144,0.1311605,-0.098639265,0.09996252,-0.08905201,0.05540006,-0.21485385,-0.008973961,-0.033699997,0.018999388,0.03042944,0.12876274,-0.055535927,-0.03756552,-0.08991489,-0.031323083,0.035654057,0.1313701,0.1658334,-0.10177347,0.11817151,-0.109916545,-0.077670164,0.049021654,-0.020727877,0.06391753,0.05177322,0.03852926,-0.08608183,-0.058894992,0.05386367,-0.024131823,-0.09428684,-0.013433285,-0.019838504,0.004790918,-0.026801039,-0.11148659,-0.02153469,-0.0749515,-0.09231249,0.060738165,-0.13899326,-0.018050293,-0.006124004,0.073676504,0.024674432,-0.1244887,0.0052675703,-0.03041913,0.018529888,-0.02447186,0.0076195803,-0.05870516,0.013292711,-0.029979585,0.08312521,0.042118028,0.057830464,-0.056788642,0.016990833,-0.02854007,-0.014297431,-0.027622761,0.047190126,-0.018516356,-0.0154377,-0.08543378,-0.09890932,-0.13194995,0.0052460576,0.08292748,0.038775146,0.07533334,0.020195344,0.12811907,-0.11310275,-0.057215247,0.013496729,0.061678775,0.038752176,-0.10886944,0.14611876,0.07332801,0.07913527,-0.059891883,0.085069776,0.070896484,-0.05400469,-0.05866136,0.14384189,0.064500496,-0.029646698,0.15891175,-0.01056266,-0.18184157,0.0034235383,-0.1284617,0.040478524,-0.1021923,-0.040708747,-0.040281985,-0.05983087,0.21442807,0.032302506,-0.0640721,-0.19386308,-0.15334208,0.21592623,0.024419593,-0.03715098,-0.10278707,-0.054508712,-0.15967467,0.08629793,-0.059757788,0.0066835415,-0.10611593,0.034378372,-0.09046644,0.13874035,0.055178,-0.05453221,-0.10606725,0.054752763,0.020738946,-0.019387638,-0.084114864,0.016099606,-0.19589496,0.05294826,0.023126189,0.057622746,0.09196517,-0.0013066373,0.031315956,-0.024272753,0.16072759,0.04380818,-0.06350316,0.038530692,0.0021421546,-0.023264717,-0.046871554,-0.054801814,0.09766034,0.05404958,0.09907152,-0.0961172,-0.14986816,0.12986988,-0.11165893,-0.12561277,-0.06076071,-0.13394931,0.004120307,-0.075153455,0.0073905597,-0.06670764,-0.028706336,-0.067981765,-0.09402353,-0.0011991882,-0.116644144,0.017148089,0.025821269,-0.10533394,0.16342598,-0.08244689,0.04552172,0.09874507,-0.011853215,0.051692974,0.03799431,0.0061907615,-0.013970043,0.049936656,0.032392178,-0.10078331,-0.23017414,0.014478408,0.0358959,-0.0047768755,-0.01615431,0.005399611,0.04674608,0.08401708,-0.028323254,-0.003332797,0.074736424,0.09663612,-0.03169285,-0.107019804,0.16528605,0.0050578807,-0.059132338,-0.04902663,-0.014875437,0.031253196,0.029249446,-0.042871527,-0.03228104,0.02465054,0.12264152,0.058265083,0.073869206,0.11970937,-0.09781777,-0.03511186,-0.10067743,0.1235794,-0.003235461,-0.030338036,0.007163016,0.002717231,-0.010839865,0.1476332,-0.090364836,0.01592977,-0.0017123475,-0.2770231,0.06286005,0.043964684,-0.05562341,0.15775698,-0.06636442,-0.058484677,0.03851376,-0.0017255549,-0.017417176,0.2067329,-0.007423604,-0.044902064,-0.048658427,-0.036271818,-0.019383311,0.014577862,0.10587408,-0.0584596,0.08748647,0.03503692,-0.11009081,0.09778284,-0.073678,0.08174692,-0.034883957,0.14438473,-0.16088617,0.10105125,-0.065945685,0.0051386063,-0.026122337,-0.073835455,-0.13782407,0.05913534,-0.07287674,-0.060712125,-0.05442797,-0.05710387,0.06195549,-0.1664374,-0.16314991,0.015177272,0.049644787,0.008560781,-0.033946287,0.11291903,-0.06880972,-0.06865697,0.14401926,0.050936803,0.016090749,-0.11320109,-0.04691646,-0.058554064,0.06255768,0.00065924285,-0.08335094,0.13300553,-0.13610552,-0.17144226,0.0067040375,-0.02050587,0.10960405,-0.09898635,-0.039071463,-0.019736895,0.021255638,-0.09599477,-0.014997478,0.17186895,0.09047151,-0.1045949,-0.037006807,-0.1271012,-0.104989946,0.027479317,0.14840765,0.035514474,0.10378814,0.015762458,0.12832808,0.10267634,0.09083938,-0.017285287,0.017882582,-0.017588861,0.08885592,0.020330638,-0.07167825,0.0948287,-0.089785434,-0.15645209,0.0015470305,-0.056547444,-0.07460291,0.06531535,-0.014646265,0.046350777,-0.100982584,-0.1312115,0.07828756,-0.041691586,-0.09947491,-0.0109417075,0.017588932,-0.056552563,0.16890982,0.21937823,-0.07143615,0.024683058,0.028056353,-0.006678094,-0.06908929,-0.043626007,-0.060406882,0.06459028,-0.13631088,0.17356598,0.023181258,-0.06368919,-0.09667851,0.030573575,0.08599752,-0.046390623,0.09655669,0.028432088,0.098646805,-0.124396086,-0.15120207,-0.13169748,0.061584715,0.022652486,-0.07607323,-0.14976098,-0.04441914,0.03129683,-0.0060205706,-0.040402908,0.0781762,0.04112282,0.11854862,-0.13643381,0.029791463,0.05845326,0.11542809,-0.066693194,0.094758116,-0.045231935,-0.1466512,-0.051892675,-0.120795175,-0.06754829,0.06514814,-0.11233868,-0.059709914,-0.03642021,-0.07941291,0.009594352,-0.15139192,0.04070427,0.05882154,-0.16812922,-0.012686702,-0.018463558,0.08546031,-0.043095738,-0.12289775,0.028477954,0.08217041,0.084606156,0.10276507,-0.095006555,-0.054638363,-0.012803987,0.08670662,0.029760508,-0.043032687,-0.08992396,-0.12452155,0.06480676,0.08456942,0.07959816,0.117553785,-0.0107111,-0.048565537,-0.003488209,-0.07787449,0.2377666,-0.0020281465,0.043026406,-0.106367275,0.12307285,-0.015073761,-0.050123803,-0.031234726,-0.0691722,-0.082469545,-0.008678491,0.07343844,0.0075054895,-0.081841506,0.06886288,-0.030914586,-0.15808517,0.13617063,0.018835694,0.098158814,0.031448074,-0.057984453,0.08482386,0.1375549,-0.101955816,0.13642101,-0.016803453,0.014457186,0.088883534,0.18581149,-0.034418583,0.012372844,-0.034311984,0.02018571,-0.11160178,-0.049389128,0.08880316,-0.1648733,0.10285094,0.11710813,0.1460586,-0.028932218,0.07987058,0.057817716,-0.056064714,0.051215395,-0.09292038,-0.11172085,-0.18327062,0.01540928,0.018952608,0.009499378,0.08344825,-0.10333879,0.046846684,0.088257305,0.06790941,0.14467561,0.10566017,-0.004695821,-0.016875818,-0.0018683167,-0.18411501,-0.050583586,0.13861732,-0.15908948,-0.056538843,0.052538887,-0.017668588,-0.08463301,0.073746726,-0.11147633,0.014455728,0.07830113,-0.09806194,0.1827075,-0.03741233,-0.05810893,-0.044228386,0.0338834,0.08730557,-0.05843219,-0.08356553,0.11094854,0.08010689,0.09801054,0.058888033,0.12401574,0.07467315,0.019566167,0.08503049,0.06890667,0.052716605,-0.031423964,-0.015530533,-0.006857946,-0.0013727888,-0.0052052876,-0.07538683,-0.05061462,0.06999468,-0.10084929,0.111705385,0.07329255,-0.00021872527,0.0012792909,-0.033871364,-0.002134939,-0.044509996,0.0017435045,-0.024394572,0.101893306,0.07438015,0.14927971,0.11059651,-0.10907787,0.13873735,-0.10898892,-0.06262581,0.21104917,-0.17712955,0.105407834,0.072721116,-0.055639897,-0.162927,-0.00699913,0.080952205,-0.105009556,0.08370846,0.049407452,-0.14152524,-0.11819906,-0.01463779,0.10900093,-0.009064027,0.049293585,0.015565115,-0.119418554,0.009665346,-0.073340185,-0.0022950515,-0.05101058,0.081347965,-0.16426948,-0.09776803,0.09919801,0.047719367,-0.047778275,-0.076641515,0.019216675,0.046323217,0.054696657,-0.18542802,0.02525897,-0.05375401,0.050020546,0.027149403,0.049321186,-0.062415615,-0.032680865,0.044562705,0.042362735,-0.12132095,0.046550475,0.09252481,-0.10089596,0.15218934,0.026626393,0.02836584,-0.013433336,0.104845524,-0.09207152,-0.055709455,0.021683732,0.11256928,-0.17164953,0.0009388208,-0.031264637,-0.034699075,-0.05048281,0.092911705,0.05507737,0.054984313,-0.07333866,0.04147606,0.07724232,-0.06438573,0.0036885927,0.06956269,0.114859425,-0.028127674,0.044137973,0.062020775,0.05541902,0.21779639,0.023296086,0.014651196,0.057604164,0.07206637,-0.102187805,-0.07640375,-0.020812154,-0.02342332,0.04313148,-0.037014123,-0.12893856,-0.11421514,-0.1351135,-0.039610054,0.007668979,-0.083785355,-0.033557203,-0.08477432,-0.04273269,-0.0809314,0.0885285,-0.039225407,-0.049256235,-0.053127863,-0.025308693,-0.013309374,0.119412206,-0.05140244,0.06608283,0.096498094,-0.09212501,-0.0515354,-0.019835215,-0.0016744621,-0.12372651,0.10180704,-0.12519823,-0.07163534,-0.09392477,-0.000836125,-0.0076386333,0.093299225,-0.14557359,0.16007191,-0.06820279,-0.126637,-0.04956995,-0.0034416344,-0.08511071,-0.009911483,-0.0070895315,0.12301989,0.098550625,0.15311472,-0.014307457,0.04054745,-0.06682785,-0.052485973,0.14126816,0.0096192425,-0.048579708,0.058773413,0.041273445,-0.053341575,0.08087109,-0.020086357,-0.04977434,0.06379962,0.10026426,0.08112918,0.007796577,-0.012862356,-0.10616181,0.074288934,0.108518146,0.14779148,-0.013287646,0.039018936,-0.17268321,0.044093233,0.047334645,0.014529477,-0.027615597,0.04280363,-0.024330515,0.004807004,0.050981715,-0.11334712,0.12931481,0.10446777,-0.06686742,0.13991036,-0.17626351,-0.052877907,0.021549953,0.16551071,-0.10867215,-0.038872413,-0.09844248,-0.06386473,-0.07658249,0.07062606,0.015649863,0.01942015,0.060662348,0.052331276,0.07627138,-0.14617483,-0.06502012,0.13917571,0.07927797,-0.042913463,0.13492255,-0.11609266,-0.023385968,-0.030088257,0.025191164,-0.07541596,0.12485443,-0.007646293,-0.069160506,-0.11145476,-0.09792787,-0.08928261,-0.04560594,0.1946877,0.00053024496,0.106468245,-0.0062649725,-0.0009906293,0.032203846,0.06590302,-0.0015794567,0.037913267,0.09686656,0.04677022,-0.05814697,0.09761169,-0.05740191,0.14207491,-0.052177586,-0.016479725,-0.016286545,-0.01658224,-0.016479459,0.044037662,-0.16900775,-0.0699937,0.022034137,-0.10845366,-0.0045444914,-0.0416409,0.015233953,-0.121487744,0.013322471,0.1742325,0.07353723,-0.09159221,-0.0117054125,-0.09949009,0.00445509,0.06706133,-0.021982774,-0.07579764,-0.114970714,0.058074664,-0.04031368,-0.09262584,-0.0032774934,0.04128867,0.0032253524,0.06135671,-0.08731085,-0.17258233,-0.05087358,0.092615634,0.07564142,-0.05579965,-0.001343611,-0.16269752,0.012173428,-0.18276307,0.054758538,0.14618565,0.019994505,0.06549557,-0.056565512,-0.10712623,0.060784623,-0.07990732,-0.14146416,0.007587207,0.066038914,-0.17374268,0.035567716,-0.1539322,0.06311029,-0.024672106,0.13310876,-0.06416016,0.0255965,0.06270239,0.0077259145,-0.067971185,0.09381046,0.030217128,0.04546767,0.14269663,-0.081803635,-0.119031824,-0.08425045,-0.04096349,-0.04571534,-0.1338543,0.11961073,-0.092045344,0.041035615,0.07704103,-0.0049073356,-0.055893585,-0.00016307119,-0.06502471,-0.011767511,-0.06372955,-0.07484839,-0.04525289,0.08327466,0.032281417,0.05435443,-0.09048262,-0.050726485,0.11076353,-0.1324322,0.0652872,-0.060433574,0.047631517,-0.083887264,0.161572,-0.1594835,-0.021850346,-0.031988714,0.062354203,0.014406799,-0.039674077,-0.10549208,0.02340463,0.007019008,0.007027179,-0.14276268,-0.05087376,0.016280822,-0.14312693,-0.054114293,-0.117587596,-0.0118982075,-0.0045083193,0.056509364,-0.15812436,0.15114729,-0.08954005,0.13222091,-0.105391935,0.07423882,0.085643135,0.12556385,0.020209022,0.024763597,-0.023248442,-0.08705115,0.09468748,0.095219485,-0.0528978,0.11022772,0.124752454,-0.0022742965,0.031426266,-0.13676524,0.10069691,0.024849487,-0.00075982336,-0.026596572,-0.10051751,0.17409976,-0.13803273,0.11699415,0.0491771,-0.070986316,0.109181456,-0.11553362,0.14175741,-0.12545201,-0.13900009,0.07499478,0.008145578,0.11943663,-0.006188234,0.10098967,-0.01629477,0.08201891,-0.024785995,-0.06750227,-0.03799376,0.10236681,0.041115258,0.001905729,0.026120584,0.06807548,0.00013054289,0.015433939,-0.00013673298,0.071199745,-0.01496914,-0.025478229,0.04248906,-0.1139286,-0.12309429,0.031209132,-0.06753095,0.053331476,-0.15487313,0.038342375,0.042112853,-0.03504026,0.027414685,0.032792177,-0.044678647,-0.05591439,-0.022447612,-0.10998189,-0.036070183,0.005237809,-0.12602898,0.056046672,-0.02061654,-0.09926206,0.13749318,0.04171833,0.08149757,0.03461077,-0.06547924,-0.021273777,0.10766519,0.122814395,0.017410291,0.0449652,-0.05517931,-0.015158919,-0.080841936,-0.035862766,0.027706467,-0.018500485,-0.1204479,-0.03595489,0.11758133,-0.015728533,-0.14715482,0.1833367,-0.03484356,-0.0315072,0.121403575,-0.026827388,0.13847326,0.02346972,-0.05623168,0.12632862,0.035916477,-0.049585734,-0.100121,0.06280847,-0.12785973,0.004688512,-0.01466702,-0.025559945,-0.124499686,-0.021409962,0.00052290387,0.057068102,0.073536366,0.1287264,0.21400496,0.0012789103,0.0837233,0.12393304,0.097395666,-0.06878715,0.1630258,0.13586004,-0.07003109,0.08223236,0.07245753,-0.063160814,0.007943402,-0.07397173,-0.14924583,0.03264529,0.07066662,0.120976806,0.018146574,0.0070674717,0.038788516,0.0014907079,-0.03561353,0.013616518,-0.08688616,-0.00066470006,-0.0061990554,0.027261585,0.016140552,0.044851214,-0.013609849,0.031409338,0.013225792,-0.104217365,-0.11811516,-0.03623746,-0.17908582,0.024226692,0.08340956,-0.022290817,-0.034725655,-0.116867565,0.093628846,-0.035998046,-0.14509113,-0.015952041,-0.02910084,-0.04487938,0.06123472,-0.05451576,-0.08233903,0.036771376,-0.080260724,0.1263869,-0.019413818,-0.044155642,-0.05275355,-0.07676106,0.11613283,0.033531953,0.1802523,-0.13591307,-0.14684947,0.020905131,-0.098391384,0.08946853,0.0027217988,-0.015967032,0.012196831,0.068218194,0.0011233476,-0.025087235,0.028226325,-0.124254,0.13400581,-0.05684405,-0.10586641,0.05902229,-0.12520154,-0.09533073,0.025469435,0.08219318,-0.030809484,-0.0329461,-0.06630698,-0.116021894,0.050456095,-0.03848012,0.03933188,0.041058846,0.012975454,-0.1946888,0.08343389,-0.108870365,9.4349525e-07,0.007842435,-0.03466022,-0.0058200657,0.188748,0.076140866,-0.083581574,-0.050952107,0.054552805,0.26388517,0.041276302,-0.02470476,-0.01599385,-0.12744421,-0.09594496,-0.042219464,0.029315576,-0.07194067,-0.0059011797,-0.092331134,-0.05323212,-0.05869686,-0.018121222,-0.036778726,-0.09004643,0.1334267,-0.11337265,0.0926449,-0.15328032,0.08452297,0.07404334,0.06634656,-0.09870955,0.08268569,0.15874371,-0.013871734,-0.0453098,0.09314996,-0.015089445,0.06604027,0.1002641,0.061793175,-0.14663438,-0.03937624,0.020212179,0.0037859525,-0.09479467,0.023541234,0.10449248,0.062653564,0.04507015,-0.06091919,0.06839178,0.04201817,-0.0050173067,0.06484359,-0.010162346,0.08839769,0.050396375,-0.0045141396,0.030401176,0.06564289,0.09557717,-0.1376534,-0.057508305,-0.07759102,0.08462043,-0.02200488,-0.08223292,0.0008317617,0.011075787,0.120513305,-0.047735717,0.009517519,0.06346537,0.010118897,0.001193904,-0.07437594,0.05251713,-0.067350104,0.2143164,-0.067043975,-0.07676543,0.14753838,-0.003215214,0.13107151,-0.14124721,0.12051389,0.1249525,-0.007821864,0.06862682,0.011280386,0.025558032,-0.0020709906,-0.2086459,-0.17818853,-0.0077439393,0.0036002318,-0.0049814484,0.11991512,-0.029040365,-0.07756085,0.101060554,0.037039343,0.030102327,-0.022566821,0.08170069,0.043779828,0.0029500367,-0.06894685,-0.047439422,0.0773025,0.08215311,0.001503662,0.00801174,-0.04609845,0.034924835,0.0054414994,-0.15507486,-0.05475597,-0.07483135,0.105557516,0.012622897,0.042494338,-0.15382813,-0.10344127,0.0046497816,-0.056531202,-0.09077455,-0.18274395,-0.0149886245,0.13845657,0.019961042,0.09174758,-0.02827415,-0.044243254,0.07588522,-0.040882964,0.098689884,0.110732384,-0.16448255,-0.074523635,-0.14575386,0.19309291,-0.058231637,-0.023433138,0.116657175,0.030435076,0.056320705,-0.28392407,-0.056303803,0.031491715,0.09057025,-0.027262127,-0.064053975,-0.006696148,-0.02825558,0.046634268,-0.119120084,0.049908675,0.061765872,0.02343441,0.07268054,0.008823199,0.029383332,-0.06917274,0.05148724,0.16822672,-0.12470009,-0.020023279,0.055606175,-0.035644125,-0.04776783,-0.029233728,5.3089727e-05,-0.0765458,0.20832591,-0.06370543,-0.116505,0.15941907,0.13677679,-0.114433415,0.10777911,0.01676684,0.040835224,0.1558684,0.062081825,-0.12217679,0.014982597,0.1543275,-0.07192543,0.10990486,-0.08246817,0.024953835,0.06983497,0.048629463,-0.008455246,0.12009139,-0.114883706,0.020974642,0.0893238,-0.083399266,0.07746873,-0.052490763,0.02656568,-0.0046155457,-0.09143624,0.0010673015,0.07359139,-0.039272193,0.18003272,0.21195157,0.09702389,0.03526832,0.052150372,0.022337807,-0.08845233,-0.027613271,0.031842787,-0.11237803,0.0024773448,-0.04734909,0.13320266,-0.08101897,-0.051061258,-0.01965289,0.032781556,-0.020236678,-0.07517642,-0.030318767,0.050635137,0.10875388,0.00915706,0.04637465,-0.11154173,-0.008757042,0.20693241,-0.11355783,-0.0807407,-0.02137359,-0.08786306,-0.13133448,-0.009493006,0.01710107,0.046736844,0.11313497,-0.034675244,-0.010818879,-0.037792064,-0.038528617,-0.09778698,-0.13334157,0.11940903,-0.02211716,0.08617448,0.048186395,0.038693406,0.014441371,-0.054231025,0.008107655,0.09926478,0.10131216,0.09326902,-0.0878136,0.07002985,-0.06711635,0.10317863,-0.048706558,-0.00097404665,0.057738896,0.09110081,0.006526965,-0.12841327,-0.026293255,0.038273513,-0.03513796,-0.08501218,-0.013766598,0.044079065,0.009162402,-0.0448346,0.009503486,-0.026236026,-0.09182067,-0.14918993,0.0845025,-0.037838973,-0.21214052,0.1550155,0.12372825,-0.07957279,0.06116462,0.012436068,-0.062531315,-0.08773943,-0.16338658,0.013476594,-0.108774014,0.13402806,0.032190435,-0.095044725,0.1708294,0.058841676,-0.040288508,0.021981897,-0.15368417,-0.054178577,0.0915736,-0.016096355,-0.060716372,0.017634328,-0.0806153,-0.06611716,-0.050083864,0.18400875,0.028080473,0.026697207,0.0381123,0.099012986,0.047149975,-0.051431477,0.15105844,-0.06387142,0.0019376732,-0.006732927,-0.04775722,-0.082446,0.02056312,-0.03731703,0.06919506,-0.009725385,0.013785196,-0.1354286,0.039496876,-0.016202299,-0.04218458,0.11134224,0.05827097,-0.13349788,0.03474579,0.014354459,0.061669715,-0.002481629,-0.07580526,0.021329569,-0.07555722,-0.0909869,-0.13216838,0.027849946,0.04558264,-0.009498324,-0.11228654,0.13451098,0.04680906,-0.0061675645,-0.22389495,0.032974966,-0.03817889,-0.13938011,-0.15328804,-0.062114812,7.043121e-05,-0.11196065,0.011183182,-0.037690494,0.021470318,0.07364257,0.064776726,0.028587485,-0.00282373,0.092806324,0.13263917,-0.055469453,-0.070717536,0.029801311,0.15234268,-0.041519005,-0.085839055,0.095144354,0.00042452873,-0.100208305,0.07309906,0.034194928,0.031977836,-0.09486041,-0.07761208,0.059747003,-0.042397127,0.0075256885,0.108710356,0.1183273,0.11153112,-0.034043133,-0.04967513,-0.005535536,-0.003437726,0.13652804,0.069856174,-0.049765307,-0.21936232,-0.07488194,0.015168265,0.09184363,-0.007103548,-0.12786055,-0.009291037,0.020394133,-0.041546065,0.0540181,0.020522485,0.027827319,0.039212234,-0.08101693,0.08183355,0.06476701,-0.0023585665,-0.1344995,0.10414271,0.009466305,0.014962732,-0.059593033,0.07295519,-0.15198702,0.011587035,0.043048985,-0.03714459,0.029295992,0.031770922,-0.06663569,-0.03266396,0.034136873,0.051866304,0.051718097,-0.019451555,0.109044,-0.100838624,-0.080743134,0.12997432,0.07622914,-0.20492157,-0.11330773,-0.04267453,-0.08133015,-0.004983375,-0.08257019,-0.09577875,0.005104508,-0.03178741,-0.059088662,0.10159544,0.01382865,-0.13430871,0.07509642,-0.14303437,-0.043339677,0.009499711,0.13819082,-0.022153053,0.00790959,0.051009372,-0.031761613,-0.104401104,0.1292085,0.14387248,-0.08655507,-0.06458016,-0.04526462,-0.035616223,0.035022832,0.018151866,-0.0145763485,-0.01625664,0.10860085,0.014180807,0.087661825,0.04275968,-0.062961966,-0.009721066,-0.073661625,0.15636663,0.0683621,-0.010283801,0.21372096,0.059646163,0.057155956,0.0057787956,-0.007674544,0.11538905,0.0740844,-0.032382563,0.13082017,0.020484297,-0.10997035,-0.104003474,-0.022803353,-0.035644922,0.030277452,-0.15872203,-0.03576258,-0.12584415,-0.01812174,-0.043613736,-0.16498238,0.110058546,-0.036654465,0.056099646,0.003452968,0.086132765,0.0031659885,-0.09451215,0.019136624,-0.024657967,-0.028662136,0.26563138,-0.070582815,0.07005313,0.11832033,-0.036273785,0.028232155,-0.012790581,0.035127617,-0.034065362,0.12717123,-0.13845009,0.06350284,0.1395352,0.0035671822,-0.11703098,-0.05662429,0.120113134,-0.014898004,-0.07210557,-0.15433975,-0.05176911,0.081907585,0.07446891,-0.011349338,0.023275983,0.093548924,-0.07567183,-0.017698059,0.005379904,-0.0023698427,-0.047654115,-0.06327966,0.02295999,0.024960553,-0.067684844,0.08554831,0.06392678,-0.032026593,0.034377612,-0.057142403,0.023733003,0.042152807,-0.12447743,-0.063475676,0.0929058,-0.20142262,0.0028146023,-0.0622533,-0.032352865,-0.051933616,0.027945261,-0.057410885,0.019919926,0.080866344,-0.08925342,0.077829555,0.008295854,0.01523032,0.04675584,0.1115584,0.0078021497,0.05193767,-0.046911642,-0.10863833,-0.098210156,-0.094254725,-0.16779041,0.18429682,0.027408935,0.02523627,-0.03781244,-0.18255618,0.04123606,0.0591362,0.0063105086,-0.042734917,-0.070167735,-0.10486002,0.017224802,0.078650355,0.015845755,0.038496744,0.23338565,0.0056560915,-0.03869934,0.08866531,0.047962874,0.13318135,0.043641634,0.11102243,0.053269714,0.15941903,-0.053481072,-0.07950851,-0.09260847,0.03632784,0.029382493,-0.011965656,-0.031211952,0.056719948,0.1035468,-0.063367076,-0.0047864616,-0.015841203,-0.015147863,-0.050709024,-0.13562337,0.011768458,0.0076427907,-0.04061897,0.07208312,-0.14752391,0.042353485,0.0077555613,0.12329471,-0.1070901,-0.111627005,0.0059953895,0.05585305,-0.13855882,0.22507952,0.00912983,-0.05822412,0.018033704,0.09016449,0.112583846,0.13775292,0.16901892,-0.09148288,0.016359314,-0.07825517,0.06721894,0.12813132,-0.13114491,-0.09580009,0.047553785,-0.019463785,-0.0047323764,0.12922488,-0.06338701,0.0771757,0.023532335,0.072123766,0.013624984,0.013092837,-0.07809948,-0.12555492,0.10113763,0.11772441,-0.03618178,-0.06311306,0.11808536,-0.02289579,0.019905306,0.1768978,-0.126552,-7.796039e-05,-0.14076072,0.114233255,0.03135105,0.112081744,0.050514072,-0.11787343,-0.106162615,0.02214845,0.050414566,-0.08109454,0.14906439,0.089157626,-0.120082706,-0.10665545,-0.06687541,0.025008695,-0.03494525,-0.0244833,-0.056741897,0.06023937,0.0070827086,-0.080870256,0.10034961,-0.12536739,-0.16081443,0.021449132,-0.06477194,-0.18337634,-0.0043194564,0.11422794,0.06849886,-0.02755319,0.11636463,-0.02300769,-0.11725386,-0.04957344,0.112449735,-0.063311644,0.01388687,0.12842122,0.08280834,0.11412026,-0.06564062,-0.17439547,0.079674475,-0.06311094,0.09707973,-0.055740967,-0.0012776596,-0.08369017,0.09497918,0.114501275,0.018236997,0.006084092,-0.010298828,-0.08758276,-0.031341664,0.06312102,0.019964037,-0.055530705,0.009737776,-0.025226528,-0.053228144,0.097252764,0.037997153,-0.06638846,0.058988076,0.013264371,-0.009744069,-0.011702534,-0.1446928,-0.14324452,0.006391545,0.008574758,0.05319418,0.14334145,-0.006014594,-0.06822555,0.08701309,0.039527714,0.07120046,0.06256765,0.08450315,0.01013188,-0.032032833,0.114266336,0.053147603,0.17468223,0.11417671,-0.089193694,-0.1565279,0.09687978,-0.026637763,0.1238135,-0.009147828,0.055129785,0.13504858,-0.0039845994,-0.007297095,-0.03770224,-0.10583426,0.06617937,-0.119743615,0.070096135,0.25978187,0.09910244,0.091640696,-0.16811283,-0.050000694,0.09534388,0.047991455,0.0065002656,0.04694231,0.053375218,-0.10963907,0.07516723,0.09517426,0.06226789,-0.049950402,-0.055897906,0.1338626,-0.016771568,0.005375612,-0.09556845,-0.039373152,-0.10103513,-0.058639105,0.05819551,-0.1133545,0.0077014584,0.029765371,0.07811193,-0.019555595,0.045683127,-0.07831058,0.039008178,-0.15765639,0.07858507,0.17566387,-0.028437441,0.20783554,0.021872379,0.083298534,-0.07083963,-0.018149413,0.084580556,0.06842493,0.06635895,0.024851458,-0.028230298,-0.020453928,-0.14081909,0.12813775,0.00060323905,-0.06123304,-0.0799532,0.024097472,0.13967761,0.14671655,-0.12644216,-0.013381618,0.06874804,-0.0016539071,-0.1436962,-0.095655285,0.028858157,-0.06977579,-0.021610329,0.07336573,-0.033660762,-0.062975086,-0.1250705,-0.040253077,0.0783272,-0.14646515,0.028801305,0.023949128,-0.0024847067,0.09463639,-0.00948853,0.088280536,0.04852157,-0.022515308,-0.075292364,0.012195564,-0.01362981,-0.11742747,0.018871251,-0.031211367,-0.11141814,0.01546244,-0.119962156,-0.05985567,-0.07780415,0.028445767,0.117936715,0.054987498,-0.08055534,0.005369543,-0.07750831,-0.028318712,-0.056552313,0.054981906,-0.090630285,0.07374708,0.07925564,-0.048911292,-0.16852273,-0.08220873,0.026369669,-0.081592865,-0.13886502,-0.07955491,-0.03905786,-0.032785207,0.017525485,0.13078944,-0.020693047,0.014520275,0.026425913,0.0021895533,-0.1638546,0.14457878,-0.07911867,-0.20038946,-0.008800139,-0.00047376752,0.066548266,0.16913708,0.04375976,-0.010912217,-0.09602918,0.019532317,0.08513383,0.01830683,-0.09845431,-0.062295895,-0.14918782,0.013102562,0.043621317,-0.033450555,-0.0029905904,-0.059378367,-0.015626393,-0.19552876,0.10247815,0.1124949,0.097054504,0.0025546663,-0.07277286,-0.051316276,0.027916132,0.0010802484,0.16514166,0.21688974,0.027819943,0.05954013,0.06474551,0.0039436077,-0.044028074,0.007858629,0.071891814,-0.12731177,0.08558268,0.06225307,-0.12932518,-0.044472974,0.07823908,-0.037860375,0.0617704,-0.06886862,0.16186349,-0.17321864,-0.034132347,-0.05384615,-0.040351734,-0.09279506,0.030553391,-0.10813003,-0.024795108,0.03234476,-0.04352233,0.09215924,0.016706906,0.06511835,0.050109647,0.015170837,-0.0474114,0.07942651,-0.02908814,-0.13897893,-0.064289205,0.10987567,0.010391172,0.055694483,-0.03337497,-0.10722707,-0.09773351,0.003936188,-0.092898615,-0.06971618,-0.08039314,-0.055983745,-0.086820014,0.1877812,-0.019158324,0.13021399,0.10813464,0.09671261,0.016430112,-0.07184314,0.11340517,0.072157264,-0.010958846,-0.08024365,0.025149098,-0.09765317,0.11271406,-0.010135186,-0.08405775,-0.1260535,-0.053299315,-0.040191814,-0.14353904,0.10411051,-0.08494596,0.059045024,0.055741612,-0.13927776,0.08733256,0.06963068,-0.031477243,-0.044828825,-0.092754215,0.052184146,0.026806533,-0.08473111,-0.042269267,0.19292635,0.104833014,-0.06965248,0.06741468,0.013240454,-0.06881272,-0.022640739,0.038496085,0.12058187,0.07257475,0.004761021,-0.04962078,-0.17404185,0.045100257,-0.024459567,0.01287898,0.0904388,-0.048733238,-0.14160568,0.014758326,-0.0571703,0.012933082,0.016120823,0.15606272,0.0011701523,0.101706654,-0.032056175,0.028980546,-0.010300075,-0.15344045,0.04228418,-0.105180435,-0.050299365,0.019791072,0.0014859994,0.044550728,-0.01153149,0.102641046,-0.09432976,0.07654605,-0.020662475,0.056160405,-0.024783395,-0.022013154,0.05207712,0.0053719166,-0.1720036,-0.15659039,-0.029136585,-0.08073699,0.048830714,0.022769308,-0.032743037,-0.01452173,-0.018797155,0.020943584,-0.029271098,0.1836729,0.07738101,-0.03563858,-0.0585895,0.042543586,-0.041621562,-0.017261714,0.117750615,-0.10273891,0.09095939,-0.044457912,0.079225585,-0.012639107,-0.056455407,-0.11653802,0.1360681,0.13675392,0.0721961,0.036469433,-0.020920927,-0.15067527,0.0005627057,-0.029167905,-0.05045313,-0.15477012,-0.021684546,-0.09198877,0.1138215,0.15315455,-0.051364273,-0.08918346,0.11091398,0.00073074707,-0.11541703,-0.04371528,-0.011510832,-0.12663008,-0.13306352,0.11292109,-0.100538015,0.059624027,0.15978554,0.10003816,0.014737238,-0.08630453,-0.041868515,0.010233629,0.15470548,0.17644186,-0.105336085,0.018913437,0.030765101,0.19265646,-0.055110242,0.038309008,-0.013109278,-0.023827085,0.041224863,0.10723159,-0.08544154,-0.058094803,0.079726264,0.028720323,0.04014718,0.022811992,0.047814436,-0.044937454,0.01778687,-0.0007959957,0.02145144,0.034009386,0.06119011,0.05908955,-0.17895308,-0.16933438,-0.07377976,0.17149486,0.14497289,0.09222029,0.092262916,0.08303411,-0.13146384,0.01013854,0.012017943,0.052542496,-0.0097974995,0.028556695,0.11376887,0.13622114,-0.030123577,0.031208204,0.00086407695,-0.014614642,0.016552791,-0.043960407,-0.018028617,-0.05101624,-0.1723601,-0.011523392,0.0005065155,0.12789382,0.104908645,-0.020532802,-0.084626615,-0.038085606,-0.12476385,0.16503023,-0.01085194,0.070915654,0.047295608,0.0010452162,-0.08439511,-0.057405416,-0.19356851,-0.05460053,0.035980057,7.715522e-05,-0.0062107714,-0.107209004,0.037478834,-0.09156812,-0.11051625,-0.024460241,-0.11106935,0.042235956,-0.12453281,-0.001622816,-0.10007906,-0.044518113,-0.06706888,0.0015654546,0.13310502,-0.099155925,-0.090867765,-0.08397852,-0.0047368375,-0.11078764,0.01722706,0.09674255,0.12304874,-0.0017118339,-0.1202234,0.02916391,0.12531711,0.09364834,-0.027716791,-0.15577242,0.054673336,0.016378272,-0.045983132,-0.030195791,0.16051495,-0.03587517,0.04269003,0.0023367011,0.08732575,0.04002351,-0.0392809,-0.06785608,0.12617435,0.15151851,-0.095136285,0.04201611,-0.12661356,0.14821897,0.17878276,0.12742923,-0.011373566,-0.059379756,0.1451636,-0.058795303,-0.092878535,0.054558706,0.11714574,-0.055469725,0.035614382,0.055767395,-0.13222767,-0.0006701018,-0.065658785,0.1257737,0.045752924,-0.06287083,-0.071459174,-0.09067899,0.10269376,-0.07885148,-0.01261925,-0.14790218,0.02990065,-0.07421737,-0.12353089,0.12636577,0.048568744,-0.061693087,-0.024005735,-0.029012457,-0.06469303,-0.14977174,-0.09089416,0.09831762,0.072588876,-0.13342418,0.06380093,0.101906694,-0.006214823,-0.07189658,0.016519183,-0.0014948172,-0.19164205,-0.081683055,0.020440845,-0.11386826,-0.069062635,-0.11149065,-0.08376729,0.0065240148,0.11762567,-0.018346163,0.03366029,-0.07894985,0.043844916,-0.11931048,0.14750218,0.09607785,-0.022891007,-0.018369136,-0.024579229,0.12413449,0.10475356,-0.028742576,-0.07441971,0.0041851155,-0.09134412,-0.012867164,0.037499316,0.09100431,-0.08989511,0.013505219,0.026162572,0.07945164,0.09519912,-0.038703445,-0.21919964,-0.08221641,0.08124575,-0.06789316,-0.09624164,0.111452915,0.042469878,0.16443937,-0.015899803,0.040418983,0.11434426,0.06582295,0.037605204,-0.0541084,-0.06752767,0.10557281,-0.08540692,-0.08438973,0.025684847,-0.16011326,0.016498694,0.05857336,-0.18625143,-0.06320057,-0.010915476,0.13803318,0.022016698,-0.04992772,0.009415721,0.07013544,0.0056796772,-0.008172196,-0.031660847,0.17598361,0.032640286,-0.07721227,-0.042151283,0.030571042,0.09034094,0.050669193,0.105314285,0.03058714,-0.09902379,-0.01945722,0.027451625,-0.01733115,-0.09698224,-0.2088759,0.13169533,0.036046237,0.07017892,0.062282436,0.039670695,-0.05699505,0.067428574,-0.1185705,0.0670369,-0.0074285762,-0.06481967,-0.10692593,-0.009145294,-0.025923608,-0.1327221,-0.020550607,-0.10995026,0.13936959,0.12990615,0.032580458,0.08686921,-0.08463342,-0.0668009,-0.010359641,0.0011053697,-0.12003216,-0.046953745,-0.05710442,-0.037731107,0.091960564,0.011965951,-0.10345899,-0.018800536,-0.031982824,0.036411777,0.06237619,-0.1238045,0.07766235,0.09061749,-0.051910404,-0.18257825,0.12309213,-0.09411465,-0.088920355,0.010946229,0.0057524634,0.0990201,0.011751415,0.01172734,0.02437297,-0.042665027,-0.0438971,-0.0010199123,-0.028481409,0.05014682,0.022915546,0.047547255,0.08561167,0.115028664,0.10708861,-0.022463558,0.05007304,0.031572234,-0.1322685,0.07518788,-0.12618586,0.008116408,-0.039635453,-0.11486824,-0.07034113,0.08483311,0.18650313,-0.046536565,-0.06341791,-0.14258425,0.098973095,-0.11863052,-0.043297224,0.09580038,0.08599606,-0.08651453,-0.08476579,0.10610256,0.0313218,-0.04033349,-0.13540325,-0.017630847,0.04498648,-0.043667357,0.13779746,-0.0114033315,0.026210735,0.056103922,-0.031097403,0.11961718,0.021906167,0.04466793,0.051474556,0.071386136,-0.01652833,-0.082073644,0.17687854,-0.09934923,0.05503117,0.004612636,0.051219177,-0.10306839,0.029036054,-0.051859614,-0.03013117,-0.019601682,0.0059556738,-0.06906953,0.0098132705,0.04561165,-0.16053826,-0.10671246,-0.052085314,0.20668484,-0.08656314,-0.20990926,-0.09621815,-0.032570053,0.122761145,-0.0013839396,-0.04435008,0.086592026,-0.12035971,-0.042029586,0.102719985,-0.14010511,0.088780224,-0.14856234,0.0601097,-0.12605956,0.061655555,-0.15696122,-0.078544244,0.07016543,0.13523479,-0.084481314,-0.046610355,-0.1552102,-0.033441994,0.013593831,0.12747559,-0.013830742,0.05213211,-0.12110923,0.007603655,-0.026998734,0.063394316,-0.004359232,-0.022550572,0.12837386,-0.058512818,0.086467616,0.046146818,0.06290494,-0.051821344,-0.17556351,0.054183777,0.044843826,0.104589894,-0.05753303,-0.122442216,-0.017647807,-0.059302095,-0.10628139,0.109631225,0.049593817,-0.10657665,0.19994152,-0.051715676,0.031062754,-0.045424618,0.08563229,-0.1127998,0.09953787,0.026419856,0.04337302,-0.0350863,-0.04156798,-0.04695518,0.10737088,-0.13388157,0.14738508,0.04525176,-0.04070896,-0.010306123,-0.06590387,0.21853463,-0.09421403,0.116795,0.051540487,-0.028004993,-0.004364906,-0.05528929,-0.09156759,0.14783542,-0.078989394,0.025486669,0.013211238,-0.08711256,0.15951952,0.10218604,-0.034652475,-0.024712,-0.019177545,-0.0067527047,-0.08276941,-0.016918449,0.100835815,0.05565128,0.116682656,0.10447512,-0.011047368,-0.07070477,0.011122538,-0.0016515094,-0.05071617,-0.13817559,-0.038361188,-0.022356793,-0.037294544,-0.107329324,-0.11841439,-0.029354371,0.0006437955,0.2467865,-0.119973674,-0.009410821,-0.011153301,0.100899294,0.0110752955,-0.1278247,0.056666635,0.03943817,0.065594286,0.030811131,3.073424e-05,-0.07501629,0.0012829312,0.10107124,0.07482999,-0.11324275,-0.04702098,-0.028638344,0.103267625,0.038180668,-0.06836382,-0.026144708,0.1005159,0.03282055,0.015052288,-0.15778846,0.17061712,-0.104527555,-0.09895717,-0.054625567,-0.0585903,0.10775304,0.09151051,-0.011922818,0.0065904898,-0.10335633,0.13737202,-0.03602812,0.09139973,-0.086841665,-0.15478265,0.0001700096,-0.07023709,0.01659604,-0.034799073,-0.07230971,0.0007953924,0.05819102,-0.15217373,-0.08281054,0.025183024,0.054505326,0.14275339,-0.022881053,-0.09497731,-0.037742566,-0.15451054,0.039550487,0.11560648,0.107580714,0.030780578,0.14986512,-0.07363527,-0.1135505,0.093741536,0.01825536,-0.107329845,0.0026927788,0.06358501,-0.19477302,-0.031810038,-0.040301993,-0.024056727,-0.047455277,-0.07553421,0.16048697,-0.15889287,-0.012265262,-0.0032808962,0.050131448,-0.09306986,0.0052758236,-0.061038915,-0.010538708,-0.12025989,-0.1788256,-0.033529416,0.052779168,0.073499285,-0.117617585,0.011307748,0.06200804,-0.097677216,0.029871399,-0.0505382,-0.047067087,-0.0016778047,0.015988642,0.08410654,-0.14416394,-0.09610933,0.018229775,0.036908094,-0.06246314,0.005843758,-0.1914509,-0.035135638,-0.039170872,0.07420022,0.053502895,0.215222,-0.0681722,-0.05205824,0.04861477,0.008595081,0.11088865,-0.032609493,0.12983021,-0.050202567,0.013630159,0.0041490546,0.04189283,-0.108098954,-0.04554234,-0.008232105,0.11042576,-0.07972825,-0.024357492,-0.052619845,-0.062133797,0.043188058,-0.005461195,0.072555065,0.054235656,0.13880649,0.0692191,0.03938981,0.11029772,-0.0027832652,0.054002784,0.039295986,-0.01146423,-0.1416752,0.110923216,0.09360274,-0.07780727,-0.03158137,0.008058698,-0.062365137,0.0820186,-0.02230021,0.09942934,-0.14359199,-0.09714237,0.090276405,0.122301765,-0.011986243,0.05704914,0.11143167,0.12687114,0.0993264,-0.0069588902,0.10364886,-0.123914145,-0.121327415,0.045763373,-0.055728223,-0.046298362,0.045736216,0.012063278,0.041785676,-0.051486194,0.015532186,-0.096978456,0.011954179,-0.103368714,-0.0001652411,-0.11709294,0.18184368,-0.08443433,0.09726964,-0.14812227,-0.00039511864,-0.0448841,0.076793976,-0.004076335,-0.093020126,-0.08021142,-0.020051422,0.023137795,-0.12043922,0.053136982,0.022554649,-0.040202554,0.06339208,0.07754097,0.07777655,0.039640356,-0.10373035,-0.056068692,-0.11748794,-0.035025597,-0.07801272,-0.061003145,0.060172915,0.12066733,0.12383762,-0.049460504,-0.020863757,0.07234958,-0.03612191,-0.086633354,-0.13664985,-0.01221029,0.036120325,-0.06621332,0.0052711465,-0.0039637224,-0.08930541,0.0020234142,-0.14130633,0.10161667,0.03662794,-0.04763682,-0.07306389,0.07896194,-0.100407146,-0.11033259,0.086755574,0.089145064,0.08905352,0.05694334,0.14920084,0.06330171,0.12323864,0.102823175,-0.09853212,-0.07012126,-0.017946098,0.030141098,-0.10092708,0.039965432,0.020421866,-0.03795202,0.0018898398,-0.0815766,-0.12963633,-0.0797777,0.13837272,0.061405584,-0.11163199,-0.15695946,0.13801026,-0.046532303,-0.027439354,0.15980734,-0.15622297,0.03299985,0.011332388,0.072387666,-0.089858904,0.07222276,0.15312727,0.11209462,0.11641331,-0.072588794,0.103277765,-0.07171137,-0.065366946,-0.020018721,-0.057885744,-0.033770256,0.106559575,6.425333e-05,0.11336865,-0.08402655,0.08598262,-0.12766585,-0.004737618,0.07283101,0.0025027117,-0.028550547,-0.10313404,-0.0058800145,-0.009516602,0.03470433,-0.0321089,0.021221127,-0.00484277,0.08062691,-0.115009315,-0.15199672,-0.07243266,-0.08059711,0.24991424,-0.021752384,-0.017700428,0.061215013,-0.056633838,0.053518325,-0.097231925,0.22761424,-0.018067956,-0.11931647,0.16914697,0.012090668,0.1158818,-0.060792506,-0.17868619,-0.10884387,-0.096354194,0.08937922,0.13748547,0.076503344,-0.0103152115,-0.030274037,-0.0078236945,-0.045668542,0.0042104498,0.09138944,0.11769011,0.005972492,-0.018247763,0.033498142,-0.03084067,0.113497265,-0.0476861,-0.001710966,-0.08549727,-0.14204028,0.028358173,0.08768792,-0.102964625,0.0463934,-0.06387747,-0.014666778,0.03163353,-0.0062018665,-0.0743511,-0.1135376,-0.057335667,-0.00734981,-0.114497885,-0.119095534,-0.05905136,0.04985632,0.0804134,0.11230355,-0.01289039,0.082291685,0.09387306,0.052137084,0.043591406,0.063454814,0.021837207,-0.018008979,-0.11757742,0.09216334,-0.070230074,0.028444393,0.065270655,0.03873975,0.021993235,-0.21954004,-0.08230359,-0.07671564,0.017014567,0.027763048,-0.044394515,-0.068005316,-0.09558028,0.020214058,-0.018599803,0.07004981,-0.013846659,0.08413112,0.14960079,0.0747715,0.034421384,-0.0028708593,-0.016879382,0.030705858,0.048787974,-0.03198252,0.022216424,0.04441338,-0.10145216,0.03715182,0.14036077,0.090591624,-0.010192676,-0.044400215,0.03079395,-0.020966642,-0.1367547,-0.022347292,-0.107067905,0.016344497,-0.084536165,0.053623606,0.06871824,-0.04150807,-0.040113088,-0.09287652,0.13430539,-0.06284033,0.10305091,-0.051468845,0.03542565,-0.12758245,-0.025018927,0.052705128,-0.025057634,0.05722576,-0.042408213,0.0804259,0.0368425,-0.06486383,-0.13726619,0.056650836,-0.022431005,-0.025655864,0.03915564,0.1701709,0.010179638,0.0029430755,-0.029795034,-0.025035193,0.037747234,0.050433233,-0.0049321684,-0.010543262,0.08647181,-0.14889482,0.073307365,-0.041322436,0.058196455,-0.09539571,-0.07686112,0.07619958,0.14923814,-0.17588864,0.093307264,0.088866666,-0.04320549,0.089956686,0.016188297,0.1270103,-0.012694548,-0.058060303,0.049904935,0.07291961,0.054711998,-0.023942713,-0.035784703,0.177298,-0.10560786,0.08183376,-0.025189605,-0.09111602,0.12371279,-0.07174954,-0.050161913,-0.029153807,0.043173183,0.0063073696,0.056016933,0.119557604,-0.15006536,0.029775398,-0.093271054,-0.069641896,-0.17508522,-0.10664096,-0.115016066,0.05396353,-0.023378644,-0.00926755,-0.0740134,-0.009767725,-0.058749042,-0.021137524,-0.019726133,-0.035116408,-0.011099364,0.07409532,0.07550842,-0.0778498,0.0002362005,0.071423024,0.18953873,0.08407726,-0.0001248686,0.18456036,0.12565851,-0.1323518,0.030660914,-0.098137274,-0.014346889,-0.12545153,-0.01809894,-0.0035739345,-0.034626298,0.17607653,-0.043470316,-0.038860504,0.016851904,-0.16661231,-0.11382211,-0.039105512,-0.043466706,0.0724501,0.052074175,0.01663031,-0.022671217,0.003088893,0.064471915,-0.05513605,-0.12380146,0.039087392,-0.080328,-0.16840324,0.14332646,0.13071533,-0.07003366,-0.13397495,-0.013116759,-0.10778011,-0.1167653,0.02749211,0.07367665,-0.10116498,0.17712018,-0.07258299,-0.13554525,-0.0646492,-0.17070986,0.09285597,0.012673337,0.052709974,-0.05326591,-0.08976692,0.091915466,0.034433194,-0.012585369,-0.096494846,-0.0019845252,-0.041046914,-0.059583005,-0.090964474,0.023899639,0.16788329,-0.12754561,0.07768645,0.030194316,0.2864466,-0.14948265,-0.05103427,0.07294667,0.11889819,-0.15521123,0.09785357,-0.10105667,0.016685175,-0.15984493,-0.055465512,-0.0040382594,-0.014005281,0.15846698,0.05030698,-0.13682728,-0.0030907402,-0.022305425,-0.0012675055,0.09537369,-0.11450675,-0.0461874,0.020137038,0.0016760713,-0.08354075,0.08272342,-0.1016338,0.0016943042,0.072311744,0.03930793,-0.08287244,-0.0742758,-0.09961543,0.0043077176,-0.113399446,-0.037351087,-0.07308773,0.024619974,0.001266062,-0.08331451,0.07055827,0.07954935,-0.03024783,-0.037223317,-0.014906295,-0.0115635935,0.068923034,0.06038923,-0.040137675,0.08896749,0.15643878,0.036418106,-0.03247342,-0.012268414,-0.05639054,0.07641734,-0.13762157,0.075329036,-0.010353395,0.02990768,0.010216427,0.03932737,0.043007463,0.0144571215,-0.035681885,0.010029878,-0.14227167,0.0051740534,-0.042987432,0.06957971,0.07859241,-0.071899585,0.016634084,-0.19638486,0.14470047,-0.13682002,0.18353808,0.052363284,-0.15300141,-0.109210506,0.03497004,-0.06461097,-0.02404603,0.09351476,0.09048143,-0.049319364,0.0042818566,-0.13350825,-0.034247685,-0.038435593,0.08235283,0.057612255,0.13311502,-0.015457834,-0.045101408,-0.015986485,-0.06382829,0.04404781,-0.12683924,0.11525142,-0.019618483,-0.045281585,0.008793712,-0.03328251,-0.03662221,-0.007623401,0.016592387,-0.078888796,0.10642475,-0.0035044274,-0.10011609,0.10929494,0.0082532205,-0.17437287,-0.09420825,-0.02838876,-0.060734306,0.06564581,0.12946159,0.018120611,0.06773292,-0.00980317,0.22276904,-0.021110635,0.023168925,0.052286632,-0.0930727,-0.022263573,0.13015513,0.10347878,0.048642118,0.017583352,-0.0895952,0.043875534,-0.068601035,-0.036689747,0.111698166,0.02534012,0.0019783478,0.054032937,0.15468486,0.09290856,-0.012421798,-0.0010246295,-0.082326435,0.019145366,0.09943514,-0.021823766,-0.05983496,0.0131554315,0.04139348,-0.15316714,0.015927095,0.0030298927,0.0047710277,0.056484688,0.07271745,0.032730024,-0.05424524,-0.0939023,-0.037637983,-0.18606436,0.09629847,-0.0039012365,0.05132716,-0.075066656,0.10309498,0.043048862,-0.13459957,-0.04437611,0.030286962,0.07794936,0.00872589,-0.1415666,0.021527562,-0.053915974,0.16373424,0.16002621,-0.050648738,0.11277706,0.028697135,0.07115011,0.09432031,-0.08878666,0.1321877,0.043243952,-0.030885963,0.029970678,0.08959646,0.02038695,-0.13009487,0.04337839,0.07163779,-0.081509456,-0.05978614,0.055861562,0.110173345,-0.15434945,0.054811094,0.09792067,0.028619539,0.15241691,0.045609567,0.103408046,-0.20259123,-0.012495007,-0.0043981336,0.012884539,0.015536939,0.029266682,0.024537893,-0.09932246,0.041084614,-0.021736337,0.010096822,0.15983175,-0.05250216,0.023565736,0.08428597,0.10825614,0.07371379,-0.059835535,0.020695286,0.18318643,-0.04132616,0.19834161,0.0792987,-0.13025697,0.06534482,0.103125356,0.0073112156,-0.1425667,0.05035264,0.07341086,-0.02490944,0.03608167,0.015859226,-0.10725917,0.032564383,0.0014085551,0.005859666,-0.21792701,0.017982211,0.09090605,-0.046039104,-0.091081165,-0.011336096,-0.07789071,0.06923986,-0.018990295,-0.18041103,0.14708698,-0.07373128,0.0415901,0.09544772,-0.095368735,0.017288074,-0.025950477,-0.0792231,0.041493714,-0.17070353,-0.027702047,0.07591256,0.13374464,-0.063376635,-0.11264085,0.029039536,0.001709703,0.107782714,0.09462489,-0.073988564,-0.02847338,-0.10529208,-0.0010125254,0.021229587,0.1520987,-0.027158087,0.10597152,0.11311236,0.1678537,0.05344432,0.07719385,-0.0055684065,0.09344652,0.018455384,-0.04969111,0.037165426,0.015223535,0.08769074,0.04789333,0.12860122,-0.12849995,-0.016209127,0.1461884,-0.069554426,-0.038453985,-0.058349118,-0.019164113,-0.0020774505,-0.09212564,0.15961222,-0.15023759,0.08529523,0.02646146,-0.08058741,0.026773054,0.027224084,-0.048623573,0.13052277,-0.040023886,0.03832679,-0.057127587,-0.15417674,0.016737565,-0.050084084,0.14920509,0.029023467,-0.083557725,0.027788993,0.17474888,0.1289938,0.18570064,-0.07650607,0.049234595,0.02475879,0.15160124,-0.2042801,0.0008168161,0.03353046,-0.015107864,0.024475614,0.13394122,-0.0015875638,-0.08294205,0.055675805,0.1520558,-0.029642588,-0.0768011,-0.02002958,0.008922665,-0.18635365,0.1227023,0.04587552,-0.010647866,-0.0029250672,-0.0029521906,-0.051270053,0.111426555,0.08897748,0.03329731,-0.07978583,-0.0119745005,0.0060440535,0.013688105,-0.005776433,-0.067474596,-0.031514253,-0.074075624,-0.061847944,0.04799498,0.023109213,0.012736557,-0.025055934,-0.09756326,-0.0041488935,-0.08072526,0.09120366,-0.067935966,0.06963448,0.05683621,0.08424806,-0.02272651,-0.053864796,0.05125943,0.04034784,-0.054661546,-0.022406409,0.037583243,-0.010788781,0.1239387,-0.12406793,0.017707728,0.1787914,0.01972626,-0.018255623,-0.037219893,-0.04290265,0.1489883,0.0023096602,-0.100825414,-0.14501202,0.12907074,0.03490667,0.02791092,-0.098056026,0.06498468,0.12711994,-0.055875324,0.090702675,0.032405514,0.14856881,0.04924187,-0.0922279,0.13835695,0.010932548,0.02287862,-0.06601687,0.13473725,0.12035344,0.07956673,0.10059018,-0.047020894,0.010968627,-0.012996445,-0.0070199054,-0.095217854,-0.029400036,0.03844228,-0.14059009,-0.07971899,0.008957888,-0.010562047,-0.07097037,-0.04434057,0.09676178,-0.100184835,0.049272798,0.0937825,0.050024875,0.15174879,-0.1422146,-0.008912337,-0.12613294,0.029559296,-0.0419326,-0.09094862,0.069369785,0.13977653,-0.053463664,0.0590491,-0.13624936,-0.03729967,0.10053925,-0.0007121247,-0.0065959548,-0.04904562,0.012391773,0.07533324,-0.1233834,0.09817039,-0.07770951,-0.008221077,0.012416476,-0.16453342,0.060084447,-0.07135128,-0.1258553,0.08358125,-0.028194617,-0.093051404,0.13027869,0.02583748,-0.021657731,0.08543248,-0.10850278,-0.15702955,-0.0813629,-0.09149752,-0.005050876,-0.08919701,0.050438818,-0.068236805,-0.0556648,-0.066478394,-0.028504405,-0.065963835,0.11384268,0.03133034,-0.0029086561,-0.07570787,0.03358391,-0.1103255,-0.038075,0.26685423,0.025801577,-0.045977384,-0.07740658,-0.118337475,0.03184776,0.05402173,-0.033282302,-0.05294396,0.1493388,-0.080846645,-0.0819959,0.04360195,-0.034912568,0.056330718,-0.007059331,-0.15164576,-0.06727732,0.037123002,-0.09870009,0.05941379,0.0609632,0.0025536532,0.026460929,-0.02067911,-0.0007645893,-0.20449081,0.0023045999,0.0056284983,-0.004248799,0.16179089,-0.0010262413,-0.0023383219,0.03263804,0.0935178,0.095495686,-0.055451114,0.13363539,-0.025732923,0.061914597,-0.025338907,0.10708391,-0.10596099,0.08638911,0.06877416,-0.12949595,-0.045175657,0.08470564,0.035731554,-0.1969568,-0.1090035,0.01513214,-0.033757597,0.018858913,-0.07643736,0.029463638,-0.050476607,-0.12900007,-0.016381975,0.0700048,0.08480486,-0.005707627,-0.051694147,-0.05275057,-0.15255329,-0.08193858,0.091490895,0.11672496,-0.076073594,0.09637502,0.061655838,0.010645645,-0.13182032,-0.077793755,-0.19940816,0.11487902,0.13715978,0.09087033,-0.06802606,0.07577697,0.03174276,0.10360883,0.019825311,0.055809285,0.011623568,-0.020185271,-0.03931914,-0.0007225261,0.1319161,0.009479481,0.13851635,-0.07860631,0.024120828,-0.041203167,-0.035662282,0.049804557,0.06502101,-0.038796373,0.15459797,-0.09295193,-0.033960275,-0.053459946,0.0161696,-0.040877916,-0.028591234,-0.024459125,-0.059974138,-0.051194932,0.0001481036,-0.024888244,-0.048014,0.07788343,0.24146454,0.019893598,0.07117851,0.08223056,0.016015666,0.063662484,0.021436814,0.11116502,0.0025342065,-0.06458435,-0.037551682,-0.14745337,-0.055924736,-0.0044364636,0.06749409,0.1060279,-0.062127836,0.01498732,0.046478815,-0.033280216,0.060744442,0.010206487,-0.078732975,0.083483875,0.061745614,0.09910141,-0.13655157,0.07246672,-0.08445994,0.12584841,-0.016914977,-0.07897153,-0.0443826,0.10726705,0.0065397704,0.15847912,-0.13110393,-0.03234462,0.095122375,0.18151063,-0.02223546,-0.024547,0.07442487,-0.04660539,0.1253033,-0.038267016,-0.0012951186,-0.0670593,0.12727347,0.09173387,-0.0624388,-0.09871906,-0.01761392,0.0682608,0.05171618,0.105516315,0.076263905,-0.022761434,0.017676314,0.06816733,-0.009666927,-0.085503206,0.14495274,-0.018904753,-0.15140434,0.017717835,-0.16007926,0.06980253,0.02683647,-0.04959665,0.053168133,-0.1297053,0.06262485,-0.08262053,0.118855335,-0.028395975,-0.1035349,0.14730898,-0.00454118,-1.9880576e-05,-0.092708156,-0.09800677,-0.034637075,-0.019517882,-0.0807763,0.04111138,-0.16334029,0.03134173,-0.035948697,-0.03188099,-0.009875033,0.21294278,0.08813467,0.0385093,-0.07326864,-0.10913605,-0.01725427,-0.0040440205,0.08497126,0.011244937,-0.09214966,-0.11186475,0.009242612,0.1657043,-0.012210433,0.14902678,0.03495383,-0.03539305,-0.03933064,0.09378969,0.108207665,-0.069171466,-0.048079114,0.11974409,-0.07480627,-0.034057867,0.041576285,0.0451646,-0.0054356824,0.11238113,0.12440089,-0.11233533,0.0009243239,-0.070376016,0.10043305,-0.044318303,-0.09949946,-0.08003852,0.061692182,0.017322334,-0.0029488397,-0.17570415,0.06664832,-0.061920352,-0.033036068,-0.12093291,0.020342851,0.13299942,-0.01999038,0.072748266,0.018210871,-0.1370779,-0.024036983,-0.04854836,0.051815245,0.110212505,0.098725215,-0.14375564,0.12555242,0.11950336,0.011048613,0.021837166,0.03823187,0.07473082,0.010436794,-0.04066739,-0.07200757,-0.10782147,-0.038583502,-0.026095692,-0.024701787,-0.0041834433,-0.02294415,-0.10280552,-0.040665172,0.12193382,0.06581702,-0.116901435,-0.04716901,-0.05972708,-0.1521883,-0.023302978,-0.12323479,0.03958597,0.03590298,0.136532,-0.04754371,-0.041537818,-0.0026646294,0.061581023,0.17431879,0.0129351895,0.09322578,-0.095098965,0.10213393,-0.09742068,-0.16916406,0.03398375,-0.024275076,0.008996889,-0.018980276,0.058884535,0.06489386,-0.07441686,0.013680908,-0.07945728,0.1811462,0.041407794,-0.04291699,-0.04225495,0.1565659,-0.013586061,0.0041417577,0.12071062,-0.02111896,-0.10607607,0.040100157,-0.006164726,-0.06309186,-0.09129812,-0.06283563,0.040720373,-0.04896014,0.07212565,0.08447024,0.121384196,0.0571179,-0.13705975,0.047155365,-0.058667623,0.07468369,-0.049819987,0.10887439,0.09155949,0.11535501,0.11356252,-0.03264817,-0.013637092,-0.01884197,0.03464916,-0.111503884,0.22522949,-0.07172892,0.02372117,0.029054778,-0.059637275,0.031868365,0.0016758094,-0.10381378,-0.03908301,0.050304607,0.05671998,0.03721915,0.032129698,-0.17654076,-0.06779778,0.079692714,-0.06407552,0.020556906,0.12002773,0.028888518,-0.1435469,0.17684981,0.07559589,-0.040712576,-0.0034730898,0.026495846,-0.044219773,0.01971011,-0.14736994,-0.09162742,0.004364051,-0.17264783,-0.12268229,-0.117198214,-0.060267728,-0.0035014164,-0.012988551,-0.06931348,-0.060084574,0.033430297,0.21524443,-0.045283142,-0.06507056,0.07604286,-0.050872073,0.051819738,0.034118477,-0.04531921,0.0021018458,-0.019106781,-0.07562418,-0.02751833,0.098935224,-0.15435694,0.018228065,0.07378532,0.13781449,-0.097407885,-0.10984293,-0.089561395,0.0010690928,-0.08089387,-0.029036494,-0.0654041,0.037478436,-0.054470398,0.035544567,0.043007392,0.011455971,-0.09784127,-0.054220784,-0.019187395,-0.066370346,0.021998612,-0.03264689,0.19547708,0.07550854,-0.09008499,-0.118711546,0.107815646,0.22925106,-0.110435106,0.14002058,-0.005742224,-0.0140864905,0.039735425,-0.084355205,-0.07479208,-0.012905533,0.005832315,-0.13721177,-0.07769212,0.001915251,0.025633054,-0.020673132,0.09332787,0.08465115,-0.08862002,0.062412497,0.09274443,-0.119116515,0.065346666,0.13505866,0.12549716,-0.10188072,0.15472253,0.106602944,-0.13952008,0.105069436,0.09010849,-0.20784834,0.018272957,0.0038760314,0.012936096,-0.06407592,0.046093162,0.0130597465,-0.012812698,-0.15381785,-0.13098902,0.00246457,0.14796987,0.034592316,-0.059368074,0.12844582,-0.029803675,0.037516113,-0.02092438,-0.02783876,-0.009876515,-0.06992629,-0.14147276,0.08067261,-0.03557307,0.077389345,-0.0015448974,-0.034713197,0.07713762,0.027073886,0.031432196,0.07286439,-0.08133473,0.11724304,-0.10071167,0.043315444,-0.049954377,0.025459183,0.04946069,-0.009664356,-0.14000282,-0.022482816,0.13588662,-0.03375379,-0.026191419,-0.08393018,-0.114479184,0.040014923,-0.0024939952,-0.09136636,-0.053854123,-0.0073451553,-0.016741708,0.06625139,-0.06670041,0.13168538,0.043180257,-0.07341458,-0.010294726,-0.018339938,-0.10679997,0.13256328,-0.096494496,0.122582644,-0.020303328,0.08368104,-0.08788145,0.042152517,0.054796036,0.07519719,0.018940143,-0.10123437,0.18167329,0.016406458,-0.08396285,-0.09149483,0.20688432,0.13910273,-0.06554643,-0.07315176,0.089784056,0.05175412,0.009253342,0.028804135,0.028609859,0.08901672,-0.013028296,-0.0012839601,0.040509418,0.040027354,-0.06926802,-0.11504791,-0.0011183267,0.04873153,0.12666215,0.020012725,0.031508155,-0.10964974,0.01499527,0.018581025,-0.17651227,0.0006177361,0.03483151,-0.10457412,-0.00023910418,0.030129183,-0.048703846,0.049399994,0.12252959,0.011271185,-0.030282099,0.03642052,-0.07867605,-0.0526355,-0.16564725,0.11319161,-0.0012780493,0.15922765,0.07701278,-0.018185733,-0.124053344,-0.044497147,0.0725362,-0.11714441,0.122987255,-0.036248926,-0.04835485,-0.16690892,-0.060897265,0.0059991796,-0.05371436,-0.003059874,-0.07705904,-0.028768469,0.021398675,0.051115863,0.10545347,-0.085359655,-0.17042294,0.012446064,0.06687544,-0.15327054,0.035833113,0.13937956,-0.015390595,0.06660201,0.04138939,-0.038062785,-0.005111281,0.08423718,0.12542264,-0.08335553,-0.023219666,0.22063611,0.11990058,0.0328651,-0.00010795321,-0.086986564,-0.11481033,-0.00033675466,0.02958291,-0.05685105,-0.021214573,0.08173728,0.07617082,0.08359251,0.01741501,-0.074607804,-0.023892974,0.044658214,-0.005908921,0.058106814,-0.01938896,-0.14919381,-0.076456256,-0.122895315,-0.031240724,0.07289122,0.08257052,-0.06674898,0.042129025,-0.10835531,-0.01608405,-0.06267866,-0.13459791,-0.017259251,-0.08499341,-0.009187656,0.022177922,-0.065017,-0.014579435,-0.070004635,0.097845726,0.018917298,-0.016335487,-0.05901685,-0.0064467397,0.05603508,-0.11871493,-0.03703411,-0.016000599,0.16636164,0.07596097,-0.16985972,0.07691832,0.12394256,-0.1299084,0.030185288,-0.050884705,0.12464145,0.0328023,0.07201386,-0.11624874,0.0026368,-0.0132968,-0.0411478,-0.049157042,-0.12835145,-0.110981375,-0.026134731,0.07425121,-0.07392108,0.102151066,-0.023019897,-0.08439779,-0.11446015,0.17444843,0.02730657,-0.05333779,-0.029560162,0.03651718,0.03318424,0.056781616,-0.0406535,0.17018639,-0.08732806,0.09886835,0.008275647,-0.13409103,-0.037280515,0.16655247,-0.19882399,0.2280498,0.09369256,-0.039441425,-0.111465745,0.0937496,0.025601793,0.022445697,0.13346373,0.12100743,-0.015343076,0.033075936,0.10591367,0.0415237,0.055761743,-0.023660073,0.0849302,0.08006785,-0.12570004,0.06939521,-0.0038407415,-0.02663173,0.04426687,0.021368014,0.18326978,-0.09745535,0.05128425,0.0520228,0.102758646,-0.06595504,0.061014567,-0.10195117,0.09221866,-0.050797142,-0.06492474,-0.09778474,-0.023995105,0.07838983,0.0895222,-0.15991303,0.17930506,0.1405295,-0.0288963,0.06459765,0.058883287,-0.004716547,0.073617436,-0.11683058,-0.06944787,-0.013297351,-0.021699443,0.086309284,-0.00096533605,-0.027818885,-0.0056314184,-0.063619,0.0956174,0.030774055,0.0021280898,-0.025791258,0.15704562,0.026920184,0.16287804,0.0076987045,-0.046713088,0.09738722,0.032359004,0.012119416,0.04932977,0.16821474,0.048264295,0.10474916,-0.004409128,-0.04932615,0.041431352,0.13092256,0.03178684,-0.05402289,-0.005142556,-0.006457272,-0.07110904,0.02152864,-0.034201786,0.00027515847,0.019333743,-0.01574933,0.10479414,0.038200565,-0.10712235,0.10878107,-0.011541772,-0.1222676,0.06631996,-0.008427743,0.041734617,-0.07957354,-0.030803662,0.0063693,0.14036164,0.0942705,0.094733916,-0.15152384,0.049719814,0.09337552,0.16564532,0.008979518,0.11430764,-0.048149496,0.06854628,-0.011625585,0.056263387,-0.004086235,-0.15153114,0.1343615,-0.025110781,0.15608461,-0.026200896,0.0046177846,-0.036964692,-0.046310075,0.043713387,0.029698376,0.041496154,0.0959915,-0.031695917,0.039177403,-0.086799435,-0.094491065,0.043560173,-0.014673925,-0.1308536,0.07523017,0.03618116,-0.013627665,0.025283908,0.08033816,0.013715946,0.01786835,0.022346314,0.054305602,-0.023883224,-0.07559248,0.03399809,0.20706753,-0.09290853,-0.01460542,0.10745365,0.13072112,-0.010933971,-0.064486556,-0.0054278127,-0.075886846,0.084364116,-0.014880266,0.09508039,-0.02510449,-0.07437432,0.025614146,0.092900775,-0.07459319,0.021602588,-0.049215287,-0.04674049,0.13905479,0.11608206,-0.041812994,0.1294159,-0.011800078,0.01989114,-0.10975089,-0.060642514,0.20418891,0.09261929,0.15006518,-0.00975833,-0.10230111,-0.04742967,0.016550144,0.026097916,0.12370109,0.051697273,-0.02415456,-0.06388163,-0.006313097,-0.14236368,0.026040217,-0.06382746,0.1690099,0.18639351,-0.07263888,-0.03951601,-0.07435515,0.12203594,0.10910909,0.018260365,-0.02637494,0.0014936394,-0.11080442,0.09186812,0.08619824,-0.12745464,-0.00843079,0.04730115,-0.051925775,-0.032796852,-0.122497424,0.058493126,0.13042736,0.078072034,0.07557086,-0.061112322,0.061892424,-0.07914667,0.009393854,-0.073294185,-0.030580837,-0.15966567,0.017035581,-0.07788624,-0.011062951,0.03698647,0.09496353,0.013119582,0.0422752,-0.03520837,0.078155935,-0.04506365,0.031375594,0.08667691,0.039020676,-0.052402824,-0.03207924,-0.074358195,-0.0691837,-0.13586931,0.07741217,0.07841876,-0.16110848,0.067677975,0.049754187,0.012489329,-0.012288643,-0.050122507,-0.057065547,-0.0071332604,-0.005142592,0.04408186,0.15150267,-0.13663106,0.10361004,-0.09361455,0.013768062,0.01743921,-0.021254895,0.04314441,-0.036049057,0.120221645,-0.012895371,0.014123902,-0.006402419,-0.06468346,0.047564454,-0.0363657,0.013395456,0.12012622,-0.05767951,-0.16426116,-0.012827088,0.08898849,0.09960412,-0.021053765,-0.15000369,-0.0760763,0.063012846,-0.0676105,-0.04990938,0.12985742,0.05973224,-0.06073517,0.09259575,0.10185464,0.029071737,0.048073824,-0.002903935,-0.16525228,-0.10767853,0.07680152,0.015957735,-0.13098098,-0.10325933,-0.16521811,-0.04462403,-0.046145804,-0.116412535,-0.16400096,0.08920168,0.15237962,0.1345765,0.07266267,0.09737545,0.019180918,-0.003513465,-0.057166386,0.02298236,0.23261154,-0.019138023,-0.06556383,0.040872764,-0.15359782,0.090368494,0.08575175,0.046532404,-0.035844825,-0.056251228,0.14434323,-0.09581434,0.011854357,0.045293447,-0.09444213,0.067850634,0.11383279,0.01286411,-0.030322,0.05429417,-0.07025385,0.086420424,-0.16550575,0.021781452,-0.054813214,-0.05575781,-0.1641089,0.06794319,-0.030947251,0.14512362,0.01300262,-0.083144225,0.024593243,-0.09294829,-0.014713196,-0.17786545,0.095825985,-0.035431422,-0.1883225,-0.07595921,0.10640662,-0.016958352,0.024639593,0.06624078,0.051142734,0.036661454,-0.06440168,0.03289236,0.012543093,-0.11829363,0.0075147273,0.04753008,0.1740571,0.020514023,-0.06907445,0.03871729,0.01967566,-0.0889036,-0.07874074,0.016155269,-0.14738725,0.086861946,-0.04703771,0.038892243,0.0053065596,0.09058799,-0.17867285,0.03496416,0.0057407287,-0.0043484666,-0.02301509,-0.071193926,0.055823795,-0.04395057,0.030897075,0.03634727,-0.027850628,0.09410118,0.021364389,0.0943049,0.10570005,-0.06941602,0.029992709,-0.15811513,-0.09230874,0.020688575,-0.17536266,-0.17347237,0.04151855,0.1057039,0.034403093,-0.07159884,0.078112245,0.05676553,0.027287126,0.044026177,0.046770815,0.07330499,-0.027954143,0.0702353,0.05218371,-0.015301403,0.051254693,-0.08702652,0.010939197,0.031045565,-0.05202326,-0.12998493,-0.105967484,-0.08298577,-0.13474886,-0.05847845,0.08372594,0.023824893,-0.021050818,0.09197894,0.022964451,-0.069600254,0.11978383,0.026660101,0.0121615,-0.02329484,-0.12030525,0.11317062,-0.15112844,0.033776265,0.03297569,-0.04145036,0.019544335,-0.0679749,0.035844024,0.044504546,0.035450242,-0.063646264,-0.1606621,-0.0896376,0.04572578,0.21781445,-0.14997722,0.18558086,0.048982933,-0.08524836,0.052498084,0.021319352,0.06602349,-0.18238397,-0.036407523,-0.0006129216,-0.06804319,0.010642911,0.0521353,0.0009620641,0.062462036,0.05686414,-0.115955025,0.082769796,-0.0072830953,0.012773175,-0.08949962,-0.04558214,-0.037289906,0.15045662,0.021706624,0.03191764,-0.09183932,0.0021095066,-0.06524363,-0.01949076,-0.04313986,0.030870175,0.0344849,0.0017042772,-0.045456726,-0.1174464,0.120672174,0.0042614327,0.034686066,0.016212896,0.00504891,-0.18342733,0.00085680786,-0.08345384,0.09765656,-0.043413006,-0.019837229,0.080694556,0.07402609,0.12020077,0.13838452,-0.11437871,0.12219685,-0.116152816,0.08851865,0.21639581,0.0018636731,-0.12443603,-0.027373066,-0.059082385,-0.17474099,0.06827202,0.11278386,-0.12246629,-0.060204443,-0.019458186,0.16051967,0.013404991,0.10661714,-0.02975327,-0.052050985,-0.094820395,-0.13356982,-0.11309444,0.09947549,-0.0076582995,-0.092208065,-0.012636114,0.0014260837,-0.055528842,-0.08304532,0.049919575,-0.058563117,-0.106227614,0.070789635,0.06907749,-0.018072464,0.060657397,-0.06421861,0.1056207,0.07550323,0.04227817,-0.070076816,0.052044395,-0.06362477,-0.0014467442,-0.067032084,0.0721889,-0.031830173,-0.04720074,0.10312232,-0.0063320086,0.13099451,0.22066958,-0.0394676,0.039463088,-0.07944459,-0.031362247,0.011904859,-0.19514947,0.15000206,0.096657634,0.16669507,-0.058619853,-0.04284203,0.04535033,-0.14152493,0.07658823,0.114840336,0.061526936,-0.012995725,0.06441468,0.047250625,0.02522788,-0.14939936,-0.13838181,-0.036228362,-0.052840717,-0.068048194,0.011377645,-0.048080873,-0.1376726,0.08821192,0.04750128,0.047769304,0.033923976,0.047635794,0.060741283,0.012132069,0.08420041,-0.09798754,-0.15764554,-0.052073646,-0.04447211,0.02798536,0.048563015,-0.19074136,-0.13174433,0.007209656,-0.053193882,-0.09601028,0.06919271,-0.06280754,-0.034385122,-0.10672063,0.08848316,0.0344796,-0.0791465,0.040157203,0.27140552,0.04839136,-0.020941086,0.009721109,-0.08211846,-0.0786219,0.019813793,0.11417254,0.07150338,0.19050936,-0.01877351,0.016475793,0.0012614294,-0.08230415,-0.03030358,-0.03262689,-0.03843833,-0.052174155,0.048272442,0.07115523,-0.07611218,-0.117567286,-0.091679685,-0.051649548,0.026067043,0.073823996,-0.05991429,0.07719168,-0.037351083,-0.08630715,0.102734715,0.012479364,-0.054220717,-0.22995047,0.03186379,0.013141453,0.10675843,-0.054471366,-0.101784915,0.060100026,-0.04361225,-0.04495882,0.06915373,0.072217286,0.023283137,-0.08782918,0.15082896,-0.035215754,0.078190714,0.027629215,-0.042886678,-0.03782723,0.08475118,-0.06102892,-0.065621614,-0.012354633,-0.1503916,-0.032420088,0.02880311,-0.15333223,0.009292631,-0.02213972,-0.1959617,-0.052007146,-0.004408907,0.035094205,-0.034722872,0.0438176,-0.14958933,0.12425862,-0.09481224,-0.057648115,0.13519192,0.059152048,-0.048093572,0.071274504,0.057160426,0.16291173,0.031086944,0.03060641,-0.029517077,0.026202546,0.07731594,-0.0005745331,0.058646444,0.0899705,0.013594996,0.02439604,-0.012345431,0.11694591,-0.04287977,-0.09432333,0.16396008,-0.21030274,-0.020067852,-0.07311053,0.008310377,-0.09036511,-0.0050783465,0.0842078,0.050866757,-0.047889013,0.029418536,-0.12444746,0.07442334,0.021229068,0.03180532,-0.106868625,-0.036673296,-0.12139581,0.070553385,0.024898658,-0.017969973,0.07790194,-0.07123705,-0.040014975,-0.09753151,0.076068245,0.06801846,0.017829098,0.07195144,-0.0927148,-0.07319569,0.022580428,-0.06434514,0.09561976,0.20009054,0.0453352,0.00025839644,0.09826909,-0.10576909,-0.12688594,0.096475095,0.12946525,-0.030840248,-0.07946806,0.039698727,-0.041710295,-0.018115617,0.14072141,-0.04934838,-0.029324468,-0.05418081,-0.0022233147,-0.13950743,-0.07538329,0.015606835,0.01964894,-0.012016144,0.120289974,-0.114624485,-0.014369713,-0.084617555,-0.091240935,0.03230231,0.123436116,0.058523357,0.07241198,0.091089085,-0.104912825,-0.027493287,-0.06568398,0.020752724,-0.19755821,0.093216926,-0.08371493,0.008721602,0.04566758,-0.072950825,-0.036279373,-0.038323797,0.031020602,-0.0043641874,-0.18573293,-0.03668123,-0.001534823,0.16873427,0.02623478,0.056718476,0.103599645,0.08969706,0.1277132,0.092528135,0.06369084,0.0318664,-0.035938423,-0.008330604,-0.069744766,-0.0055390135,0.15150185,-0.029298946,0.06997407,-0.07667717,-0.044519875,-0.20452638,-0.10386484,0.09231475,-0.08466415,-0.015077008,0.028665468,-0.04880647,0.049068656,0.07014455,0.04479502,0.008205542,0.16144496,0.11450909,-0.054541707,-0.102060705,0.10352569,0.0126910275,-0.024120936,-0.20073712,-0.0098704845,-0.15064466,0.0037575995,0.092088744,0.0844202,-0.016848383,-0.08489297,0.0062239445,0.021546068,0.036971677,-0.09289728,-0.06421472,-0.1153303,-0.15554583,0.073879,-0.027390238,0.019168487,0.022903264,-0.04324639,0.089297526,-0.19344631,0.06779223,-0.15602493,-0.013187681,-0.13173608,0.07831257,0.0874725,-0.015822908,0.14389789,0.005014553,-0.015183981,0.06653469,0.14733179,-0.15443313,-0.07514464,-0.054491993,-0.01753867,0.09596239,-0.025471985,0.087823406,0.008261238,0.10223322,0.1152181,-0.024938898,0.12634365,0.08351454,-0.011702356,0.05052391,0.047625035,0.08732467,-0.01677489,-0.10019449,-0.035349723,0.14863662,0.07291046,0.047867313,0.08753518,0.06273052,-0.061029304,-0.054491457,-0.10949099,0.022371035,0.05246497,-0.04408874,0.10886954,-0.021924462,0.13155212,0.13303497,0.10184938,-0.034467217,0.063847,-0.2005147,0.039852582,0.0054905643,0.046186592,0.07776025,-0.06896496,0.0064223995,0.10734519,0.09539938,0.13315055,0.046628512,0.04045575,-0.04905092,0.07866709,-0.094466366,-0.1365187,-0.045129508,-0.07795845,-0.029163634,0.012054286,-0.0013094475,-0.05058359,-0.09335532,0.12117598,0.029407984,0.0038007188,0.010280211,-0.00079024397,-0.06995182,0.13495682,-0.011363608,0.012248983,-0.025334463,-0.023380911,0.08455118,-0.14511956,-0.051729698,0.17882894,0.055306215,-0.15155838,0.0053912364,-0.08545674,0.23849855,-0.008405807,0.04304968,0.09224902,0.0445608,-0.055096157,-0.1452997,0.0364097,-0.009899197,-0.015333921,0.02078899,-0.006891049,0.09293358,-0.040155955,0.03218163,-0.09215053,-0.12637962,-0.013449327,-0.056964926,0.09953107,-0.10787572,0.030008724,-0.14470519,-0.011698379,0.051102187,0.06777182,0.057529967,-0.029011898,-0.044532172,0.013218156,-0.008821535,-0.053546578,-0.074177645,0.055432525,0.0326949,0.03482762,-0.07464791,0.18201631,-0.14653677,0.07994775,-0.120628975,0.08373249,-0.026459852,-0.05780645,0.16400395,-0.009594071,-0.014771394,0.047942758,0.008774445,0.03483655,0.23470382,-0.027197879,-0.009531377,-0.048925478,0.029831741,-0.021214038,0.0068847095,0.0378212,-0.023249,0.095298074,0.15392174,0.009701008,-0.05124408,0.08210651,0.1283094,-0.06816753,-0.032735556,-0.094944574,0.088723876,0.079234935,-0.041881274,0.0068919486,0.015937405,-0.10256943,0.0821076,0.022316324,0.05791668,-0.056759756,-0.1425702,0.029698832,0.08681663,0.04459085,0.0127925705,0.06772912,0.20684537,0.064774655,0.15329471,0.035548277,0.010865277,-0.09368904,-0.1300721,-0.11102196,-0.028013954,-0.07434797,-0.074750364,-0.03336737,-0.028426068,-0.059119433,-0.06407039,-0.025023436,-0.11785743,0.14629707,-0.1510442,-0.048912622,-0.19160461,0.051805258,0.080749646,0.18911932,-0.033203382,0.0013946504,-0.011921159,0.0222949,0.073726855,0.09291856,0.01808932,0.109739214,0.09262815,-0.1415503,-0.09903574,-0.024042826,0.07906243,0.0758729,0.11416254,0.07317909,0.08085794,-0.015257578,0.042774517,-0.104899004,-0.045872994,-0.07200384,0.057706516,-0.0216284,0.039994437,0.045344744,0.10743349,-0.021161174,0.011675858,-0.15327048,0.104172215,0.02010175,0.0050182072,-0.047794204,0.08407645,-0.063774005,-0.121455446,-0.065481424,0.11885675,-0.0017332578,0.031086512,0.03091776,-0.16724986,0.0037851166,-0.18867771,-0.098347366,-0.022253294,-0.002372108,0.022912793,0.20088674,0.08633775,-0.023547448,0.03888536,0.045168642,0.0026541094,-0.037884228,-0.0014545387,0.07784371,0.07670801,-0.110024124,0.003986962,0.030338751,-0.14464203,0.0874898,-0.08317437,0.10410862,0.10855044,0.06801687,-0.08040449,-0.16632123,0.1109339,-0.000188584,0.11443184,0.07262818,0.13899148,0.08630198,-0.22103293,-0.08761033,0.019720057,-0.023535369,-0.039062366,0.16000892,-0.10573857,-0.016734825,0.100773424,-0.049028322,0.029199287,0.09635424,-0.12470807,-0.095271066,0.10035282,-0.10516151,-0.040130794,0.02226474,-0.01979852,0.012959992,-0.2030984,-0.019839078,-0.23577586,0.017600752,-0.08582339,0.0778672,0.20205173,0.04611986,0.03933488,0.113224246,0.09223564,0.098538645,-0.016180504,-0.0671958,-0.047725275,0.018834835,0.07015349,-0.031178545,-0.027547646,0.07883787,-0.053226292,-0.11723471,0.056467157,-0.09277684,0.13385545,-0.16214365,0.014890517,-0.060748983,0.031001575,-0.015276622,-0.18444231,0.020654462,0.09074058,-0.13994181,-0.0030176784,-0.035075687,0.11570269,-0.023288347,-0.112276986,0.020859964,-0.14002104,0.013717887,-0.07796784,0.00043830866,-0.17316195,0.00016522683,0.022305787,0.037078958,-0.12620705,-0.024432404,-0.04631298,-0.08789855,-0.012406889,-0.11221124,-0.1337897,-0.0057760086,-0.20488851,-0.021227013,-0.08677513,-0.12351764,0.0725571,-0.02735973,0.02912931,-0.05898174,-0.024095,0.008836002,0.054126494,-0.056021467,-0.031556837,-0.12659916,-0.04515211,0.004932964,0.041686054,0.06917374,0.003484282,0.0656793,0.022901265,-0.064337455,0.083811104,-0.114257865,0.037251502,-0.0048182528,0.16008313,-0.11668627,0.0012059505,-0.017176777,0.047397967,0.022055974,0.11860007,0.026236635,-0.064758174,0.017001897,0.059485786,0.115251705,-0.033371933,0.33335292,0.030782837,0.08715756,-0.013528124,0.10865338,0.027786491,0.09835564,-0.0030304897,-0.050844297,0.015891517,0.078389265,-0.014843797,0.15656033,-0.23276284,0.119875364,-0.0011225916,-0.002690085,0.028422298,-0.014559304,-0.007045679,-0.09730268,0.014368824,-0.037475742,0.094117686,-0.12823804,0.079935275,0.09668247,0.1674986,-0.018383132,-0.08242908,0.05974691,0.031095931,0.04555719,-0.023036009,0.008079093,0.04255347,-0.0706336,-0.09735162,0.002904236,-0.18012968,0.05694161,-0.08837049,0.10435594,0.021460187,0.007999185,-0.024672043,-0.023707839,0.022821385,-0.051115282,0.0030492428,0.123072796,-0.089789994,-0.041190512,0.14180847,0.015608608,0.07263484,0.11899432,0.060480677,-0.0015701669,-0.043295987,0.12280934,0.077291355,0.064487256,0.07184214,-0.2535161,0.07224771,0.11520089,0.029684726,0.080529764,-0.009609295,0.051575135,-0.052558467,-0.013638949,-0.013194583,-0.01186571,-0.02649633,0.011447532,0.07472807,0.06518608,0.08155133,-0.029476339,0.22951274,0.004064251,0.073107466,0.07995341,0.059303064,-0.09702916,-0.18943475,0.017164446,-0.004987419,0.13076654,0.0949954,-0.09079628,0.03856697,0.13899781,0.046733584,-0.14124519,-0.025931776,-0.057093788,-0.0858856,-0.121737264,0.10445484,-0.055154346,0.044634037,-0.095912844,-0.05185657,0.080102704,0.047510028,-0.045500748,0.021180378,-0.016604213,-0.09910765,-0.046942018,0.07210518,-0.082080394,0.0460521,0.014717689,0.049336016,-0.052037027,-0.030053068,-0.048986908,-0.12528947,-0.14506733,0.08133137,-0.097164325,0.047548473,-0.00010621249,0.10491462,-0.015224131,0.1013735,-0.025679316,0.032666158,0.06718299,0.13109334,-0.03322752,-0.12340114,0.059193034,0.09769347,-0.0035492885,0.062272396,0.070293024,0.0047640647,-0.12359978,-0.059728872,0.08656226,0.011269759,-0.07248049,-0.027168468,-0.14930235,0.07873332,-0.0404595,0.0018586055,0.058695197,0.1954188,-0.059609596,0.06414855,-0.12202693,-0.0032039513,0.07267654,-0.031274084,0.041364774,0.060489267,-0.006043536,0.07224269,0.053630453,0.13936915,0.114248745,0.05751587,0.020240847,-0.1472848,-0.0049349577,-0.03353229,0.04092376,0.079517,0.058312703,0.20606239,-0.24186489,0.01947276,0.057692572,0.00037328174,-0.08649436,0.024729421,0.049473815,0.0076488676,-0.05652141,-0.13167588,-0.08525867,-0.052426822,-0.01931212,-0.026246032,-0.08234563,0.0868101,0.01973989,-0.08981636,0.09592272,-0.122501485,0.058486395,0.022700794,0.07294581,-0.066712305,0.055620287,-0.07562023,0.021690987,0.0052187904,0.13830888,0.067037456,-0.029809767,-0.049302362,-0.017911037,0.0042377063,0.06413088,0.15753236,-0.12731975,-0.00847385,-0.1148219,-0.090403594,0.11791469,0.08930361,0.06062826,0.10597111,-0.19347891,-0.14158785,-0.085771576,0.07398669,-0.056786176,-0.06869341,0.10841382,-0.0002557468,0.08548435,-0.022915864,0.020128524,0.059499394,0.12601313,0.22179006,-0.030029893,-0.05462857,-0.0673808,0.019578444,-0.013589778,0.06374625,-0.009395162,0.01097292,0.0059634014,-0.019042848,-0.18667898,0.0592975,-0.022450663,-0.027188698,-0.09472959,-0.11206954,0.06582434,-0.07570976,-0.032704033,-0.02392148,0.07492751,0.06928444,0.061001856,0.011596681,0.13948274,-0.12269451,-0.023624001,-0.10489466,0.1786621,0.12954228,-0.056121156,-0.031995498,0.1224199,0.01229042,0.09731711,-0.11817126,0.0041990695,0.08109349,0.01710139,-0.009700352,0.032504167,0.055917017,-0.06752006,0.10296375,-0.042746205,0.008913383,-0.04774114,0.14403088,0.12245673,-0.009851871,-0.044556897,-0.044322018,0.06647016,-0.0010467591,0.07998958,0.066258475,-0.118254006,-0.014585997,0.08558434,0.07039532,-0.14498991,0.1049129,-0.010656614,0.021541962,-0.04033387,-0.07072488,0.049619973,0.079271145,-0.15636787,0.11376536,-0.1328678,0.007874624,-0.14990973,0.036662687,0.09315772,0.014633412,0.07923516,0.12493143,-0.1344031,0.04668406,-0.044121914,-0.060095195,-0.028004855,-0.07340569,0.033829268,-0.012608813,-0.037228074,-0.004732561,0.22551888,-0.013871554,-0.0067747976,-0.01272323,-0.042348403,0.12090499,0.0152917635,0.03874904,0.17030239,-0.050077163,0.15573943,0.0125267375,0.05821211,-0.058284238,-0.016685328,-0.13722628,-0.019055048,-0.026564112,-0.11861169,-0.02630857,-0.022534205,0.083231755,-0.06777953,0.03358385,0.051073547,-0.10320756,-0.010729214,-0.12427697,0.14800811,0.082564324,0.003080083,-0.11864315,-0.010634685,-0.039858807,-0.07535296,0.18209359,0.02866672,-0.08789938,-0.15213637,0.026814839,0.08296498,0.077073276,-0.13572222,-0.010748395,-0.13573185,-0.0029162755,0.0352919,-0.07703874,0.08301535,0.04451068,0.03891383,0.23936196,-0.0576199,0.1310931,-0.07019476,0.13453542,-0.030367842,0.008774025,0.043617412,0.026923217,-0.08372947,-0.00073811953,-0.17326605,0.046730388,0.06012572,-0.117269255,-0.08074636,0.063923895,-0.037544418,-0.06989709,-0.027652984,-0.027365781,0.10887666,-0.107590094,0.039204538,0.01729432,0.054543365,0.13959655,-0.13442951,0.1186371,-0.008728676,-0.060815327,0.02431638,-0.11387219,0.17967477,0.12190702,0.024416123,0.01562942,0.04244908,0.005843169,-0.078425,0.047296815,0.15706077,0.049346104,-0.0060058,-0.0035736247,-0.064290844,0.11054678,-0.05445536,-0.02216144,0.05847127,-0.0128287785,-0.0345947,0.060762335,0.034458354,0.073304094,0.09017449,0.082225874,0.018379029,0.03533342,-0.059831984,0.19327815,-0.0644749,-0.020145085,0.13143778,0.158278,-0.032817237,0.0038271942,-0.06696502,-0.07004023,0.08460772,0.031151656,0.014689168,-0.09965069,0.123145014,0.045004956,0.08737402,-0.103558846,-0.08808416,0.06863297,0.05355662,0.0039745504,0.029073967,-0.088648446,0.023203114,0.16887479,-0.0044820714,-0.0073185917,-0.02324974,-0.102514364,-0.044437535,-0.09153793,0.08265419,0.06756042,-0.15533334,0.08406063,-0.11741201,0.07354452,-0.051214416,-0.15909089,-0.054433588,0.04509562,-0.07788597,0.0012380827,-0.013426041,-0.076970614,-0.12229244,0.045744166,-0.08050293,-0.067881405,0.07304479,0.02398879,0.048055332,0.07982887,0.0468033,0.054228816,0.11781575,0.10074608,-0.1713956,-0.026584443,-0.09553332,0.06631852,-0.0781456,-0.17691979,-0.032438688,-0.0625305,0.041805156,-0.0056069824,0.08682976,-0.13894969,-0.038971394,0.01928554,0.01863368,-0.069886595,-0.25422636,0.0019104108,0.050282538,0.0970329,0.09363022,0.048210107,0.18204804,-0.011532716,-0.064618826,-0.007813043,0.038595557,-0.03966472,0.03435485,0.037917003,0.06244479,0.07919077,-0.031660244,0.10160299,-0.054355923,-0.02617828,-0.16495615,0.022201259,-0.043648038,-0.03738489,-0.0721989,-0.061171945,-0.016733464,-0.033448145,-0.09734697,-0.09003231,-0.05871063,-0.16061637,0.03660827,0.16354348,-0.040898036,-0.076744735,-0.04756323,0.104027815,-0.07571085,-0.059704047,-0.06837428,0.089226015,0.0109182,0.061937783,0.12901503,0.118083686,0.12832063,-0.027349697,-0.1327271,0.047508966,-0.019175487,0.058773395,-0.05176507,-0.10160032,0.016491733,0.043086447,0.20496511,0.0912171,0.097539485,0.013920819,-0.01887849,-0.02563753,0.00091846136,0.06014163,-0.0507741,0.050640073,-0.034889787,-0.31275156,0.09182728,-0.050309207,0.010781281,-0.10229789,-0.0144435745,0.03265656,-0.045674726,-0.11336563,-0.022182008,-0.059241973,-0.10122432,0.109618194,-0.13762039,-0.0071841343,-0.04704062,0.059147608,-0.051870592,0.050501443,0.103605285,-0.06958415,0.0031159585,0.079816446,0.038076144,-0.040088642,-0.16011983,0.11723424,0.14389415,-0.045903977,-0.19123673,0.1289234,0.08710853,0.088906676,0.044115346,-0.11421437,0.07369626,0.013938725,-0.043672916,-0.15603249,0.085941285,0.018048555,-0.06280055,-0.011984234,0.027107734,0.061795667,0.043083727,0.098778784,0.022722151,-0.0687195,0.11843051,-0.078006655,0.11625702,0.002404924,0.07370121,0.008429226,0.07189959,-0.0010292546,0.03853697,-0.038036317,0.06932422,0.030347642,0.09989887,0.024972111,-0.14930855,-0.06703118,-0.06639976,-0.066848494,-0.12882932,-0.07089338,-0.032474354,-0.04036143,-0.062225144,-0.03259869,0.014572742,-0.020598399,-0.074817784,-0.06308131,0.08006428,0.12599827,0.06596023,-0.090931885,0.033348493,0.046851244,0.11340313,-0.041251946,-0.084998615,-0.16375078,-0.040341355,-0.004487167,0.18191327,-0.031822506,-0.19050412,-0.0023482991,0.034178805,0.0714139,0.16705371,-0.10351916,0.12519,0.007993297,-0.039009735,-0.0804023,-0.00859062,-0.040802643,-0.03825964,-0.038477805,0.07628895,-0.19238096,-0.11293579,0.06679404,-0.1250286,-0.09728419,0.04736775,0.07683505,0.011330925,-0.08314255,-0.06380981,-0.052885838,-0.09497597,0.124838024,-0.03383471,-0.16155462,0.13279119,0.1869518,-0.0053051095,-0.0381869,-0.0111647025,0.0057383785,-0.07866271,-0.06697355,0.055675186,-0.021360947,-0.08458864,-0.0069578853,0.048598904,-0.04505369,-0.04985204,0.05987924,-0.11529575,-0.108789116,0.0048415284,0.11302724,0.0065229465,-0.011187663,-0.055726577,0.065200634,-0.053157147,0.008750526,0.11163207,-0.02441883,-0.0075260713,0.03717168,-0.0053930297,0.06678543,-0.00504032,-0.121041216,-0.060957104,0.08504185,0.063588716,-0.030362133,0.042646874,-0.097943,0.051262967,-0.16831478,-0.08427326,0.1310319,0.019972244,0.038919326,-0.0017847113,0.0386061,0.06336775,-0.013957013,0.100152485,-0.049624927,0.06460359,0.19312881,-0.03310347,0.0428115,-0.13279244,-0.15510158,-0.058618,0.021611793,-0.16277711,0.026202086,-0.27167693,-0.09589546,0.055468228,0.063401625,-0.03750356,-0.037557226,-0.0034424223,-0.0748803,0.09889012,-0.040759698,-0.046457514,0.13094151,0.120109156,0.048785325,0.03909884,-0.05118599,0.11446198,-0.030075926,0.11064946,0.015076313,-0.0021661401,0.007910203,-0.02259178,-0.0053900485,-0.01977167,-0.013830549,0.036720883,0.036337998,0.027349347,0.06361993,-0.16444454,0.1240894,-0.017191906,0.08730166,0.10522605,0.15389286,0.06625261,0.14554453,0.010959188,0.0022503987,0.08066408,0.14049725,-0.07754852,-0.027580589,0.01730025,0.059154145,0.13090838,0.00875519,0.08571098,-0.07977431,0.0070967725,0.088286966,-0.01848151,-0.045621466,-0.025624821,0.09328739,0.16735002,-0.103807904,0.08655645,-0.10320037,-0.048017442,-0.075403035,0.019183585,0.054414757,0.06636178,-0.10246101,0.029660378,-0.1016465,0.060656354,0.11470052,-0.15269588,0.08159319,0.06107639,0.1365734,0.011887091,-0.010193345,0.16270599,-0.04698349,0.086607695,-0.11402113,-0.0084030125,-0.010727459,-0.0649597,0.17013787,0.044700257,0.05811231,-0.12385582,0.13008742,0.077448525,0.027035877,-0.08455229,-0.045468945,0.14391886,-0.0022284265,-0.082068376,-0.06855519,0.033383954,0.11342789,-0.113503955,0.079801925,0.07342498,-0.026621696,-0.0277006,-0.0015842855,0.029424455,-0.07384048,0.04073178,-0.10582238,0.042298604,-1.9386021e-05,0.009903286,0.01996125,0.041386865,-0.101104006,0.0778426,0.0015900426,0.070147075,-0.059921514,0.08760224,-0.032781083,0.10414571,-0.0021048211,0.040610142,0.068560496,-0.07980299,0.11218006,-0.001506865,0.049623597,-0.036252983,-0.07798092,0.023796879,0.0058349012,-0.17129445,-0.113064386,-0.047908887,0.11976636,0.07312646,-0.083111726,-0.049389087,-0.009609295,-0.04405139,-0.06743107,-0.18217719,-0.018594531,-0.011612811,-0.070201844,0.042419728,0.021460019,-0.16535136,0.0811806,-0.13458666,-0.01340769,0.074936785,-0.03450349,0.16627531,0.21224338,-0.11229365,0.020605111,-0.13857631,0.092667595,-0.085018076,0.0120277265,-0.01791386,0.012078893,0.04533483,-0.036355283,0.098516256,0.011117801,-0.034593318,0.028265309,-0.079535805,0.16710772,0.0005845275,-0.055992823,-0.043629233,0.14118032,0.018232765,-0.14972855,0.039257724,-0.049935862,0.08008306,-0.05446863,0.023488868,0.011682301,0.04813831,-0.099858716,0.07112657,0.041490026,0.022302415,0.14494427,0.14246407,-0.021800252,-0.03580526,0.1260736,0.098718286,-0.011848278,0.08324438,0.014596605,-0.12832014,0.06073423,-0.0680552,0.058002904,-0.037685014,-0.027204435,0.0077304537,0.0006280873,-0.10186147,0.13151924,0.0054789046,0.03906621,-0.047514234,-0.1789498,0.04866275,0.033017162,0.1577013,0.031767033,-0.016816292,0.12046199,-0.021253416,0.045528624,0.065953486,0.0677354,-0.009792204,-0.012194963,0.06146771,-0.068533175,0.06646542,0.08323475,0.004359006,-0.022875188,0.015695123,0.114154115,0.03629794,0.12680335,-0.0093888845,0.0052469564,-0.0625139,-0.13423721,-0.03125431,-0.22849058,-0.09587508,0.036889605,-0.036916427,0.019304745,-0.016165486,0.0007705829,-0.031297844,-0.08026347,0.05673285,-0.151614,0.059094705,0.052241012,-0.015538204,0.07239056,0.070489205,-0.041973528,-0.021367459,0.00092779036,0.011509749,0.06011546,0.16612868,0.0654925,-0.15916829,0.11549692,-0.16209184,0.086054705,0.05258518,-0.062910564,0.07293048,-0.004426998,-0.040399693,0.05881055,-0.08756035,0.07666456,-0.06775072,0.071574934,-0.06032812,0.243619,0.053165708,0.026436156,-0.04455203,-0.034363102,-0.052667927,0.042393856,-0.030379722,0.08332354,0.07781499,0.011336348,-0.07096759,0.07172489,0.019717705,-0.053610645,0.05506958,-0.13469614,-0.025256937,0.005859738,0.05678686,0.09514965,0.06832805,-0.026012748,0.042824402,0.027129285,0.023649674,0.07066796,-0.0030515126,0.02718243,0.07342951,-0.02772085,0.013032908,-0.07715839,-0.17803371,0.14952348,0.07368659,-0.066673756,0.0322662,0.040986992,0.028422462,-0.0983752,0.12604344,-0.072139256,-0.064216845,-0.054217983,-0.09253434,-0.07850941,-0.1467178,0.13206522,-0.053293426,0.0180191,0.1547829,0.025194792,-0.06405069,-0.09311866,0.03817682,0.1325351,-0.009066485,-0.002069516,0.089477584,0.049711324,-0.13275108,0.11318092,-0.014022542,-0.11560837,-0.1552463,0.010389903,0.058472402,0.052635245,0.01973044,-0.10479588,0.07916462,0.07590203,0.059223235,0.027043324,-0.15627,0.064330965,0.091245785,-0.0127915945,0.10849585,-0.07112268,0.14481637,-0.041349277,0.09524499,0.13536489,0.17446876,0.09570365,0.03853273,0.048109833,-0.029761018,0.03414401,0.035123006,-0.133095,0.02358333,-0.10736386,-0.09051417,-0.097928844,-0.075000055,0.23911537,-0.005482693,-0.15914631,-0.048696674,-0.035583664,0.09181257,0.024899302,-0.08659718,0.059966616,-0.11929422,-0.114757,-0.075716175,0.075316206,0.016179165,-0.0060379235,0.031908117,-0.05460488,-0.07880755,0.058157068,-0.083953224,-0.06724106,-0.065287,0.037256777,-0.07319736,-0.13163652,0.115104884,0.07965753,0.0042223195,0.07909952,0.018626476,-0.044983782,-0.13100703,-0.060568508,-0.003911632,0.10397342,0.006374916,0.11047276,-0.04939222,0.011056886,-0.069409706,-0.11497833,-0.016193656,0.20364726,-0.013102665,0.09183787,0.10038228,-0.022684282,-0.018421222,0.025716135,-0.012491281,0.017475154,0.038288914,0.098247424,0.06520799,0.0036639166,0.03314163,0.019360047,0.05569476,-0.042055324,-0.03855307,0.12567593,0.017971857,-0.033615276,0.16442807,-0.14431313,-0.073869556,0.06383569,0.11262551,-0.05265788,-0.0036651003,0.011297027,0.01943115,-0.18594734,-0.045843657,0.09265675,0.08639281,0.037304144,-0.11532505,0.15736334,0.000972099,0.09068356,-0.03010313,-0.19482066,0.06271024,0.03469558,-0.108363666,-0.037388094,-0.10719321,-0.15709868,-0.05646857,0.085592374,-0.049915176,-0.023385145,-0.055040874,0.20324819,0.04989439,0.050631594,-0.032164376,-0.089406684,-0.1622218,0.043653585,0.08021202,-0.09564962,0.09377616,0.12302603,0.15268105,0.11829169,0.06589867,0.11021481,-0.060632605,-0.0147884125,-0.034401175,0.019711545,-0.04337212,0.038551513,0.20554091,-0.003864141,0.16279228,-0.06304702,0.011533319,0.030818094,-0.010303544,0.04116373,-0.14371033,-0.02938993,-0.006165702,0.011811209,-0.023037795,0.07928649,0.090155296,-0.018664753,-0.08930225,0.09750339,0.028598022,-0.12035289,0.07500682,0.018586438,-0.058466196,-0.041508883,-0.07616584,0.017918484,0.16316241,-0.06095604,-0.010982021,-0.19391169,-0.0054493,0.13706237,0.037923213,-0.05243075,0.08819882,-0.0063066785,0.17894551,0.047482736,0.13388416,0.028402522,-0.057954002,-0.014213618,-0.058481894,0.012089164,0.009710886,0.073179215,0.0020814426,-0.103894934,-0.11038789,0.02016573,0.032523714,0.115929455,-0.034185678,-0.048628297,-0.09277492,0.11082343,-0.20376278,-0.027631031,-0.06280175,-0.05922529,0.039842304,0.15064326,0.06340881,0.07656998,-0.06427063,0.028247552,0.038735066,0.033969384,0.06782132,0.039334822,0.17304823,0.01628538,-0.013849661,-0.055797376,0.09215945,-0.0318297,-0.045233633,-0.12055399,0.056673136,-0.011967851,-0.031881865,0.120449305,0.06722481,0.057661854,-0.07778616,-0.07561042,0.09190974,-0.059162132,-0.011292022,-0.15643159,0.0106604695,-0.046994563,-0.08413934,-0.015589299,0.009383854,-0.070241414,0.15174954,0.007735882,0.115757816,0.032917876,0.018910907,0.04420561,0.18762104,-0.11148434,-0.15790705,0.01558811,0.12582867,-0.036496393,0.10505354,-0.025831304,0.0058475696,0.007032569,-0.06408567,0.019402828,-0.15700127,0.10858661,0.15479276,-0.06623009,-0.11368256,0.049065307,-0.0018827171,-0.055606287,-0.02541624,0.0025155891,0.048880324,0.030286418,0.17684191,-0.027389618,-0.099991046,-0.021265654,0.0885267,-0.04777261,0.013714185,-0.24012232,0.11555487,0.027679583,-0.020395886,0.0699259,-0.04081796,0.10282631,-0.032978326,0.16872194,0.05923388,0.10566977,0.07059193,0.062223777,0.03266082,0.017402334,0.05338979,-0.07268079,0.06288896,-0.07763887,0.04111051,0.08787311,0.1402262,0.1396562,-0.064074084,-0.19967672,0.059484757,0.0477965,0.052168462,0.05313845,0.045616064,0.06631407,0.02297359,-0.025547137,0.08190002,-0.004271538,-0.03456462,0.10244149,0.017138962,0.11742479,0.1407016,0.023684412,0.02595026,0.10206079,0.037207376,0.05434503,-0.00525734,-0.08706685,-0.039978538,-0.031227738,0.13236997,0.062113754,-0.02486883,-0.012392496,-0.083130375,-0.117397375,-0.016404975,0.019734632,-0.031067537,-0.049148187,-0.050451424,0.17460912,0.030634725,0.12019177,-0.13121654,-0.1370564,-0.078791976,0.07404135,0.0025576055,-0.11864151,-0.055772685,-0.01186291,0.039323386,-0.15616997,-0.031678714,0.09389857,-0.11714685,