0.001687866,-0.038118087,-0.07501756,0.050856605,-0.04425732,-0.04559171,-0.087081626,0.06489463,-0.06064282,0.055703547,0.046691455,-0.019960225,-0.041277193,-0.069779985,0.03146023,-0.0643035,0.06099404,0.009838992,0.008267285,-0.045161344,-0.037496496,-0.010004634,-0.049643748,0.0770967,0.019277077,0.07646178,-0.0875414,-0.088949375,0.041096814,0.014312301,0.04356186,-0.084619366,0.057939913,0.01382418,-0.08886394,-0.062487796,0.023152757,0.016143108,-0.073604256,0.0105965575,-0.06466222,-0.00036131413,-0.053792074,-0.031487457,0.075244375,0.06937107,0.08422618,0.031545635,-0.0731806,0.052135967,0.017702863,-0.0867731,-0.009543458,-0.06662896,-0.049459632,0.036600865,-0.039892156,0.07553402,0.060932033,-0.012561003,0.043661747,-0.04807476,0.02337739,0.03752585,0.015885236,0.03933806,0.03379068,-0.00151201,-0.054603845,-0.060556773,-0.056799397,-0.08773583,-0.09128213,-0.061508123,-0.05443929,0.014316057,0.008266349,0.028968628,0.032433465,-0.07688189,-0.083714426,0.051043373,-0.0808959,-0.058154874