-0.4401586,0.24729621,-0.1401044,0.15037456,-0.33863708,-0.1337245,0.20919965,-0.5356937,-0.27706873,-0.2715473,0.16986229,6.644893e-05,0.24661805,0.33860373,0.27013135,-0.22674528,-0.17498256,0.02739908,-0.20424499,-0.18993795,-0.21323942,-0.41117555,-0.13187765,-0.4654016,0.22273594,-0.030321032,-0.2535215,0.2718532,-0.2941815,0.24904284,-0.24854621,-0.25429446,0.114065774,-0.32202244,-0.3320658,-0.40358368,0.27557963,0.18862325,-0.21144822,-0.0989615,-0.23237322,0.05391558,0.16593075,-0.419532,0.29506868,-0.32112136,-0.07447088,0.22713381,-0.061535366,-0.20372878,0.15452732,0.19495733,-0.19977292,-0.30850768,-0.4710913,0.36279452,-0.21731752,0.23227249,-0.14299643,-0.31329295,-0.1206973,-0.23684132,-0.31750214,-0.2954205,0.24785227,0.3071266,-0.3840697,0.30088365,0.22138421,-0.21539424,-0.07555705,-0.29084307,-0.29419163,0.24537314,-0.17926686,-0.3022233,-0.4058588,0.0702664,-0.32321772,-0.23560351,-0.20308381,-0.35985097,0.25786844,-0.2291406,-0.14975882,0.07133231,-0.32752886,-0.36305922,-0.16466247,-0.17424807,-0.3258365,-0.16056885,0.26066118,0.26743037,-0.3308525,-0.042978913,-0.30857888,-0.4004177,-0.34963858,-0.1671054,-0.008319296,-0.17973316,0.11544676,-0.2000886,0.19839248,0.32056692,0.12889142,-0.048646864,-0.4204716,-0.14875455,-0.0608705,0.1704546,0.0062499344,-0.29100546,-0.18450452,0.1653223,-0.38436064,-0.28747043,0.19714358,-0.04607899,0.17751843,0.21788341,0.2812811,-0.0386723,0.24720359,-0.16794366,0.063836396,0.1531761,0.231355,0.18264273,-0.14499232,0.15576234,-0.2390975,0.24309808,-0.42025557,-0.2297708,0.20332499,-0.24375129,-0.19389077,0.21119508,-0.35023636,-0.33046767,-0.33420378,0.2650779,0.011325779,0.22924367,-0.2964915,-0.22121114,-0.11950153,-0.4244817,-0.2510294,0.009401099,-0.4153088,-0.2491261,0.08173193,-0.15493272,-0.33002153,0.12529826,-0.27977026,-0.074591756,0.25209346,-0.2743698,-0.18350376,-0.009597869,0.20290765,0.017779456,0.122006014,-0.06996969,0.06346561,0.3040746,0.025608253,-0.47241986,0.10315676,0.22536466,-0.28798363,0.12098449,-0.20068726,-0.3716018,-0.2095516,-0.32754016,0.13238159,-0.112818025,-0.14191514,-0.5250284,0.32406983,0.3115381,0.06950512,-0.36881977,-0.29266697,-0.00470935,0.2843839,0.2210197,-0.35645503,-0.46506444,0.21329735,0.058078483,-0.3308083,-0.4150154,-0.24574167,-0.22044827,-0.05376764,0.060088977,-0.27375382,0.1866543,-0.33321092,0.21626887,-0.18132015,-0.19799072,0.09179743,-0.4053766,0.19151995,-0.3291468,0.009624017,0.09199356,-0.36880648,-0.3399743,0.24008252,0.07142448,-0.38646725,0.11190149,-0.38350254,0.29669684,0.2494376,-0.13005373,-0.30923906,-0.41910574,0.13147528,0.020130808,0.20247622,0.024427736,0.0045403214,0.2775454,-0.1711852,0.19250269,-0.09655583,0.23580524,-0.27229562,-0.45802063,-0.19909431,-0.25885203,0.06597782,0.029101904,0.11135863,-0.31637916,-0.08379359,0.23826455,-0.23540492,-0.32958755,-0.31192586,-0.14627905,-0.16830952,0.24979727,-0.34413424,-0.43464845,-0.18908893,-0.3125369,0.18302543,-0.020459635,-0.28253624,0.2039619,-0.102189474,-0.18383612,-0.26133436,-0.12251052,-0.25184003,0.27786776,-0.251731,0.21523224,0.1689108,0.16195083,-0.3129134,0.2512454,-0.29901087,-0.452886,-0.45181918,0.103770696,-0.2920153,-0.28350696,0.20024085,-0.22754622,-0.31364554,0.24009366,0.11662994,-0.20219988,-0.079092935,-0.044966087,0.2339033,-0.023677137,-0.15875864,-0.108709596,0.22051421,-0.27189475,-0.20549315,0.14812279,-0.11911032,-0.53812474,-0.107363015,0.18322656,-0.18449861,-0.28574878,0.14475985,-0.47655982,-0.39065814,0.23498361,-0.22045514,-0.3501095,0.21076763,-0.3459086,-0.40000138,0.05045947,-0.19793633,0.1638026,-0.09920601,-0.33775884,0.12399125,-0.25477672,-0.0064059817,-0.29955992,0.014202783,-0.29256287,0.20889309,-0.18202403,0.2886897,0.17123206,-0.17847398,0.28624386,0.25635463,0.2967626,0.12262227,-0.27388978,0.2530457,-0.2684813,-0.40687555,0.25055814,-0.07529437,-0.16264276,0.19688313,-0.04523099,-0.2822228,0.23661932,0.09746031,0.12314962,-0.38270292,-0.28212464,0.015037772,-0.0655849,0.28091565,-0.24310717,-0.28097832,-0.30466527,0.24784711,-0.34051508,-0.28123853,-0.1956523,-0.21022925,0.17627443,0.2808005,0.26293442,-0.23644455,-0.31795955,0.0326758,-0.39704323,-0.42257065,-0.053910658,0.20724891,-0.2345275,-0.25926802,-0.25012624,0.19302063,-0.33876127,0.26928085,0.12637617,-0.22101034,-0.14169106,-0.17439827,0.23100337,-0.36704642,-0.4415563,-0.3397358,0.1999147,-0.2613259,-0.14937611,-0.014647686,0.29217458,-0.34689814,0.29479557,0.16943118,-0.32607457,-0.05581487,0.12981978,-0.2709584,-0.33956075,0.25008518,0.16006052,0.07477339,-0.22749905,0.23731713,-0.25447106,-0.07648378,0.16039303,-0.38376632,-0.37721252,0.20770767,0.18168284,-0.5545859,-0.0020302942,0.15795317,-0.19910322,0.031889297,-0.14901823,-0.17704178,-0.35955194,-0.06857428,-0.20403364,0.031643152,0.066038564,-0.08898615,-0.075080425,-0.09713012,0.23728377,-0.4235947,-0.3309807,0.2583253,0.22784941,-0.2645721,-0.28877237,0.16560231,0.11396511,-0.06685366,0.2868638,-0.31877166,-0.2282095,-0.09236539,-0.22829525,-0.35935292,0.27217847,0.2378148,-0.26773727,-0.12743673,0.21866938,-0.21978763,-0.10646937,-0.14624284,0.07533569,-0.1259232,0.20837688,0.25383157,-0.20218801,0.2725525,0.2587452,-0.14254422,-0.15660846,-0.14162035,0.18054365,-0.053289026,-0.12900054,-0.35126716,-0.16326973,-0.28851515,-0.19110774,0.25584182,0.20344087,-0.17605394,-0.30560932,-0.24389549,-0.41369566,-0.2190188,-0.32930303,-0.26173347,0.030374438,-0.076528326,-0.1925952,-0.23314339,-0.10700026,-0.38876432,-0.19915032,0.23629904,-0.2763689,0.23005247,-0.30021146,-0.518576,0.060707193,-0.31540963,-0.14984886,0.23022227,-0.17097686,0.12242149,0.19533953,0.21705043,-0.100218214,0.026657736,0.13607246,-0.005746759,-0.20600174,-0.17553782,0.016485391,-0.2331553,-0.08784753,-0.15899542,0.27967983,0.18384555,0.29465196,-0.28828245,-0.41461867,-0.35347438,-0.19768515,-0.21321617,0.15334497,0.24905673,-0.1636688,-0.08592598,-0.07042983,0.32300013,-0.14124008,0.22541249,0.25225106,-0.08618028,0.11655805,-0.34121943,-0.25318843,0.13558333,0.20640895,0.16278343,-0.24709459,-0.34676462,0.17129517,0.29261696,-0.25048342,0.2907316,0.2558556,0.20696007,-0.378571,-0.010947762,-0.1479777,-0.20037298,-0.2556661,0.27523884,0.18325293,-0.23218164,-0.215723,0.031130455,-0.27201587,-0.33846176,-0.40157095,0.08130762,-0.21540588,-0.2938746,-0.16665655,-0.13592404,-0.28844115,0.29205814,0.096789785,-0.2670366,0.046340913,0.21391726,-0.041898347,-0.15944973,0.13553548,-0.20794022,-0.21094003,-0.06889989,-0.16944034,-0.30430648,-0.18508995,-0.35974,-0.21076089,-0.27746865,-0.09895075,-0.06774831,-0.22706628,-0.39911404,-0.24045205,-0.041772407,0.21302567,-0.22740772,-0.2687,-0.41781175,-0.13426264,-0.2870869,0.29370594,-0.15847883,0.23733142,-0.45456782,-0.11627465,0.28595072,-0.116334364,0.23421441,-0.262953,0.19917987,-0.29622456,0.2726432,0.17855972,0.035428923,0.2463018,0.14143984,-0.16541469,-0.098847084,-0.13316143,0.24447544,-0.21338557,0.24727935,-0.2510942,0.15944703,-0.1414701,-0.38010782,-0.32725993,-0.11854721,0.24166821,-0.087612055,-0.41016456,-0.18111326,-0.06040091,-0.3328044,-0.34560716,-0.2456381,0.0014730762,-0.22977519,-0.33492312,0.2148196,0.18160751,-0.5253806,-0.35152084,-0.18806927,0.26986253,0.22178471,-0.24928804,0.17737639,-0.1476056,-0.33960915,-0.0040577454,0.2547261,0.20817837,0.096763186,0.22240917,-0.29069075,-0.27518412,-0.122434646,-0.25937447,-0.24326484,-0.39078096,-0.0615478,0.15229972,0.12503159,-0.09379042,-0.3066075,-0.32731667,-0.40199295,0.20471449,-0.135233,0.2168771,-0.13587,-0.04149601,0.016245298,-0.032875974,-0.42323318,-0.054966915,-0.46613353,-0.33781868,-0.18403678,0.2753861,0.27689216,-0.34680206,-0.31367502,0.11326617,0.16885826,0.016956525,0.18284525,-0.011192409,0.20708829,-0.13662712,-0.3343085,-0.25410256,0.29606622,-0.0059110913,-0.1502278,-0.34460336,-0.31495613,-0.37838095,-0.26845634,0.18451937,-0.16070777,-0.23755674,-0.24507616,0.21428598,0.066689715,-0.15320556,0.076110676,0.16597275,-0.23652887,-0.38303545,0.302073,-0.29378027,0.27573746,-0.14787683,0.0010546828,-0.18143246,-0.23140362,0.19551519,-0.115511894,-0.30356067,0.21128727,0.0136579275,-0.13028096,-0.06107598,-0.30807164,0.2081712,-0.117662795,-0.16369249,-0.276745,-0.25090784,-0.2535238,0.32303575,0.22596955,0.28442347,-0.34816682,-0.36079612,-0.18315901,-0.3610411,-0.24957545,-0.19657406,0.14858751,-0.3319969,0.0965744,0.1878112,0.24898782,-0.17107032,0.20781665,0.15920779,0.19163191,-0.32559976,0.09869161,-0.17831466,0.18397331,0.2069493,0.13459343,-0.21873151,-0.3865689,-0.008078236,-0.25184253,-0.25946224,0.21967146,0.2873812,-0.39506602,-0.30518267,0.24943136,0.18306555,0.19257909,0.03139918,-0.17950127,-0.18321846,-0.16142909,-0.436925,-0.26700744,-0.30383852,-0.025350437,-0.22970814,0.11946297,-0.12430441,0.12821713,-0.050228808,-0.22788554,-0.06382135,-0.042837273,-0.1504787,-0.17509976,0.19236246,-0.046820775,0.19065493,-0.3862313,-0.17161176,0.11905064,0.025942985,-0.24866529,-0.401858,-0.5025037,-0.27950883,-0.14857459,-0.30735493,-0.13725258,-0.35150647,0.27569076,-0.34816667,-0.35041025,0.24078433,-0.22067052,-0.0731125,0.22552072,-0.045250207,-0.33215427,0.25151327,-0.23054926,0.15146479,0.1548177,-0.18588488,0.2350589,-0.035587993,-0.11020087,-0.11182952,-0.3344812,0.21357211,-0.2144803,-0.3689373,0.15722519,-0.19142438,0.21469344,-0.23125276,-0.13041133,-0.3302452,0.1736719,-0.32240644,-0.4014987,-0.124709606,-0.03302824,0.23005502,0.18824257,-0.3407462,0.22484365,-0.19307716,0.19897962,0.21271938,0.23000547,-0.022877268,0.18154912,-0.37763718,-0.052250598,0.15831508,0.15979645,0.220688,-0.24372284,-0.44235703,0.061844226,-0.4982572,-0.29644498,-0.19192295,0.17114367,0.22539443,-0.33392873,-0.1914073,-0.10573279,0.18743141