0.22004236,0.338444,-0.3556814,0.05672366,0.10124336,-0.14204583,-0.09167985,0.29223958,-0.037810534,-0.42757353,0.32383823,-0.23556763,-0.3631268,-0.32507443,-0.33112982,0.28727007,0.29490674,-0.13352036,-0.2549934,-0.27772903,-0.3427112,-0.25997555,0.0027775934,-0.4948395,-0.26564038,-0.19236216,-0.30258742,-0.28369442,-0.34899086,-0.24072784,0.24576928,-0.32064033,-0.39486113,-0.30158174,-0.31320837,-0.18386653,0.29200894,-0.2590185,-0.22817205,-0.25195602,-0.14844178,0.22893111,0.17229277,0.22250454,-0.094689295,-0.070671916,-0.09399837,-0.048721444,-0.09931542,0.23905936,0.30553606,0.035282545,-0.28919715,-0.41904563,0.11760606,-0.16092405,0.23196004,-0.29852206,-0.20009218,0.23100567,0.28614235,-0.06566431,-0.19397275,0.026198603,-0.15764222,0.22518593,-0.41418934,-0.10676299,-0.15748817,-0.24088058,-0.38065645,0.28735346,0.20222114,-0.17495072,-0.0015866358,0.21517916,-0.26258785,0.23086806,-0.44936752,-0.14054294,-0.29732817,-0.25384074,-0.20567127,-0.205812,-0.28517446,-0.1637246,-0.1774764,-0.36703596,-0.16365997,0.24005392,-0.20458677,-0.1095809,0.23448154,-0.17293851,-0.31409773,-0.3515227,-0.14992826,0.24970233,0.09569243,-0.23477583,-0.203759,0.18953289,0.25805467,-0.35913318,-0.035846062,0.26402572,-0.3639871,-0.22551438,-0.0042926855,0.12227009,0.15576898,-0.30961046,0.20889615,0.17469601,-0.09024962,0.16138263,0.18909967,-0.21340746,-0.3159051,0.03572488,-0.046662968,-0.33211964,-0.28783834,-0.2922647,0.23707317,-0.38412994,-0.2988135,-0.37466535,0.056623746,0.27143148,0.17032997,-0.07601598,0.12221241,-0.25373736,-0.32859996,0.05372759,-0.1936529,-0.12454887,-0.12945767,0.1859511,-0.09915134,-0.26775837,-0.3490581,-0.39381152,0.25993547,-0.024307357,0.0060287504,-0.3441348,0.18756893,0.20640326,0.028395746,-0.299251,-0.1622874,-0.13502115,-0.24325179,-0.020304197,0.21570192,-0.33700424,-0.34457812,-0.13947882,-0.2443338,0.25168598,-0.3699743,-0.16891779,0.1954461,-0.09239352,0.12729491,0.18127415,-0.2206886,-0.39266196,-0.24779516,-0.24391808,0.2517347,0.28501758,-0.24833117,-0.4004143,-0.20212418,-0.32051623,-0.36956266,-0.35491216,-0.4154437,-0.26086372,-0.12099676,-0.28531227,-0.08086333,0.3007379,-0.20700417,-0.3215128,0.26802352,-0.38381132,-0.33845252,-0.15134682,0.14421846,-0.09563389,-0.24163593,0.20496441,0.2262587,-0.28887492,0.25368637,-0.20215262,-0.07299307,0.23641993,-0.25398266,0.19517976,-0.081292525,0.15374967,0.2786505,-0.32367554,-0.083213985,0.23930082,-0.39744937,-0.32174346,-0.06915821,0.150076,0.17387977,0.27491474,-0.31537762,0.066390164,0.19453524,-0.1391597,-0.18094458,0.10893959,0.08416692,-0.090772465,0.2422114,0.11303337,-0.20715898,-0.2319984,-0.22211759,-0.22868238,-0.25469044,-0.34276518,-0.2837169,-0.21543723,-0.3679098,-0.34642184,-0.29709476,-0.21171877,0.2182518,0.2800994,-0.14038138,-0.027941663,0.27558872,-0.18226284,0.2290169,-0.24836746,0.22743464,-0.19708179,0.21185076,-0.38898844,-0.31204215,-0.16312304,-0.1441811,-0.13282713,0.04282395,-0.23684388,-0.27491772,-0.31934035,0.28052628,-0.033227116,0.20423096,0.21194443,-0.29796106,-0.3422785,0.2629628,-0.33057988,-0.14601913,0.29427543,0.067436166,-0.29564425,0.09152798,-0.22189666,0.26703426,-0.26550218,0.28596282,0.2472068,-0.02203303,0.22926198,-0.053684425,-0.3209071,0.26596537,-0.39412972,-0.38685963,-0.25140145,-0.33625913,0.0701277,-0.20475255,0.1788039,0.017865252,-0.2983477,0.30063012,-0.28504264,-0.4143285,-0.31959063,-0.18710493,-0.08258673,0.30889478,-0.44948816,0.2101156,-0.185956,-0.47307295,-0.23893468,-0.002931252,-0.34301266,0.25051925,-0.28880394,-0.29055092,-0.25215653,-0.052000247,-0.09374094,0.21926917,-0.23590109,-0.36473638,0.33182314,-0.10773734,0.20267707,-0.22872843,-0.028660363,-0.2350614,-0.12047627,-0.23029672,-0.14800192,-0.06534698,-0.11946503,-0.060125284,-0.1394756,-0.08005944,-0.14974967,0.21791703,-0.23196079,0.23117688,-0.34470588,-0.23311034,0.29094616,-0.26233423,0.0992278,-0.031878993,-0.22406426,-0.30674395,0.05546564,-0.27584934,-0.11502724,-0.4129073,-0.15478028,-0.18779625,0.14400391,0.07707865,0.20262362,0.28200227,-0.15334572,-0.18392538,-0.44862807,0.017469108,-0.1445456,-0.08749883,0.18802874,-0.33210117,0.26960865,-0.17147604,-0.35154068,0.20568019,-0.45878115,-0.24847823,0.2049085,-0.28741676,0.092847146,0.19621368,0.25015613,-0.21671367,0.093154855,0.106651686,-0.15342727,-0.35548398,0.19463989,-0.31403098,0.22637264,0.3421069,-0.21165891,-0.24758463,-0.39598474,-0.3575689,-0.0112872375,-0.42871296,0.04868421,-0.2240415,0.21937248,0.22507243,0.1885069,-0.244777,0.13983199,-0.36312902,-0.2605711,-0.49953538,-0.2658973,0.28540692,-0.29247364,0.06762026,-0.14123328,-0.2091129,-0.17194237,-0.08320728,-0.084579945,0.23932612,0.17471787,-0.2501766,-0.17682096,-0.0793987,-0.32653886,-0.087282605,0.04920033,-0.27267292,-0.2719986,-0.3064243,-0.30020604,-0.32117355,0.18219618,0.18530507,0.037843846,0.2682652,-0.081626415,-0.18904881,-0.13086443,0.16345496,-0.1382944,0.08114887,-0.055870138,0.19136144,0.1679745,-0.06441663,-0.24839163,0.06629177,-0.33965814,-0.17379567,0.22783367,-0.054146796,0.0054281494,-0.32553336,-0.39754933,-0.14583704,0.1391277,-0.23289788,-0.27653345,-0.13333249,0.1124681,-0.03621353,0.28579047,-0.11602244,-0.35162368,-0.13395284,0.26703554,-0.23397218,-0.22570993,0.07028685,-0.1814665,0.302757,-0.20386446,-0.11491456,-0.26544145,0.22096008,0.06382212,0.053833894,-0.14861068,0.23610732,0.19998305,-0.3494067,-0.29898345,0.24066147,-0.30724087,0.058931664,-0.28003392,0.21668592,-0.50438386,-0.12056292,-0.27096817,-0.28387332,-0.12788904,-0.24094142,0.06594901,0.273332,0.15865253,-0.20037197,-0.20560138,0.25936803,0.19223624,0.03755485,-0.31431183,-0.44506305,-0.31907004,0.27658218,0.078550406,-0.33522984,-0.12469669,-0.21261257,0.29639563,0.04106564,-0.27548853,-0.27422902,-0.3336294,-0.17172956,-0.24110907,-0.39242622,-0.10676605,0.241747,-0.2683696,0.2741661,-0.21493709,-0.066598855,0.2634334,-0.14963526,0.080474526,-0.4450866,0.19937064,-0.32611045,-0.42286482,-0.29815945,0.06597616,-0.19302538,-0.02966589,-0.33882332,-0.19518706,-0.18365605,-0.35118598,0.22357163,-0.11206609,-0.052464254,-0.26485282,0.026513295,-0.13611972,-0.34635973,0.039830383,0.09390782,-0.2050995,-0.28177017,-0.24622914,0.027389895,-0.4011608,0.22157364,-0.34663495,-0.050034765,-0.33422625,-0.083857104,0.25510037,-0.12320542,0.16972756,0.101241365,-0.16006407,0.25396258,-0.107542574,-0.3950065,0.15413725,-0.31280267,0.30091795,0.25151208,-0.35353315,-0.19196591,-0.10282961,-0.34062904,-0.33723143,0.26396018,-0.0756927,-0.24623224,0.25400117,-0.3386521,0.2646567,-0.26556247,-0.0791675,-0.21928827,-0.15031056,-0.242867,-0.29497725,-0.2899979,0.29803485,0.20043904,-0.3074073,-0.3198881,-0.010425695,-0.2819356,-0.20372783,0.18172963,-0.26679447,-0.07692573,0.15802908,-0.0777497,0.30315033,-0.1350782,0.22903809,-0.1119851,-0.2832957,0.12830795,0.110829055,-0.25635964,-0.33340803,0.25018314,0.039112743,0.1325082,-0.2729684,-0.11760607,0.15678646,0.1526429,0.17349336,-0.20466292,0.08887208,0.25320134,-0.35550672,0.30076927,-0.29468954,-0.1100179,-0.3314226,0.14057046,0.2755791,-0.30712038,-0.3143572,-0.3487351,-0.23579954,0.20948666,0.035488352,-0.24393475,-0.31631762,-0.22303207,0.24270514,-0.34049812,-0.20667201,0.18059379,0.22968973,-0.34089586,-0.3295959,-0.38317847,-0.15891635,-0.18096495,0.21156932,-0.09185158,-0.3254072,0.1340597,-0.0022273157,-0.15782799,-0.33551672,-0.36232704,-0.19751489,-0.41954315,-0.34585133,-0.23648809,0.21516526,-0.05467311,-0.19083966,0.2663695,-0.3302831,-0.3338124,-0.22680178,-0.33744,0.17295831,0.15187624,-0.29661202,0.24959303,-0.026511919,0.23554169,-0.20173839,0.03577304,0.22482486,0.1159892,-0.3119481,-0.16703413,-0.20396702,0.059190676,0.02068903,-0.1118104,-0.034671914,0.19208209,0.18158421,0.19640693,-0.32924125,-0.22314693,0.12825936,-0.46790755,-0.27123982,0.059428535,0.27509615,0.054135054,-0.2353165,-0.44590256,-0.25140268,-0.30299821,-0.21840352,-0.064313956,0.08634484,0.2343581,0.17149095,-0.2733746,0.18747915,-0.18208706,0.17179896,-0.13594367,0.25952706,-0.35170335,-0.0663624,-0.23726343,0.24430524,0.26799473,-0.21932025,0.17372337,-0.24396951,-0.21277021,-0.20535736,0.005891571,0.26024505,0.23927921,-0.14569443,-0.23113292,-0.22909,0.22051631,-0.07448781,-0.078843445,-0.363619,-0.3139574,-0.18659778,-0.17988336,0.12305114,-0.17785881,-0.32004133,-0.37383035,-0.043489374,-0.0316633,-0.123557046,-0.11523273,-0.018871281,0.14270608,-0.20711468,0.28634778,0.2526862,0.0010478126,0.18404987,-0.30766395,-0.057041693,-0.10685283,-0.3370999,0.17032349,0.24363323,-0.04531064,0.32596081,-0.13830929,-0.17245556,-0.033868942,-0.37697986,0.29701158,-0.20550744,-0.16659096,0.23624,-0.26518068,0.10924443,0.28883067,-0.28598443,0.23223926,-0.24778934,-0.42070633,-0.31158048,-0.20281054,0.079707496,-0.25976795,0.27763686,0.21935704,-0.20490724,-0.39228642,-0.14313827,-0.023451151,-0.2745619,0.045718208,0.12173746,0.015771562,0.22889584,-0.17683211,-0.24248706,0.06455774,-0.23803858,-0.20509417,0.223145,-0.27113113,0.12461825,-0.46028236,-0.16290185,0.1554966,-0.20522316,-0.21908824,-0.17296004,-0.36639065,0.18544507,-0.06275314,0.2712088,-0.33458793,-0.19934663,-0.32047895,0.23165378,-0.025114208,-0.29552814,-0.26172227,0.083754726,-0.28139526,0.17794153,-0.37179947,0.1767874,-0.37031177,0.12994836,0.116846174,-0.17633638,-0.21586195,0.007390437,-0.29963648,-0.01452842,-0.27885774,0.11457872,0.13212374,0.23311836,-0.27662,0.06291672,-0.07017843,-0.30833542,-0.020464357,-0.14750804,-0.080400646,-0.43548164,-0.22000152,0.17852493,-0.06570065,-0.1971691,0.09602512,0.26887584,-0.12743098,0.23647828,-0.22452937,-0.1617588,0.2582887,0.15401538,-0.25372276,0.23277469,-0.31585386,-0.31215623,-0.26676354,-0.14062725,-0.29595146,0.06341902,-0.17746478,0.26626918