0.0481187,0.033249058,0.02868688,0.073746644,0.018349104,0.037838046,0.06741321,0.030001067,-0.05983813,-0.04583156,-0.011701111,0.04910391,0.085869834,0.06809932,0.068755,0.070204034,0.04920241,0.02839856,0.009951013,0.07555526,-0.028966011,0.06030018,-0.027168522,-0.048273508,0.018887239,-0.025817601,0.002991637,0.0076616434,0.0051607625,-0.11152172,0.08840985,-0.026217524,-0.0015523523,0.09677111,-0.029941289,0.07240996,0.056824733,0.012278233,-0.0060922746,0.037186705,-0.060222868,-0.10808409,0.02372021,0.067151986,-0.006867873,-0.112514004,-0.118664145,0.047439955,-0.0829484,-0.07542418,-0.024781913,0.025348084,-0.076210186,-0.040044148,-0.122917704,0.04117446,-0.048945297,-0.03207163,0.028304167,0.020648276,0.009479836,-0.04601713,-0.0122360755,-0.018123602,0.054647893,-0.053506304,-0.14696753,-0.04284024,0.0240021,-0.034381445,0.012480597,0.045271587,-0.006294825,0.11943893,0.0055689835,-0.052496433,-0.009725828,-0.034369137,0.026732268,0.015273745,0.13998319,0.10537661,-0.011096772,-0.09106897,-0.14085905,0.13251127,0.14532363,-0.0056235935,-0.044734888,0.050856296,-0.08047984,0.00024881677,0.056314796,-0.022596886,-0.021413883,-0.037759595,-0.059993546,0.13000685,0.07435502,-0.026554031,-0.07428344,0.015830979,0.02231714,0.14818262,0.019417811,-0.018278187,0.052157618,0.039426453,0.019267213,-0.058154177,0.03681156,-0.012408906,-0.04643125,0.03858466,-0.15707894,0.040069487,-0.2039764,0.035345532,0.047048893,-0.028879737,0.07034452,-0.01292479,0.028516129,-0.0880127,-0.028157948,0.067543216,-0.010076056,0.06642329,-0.041615617,-0.012174148,-0.030550338,0.008288221,-0.087393634,0.10148592,0.015487142,-0.09753601,0.029262668,-0.11295008,-0.07321861,-0.0051076845,0.034948982,0.20428811,-0.099863574,-0.051850364,-0.003982228,0.029553153,0.13859178,-0.10927168,-0.078754514,-0.051169906,0.06344649,-0.014927729,0.008140733,0.0036179812,0.028417565,-0.019345572,0.042187583,-0.030070972,0.101554476,-0.07849803,-0.07733657,-0.03818741,0.008760804,-0.044775102,-0.0109964935,-0.041489616,-0.018665558,-0.087624915,-0.01931825,-0.042189945,0.05831578,0.020621108,0.0015721967,0.038188994,-0.0944534,-0.040023733,-0.04469196,-0.11601594,-0.10587527,-0.13394809,0.09605618,0.14444302,0.038821824,-0.0022614412,-0.042464837,0.081624724,0.048582397,-0.05114444,0.06447755,0.0041326107,-0.005326284,-0.1001448,-0.06058032,0.077564344,-0.02634514,0.048565518,0.08435872,0.12510487,0.06062818,0.005086438,0.0048887073,-0.052342188,-0.046181485,0.03468515,0.044559322,0.13280164,0.017076597,0.08898936,0.012913103,0.013921636,-0.008508883,0.037680842,0.16114874,0.09415813,0.022148397,0.014378948,-0.07240691,-0.012151841,0.086916424,0.034665298,0.039669707,-0.0049907356,0.008824848,0.07866627,-0.011533679,0.01135329,-0.022604741,0.057525545,-0.041831475,-0.029063031,0.031064073,-0.01793786,-0.017496131,-0.024310105,0.024521722,0.04352719,0.06693226,0.022219153,0.076545134,0.043619264,0.10454779,0.12825486,-0.118235536,-0.12554777,0.036504447,0.017110815,0.09688972,-0.07103814,-0.1267829,-0.004618265,0.071714014,-0.008218095,-0.0007802734,0.186066,0.07112194,0.026867012,-0.013320627,0.012337721,-0.07317334,-0.045324713,-0.010917623,-0.06729078,-0.11181257,-0.1206007,-0.09843871,0.032859668,0.08098369,0.029215068,-0.059185557,-0.070275605,0.038423546,0.05628504,-0.08991087,-0.02889566,-0.014551851,0.108216666,-0.07120172,0.011252573,-0.02691532,0.053496145,0.035410743,0.11701857,0.039208386,0.025630184,0.12552051,-0.04249561,0.050243754,-0.015673619,-0.0368669,0.041349195,-0.12114674,0.08795882,-0.2408681,-0.06646574,-0.03398983,-0.10203697,0.0022882305,-0.059612356,-0.0025998554,0.034037583,0.06586439,0.06730742,0.058271255,-0.07357121,-0.017128866,0.020266091,-0.0414639,0.04868122,-0.085501514,-0.14327863,0.12402428,-0.008366675,-0.015564021,-0.026573997,0.13419488,-0.038435925,0.10222356,0.13147284,0.15389714,0.08840275,0.026752867,-0.045004424,-0.039539933,-0.000646539,0.010418348,0.045223363,-0.0071976157,-0.041412048,0.03359586,0.10666956,-0.0127420025,-0.1218875,-0.074606694,-0.006019019,-0.003662572,0.0018128429,-0.05164344,-0.06934833,-0.02018176,-0.051978916,0.1251284,0.17871337,0.103036456,0.10795818,0.048755176,-0.026644701,0.055302665,-0.034242574,-0.06605381,-0.03335894,-0.019959321,-0.053248517,0.040786494,-0.043262426,-0.069438025,-0.12105232,-0.015517317,0.050632242,0.03485439,-0.0989348,-0.061829552,-0.008153893,0.0141789345,0.0026354569,0.015169861,-0.0019293182,0.03714273,0.053816374,0.064098,-0.09496104,0.085713424,0.08475801,0.09526649,-0.016508419,-0.073742755,0.04145866,-0.041831996,0.094264485,0.098331094,-0.011558808,-0.036447737,0.067428984,0.059305917,0.050880205,0.00835762,-0.011296208,0.023268787,-0.13091783,-0.009761491,0.03341235,-0.06051979,-0.030097885,-0.14693353,0.029397562,-0.041379288,0.10204865,0.12006145,-0.079986736,0.048440117,0.00862046,0.0512862,0.060449358,0.012469369,-0.0038458463,0.017250411,-0.073932655,-0.01673217,0.06711967,0.028537892,-0.029941285,0.04081657,0.018435419,-0.03305242,0.012723169,-0.01407645,-0.00204326,-0.0187558,-0.019057395,-0.0233876,0.020687548,-0.17046452,-0.124103546,0.02339183,-0.026558332,0.019023106,0.047156584,0.1404564,0.06999142,0.088999696,0.075709715,0.07869138,-0.0910102,0.047916207,0.047272738,0.023966054,-0.108625725,-0.056992434,-0.18958414,-0.01195421,-0.022963481,-0.16161574,-0.13631319,-0.010959303,0.15271634,-0.010404971,0.028428406,0.03173962,0.14257033,0.065776676,-7.179002e-05,-0.016521946,0.008596111,-0.0010836156,-0.025804369,0.03624135,0.07582976,0.008295384,0.14994246,0.055579163,0.07670274,-0.06016756,-0.001030092,-0.014723704,0.029752262,0.0443602,-0.08600441,-0.078937605,-0.039203603,0.14115384,0.077582784,0.14189419,-0.0711412,-0.12219374,-0.040315047,-0.11838821,0.0389968,0.06132615,0.0050079045,0.0021323909,0.018845588,0.05405844,-0.013481784,-0.0045393794,0.049095437,-0.06158479,0.02435184,-0.022635717,-0.06953252,0.10196734,0.028059464,0.03864047,0.040059987,-0.01935054,0.05049116,-0.020039711,-0.011272663,0.12530673,-0.06528954,-0.060572855,-0.01156358,0.0148927355,0.13310248,0.061698437,0.031442292,0.11232337,-0.0046600956,-0.045391064,0.007081841,0.048070412,-0.0071646515,0.049182802,-0.07329069,-0.06609528,0.05559396,0.016460372,0.010293558,-0.005947378,-0.0087591605,-0.052252997,0.093066774,-0.08174292,-0.07582323,-0.046431538,-0.11391878,-0.101392545,-0.080131054,-0.09595812,-0.07964044,0.09351494,0.0049876613,-0.0007903119,-0.034088124,0.019771632,0.084020756,-0.02339953,0.0065947673,0.09678594,0.27103105,0.14338431,0.06510998,0.099440485,0.15908931,0.16968462,-0.005209684,-0.0070120394,0.060257763,0.120453194,-0.03176833,0.02442842,0.027690198,0.0058000702,0.09720293,-0.04659354,-0.050925102,-0.08482852,0.05811713,0.08384757,0.050950024,-0.01771614,0.0069019864,0.0056907567,-0.03539192,-0.038722303,-0.004684075,-0.0076504988,-0.04356109,0.007774145,-0.038127013,-0.013285304,-0.033558577,-0.22449148,-0.1238396,0.015742427,0.008830288,-0.07348549,-0.024943352,0.055250842,0.051507894,0.033333115,0.054734815,-0.0360105,0.10270028,-0.09077857,-0.15196328,-0.045855526,0.02226583,0.077050835,0.024132831,0.0007244955,-0.004226208,0.01841045,0.019604439,-0.015940025,0.054842193,0.02707137,0.15398227,0.0058865277,-0.0276105,-0.081001244,-0.02653223,-0.021431211,0.053615745,0.124361955,0.035214588,0.02745444,-0.14974903,-0.11220284,0.12539096,0.10973329,-0.0074117915,-0.11678445,0.005719129,0.00887464,0.06820359,-0.02043147,-0.09865131,-0.07442115,-0.10940498,-0.07844443,0.050988514,-0.00487859,0.06752636,-0.100906216,0.03003682,0.002064454,0.019987496,0.021378877,-0.026433753,-0.03130389,-0.02029632,-0.017099004,-0.030222248,-0.05358424,-0.007397232,0.13956231,0.001757485,-0.054013196,0.060429588,0.022685502,0.049840365,0.103945576,0.13859491,0.2005733,0.020408902,-0.06041862,0.015591986,0.08486908,0.09816764,-0.007939536,-0.005688789,0.0037729365,0.06899301,0.13616332,0.08150554,0.008543226,-0.030489512,0.1881804,0.0595969,-0.0051494166,0.04891333,-0.012161087,0.10084573,0.09274534,-0.08362402,-0.05826162,-0.03413003,-0.08972966,0.050929815,-0.032898016,-0.053313453,0.010281374,0.03596933,-0.07643134,-0.039753236,0.005520812,-0.062023584,0.07454552,0.011223446,0.048248313,0.022231508,-0.022812657,0.12637807,-0.030343527,-0.021226505,-0.022844188,0.008439089,-0.015156335,0.056238588,0.021975357,0.02435694,-0.0983526,-0.0027462898,-0.1286806,-0.032128826,-0.041118704,-0.0027993927,0.0857486,0.015705945,0.06465992,-0.12143411,0.057929233,0.13405243,0.042562634,0.07528967,-0.031322423,0.14251989,-0.030713301,-0.019697906,0.0010049619,0.0015280516,0.049930472,-0.010655808,-0.028259296,0.013604355,0.05793668,-0.07438124,0.011477907,-0.039387356,0.10644786,0.034062654,-0.028488144,-0.03858724,0.07242793,0.116276875,0.0194329,0.078839205,-0.0028839165,0.03524463,-0.06650167,0.10116729,0.05699892,-0.04252414,-0.030568056,0.017681768,0.10391536,0.1272512,0.06572193,-0.04045124,0.01620361,0.008815814,0.025643835,-0.04518623,-0.035608068,-0.008172555,0.15714912,-0.06684466,-0.13293555,0.024357127,0.036088042,0.06514057,-0.0049105645,0.10973793,0.099017344,0.035700142,-0.035273984,-0.03444576,-0.023546824,-0.021628149,0.004713495,-0.006287995,-0.08129658,-0.048392393,-0.012575446,-0.048657615,-0.020331098,-0.010490656,-0.021528088,0.019232467,0.05076731,-0.14725369,-0.100919016,-0.15068461,-0.043092296,-0.051950477,-0.032984886,-0.102433465,0.07432342,0.13486631,-0.03212736,-0.008064735,0.033262048,0.08147444,0.052603,0.011328248,-0.13569786,-0.017303418,0.09233723,-0.10811962,-0.055057246,0.00029578112,-0.024081603,0.0050592064,-0.07517129,0.04005119,0.038208406,0.10664133,0.0010107972,-0.12398611,-0.012598693,0.0031177367,-0.018062085,0.049061686,0.028635561,0.07995486,-0.037847508,-0.09175668,-0.06042426,0.015870828,0.11846348,0.050634284,-0.0796562,-0.10562847,-0.09901576,-0.053893518,-0.03926918,-0.08608391,-0.20400319,-0.03830735,0.11582757,0.058612715,-0.0068455664,-0.04446671,-0.028492698,0.06572918,-0.10911582,-0.037077174,-0.009340198,-0.030202381,0.015442665,-0.0504112,0.040191997,-0.013746076,-0.002021645,0.15821867,-0.037832692,0.04577558,0.04463361,0.08079375,-0.07096753,0.036288124,0.10914099,0.0047638332,0.0685929,0.0041779657,0.012658553,0.054872148,-0.004437085,0.08500823,-0.017468793,0.028573424,-0.0088279005,-0.03602579,-0.0039091287,-0.00742274,0.06960915,-0.05324334,-0.02072343,0.029995015,0.08475651,0.09120393,-0.045476966,-0.10208538,-0.09770661,0.07351548,0.04685013,-0.023763016,-0.05360217,0.08420651,0.07948793,-0.02687004,-0.11431434,-0.0128201395,0.05040371,0.026689261,0.038280282,0.07458167,0.07074666,0.026101025,0.06943513,-0.08061785,-0.059159502,0.071540356,0.12179169,0.17977376,-0.034239013,0.0236794,0.06977276,0.021013305,0.03176328,0.00013495717,-0.027969068,-0.015439228,-0.076884985,-0.02545465,0.038383987,0.059522986,0.00034698972,0.013148304,-0.058736175,0.02945319,-0.08502746,-0.032977816,0.027816035,0.061425038,0.010683225,-0.057635967,-0.11012659,-0.032893986,0.054306667,0.089625776,0.015913509,-0.021622106,-0.08955349,-0.0036885743,-0.0040398315,-0.07098919,-0.11969726,-0.18008092,0.060096364,0.051479097,-0.04837037,-0.02863198,0.037720658,-0.10091502,-0.003500879,-0.005674203,0.059641995,0.0030060448,-0.10395942,0.010013216,0.11850552,0.018078616,-0.008417289,0.09045492,-0.082763985,0.12445945,0.14427671,-0.047013354,0.08872923,-0.040174108,0.030580284,0.0010176636,0.052573517,0.01371082,-0.041186456,-0.033238173,-0.05819194,-0.16618696,-0.0541487,0.041201863,0.0058503556,-0.13639282,0.06920551,-0.037389353,0.07246258,-0.05366012,-0.209666,-0.07031841,-0.0957969,0.030201506,-0.045054242,-0.07834773,-0.10590294,-0.047660425,-0.08037628,0.0072679357,0.054643486,-0.038783252,-0.10991545,-0.022649255,0.045097627,0.03365831,0.05992371,-0.055496965,-0.04337572,0.038202994,0.013866302,-0.014055325,-0.034663863,-0.010226826,0.061674662,0.031972058,0.12927413,0.04878799,-0.06909856,0.026420357,0.067182116,0.011858727,-0.048027024,-0.041433584,0.05439644,0.07490664,0.03927196,-0.030871958,-0.07454821,-0.12771489,-0.106228516,-0.045793556,0.03892785,0.04278048,0.0032450927,-0.031396933,0.041099273,0.024820441,0.009063417,-0.07848334,-0.11679975,-0.019595468,0.056207776,0.11073971,-0.12389555,-0.21351436,-0.043197453,0.08168154,0.06951805,-0.033343248,-0.010218622,-0.06597421,-0.028047381,0.0384142,-0.021713186,-0.03728611,0.044479333,0.07913314,0.04928199,-0.037127435,0.12582646,-0.054892693,-0.21269815,-0.09297596,0.052315567,0.049970627,-0.16005509,-0.11594863,-0.078724675,0.0090850415,0.0759752,0.09135966,0.024898328,-0.111105934,0.017013576,0.13356106,0.062114973,-0.04162844,-0.034884606,0.06803466,-0.017147807,-0.052385576,-0.07350248,-0.012724098,0.095051005,0.08577428,0.0062083974,-0.17487402,-0.041783698,0.026956346,0.056460805,0.030053899,-0.13728568,-0.014607112,-0.040418208,-0.055935964,-0.05555264,0.020448972,-0.034960877,-0.05844544,0.043363202,0.05301811,0.02728834,-0.022665177,0.030374533,0.019751228,0.014948266,-0.051456686,-0.038607664,0.13615568,0.028666843,-0.1250215,-0.02725229,0.04394945,-0.026715491,0.12697743,-0.08614281,-0.05714176,0.052065123,0.014128973,0.027840478,-0.15386806,-0.040632103,-0.046302713,0.08496909,0.025950847,-0.05130903,-0.14012943,-0.032236066,0.05408619,0.00044493505,-0.119863495,0.07350911,0.045414537,-0.044128295,-0.018694224,0.017400775,0.035135146,0.06448464,-0.17496622,-0.03042684,0.011737118,0.11351135,0.01242223,-0.04617529,-0.07620274,0.079357386,0.114416786,0.04971027,-0.015153324,-0.046871185,0.015722202,-0.011521989,0.005443699,0.07181803,0.09660522,0.0657356,0.09339869,-0.060121644,0.020343443,-0.009441046,-0.07321986,-0.04253251,0.1343569,0.048743673,0.06977931,-0.10371786,0.008211229,0.07046694,-0.039000306,0.02317962,-0.052154623,-0.047968797,-0.06630814,-0.0052547147,0.044890374,0.049687076,-0.059698556,0.0025953935,0.0726724,0.014292766,-0.04412587,-0.09162605,0.117671244,-0.021074522,-0.11929037,0.12515056,0.040348973,-0.020449702,-0.15257517,-0.0071740663,-0.034480754,-0.023120746,0.012087966,-0.0680536,-0.0026587811,0.02220814,-0.03367166,0.04842014,0.007158939,0.021446368,0.09943433,-0.004545603,0.049358077,-0.07168574,0.009894927,0.17608637,0.0678215,-0.04299421,0.09748637,-0.01695547,0.08663815,-0.02446917,0.10783507,0.0036747598,-0.101636596,-0.12866114,0.064423546,0.09638807,0.06410814,0.011595685,-0.054958615,-0.121202245,-0.016379774,-0.07420773,-0.08759947,0.03370179,0.06437749,0.06935313,0.020108938,-0.05414746,0.013719022,0.052454285,0.149954,-0.015560355,-0.012566265,0.004662846,0.00838396,-0.05525847,0.08574921,0.09916294,0.024917321,-0.042815857,-0.032434918,-0.096314125,-0.027606681,-0.0015078617,0.082421534,0.025593068,-0.082285576,0.03779369,0.07401425,0.022298072,-0.04257697,-0.021431347,0.025144948,0.046538085,0.04289854,-0.11155129,0.14867727,0.08565384,-0.025855115,-0.07917354,0.07881525,0.02210216,-0.00019720032,-0.04052417,0.0090812715,-0.00093068945,-0.07741886,-0.21562281,0.0074926433,-0.09558243,0.03347024,-0.1679439,-0.0690842,-0.07512699,0.09717326,-0.03895882,0.034302033,0.1276681,0.15885986,0.0068039712,-0.049316198,0.035977133,0.07705928,-0.0016789654,0.07586352,0.006349235,0.040897332,0.09691843,0.16266987,-0.023564847,0.090368174,0.013335235,-0.08752932,-0.06980559,0.0076682987,-0.024287451,0.017343068,0.028520422,0.028681831,0.08633413,0.100658454,0.0687928,-0.04755568,-0.16685668,-0.04639211,-0.0010859868,0.006072297,-0.13966326,-0.049903683,-0.044634942,0.017448492,-0.07176942,-0.1432592,-0.034142744,0.024694102,0.10187605,0.0021846434,-0.022425083,0.02875994,0.07994564,0.08564186,0.0047250525,-0.06697416,-0.074996695,-0.106920265,-0.07804337,0.08082352,0.14219165,-0.018686779,-0.14909635,-0.10777636,0.025570557,-0.06779164,0.053522244,0.0069201854,-0.067848004,-0.015078471,-0.03954713,0.049171627,-0.022821015,0.07654307,0.0074837985,0.020062007,0.022204319,0.059187688,-0.0038522887,0.028684197,-0.08029204,-0.05245807,-0.06685114,-0.046085633,0.009554677,0.022030026,0.16341262,-0.09171143,-0.109493196,-0.097333975,-0.068071604,0.0491325,0.13680261,-0.016677454,0.018152852,-0.033851583,0.11116865,0.0650981,-0.07403954,-0.14259905,0.08285851,0.1511456,0.079427764,0.017151449,0.1770523,0.031163398,0.12876032,-0.037909918,-0.024383511,0.04614184,0.029274972,0.033314,0.0358047,0.040966976,0.17139317,0.07499711,-0.04711116,-0.046930064,0.04626015,0.1123151,0.04045806,-0.070312575,-0.024135504,-0.028259534,0.03841142,0.014771948,0.02894214,0.13695756,0.010529779,0.09929275,-0.06495133,0.09016587,-0.018578507,0.017913453,0.010711773,-0.15091121,0.05447086,0.14412595,0.04622066,0.0407298,0.010351297,0.014541783,0.03901576,-0.0048258863,-0.051644616,-0.04950844,-0.056245998,0.0012807308,-0.017597295,0.052237034,-0.018920342,0.07933427,-0.009520278,0.018578999,-0.11579551,-0.036873944,0.026706772,-0.03246969,-0.084606044,0.015435619,-0.010533276,-0.15856513,-0.14928585,-0.04299446,0.00076827087,0.041997824,0.06887439,0.047666803,0.050898787,-0.014676558,-0.059563886,-0.08625314,-0.06319346,-0.009409256,0.1418579,0.10708445,-0.07227884,0.0019002989,-0.1397827,-0.16751692,-0.11521641,-0.05731189,-0.024449827,-0.012347552,0.05776444,0.030473577,0.1537566,-0.13937534,-0.054984458,0.008915099,-0.038065434,0.028943684,0.009169791,0.06700488,0.09976523,-0.028983664,0.037970588,0.0361929,0.04220876,0.044398874,0.060617495,0.019838335,0.038654108,-0.013021741,-0.01764815,-0.049897242,0.0674587,0.044925593,-0.0918745,-0.08334485,0.09099659,-0.017477874,0.06394699,0.07965423,-0.054782037,0.06758375,0.0955123,0.026638472,-0.030068394,-0.032114893,0.054627087,0.037929114,-0.053964682,0.035074,0.021662204,0.16673617,0.009488554,0.0565651,-0.00847201,-0.055842876,-0.11217195,0.027872236,0.026777068,-0.004773236,0.06528485,0.11123696,0.0022941206,-0.0076210666,0.012970683,-0.026174119,0.030213812,0.062553324,0.045275103,-0.007765308,-0.036592934,0.012731988,-0.048258875,-0.11296318,0.078808196,0.023496406,-0.03426363,0.0962599,0.018523395,0.08174171,-0.0823315,-0.013360925,0.050770864,-0.08151039,0.011262687,-0.093916215,0.004996083,0.10009545,0.10559496,-0.023405144,0.07369062,0.0072226785,-0.035596102,-0.007761076,0.04359396,0.056619488,0.008178246,0.03436337,0.03163399,-0.0029332372,-0.026883274,0.017155178,-0.032077152,0.059697635,0.0065981876,-0.048347726,-0.0013789516,0.00981644,-0.016507268,-0.090813756,-0.15045148,0.014138338,0.064448774,-0.059140176,-0.0588975,0.026465772,-0.011192287,0.08513921,-0.005760063,-0.054554697,0.037986226,-0.064857595,0.06871421,0.048861146,0.091837466,0.051885176,0.004841013,-0.0021262113,0.07921831,0.06985026,0.033783376,-0.0579175,-0.086010076,0.0071683726,0.12900418,-0.06360867,-0.015788874,0.113458335,0.1994431,0.015298056,-0.01243923,-0.06287456,-0.072543316,-0.050357454,-0.031533103,0.02916966,0.105161235,-0.015016115,0.022504034,0.07687844,0.034648966,-0.032772664,-0.13404535,-0.0689049,0.038199518,0.10618233,0.044076208,-0.11400037,-0.10383014,-0.06230241,0.0311701,0.009586474,-0.12263009,-0.09313311,-0.17276843,-0.08517087,0.036201518,0.027133906,-0.035040855,-0.06451885,-0.12467284,0.006499667,-0.10169714,-0.053499956,-0.14591785,-0.009987588,-0.010582829,-0.0017020209,0.030036788,-0.049874447,0.057795137,0.002736792,-0.06991627,-0.093200676,0.035011597,0.099427044,0.019735726,-0.05946939,-0.1152818,0.033464313,0.016762428,-0.03744821,0.014791033,-0.024134032,0.045182116,0.07134814,-0.041333035,-0.02935331,0.006569323,-0.1516842,-0.011384556,0.049398914,0.044015177,0.00079827115,-0.014611257,-0.09015619,-0.016122036,0.03787097,-0.002095672,-0.003956103,0.042443834,0.05226884,0.062434938,0.15524822,0.02560131,-0.103294045,-0.01659324,0.015179581,-0.07117557,-0.055958364,-0.050664116,0.028145622,0.022113385,0.040461406,0.0105526615,0.092965186,-0.063879535,-0.093421556,-0.043634646,-0.08815819,-0.12815659,-0.13558015,-0.053917777,-0.021963188,-0.027762875,-0.0136242965,-0.071073174,-0.0048154704,-0.20813605,0.0068247966,-0.057910964,-0.06018132,-0.0018377885,0.04720405,0.06696702,-0.07226722,0.042258315,-0.037861288,0.09368954,0.11548688,0.07209172,0.016132163,-0.028272228,-0.05772925,0.089354366,-0.14135055,0.042301185,0.10132407,0.060889304,0.068432175,0.10913149,0.15376452,0.08767306,-0.0014438358,0.044292122,0.15319505,0.022064636,-0.035789378,0.066815846,-0.037570458,0.0346351,0.10752335,-0.033225205,-0.044452626,0.00027250452,0.050947785,0.04306824,-0.084612586,-0.030055378,-0.07610336,-0.048745908,0.045393974,0.0010941094,-0.024678165,0.10135723,-0.04762154,-0.09458009,-0.036582045,0.016051095,0.04489802,0.05144518,0.021091579,0.008945403,0.04025538,0.019903932,0.07353751,0.042179335,0.020543275,-0.04264178,-0.14367335,-0.041625373,-0.01591321,0.026979307,-0.008791401,-0.118049555,0.056833547,-0.07249826,0.047931198,0.07502102,-0.06968885,0.0768244,-0.020063866,0.029684365,-0.07091845,-0.0083673075,0.02094837,0.112282015,-0.047920343,-0.04247068,-0.10359802,-0.0948523,0.040619787,0.014254262,-0.017314354,-0.043717716,0.023873536,-0.06815954,-0.086425215,-0.07697013,-0.042954627,0.06745498,0.010893458,-0.11754033,-0.08837803,0.021070996,-0.118716106,-0.1086094,-0.20682135,0.01811195,0.055883374,0.04376666,-0.06629074,-0.058526956,-0.0010780938,-0.020575043,-0.05310857,-0.04349611,0.12848783,-0.05662885,0.04500417,0.07408007,-0.10902079,0.049667995,-0.061991125,-0.061412398,0.12352805,0.09847289,-0.023035217,-0.02377961,0.023952318,0.062764294,0.06806867,0.008689352,-0.08727463,0.011861202,-0.07785358,-0.04301368,-0.021961825,-0.029095458,-0.014984979,-0.075885475,-0.05117212,0.015297477,-0.118937,-0.00016562003,-0.059121046,0.017380297,-0.024305305,0.016130565,0.0056722206,-0.08675587,-0.09244177,0.040594716,0.01982855,0.13181733,-0.13364467,-0.06999347,-0.05055352,0.00661247,-0.0029837466,0.047898117,0.032433122,0.115305565,0.08849964,0.105582796,0.065030746,0.0054678917,0.02966703,0.08074602,-0.00645357,0.120721355,0.04443423,0.19022794,0.013323688,-0.06278608,0.038831327,0.03331984,-0.026670132,-0.045032687,0.0017737877,0.1060442,0.111551985,0.11171414,0.04043736,-0.123361245,0.080567785,0.03899075,-0.043273922,-0.021318303,0.050869912,0.086268045,-0.008072389,-0.010352824,0.008341787,0.017555889,0.09703731,0.07365306,-0.013950858,-0.040683553,-0.092058904,0.14715788,0.02316629,-0.015731918,-0.12530877,-0.04479398,-0.12183802,-0.098684505,-0.20306109,0.066448964,0.08698061,0.07203745,0.09337198,0.1227604,-0.020242762,-0.033368416,0.095870785,0.020457553,0.05142758,-0.023178438,-0.021742353,-0.05546222,0.12537125,-0.014720556,-0.12981571,-0.155342,-0.06931154,0.07214276,0.05549976,-0.04850337,-0.14572948,0.054456968,0.10154929,0.047484834,-0.04234362,-0.16428229,-0.0154222,-0.0918698,-0.04156042,0.029534277,0.036506236,0.059119884,0.04194995,-0.004301925,0.08222393,-0.051162906,-0.007971972,0.015376636,-0.1700282,-0.10396886,-0.088340074,-0.062468942,-0.0141940825,-0.12059095,0.032809798,0.00095477677,0.046305526,-0.0919921,-0.013324715,0.02330278,-0.09711698,-0.029499864,0.12576464,0.072928526,-0.024766807,-0.01673892,-0.068793505,-0.074341334,0.0043546385,-0.06099741,-0.0197054,-0.1521164,-0.104719944,-0.01794239,0.012181911,0.05183771,-0.14243396,0.1073116,0.015561426,0.054889668,0.100527205,0.026554246,-0.029897489,-0.035796836,-0.09453624,-0.040990833,-0.042922296,0.018727273,0.016261766,0.011121255,0.004923348,-0.01964655,-0.048073683,-0.10510546,-0.055718858,-0.116412885,0.07541061,0.021674398,0.040049363,0.028218858,-0.04014196,0.13516703,0.14020798,0.00068190467,0.13240705,0.018759571,0.030814232,0.0044828295,0.02769028,-0.06306975,0.024096703,0.009371246,0.106846765,0.1129249,0.014006349,-0.06576378,-0.050132852,0.035923187,0.0035816338,0.037012298,0.027745683,-0.02597931,0.002611751,-0.013574156,0.012016407,0.03315031,0.019553972,0.04211582,0.021574141,0.08948099,0.096080445,0.17854264,0.085041285,-0.009447425,0.0068973624,0.060632885,-0.09002757,-0.038096935,0.059181098,0.005369243,-0.04496371,0.028907923,-0.0878222,-0.12807712,-0.062291812,-0.082040735,-0.0700385,-0.1642997,-0.12794931,-0.09208693,-0.034156658,-0.0021969946,0.05339541,0.0908166,0.11706312,0.018546928,0.06394228,0.06571767,0.06757215,-0.016829781,-0.00094878086,-0.06572578,-0.11498218,-0.07277811,-0.05289407,-0.027887,-0.049343515,-0.041495655,-0.08054705,-0.009754051,0.017891536,0.045903895,0.15165626,0.06887649,0.03794126,-0.075438604,0.042048864,0.024859859,0.041649573,-0.087099984,-0.11248722,0.051604904,0.0023832954,-0.048727315,-0.023987062,0.073862284,0.06757425,0.03590531,0.06074527,-0.029853871,-0.018314417,0.10578487,0.041580193,-0.030034082,0.041504063,0.010937379,0.050422374,0.026418956,0.0051506725,-0.18999626,-0.05595856,0.034141473,0.008924777,-0.11885083,-0.0134242065,-0.0060743224,0.06212906,-0.053565867,-0.049095772,-0.018753301,0.130077,-0.019915743,-0.08653412,-0.009072877,-0.020971188,-0.0032372552,0.014235714,-0.0024398214,-0.021243697,0.09808812,-0.0046784612,-0.13963136,0.0056051514,0.07044715,0.00034108997,0.05282743,-0.09557933,-0.037729487,0.04282003,0.08188249,0.097069554,-0.023701243,-0.01159839,-0.067489274,-0.006534244,0.10840549,-0.029757496,0.07757888,-0.06821279,-0.08460605,0.11698928,0.06256535,-0.12518512,-0.014366013,-0.032484367,-0.024771964,-0.019987876,-0.07813748,-0.06856063,-0.10482174,0.028046845,0.07151668,0.008318379,-0.09992098,0.07470449,0.030731166,-0.09971744,-0.06486499,-0.00840665,-0.068103895,-0.10845633,0.08720372,-0.08645176,-0.009671754,-0.012232656,-0.04826205,0.04610708,-0.06156298,0.046776682,-0.068054676,-0.12969752,0.09785177,-0.04589958,0.03114983,-0.029682955,-0.030607745,0.06757636,0.062711895,0.0821627,-0.056028847,-0.14942715,0.036090292,0.042046115,-0.0490432,-0.028138142,-0.08450756,-0.04898789,0.037466243,0.09760592,-0.05507246,-0.122141555,-0.0637767,0.05086549,-0.15987952,-0.10525751,-0.0890721,-0.032558303,-0.06776852,-0.056965347,0.0012005975,0.074656,-0.06368194,-0.08564965,-0.18508056,-0.09866639,0.07042056,0.051295597,-0.025040383,-0.056509256,-0.060694207,0.009162539,-0.025995571,-0.12531155,0.018094344,-0.019982299,-0.02924205,0.0046612425,-0.017567439,-0.019137677,-0.009866736,0.08373236,-0.07847465,-0.041780367,0.078361474,-0.068925165,0.037542462,0.018838914,0.12832431,0.025227435,-0.1182275,0.027703336,0.048557777,-0.014378193,0.061388142,-0.022550069,-0.02762123,0.12043758,0.0040680505,-0.04185001,-0.12951165,-0.07018607,0.065499894,-0.08738207,-0.1804174,-0.091807775,-0.20153461,0.0376676,-0.21844955,-0.11468549,-0.20081902,-0.072544135,0.010550816,-0.062539876,0.034694284,-0.057417843,0.16867226,0.017656285,-0.09746376,-0.017498106,-0.07876338,-0.10005287,0.0879928,0.010816745,0.0072641913,0.019647337,-0.018731214,0.18701461,0.13768466,0.015447916,0.08205328,0.06758335,0.0956592,0.08015216,0.0057031373,0.11603781,0.10473332,0.17997746,0.018464785,0.024891365,0.07548109,-0.065914296,-0.07312903,0.036039334,0.044440433,0.08901521,-0.0038380723,-0.11600761,0.03484727,0.030813377,-0.07021217,0.091163635,-0.06564291,0.14492689,0.026619496,0.010611426,0.11696294,-0.0010651029,0.02384245,-0.065265164,0.02686548,0.17693873,0.026876537,-0.15457048,-0.13606527,0.008272863,0.06704685,-0.01976823,-0.08975505,-0.10672165,-0.013007148,-0.027620772,0.08810368,-0.043504473,0.026300842,0.011141346,-0.06544114,0.035087563,-0.006225387,-0.0066815205,0.07807063,0.00082788704,0.043566998,0.0638624,0.004148477,-0.034766883,-0.009449061,-0.02994228,-0.0028457313,-0.014514622,-0.057200514,-0.013910463,0.050015155,0.009354041,-0.050946888,-0.027724605,-0.10399128,-0.0054184236,-0.022515686,0.03487136,-0.13855538,0.09863874,-0.056973413,-0.018686865,-0.00039038726,0.013984303,0.12247071,-0.012040939,-0.033861887,-0.11860411,-0.13088305,-0.0057230038,-0.012969733,-0.027190622,0.0028161556,-0.07619844,0.045114506,-0.032783512,-0.086629085,-0.030027324,-0.019591806,0.07851659,0.010038141,-0.043088306,0.023422517,0.052603684,0.013532795,0.016050983,0.070856735,-0.08820148,0.011422266,-0.04895067,0.07244168,-0.007651766,-0.035407875,-0.18440369,-0.12647554,-0.066818066,-0.013706857,-0.021707539,-0.046288215,-0.016377494,-0.07920684,-0.058550775,0.03185518,0.086007,0.05580188,-0.005144119,0.013676822,0.03228982,-0.026663367,0.01830248,-0.104557656,0.021046735,0.046241295,-0.08232426,-0.094755076,-0.06594087,-0.016968237,-0.090200424,-0.032991387,-0.09501284,-0.012246848,-0.054389562,0.042770185,0.023678858,-0.042900708,0.12054653,0.040575232,-0.0797648,0.0065331245,-0.101512834,0.037817825,-0.09329647,-0.0385724,-0.043541923,0.07672733,0.039682005,0.14199117,0.0054846546,-0.11846896,0.0052951956,0.057978917,0.0906678,0.16119426,-0.1011665,-0.061044015,-0.023358844,0.06527533,0.0116514,-0.01239713,0.05074371,0.027612882,-0.021716718,0.0081985295,0.020408891,0.05364805,0.07288886,0.051934235,-0.03370421,-0.045689832,-0.088351935,-0.056234162,-0.004754236,-0.10281706,0.016820317,-0.050200865,-0.010003759,-0.06527105,-0.073067285,-0.07321409,-0.10977269,0.044046637,0.017229682,-0.016311305,0.014393044,0.009981064,-0.028898336,0.037537966,-0.085424304,0.026715212,-0.010798678,0.022848412,-0.12647498,-0.036397733,-0.09921783,-0.03079711,-0.08701847,0.053259432,-0.019840658,-0.09117218,-0.09024921,0.11546197,0.16476044,0.076439306,0.031808298,-0.0499953,-0.0109764915,0.05230175,0.058494788,0.04261877,-0.046300642,0.038493194,0.011947978,0.03320498,0.017591238,-0.09172318,0.0344004,-0.020763267,0.06774177,0.0059939194,0.00052441645,-0.12225162,-0.043870516,0.040533938,0.04431957,-0.063106075,-0.028864095,-0.10398466,-0.08847368,0.017402593,0.06659556,-0.034543216,0.021828895,-0.1327031,-0.010043197,0.043833815,-0.025179775,-0.10381784,-0.08568627,0.05380698,0.049021937,0.047145814,-0.08223296,-0.020663677,-0.055336613,-0.09199237,-0.051162064,-0.017395942,0.01500379,0.053846598,0.022647094,0.12950744,0.03469396,0.016148634,-0.056775607,0.06323617,-0.00295098,0.070094,-0.01713628,0.014529433,0.06639204,0.022050008,0.17918633,0.13642205,0.088765904,0.046441223,-0.0040599443,0.027429491,-0.03216058,-0.030042475,0.0066231247,-0.017219143,-0.10227993,-0.050817493,-0.040602453,-0.0503587,0.06364489,-0.028434955,-0.015775625,-0.10762995,-0.049500424,0.02137865,0.07722772,-0.0021385755,-0.014402239,0.031522572,0.008918326,-0.016169893,-0.013455968,0.0054136137,0.053147387,0.029310891,-0.038345642,-0.010493453,-0.10675969,-0.029780965,0.09213684,0.048138548,-0.0030240256,-0.112655215,-0.13662717,-0.08493657,0.01602737,0.09068976,-0.037075125,-0.019213151,0.026420176,0.089153744,-0.0020808813,0.06833607,0.008822739,-0.0052217557,0.015052114,0.017986216,-0.059664294,0.17629696,3.2576445e-05,-0.054632463,-0.057806607,-0.039390825,-0.0025489216,-0.05641178,0.08614073,-0.0041824845,-0.16468662,0.0157739,0.0008360973,-0.076202944,-0.09520888,-0.034727857,0.04559892,-0.025305254,0.016016603,0.015907202,0.01634784,0.043839525,-0.028860074,0.06591787,-0.02411639,0.03730562,-0.13506584,-0.06401798,-0.08160199,-0.022962205,0.07928718,0.15084247,0.048191793,-0.012445353,0.08329186,0.043774705,-0.03377414,0.036613867,-0.07548589,0.046734855,0.038105223,-0.04296001,-0.03862235,-0.025928939,-0.035339866,0.03328417,0.03272279,0.02612599,0.035665024,0.064589515,-0.0034424725,0.1247829,0.009411943,-0.083004385,-0.046490394,-0.08359591,-0.094916955,-0.08108836,-0.14614186,-0.13122803,-0.13762215,-0.02190932,-0.025249476,-0.09831852,-0.09905882,-0.15493971,0.034048494,-0.04910469,-0.0047384226,0.039593726,0.058573738,0.19582608,0.0743304,-0.047760844,0.024151457,0.0029943006,0.019164681,0.0068026204,0.028855545,0.113999575,-0.015264433,0.034803107,0.00010951569,0.051345885,-0.03518117,0.041939273,0.034232393,0.22408082,0.1489972,0.11680187,0.09089138,-0.04385722,0.123526566,0.13632077,0.1501663,-0.07672233,-0.14014488,-0.037899747,-0.009761944,-0.016193409,-0.08241096,-0.067628235,0.039526664,-0.109881744,0.034061816,0.074943304,0.045202415,-0.04110727,0.022702472,0.025941879,-0.0066979565,0.076033555,0.013265014,-0.03677273,-0.1529173,-0.013804751,0.037344836,0.03336277,-0.13427745,-0.17040963,-0.075640775,0.029555561,-0.0035313203,-0.075757526,-0.06634398,-0.05169212,-0.06712736,-0.0036480275,-0.027706563,-0.06366725,0.12669396,-0.0074060136,0.12603518,0.015914377,0.033619676,0.0916243,0.091130584,0.061715942,0.026887463,0.011324198,-0.044895582,-0.038023885,0.0723743,0.074175924,0.024620922,-0.04044009,-0.1102652,0.033412267,0.11348466,0.075351834,-0.15897046,-0.13303725,-0.032079652,-0.08466901,0.003932876,-0.014551669,-0.030601963,-0.037470616,-0.088864565,0.0042274036,0.044751063,-0.014211306,0.013173111,0.06483009,0.03255287,-0.10055867,-0.050231826,-0.047616243,0.051792253,-0.05064397,0.00433988,0.072713606,-0.086259745,0.07527956,-0.033761468,0.1763552,-0.03752394,0.031159583,0.023347292,0.034338087,0.034963638,-0.01878376,-0.012360244,0.06289668,-0.043140013,-0.035842143,-0.04132211,-0.124653526,-0.035603236,-0.036929265,-0.070076644,-0.13224123,-0.06530828,-0.004709389,-0.08937129,-0.05172845,-0.019192228,0.030309048,-0.06658441,-0.1049681,-0.042074442,-0.050759256,0.013324749,0.060511846,-0.010916249,-0.0006146533,0.026055127,0.043341685,-0.047786783,-0.05022382,-0.014627155,-0.13986157,-0.08485128,-0.06973483,-0.11446386,-0.050437815,-0.078821324,0.046586882,0.09783496,0.05203256,0.042803,-0.08513669,0.011384949,-0.05206988,-0.039111555,-0.019156363,-0.019280443,-0.046676982,0.10639463,-0.04046152,-0.103638396,-0.043188438,0.12338155,0.0923286,0.042059116,-0.0571322,-0.00721197,0.1337427,0.028950363,0.005782517,0.08356524,-0.056909148,0.009713845,-0.056109525,-0.050407242,-0.016360361,0.08789811,0.061968464,0.011724331,0.06500947,0.035068847,0.058558855,-0.011760135,-0.01941213,0.056626335,-0.06062571,-0.044517793,-0.022404356,-0.04999068,-0.19149351,-0.09240033,-0.0845373,0.03328206,-0.08098978,-0.09309443,-0.07912929,0.07323935,-0.043737162,-0.060466383,0.017328229,0.10589745,0.14164196,0.018706458,-0.008722428,0.118319996,0.058658473,0.043936267,-0.052440993,-0.029909728,0.008467214,-0.05299865,0.007814346,0.034739528,-0.010024535,-0.013499045,0.03489811,-0.03425435,-0.08141408,-0.11133811,-0.06555778,0.044369332,0.09168937,-0.08073371,-0.11460862,-0.009659407,-0.011831617,-0.10152261,-0.008782884,-0.0065397774,-0.0035708097,0.049907245,0.049285777,-0.082241446,0.0043430673,0.012422193,0.05611138,0.09529303,-0.12967245,0.0038945028,0.07748332,0.08719641,0.07279063,0.058839414,0.04985907,-0.15123296,-0.026840417,-0.02694977,-0.049269818,-0.042816103,0.05860273,-0.03498717,-0.08306683,-0.10483091,-0.06798324,-0.1481154,-0.030535001,-0.03532622,-0.08608207,-0.07797376,0.046056997,-0.020560196,-0.018476019,-0.107037336,0.0024906993,0.07144422,0.054706268,0.12384337,0.014735224,0.13802724,0.016462704,0.08170694,0.049194783,-0.014813014,0.025906125,0.11214889,0.12869203,0.03872261,-0.12709497,-0.056716327,0.001674849,0.013462286,0.09876571,0.011883137,0.045247514,-0.07534214,-0.028608307,0.011840926,-0.057939727,-0.00031801857,0.028924631,0.072666205,-0.05746407,0.09993149,-0.02651473,-0.058225855,0.010376571,0.009294726,0.09511902,-0.08494044,-0.06426948,-0.018344231,0.033990305,0.003943513,-0.09292654,-0.088642344,-0.05105678,-0.0065583535,0.10804607,0.05210059,0.095368475,0.07045756,0.02116339,-0.023939174,0.045128766,-0.051387206,0.010963147,0.039999213,0.06905013,-0.027571771,-0.09095464,-0.09440352,-0.01037356,-0.07716365,-0.043382563,-0.18218787,-0.0047854655,-0.088946246,-0.062077332,0.010503492,-0.06043033,-0.016123226,-0.03568688,-0.005738936,0.116128184,0.03264006,0.056784038,0.06978033,0.118160345,0.065422215,0.07128854,0.039855976,-0.001333993,-0.041051306,0.066536605,-0.0032774962,0.18547203,-0.040264264,0.029041518,-0.07787328,-0.08983636,-0.11113814,0.028815908,-0.023178153,0.10515779,-0.04632565,-0.01941041,0.0357325,0.095885,0.03618235,-0.019841557,-0.095353186,-0.065333076,0.100051545,0.074293524,0.02202925,-0.10848955,-0.05047883,-0.034839947,0.022796858,-0.031227225,-0.09461961,0.022668105,-0.05418308,0.043096732,-0.033126682,-0.051138174,-0.026440522,0.05201221,0.060829792,0.018282106,-0.07301443,-0.07253738,0.028537864,0.04689004,-0.015096216,0.007991448,0.092096925,-0.099780425,-0.037461136,-0.057140093,-0.12804617,-0.0256298,0.019067891,0.15977377,-0.05108027,-0.04658424,-0.020504434,0.026117321,-0.050165173,-0.043453474,0.051509976,0.10319029,-0.1525009,-0.000614968,-0.09482277,0.026317524,0.0008725921,0.021834528,-0.050155334,0.07861025,0.07408731,0.07134648,-0.04311956,-0.10200486,0.0048124795,0.07584,0.054961406,-0.027320825,-0.056127902,0.060380448,0.0073822895,0.05386406,0.061780635,0.10802706,-0.009156256,0.031540945,-0.008535602,0.018243348,0.09056883,0.008771235,0.036543712,-0.09901826,-0.015446548,-0.0044612056,-0.052118916,-0.010939252,-0.0067257476,-0.011013239,0.000541347,0.14754291,0.03835711,-0.053036664,-0.092185766,0.030185018,0.047801606,0.11180708,-0.05592841,0.0900571,0.17196187,0.05299762,-0.12792017,-0.050442915,0.060733896,-0.008095571,-0.052611787,0.026516328,0.059455637,0.14483353,0.2151586,0.16929781,0.115478836,-0.042120654,0.088674925,0.006565019,0.046846107,-0.038912337,-0.017315755,0.030206848,-0.042277914,-0.087725796,-0.0121638635,-0.089765966,-0.011153119,0.026084213,0.06445232,0.04997561,-0.019361747,0.13088925,-0.008939934,0.032044157,0.07054508,-0.11060827,0.14759332,0.06902936,0.040810924,0.046836924,0.053707127,0.06399468,0.08568623,0.0003739287,0.010311702,0.024897035,0.14173202,0.03501943,-0.016904728,-0.14698629,-0.09407957,0.047788657,-0.019215204,-0.104927644,-0.063610286,0.006044536,-0.0053923395,-0.11573899,-0.31265044,-0.08217959,-0.06609919,0.011905009,-0.02251427,0.03987623,0.0011203384,-0.09375091,-0.031881142,0.017214732,0.057646398,0.11512278,0.08191465,-0.10804156,-0.11425527,-0.12315121,0.037403274,0.029852528,0.030745966,0.06456856,-0.051618516,0.03324615,-0.02538083,0.04788711,0.08838348,0.097275786,0.03694702,-0.03873827,0.045663796,0.024875991,0.01000106,-0.017835708,0.004342484,0.025546236,0.0643059,-0.012627101,0.113838404,0.13084579,-0.051975634,-0.1544144,-0.085061505,-0.047352616,-0.016085055,0.06522233,0.07560467,0.009976571,-0.038343932,0.021319862,0.15785386,0.070017934,-0.025584511,-0.13312757,-0.053777616,0.008248899,-0.11140774,-0.014033171,-0.03209487,-0.08567761,-0.061139196,0.026085258,-0.080709234,-0.09389184,-0.02580487,-0.09109384,0.03268846,-0.13833043,-0.15222836,0.09080832,-0.09742796,0.015498548,0.04979135,0.05139427,0.08928525,0.02528123,-0.060247645,0.028860688,0.044919398,0.13067129,-0.07345045,-0.09533406,-0.0033679942,-0.019482648,0.07533503,0.009507827,-0.07985428,-0.026587656,-0.0072167222,-0.016885825,0.025393523,0.049573857,-0.042569663,-0.16733445,-0.10505195,-0.12037702,-0.037428904,-0.19782953,0.039890155,-0.017686533,0.033150118,0.03779156,-0.011840992,-0.033097453,0.11260984,0.0039493456,-0.0038824938,-0.057466347,-0.032376982,-0.033206712,0.062472336,0.1459365,0.18210046,0.06734678,0.0030609486,-0.05712419,0.02490972,0.08602822,0.016887821,0.026315209,-0.13756429,-0.05681134,0.02717821,0.15362196,0.08988792,-0.067800716,0.041337263,-0.021247435,-0.012502439,-0.041088346,0.14643413,0.09515441,0.028985977,0.094704285,0.107949644,0.13041513,0.029067777,-0.068734586,0.056495924,0.039313514,-0.019663554,0.005089822,0.047515977,-0.022377187,-0.019297613,-0.11720531,-0.10087001,-0.08960782,-0.0026534095,-0.06649959,-0.0243086,0.057248387,0.04386108,-0.064989954,-0.1522408,0.007283247,0.08666411,-0.01237668,-0.10420811,-0.057315253,0.07899361,0.09371716,0.15009011,0.12590474,0.03163895,-0.029009445,-0.116987295,0.019441625,0.08691822,0.101023644,-0.03403344,-0.07390364,0.04469569,0.10146022,0.090858035,-0.057290915,-0.025678085,-0.02289954,-0.02611293,-0.004413661,-0.024321923,-0.015443487,-0.05872124,0.091590926,0.040027946,0.023855394,-0.13483451,-0.09274937,0.027048942,0.062345836,-0.0020438582,-0.013351731,0.022953123,0.0016892946,-0.14280477,-0.09485208,-0.016611062,0.008033652,-0.05378976,-0.032958787,-0.07672781,0.080519885,0.08134139,-0.030317942,-0.05659922,0.0063828332,0.039802413,0.053417884,0.054638866,0.10003806,0.042861033,-0.065408334,-0.045712087,0.08885908,0.038746923,0.07854816,-0.016363082,-0.031139689,0.12958856,0.025208345,-0.043547083,-0.016731387,0.042875867,0.035625286,-0.020733979,-0.04401361,-0.0207654,-0.01811628,-0.05769673,-0.03595418,-0.054893143,0.050200474,0.11386838,0.02336982,0.014970701,-0.057249397,0.035282273,0.019409807,-0.037144728,0.03268656,-0.07062289,0.06854965,0.07046049,-0.022372143,0.023764495,0.05007224,0.07592645,0.051757947,-0.1402293,-0.06233196,0.03981619,0.047940563,-0.012578057,-0.0040999833,-0.07085674,-0.029209819,0.12347835,0.055163193,0.116245754,-0.013606076,0.033885002,0.006341215,0.042392135,0.0639917,0.069369905,0.039449282,0.01390665,-0.010542412,0.050313745,0.10676052,0.13896799,0.05037052,0.03628275,-0.06010059,0.0342424,-0.011911311,-0.0037682974,-0.0012204428,0.09020527,0.099900186,0.1600388,0.088801876,0.0019870063,-0.012948015,-0.002820819,0.036435075,0.0955446,0.005268751,-0.056088746,0.007130107,-0.12029648,-0.12943004,0.02795024,0.03404685,-0.03668528,0.0036987166,-0.09826958,0.0039821886,0.016999986,-0.08945967,0.0067685163,0.038633533,-0.01110919,-0.18667176,-0.1701974,0.0076951366,0.013862705,0.0690669,0.04427042,-0.06904189,0.053229734,0.031465363,0.02557046,-0.17703268,-0.0047831615,-0.0330578,0.0073637944,-0.15328348,-0.0071765953,-0.016216114,-0.05243476,0.12481999,-0.037535705,0.07801648,-0.0004679617,-0.0014204847,-0.037250128,0.031743873,-0.03897191,0.023095703,-0.17087042,-0.032794394,0.10810668,0.13604933,0.01833203,0.025138449,0.02518659,0.03122926,0.047112893,0.000765317,0.039062418,0.06795784,-0.14659761,-0.09672351,0.061821315,0.07415857,0.0855297,0.08022354,-0.0775656,-0.0024346486,0.00010517278,0.06679429,0.03499119,0.06124644,0.009915537,0.04949386,0.12514096,0.20239297,0.07234613,0.011149501,-0.10757053,-0.021032577,0.024478171,0.055636853,0.05575983,-0.018258285,0.16129132,0.020561283,0.0030464034,0.039110992,0.022301458,-0.032181256,0.02534573,-0.08033315,-0.025655137,0.031945735,0.079097226,0.013964401,0.005546188,-0.044209834,0.03831232,0.14861663,0.24277805,-0.026631784,0.09201542,0.029199032,0.10619823,0.056344308,-0.051774923,-0.0128706265,-0.043729633,-0.04981603,-0.03236919,0.042212095,0.03335915,0.11690678,-0.0027163348,-0.001328558,0.0611194,0.06933782,0.08642101,0.017677253,0.041179247,0.015089468,-0.05981332,0.13956352,-0.10597861,-0.0671894,-0.033008434,-0.07207304,0.14327782,-0.061333254,-0.14144161,-0.017718185,-0.016610187,0.1128643,0.08253636,0.03376506,0.12325508,-0.06536779,-0.11893796,-0.10073665,-0.07076902,-0.022013217,0.1001191,-0.027024148,0.05518923,0.04465674,0.062245697,0.06597955,-0.064772405,-0.051387474,0.04399301,-0.015298207,-0.02353369,-0.13649999,-0.1567444,-0.061971415,-0.075019285,0.11730355,0.12808272,0.068353035,0.029207066,0.12552725,0.065719336,0.052170966,-0.04044892,-0.09049591,0.023619516,0.16637406,-0.041927654,-0.11470001,0.0042029303,0.10968357,0.17215899,-0.028561536,-0.019337812,-0.020218084,-0.042621378,-0.08777224,0.045513365,0.0017893846,0.09932077,0.07892589,0.025799833,-0.02746085,-0.030267065,0.08012566,0.02173115,0.013816239,-0.057656523,-0.03776304,0.057552107,0.105330795,-0.11688437,0.06823438,0.095929734,-0.037398364,-0.026067344,0.032406606,-0.019396178,0.050385598,-0.06186908,-0.12407576,0.059282452,-0.046135332,0.01280689,-0.12583944,0.014349834,0.048131794,-0.03651586,0.109767176,0.06757819,0.091395296,-0.046803188,-0.0044652456,0.0197835,-0.10461406,-0.09570309,-0.023134146,0.13454446,0.025358142,-0.10683753,-0.019847322,-0.02381605,-0.07882472,-0.010362776,0.06845109,-0.024664832,-0.013387246,0.04123405,0.13889076,0.03529443,-0.035917062,0.10519376,0.030299716,0.045962475,-0.033841543,-0.040729295,0.069942445,-0.018511768,-0.010583663,0.036844745,0.12280017,0.05970918,-0.0773709,-0.110969655,-0.056623396,-0.09070656,0.0029803992,0.031281054,0.039132014,0.029723959,-0.010859766,-0.0414776,0.0050597917,-0.047601227,0.061196554,-0.02734552,-0.008678415,-0.0071089687,0.017474584,0.0045099426,0.1435126,-0.0016629845,0.0028648665,0.08318287,0.050586816,-0.028671367,-0.0024451045,0.1244807,0.13931683,-0.027498912,-0.019454943,-0.026628276,-0.05178572,-0.046715595,-0.047370773,-0.01725202,0.0025635988,0.04046375,0.04346089,-0.066696696,-0.045753498,0.023082456,0.03813045,0.1155183,0.053931396,-0.00707911,-0.07808615,-0.025716491,-0.070785165,-0.09088898,-0.0069850916,-0.12768094,0.057568226,-0.0061940146,0.018120315,0.108100064,0.019879883,-0.11224398,-0.05642384,-0.04756852,-0.0449392,0.016032705,-0.031757955,-0.09445432,-0.015553202,-0.1709983,0.034045946,-0.12658884,-0.06305072,0.036402192,0.0039113355,0.047461137,-0.1044456,-0.0011928326,0.14685209,0.0346113,-0.03635872,0.03519312,-0.033416145,-0.09021252,-0.031776264,-0.06943519,0.10583571,0.16800767,-0.05295365,-0.0005587226,0.05776235,0.0527731,0.10019358,0.065929,0.022576783,0.07820267,-0.024418592,-0.032726206,-0.02762117,0.0055795773,0.08641377,-0.04563297,0.0050391695,-0.0060589756,0.042684603,0.12629518,-0.055410407,0.039206233,0.016097078,0.011932088,0.07290078,-0.030538788,0.053205095,0.103479326,0.0004731513,-0.095074214,0.0044561853,0.0020018239,0.15832837,0.11646905,-0.041474197,0.034353517,-0.0014418123,-0.057954468,0.012341178,0.01695642,0.0048358804,-0.01272738,0.048406735,0.15883107,-0.009085415,-0.05551504,-0.18918675,-0.057027284,0.018506877,0.01832238,0.036684692,0.09486228,0.078135855,0.08684305,-0.061984282,0.09337902,0.14425369,0.012844573,0.106561616,0.08476855,0.048454262,0.11193374,0.031667754,0.07264737,0.08040196,0.008441172,0.053633567,0.09103692,0.12410996,0.029287739,0.010969744,0.038707484,0.026000695,-0.004159777,-0.03180998,-0.023187414,-0.099055365,-0.04459166,0.11552928,0.017550038,0.052445866,-0.029278332,0.025920529,0.029703382,0.047929958,-0.07009848,-0.015731258,-0.066157036,0.04676661,0.055650327,-0.032183655,-0.018183468,0.11047575,0.025692267,-0.05315335,-0.012152688,0.14394665,0.06878428,-0.006692382,0.09854525,-0.026983967,0.043328248,0.05746903,-0.123983264,-0.105461955,0.029222589,0.09552033,0.066259906,-0.04381048,-0.02178003,-0.07318494,-0.14902337,-0.020258106,-0.030185563,-0.06066488,0.003907489,-0.08022532,-0.06400462,0.028585007,0.07037374,0.0271464,-0.1731144,0.0096742865,0.06308618,0.12625554,0.010106028,0.035315573,0.13418338,0.09902539,0.0104294205,-0.034767054,0.038469385,0.18450537,0.034578256,-0.016519949,0.06802243,0.016073493,0.05231693,0.039841015,0.11321655,-0.026003825,-0.12136584,0.12255941,0.2020156,0.03925561,-0.013296166,-0.11733244,-0.11231484,0.09100241,0.0030412974,0.08870075,0.15414922,0.07299197,-0.090165876,-0.0070078736,0.09898665,0.11940793,0.12134984,0.04053531,-0.052816857,-0.064599715,-0.022995,0.057321396,0.087217204,0.0067716874,0.05492548,-0.1038754,-0.007651191,0.140777,0.050366353,0.0028859922,0.020587035,0.00822303,0.1289374,0.12564652,0.096708596,-0.075589746,0.051829256,-0.05959345,0.02504759,0.11558384,0.045988783,0.07719118,-0.09453274,-0.013940872,-0.045424793,0.045518022,0.009823204,0.10957557,0.024363149,0.05548302,-0.005016855,0.14779103,0.16954176,-0.05368892,0.07723775,0.021734836,0.12251324,0.068701506,-0.016364187,-0.048015468,-0.1044981,0.02244658,0.014698686,-0.07152052,-0.0920456,-0.076680206,-0.05477433,0.023394497,-0.03809721,-0.05233985,-0.06831054,0.1226791,0.054282937,-0.055079725,0.004955634,-0.10042152,-0.054189723,0.0096046,-0.09289798,-0.016689941,0.037497643,0.036641467,-0.12504777,-0.1436833,0.0040827277,0.06333433,-0.014706429,-0.011625181,0.069302365,-0.008802096,0.049106922,-0.014470781,-0.031715546,0.05120634,0.005981556,-0.049160514,0.03195689,0.04615265,0.034570273,-0.05711196,-0.06407548,-0.09427899,0.012556468,-0.010991995,-0.05939038,-0.11698598,-0.08302139,-0.04768958,-0.08320654,-0.051740285,0.031498928,-0.043278053,0.039221775,-0.0036045571,0.028676068,-0.12006953,-0.016505592,0.022739427,0.036315273,-0.06710095,-0.020267673,0.0042338227,-0.06395085,-0.0013696633,0.021838108,-0.08427051,-0.047577485,-0.11655295,0.034295976,0.0077567613,-0.061646637,0.012251809,-0.020992845,0.0028272513,0.06707582,0.06615527,-0.047406323,0.062792495,0.08217126,0.046143122,0.1400128,0.1236915,0.04851103,0.04834241,0.028954001,0.013412538,-0.012771772,0.0013321524,0.084278226,0.102239095,0.124615096,-0.03554002,-0.066558585,-0.0038765543,0.0051428117,0.029852236,-0.029098896,-0.0700608,-0.0732051,0.08832626,0.06492774,0.050421435,0.053597942,0.12191717,-0.026000686,-0.00481752,-0.08323228,0.03240086,-0.0012637554,-0.14765425,-0.010182613,0.051433403,-0.024888828,0.072746575,-0.08505407,-0.021504926,-0.025902903,0.04519215,0.10660922,-0.05285241,-0.032778773,0.008157722,0.063992046,-0.024721323,-0.13470456,-0.09680023,-0.070140794,-0.0048064324,0.025797514,-0.034452163,-0.037771463,-0.1754656,0.019951753,0.019462703,0.089213505,0.027090779,-0.012797442,0.08132096,0.04708051,0.13812892,0.10741867,0.063586965,0.048081703,0.014968328,-0.022283683,-0.025171839,-0.017296324,-0.0048664734,0.00059016823,0.055264816,-0.018772013,-0.04885183,-0.1205784,0.005830345,0.076879576,0.06892456,0.037790436,0.074137144,0.054969925,0.05867109,-0.037239294,-0.058131356,0.10837135,0.07154296,0.038720325,-0.014175233,-0.07486856,-0.12714714,-0.029380845,0.032051302,0.055529743,-0.008796532,0.09107884,0.050145064,0.04379697,0.07186805,0.058033817,0.047324173,-0.07094634,0.032703362,0.033987433,0.050551426,-0.052616883,-0.021427374,-0.072733246,0.06604273,0.028288702,-0.015341671,0.1494411,-0.13369484,-0.086500496,-0.056884423,-0.102878556,-0.07932358,-0.094064705,-0.084916644,-0.06686927,-0.002689205,-0.018207401,0.07334132,0.09474467,0.06369102,0.06131631,-0.06064005,0.09090091,-0.085917324,-0.01584491,-0.014547564,0.12648901,-0.06469941,-0.08934282,-0.13005336,-0.097517475,-0.02346088,-0.09755047,-0.1578991,-0.15363023,0.07032096,-0.08609239,0.06959734,0.07437592,-0.010366909,0.010143943,0.060929745,-0.040476818,-0.026956322,0.10040569,-0.10712773,0.08217587,0.029880045,0.1282452,0.0014228475,0.01555599,0.04493525,0.0015904023,0.10493579,0.009403779,0.060033154,-0.039346375,-0.04465455,-0.06818614,0.038330343,-0.065560795,-0.06841983,-0.14520746,-0.0491562,-0.06959588,-0.054788288,0.055298697,0.0312638,0.0066805547,0.10169204,-0.06619922,0.116184525,0.06684726,0.00175284,-0.01848731,-0.14038767,-0.061942328,0.0050429073,0.05374998,0.028634384,-0.07662863,-0.066803135,0.053268805,0.017886825,-0.010398041,0.01725183,-0.04536424,0.130139,-0.03609397,-0.00023853965,-0.10502176,-0.21215497,-0.04734618,-0.06100782,-0.024851765,-0.05842348,0.057487294,0.1578576,0.04257537,0.17714018,0.09170684,0.12094797,0.16990179,0.08249521,0.039764967,0.12546399,0.050599057,-0.026552295,-0.09012893,-0.112458296,0.07309352,-0.00043120215,0.016712245,0.02181635,0.05339604,0.017087394,0.024607217,0.02099794,-0.022626895,-0.034459725,-0.018495,0.047232006,0.028176349,-0.11088201,0.124395624,-0.025147395,-0.01509732,-0.004042714,-0.16857696,-0.14784974,-0.043806776,0.076115645,0.03380477,-0.09220931,-0.023019573,0.07800907,0.048267238,0.035464335,-0.039456036,0.029391916,0.12361822,0.114618555,-0.13481499,-0.04367657,-0.009089811,0.06359816,-0.092132114,0.009632987,0.102529466,0.056102052,0.018068135,0.04846449,0.09850186,0.13032325,0.059463,0.060449693,-0.04219475,-0.014546224,0.07242254,0.09906597,-0.007037896,-0.03323983,-0.044361465,0.07640425,-0.03867862,-0.00678141,-0.015693584,0.11270193,0.14841816,-0.021029653,0.031624172,0.04841927,-0.013747381,-0.033597182,0.0706473,-0.057081986,-0.08208254,-0.06760567,-0.0518215,-0.051388185,-0.030492933,-0.061357703,0.026240543,0.035780404,0.04947579,0.06860436,0.05991052,0.100426294,0.12559256,0.090072095,-0.014611125,0.07015545,0.06429538,0.019823022,0.07105036,0.04301069,-0.061820578,0.052211184,0.064609334,-0.018208707,0.0231635,-0.032150626,-0.09885653,-0.030920925,-0.012141473,-0.021659927,0.035716925,-0.027819136,0.06591084,0.006200026,-0.04845048,-0.010863765,-0.009926348,0.034513544,-0.08425337,-0.010204865,-0.11438002,-0.017389424,-0.07369192,0.03324699,0.06509738,-0.020484688,-0.24026713,-0.08348433,-0.03130676,0.018630661,-0.040002156,-0.016881863,-0.04611599,0.084445655,0.103839725,0.10744617,0.029483527,0.04213502,0.015955653,0.019915352,0.021412093,0.04858664,0.030864488,-0.022234842,0.013599234,-0.028754659,0.019838858,0.08185365,-0.037986968,0.055868566,0.04364061,-0.067320615,-0.01426306,-0.07973603,0.011958288,0.014707817,-0.10569273,-0.07928528,0.013937288,0.1697945,0.060868006,-0.06265028,-0.041782953,-0.02872336,-0.017690543,-0.022102678,-0.09341093,-0.007163279,0.012168864,-0.10761777,-0.00093963434,-0.06591069,-0.20651399,-0.04142234,0.027711507,-0.022565493,-0.084720924,-0.18807448,-0.05349651,-0.039561875,-0.073792525,-0.12920041,-0.082823664,-0.048766803,0.07238768,0.012768703,0.053611305,-0.029794758,0.006249179,0.020091241,0.037645165,0.0772418,0.039747268,0.12154299,0.038448703,0.036353186,0.017308798,0.0426464,-0.015078697,-0.008880286,0.08009651,0.07890112,-0.0463923,-0.051700763,-0.01270788,0.17998159,0.07193932,-0.0011293313,-0.14473546,0.1053005,0.06540437,0.04479188,0.0853383,-0.10503099,-0.018787406,-0.06585245,0.09092227,0.11827967,0.045968153,-0.0633256,0.024515599,-0.07100925,-0.0037277278,-0.02047653,0.06150842,0.11388725,-0.06615832,-0.066396266,0.008655761,-0.03278155,0.072115704,0.016356496,0.05162029,0.0016672073,0.06599619,-0.047066625,-0.10765172,-0.063650385,0.0095271375,0.057385236,-0.09913137,-0.079864696,-0.05424154,0.05136584,0.019496858,0.057010133,0.0740126,0.013682295,-0.0381568,0.0087736575,-0.0186691,-0.021072188,0.099644534,0.015941938,0.012197732,0.05268035,-0.061104704,0.16321915,0.002573831,-0.026818434,-0.044391844,-0.047081348,0.055230297,-0.011148188,0.104973905,0.0770027,-0.09037052,-0.033606634,-0.05474269,-0.03983898,0.06236473,-0.0020134551,-0.07893231,-0.12584883,-0.0014125534,0.012762559,-0.018179214,0.0794734,0.022570396,0.047901966,0.13380155,-0.021010555,-0.06980861,-0.029201865,0.010426345,-0.05141237,0.09063296,-0.026780086,-0.04558337,-0.11203347,-0.069741495,-0.064877525,0.0021526758,-0.017908335,-0.011564068,-0.030828618,-0.06589885,-0.09523725,0.004777931,0.0018025545,0.06668737,-0.15093502,-0.15829304,-0.044653974,0.007674344,0.07971079,-0.021685755,-0.0690911,-0.14881743,-0.12472179,0.011039438,0.015269039,-0.030271659,-0.06459051,-0.04917288,-0.049933527,-0.039623663,-0.12132645,-0.12600027,0.017986692,-0.057539433,0.05252252,-0.025248274,0.07106978,-0.09504741,-0.009171661,0.022609469,-0.046624307,-0.13545,-0.021798884,0.01974837,0.027324524,-0.0119938655,-0.045864534,-0.15441795,-0.042536218,0.07973952,0.003907855,0.03448996,0.019252207,-0.042035747,0.044764776,-0.029554537,-0.05474225,-0.03144424,-0.089282714,-0.02363777,0.06988797,0.22356093,0.12443727,-0.021014258,-0.015258522,-0.04017746,-0.041554652,0.025708685,0.0014554108,-0.018875273,-0.10507674,-0.16068397,0.08225173,0.028196312,-0.009954086,0.047699846,0.049732774,-0.0049937805,0.029861607,0.06759263,0.05531654,-0.047293603,-0.08181573,-0.005939152,0.08147096,0.06683724,0.13326442,0.025651839,0.064639986,0.19321279,0.12466961,0.10054525,-0.06767278,-0.08717645,-0.002198666,0.12770772,0.008717116,-0.13700806,-0.08310375,0.0303655,0.012751635,0.04654908,0.051969703,-0.031109756,-0.019982588,0.06209713,0.1009999,-0.02193154,-0.005808126,-0.023647806,-0.057890665,-0.03121093,0.033918384,0.023622904,-0.20271786,0.0094181765,0.08612566,0.07934987,0.067315005,-0.08455313,-0.09122337,-0.044387143,0.09954899,0.027055163,0.08006572,-0.12649126,-0.0751941,-0.016658822,-0.048573658,-0.0061344253,-0.099359564,-0.10217625,-0.012764098,0.007859658,0.06642897,0.0382325,0.053323783,0.06915382,-0.021271406,-0.05410608,-0.031859074,-0.06073739,-0.058120046,0.02792278,-0.013452224,-0.08287301,-0.03481499,0.030885022,0.0068557533,0.06041609,0.18216994,-0.022160484,-0.15282314,-0.034028966,-0.09897417,0.028104069,-0.091065116,0.001841507,0.048461825,-0.04078757,0.031459328,0.12778242,0.14603084,0.016577037,0.025140362,0.07650039,0.24267764,0.13491108,-0.007317024,-0.03794628,-0.02805075,0.060538083,0.0357215,-0.072308056,-0.07153634,-0.053906094,0.034608856,-0.061315548,0.01910181,-0.0029831033,0.012339075,0.06083096,0.049298268,0.081224896,0.0026229671,0.16096373,0.16736488,0.03590802,0.037815478,0.018147605,0.044251457,0.072869346,0.01554315,-0.05057854,-0.048869785,-0.17140189,-0.053799346,-0.04708079,-0.022944555,0.021112066,0.12956187,0.06397232,0.048954725,0.048851326,0.060647655,0.011610502,0.048666652,0.004733042,-0.047009025,-0.05620067,0.014791869,0.04646203,0.038280018,-0.028002275,-0.11155887,0.08205268,5.7305155e-05,-0.012241039,0.017951682,0.026521927,0.08164317,-0.034348097,-0.029042423,-0.04343997,0.09070727,0.055945814,-0.17389677,-0.101526655,-0.09377216,0.067307815,0.0582935,-0.025638038,0.00668859,-0.028974673,-0.04014135,-0.118978776,-0.1682304,-0.09776471,0.06453107,-0.09930234,-0.05616384,-0.18233804,-0.10710385,-0.02569164,0.023802962,-0.028070264,0.0472741,0.021110935,-0.003690932,-0.0563326,-0.06657985,-0.0034527835,0.116164185,0.0004350946,-0.09174135,0.0039695306,-0.056821104,0.07184119,-0.012392265,0.037775647,0.07477768,-0.05357854,-0.05536239,-0.0072313333,0.060960576,-0.015555379,-0.09822735,-0.0046770168,0.028625542,-0.09335192,-0.08460586,-0.0080460785,0.06857085,0.07301225,0.062394157,0.12764964,-0.014520261,0.004582156,-0.057084046,0.10142305,0.0115321465,0.06991043,-0.09658036,0.0071128383,0.032578412,-0.16787818,-0.119610414,0.031376988,-0.043768946,0.06857092,0.012735345,-0.094771646,-0.047452427,-0.055954646,0.0016895311,0.00659914,-0.030478237,0.047872804,0.00961598,-0.038766004,0.073024616,-0.014239922,0.08022159,0.00048676223,0.028388377,-0.0034656087,-0.018777164,0.05332846,-0.0016626755,0.052294865,0.005256428,-0.047986757,-0.12645712,-0.077033274,0.0049152733,0.007507856,-0.0074585625,0.025113959,-0.013455694,0.07524169,0.025992788,-0.13709664,-0.057935018,-0.04103052,0.012364135,-0.011200921,-0.077436656,0.13470736,0.06302028,0.026043242,-0.025994599,0.03997209,0.0033752406,-0.03139053,-0.020150041,-0.0073914677,-0.0009839088,0.023428414,0.008006051,0.020062836,0.011699809,-0.053548187,-0.06414039,-0.16237564,-0.1572474,-0.10343639,-0.084755786,0.03437392,0.03306122,-0.1592143,-0.06911794,-0.13078898,-0.044366438,-0.016459217,-0.06751274,-0.034446836,0.05890654,0.011590567,0.10177,-0.03435197,0.00017703461,0.24275227,0.0969689,0.11427536,-0.021468006,0.030973567,0.12960474,0.17872402,0.08362035,-0.0851714,-0.09254123,-0.032740753,0.080186404,0.06730261,-0.057813305,0.12070576,-0.0012945118,-0.008022407,0.028182134,-0.04728609,-0.019041844,-0.147621,-0.07479987,0.04791672,-0.014505661,-0.01974949,-0.15081629,-0.096288055,0.013938241,0.006756772,-0.072954535,-0.024755022,0.051749606,0.07968152,0.08733852,-0.14513299,-0.10528159,-0.03585976,-0.06585994,-0.09746581,0.035889763,-0.0019634087,0.004094641,-0.021404909,-0.03775818,0.051296327,0.06099635,-0.0035587174,0.06868446,0.12855718,0.11505278,0.089149244,0.0014706388,-0.019218205,0.074694514,0.021221885,-0.03098052,-0.114914335,-0.08046591,-0.061232757,-0.004093776,-0.13238399,-0.03835508,0.01047923,-0.09339982,0.018064255,0.020702379,0.03678441,0.0024690288,0.06101305,0.07606517,0.010185397,0.03957193,0.011700506,-0.06820218,-0.021102795,0.10901354,0.07526185,-0.025355069,0.10465522,-0.014257995,-0.058710363,0.0059469785,-0.056191724,-0.058975544,0.06310405,0.018264707,0.023815837,0.053231843,-0.11955639,-0.11078351,-0.10985581,-0.042992596,-0.009777896,0.018152092,-0.013248967,-0.105805896,0.05178461,0.068295576,-0.09128895,-0.09037421,-0.1465669,0.057869036,0.14287792,0.17051177,-0.0010548896,0.13501896,0.0460865,-0.016317613,0.10303112,0.11808676,0.07830961,-0.048831582,-0.05408099,-0.021929387,-0.008522452,-0.05102755,0.047549937,-0.022787351,-0.027446024,-0.027721962,-0.07600505,0.08954114,-0.04097063,-0.04165608,-0.081238426,0.029339219,0.07234835,0.1470133,-0.0756614,-0.07222315,0.079187654,0.041872054,-0.024741774,0.042527564,-0.03743644,0.014673552,-0.0118512055,0.04297109,0.04023417,0.112832434,0.022251956,0.028849205,0.009548165,0.00082190294,0.0068045706,-0.1064011,-0.039527807,0.039364375,0.05235868,0.08750544,0.06495816,-0.084241144,0.03527942,-0.022406831,-0.12583983,-0.16218361,-0.038572125,0.045931544,0.006216276,-0.004522288,-0.06216337,-0.047251597,0.06546848,0.019220652,-0.007806408,0.051781967,0.008553852,-0.024478769,-0.062420465,-0.041848093,0.022387275,0.07793695,0.09474798,-0.0020505518,0.014661486,0.10988199,0.16247796,-0.0056230817,-0.10618601,-0.1050541,-0.01277699,0.08277561,-0.021396043,-0.051272023,-0.14679253,0.054571956,-0.012321783,-0.004671925,-0.046246953,-0.009845676,-0.017421769,0.102020524,0.039869215,0.017979037,0.072480254,-0.040774614,0.007011361,-0.08417565,0.063382395,-0.038932472,-0.13932048,-0.06047552,0.1167452,0.07250462,0.06433419,-0.12919794,-0.04303595,0.0013884803,-0.0037270903,0.084860705,0.08834001,-0.07631798,0.045068346,-0.007980237,0.08234135,-0.025144933,0.013949281,0.082574256,0.032215565,0.11556059,0.0789892,-0.003841658,-0.11325013,0.030465676,0.01328218,0.08072914,0.1496351,0.04998513,-0.035701398,0.09630323,0.04092538,0.053292062,0.041461658,0.06768444,-0.0025162478,0.08685399,-0.046130814,-0.050993714,-0.003927993,0.008912834,-0.055688046,-0.030114433,0.009067086,0.031327404,-0.006334667,0.0732824,-0.058791474,-0.12511505,0.10535188,0.027988905,0.033129085,0.12528992,0.10649564,-0.054496218,-0.019726986,-0.012940253,0.10017375,0.064434335,-0.043380708,0.007124366,0.022664253,0.10817871,0.11588437,-0.0032227673,0.10686919,0.05458361,0.024335563,0.06537366,-0.017540623,0.0110455295,-0.0073220585,-0.02284485,-0.08375599,0.053074714,0.11933436,0.030941231,-0.059420537,-0.09366838,-0.06116765,0.065018676,0.13402505,0.012097141,-0.037439488,-0.11680658,-0.08275684,-0.07620825,0.054764517,-0.021827212,-0.04413411,-0.038244262,0.01530114,-0.050799854,0.029626036,-0.00861003,-0.020913115,-0.04054176,-0.019095862,-0.041557677,0.052075874,0.044253245,-0.01869494,0.017841013,-0.009843153,0.1395809,0.1157365,-0.08339459,-0.028117223,-0.064504676,0.044515934,0.060191814,-0.08565831,-0.19703428,0.04058331,-0.09065363,-0.10854737,-0.12253799,-0.2283137,0.007825472,-0.08200786,-0.10728309,-0.02106928,-0.025575139,0.04831856,0.064844355,-0.015062315,0.051179815,0.06286402,0.110678405,-0.15871035,0.019399244,0.036771625,-0.007414914,-0.015566166,0.044703998,-0.09119008,-0.010315834,-0.018643968,-0.022361811,0.054121412,0.09897441,0.043417547,0.02308611,0.10374906,-0.08724504,0.021748325,0.082124986,-0.016181704,0.13763203,-0.005851399,0.021133812,0.1441243,0.08566313,0.09300193,-0.12088231,-0.045266036,0.00802643,0.066849515,0.093693726,0.076276384,0.025010172,-0.034385618,0.062407266,0.053778984,0.043798834,-0.015756935,-0.012368881,0.016383322,-0.025452828,0.006146133,0.021836275,0.008218135,-0.09521603,0.031841394,0.088742636,0.049198434,0.044677153,0.06444505,0.030243339,-0.016774127,-0.040906835,-0.012108728,0.055324305,0.048949752,-0.025105083,-0.04916915,-0.006873296,0.06378136,-0.089540355,-0.008150938,-0.02131024,0.12632808,0.17575197,0.13336477,-0.07876623,-0.09528823,0.055596508,0.041474227,-0.024790877,0.014120737,-0.037298284,0.011761038,-0.045609396,-0.094325244,-0.034100477,0.118029006,0.047533046,-0.06188998,-0.19973339,-0.133729,0.0098999925,-0.054576747,-0.070247,-0.16595337,-0.08539357,0.0013329389,-0.019810822,-0.06404945,-0.09447527,-0.013964701,0.003161043,0.06458381,-0.082682654,0.022239111,0.06556042,0.10192476,0.1334398,0.17407984,0.090426624,-0.014544977,0.08183992,-0.0011520431,0.053558867,0.14352828,-0.015287895,-0.015130216,0.07793485,0.025527298,0.12641416,-0.03141292,0.005842592,0.11112702,0.1427093,0.1372126,-0.04095254,-0.05397162,0.002283365,-0.020942265,-0.18276814,-0.030387206,0.045158494,-0.0149657335,-0.06704249,0.086216226,0.0507328,0.021569055,-0.02697482,0.051083345,0.08960782,0.08128739,-0.06935843,-0.15738362,0.11534036,0.05469807,0.10393343,-0.063191794,-0.19345492,-0.0102226,0.066083424,0.0694084,-0.041093808,-0.1914725,-0.1716315,0.11016206,-0.045108102,0.096175805,0.013962265,0.07516359,-0.06463992,-0.08892407,-0.043105744,-0.025243528,0.1383424,0.035459016,0.026860898,0.047977887,0.005713777,0.08219896,0.10567302,-0.024707474,0.057675663,0.047990065,-0.07089292,0.05706002,0.015947608,0.007131074,0.02757308,-0.16922133,-0.013348073,0.034667507,0.006316975,-0.118823886,0.05144143,-0.017963383,0.04939096,-0.11666097,0.082240686,-0.015203369,0.009157101,-0.034937058,0.016935775,0.1644918,0.13743894,-0.025263587,-0.019998727,-0.076476544,0.03918656,0.08318425,-0.007948698,-0.012547966,0.009772989,-0.05161601,-0.020952417,0.005354212,-0.012324692,0.02420224,0.010548364,0.024865828,-0.036158983,-0.022549197,-0.040000897,0.0153582785,-0.043198735,0.033557523,0.010101031,-0.052979674,0.029729942,0.033421785,-0.045354396,-0.032231506,0.040317487,0.048495445,-0.060661606,-0.12784338,-0.05956114,0.070927,0.06032782,-0.04856406,-0.1524982,0.0909221,0.01797674,0.09513199,-0.05430948,-0.05048699,-0.08269579,0.16267873,-0.013821128,-0.05960114,-0.09838855,0.048255246,0.100248925,0.006314286,-0.09347808,-0.06008817,-0.008434267,-0.04833136,-0.15565328,-0.07275119,-0.020624803,-0.06512215,-0.14703335,-0.042433932,-0.056929063,-0.01007788,0.03577608,-0.045838624,-0.013718504,0.10751368,0.096052594,-0.090517506,-0.029448826,-0.07234963,0.038410347,-0.015477294,-0.08322547,-0.027360031,-0.108936064,0.02439182,-0.08930059,-0.11799724,0.056888472,-0.025753839,-0.07390181,0.045986645,0.025160769,0.06330443,-0.01479437,0.009753669,-0.048199315,-0.0053584487,0.033315625,-0.036371,5.728318e-06,0.058096763,0.012456281,-0.09519968,-0.11359729,-0.0011967989,0.051579796,0.122088365,-0.03204629,0.02405476,0.14567833,0.13256083,-0.042433575,-0.043752093,0.10300123,0.035287037,-0.043258354,0.03902591,0.0021619513,-0.08570167,0.06272366,-0.00923874,-0.08421975,-0.041305114,0.028871292,0.13571668,0.0051054205,-0.013024713,0.007350807,-0.079551555,0.004595924,-0.0004589718,-0.039560493,-0.008513863,-0.009063056,-0.019399049,0.031973153,-0.040360738,-0.01086491,0.06660502,-0.037737712,0.0060952944,0.03526594,-0.0073430305,0.02348524,-0.0013287411,0.009295847,-0.02113813,0.05675051,0.01013893,-0.058059163,0.03762053,0.09889087,0.033310864,0.03315713,-0.045394763,0.004877834,-0.08652306,-0.00838425,0.035508767,0.077874325,0.13461548,-0.0056831427,0.045539048,0.021578064,-0.109806634,0.055244382,-0.050651204,0.06647636,0.011148839,-0.116491765,-0.044897515,-0.037370242,-0.019332932,0.007863915,0.028414637,-0.04086135,0.045188565,0.025054256,-0.01829614,-0.080044754,-0.0024436014,0.10468272,0.08750131,-0.08520104,-0.059652857,-0.0058534555,0.10910382,0.0548618,-0.032490954,0.019242194,0.00040319416,-0.0326093,0.025778443,-0.05086488,0.016807783,0.06290387,-0.0075009754,-0.06450067,-0.078527175,0.027684025,0.06166624,0.011920036,-0.008290436,0.07259762,0.14769575,0.16175734,0.07011254,0.045483727,-0.046482675,-0.033022907,-0.08613348,0.081064366,-0.081028596,-0.10297498,-0.06944121,0.13424535,0.0684386,0.07817353,0.11339747,0.06225393,0.09550247,0.090478584,0.0035414093,-0.028063286,0.054214712,-0.0020779315,-0.025344413,-0.020208988,-0.09515086,-0.16588911,0.014002072,0.0471865,0.062584735,-0.060224183,-0.08242038,0.102788165,0.041119333,0.004857803,-0.032476205,-0.052788347,0.09043991,-0.01226221,-0.11595763,-0.15123747,0.08064965,-0.02368443,-0.04536335,-0.027872834,-0.11426942,-0.048537888,-0.12853757,-0.030718055,-0.04972335,-0.076642856,-0.04595551,-0.13480909,-0.038314525,0.13368173,0.05750497,-0.08912489,0.05079828,0.0027560524,-0.054137122,-0.030460231,-0.061259255,0.031655874,-0.003466885,-0.10551393,-0.07508976,0.07240759,0.048613697,0.09514661,0.040262297,-0.04080114,0.07043931,-0.0027292133,0.0034929675,-0.0035437199,-0.022749256,0.10763394,0.08206365,-0.10917836,-0.121255,-0.08917439,-0.027891861,-0.07506492,0.104503274,0.088359885,0.10589769,-0.03376914,0.03445421,-0.17999496,-0.112456754,-0.15622108,-0.038131434,-0.14522754,0.033796377,0.051455896,0.015679432,-0.054511953,-0.12102082,0.008177654,-0.006403634,0.008492396,-0.0010500547,-0.050503805,0.04854224,-0.08150016,0.046285223,-0.089692526,-0.101693615,0.06505698,0.058483128,-0.014652835,-0.05141396,-0.041398093,0.08902327,0.029033702,0.10106729,0.12214834,0.0753785,0.049756266,-0.037354995,0.06909432,0.16196828,0.090427905,-0.09538078,-0.010977567,-0.01635692,-0.08334171,-0.06988693,0.032141995,0.003999321,0.061368376,0.11733304,0.048896,0.07681663,-0.017440714,-0.009459288,0.07308213,-0.006258998,-0.015506112,-0.085236214,-0.07273128,-0.24963051,-0.30156916,-0.014525127,0.02981102,0.04309009,0.029055899,0.03887852,-0.030521868,-0.08118797,-0.054518092,0.03996355,0.15161698,-0.032986242,-0.10196478,-0.083095506,-0.01914198,-0.08065938,0.015484652,-0.05708463,-0.10543418,-0.048038997,0.021918906,0.042814,0.017862817,-0.09927166,0.02814179,0.013214899,0.050767206,0.08980899,0.0031103473,-0.008034113,-0.08842163,0.0748243,0.061937157,0.04863763,0.06738912,0.049807604,0.12542553,0.007008657,0.034349203,0.0397322,-0.031306855,-0.07810273,0.023568979,0.071386985,0.05744823,-0.035561938,0.057691183,0.06189556,-0.0038753715,-0.08465225,0.04369264,0.03997134,0.057105295,-0.047028616,0.03571769,-0.07407186,0.020853894,-0.0841996,-0.043192342,-0.0017775943,-0.04537285,0.049316086,-0.076280855,-0.018357798,-0.02919051,0.08250838,-0.017308906,-0.10971445,-0.07983844,-0.016351731,0.055565916,-0.036369022,-0.016264703,-0.019977024,0.07709651,0.036783755,-0.019035883,0.16440128,-0.08205686,-0.03475306,0.016096488,0.040714204,0.030966768,0.043047186,-0.10427,0.013423932,0.116828725,0.18969053,0.07886393,-0.0870898,-0.040357176,0.013406696,0.0041540945,-0.008437913,-0.078880414,-0.100289464,-0.08116752,-0.008900965,0.03765242,0.049733695,0.047388658,0.029679615,-0.031334296,0.02958093,0.029922621,-0.017388102,-0.07741338,-0.039307415,-0.067663886,-0.052534472,-0.04498584,-0.03845518,-0.030316914,-0.13327868,0.08671827,0.012200648,0.017258972,-0.10488317,-0.08208545,-0.06780257,-0.05069973,0.031560097,-0.037615858,-0.11179077,-0.050227363,0.04652553,-0.13176142,-0.1028692,-0.008484929,-0.07901306,0.04373706,-0.024606725,0.07481209,-0.06939631,-0.09861523,-0.011683751,-0.074673966,0.022876529,-0.1207869,-0.019728722,0.012443098,0.054794736,0.0683113,0.019741157,0.029596034,-0.018737491,0.057482056,0.23153298,0.0043908986,-0.06818704,-0.04344159,-0.04317096,0.030671421,-0.05844667,-0.10288968,0.02770224,-0.042488858,0.020534365,0.120098434,-0.048040446,-0.105150186,-0.01935187,-0.015694667,0.053811263,-0.012611557,-0.010146663,-0.11103541,-0.016454512,0.013008757,-0.08820131,0.061997812,0.071977615,0.008779268,0.0013754009,0.11747264,0.08832569,-0.032510962,0.025469795,-0.0061351513,0.019612841,-0.043179117,0.007833349,0.1318682,0.08939723,-0.023844844,-0.05584456,-0.04112797,0.004753209,0.028078493,0.008425986,0.038224727,0.023843415,-0.028048689,0.038970154,0.025365714,-0.075400874,0.04218542,0.07716544,0.11484279,0.08683969,-0.036328554,-0.112851724,-0.027237939,0.024805723,-0.02885928,-0.03823695,0.0705366,-0.0125608845,-0.036363367,-0.101258464,-0.05683647,0.04485298,0.07458548,0.07963028,0.088214606,0.0004853776,0.16798495,0.009071331,-0.07336085,-0.16141516,-0.027840441,0.02965286,-0.030654833,-0.035064954,-0.014625774,0.062683,0.046084143,0.06000659,-0.022817401,0.048222106,0.07278412,-0.08674119,-0.012418423,0.040992122,0.060277503,0.050683696,-0.1066013,-0.1224122,-0.091472045,0.0059083696,-0.028778134,-0.056455873,-0.05012985,-0.17603463,0.029448247,-0.0450981,0.027638813,-0.06614379,-0.12218834,0.015114289,0.033237416,-0.014729077,-0.054044854,0.0578633,-0.061921522,0.031239713,0.006231971,0.0919536,0.028017018,0.12666759,0.15529199,-0.06429093,-0.10073236,-0.14336057,0.061795827,0.112305835,-0.049951166,-0.07541297,-0.02173872,-0.07781579,-0.019320419,0.045095507,0.12572794,0.096195854,0.06799547,0.05559407,0.07234456,0.01148385,-0.0034019568,0.07651334,-0.022625072,-0.009821802,0.056063194,-0.021649018,0.0025525505,0.019586183,0.02224452,-0.016002666,-0.012948821,-0.0132790925,0.0024700433,-0.026346307,0.055408895,-0.053994395,0.010566331,0.07802728,-0.14071855,-0.110097654,-0.16721098,-0.03293405,-0.11850742,0.0024275284,-0.03092232,0.006010894,-0.041401047,-0.048676066,0.02144456,-0.07322376,-0.08381796,-0.08358443,0.023414753,0.03834037,0.014720529,-0.058145914,0.02853406,0.021601599,0.013617971,-0.15969,-0.058433138,0.07284513,0.109004125,-0.054336708,-0.09450714,-0.037660517,0.03434993,0.099800035,0.004256968,-0.018132351,-0.010909263,-0.015022077,0.055772483,-0.00803103,0.073457755,-0.06475045,-0.0008434507,0.010669566,-0.07519611,0.10187076,0.07331615,0.11651423,0.03596114,0.0100362515,-0.02214578,-0.037690952,0.07706036,0.03929458,0.074457414,0.09242467,0.033146698,-0.024506874,0.014977998,-0.00021759704,0.05799441,-0.0029794925,-0.04983812,0.026043935,0.030974332,-0.056288473,0.101958334,-0.04795961,-0.2748205,0.06391642,-0.14430156,0.006917507,0.11647556,0.020407556,0.007131751,0.077477336,0.043628912,0.11952378,0.16458403,-0.0481592,0.031761497,0.026026689,0.0007654467,0.07509866,-0.002397687,0.013655941,0.10046071,0.06503262,0.02706187,-0.049914777,-0.089889884,0.073838994,0.07728862,-0.044311486,0.013657687,-0.03814616,-0.003841624,0.009114836,-0.008183221,0.03826044,-0.03276837,-0.0170786,-0.07665122,-0.054690495,0.018641258,0.037245143,-0.014227061,-0.07647208,-0.05112729,0.06443993,0.039989945,-0.031532377,-0.020260008,0.0076788664,0.11216813,0.024139464,-0.083504826,-0.041893177,0.011378753,-0.10051241,-0.021936279,0.07315892,-0.07281924,-0.091111355,-0.111662775,-0.039016746,0.091596246,0.011640245,-0.11144836,-0.0422575,0.06586783,0.005638394,-0.06187147,-0.031326927,0.07065648,0.06000456,0.006440244,0.12396213,-0.051120248,0.012059529,-0.004904204,0.0074170935,-0.053854916,0.13526964,0.09611592,-0.08604667,0.09462767,-0.040190443,-0.043787587,-0.14863686,-0.14417756,-0.018422363,0.039117128,0.07211901,-0.028146638,0.08859146,0.08230582,0.010826261,0.029944956,-0.08591268,0.045727577,0.13127565,-0.08544578,0.069584206,0.056655113,0.19393751,0.018559325,-0.08421019,0.086487636,0.020209938,0.14547351,0.0032099586,-0.10253147,0.10462808,0.0345065,-0.002782141,-0.050408084,0.013861583,0.019972125,0.004561377,-0.08586851,0.01772939,0.12116006,-0.039770197,-0.045360208,-0.0057591465,-0.060218833,-0.08001817,0.10236336,-0.067882046,0.08529099,-0.0064745704,-0.10048097,-0.04855874,-0.026857318,0.11914706,0.039497502,0.017645393,-0.03905709,-0.0015361193,0.09572652,0.021612423,0.1579308,-0.008536545,0.0016897616,0.00969801,-0.055140175,0.10575315,0.06882213,-0.054210566,-0.010765891,0.10355645,0.09689717,-0.13541797,-0.046344504,-0.085284114,-0.05957677,0.08817946,0.042970944,-0.017860422,-0.07654139,0.0241658,0.12181937,0.17172831,-0.022186494,0.009039832,-0.015563286,0.07361307,-0.052788954,-0.11881303,0.043915547,0.00091783726,-0.16094,0.02776915,0.045605946,0.14683524,0.06244794,-0.041581046,-0.033398025,0.009600345,-0.0003826385,0.043576322,0.040907912,0.099658534,0.048153646,0.16375928,0.12490181,0.00869634,-0.046835735,-0.044765364,0.051683053,0.030165618,0.04337114,-0.0047851223,0.006058487,0.0742215,0.07203013,0.08949429,0.040727343,0.047016464,0.083765425,0.023881914,-0.040440094,0.03582792,0.08439294,0.08426937,-0.035982627,-0.14485563,0.08790091,0.010080386,-0.016593302,0.030950842,0.020294216,0.023502031,-0.05402055,-0.036601022,0.03581069,0.021889167,0.116166,-0.008058153,-0.0011700023,0.060898934,0.15845771,0.061276056,-0.06255847,-0.025184093,0.0030543911,0.018469851,-0.056517377,0.009106011,-0.02098115,0.20157683,0.051087294,0.061035857,0.026526546,0.104896896,-0.0100689875,-0.0012419344,0.073410355,0.008252961,-0.044477608,0.078965195,0.009334472,0.020502428,0.049769774,-0.011231632,0.044924963,0.07341345,0.18631215,-0.042039573,-0.042402305,-0.050337337,0.0035857216,-0.016884262,-0.026151724,-0.06605135,-0.06434944,-0.13472348,0.05946461,-0.02242998,0.023495048,0.0556763,-0.004299474,0.062282946,0.09925315,0.012896393,0.031050825,-0.002678111,0.0689892,-0.059007496,-0.0892587,0.079347186,0.012821228,0.044928093,-0.03725304,-0.035289567,0.047007546,0.02640063,0.03795368,-0.013815898,0.06881664,0.11955476,0.020225199,-0.06976594,-0.018750096,-0.07077565,0.03309534,0.03597573,-0.13828692,0.046794143,-0.0006443654,-0.014017749,0.105208434,0.066697255,0.01994011,-0.020194026,0.06061827,-0.011745675,-0.044622988,0.12476204,0.113054745,0.120386325,0.14777921,0.07154915,0.065154955,0.12746473,0.12795883,-0.0049365563,-0.018184187,0.038687978,-0.042130355,-0.079790555,0.029857973,0.06393792,0.08141903,0.026369559,-0.051347237,0.046312373,0.07114442,-0.019811338,-0.061799463,0.048735697,0.09652845,-0.055939946,-0.12175899,-0.023517285,-0.04289646,0.0045381794,0.013884943,0.057048373,0.10440613,0.12592055,-0.018002339,-0.010709129,-0.05844963,-0.0010254304,0.05265349,0.02007847,-0.011708023,0.025043951,0.055351753,0.0342479,-0.15621777,0.03232735,0.077227436,0.08482132,0.048557844,-0.14137717,-0.12087366,-0.037765265,-0.08196142,0.034938402,0.061399773,0.06882736,-0.023031535,-0.00088031834,-0.17041309,0.013753643,0.0794792,0.032386575,-0.08936069,-0.040016755,0.059743218,0.06648299,0.023972627,0.012408467,0.012260126,0.038175147,0.05497335,-0.07961215,-0.13130467,-0.05194083,-0.13212365,-0.16495569,0.07091017,0.1499398,0.0033866924,-0.01721733,-0.026048865,-0.0123675745,0.03352555,0.113035254,-0.06812316,-0.02349782,-0.077941984,-0.09738565,-0.028618926,0.08358981,0.053619687,0.017648948,-0.029894184,-0.029755848,-0.047490858,0.026810465,0.028839324,0.028171698,-0.03954907,-0.026722625,0.052009642,0.03382829,0.0037518034,0.09008873,0.017782852,0.015596141,-0.053166658,0.099211276,0.053592008,0.060267556,0.043638486,-0.04159525,0.10478744,0.13632874,-0.005647093,0.029142486,0.0033086105,0.03644131,0.103965506,-0.016845774,-0.06505049,0.06408831,0.12037852,-0.00931525,-0.018100273,-0.06919031,0.01539032,0.013390032,-0.055986095,-0.05233836,-0.084311776,-0.0374891,0.017249774,-0.01979259,0.034032296,0.14177833,0.01798234,-0.087629445,0.07986863,0.04718589,-0.046937797,-0.013143569,0.0025057998,-0.071162835,-0.04830989,-0.087493315,0.07457967,0.031201966,-0.06070119,-0.057076376,0.04203404,0.026052557,0.05622124,0.09415706,0.13142915,-0.07236296,0.10807568,0.08562701,0.03808503,0.093056366,-0.12456592,0.17325984,0.06516211,-0.05356695,-0.044290777,-0.13047847,-0.02693052,0.008611957,0.0069454242,0.019598389,0.092189394,0.101045184,0.07525633,0.09877349,-0.001087878,-0.0667299,-0.11026316,0.05094839,0.09029835,0.006174474,0.1650313,0.01899487,-0.0029478488,0.019444544,0.0340903,-0.012604778,-0.022273509,0.045689832,0.019110555,-0.01706058,-0.068077736,0.031233298,-0.040399276,0.043740936,0.012607883,0.094272785,-0.07928435,0.017625513,0.05210671,-0.0023859325,-0.06838325,-0.069094256,0.041941125,-0.1070249,0.06106382,0.09737053,0.021439804,-0.061572265,0.03510687,0.0065243263,0.027631361,-0.058768556,0.054700915,-0.016569708,-0.068013735,-0.020944836,0.15544076,0.0047523323,0.01872997,0.0049280426,-0.068571314,-0.016066706,-0.023202997,-0.017760245,-0.008258726,-0.0082267085,-0.075693734,-0.08915666,0.12981169,0.12941685,0.12599023,-0.2981223,-0.09334821,0.11773433,0.03735193,0.08746528,-0.16514014,-0.0739027,0.0139347045,-0.023949033,0.021117127,-0.10858788,-0.05943748,0.03779923,0.0061749574,-0.032622945,0.048426602,0.005571846,-0.048170794,0.051485065,-0.028787032,0.09456221,0.06963831,0.011992206,-0.06068912,-0.037204947,-0.021015914,0.10506504,-0.014988167,-0.03699305,0.02222258,0.07861069,0.079899445,-0.016149981,0.073328406,-0.027354255,-0.008671189,-0.002462187,0.017230732,-0.019013532,-0.07236884,0.037187386,-0.023087999,0.087766364,0.020807967,-0.012853664,-0.09574939,-0.2278099,-0.12235879,0.12058451,0.20015912,-0.018210458,-0.050461087,0.041811816,0.0022764546,0.007504486,-0.030052118,-0.021668153,-0.061889734,-0.020102706,0.02401575,-0.06488891,-0.17322628,-0.1491315,-0.02743695,0.048954844,-0.08422879,-0.02568084,-0.06102556,-0.058575194,0.007198434,-0.14769919,-0.08820262,-0.074887656,0.0055041146,-0.018409457,-0.04774773,-0.09639102,-0.09106999,-0.047920074,-0.003967891,0.08500354,0.020666346,0.06453425,-0.045036223,-0.10902771,0.08951393,0.06871481,0.013410749,-0.10191247,-0.0738132,-0.07909906,0.0059267664,-0.051605616,-0.029498223,-0.077282175,0.02247809,-0.00029839523,0.072643764,0.10476012,0.18269347,-0.009659287,0.038060434,-0.0481095,0.0014855462,0.021053482,0.009248649,-0.05982458,-0.05391494,-0.08549779,0.03430516,-0.011456169,-0.010959073,-0.04006225,0.020163702,0.0714051,-0.114203244,0.008829059,0.043107126,0.06977783,0.06396769,-0.018927924,0.059736922,0.115377136,0.06058136,0.055815134,-0.062150247,0.17628118,0.05363072,0.1335817,0.06664711,-0.007070835,0.0007210481,-0.12921682,0.088828295,-0.062466167,-0.028264489,0.03457897,0.018487224,-0.08174643,-0.10604387,0.1909733,0.08853798,-0.111169495,-0.085261405,-0.14528722,0.08820255,0.065037,0.007834719,-0.07409961,-0.043194752,0.09717728,0.03282159,-0.03844527,-0.12059162,-0.080121286,-0.034452874,0.016543508,-0.00036691653,0.098159686,0.019203866,-0.0072152386,-0.0648762,0.09404518,0.05324386,-0.0133301085,-0.09055198,0.01100135,-0.108397774,0.019029489,-0.06252824,-0.053869464,-0.08472866,-0.05228366,-0.058768548,-0.068747826,-0.07214978,-0.069274224,-0.10746034,0.09865732,-0.0105005475,0.08169618,0.0983024,0.13646825,-0.029646449,-0.00057619065,0.10109595,0.012213963,0.024555486,-0.004188929,0.112070076,0.0124300085,-0.034434717,0.09406999,-0.031909365,0.00916644,0.050606456,0.12927154,0.022150187,-0.012342728,-0.13391066,-0.15415996,-0.09443263,0.00314594,-0.07454879,-0.13053727,-0.10473109,-0.11698657,0.082187265,0.0057402942,0.003706092,0.01679425,-0.110418186,0.017746644,0.060018398,-0.04262545,-0.01556928,-0.068626545,-0.066807315,-0.040476117,-0.0732234,0.06558755,0.102991536,0.060285732,-0.07110807,0.037057694,0.07468014,-0.0013311883,0.013249056,-0.14686626,-0.11857125,0.0022895322,-0.004567598,0.0756918,-0.011765815,0.0002721294,-0.011141791,-0.00038986313,-0.003298528,-0.00014363951,-0.0755944,0.020378735,0.027560001,-0.015634464,0.057859607,0.06348416,0.0063963705,0.005070281,0.12406723,0.051510938,0.049692318,-0.009287031,-0.0009885969,0.017909303,0.07056063,0.054363374,-0.008086125,-0.058550112,0.015108901,-0.040231027,0.011036034,-0.07103275,-0.101576604,-0.053193364,0.029181061,0.04815291,-0.13257717,-0.11100087,-0.06317817,0.041519634,-0.0139367655,0.053639285,0.14308336,-0.0343807,-0.04676234,-0.016423767,0.09973072,0.10724134,-0.121829845,0.0066034766,-0.051721938,0.10343212,0.059665997,-0.00790375,0.1399241,0.18456846,0.00428356,-0.10160563,0.0035942642,0.22993633,0.02588322,-0.094958864,-0.033720154,0.10494548,0.036219206,-0.0051049967,0.061526086,-0.037009858,0.011970659,0.016352406,0.046205185,-0.026115108,-0.08175728,0.0768949,-0.055866603,0.07221127,0.042769328,-0.085943714,-0.06830415,0.11293014,0.07251073,0.024772909,-0.06297995,0.0073100096,0.020491514,-0.012008517,0.06849927,-0.024539564,0.032259434,0.06704041,-0.093461685,-0.099833034,0.044628255,0.020066857,-0.057047118,-0.017253272,-0.089457914,0.06874236,0.00773003,0.019814797,0.03228326,0.03683711,0.014152298,0.026275717,0.011074019,0.05939385,0.070740506,-0.04936702,-0.023794912,0.03458149,-0.038354844,0.035552207,-0.1320612,-0.0020147674,0.09544102,0.07816191,0.095612854,0.15179436,-0.023019644,0.022139149,-0.09084695,-0.013269713,0.049284678,0.12716122,0.10928767,0.08608288,-0.005631324,-0.06481867,-0.11184022,0.111378625,0.035793588,0.023078393,-0.074337795,-0.08470068,0.06363827,0.032095034,-0.03934531,-0.17301933,-0.10362337,0.06212391,0.06582374,0.076303184,0.14741834,0.013133533,0.059629157,0.042542826,-0.005499564,-0.026208255,0.14061566,0.084588684,0.11633346,-0.040005095,0.15594903,-0.06304097,0.066769674,0.027190462,-0.091379955,0.052967284,0.100136064,0.02541365,0.01371337,-0.0060559185,0.041675624,0.00043275172,0.053899884,-0.06602136,0.025095252,0.17265248,0.0021407725,-0.13534746,-0.13436894,0.018325277,0.10925046,-0.19791059,-0.1449558,-0.08709259,0.11149915,0.058490932,-0.043678276,-0.06521664,-0.046837326,-0.020033982,-0.04936943,-0.04194568,0.022328964,-0.011062228,0.019254567,-0.044425607,-0.11871518,-0.05342857,-0.16394056,0.0695801,0.051858094,0.00396288,0.07247807,0.062932566,0.027253935,0.16136539,0.07788258,0.035305243,0.058624182,-0.0094674425,-0.066896886,-0.126962,0.026891291,0.16294019,0.013668006,0.064370126,-0.02120338,0.05231173,-0.055846367,-0.023198895,-0.058762457,-0.009166439,0.08238242,-0.008107267,-0.021841025,-0.061822683,-0.086518444,-0.100498065,-0.07767082,-0.0026753242,-0.041717086,0.013034005,-0.049553577,0.0052160444,-0.066206604,0.005901641,-0.09145174,0.06579187,0.0025333345,-0.0034943875,0.15155074,0.06576314,-0.021882312,0.025668187,0.0066323886,-0.036401592,0.07115261,0.08730613,0.16895796,-0.015361414,0.096174344,0.0868318,-0.01841546,-0.00394984,0.04446636,0.029158555,-0.05883232,-0.03726243,0.075567886,0.05086861,0.05435095,0.008633048,0.07092063,-0.013272997,0.09350078,0.108515516,0.20309813,0.02982201,0.026597882,0.095526055,0.040730674,0.096233055,0.07553717,-0.021481443,0.047912553,-0.06341737,0.044008244,-0.12303655,-0.025016155,0.080079265,0.050101556,0.015131801,0.06012152,0.022091528,-0.04350064,0.002687025,0.09832993,0.03295704,0.02050864,0.031891048,0.060511846,0.08102608,0.018437436,-0.0020521842,-0.11663115,0.028992152,0.046111703,0.013318088,0.11274405,0.05018862,0.028762948,0.000641316,-0.064315654,-0.021287546,0.06864978,0.17041247,-0.1592517,-0.10866534,-0.11602854,0.033331838,0.028973522,0.08978144,-0.058256913,0.034074843,0.09919367,0.0038984567,0.009974209,-0.03474339,0.1018037,-0.018515619,-0.027878897,0.0054851724,0.007395395,-0.0690223,0.0040865564,-0.024243679,0.019435966,0.0053705727,0.032526646,-0.020971177,0.033380058,0.03848845,0.094680026,0.07611439,-0.048477743,-0.13809991,0.06096282,0.11752612,0.13620232,-0.022405693,0.054883618,-0.04606322,0.1475979,0.020292023,0.008762229,-0.0804121,-0.02721193,-0.037451968,-0.032857005,0.017089535,-0.05533216,-0.054735232,0.043659016,0.16583344,-0.001723755,-0.035817306,0.01389902,0.059056975,0.105453506,0.12870607,0.06708168,-0.012130474,0.0924862,0.0731678,0.07192919,-0.073525734,-0.073414974,-0.036126263,0.06941234,-0.021285515,-0.09825201,-0.012221417,0.01444452,0.10644274,-0.03035811,-0.091017865,-0.07172761,0.0021215037,-0.021628622,-0.08809543,-0.060870513,-0.0005180428,0.11026636,-0.050860606,-0.098881476,-0.09445371,0.018623365,0.098560505,0.012736718,-0.02449573,0.019707372,-0.03029132,0.052605737,-0.12620385,-0.055842496,-0.062587194,0.0039395313,0.031495593,0.006759099,0.05609199,0.08054387,0.009589965,0.024174428,0.06956155,-0.06289702,-0.009955321,0.06636408,0.071748674,0.008484447,0.020015504,0.07181019,0.12547114,0.123282485,0.0045906897,0.059438497,0.113151476,0.09337146,-0.019648662,0.0063973833,-0.050365947,0.06959506,-0.06681654,-0.06516667,-0.06258724,-0.00914411,0.010870615,-0.0062294244,0.006417481,0.13497064,0.052845027,0.022395363,0.06577469,0.035396148,0.045854308,-0.047672406,-0.115941636,-0.14179248,-0.06440098,-0.070709765,-0.115825444,-0.048746154,-0.055970702,0.0056301095,0.002964275,0.0332791,-0.024765842,-0.006612907,0.058483742,0.011713116,0.1320841,-0.00507206,0.025644122,-0.04869177,0.10031883,0.13526501,-0.07407409,-0.01877287,0.030156743,0.048026536,0.021186251,-0.05643657,0.0156198125,-0.074977666,-0.018216385,0.07689899,0.010299478,0.06310773,0.007598824,0.057433803,0.003063541,0.06823772,-0.06411127,-0.10419547,-0.009406603,-0.0074006133,-0.0011592375,-0.0069835624,-0.00091032055,-0.045793623,-0.012760942,0.010759645,0.045714267,-0.030398047,0.011627843,0.042993184,-0.040822975,0.10843583,0.07329028,0.081405796,0.04031345,0.05726799,0.08039653,0.03312041,0.05243377,0.08236555,0.08084242,0.10158945,0.04991193,0.008475766,-0.031176057,0.024500294,0.12280527,-0.04172082,-0.08320741,0.050818834,0.023360474,0.00031354825,0.016573856,-0.019898755,-0.026364243,0.034924906,-0.02319732,0.012078453,0.02984256,-0.14117749,0.044067834,0.029597243,-0.041352205,0.09013066,0.022785615,0.14572296,0.043958455,-0.04234413,0.05477081,-0.0783794,0.046747282,0.07461037,-0.07792834,-0.091664985,-0.07143882,0.015234688,-0.020526154,-0.080764264,0.054966673,0.01368735,0.14424132,0.04312649,0.040293314,0.036688685,0.019394327,0.04650386,0.11644842,0.014848583,0.03450863,0.019973997,0.030730465,0.027550172,0.012732331,-0.023012256,0.008180625,-0.07746078,-0.18325254,-0.02393959,0.12981479,0.05039058,-0.067498125,0.0536115,-0.020077413,0.06220998,0.11955507,0.004148709,0.13273413,0.02702685,0.058416907,0.061636012,-0.037746962,0.04327318,0.028005688,-0.008909721,-0.045238476,-0.076245755,0.025851365,-0.015414552,-0.03398277,0.021477427,-0.13450116,0.111171566,0.11841207,0.084937416,-0.121604115,-0.07195801,0.022365037,-0.037434496,0.05692268,-0.034509294,-0.1472554,0.041859917,-0.027603846,0.026269233,0.069336854,-0.027671874,0.07207781,-0.02364198,-0.0555928,-0.010406939,-0.08557634,0.0053907544,-0.057101216,-0.07439637,0.096866794,0.13667113,0.09315306,-0.0020843642,-0.035210796,0.111178406,0.10169941,0.025763027,0.0042161364,-0.082604565,0.10685112,0.048133235,0.058740173,-0.010334689,0.058728084,0.12326269,0.08659164,0.12398245,-0.022452896,0.02492149,0.04880166,0.044257008,0.13247235,0.043907464,0.15592574,-0.06025698,-0.117787376,-0.089870825,0.15380903,-0.026480041,-0.020197734,-0.18160518,-0.025049238,-0.093250416,-0.05190579,0.012576543,-0.13885367,-0.089671396,-0.059065625,0.053221263,0.040451348,-0.16397281,0.012222569,-0.0061048567,-0.013319806,0.09632947,-0.06250454,-0.04413019,-0.050484437,0.016441979,-0.11995758,-0.06662721,-0.06488042,-0.053292103,0.025286328,0.05388686,-0.029264176,-0.20252264,-0.032980043,-0.030702082,0.14699684,0.058382623,-0.13993768,-0.00909668,0.034500547,-0.018800758,-0.03321179,-0.028246665,0.114764005,-0.049903255,0.004919709,0.014924089,-0.05621484,0.03005668,-0.09029453,0.027645862,-0.044846196,-0.009466577,0.08173229,0.022281699,-0.051627737,-0.010068775,-0.08040692,0.027169768,-0.019678885,0.14561294,0.048544493,0.02009068,0.08319448,0.0126081165,0.004081414,0.028981013,-0.029688949,-0.061191715,-0.038501687,-0.10982813,-0.015953265,-0.014550185,-0.02681319,-0.033166517,-0.097204,0.15356608,0.08005409,-0.0016568787,0.020721355,-0.010734125,-0.052325137,-0.006692863,-0.01736437,0.17932872,-0.103983514,-0.043974843,0.058521044,0.052470338,0.13988066,-0.017959459,0.13567773,0.106905565,0.008764857,0.041970946,-0.071869664,0.12506656,-0.017520472,-0.03533154,-0.1645305,0.11931628,0.029827455,-0.0808969,0.0042178677,0.029186063,-0.024644716,-0.014660624,0.0153784985,-0.009293404,0.025859337,-0.011340417,0.015545064,0.051162027,-0.028751582,-0.044773668,-0.04301764,-0.017379852,-0.061401427,-0.118907474,0.013212177,0.0042266306,0.07945444,0.021530729,0.036297034,0.030006735,-0.13756527,-0.019264853,-0.15835606,-0.01019792,-0.048726685,-0.1707309,0.0020713496,-0.14330314,-0.016676016,0.08054599,0.038158767,0.0475595,-0.016188132,-0.004580896,-0.0458615,-0.009926466,-0.12578335,-0.122698724,-0.051365394,0.06416062,-0.04724944,0.044106495,0.013990028,0.03996123,0.0815814,0.040124536,0.032877333,0.055336893,-0.04557812,-0.008911648,-0.13403207,-0.06343853,-0.09842391,-0.05516627,0.08124445,-0.048495755,-0.057722133,0.12232489,0.029289337,-0.055903994,0.099654466,-0.032402057,-0.044955388,0.020066872,0.024562737,-0.047288913,-0.062201597,-0.051184323,0.091550454,0.049075294,0.16653007,0.031756457,-0.020899734,-0.087017454,0.07256786,0.094562955,-0.077340886,0.09055106,0.0075917146,0.020971432,0.1582806,0.05341785,0.15902612,0.09728592,0.023801561,0.025308762,-0.01441931,0.09441056,0.018767236,-0.08315071,0.03102986,0.10415141,0.13286379,0.049028106,0.12656699,0.06855349,0.11038798,0.012960774,-0.04903502,0.043514602,-0.012821784,-0.06371162,-0.032501906,-0.02829753,-0.032120295,0.0034355803,0.04498118,0.049151838,0.09473701,0.11296864,-0.08657864,-0.19360022,-0.026320687,0.010148616,0.037782367,0.014718237,0.061336234,0.017332546,-0.08977863,-0.039025128,0.06052459,0.028321069,-0.08695033,-0.056431875,-0.007964641,-0.0131668905,0.06585309,0.11804448,0.056225207,-0.025663797,-0.04593184,0.02854423,-0.07375667,0.022173388,-0.025814377,-0.05179592,-0.095867604,0.04588278,-0.09805191,-0.08017658,0.047293622,0.030624822,-0.057482343,-0.112093255,0.000634381,0.008514598,0.079861306,0.100809924,0.036147803,-0.021268098,0.04205544,0.010857035,0.050366554,0.14393197,0.14322494,0.17827225,0.035488673,-0.05199625,-0.047207754,0.064291,-0.03978169,0.075264424,-0.018583806,0.063760675,-0.06778335,0.0142583195,0.002528262,-0.040144462,-0.030804701,-0.018057367,0.05453972,0.039961807,0.09456069,0.0003759672,0.020863468,0.00024580627,0.076852344,0.07368834,0.0019642315,0.015100869,0.06938022,-0.07261905,-0.063394964,0.027752785,0.07215239,0.012262283,-0.11534871,0.01574409,0.02945527,-0.05632996,0.0012596473,0.066595994,-0.072271176,-0.0071377554,-0.06606403,0.021806542,0.11789177,0.15063627,0.23188184,0.11851018,-0.05227049,0.04068042,0.11737488,0.074359,-0.016334042,0.028874302,-0.015585629,-0.10541677,0.0054202033,-0.024889192,-0.10709526,-0.031050434,-0.042092603,0.06930317,0.038695373,-0.030163003,0.02987562,-0.020832645,-0.17583558,-0.049404804,-0.025316996,-0.036516584,-0.017814443,-0.03084487,0.12836346,0.012290952,-0.062571466,0.021587566,0.085401185,0.11262159,0.027024066,0.115275756,0.1850005,0.09795197,0.014087502,0.13242596,0.061789803,-0.03405132,0.04501928,0.035686444,0.008949181,-0.024815883,-0.027396826,0.07839142,0.1406112,0.07361677,0.0786365,0.013738831,-0.053445335,-0.04402243,-0.03594647,0.030724349,0.03642027,0.028430527,-0.025746131,-0.11448281,-0.08497963,0.028639706,-0.013116361,-0.04764469,-0.040935762,0.047652006,0.039028272,-0.009161517,-0.15526818,0.032534547,-0.022097291,-0.0047350596,0.0111556,-0.12944311,0.013695804,0.110278524,0.067382336,0.09658681,0.039983436,0.08405299,0.13330579,0.13849264,0.04299203,0.10941402,0.10038374,0.13225567,-0.07350313,0.020422798,-0.017757041,0.059224017,0.0076397965,-0.0246217,0.05259237,0.028072417,-0.05176804,-0.055268563,-0.06515206,0.04993817,0.0675182,-0.008469902,-0.113624655,-0.08204818,-0.01006199,0.01531744,-0.122329585,-0.06904083,0.03081158,-0.08485949,-0.15123239,0.03590146,0.07877123,-0.0056619486,0.04023724,0.01944935,-0.018642386,0.053108435,-0.0017729927,0.10483657,0.19325654,-0.03410723,0.058007006,-0.033301834,-0.0067465235,-0.09833694,0.008084056,-0.009878224,-0.1238383,-0.07184714,-0.010086472,-0.012068188,-0.13466723,-0.10436166,0.0006398998,0.049065344,0.069668815,0.06768578,0.15238908,0.068645954,0.018911498,0.108553424,0.103014596,0.029196268,-0.0054759006,-0.02096657,0.06593756,0.035876397,-0.063351855,0.03296902,0.08677454,-0.030971885,0.04138788,0.1278857,0.098661505,-0.013330482,-0.030518226,0.095548384,0.030766997,-0.01533059,-0.03596964,0.012718097,0.051016226,0.0007538764,-0.025528248,0.005514004,-0.034039266,-0.050611496,0.005740878,0.011925647,0.05120956,0.14488856,0.061140668,0.0456875,0.05793365,0.1154028,0.014047823,-0.047380824,0.05682362,0.011908755,0.038401008,0.11098733,-0.028850077,0.09831498,0.062044527,0.059440237,-0.000544743,0.035210367,0.12435401,-0.0053170845,0.06699053,0.018169986,-0.109198466,0.0826059,-0.044174068,-0.0717733,0.032530542,0.016059097,-0.037138276,-0.056830432,-0.0750849,0.07115523,0.12520553,-0.027200526,-0.06510625,-0.019719664,0.019593118,-0.008191123,0.045843553,-0.055770043,0.022389954,0.025371842,0.011464081,-0.018145679,0.17512499,0.09814437,0.10540746,0.030822858,0.0125273615,0.007615023,0.01975842,0.032410298,0.024447389,-0.01552584,-0.05376346,-0.087301254,-0.11831386,-0.026760865,0.0976268,0.17218255,0.079466745,0.0014106812,-0.000904521,-0.048891343,0.02478655,0.04112336,-0.0357554,-0.18963243,-0.102815345,-0.0016991012,0.094311,0.023589812,0.05832815,-0.0053244988,0.019992223,0.13543855,0.07180523,0.055406373,0.041511264,0.022208609,0.03100212,0.12530397,0.07419769,0.09344096,0.045108534,-0.038807403,-0.023641372,-0.04551596,-0.055273637,0.0298255,-0.17073059,-0.08483629,-0.046698313,-0.17123125,-0.09713688,0.03771209,0.06883897,-0.00026357538,-0.092792474,-0.06199061,-0.00084259384,0.0036158413,0.0068462375,-0.004367302,-0.006226585,-0.09948986,-0.010263571,0.09304447,0.059864335,0.01920358,-0.07168562,0.017682048,-0.018318668,0.022766938,0.050290722,0.005374562,-0.022360029,0.07276014,-0.07746053,0.009915436,0.057485905,-0.046424646,-0.05458444,-0.11131584,-0.075796545,0.040572494,0.03221997,0.02294784,-0.00026653093,-0.02407926,0.0983426,-0.02664274,0.012499673,0.052138157,-0.10954308,0.021158788,0.038890578,0.04437396,0.07048326,-0.060370326,-0.07201118,0.04133643,-0.025718866,0.07684199,0.047358815,0.14707549,0.04036472,-0.016025474,0.017072625,0.088446304,0.0009940857,-0.013146085,0.032683,0.0138315875,-0.12687156,-0.04830851,-0.029446425,-0.07643064,0.13775906,-0.006806813,-0.085017644,0.030536756,0.0097100865,0.021843279,0.04489795,-0.07373018,0.06669115,0.039181974,-0.031230967,-0.084886186,-0.09947805,0.054895442,-0.022369942,-0.028248612,-0.08288758,-0.138875,0.109713435,0.013682769,-0.19920373,-0.15829627,-0.11817862,-0.07652501,-0.042088132,0.03669262,0.010497591,-0.017915824,-0.007860785,-0.016669616,0.04863269,-0.015321167,0.021638729,0.08096628,0.17130321,0.018647583,0.055140678,0.04033799,0.015747244,-0.007924291,0.061577912,0.09934922,0.12062904,-0.04682631,-0.20868307,0.061481237,0.02240729,0.092512034,0.043310616,-0.048155747,0.015329328,-0.016486716,0.07804302,0.056512058,0.06787835,0.013355567,0.07485226,-0.004274494,0.025504893,0.07214316,0.08630857,-0.051108014,-0.051005766,-0.04515138,0.11846207,-0.0027362227,-0.052261215,-0.06978397,0.085417114,0.11316091,-0.007319915,-0.06676622,0.009159328,-0.003835174,-0.066771165,-0.060383264,0.11646475,-0.010339279,-0.07500192,-0.09695871,-0.023661498,0.08046601,0.026407689,-0.05446228,0.043644454,0.0168092,-0.048852287,-0.008939762,0.057891198,0.045065053,0.09742487,-0.016637528,-0.024877524,-0.03169016,0.16936044,0.18143025,-0.017611252,0.025644206,-0.06743355,-0.11290532,-0.07977649,-0.06848447,0.030582562,0.065714285,0.060012907,0.028662864,0.0023946583,0.11384914,0.040163342,-0.023083575,-0.028176468,0.14738674,0.10704791,0.0850793,-0.02652955,0.021582207,-0.018393135,0.07663425,0.0071758106,0.12974949,0.21178406,0.054620087,0.013599357,-0.01856384,-0.059157066,0.045044217,-0.041020166,-0.04721542,0.014095375,-0.08383884,-0.1070505,0.040603817,0.01643001,-0.09343124,-0.23816842,-0.0077220695,-0.051811002,-0.10811689,0.0143663315,-0.06786809,0.044825833,-0.0789001,-0.035707977,0.0027541043,0.039737,0.090435505,0.08965825,-0.0069922446,0.04493184,0.06683323,0.1031619,-0.025006544,-0.036037736,0.089585654,0.03737892,-0.015105796,0.095247775,0.120901056,0.061836563,0.085165754,0.03497092,-0.037032463,0.031179521,-0.07836999,-0.029345615,0.038792104,0.051103856,0.04289744,0.045725588,0.0301674,0.03084954,0.015686743,0.06697585,-0.039581675,0.020469496,-0.007928574,0.02724789,0.041746616,-0.0031447257,-0.021745091,0.040748276,0.014626149,-0.041760013,0.058649164,0.08926202,-0.012901178,-0.06582403,0.08450516,-0.058544505,-0.021689592,0.040040236,0.023144977,-0.073882654,0.19343543,0.071311146,-0.01919891,-0.21871136,-0.091326885,0.0114360815,-0.012586199,-0.02511904,0.07252109,-0.048452746,-0.010213934,0.058539517,0.005092151,0.01607863,-0.013425901,-0.0068478025,0.060484886,-0.013923561,0.0023342147,0.040532343,0.067910776,0.09474499,-0.052736633,0.15435122,0.020962864,0.01703992,0.1256794,0.044705056,0.038986355,-0.049512994,0.0062597375,-0.0054389974,-0.055964723,0.025921747,0.07563497,-0.025748994,-0.067276455,0.060819093,0.108106904,0.008966285,-0.019419901,-0.0073670074,-0.019060543,0.084609576,0.09961303,-0.04913751,0.065657794,-0.060671493,-0.08111133,-0.06674047,0.06336518,0.12625183,0.014480759,-0.14401259,-0.018665107,0.011560488,-0.043098453,0.010978059,-0.049693543,-0.018747797,0.022358418,-0.091110155,0.09678035,-0.023671031,-0.10131361,0.049063984,0.0046799276,0.093313016,0.011908935,-0.064541996,-0.061225686,-0.06349657,-0.061019413,