0.052284777,0.0008030698,0.01915309,-0.017687019,0.027864782,-0.03124634,-0.02866907,-0.040317137,-0.024522638,-0.049144357,0.007826384,-0.010898557,-0.014348113,0.0509423,-0.038291093,-0.05166756,-0.014537129,0.04996945,-0.002687587,-0.0190237,-0.006614508,-0.0046426407,0.02570944,0.005138542,-0.020860603,-0.03730232,0.0407033,0.046077766,-0.03161528,0.006618487,0.018524125,-0.010249171,0.014908043,-0.018060666,0.03708379,0.0038444423,-0.02499706,-0.027141893,0.00122713,-0.023393814,0.03553283,-0.023830753,-0.018394288,-0.009411283,-0.01900018,0.062582694,0.03726542,0.027997535,0.016045995,-0.047172774,0.04412469,0.033107374,0.018578768,0.04578353,-0.040038258,-0.02344819,-0.013086587,-0.03970976,0.0016071894,0.037992038,-0.043715768,-0.030324606,-0.04495421,0.031528123,0.02716054,0.022546925,-0.015850522,0.03864623,-0.024718812,0.043670814,-0.048364352,0.0028793516,-0.010554828,-0.05403296,-0.041972518,0.051889315,-0.024516016,0.003510275,-0.016245205,-0.0018829607,0.011880493,-0.019091714,-0.042997018,-0.038548786,-0.032349486,-0.01579593,0.052374277,0.029523632,0.01792501,-0.0115807485,0.012072768,-0.042447012,-0.033008985,-0.026209023,0.015062818,0.014577976,-0.0053614746,-0.007316642,-0.021666167,-0.015033077,0.027032286,-0.0030061083,-0.0017762175,0.005460016,0.013708357,0.05251683,0.0005743879,-0.028184773,0.013361397,0.026286699,0.0070484304,-0.0055778893,0.035166435,-0.01993531,-0.015442629,0.0037352324,-0.030118141,-0.018231666,0.015997129,0.010121924