-0.0071058515,0.04571979,0.06772037,0.064891815,0.023020672,0.076679416,0.073447935,0.05604464,0.057266325,-0.0794906,-0.0049692127,0.028165985,0.037482783,-0.078861974,0.02326271,-0.081388816,0.06536104,0.056114458,-0.058289435,0.02557293,0.055639982,-0.01774807,-0.07838494,0.066193946,-0.07887165,0.035700142,0.010559106,0.04147034,0.064200975,-0.0329655,0.025441809,-0.037276544,-0.08017719,-0.05035582,-0.07490487,-0.036613088,-0.076372094,-0.013933501,0.06769328,0.06041292,0.02896052,-0.013905454,0.0049668644,0.029143276,-0.007302547,0.048075136,-0.058172185,0.021866243,0.09648054,-0.07300984,0.030459004,-0.03886168,0.06631376,0.07553084,-0.03175796,-0.03249893,-0.04362078,-0.075360104,-0.032268558,0.047322884,0.016643362,0.06615222,0.036728226,-0.012512854,0.08645845,0.07999511,-0.002940753,-0.050101027,-0.059622128,0.067416966,0.025333581,0.077428475,-0.06632817,0.092373714,0.028627878,0.048100013,-0.07085014,-0.0423895,-0.030744066,-0.034790497,-0.09799735,0.06918794,0.014316726,-0.06295233