-0.06734601,-0.07286392,0.07209591,0.0018687085,-0.019386454,0.011362726,0.03201956,-0.08297813,0.01954193,-0.0871936,-0.024035275,-0.05520187,-0.018209906,0.0475556,-0.02232933,-0.043322433,-0.003087833,0.044633336,-0.08015597,-0.054348674,0.011133339,-0.05832477,-0.088746935,0.07360601,-0.06315203,-0.034407444,0.0066064475,-0.0055152294,-0.0332522,0.01491016,-0.019344982,0.009916972,0.02781281,-0.01999938,0.024030147,-0.032813672,0.017325642,-0.09213649,0.020030886,0.06595206,0.018445428,0.009213312,0.06688208,-0.06321819,0.05894914,0.011468705,0.015413867,-0.038717467,-0.011277434,-0.054582216,0.04987262,0.018618964,0.01698525,0.09077082,0.028501773,-0.04640294,0.057260934,0.07852406,-0.051711984,-0.040204756,-0.05654229,0.01118973,-0.01750536,-0.027597426,-0.06978664,-0.079498164,-0.02543492,0.035583448,0.04509395,0.078242764,-0.040488206,-0.03839191,0.018841663,-0.054480575,0.08744275,-0.017529696,0.011841827,-0.016866885,-0.05462388,0.03389091,0.031331647,0.029212484,-0.052063186,0.061232645