-0.21266966,-0.26716706,-0.0014768164,-0.23646568,-0.39359948,0.25350437,-0.34644604,-0.35615787,-0.18184392,0.005030697,-0.08235588,-0.040500164,-0.17080174,-0.32250804,0.19843939,-0.18290055,0.26976678,-0.14654742,-0.1208546,0.3213188,-0.33585015,-0.18255094,-0.19557098,0.2123692,0.26411006,-0.28060156,-0.2608272,-0.34146756,0.28736275,0.18503495,0.19394048,-0.34876302,-0.10242215,-0.16586222,-0.2625692,-0.40545458,-0.25565988,0.31941554,-0.2761824,0.10389948,-0.4387388,0.25734997,-0.2827878,-0.34321418,0.09010076,-0.38520634,-0.23567481,0.27806666,0.23120584,-0.24711911,-0.20787992,-0.20676818,0.2729204,-0.2626432,0.18413867,0.2937958,-0.25800702,-0.24671288,-0.3216773,0.120443165,-0.24510607,0.057190515,-0.42170858,-0.33239135,-0.22873987,-0.036109798,0.31018704,-0.041998114,-0.30623484,0.23271671,0.2561079,-0.06834241,0.15067974,0.18186735,0.068845786,-0.19335085,-0.3429473,-0.2943044,-0.33534172,-0.17754947,-0.0227394,-0.1573459,-0.35148785,0.1805595,-0.08263627,-0.22258626,-0.13358656,0.3439128,-0.11645406,-0.19445246,0.13270278,-0.28223082,-0.020747382,-0.26577365,-0.17142893,0.29293442,-0.04818469,0.24860902,-0.3467735,-0.15625566,0.24981636,-0.33179402,-0.40798903,0.21149135,-0.35106987,-0.42760453,-0.2855607,-0.1216204,0.2377375,0.2331569,-0.07399967,-0.36843732,-0.13296668,0.15790106,-0.26199317,0.19044048,0.26777962,-0.14539933,-0.21921083,-0.3009203,0.1966372,0.088508286,-0.2219388,-0.3406091,-0.19463098,-0.19298008,0.22463901,0.28908125,-0.19850567,0.18115036,0.07661566,-0.21670201,-0.27281192,0.27024895,-0.32267043,-0.09916814,-0.17623502,0.11079943,-0.039968982,-0.20879798,-0.22611593,-0.091881104,-0.077501535,-0.3579128,0.10856456,0.24868442,0.037323352,-0.19718364,0.124657854,-0.1681896,-0.32890415,0.16655861,-0.04117891,-0.20563345,-0.12585798,-0.33114538,-0.29763758,-0.18959454,-0.10636809,-0.13572907,0.28843495,-0.20672022,-0.07009136,-0.29428253,-0.00064292864,0.2792716,0.097316444,-0.22182421,-0.29016852,0.102214776,0.24765827,0.17064962,0.23385465,-0.11343705,-0.26649153,-0.15431021,0.17514019,-0.39607444,-0.4018401,-0.2639052,-0.23358817,-0.36172515,0.011418328,-0.09382605,-0.21910433,-0.108055994,-0.0004970302,0.20677966,0.1704688,-0.31981173,-0.2901379,0.286784,-0.28623545,0.24699898,-0.12096277,-0.38659006,0.042448904,-0.3396397,0.19740681,0.010379586,-0.007278862,-0.35044318,0.27613065,-0.16598451,-0.0001105049,-0.33163285,0.31477994,-0.16274625,0.11362644,-0.3477968,0.11156404,-0.44564882,0.28146917,0.2139625,-0.29461688,-0.23366715,0.22635172,-0.3232389,-0.18257776,-0.022069024,-0.15733667,-0.17661083,0.23645459,0.018034311,0.23284703,-0.28437474,-0.302681,-0.2549197,-0.4686877,-0.29558322,-0.22751205,-0.25407037,0.22573087,-0.26854488,0.11661021,-0.019988157,0.19485585,-0.08847578,-0.4716531,-0.15335405,0.2522098,0.13701122,-0.36229783,-0.39986587,0.26094216,0.23925807,-0.35998836,0.16757229,-0.16831717,-0.214581,-0.13467291,0.07210659,-0.29364982,-0.31750533,0.074323006,-0.30852816,0.18247144,-0.21177118,-0.11479946,-0.287676,-0.23918341,-0.311817,0.23156214,-0.3798282,-0.4682174,-0.5201669,-0.32448286,0.15751593,-0.25377756,0.2675174,-0.19266343,-0.38503802,0.056648627,0.24027307,-0.011194269,-0.20478137,0.16425419,0.23546793,0.17731234,-0.18732186,-0.30803943,0.07345244,-0.35559574,0.2592537,-0.2922147,0.27782446,-0.2997066,-0.20220722,-0.41673735,-0.21686217,-0.35847273,0.29936323,0.22296141,-0.40164766,-0.41181728,-0.02568481,0.23656873,0.17926191,0.2044473,0.22999127,-0.25615907,-0.0014730621,-0.004447959,0.24981628,-0.1884354,-0.020291852,0.14259844,0.10481176,-0.050265353,0.28518546,-0.2194681,-0.21160547,-0.31901228,-0.25267205,0.2011303,0.22148906,0.24935149,0.10146253,0.24058026,-0.2542568,0.07576272,-0.38313335,-0.29710537,-0.25358698,-0.10767281,-0.08465281,-0.04797729,-0.4173397,-0.3472631,-0.04296078,0.11064749,-0.2991805,0.2667427,-0.27400562,-0.22753015,-0.405515,0.24331094,0.047935687,0.2515937,-0.17037714,-0.15920916,-0.22304867,0.108280905,0.0038842233,-0.0884183,0.13836107,-0.097281285,-0.026624035,0.16189907,0.28965956,-0.2334025,-0.2265401,0.17752737,-0.48253828,0.19018555,-0.29210678,-0.26209423,-0.4146966,-0.0152119,-0.26223737,-0.31549335,0.0078872135,0.21997973,0.16172147,-0.26439437,-0.25896078,-0.12776966,-0.28955767,-0.29136726,0.07062874,0.21636708,-0.08083452,-0.25908893,-0.20903614,0.10177818,0.10640824,-0.42093304,0.17076619,0.018250296,-0.2009057,-0.18494612,-0.37155014,-0.09385792,-0.3179557,-0.1712042,0.12181417,-0.23647694,0.3409649,0.024272686,0.2801975,-0.19906177,-0.15547247,-0.24933846,0.23193207,-0.09666829,-0.40185305,-0.22332089,-0.12474836,-0.20846109,-0.32589677,-0.31388488,-0.2073809,-0.45032105,0.20674916,-0.057786718,0.30853218,-0.37077025,0.24354835,0.016925596,0.13928138,-0.34200078,0.2942687,-0.06245532,-0.0947583,0.21646595,-0.28052285,-0.31959355,-0.2910379,0.2514522,0.092092976,-0.18838608,0.010296247,-0.21125124,-0.2931557,-0.30161119,-0.29701364,0.28850955,0.19044024,-0.2110194,0.053900342,-0.07903502,-0.15371639,-0.44305402,-0.06219411,0.17824644,-0.12696914,-0.15533602,0.23666874,-0.12769514,-0.33479932,0.056933954,0.1886461,0.24922171,0.12465501,-0.14025652,-0.119784035,-0.21221063,0.2180104,-0.12520668,-0.28901199,-0.43602023,0.2008339,0.14738454,-0.08197647,-0.27475533,-0.36588493,0.17916015,-0.3446026,-0.026759317,0.009229423,0.101749286,-0.3430814,-0.4707353,0.28079507,-0.2117558,-0.24328043,-0.06749515,0.13996758,-0.21839921,-0.41739494,0.24009472,-0.057300415,-0.31600398,-0.27161616,0.1623222,-0.33528757,-0.42577958,-0.22050637,-0.123049036,0.17582583,0.24754728,-0.2797756,-0.20101751,0.27837,-0.3813526,0.13335909,-0.2724111,-0.34855226,-0.19075985,-0.15026836,0.13744615,-0.08976262,-0.15644343,0.2508746,0.19935678,0.14929265,-0.30290505,0.24328569,-0.08088974,-0.20830205,-0.11556214,-0.12024099,0.18729267,0.18104553,0.076742165,-0.30690598,-0.2634714,0.3216909,-0.28527257,-0.41199568,-0.2950017,0.27120686,0.21171969,0.20697306,0.20285532,-0.32919303,-0.35837346,-0.23480143,0.25914147,-0.31002393,-0.030796906,0.24631134,-0.3150293,-0.3518082,-0.44350576,-0.19023591,-0.3318961,-0.11561314,-0.09769766,0.05364375,0.15442488,-0.13996059,0.1861557,-0.09419425,0.20973706,-0.33200666,-0.052666593,0.18746224,0.039473243,-0.2079677,0.19262056,-0.14295444,-0.19204457,0.09608142,-0.16306643,0.23899442,-0.27860007,0.09263003,-0.16642506,-0.033534113,-0.14734697,-0.0027661903,-0.17326689,-0.28542736,-0.35069934,-0.21848749,0.22462937,-0.27269801,-0.3982637,-0.3316642,-0.37648082,-0.30513546,0.27639854,0.1349749,0.27757365,-0.13473924,-0.38274464,-0.3636792,-0.19238368,-0.011060962,-0.377139,-0.38777095,0.26357472,-0.31210002,0.2201297,0.18618403,0.2480443,-0.33173573,-0.2526995,0.19521144,0.108313374,-0.010019665,0.17927039,-0.31035993,0.06826752,-0.23889661,-0.2884686,0.20921052,-0.30147108,-0.1946998,-0.27962515,-0.23016748,0.065391175,0.22002418,-0.42244637,0.20607138,-0.24356805,-0.32140714,0.038129784,-0.09883743,0.17147261,0.04730305,0.11594323,0.22758015,-0.29836512,0.07277628,-0.31184736,-0.12024958,-0.27574465,-0.30011335,-0.3721825,-0.12648441,-0.15353496,-0.2990252,-0.16105944,-0.41666448,-0.239405,0.01853806,0.15657978,-0.1390565,0.10092248,-0.28945515,-0.06299817,0.22491707,-0.24671072,-0.078489825,-0.030757934,-0.23147549,-0.33324298,-0.082493864,-0.07097149,-0.3307926,-0.20973414,0.20936805,0.18471886,-0.43746036,-0.18020558,-0.31136295,0.18407083,-0.38995054,-0.3615878,0.25750715,-0.26919314,0.2591182,0.15178175,0.22043568,0.23903877,-0.3373314,-0.16222876,0.19831249,0.18387325,0.11623906,0.0068742353,0.29342237,-0.0641306,0.26697752,-0.2339672,0.23658943,0.05197545,-0.2964572,-0.14809021,-0.48676515,-0.114981145,-0.22113144,0.11455172,0.23632741,-0.17576517,0.26325366,-0.4772598,0.045359984,0.27205235,-0.21735722,-0.3347856,0.27849072,0.0027258664,-0.28534937,-0.25836083,-0.23993687,0.20009135,-0.1845669,0.22723818,-0.33341566,-0.30742764,0.16362071,0.21473362,-0.2898604,-0.22936864,-0.36314204,-0.20258039,-0.3104071,0.09651023,0.0283573,0.15809588,0.20379004,0.28710252,-0.2553268,-0.2894551,-0.32675198,-0.23117746,0.1217481,0.30259684,0.31516734,-0.33190194,-0.24690348,-0.2638525,-0.300421,0.051071115,0.22263835,0.15328965,0.06054384,-0.415211,-0.17467432,0.2794413,-0.3120024,-0.35760868,0.010868363,-0.1714756,-0.28507233,0.25504184,-0.12211361,-0.1640102,0.1948452,-0.25530872,-0.14700031,-0.024448304,-0.3841695,-0.1875213,-0.15829206,0.17548513,-0.20701624,0.26574796,0.22734968,0.1311883,-0.37077075,-0.26494077,-0.359491,0.093354724,-0.13094816,0.13556577,0.24111204,0.27869645,-0.23611873,-0.1039859,-0.2156464,-0.018925965,-0.070980676,-0.26478687,-0.08055237,-0.2131741,-0.36318478,0.04269853,0.25885049,0.27682307,-0.003765012,-0.21365015,-0.25690097,0.12966293,0.0070984,-0.17125785,-0.23303628,-0.35223445,0.028351879,-0.22290288,-0.10079313,-0.22597398,0.2624504,0.27386382,-0.23332456,0.15546063,0.032420054,-0.1889105,0.24176843,0.010721701,0.026376316,0.23969717,-0.25024965,0.22085844,-0.12128445,0.22025393,-0.07886605,-0.18712094,-0.33536035,-0.16123177,0.17478879,-0.24671124,-0.2831702,-0.19651806,-0.004364475,-0.37887046,0.101087175,-0.37875944,0.17505233,-0.38024223,0.21665245,0.1822358,-0.32039285,-0.17358369,0.061157133,0.14613312,-0.15838958,-0.080744125,-0.3650229,-0.24867944,-0.24953206,0.2648421,0.19515468,0.27360275,-0.23641765,0.26518595,-0.16847023,-0.1239246,-0.26815227,0.21955195,0.10329858,-0.20066501,-0.11868605,-0.3036423,-0.11815716,0.24275728,-0.14944091,-0.20708176,-0.23733337,-0.18544604,-0.2284323,-0.29497537,-0.15570393,-0.09952495,0.16351034,-0.31754744,-0.2172663,0.19044313,-0.15923205,-0.1799285,-0.20871957,0.0064103953,-0.17195901,-0.21393049,0.2647949,-0.14739782,-0.3128605