0.0059775505,-0.0912814,0.0156041775,0.084697306,0.10042549,0.01275921,0.003876486,-0.046885934,-0.06652154,0.061272163,-0.13741083,-0.010973737,-0.08155273,-0.104654305,-0.0508786,-0.08115568,-0.058856077,-0.05704487,-0.1484731,-0.16065864,-0.09314962,-0.13287443,-0.1460225,-0.120981716,0.024944402,0.06877659,-0.08073648,-0.12990665,0.013512009,-0.12890477,-0.09598562,-0.25634795,-0.2181033,-0.18144332,-0.12734073,-0.059350792,-0.13391556,-0.030821253,-0.025951551,-0.09213034,-0.12685557,-0.025318863,-0.072403945,-0.051987782,-0.120392054,-0.061195962,-0.019044163,-0.07867282,-0.07341219,-0.08818669,0.03662615,-0.09645496,0.018882662,-0.007493236,-0.00031521157,0.10102675,0.10202788,0.032801896,0.003958015,0.015087792,0.17578213,0.019560901,0.0907161,-0.034123953,-0.05255203,0.15533903,0.13920155,0.08276568,0.05019781,0.04775242,0.08828825,0.14743382,-0.03152133,0.086620644,0.05285501,0.12941377,-0.0038480512,-0.10583173,-0.20418026,-0.1610522,-0.030086651,-0.029343069,-0.13174266,-0.1566366,-0.09171582,0.016546693,0.009855603,-0.084254354,-0.11913369,-0.052430578,0.073588796,-0.033631574,-0.018301098,0.013121346,-0.07386858,0.016808523,0.0046185036,0.10213834,0.042018145,-0.036731824,-0.049711563,-0.040583275,0.022229515,-0.041834164,-0.082352474,0.13258225,0.02441596,0.024922958,-0.016310828,0.052542355,-0.06545112,0.06995064,0.02277554,0.018547256,-0.02449283,0.09126784,0.07927178,-0.035427306,0.04177003,-0.002415574,-0.047123853,0.077404074,-0.0381084,-0.0029018596,-0.09285796,0.007598185,-0.05002799,-0.09098831,0.009375406,-0.057442866,-0.002901413,-0.06523169,0.05911298,0.0135608595,0.074347,-0.055815376,0.0413455,0.022765327,-0.027617523,0.0015743112,-0.064590044,0.034053363,0.0489954,-0.040172484,-0.15147549,0.023775507,0.08124282,-0.068394735,-0.043436367,-0.098206855,0.11556965,0.033694204,-0.03474099,-0.09087889,-0.17503959,0.05321921,0.09990598,-0.023282481,-0.21179748,-0.0968854,0.024358237,0.053529847,-0.07873466,-0.14678116,0.0454545,0.0067068543,-0.05402836,-0.21169701,-0.15192081,0.08690537,-0.061248656,-0.16514662,-0.17801788,-0.0019037722,-0.017138036,-0.003941681,-0.020393854,-0.046250984,0.00033613766,-0.030672953,-0.012180455,0.015720986,0.15932679,-0.0025142175,0.075401194,-0.031038957,0.0599876,0.10225603,0.12047367,-0.014104105,-0.015393077,0.02851384,0.026246771,0.07065336,0.097248055,-0.05841868,-0.16359428,-0.14009653,-0.13035896,-0.089090645,-0.036247153,0.052384064,-0.032422457,0.045396812,0.08128446,-0.045576833,-0.05944641,-0.056577537,-0.11679155,0.0020241134,-0.0038299176,0.03778912,0.013381408,-0.078144476,-0.1306985,0.07571241,-0.0035673399,-0.094970636,0.014964479,-0.02000544,-0.055075657,-0.023246406,-0.04611158,-0.029616853,-0.031420235,-0.028728366,0.12461281,-0.020121694,-0.046077613,0.003835096,0.06329634,0.09968851,-0.04153865,0.01744757,-0.008208885,0.15302207,0.06731319,-0.058678996,-0.007275966,0.05039829,-0.022347642,-0.22081174,-0.06152932,0.048887912,-0.07741065,-0.10167232,-0.20476256,-0.02049299,0.06059921,-0.009009644,0.03569277,0.08542079,-0.0062641418,-0.01643461,0.09969555,-0.10436267,-0.072991684,-0.0879025,-0.0058720014,-0.0025146264,-0.049053766,-0.03700168,-0.08257812,0.07739116,0.0465972,-0.04072164,0.04657119,0.07966066,0.036056828,0.16247267,-0.15956214,-0.02497722,-0.015955163,0.029423185,0.051053137,-0.10815218,-0.06508231,-0.13930221,0.011696496,-0.045415845,-0.063573174,-0.042358577,0.020933101,0.030323748,-0.001864822,-0.09429538,-0.0021309562,0.026189089,0.004618311,-0.18209952,-0.012251903,0.16297603,0.13429385,-0.17816511,-0.30072558,0.091606125,0.0061305966,-0.004435152,-0.14284588,0.046329275,-0.024937829,0.0083740875,0.01563553,-0.012965523,0.13650471,0.06272982,-0.013176939,-0.12669413,-0.10058516,-0.058604904,0.018751724,-0.07535007,-0.12313503,-0.28101403,-0.18791234,0.0601184,-0.0017781506,-0.09491182,-0.23538002,-0.21073231,0.092686,0.07438101,-0.04119032,-0.028980311,-0.022361532,-0.1585092,0.007724707,-0.03418402,0.06465235,-0.040743,-0.17880434,0.0053159725,-0.020433662,-0.119171456,-0.1877283,-0.07529161,0.032672208,-0.011545042,-0.094537646,-0.036523823,0.048562247,0.030875798,0.027893549,0.029460343,-0.22212492,0.08607295,-0.047723506,0.05712523,0.050833818,-0.1445636,0.011115252,-0.1337933,-0.16434786,-0.06723701,-0.06463557,-0.024313645,-0.13369362,-0.12845507,-0.17441712,-0.06553305,-0.04803649,-0.01672854,-0.01727413,-0.08684282,-0.08783984,-0.002278861,0.020216553,0.046991747,0.04893839,-0.073249586,0.034850758,-0.02444856,0.028927235,0.10900523,0.063159965,-0.055918798,-0.10863293,0.09781986,0.052259,0.08837682,-0.09011267,-0.053410996,0.032229487,0.18444106,0.04523546,-0.018149026,-0.18086942,0.12337184,0.011451268,0.026824197,0.0123335,-0.1368658,-0.054766517,-0.010168586,0.022536151,-0.020997396,-0.121116936,-0.04439323,-0.07613901,-0.072830826,0.14570805,0.026407693,0.017117392,-0.0454458,-0.04826182,0.14911628,0.08062802,0.095184304,1.4507212e-05,-0.021193944,0.070407435,0.024892874,0.076139845,0.029511645,-0.08912957,0.038224705,-0.0086002825,-0.0010938863,0.0778491,-0.048574664,0.05141383,-0.04600928,-0.014073231,0.08599637,-0.053943757,0.01884164,-0.07414724,0.08232682,0.040003333,0.083828315,0.04215324,0.053624596,0.05678871,-0.048642226,0.039297894,-0.056374595,-0.07710732,-0.0073129665,-0.005947876,0.0014581745,-0.049708888,0.10402238,-0.033331994,-0.082649425,-0.0006420428,0.030693484,0.030499795,0.119572535,-0.004784656,-0.15251428,-0.073532164,-0.052394185,-0.0072425324,0.055673093,0.038698126,-0.08671735,0.010862194,0.004815255,0.10519593,0.05014029,-0.15540199,0.044193998,-0.018502384,0.09758855,0.05226218,-0.019373195,0.09747274,0.099552706,-0.009622873,-0.041967172,0.017177245,0.056654487,0.102876455,0.0021936584,0.10562337,0.11137821,-0.042665694,0.05758629,0.08769199,-0.02519229,0.19224514,0.030768989,0.09497224,-0.085997514,0.019127801,0.057353463,0.038650706,-0.06718519,-0.07928833,-0.036161546,0.075257055,0.02117056,-0.08173567,-0.14610015,-0.09546813,-0.012835228,-0.01082453,-0.13754325,-0.073864944,0.02485473,-0.015519983,-0.02795268,0.061970904,-0.052467782,-0.17472827,0.122623965,0.16029792,0.047045536,-0.016824288,-0.17818238,0.084790304,0.007398467,0.01976943,-0.0072345925,0.10473699,0.06208904,0.13719913,0.09768215,0.13994479,0.05521004,-0.0014453246,0.07580931,0.085519984,0.005191725,0.015464694,0.048738215,0.07781914,0.03867901,0.048318885,0.09493289,0.009275812,-0.12589438,-0.04157379,0.08165194,0.065148726,0.090139456,0.065029815,-0.051591974,0.018092731,-0.12319538,0.13023254,0.06545462,0.09217184,-0.036054797,-0.13919677,0.03468528,0.0694248,-0.06435699,-0.1494864,-0.102075644,-0.04777317,-0.012623285,0.003031561,0.038909446,0.0011644103,-0.15427437,0.11330084,0.070043586,-0.106693916,-0.010294785,0.07612705,0.09777169,-0.05200883,-0.06906469,0.06292458,0.03997931,-0.0024942027,-0.13395739,0.061695766,0.18826419,-0.06623295,-0.10766155,0.056359485,0.16385521,-0.0730062,0.04310082,0.07760876,0.064418815,0.07131782,0.025806192,-0.04685767,0.07110169,-0.030227091,0.022661394,0.042092834,-0.09082806,0.043115497,-0.07729154,-0.20805548,-0.17925061,-0.05377727,-0.005598049,-0.09880412,-0.20659612,-0.05586479,0.014913634,-0.09523377,-0.08366943,0.010653062,-0.061187156,-0.13790579,-0.11420322,-0.046918128,0.026306512,-0.041348256,-0.2904471,-0.07379318,-0.05580602,-0.019116817,-0.14112458,-0.111226134,-0.06308714,0.02002044,0.015649838,-0.073281005,-0.019614143,-0.07840195,0.021866318,0.12997563,0.09949064,0.023469979,0.1232506,0.040165853,0.09405011,0.148444,-0.10659577,-0.01144978,0.006127098,-0.07354024,-0.10099165,-0.08345508,-0.06755801,-0.047432035,0.08193894,0.034898438,-0.08631324,-0.10324386,0.035497785,-0.06330545,0.041067112,0.054116167,-0.08571008,0.0409545,0.027869087,-0.14896742,0.028229859,0.04622012,-0.099146076,-0.108168565,-0.09111743,0.017644502,0.05856005,-0.13737549,-0.047893144,0.06601747,0.035469096,-0.04949506,-0.05299654,-0.06046485,0.009280053,0.014476068,0.031045843,-0.094764,-0.060398377,-0.16130038,0.051880784,-0.056918204,-0.17200804,-0.09273183,-0.15509707,-0.014430459,0.010759135,-0.12487902,-0.047615014,-0.1931895,0.033506874,0.042962987,0.06664801,-0.03354324,0.057282783,-0.056953356,-0.10785841,-0.050212346,0.025954356,-0.07102166,0.046367172,0.01981079,-0.13935807,0.11384488,0.01141445,0.049373053,0.03710789,0.035689548,-0.15002431,-0.017439323,0.16196254,0.10324519,0.117762595,-0.052702792,-0.023248116,0.063201375,0.0006312495,0.048052065,0.12799166,0.103300415,0.120285206,0.100034446,0.1348973,0.03318208,0.0013724456,0.010706161,-0.0083370535,0.10236826,0.13199678,0.023448206,-0.07073674,0.023565385,-0.15303326,0.19252115,0.010822023,-0.11746296,0.096826784,-0.15640177,-0.0047707236,-0.05611672,-0.053277202,0.020107348,0.06560181,-0.0055019725,0.08072992,-0.10454393,0.009969682,0.0057942974,0.063200675,0.0983147,-0.08883256,-0.13763171,0.07667965,0.11045942,-0.057979543,-0.10309625,-0.0578445,0.017454024,0.054300133,0.06491584,-0.07795332,-0.0953342,-0.026458872,0.06272782,0.08534372,-0.061660074,-0.01837646,0.10414889,0.04786241,0.00051065075,0.09008551,0.113675095,0.089922294,0.003686271,0.11314959,-0.035612825,-0.09425376,-0.03870047,0.08470635,0.070911296,-0.112570144,-0.08629465,0.03333323,0.13963392,0.15852079,0.03254337,-0.027935987,0.12511578,-0.014805401,-0.051691227,-0.0832273,-0.02818016,-0.106067285,-0.016097028,-0.116110876,-0.076271266,0.030448273,-0.020339144,-0.10166878,-0.11838494,0.038655177,-0.027130771,-0.01968849,-0.09974365,-0.048826125,-0.06953931,-0.14342079,0.015762215,0.00038614834,-0.019480232,0.047807842,-0.0923455,-0.00016834575,0.07018382,-0.052694265,0.022303402,-0.058534067,-0.055309325,-0.042970695,0.013813745,0.044480164,-0.13641782,-0.028380664,0.06909959,0.006024316,0.15633674,-0.04622488,0.078418866,0.055502307,0.030739272,0.017400257,-0.10266517,0.14493231,-0.03411064,-0.012812795,0.044336475,-0.031535342,0.09621704,0.116312295,0.028762968,-0.047065336,-0.018483764,-0.008421691,-0.13262488,-0.009308367,0.11858327,0.08461596,-0.029814195,-0.1545648,0.040700696,-0.01385086,0.0409052,-0.030404618,-0.08790448,0.03063694,-0.024237094,0.088311404,-0.058892712,0.007895987,0.11619413,0.034591347,0.082517505,0.026165392,0.05171792,0.055306226,-0.06293769,0.045995485,-0.031409245,0.07153194,0.031397387,0.124348395,-0.05817236,0.09356155,0.097046405,0.033918984,0.0036708268,-0.20950253,0.03357118,0.12005197,-0.051125646,-0.1940099,-0.26079795,-0.04016633,0.01410939,-0.16425057,-0.04668828,0.010226763,-0.050872553,0.12611419,-0.07575766,0.08587204,0.14247945,-0.038055766,-0.0641161,0.10031647,0.0029819747,0.096039675,-0.024574606,0.049895994,0.15176788,-0.0014191889,-0.050790194,-0.062829256,-0.09214845,0.046039406,0.058432672,0.02267921,-0.052140843,-0.18786024,-0.07305724,-0.043455373,0.05219323,0.033669274,-0.060775034,-0.06851435,-0.064424865,-0.076409355,0.034442823,-0.06658377,-0.09099416,-0.038221803,0.11147272,-0.03590276,-0.007512653,0.023758307,-0.07080562,0.14056464,0.061228696,-0.080444984,-0.086833365,0.011934112,-0.09758586,-0.014449424,-0.17454328,-0.14075248,0.09540242,0.087176986,-0.015648779,-0.0783476,0.022205193,-0.11188767,-0.049898855,0.049603455,0.06483243,0.09050564,-0.075142905,-0.029765164,-0.05826112,0.111024596,0.079213254,-0.030849485,-0.092881165,0.07302898,0.06627534,0.05770025,-0.07643944,-0.054015744,0.13523458,0.021120416,0.032393023,0.07052254,-0.06417905,-0.14814804,-0.07835714,-0.0970235,0.05210676,0.0022261024,-0.075274915,0.008607911,0.07822817,0.05789421,-0.022866903,-0.060255766,0.02609711,-0.07088663,0.028960552,-0.054430425,-0.19690633,-0.12133066,-0.13574293,-0.002697022,-0.119266964,-0.08549064,0.039827265,0.04355353,-0.0011691382,-0.076743826,-0.12675722,0.009140022,-0.09345598,-0.09554432,-0.012750241,-0.066904984,0.030566473,0.025742356,-0.16673242,-0.035959527,0.06652668,0.0978696,0.13120142,-0.009090591,-0.07314558,-0.09233466,0.21878932,0.0050472524,0.09757833,0.00038694416,-0.16335799,0.0017288662,-0.00022835788,0.08445009,0.021752104,0.042161584,-0.19482543,-0.17655702,0.07727769,-0.04438896,-0.1188464,0.09330185,0.11880544,-0.037291292,0.013821979,0.027871037,-0.028333815,-0.030344091,-0.050348654,0.024869813,0.022995975,-0.013065843,0.047483627,-0.011039848,0.0382475,-0.02697683,0.010286526,0.07940531,-0.027344784,0.22078855,0.0068047373,-0.029963003,0.0063619968,0.015874904,-0.060354188,-0.09194944,-0.060022444,-0.10451592,-0.040855538,0.0014451523,0.016407574,-0.026826492,-0.021528447,-0.022613263,0.03030974,-0.002351561,-0.17697716,-0.1459946,-0.09528928,-0.019469975,0.11031225,0.10090711,0.00089402066,-0.09498863,-0.022106145,0.091158316,0.0444377,-0.0618327,0.14546075,0.09849231,0.14893301,0.115170784,0.10750694,0.17243855,0.22687854,0.22684747,0.11975801,0.036044586,0.18306893,0.023888776,0.086074375,0.02776191,-0.035646018,0.045769963,0.063018635,-0.027665395,0.010545584,0.17330436,0.092689075,0.017127246,0.11141539,0.08689491,-0.017034037,0.0145032825,-0.029807797,-0.053223442,-0.027206829,-0.05399281,-0.026375638,-0.07299284,-0.07061821,-0.0776553,0.06617333,0.00069778936,-0.09698519,-0.091791354,-0.08043151,-0.15195131,0.04489283,0.08551502,-0.069352895,-0.095489144,-0.18392006,0.035522837,0.12333237,0.098789565,0.122792885,0.12636514,-0.016715819,0.022112884,0.10963871,0.059997857,-0.11119362,-0.12859163,-0.053481746,-0.06493169,-0.07926296,-0.044569246,-0.03586484,0.018018344,-0.008940717,0.008509711,0.030946149,0.06485315,-0.047509298,-0.01656444,0.054925717,-0.04202664,-0.0036110696,-0.03473492,0.02402834,-0.12469859,-0.111168444,-0.039647926,0.007244356,-0.07442875,-0.051374547,-0.053193595,0.006968814,0.060883336,-0.0116643375,-0.070434645,-0.14699703,0.01948498,0.027058724,0.022142086,0.019782348,-0.08888047,-0.057650466,-0.03415213,-0.052827556,-0.018175496,0.0046281503,-0.006734908,0.12022866,0.09479659,-0.011848399,0.009976417,-0.18759844,0.0032505214,-0.017516686,-0.039514177,-0.071022846,-0.17096378,-0.16175494,-0.13199344,-0.08816546,-0.035773147,-0.11646045,-0.035815798,0.03969311,0.14006518,-0.07592183,0.10366732,0.06599284,0.0021387052,-0.17035039,-0.12853198,0.06736156,-0.05774259,-0.09359714,-0.11303193,-0.16656278,-0.034204807,-0.042599477,0.09438991,-0.029046284,-0.03157444,0.0117338495,0.016260281,0.07786117,0.024544183,0.103533335,0.022863196,0.10338731,0.014324096,0.024882063,0.03864368,0.10493024,0.07961213,0.0419665,0.058889158,0.060849372,-0.0673081,-0.10419124,0.013540894,0.015925245,-0.0061444836,-0.007645802,-0.019054078,-0.052585505,-0.07834768,-0.22918662,-0.04170756,-0.08932941,-0.19477277,-0.09262808,-0.26681656,-0.023082118,-0.0117240315,0.07536418,0.01424965,-0.0887349,0.033865478,0.09962845,0.1153902,0.10410312,0.09525296,0.019627746,0.020172795,-0.01128653,0.11851283,0.08820198,-0.056393754,-0.023357999,-0.075144894,-0.06788739,-0.07022662,-0.05269331,-0.08582463,0.00552019,-0.08157167,0.0026695954,-0.11958087,-0.008613864,-0.03249096,0.07623724,0.010970505,0.026089437,0.09918149,0.119017154,-0.043796264,0.0705248,-0.03162053,0.21275157,0.021387702,0.042287387,-0.01131285,-0.062171098,0.045398768,-0.00019090793,0.09433618,0.06431176,0.09271273,-0.07401236,-0.07662516,0.050775662,0.022350159,0.16579136,-0.08484934,-0.031269297,0.030549772,0.039754525,0.16709906,0.01989322,-0.013340359,0.017017893,-0.124530844,0.12074186,0.03645094,0.06266915,0.011144199,-0.18378875,-0.13473995,-0.07655934,-0.033315796,0.005224733,0.012539439,-0.1051709,0.045298595,-0.020211456,-0.044292066,-0.015368655,-0.14778341,0.037840452,-0.023298634,0.01680507,0.012717518,-0.020089574,0.06780335,0.017891794,0.0034890668,-0.035198152,0.03302089,0.041958533,0.051062897,0.07402071,-0.043305073,0.13574517,0.02297339,-0.056453705,-0.06668977,0.08198239,0.11818737,-0.12479349,0.00392494,-0.08863404,-0.107281215,-0.007960406,-0.04962943,0.06184886,-0.047390196,-0.086830884,0.06998723,-0.03563312,-0.046365045,-0.08318769,-0.058082845,-0.01898094,-0.033904795,-0.014806335,0.026361134,-0.0149439955,-0.16516195,-0.015114628,0.08060768,-0.067185245,-0.042426012,-0.11445503,0.04851232,-0.1416989,-0.158705,-0.1272026,-0.13641094,-0.036011133,-0.05842048,-0.00020876148,0.06895689,-0.1449782,-0.16707535,0.0023239998,0.048355047,0.014208404,-0.045568433,-0.07532464,-0.03894672,-0.03696058,-0.044315737,0.017952308,0.097547576,0.08408629,0.03529472,-0.0060274564,-0.038874548,0.09241724,0.13851097,0.0058213603,-0.21698205,0.043544184,-0.07860123,0.05306525,-0.04153964,-0.09047606,0.07383814,-0.053139664,0.025271308,0.018476931,-0.046052605,0.10742664,0.019692313,-0.054126807,0.078167595,0.11352306,-0.013837308,-0.10746759,0.040502973,0.049622137,-0.0059289797,-0.058406875,-0.010540897,0.025982752,0.021068495,0.05329957,0.042234812,0.058343634,0.041069046,0.019873163,-0.063683175,-0.14250496,0.012554613,-0.05751864,-0.0103777405,-0.039577153,-0.12063841,-0.13173078,-0.060224514,-0.030147413,0.0062028687,0.0076035224,-0.09818468,-0.048723597,-0.098719425,-0.053198066,-0.0025349776,-0.13340524,-0.10788827,-0.09022773,-0.18072875,0.009695575,-0.038993467,-0.059559133,-0.01935604,-0.18571974,0.039689247,-0.061250705,-0.10831449,-0.025234034,-0.14050297,-0.027518518,0.051284444,-0.02688375,-0.064775474,-0.18346596,-0.04511149,-0.06759269,-0.04563261,0.0021305894,0.08510787,-0.03830378,-0.14160894,0.006504125,0.008937831,-0.020147312,-0.059625495,-0.18120629,-0.01567114,0.13322547,-0.08780665,-0.14323014,-0.18592773,-0.1795431,-0.07694689,-0.033529855,-0.10450736,0.012681074,0.020093555,-0.023577075,0.09727736,0.14050105,0.07565143,-0.06095606,-0.02168459,0.015614812,-0.10048004,-0.11388904,-0.08078162,0.019771347,-0.03292432,0.08538257,0.1662143,0.10109614,0.045831706,-0.102742046,0.11511736,0.17230828,0.21727274,0.08565661,-0.009805923,0.05452856,-0.029342424,0.0802236,0.042591143,0.10181061,-0.024565337,0.021763062,0.05281507,-0.007842183,0.050358403,-0.05473381,-0.026495311,-0.08274154,0.08497823,-0.034023136,-0.00077841216,0.0054729762,0.054144576,0.025495395,0.07533366,0.09146822,0.13557899,0.118290365,0.028019551,0.008061236,-0.13383408,-0.05348497,-0.05679064,0.075739175,0.15228063,-0.010866376,-0.060035497,-0.07219129,-0.14851023,-0.09943511,-0.08012315,-0.049553074,-0.057643455,-0.059720512,-0.076295294,-0.025833173,-0.09592372,-0.059179775,0.037554357,0.025054313,-0.008808889,-0.0041130893,0.0022381446,0.05274536,0.12523918,0.09134638,0.12052962,0.024580399,0.15709305,0.1396024,0.035301477,0.087068714,0.026812984,0.013087208,0.11630449,0.0010888337,-0.04913528,0.007376407,0.03695031,0.051521998,-0.034626655,-0.012914855,0.0019642366,-0.018739372,0.026625229,-0.01770124,-0.09796544,-0.08773949,-0.11893782,-0.066598006,-0.10710205,-0.06319321,-0.05244781,-0.049137563,0.029270649,-0.027660884,-0.0023527169,0.0038710025,-0.07772807,-0.026565108,-0.0030471024,-0.12724452,-0.07211488,-0.13274996,-0.055069547,-0.053970326,-0.0684366,-0.052714735,0.013109969,0.0749721,-0.023644099,0.016271,-0.01291131,0.087384574,-0.036900572,0.01712024,0.12994866,0.03833472,0.0954108,0.09708373,-0.060603317,-0.081589445,0.04717348,-0.015547189,0.052375387,-0.11111507,-0.08494436,-0.0666168,-0.0007809854,-0.0120379925,-0.06227751,0.052058812,0.09515262,0.1252585,-0.011471531,0.0678929,0.03361009,0.11738265,0.0923324,0.043738004,0.096226946,0.052583788,0.09865356,0.09253805,0.002490817,0.0015127126,-0.08454843,-0.08184278,-0.033501823,-0.008534863,-0.009716269,-0.023545431,-0.025843965,0.10146192,0.14094588,-0.009482262,0.042581514,0.15758778,0.13089824,0.0065861885,0.12828605,0.02863696,-0.07896363,-0.055935405,0.12716813,0.07287,-0.07881508,-0.051526774,-0.13638714,0.06210398,0.034108587,0.100536846,0.14381045,0.015858484,-0.15073492,0.008623399,0.0106552085,-0.21449196,-0.21879953,-0.1245732,-0.08977289,-0.16135181,-0.23221953,-0.1250084,-0.02611565,-0.17071092,-0.11465031,-0.07493693,-0.1541615,-0.12730561,0.085181154,-0.02452613,0.10527344,-0.00019412668,-0.17312844,-0.095451795,-0.045520928,-0.16928849,-0.197014,-0.14070922,-0.059190147,-0.014740063,0.09606925,0.111285016,0.08942282,0.07771849,-0.053644795,0.040818643,0.09151235,0.118369795,0.07810376,0.19326212,0.10762076,-0.03642824,-0.10286324,-0.032704234,0.030029489,-0.08678445,-0.066081725,0.011905282,0.028556235,-0.020999726,-0.027389534,-0.105501555,-0.08393032,-0.006058149,0.095713936,-0.03059266,-0.052730296,-0.14221594,0.016199367,0.07350658,-0.096915334,-0.08737887,-0.049339205,0.033186227,0.1313752,0.05869063,0.051244434,0.034355983,-0.038569234,0.05019001,-0.05429568,-0.028356317,0.023680704,-0.0075451895,0.067121774,0.08698028,0.10554782,0.056394245,0.06638802,0.095412135,0.07057512,0.047593072,0.025607646,-0.02303314,-0.08702644,-0.14312027,-0.15407316,-0.11188438,-0.018584605,-0.07854065,-0.12572926,0.0005279448,-0.025926245,0.10962093,0.09059827,0.11749853,-0.011723545,-0.028861571,8.0797465e-05,-0.017509077,0.035642404,-0.012963598,-0.06061879,0.06390269,0.09210692,0.031846583,0.034770347,0.087245114,-0.006677275,0.058227144,0.026747957,0.019843,-0.024007581,-0.007584498,-0.013542453,-0.1477826,-0.11270588,-0.17372417,0.038025558,-0.043016408,-0.07880426,-0.13499603,0.00068951765,-0.007239356,-0.0497003,-0.09832677,-0.05603366,0.032905746,-0.075392656,0.006402922,-0.015394312,-0.07592367,0.0779533,-0.015622187,-0.062582955,-0.022980671,-0.014279205,-0.13329913,0.03461749,-0.06593486,-0.0013282348,0.10881955,0.12753381,-0.08130669,0.051890668,0.14874554,0.15250024,-0.06134827,0.07888723,-0.06701616,-0.03053787,0.016346363,0.0659395,0.035879634,0.06714102,0.013524016,0.1276746,0.041069705,-0.09887243,0.0028202126,-0.08004465,-0.008284587,-0.14330003,-0.0848085,-0.10075959,-0.14930484,-0.11108364,-0.12053147,0.01779116,0.10112087,0.089650534,0.136803,-0.017669203,-0.05846929,-0.121427305,-0.05802784,-0.11096494,-0.16790229,-0.046237994,-0.097974636,-0.16313179,-0.14872174,0.022305416,-0.06578034,-0.07978197,-0.0042556915,-0.04651671,-0.044554897,0.020229194,0.023632322,0.080638684,0.09389926,0.054259893,-0.10382144,0.046737615,0.010269254,0.026081359,0.031729054,-0.09341833,0.009766231,0.08824053,-0.046124592,0.062694564,-0.005071778,-0.040248834,0.060489535,-0.050184082,0.039937865,0.03365773,0.006432561,0.059401914,-0.11548183,-0.095951535,0.038696695,0.045183655,0.019245245,-0.19160892,-0.13869484,0.03190803,0.0239579,-0.07957268,-0.05632681,-0.13288759,-0.023428652,0.07555809,0.11064427,0.08993551,0.0069242255,-0.042368904,-0.04096321,0.09885764,-0.028888611,0.06560546,-0.07365272,0.085942596,0.082829036,-0.021540966,0.06839107,0.050506294,0.089774325,0.046825673,0.091260515,-0.029160859,0.061456073,0.061975148,0.056986403,0.0075607058,-0.033460725,0.07423878,-0.030523077,-0.1465212,-0.0534209,-0.06655851,-0.025201444,-0.29334208,-0.13142046,-0.111021064,-0.07201982,-0.12889457,-0.20721953,-0.15330437,-0.110337734,-0.099009916,-0.12533942,-0.22230788,-0.013349803,-0.022580113,0.03626531,-0.07143741,-0.07519644,-0.024876682,0.088883705,0.112434804,-0.0061846976,-0.019642012,0.0021266534,-0.03703284,-0.025292443,0.045147233,0.06779689,0.061184846,-0.045019273,0.07973552,0.04721839,0.07760317,-0.053480934,0.032470264,0.015856339,0.01422383,-0.039602935,-0.13785987,0.009272606,-0.036670417,0.05849053,-0.15377152,-0.111673385,-0.105569035,-0.10448358,0.07960676,0.043907512,-0.045794904,-0.0073723034,-0.11353273,-0.022944706,-0.060380727,-0.01859477,-0.004460568,-0.1727741,-0.022305835,-0.06566457,-0.06996943,-0.13105372,-0.049429182,0.026185539,0.038572937,-0.06554944,0.013811143,6.2081344e-05,0.109723724,0.09321411,0.10982576,0.012084218,0.088937595,-0.045860715,-0.0467194,0.076093994,0.096549734,-0.016518408,0.011448606,-0.02932798,0.1334435,0.11064658,-0.015227244,-0.0060424595,0.04303203,0.017575808,-0.016485292,0.15262222,0.005514203,-0.017515913,0.1235971,0.036810044,0.013640182,-0.1116932,-0.0799819,-0.12590507,-0.020865727,-0.112571746,-0.086801134,0.08357252,0.0075089326,-0.100174055,-0.0476486,-0.015459637,-0.1340258,0.01763062,0.11725854,-0.003765152,-0.027811373,0.073996134,-0.09848012,-0.037021916,0.1009979,0.030970955,0.09800575,0.11596123,-0.065913536,-0.09416836,0.009084999,-0.11351065,-0.093566045,-0.04118064,-0.009085385,0.034280524,-0.048517086,-0.06528805,-0.055373207,-0.11524414,0.02751032,-0.06249076,-0.10451451,0.027782558,0.04722406,-0.07364379,-0.042755153,-0.094383374,-0.02087076,-0.09833477,-0.035993364,0.08040727,-0.013726314,0.05816521,-0.10568191,0.027716918,-0.016996818,-0.056599267,0.13952217,0.0023358394,-0.043659896,-0.07645546,-0.2843515,-0.06721781,0.11738222,-0.042986702,0.07997005,0.05034325,-0.0093814265,-0.14226288,0.02967493,0.056559347,0.067449525,0.14507817,-0.08511015,-0.02533353,0.058522187,-0.058317985,0.106409,0.11351533,0.045711376,-0.028185824,0.0682506,0.033047326,0.096475616,0.060281575,-0.026267549,0.16767386,0.18784177,0.10545858,-0.039851043,0.05223186,-0.0854158,-0.08738735,0.1242829,0.038849294,0.01183515,-0.06970099,-0.09981596,-0.14320393,0.010306137,-0.077511735,0.041830212,0.12317378,-0.21788132,0.0036259075,-0.11686944,-0.08138335,0.0627672,0.11491678,-0.069294475,0.017362695,0.0027261092,-0.1135961,-0.06374988,0.12213807,-0.006872153,-0.037331074,0.060153052,-0.080476716,0.06044056,0.06662603,0.04043961,0.009605901,0.053225,0.0018701253,0.015025797,-0.094391786,0.014003105,-0.09097139,0.066360995,0.003771428,-0.024828702,-0.062015813,-0.12682794,-0.050678696,-0.042134877,-0.04240063,-0.0012820574,-0.086439565,-0.069152124,-0.042033132,0.08725088,0.07089626,-0.019168822,-0.048188534,-0.03348896,0.06389222,0.016604986,0.10331197,0.10078956,0.07459836,0.1125954,-0.033553854,0.09257088,-0.07872824,-0.04177017,-0.10530765,0.038727846,-0.1166949,-0.11535341,-0.015594677,-0.01471234,-0.1281718,-0.05263435,-0.069057785,0.063295774,0.067408964,-0.03688813,0.12754071,-0.031704243,0.079091206,0.0157055,0.0019359855,-0.09281448,0.027565058,0.11285879,0.05856366,-0.045357425,0.022594031,0.109647706,0.0849586,0.006740502,0.053577997,0.015836881,0.0921506,-0.0680754,-0.048428375,0.012835704,-0.03289554,-0.04274652,0.06008232,0.091555744,-0.04307545,0.062504515,-0.09283832,0.1092716,-0.061108742,-0.007877558,0.0589508,-0.11969095,0.05543018,-0.022701254,0.0820536,0.100002706,0.003793276,0.095414154,0.09495203,0.08964327,0.08955595,-0.19802122,-0.024501337,0.04691702,-0.052628405,0.087770216,-0.16479501,-0.11807413,0.04182681,0.014365358,0.07943195,-0.20109095,-0.05585752,0.14354658,0.1990155,0.12824607,-0.09245687,-0.052840974,0.07804768,0.07732516,0.094052985,-0.024869643,0.105081014,-0.046495654,-0.023453603,-0.034953997,0.017318927,-0.017019153,-0.004452607,-0.16406506,-0.027595779,0.004983579,0.101018265,-0.11463768,-0.061365526,0.047856927,0.077759616,0.04181915,-0.073172405,-0.045712363,0.122338325,0.045584932,0.016038295,-0.1667815,-0.06003187,0.01648325,0.06527222,-0.03371012,-0.09162615,-0.049495604,-0.03705143,-0.0334268,-0.0011354943,-0.030432902,0.04350824,-0.12811807,-0.010666347,-0.08168021,-0.020338656,-0.08560394,-0.17900269,0.012187059,-0.07398791,-0.06445454,-0.18870579,-0.08280082,0.08142409,0.076584324,0.024954736,-0.14760849,-0.046170752,0.13656414,0.112854496,-0.066154316,-0.038809538,0.010014645,-0.10644584,-0.06387471,0.00031435562,0.13512553,0.09631081,0.0628361,-0.183307,-0.05773961,0.09627722,0.21998122,-0.045093827,-0.23057978,-0.20254184,0.00221958,0.14269605,-0.0114361895,-0.13943115,-0.12247433,-0.04724309,0.028622555,-0.026935602,-0.07643733,-0.044576913,0.10556905,0.0171528,-0.026598008,0.008781957,-0.054239295,-0.048565138,-0.101449385,0.114263296,0.050279107,0.007290849,-0.08653496,-0.087154016,-0.018292531,0.058876902,0.024868215,0.102428466,0.0862473,-0.0034855395,-0.022954702,0.04641373,0.029472431,0.033707548,0.094248146,-0.008679601,-0.04029389,0.0015203205,-0.014588201,0.13406293,0.019638194,-0.058467463,0.035748698,0.0049833646,-0.021735145,0.039338347,0.101397954,0.028389534,-0.17672327,0.0270371,0.0677073,0.041126363,0.0041431156,-0.098248325,0.07504934,-0.06230107,0.038147442,0.012607835,-0.0626235,-0.0035423837,0.0031291617,-0.073042706,-0.0056816377,0.04437151,-0.007551885,-0.062739946,-0.079381965,-0.117874496,-0.017978715,-0.109348625,-0.17851116,-0.17772123,-0.08149289,0.018807216,0.102675155,-0.04546629,0.034976706,-0.05205233,0.03791971,-0.037955824,0.119915165,0.117028356,0.042922754,-0.034078997,-0.1041881,-0.08707693,0.016373936,-0.018938402,0.06348861,0.03764361,0.0061361743,-0.044540793,-0.12250831,-0.10024803,0.023393076,0.11202262,0.049990386,0.15274674,0.064105496,-0.037158724,0.0011050918,-0.039028555,-0.0045405542,0.059176814,-0.013758726,-0.07906056,-0.00956919,-0.06447164,-0.04274774,0.061470225,0.032249726,-0.05641187,-0.11200124,-0.01784951,-0.09157053,-0.047147907,0.00904749,0.11060277,0.14057451,0.033063285,0.050309088,0.0077426997,0.09615719,0.17631382,-0.022306116,0.07139592,0.037790008,0.05016569,-0.026732562,-0.090807274,-0.10357927,-0.006091452,-0.12724988,0.013513708,-0.14797752,-0.08423788,-0.06419159,0.025329556,-0.07329253