-0.00060440594,-0.04298315,-0.035033707,0.018915229,0.023049766,-0.01642157,0.061826605,-0.053666823,0.023674313,0.02918382,-0.041239347,-0.021371946,0.03403747,0.0673643,0.04080609,0.021141678,-0.0035528627,0.07126517,0.0515052,0.010442243,0.09471321,-0.11760462,-0.0417898,-0.12298056,-0.18181537,0.046169575,0.053369116,0.13640575,0.066816285,-0.08774909,0.02042271,0.067096815,-0.038944792,0.057395972,0.05650428,-0.0055282647,0.041596107,0.033907745,-0.010909214,0.04871668,-0.09892244,-0.14398456,-0.11291366,-0.12812036,-0.10714553,-0.049128436,-0.19598527,-0.07720382,-0.04663219,-0.011930468,0.06383376,-0.015342975,0.03524148,0.027754359,-0.05781673,-0.030307675,-0.0052457503,0.042893834,-0.13281572,-0.05226755,0.042959027,0.07217863,0.08748615,-0.04164318,-0.039027233,0.12579475,0.17849815,0.0998876,0.06124729,-0.10638844,0.056954283,-0.032937944,-0.05688079,-0.08291989,-0.030154614,0.117858574,-0.008987236,0.062459007,-0.06634872,-0.060450457,0.051332302,-0.058633365,0.03736602,-0.092179574,-0.116664864,0.027148739,0.035157114,-0.010994571,-0.012220304,-0.061547086,0.0729787,-0.03455433,-0.024034683,-0.021735825,-0.16764596,0.025295148,0.0042477585,0.029724644,0.10538044,0.111757725,0.0628389,0.10573946,0.12757935,0.055699814,-0.06370229,0.0476931,0.07541248,0.073058695,0.022031413,-0.047519557,-0.035860494,0.00067183835,-0.13411188,-0.015661208,0.07293379,-0.1679797,-0.06432993,0.022203906,0.15917811,0.10598112,0.039362688,0.02898337,0.003672987,-0.0700981,-0.12462145,-0.08129731,-0.011171134,0.011690126,-0.075089335,-0.11979971,0.07473684,-0.030079158,-0.067294225,0.036606204,-0.016061218,0.08430151,0.04273442,0.06090924,0.14368625,0.17200615,-0.033295244,-0.00591438,0.025439698,0.0069042076,-0.0039471,-0.20166686,-0.23265512,-0.3073713,-0.18118472,-0.042458545,0.11608462,-0.013673051,-0.0681491,-0.029117124,0.03318926,0.003194303,-0.064458996,-0.07765453,-0.044798028,0.052386995,0.04905534,-0.25234133,-0.12562071,0.0044792085,0.0017560467,0.040366545,-0.07621277,-0.09974361,0.052309718,0.052933026,0.031187413,-0.0649606,0.07541413,0.03460161,-0.06285619,0.015682647,0.029702157,-0.045080908,-0.089887336,-0.080104396,0.033421177,-0.021624316,-0.0033761999,-0.026000177,0.00030382525,-0.006227429,0.011353939,-0.10188994,-0.061604258,0.015135731,-0.05194029,-0.11518408,-0.02131734,-0.06721783,-0.15631595,0.070718676,-0.043952122,-0.021133205,0.11329931,0.036427367,-0.08616977,-0.11030103,-0.076629505,0.043359365,-0.050204583,-0.123368986,-0.04860162,0.16960528,0.06967134,0.10549372,-0.012478829,-0.0170166,0.051988285,0.16143356,-0.048197202,0.078290716,0.057658788,0.09380014,-0.041760407,0.03535191,0.051628534,-0.037409104,0.108545125,0.0133033795,-0.16372201,-0.05122057,0.0044956678,0.079206586,0.09868687,0.05577874,-0.10154967,0.16998154,0.1595588,0.23067896,0.12628001,-0.14548701,0.10860316,0.1637154,0.16260612,0.09412589,0.0014448538,-0.016169403,0.13460039,0.072967194,-0.021853566,0.046738278,0.06054721,-0.020571038,-0.080836765,-0.1609183,-0.12070916,-0.05790269,-0.100457564,-0.08742591,-0.11689749,-0.0117326,0.040149037,0.024912333,-0.06642209,-0.028271884,0.08365008,0.024533149,0.058077622,0.039199647,0.031511217,-0.028443953,0.029520998,-0.00014728938,-0.06765924,0.0005373445,-0.0181651,-0.05168412,-0.09629926,0.020635834,-0.1305925,0.07028375,0.10210811,0.046243913,0.0733559,0.0036268122,-0.0012736722,0.07708978,0.00013130452,0.067482255,-0.01649214,0.07172023,-0.14755566,-0.112842076,0.043071076,-0.011216004,-0.07467486,-0.14096792,-0.1393273,-0.04297398,-0.08790863,-0.057411164,-0.09531331,-0.0059136143,0.024207471,-0.06111618,0.061451852,0.02268777,0.13090454,0.102962285,0.08154071,0.005546276,0.09529345,0.1224326,0.043098245,-0.029939624,-0.07287398,0.19100827,0.030185115,0.099845275,-0.028716784,-0.08530409,0.15527669,0.15902762,0.075968705,0.06630508,-0.090119325,0.051593695,0.067438066,0.011941056,-0.060201947,0.04925639,0.09794658,-0.10199679,-0.05979648,-0.13110885,0.004017272,0.02219305,-0.016382854,-0.066259556,-0.12514026,-0.05047718,0.11569358,-0.053908236,-0.09408339,-0.03270617,-0.006439484,-0.040922765,-0.0650475,0.03023703,0.05788952,0.085363485,0.027206477,0.014369689,0.11357425,0.00086673495,0.044386424,0.086177476,0.03352445,-0.12493286,0.023188423,0.0019959516,0.025938341,-0.04395834,0.13125199,0.0718712,-0.02647074,0.046750177,0.078822285,0.1761612,0.0140177375,0.084966026,0.08392415,-0.0045535127,0.118427046,0.11828964,-0.04397715,-0.05771841,-0.007963453,0.004931707,0.011359316,0.018010037,-0.1422992,-0.1852024,-0.019285176,0.076337054,0.005358305,-0.08688575,-0.12228293,-0.08833279,-0.037325494,0.05250246,-0.08470307,-0.10586596,-0.11214265,-0.072082564,0.068421304,0.0075752116,-0.07477615,-0.009762369,-0.07107706,0.12254776,0.11757353,0.014675591,-0.09801208,0.012818447,-0.14270712,-0.12150362,-0.14940599,-0.11990683,-0.076662,-0.06139406,-0.10623827,-0.1424149,-0.047732566,0.003446368,0.031991776,-0.10982926,-0.15596639,-0.12038657,0.049646754,-0.090419754,-0.15247604,-0.07636935,0.008306866,-0.039267823,-0.0877841,-0.16276196,-0.059610695,-0.01709295,0.05030265,-0.005744219,-0.038355343,-0.07378517,0.036181837,-0.074966274,-0.056502245,0.13765968,-0.008131279,-0.07643304,-0.009244159,-0.030698624,0.13945144,0.07778,-0.15093529,-0.13640139,-0.04312044,0.08515165,0.08492513,-0.0022715486,-0.04817894,0.0014744864,0.023451554,-0.07070215,-0.056586824,0.02735894,-0.04481351,-0.017578207,-0.07645957,0.037171345,0.015214408,0.047491852,0.031104876,0.07702018,-0.004342521,0.057262443,-0.010559597,0.036774058,-0.018031001,0.063459255,0.024078853,-0.08690908,-0.04161699,0.06527299,-0.054956995,-0.022021817,-0.11904167,0.013217724,-0.08704061,-0.051570155,0.08965446,-0.120408125,0.015674973,-0.06971636,0.024614263,0.034952063,-0.085953966,-0.13664176,-0.04107354,0.011827995,-0.14547862,-0.11801397,-0.10175712,0.04112437,-0.10327836,-0.09548801,0.030863782,-0.08139997,0.01908784,0.014797716,0.0933517,-0.0010035221,0.05797085,0.05469187,-0.06625353,-0.11432075,-0.026566975,0.011270493,0.06047445,-0.029925894,0.1570176,-0.024409654,-0.005647857,0.028162207,0.15331578,0.069920085,0.022071358,0.024088137,0.09681289,-0.0065929615,0.10147784,-0.06006546,-0.12194818,-0.073851556,0.026544461,-0.04998363,0.022932908,0.11070778,-0.0054157907,0.0044007925,-0.082303815,0.0066520367,-0.057863045,-0.027542321,0.011645122,-0.028214037,0.069441706,0.009491895,-0.010570764,0.08864371,0.12049489,0.08291655,-0.04512767,0.061650075,0.09203634,0.073118486,-0.015456194,-0.017898452,0.07433325,0.07098667,0.10194485,-0.13582821,-0.10674542,0.040815182,0.032931697,-0.08907687,-0.21054196,-0.049147658,-0.14088196,-0.016226344,-0.039548364,-0.14826536,-0.0522378,-0.022713289,-0.0119971605,0.07533403,-0.024641205,0.0023714697,0.040255725,0.11165844,0.15690374,0.07650533,-0.020781433,0.12231189,0.21812284,0.14565283,0.10219252,0.020996403,0.05355863,0.18638344,0.13388483,-0.043756988,0.0050852452,-0.07046289,-0.06239621,-0.05898639,-0.1426219,-0.11406852,-0.0016692679,-0.120106414,-0.10075059,-0.17095354,-0.15731251,-0.07185136,-0.053151462,-0.03856878,-0.009361267,-0.094773404,0.038115975,0.08929375,0.07828526,-0.11296145,0.025368769,0.07185966,0.19160932,0.14434968,-0.036213517,-0.025111506,-0.067068726,-0.06044189,-0.07346524,-0.033450224,0.056112904,0.049709033,0.057716716,-0.003498381,0.088326216,0.072540514,0.0804062,0.07201467,-0.061584976,0.09884207,0.10641117,0.01878632,0.0010393226,0.065182686,-0.027071226,0.18806133,0.06294694,0.080733396,0.028475717,0.093361676,-0.032346297,-0.04222647,0.015833998,0.07662517,0.051003955,-0.075712256,0.008466553,0.025379919,-0.0032342467,0.07574451,-0.06865432,-0.009472386,-0.069442935,-0.00991357,-0.0421209,0.04060613,-0.0650701,-0.07228189,-0.053412586,-0.0060168207,-0.07230199,-0.11829348,-0.021603514,-0.08380827,-0.15028557,-0.21027867,-0.18738437,-0.073328175,-0.06464199,-0.11908979,-0.14199984,-0.18398407,-0.09762839,-0.055019338,-0.18355201,-0.17052124,-0.111023545,-0.021295544,-0.042159628,-0.010153532,-0.058423914,-0.11303006,0.0280324,-0.056877106,0.12936321,0.041726686,-0.106956355,-0.056399584,0.024475954,0.03951161,0.0843221,0.08274248,0.010475467,0.0027796058,-0.027682051,-0.042343844,0.032227084,0.015486804,-0.105375454,-0.21273714,-0.05335265,-0.050157897,-0.12526402,-0.066172145,-0.1741489,-0.08569241,-0.20296639,-0.046856098,0.008949726,0.045157127,-0.31883547,-0.14604825,-0.03626694,0.09784659,0.019390719,-0.013397289,0.07392692,0.035863668,0.1375559,-0.060590196,0.033590466,0.06401204,0.106229104,0.06799573,0.09793585,-0.037451953,0.001217688,0.034066398,-0.05832236,-0.11187692,-0.16570896,0.09103544,0.013362731,-0.11551843,-0.19058935,0.0031700784,0.024047181,-0.07773006,-0.1495885,0.02207254,-0.099009134,-0.03885741,0.04125983,0.049699575,-0.068806246,-0.0025279506,-0.0445033,0.01603081,0.039640334,-0.018032799,0.009858375,0.042259626,-0.0470312,-0.04615136,0.092503674,-0.01103046,0.008655381,-0.10759779,0.041563373,-0.008169585,-0.07222848,-0.038639385,0.032614674,0.08770448,-0.0065058814,0.15862237,0.014013115,0.03880975,0.08282131,0.06302349,0.08628959,-0.03720977,0.020418007,-0.034751173,0.021148562,-0.046574634,-0.046806138,-0.037873615,-0.031124853,0.010183157,0.090877034,-0.05090865,-0.14128286,-0.030974796,0.038291406,-0.11410565,-0.0888368,-0.04441472,-0.13821201,-0.052961756,-0.07922145,-0.04002253,0.049410142,0.03209822,-0.114236034,-0.0828514,-0.010488098,0.100638546,-0.0038263567,-0.07373406,0.019989789,0.000880655,-0.01844134,-0.072411805,-0.079573505,-0.17720994,-0.08934541,-0.0005525031,0.027147867,0.102494605,0.069732144,0.08190135,0.02157837,0.005509767,0.18525995,0.04030409,0.07551447,-0.058441777,-0.031767804,0.103525,0.028257025,0.030423723,-0.081135914,-0.042635277,0.14444977,0.000756796,0.016821371,0.115983844,0.038542185,0.060534876,0.09511707,0.03632427,0.1045832,0.004160604,0.03160705,-0.10100731,0.021292925,0.0052680066,0.0048224484,-0.022893758,-0.048475064,-0.041804064,-0.027060568,-0.0117612295,-0.05660161,-0.10885554,-0.12873505,-0.05623122,0.05216742,0.056396566,-0.013729315,-0.03890569,0.0766668,0.035748634,0.07409682,0.08901406,0.075761385,0.053522114,0.0008095839,-0.12552413,-0.0050146184,0.11948417,0.04075884,-0.031880032,-0.03803486,0.019932656,-0.050263293,-0.010156216,0.04685761,-0.22586899,-0.07219011,-0.12530681,-0.0065917284,-0.014103001,-0.15865079,0.0055942675,-0.07122405,0.067234285,0.016805986,-0.04312592,0.06604122,0.019139137,0.05624398,0.060641035,-0.15998845,-0.01043858,0.04833363,-0.01776544,-0.10713486,-0.17573594,0.023809426,0.06754222,0.104883865,0.07114211,-0.10241033,-0.028167294,-0.13330266,0.06854211,0.070531026,-0.15853617,-0.03757237,-0.14877285,0.049289018,0.061021537,-0.18111458,-0.09133958,-0.12615998,-0.12707861,-0.15866013,-0.047654305,-0.065125085,-0.078437254,0.012555893,0.15393075,0.10800495,0.107937664,0.025781004,-0.09940258,-0.04904351,0.07745015,0.043974206,-0.0065612653,0.08883617,0.0374558,-0.073660165,0.028691754,0.043285962,0.098645896,0.029138697,-0.035375595,-0.12012608,-0.12358285,0.007432844,0.009971372,-0.050785054,-0.17569445,-0.23585449,-0.21339169,-0.1591824,-0.039340455,-0.08323597,-0.11244459,-0.14245474,0.049767062,-0.0033371842,0.045853484,0.045275416,0.067280546,0.12827845,-0.009017763,-0.021979317,0.021360751,-0.03161851,-0.06049833,-0.110002585,-0.07952652,-0.16320772,-0.022850314,0.0009154399,0.08952399,0.10597254,0.056537777,-0.044683494,0.019618237,-0.14350453,-0.17559107,-0.08853636,-0.17073767,-0.18139367,0.009301628,-0.05951248,0.029477458,0.07330388,0.0024201456,0.032270998,0.11993425,0.12764122,0.104926355,0.021154283,-0.021098005,-0.03587905,0.05532978,0.033132557,0.07391154,-0.13226955,-0.012294391,0.009230852,-0.09175849,-0.14681849,-0.15741031,-0.16610514,-0.01958281,-0.023139536,0.0031063831,-0.110898115,-0.120129235,0.03877495,0.06101704,0.043704756,0.015007001,0.06312601,0.032325473,-0.0155815985,-0.0028024917,-0.050883804,0.04538579,0.09979174,0.116504356,0.06562164,-0.066119716,0.020001335,-0.024995312,0.008346183,0.02952573,0.0046840208,0.102524176,0.03985754,0.048478417,0.040244307,0.022387527,0.08094614,0.019332973,0.04055294,-0.02482941,0.02203948,0.039160196,0.027137507,0.059702065,-0.0364668,-0.0208584,0.048535917,0.11234171,-0.039189253,-0.05679019,-0.10098781,0.03185953,-0.09047996,-0.036345977,-0.09327198,-0.0029618612,-0.02570418,-0.014353756,-0.018608967,-0.043514006,0.09689855,0.10092022,-0.008873041,0.059814613,0.010863045,-0.03243927,-0.083805904,-0.06959239,0.09976112,-0.011783289,-0.053300265,-0.19747372,-0.2140741,-0.18701307,-0.10430363,-0.10550447,0.06934749,0.0019821262,-0.040536627,0.030252805,-0.10304731,-0.08277312,-0.07565731,-0.03159456,-0.04221301,-0.036844794,-0.0598145,-0.15402539,-0.13999562,-0.17765738,-0.0013608227,-0.10902862,-0.07675043,0.047136538,-0.085502975,-0.041797467,-0.074857585,-0.058997143,0.0013112274,-0.051778276,0.047000922,-0.02204108,0.079922885,0.0504929,0.0060376474,-0.081012696,-0.05198285,0.01861151,-0.081837416,-0.1863581,0.010619015,0.028608987,-0.00883275,0.07888132,-0.13440025,0.05522943,0.013990209,0.03291308,0.048236035,-0.02225323,0.02377997,0.13412245,0.02341829,0.061236136,-0.040558722,0.034462098,0.07577246,0.06347659,0.087095916,0.023299376,-0.14993405,-0.20306987,-0.0827551,0.03947902,0.13277055,-0.09850599,-0.087388165,-0.042962532,0.069782384,0.073711514,-0.06462609,0.011623965,0.1296509,0.18267015,-0.07065789,0.04334274,0.00909102,0.13149303,0.19037831,0.12729019,-0.002960392,0.06578342,0.066941656,-0.022487437,0.08030886,-0.102265365,0.02553928,0.042401098,0.026513733,0.1386647,-0.08569747,-0.13276476,0.051493663,0.047771942,0.017244717,0.012851761,0.049139153,0.14771223,0.038544487,-0.01897093,-0.06472693,0.0668758,0.047314182,0.06172507,0.011648264,0.027311822,-0.0060932976,-0.009443868,-0.10536452,0.00057237194,-0.1839198,-0.040294852,-0.09959163,-0.02517084,-0.0800827,0.021967176,0.051299285,0.039459065,-0.08069201,-0.37568864,-0.0057532433,0.04525135,-0.037929837,-0.1575297,-0.08361791,-0.024551155,-0.1403035,-0.032063227,-0.07121365,-0.07961297,-0.073390156,-0.022956004,0.073979296,0.064498395,0.08407637,0.045960296,0.0107659,-0.031939775,-0.10676332,-0.1066144,0.019209154,0.014985703,-0.05863746,-0.032916155,-0.14316054,0.06469456,0.041893408,0.004630897,-0.0428529,-0.121692,0.085424215,-0.008810244,0.0037613404,-0.09053665,-0.012241769,-0.05302376,-0.030935964,0.06330164,0.055411603,-0.029394729,0.040691953,0.05865715,0.14100455,0.14701344,-0.0678102,0.066000916,-0.013454748,-0.06138836,0.06328251,-0.049355555,0.014606032,0.06664231,-0.10071504,-0.014533743,-0.15616986,0.00035624023,-0.052422337,-0.10564966,-0.0015799876,-0.20344129,-0.08541401,0.025480593,0.008537299,-0.075051576,-0.15937386,0.03708994,-0.13834393,0.020913202,0.049561433,-0.034938317,-0.067197874,-0.011309311,-0.0430103,0.017366614,-0.06506301,0.009143704,-0.10214925,-0.04648815,0.08955189,0.03869998,-0.07164181,-0.08921819,0.01336158,-0.009817408,0.009612101,0.069392435,-0.049400926,-0.06948946,-0.01406116,-0.03041751,0.057693604,-0.06206663,-0.0443531,0.1156055,-0.15310888,0.05165606,-0.12519115,-0.09141621,0.01629725,-0.08096584,-0.049337737,-0.027825443,-0.11243213,0.046174645,0.03129152,-0.02198909,0.027152786,-0.048074402,-0.051022835,0.024898646,0.14602447,0.0038128425,-0.03168153,-0.1088991,0.078116804,-0.0698012,0.014789198,-0.030037573,-0.0699273,-0.015940383,-0.10232771,-0.06998397,0.07232223,0.045970965,0.037956584,-0.10054429,0.016738819,-0.1059404,0.103608936,0.086483195,-0.037401866,0.089036286,0.089774154,0.21013138,0.035812963,-0.006440252,0.01787216,0.024841491,0.053669322,0.07699133,0.06907905,-0.029719235,-0.10022105,-0.1944255,-0.18409134,-0.056801062,-0.13064831,-0.23632668,-0.14717282,-0.06381313,-0.07669949,-0.01984642,0.050152056,0.036506634,0.10163161,0.033957396,0.10911218,0.08522752,0.14940847,0.07524214,0.0025131677,0.05512122,0.058741137,0.03816088,-0.03434374,0.10258046,0.09289823,-0.020139053,0.14416659,-0.16432554,0.08784812,-0.016662462,0.05094674,0.11463932,-0.025739826,-0.101383954,-0.0652444,-0.0064629214,0.07991232,-0.009282177,-0.015321201,0.02198866,0.062359743,0.10635338,-0.012832749,0.0031231872,0.04675562,0.1286541,0.042663105,-0.04329144,-0.033065736,-0.016986093,0.052571584,-0.03530841,-0.03718078,0.023124378,0.07602853,0.060449164,-0.06152448,-0.041181196,0.032597687,0.054064058,0.029499201,0.020406969,-0.0850098,0.015519434,0.015766677,0.08469812,0.02212177,-0.05737297,0.009201235,0.055236135,0.06521288,0.08544493,-0.02498276,-0.060130116,0.03329346,0.030962877,-0.1459008,-0.1278517,-0.10725517,-0.027617445,0.0345542,-0.081150666,-0.062114693,-0.15396793,-0.108935826,-0.0835495,0.03272938,-0.08875842,-0.1842246,0.033793014,0.03238028,0.015469918,-0.06028992,0.05482667,0.112281665,0.10864152,0.09176454,0.048447207,-0.04542558,-0.07845656,0.0064517483,-0.054515958,0.016170401,-0.012761881,0.11570835,0.116719246,-0.0031578678,-0.10409784,-0.079960726,-0.056452606,-0.10509658,-0.07939839,-0.036041625,-0.19791466,-0.2541136,-0.061467793,-0.11663474,-0.09820397,-0.23126638,-0.0733643,-0.056215797,-0.12932824,-0.047705468,0.12563285,0.14601085,-0.019727457,-0.026478987,0.041029427,0.005414781,0.111353904,0.007039612,-0.12982231,-0.039718382,-0.020246077,0.01776479,-0.07778167,0.12142025,0.06932463,-0.26590216,-0.2375933,-0.06951377,-0.07856594,-0.0618056,-0.1062511,-0.034553993,-0.031729516,-0.03850122,-0.017761758,0.06570414,0.06505926,0.090005815,0.12281298,-0.007213128,0.018875787,-0.015307688,0.08679941,0.064171955,-0.036554758,-0.06169128,-0.053795096,-0.040114213,0.048164513,-0.052583925,0.07151684,-0.10757913,-0.061206304,0.031553384,-0.03835495,0.10226425,-0.06551922,-0.00040600306,-0.11510448,-0.019069893,-0.0368089,0.021083016,-0.023132846,-0.112226695,-0.1868947,0.034315303,-0.07549828,-0.03231509,0.08871763,0.035484873,0.053603176,-0.07800683,0.067134194,0.021286115,0.035471484,0.027149009,-0.11722642,0.105796516,0.10104547,-0.052973166,0.022983525,0.1312479,0.03242262,0.13723873,0.052928157,-0.06042611,0.03083105,-0.10046542,-0.0480049,-0.039118417,-0.017228534,0.062080584,0.0012526107,0.007813642,-0.0055270167,0.0039378004,-0.086298294,0.060307045,0.044058487,-0.11285562,0.103869095,0.057352174,-0.042135403,0.042811096,0.052223824,0.113624185,0.09460524,0.06218588,-0.033969223,-0.0029598088,-0.025317589,0.1450222,0.18350711,0.118364945,0.030228123,0.098800465,0.09779006,0.0403718,0.045946445,-0.060368843,0.0936972,0.07041051,0.12065727,-0.08421233,-0.018590417,0.04273547,0.16113171,0.07438511,-0.03887804,-0.013212587,-0.029726679,0.069367595,0.09058489,0.034185614,-0.13718152,0.051345564,0.074359715,0.042238187,0.06702784,-0.02218968,-0.033919066,0.11990931,0.028009268,0.063951135,0.016999114,0.054087624,0.030784464,0.0056340722,0.057501458,-0.042013194,-0.019707639,0.03149944,-0.07230657,0.0026827438,0.14531744,0.0032127379,-0.030397037,0.067119636,0.10613472,0.056887727,0.11822381,0.190485,0.11751347,0.1528137,0.14453037,0.21277612,0.2107538,0.14478956,0.08892051,-0.051559348,0.09248788,0.0338303,0.019711562,-0.040673144,-0.13461506,-0.07281589,0.056374572,-0.034894757,-0.11048305,0.018730415,0.009397643,-0.0365596,-0.08071229,-0.0759059,0.023093969,-0.14132793,-0.17299634,-0.06371021,0.053049125,0.005128922,-0.20561163,-0.08332857,0.113344416,-0.054535735,-0.051494244,-0.054113835,-0.01359154,0.046892114,0.01423395,0.042563528,-0.08630899,0.040269017,-0.0054663513,-0.026269808,0.05712158,0.06690663,0.10423478,0.025726862,-0.06843947,-0.10169903,0.022323307,0.05555826,0.094221406,-0.017160125,0.13353606,-0.022411581,-0.019072369,-0.055113066,0.0024743483,-0.019522218,0.06323662,-0.101578675,-0.06284631,-0.041014973,-0.14964241,0.042640116,0.10691254,0.015211147,-0.12390537,-0.10020943,-0.012614483,0.10207022,0.016943384,-0.115927175,-0.1254303,-0.077422544,0.021430975,0.06721744,0.08212786,-0.021232374,0.12033088,0.012771867,-0.051729176,-0.027005624,-0.00039592118,0.08372508,0.040794622,-0.01916492,0.032764193,0.05793451,-0.07587327,-0.12380989,0.05208516,0.07537363,-0.096548624,0.030072218,-0.0026796334,-0.0035861111,-0.05118208,-0.097955704,0.06770459,0.07229043,0.025204657,0.0031229982,0.0056274766,-0.055272087,0.050808128,0.029530356,0.059984773,0.032641567,-0.12945542,-0.08574587,-0.06446988,0.10161553,-0.14198549,-0.038158614,0.061997175,-0.023143338,-0.16970506,-0.023549043,0.13460986,-0.114231266,-0.051359612,0.04578859,0.09539172,0.0654181,0.056742422,0.019331308,0.075823314,0.085322015,0.07865964,-0.08347573,-0.061448887,0.084405676,0.02637532,-0.062215924,-0.09350538,-0.006572161,-0.02401867,-0.025577988,-0.0733131,0.020520734,-0.04827247,-0.035105385,0.048546433,-0.0035009854,0.029015832,-0.019582765,-0.017520651,0.038975973,-0.03252914,-0.011576829,-0.014593022,0.060125787,0.04266193,0.052829165,0.024565369,-0.16668054,0.04212018,0.1363431,-0.07608362,-0.17047934,0.11356189,0.11935048,-0.0699221,-0.013762835,0.026401097,0.16591896,-0.18353805,-0.14273927,0.085858606,-0.06594063,-0.17521654,0.0820788,0.15451013,0.040717583,-0.06370979,-0.038997855,-0.07581448,-0.1389414,0.08211641,-0.0030230174,0.019028433,-0.17847362,-0.13731833,0.1337215,0.06473914,-0.12949379,-0.03480436,0.015042235,0.13313556,-0.061185457,0.026205216,-0.06258909,-0.054093517,-0.2063396,0.0057753394,0.040079165,0.003409937,0.005163208,0.09839417,-0.010910557,-0.038619015,-0.093274474,-0.12929362,0.044075407,-0.020519715,0.017059514,-0.15671411,0.04295565,0.04328742,-0.113094024,-0.009364031,0.15482579,0.076295786,-0.043844838,0.13783962,0.21553339,0.08158686,-0.13987479,0.010619545,0.024596997,0.026424456,-0.020946946,0.1346577,-0.03219286,0.07282703,0.21858709,0.16376758,0.07251411,0.101742946,0.052621264,0.042693205,0.016057372,-0.15629253,-0.083770595,-0.018522866,-0.13772118,-0.15150654,-0.04989735,0.008105348,-0.1270012,-0.13518019,-0.0680585,-0.051276486,-0.0634517,-0.128635,-0.05782757,-0.021943774,-0.077306464,-0.08152541,-0.11038143,-0.083368145,-0.10604596,-0.047985174,-0.031488158,-0.12791474,-0.03789597,-0.024408257,-0.0077074505,-0.045410477,-0.12738128,0.011666484,0.0033422469,0.042589005,-0.019801553,-0.011766881,0.010670222,0.031710178,0.025955709,0.023770763,0.09447029,0.097326815,0.020941664,-0.039684363,0.064080425,0.096121006,0.107074186,-0.032635335,-0.053329237,0.09758199,0.11852743,-0.091705605,-0.09047428,-0.058564372,0.04265762,-0.01086985,-0.13206199,-0.12307983,-0.1979965,-0.080018975,-0.06813736,-0.17775156,-0.07321451,0.09169475,-0.23297474,-0.18372644,0.049432795,0.02495578,0.05377383,-0.034267094,-0.10995298,-0.059270844,-0.18842861,-0.303064,-0.016694631,0.06064036,-0.13821863,-0.27483052,-0.10683328,-0.009832712,-0.024616435,0.0148644075,0.03453883,0.020633398,-0.11416983,-0.05359119,0.06574905,0.05607491,-0.05461003,0.017312897,-0.02294535,-0.062273987,0.09830685,0.04100401,-0.017297952,-0.06794203,0.042201452,0.050315864,0.020640677,-0.021167401,0.095829144,0.10011548,0.04568439,-0.019398445,0.13217914,0.036997512,0.048995994,0.11807415,0.087259255,0.03382786,-0.0891038,-0.07432098,-0.04452957,0.046839543,-0.14496611,-0.11816265,0.037855096,-0.015712338,-0.034803838,-0.010215321,0.03363396,-0.023625994,0.1278331,0.013559912,-0.012420052,0.056853384,0.038522273,0.054723617,0.027241131,0.03206086,-0.020669946,-0.035927143,0.11084539,0.09449237,0.009687645,0.017698677,-0.018370055,0.008732361,0.06672468,0.053310078,-0.0054433374,-0.032372173,-0.0009953185,-0.009731473,-0.04750122,-0.097779974,-0.04362652,-0.016651573,-0.079183355,0.027387885,0.040860955,0.012943337,0.021251159,-0.11553778,0.14954856,0.036183637,0.058876164,-0.053792812,-0.0890516,0.12590063,0.024410559,0.025271708,0.079528935,0.10331992,0.09432209,-0.010538536,0.0169707,0.08941911,0.10456692,0.07711483,-0.016525075,0.032448243,-0.028850844,0.06931419,0.03818474,0.061171032,0.17787951,0.10065088,0.15206403,-0.019726753,0.099793896,0.11374067,0.07779404,-0.035742287,-0.035385545,-0.114237905,-0.12594624,-0.040388945,-0.003462539,-0.123916045,-0.13679524,-0.048288662,-0.10320799,-0.12120014,-0.09967501,-0.0027533248,-0.088935316,0.0011675066,-0.046677664,0.03321786,0.11719802,0.15179099,0.080830276,-0.07435495,-6.154948e-05,0.011290262,0.041894812,-0.0032041331,0.02437824,-0.066561714,-0.08751109,0.011466017,-0.08992786,0.008970407,-0.025940064,-0.022028541,-0.009262279,-0.09152842,-0.06742431,-0.05717099,-0.1346032,0.006966119,0.016064359,0.021081218,-0.02690324,0.07903782,0.035958137,0.16680461,0.03295643,-0.07511981,-0.08091947,0.04707138,0.15295845,0.091447204,-0.2216523,-0.18503958,-0.06531333,-0.12967987,0.049502127,-0.13133252,-0.0997837,-0.020019243,-0.037622996,-0.03814193,0.002326474,-0.09335814,-0.05887475,-0.27105555,-0.06117692,0.14239763,0.056974117,0.053343687,-0.024960075,-0.06826125,0.17001262,0.13466474,0.11721506,0.09898837,-0.05876068,0.045289204,-0.03653635,0.020893129,-0.055851143,-0.09348042,-0.008227261,-0.008471979,-0.040947597,0.07606662,-0.051410053,0.041222893,-0.06777572,-0.06435163,0.024573022,0.061772957,0.06161623,-0.024370378,-0.076035984,-0.035705805,0.06731169,0.031373426,0.024224022,0.011793974,0.032621652,-0.113518625,-0.033901695,0.036384262,0.0776654,0.07243082,-0.031259075,-0.017268457,0.06261077,0.08066346,-0.016233362,0.087954715,-0.047981605,-0.061590277,-0.08980675,-0.0070153694,-0.07124947,-0.03547686,-0.0065501425,0.06489504,0.064455174,-0.14927605,0.06561469,0.073081836,0.08317052,0.014126325,-0.09407214,0.07455535,-0.027386615,0.06223172,0.012697127,-0.108683474,-0.052253,-0.030691678,0.13257976,0.102426,-0.0068824193,0.05805287,0.13117854,0.10721656,-0.059422042,-0.03639584,0.12675655,0.117747456,0.03579209,0.06824658,-0.0413342,0.09412934,-0.010841279,0.03250442,-0.021445174,-0.018423188,0.021762092,-0.047524046,-0.002538068,0.0022651476,-0.13171412,-0.03277933,0.03402075,-0.0571884,-0.07338377,-0.066561565,-0.088259645,0.0830864,0.16049074,0.05351572,0.13752419,0.005930821,0.08784273,0.1520872,0.02891138,-0.02154895,-0.07751035,-0.059258465,0.010908112,0.038209446,-0.16221564,-0.016765976,-0.0890791,-0.06969025,-0.07889755,-0.16532885,-0.034753952,-0.024839483,-0.15863462,-0.06769862,-0.14843178,-0.08652349,-0.015052231,-0.032596096,-0.017228551,0.11831312,-0.004310656,0.098674454,0.11010203,-0.082537726,-0.07293524,0.0057829823,-0.014609468,0.09675263,-0.116597876,-0.18155305,0.09775871,0.088604465,-0.029401049,-0.107715726,-0.24038596,0.003777292,-0.009514894,-0.12927428,-0.13868137,-0.070487395,-0.14419074,-0.12916398,-0.09029125,-0.082789764,-0.111813575,-0.08542081,-0.10144696,-0.18611263,-0.18538974,-0.08288339,0.032113977,0.019161442,-0.15001458,-0.08971417,0.043687202,-0.002461947,0.0499527,0.000735185,0.071245335,-0.08438999,0.059857246,0.06313688,0.018600514,-0.02442486,0.0316057,0.11082954,-0.042153668,-0.011983151,-0.010109876,-0.08325064,0.0045016184,0.0071732244,-0.00229839,-0.11981511,-0.20997453,0.07339684,-0.09188918,0.058531918,0.017324438,-0.22313924,-0.08684011,0.058082912,0.11250477,0.024552861,-0.13226284,-0.036832094,0.0681319,0.00844731,0.0676949,-0.13484633,-0.069159865,-0.004031072,0.016741795,-0.05040401,0.007907398,0.011999137,-0.0649906,-0.07208785,-0.005771298,-0.041560575,0.017027354,-0.10889743,0.0021793148,-0.06484174,-0.061054118,-0.03188863,-0.07491759,-0.18878974,-0.14443673,-0.0904191,-0.042480532,-0.07801499,-0.04136398,0.015435786,-0.012989569,-0.064808935,-0.060941055,-0.048767433,-0.034827396,0.13276514,0.014072238,0.07399027,0.08507027,0.05056171,-0.066950455,0.07822388,-0.0052358583,-0.042218514,-0.07934583,-0.06814187,0.02914497,-0.013693266,0.03390433,0.0939087,0.081353135,-0.057334572,-0.030045705,0.021084137,-0.09866416,-0.043256268,-0.03911279,0.13058196,0.017038325,0.03307187,0.026426846,0.08364358,0.11159971,0.17376903,0.16219515,0.099685445,0.08574612,-0.015519193,-0.062170982,0.01557255,0.038301747,-0.05668515,0.0034747247,-0.08776935,0.006375057,-0.16244687,-0.02327712,-0.07535689,-0.11912217,0.006896021,0.044185936,0.0016020634,-0.04465726,0.023059152,0.013881405,0.048173178,0.0016934511,0.058572263,0.12737404,0.019077046,-0.030869288,0.077383354,-0.01987996,0.050988406,0.08387762,0.094087735,-0.06209352,-0.0363091,0.02887495,0.06288214,-0.078935504,0.10472377,0.16773798,0.05574894,-0.086751714,-0.14400823,-0.07183935,-0.0690634,-0.12296323,-0.1368323,-0.08106532,-0.011311533,-0.10171807,-0.099053316,0.08776126,0.07586995,0.09720077,0.11988427,-0.00033508672,0.067555174,-0.0455002,-0.02924086,0.06818011,0.0910776,0.008604501,-0.01218858,-0.05657444,0.026417717,0.012569922,0.07445733,0.07306346,0.066586934,0.09958282,-0.0846454,-0.012125491,0.0065824366,-0.06222032,-0.08675088,-0.021993173,-0.090475395,0.030530434,-0.080243096,-0.11399458,-0.18036231,-0.27646157,-0.18461154,-0.055735026,-0.093562305,0.045423668,0.021390533,0.021321159,-0.115916945,0.16161041,0.0696764,0.13003048,-0.00031258224