-0.054445546,0.040234547,-0.007134537,-0.060309492,0.033785023,0.052486792,-0.019590994,-0.07501653,-0.050225712,-0.1173736,-0.077554815,-0.056310575,-0.08014189,-0.07344027,-0.10044508,0.08184828,0.01930396,0.00811177,0.017882902,0.13183258,0.08770827,0.012028827,0.007353271,0.23940459,-0.10683968,0.17848352,0.041138843,-0.04878086,0.09405307,-0.11283124,0.0766899,-0.0024922863,0.0065291137,0.132388,0.03352051,-0.008263601,0.039685346,0.14904268,-0.052295182,-0.03275312,0.04951247,0.056518838,0.068443365,0.17900948,0.19272676,-0.09748213,-0.08790314,-0.08360525,0.20145653,0.052084327,0.025112908,0.02097374,0.08215232,0.039225426,-0.049642894,-0.018022012,0.15525031,-0.15003975,0.1075134,-0.027338123,0.041556075,-0.018670887,-0.016830077,-0.16797604,0.0033650137,-0.086237036,0.05115611,-0.06978214,-0.08587481,-0.09335536,0.16137043,-0.025409117,-0.042071216,-0.13618718,-0.05493354,0.03810506,0.16013479,-0.07618304,-0.042870708,-0.06733996,0.0527216,-0.080832794,0.0041355216,-0.00039473522,-0.031047357,-0.048770778,0.07530851,-0.056859802,-0.012013422,-0.072375216,-0.0937273,0.027415346,-0.054731004,0.10621137,-0.0023880494,0.0828383,-0.0094229765,-0.06094028,-0.0056361672,0.045714706,0.10416994,-0.03723303,0.014436394,-0.026162745,0.014725359,0.0038722316,0.093228534,0.07665932,-0.0045304066,0.09368834,0.011633241,0.08285697,0.020536998,0.1939807,0.036534194,-0.02449581,-0.04112807,0.013703293,0.12873949,0.1219684,0.04331865,-0.03119472,-0.07317984,0.023923362,0.029391266,0.034047335,-0.018319847,0.10920688,0.022662792,-0.07202541,-0.022839844,0.14951971,0.042622052,-0.012077996,-0.13256598,0.0119060725,0.07565456,0.003162988,0.1366549,-0.06107152,-0.05597389,0.050483055,0.029461456,0.07227433,0.055236105,-0.11042109,0.10203113,0.090436734,0.10585602,0.011565998,0.16099538,0.181975,0.010452023,-0.015758272,-0.005383413,-0.08575503,-0.09339603,-0.04805409,0.034590222,-0.047803104,-0.06701436,0.12061601,-0.15287776,-0.007382993,-0.07063242,0.0014054895,-0.07410651,-0.048378766,0.17349127,0.0983242,0.02129821,0.033360135,-0.11850852,-0.02359463,-0.011517279,-0.04592299,-0.06938886,-0.10960932,0.19232035,-0.046354197,-0.07322623,0.032377053,0.099936776,0.02465199,0.023670692,0.018181106,-0.013495968,-0.015971154,-0.15344279,-0.09452591,0.31977418,-0.031298034,-0.08132671,-0.021863936,-0.15111235,-0.12808134,-0.065874465,-0.11960059,0.015916288,-0.14617416,0.013701276,0.046749428,0.029754553,-0.098279074,0.05336953,-0.08627739,-0.098160766,0.037729997,0.087758616,0.00075120316,-0.03814184,0.05595188,-0.08451433,0.021061338,-0.06890987,0.03408986,0.05527992,0.02328238,0.0007850238,-0.070950694,0.015005196,0.04672888,-0.0035824187,-0.03257343,-0.024054138,0.10905072,0.036870938,-0.0625352,0.03335622,0.059872366,0.19354908,-0.11310713,-0.007304408,0.04183755,0.16087501,0.0649368,0.008000404,0.08302551,-0.044321153,-0.0007656566,-0.07482304,0.03494975,0.03860456,0.16538316,-0.082731076,-0.19245768,0.09971713,-0.047683857,-0.11114385,-0.07552466,0.061249778,-0.1125657,0.021198604,-0.20532842,-0.12528045,-0.025326094,-0.17542997,0.022946533,0.013788055,-0.05626693,0.01642442,-0.0012829554,0.0961637,0.07831432,-0.10028694,-0.10930484,-0.045594282,0.014107084,0.020406017,0.024770558,-0.01455138,0.032923926,-0.0074796807,-0.07280598,0.018805303,-0.12526602,0.07606053,0.031117495,-0.022981258,0.1812021,0.06501678,-0.03486457,-0.06749727,0.034139555,-0.18226494,-0.1316026,-0.010851896,0.16424048,-0.035679813,0.031197378,-0.06871571,0.08308859,-0.050411988,-0.03130242,-0.031231984,0.030811315,0.0031033258,0.20033301,-0.036260784,0.023783838,-0.07501668,0.081597805,0.00641562,0.09045688,0.12177162,-0.026108341,-0.14057015,0.02510304,-0.091323666,-0.1958989,-0.04953834,-0.07637313,-0.1219271,0.03360103,-0.107840426,-0.13376845,0.026799431,-0.050927047,0.13116439,-0.08146638,0.0057462463,0.03083571,0.059302405,-0.12632096,-0.07338532,-0.037516553,-0.033746805,0.06938565,-0.16077667,0.021041146,0.08029664,0.04448324,-0.14176138,-0.0643204,0.042339552,0.0621897,-0.041361026,-0.050074365,-0.04802446,-0.012199203,0.029827343,-0.005712777,0.0981707,0.032943707,-0.07845339,-0.05736712,-0.039282165,-0.031818327,0.06503036,0.12993053,-0.10638713,0.13058211,0.11776344,0.08606437,0.0845875,0.10412213,-0.087786466,-0.07011849,-0.030688561,-0.061723642,0.086392105,0.11787519,0.10084681,0.084818885,-0.07798297,0.1757632,-0.13797104,-0.036371037,-0.025145458,0.02361554,0.03270161,0.04421202,0.07696494,-0.010646122,0.053418577,-0.07104411,-0.045234006,-0.111788385,-0.006554833,-0.067854255,-0.107781865,-0.010368459,-0.085363455,-0.10098132,-0.024130959,-0.082758196,-0.06245557,-0.018570643,-0.15911959,0.087051384,0.099171385,0.10736308,0.030870583,-0.15126377,-0.094578035,0.01499166,-0.016103175,-0.12991019,-0.021065593,-0.1905875,0.054569848,0.108457826,-0.06820093,-0.10712442,-0.05743641,0.15323944,0.036328334,0.013468888,-0.004494318,0.035056222,0.08517853,0.048797637,0.014399885,-0.12014386,-0.13924056,-0.08493251,0.028580481,-0.059582796,0.06926056,-0.053972915,-0.004945128,-0.03097892,0.036145028,0.12539303,0.117974624,-0.038503833,-0.15939656,-0.061435346,0.03203263,0.096100196,-0.015600582,0.11560658,-0.026652124,0.0020981971,0.055206813,-0.054490164,-0.05326553,0.01135494,0.0027955233,0.0037477282,-0.01929127,-0.031296756,-0.13558099,-0.07301609,-0.11896321,0.015690215,-0.054212123,0.02973553,0.058162604,-0.0087124035,-0.13560838,-0.010609761,-0.00813266,0.013599879,-0.07197957,-0.04368765,-0.07235067,-0.08204911,-0.13786103,-0.12348086,-0.24422255,-0.035958674,-0.13735485,0.098912835,0.015466564,-0.06135289,-0.010825542,-0.14240374,-0.07972489,0.052698422,0.058969095,-0.015598447,-0.1004782,0.12668206,0.1127369,0.08351969,0.09095867,0.0025770876,-0.062405735,0.0005318493,0.05632366,0.077181794,0.05072636,-0.0040043225,0.0486242,0.06382275,0.03472311,-0.05623836,0.12610154,0.06268786,-0.13278003,0.028422741,0.08130252,0.07969583,0.015785484,0.046790667,0.08726647,-0.056637168,-0.061585415,0.10007712,0.10867192,-0.06568715,0.0057185534,-0.09528544,0.14763324,-0.0025614293,-0.16080402,0.12989311,-0.053006638,-0.013648657,0.16173649,0.12551486,-0.00041282515,-0.02426975,0.09507122,-0.024257973,-0.063639954,-0.060854558,0.10392494,-0.1475188,-0.010724465,-0.0049286163,-0.03595879,-0.06310438,0.08969337,0.022423256,-0.0042924723,-0.11200234,0.07949577,0.10380339,0.111199744,-0.041031364,-0.06535944,0.10182649,-0.014450809,-0.05917005,-0.040342066,-0.05908855,-0.082968876,-0.118053615,0.025485557,0.17255804,-0.16156705,0.004919011,-0.06267488,-0.0024392167,0.023999427,0.15388823,-0.012286955,0.01622924,-0.0055762567,-0.06530968,-0.04652999,0.07150745,-0.025814785,0.14294575,0.0846764,-0.030834828,-0.035644997,-0.090498894,-0.03169235,-0.05472372,0.085592486,0.12484518,-0.03057642,-0.16180536,0.036779046,-0.079888076,0.18440661,0.08180257,-0.10078632,0.013754432,0.11503609,-0.01984622,0.09113942,0.010705845,0.119461365,0.085584536,0.175904,-0.0920272,0.11287486,0.18676493,-0.0012347425,-0.08328291,0.046983257,-0.08180063,-0.00063197035,0.048436005,-0.010471046,0.050005097,0.13306259,-0.056399852,0.0049228957,0.055198964,0.0015184585,-0.046723872,0.079503484,-0.024222955,-0.0068506477,-0.09760524,0.0023761455,-0.021835158,-0.12480424,-0.07329598,-0.12770426,0.062294528,0.04339994,-0.09306574,-0.0041575395,0.12842602,0.11217072,-0.08035555,-0.08270431,-0.01882608,0.06458774,0.030369084,0.17156127,-0.04917788,-0.0773998,0.019736083,0.05545466,0.0033941516,-0.018999103,-0.12844107,0.09242413,0.05974997,-0.0072321096,-0.0994919,0.03082918,-0.085030116,0.15315293,0.026198277,0.114204325,0.06942354,-0.03783094,0.13024259,-0.0040277145,-0.15778747,0.024743857,0.11929826,0.08883956,-0.038386352,0.14398047,-0.020238586,-0.0923388,0.06201367,-0.00830887,0.047510147,0.0052539534,0.032097522,-0.012277005,-0.002974026,0.12338714,0.06131355,-0.0527807,-0.00921232,-0.04295043,-0.0888848,-0.09675992,-0.059984665,0.04613956,0.012469845,0.0140076745,0.10091588,-0.06062292,-0.07155829,0.11955939,0.060780004,0.2893275,-0.017911138,0.109887175,0.049532544,-0.104048714,0.07933021,0.040227037,0.07069991,0.088595234,-0.031936083,-0.031620357,0.014713379,0.12507604,0.11911724,0.009554001,0.08200189,-0.031920433,0.06285797,0.104324535,-0.012786826,0.048970208,-0.1641427,0.0042366423,0.027628794,-0.06779676,-0.13405052,-0.027846685,0.020474324,-0.1349582,0.12761024,-0.07655187,0.04591723,-0.12207898,-0.086063,-0.12301143,-0.027135307,-0.05751367,0.022421023,0.042191677,0.027393995,-0.053352803,0.13351363,0.09704091,0.030377718,0.0723172,0.103316925,-0.026045622,-0.0893356,-0.13161488,0.09542848,0.18260834,-0.08359878,0.074716344,0.0008565955,-0.049120627,0.027581489,-0.09152669,-0.041986912,0.024181455,0.09883004,-0.022724712,-0.0403099,0.1770295,-0.027122092,0.03806149,-0.031900056,-0.11150238,0.027591402,-0.23336068,-0.119065784,0.044085342,-0.041092798,-0.08940029,0.07251741,-0.12286829,0.059974562,-0.007651889,-0.06371428,0.048230395,0.015910802,-0.092421435,0.0943815,-0.12273106,-0.03747225,0.031813703,-0.11817767,0.1215633,0.13861531,0.095142126,-0.18989556,0.07996271,-0.049636368,-0.025379753,-0.007829228,-0.04870942,0.08679313,-0.02570213,0.12808964,0.08295048,0.17100787,-0.07358846,0.080244206,-0.005114311,-0.035985418,-0.06461819,-0.20207718,0.053516276,0.0037849636,0.057774134,-0.04203054,-0.08285373,0.13776688,0.0816157,0.09712623,-0.01578476,-0.06840358,0.14072908,0.034205034,0.025018865,0.01725524,0.095076,0.09464926,-0.15831417,0.044302415,0.016141362,0.055338193,0.025690893,-0.013326223,-0.047430955,-0.012901279,0.14249647,0.012943698,-0.069023296,0.08321629,-0.051635712,-0.10113021,-0.0287858,0.17669584,-0.10936806,0.013849171,-0.019979483,0.051178694,0.06953378,0.06881596,0.046256095,-0.046401918,0.0010406135,-0.12853058,-0.0889393,0.019643618,-0.12295329,0.026624158,-0.09920326,-0.015345837,-0.028007235,0.071031444,0.06880969,0.042044643,-0.1093742,-0.13076977,0.111681335,-0.018651554,0.043901566,0.06519035,-0.13131589,-0.087299466,-0.15897398,0.11760589,0.010330869,-0.042052843,-0.03453294,-0.018334892,-0.041535195,-0.0654494,0.105609305,0.02653188,-0.051672947,-0.074122734,-0.09870507,-0.07303792,0.099175006,-0.04542632,-0.08446783,-0.06428569,0.010075544,0.016274301,0.033356465,-0.063200235,0.104543686,-0.01928388,-0.11592786,-0.0376568,-0.037182663,-0.16357645,-0.062350843,-0.03757906,-0.028990995,0.1320593,-0.07159799,0.005541073,-0.026716331,-0.17283887,-0.054542135,-0.027873915,0.07062258,0.16727136,0.0862492,-7.52716e-05,0.077452116,0.062482495,-0.08891457,0.1419357,-0.02597573,0.0022777717,0.18923563,0.035173032,-0.04039039,-0.06818077,-0.13498583,-0.1029342,0.024570992,-0.14493513,0.02769168,-0.021745726,0.08451067,0.11261132,0.0855008,0.0015349395,0.11526938,0.06296179,-0.084200695,0.098055065,0.017468905,-0.093721144,-0.018153584,-0.10163462,0.005519987,-0.14373113,-0.04316825,0.011833985,0.11357004,-0.03983422,-0.21542844,-0.06912066,0.048683457,0.06291319,0.06441298,0.081167474,0.13211916,-0.005939801,0.031747643,0.09625446,-0.06977741,-0.054880746,0.07991167,0.13282573,0.07182456,0.011796049,0.11620844,-0.008651891,0.0013053318,-0.101809986,-0.07187473,-0.03265445,0.11670515,-0.015759204,0.011785652,-0.039097957,-0.06494538,-0.026221428,0.06498684,-0.09840745,0.14065114,0.021736074,-0.067729756,0.0039680493,-0.027617918,-0.17188004,0.095423885,-0.061497267,-0.032890346,-0.021516228,-0.088688135,-0.14304978,0.11178958,-0.08750499,-0.1449446,-0.09495692,0.09383026,-0.08650404,-0.012557625,-0.16820003,0.007880107,0.08835845,0.049343385,-0.009953479,0.067276455,0.0123588,0.026269684,0.031786878,0.113490544,-0.11191283,0.0091370465,-0.030345473,-0.10076177,-0.0681707,0.037909575,0.15735021,0.1108762,0.111897014,0.14133473,0.009969572,-0.014821181,0.061288297,-0.008305618,-0.03746857,0.01501129,0.11723284,-0.058317076,0.022917192,0.09788311,-0.04137055,-0.022371331,-0.020195825,-0.06017079,0.055302847,0.05320984,-0.049995564,-0.002844773,0.016329536,-0.0631,0.01870128,0.16111827,-0.013658892,0.06936092,0.040756535,-0.073296204,-0.017174749,-0.0018632463,0.015959349,0.05938067,0.12361984,0.25770724,-0.1728387,0.0035360062,0.09166216,0.04642624,0.034474164,0.10103385,0.020470137,0.0033137647,-0.03509756,0.12758115,-0.1453498,0.13566658,-0.016036205,-0.0363109,0.054205578,0.03822484,-0.049585935,0.046845093,0.10254303,-0.04984921,0.019367265,-0.11273441,-0.102978915,-0.037518207,0.04513977,0.08397727,-0.13357322,-0.122535296,0.14812522,0.065391585,-0.16495253,-0.031046163,-0.052935947,-0.10194143,0.049083125,-0.04916229,-0.09113459,0.11263743,-0.010781565,-0.046991486,-0.16812897,3.3206245e-05,0.15030712,-0.04775312,0.061705645,-0.1526387,-0.116924465,-0.075034045,0.05198656,-0.046705008,0.017373703,0.060935207,-0.109418035,-0.0873039,0.046370167,0.0030809129,0.11445174,-0.08527897,-0.023881678,0.102621615,-0.0029990808,-0.058457665,0.13113005,-0.05869617,-0.088093944,-0.04715577,-0.18562573,0.046285015,0.09038886,-0.030915625,-0.009769396,0.05375121,-0.119886935,-0.16493635,-0.0461392,0.11348882,0.0612632,-0.029363878,-0.08400079,-0.054795034,0.048067555,0.112457804,-0.10483346,-0.060894556,-0.056339685,0.035060097,-0.18903586,0.048477735,0.015913794,-0.006685442,-0.0037954259,0.038194638,-0.023218198,0.065445215,-0.018372428,0.081993766,-0.009858444,0.1310015,-0.063436985,0.058557004,-0.10612495,0.049611583,-0.03453,-0.11548165,0.18399014,0.036378648,-0.033247106,-0.019307327,-0.014764827,-0.16191253,0.12937665,0.02035731,-0.07897111,0.004646348,0.013049612,-0.13569929,-0.1275059,-0.031646233,0.12799299,-0.11949715,0.10245801,0.06567158,-0.08050079,0.08916061,0.06021865,-0.10344432,-0.026695205,0.056129787,0.070438884,0.06784782,0.027782734,0.028563846,-0.01978275,-0.055372145,-0.034971192,0.0034895253,-0.16399647,0.10054719,-0.09828649,-0.0017110071,0.049463537,0.07623952,0.013771175,0.07594324,-0.009547245,0.014074829,-0.022777304,-0.040663715,-0.051760036,0.058081772,0.15255272,0.06753958,0.12823017,0.2362698,-0.03775108,0.020090561,-0.0955691,-0.01337705,0.05941669,0.03141621,0.1227896,0.14534776,-0.06584971,0.0017711853,0.0036060459,0.08318807,0.08629352,0.04030588,-0.01969109,0.02295538,-0.1263684,-0.107073486,0.059620377,0.052861564,0.07295567,-0.10243286,-0.039201915,-0.030109463,0.027879253,-0.10251011,-0.01495386,0.043829318,-0.1519852,0.009032673,-0.04503842,-0.05325615,0.112021476,0.064383715,0.033406284,-0.12017514,0.023770941,-0.006335465,0.08718177,0.030474914,-0.05163774,-0.065552734,-0.08472961,-0.118496746,-0.009474977,0.05600953,-0.13357213,0.051959366,-0.06887845,0.035008825,0.018175995,-0.22007018,-0.032769497,0.023262862,0.027287725,0.0769363,-0.034486953,-0.039761122,-0.023479968,-0.06920584,0.046336874,0.15823488,-0.0021047227,-0.23750402,0.11260008,0.045053508,-0.05445658,0.08202742,-0.1603055,-0.005071605,0.06329624,0.033871315,0.13866849,0.020287551,0.1233488,0.09685185,0.07563527,-0.047260758,0.023041457,-0.05000757,0.011827815,-0.0080803735,0.093481526,-0.05896895,-0.04919579,-0.11535281,0.09462945,-0.08275999,-0.04746365,0.018203799,-0.038244966,0.08798406,0.052379612,-0.010404908,-0.11367824,0.054364547,-0.058929335,-0.0447281,0.18006873,0.050164275,0.11289599,-0.009948554,0.2263406,-0.07380608,0.07394444,-0.10131295,0.040039178,0.090419576,0.041373726,-0.09080797,0.055223502,-0.022497244,0.008324026,0.087778606,-0.11671761,-0.10545946,-0.03624721,0.03479667,-0.0737067,-0.14593604,0.07566507,0.009490789,0.08051088,-0.0438752,0.025317386,0.005380569,-0.037593313,-0.01566968,0.042245813,0.07093581,-0.06263583,0.12990916,-0.028634116,-0.06852433,-0.035728127,-0.15491568,-0.06727461,0.07524881,-0.07251082,0.010611518,-0.08939829,0.10073598,-0.070504494,0.10760663,0.020419301,-0.06665859,-0.070694596,-0.036032267,-0.011427058,0.04599476,0.06010986,0.06396925,0.14687575,-0.053199764,-0.04614032,0.11057285,0.043664433,0.0009100092,0.07616325,0.15763983,-0.03459427,0.012822159,0.06915193,0.007393448,-0.038234062,-0.0542035,-0.029376818,0.052165065,-0.009756233,0.06651392,0.057545643,-0.09501929,0.117969744,0.12023344,0.04806855,-0.0021486848,0.10188206,-0.025876442,-0.042160574,0.028594162,0.007256373,-0.04415875,0.120304555,0.02547869,0.061822165,-0.095913865,0.112078056,-0.033668943,-0.0030524947,0.17299622,-0.15629934,-0.08994778,-0.142225,0.18088827,0.089387394,0.041485365,-0.11293355,-0.041343838,0.17813464,-0.08272282,-0.0045570964,0.035998717,0.06397031,0.02298118,0.049423147,0.0928695,-0.13222751,0.07924887,-0.042357102,0.056463588,0.14902823,0.0023184002,0.05222253,-0.023105163,0.04402552,0.004140692,0.026913838,-0.008473552,0.18195587,-0.0011153999,0.05097031,0.017381389,-0.0014287701,-0.03673521,0.057945974,-0.07804818,-0.2000802,-0.08919577,-0.0692834,-0.18037693,0.11560859,0.019192733,-0.07214708,0.04342084,-0.006184009,0.005721223,-0.09322952,0.098758705,-0.0180054,-0.060699794,0.08346917,0.112788975,0.10996601,0.01861677,-0.027548883,0.06983465,0.023907801,0.10760495,-0.0025280104,0.02026383,-0.05436482,-0.03782483,-0.122668624,0.11307264,0.012852474,0.043897517,0.11661763,-0.02353648,0.124334514,-0.10490481,-0.003252606,-0.013427451,0.06398376,0.11772709,-0.11569978,0.11854898,-0.013764815,-0.01639288,0.10037305,0.111323275,-0.08534551,-0.0029271678,0.033656664,0.057744697,-0.05120809,-0.03088969,-0.103486784,-0.03968135,0.09728868,0.014554415,-0.012469463,-0.058237407,0.08538127,0.030354913,-0.040806994,0.006538019,0.0874221,0.022033088,0.0643128,-0.04259906,-0.051555246,-0.079140015,-0.030853147,-0.018826341,-0.010637198,0.08343287,0.07589037,-0.15349372,0.05691111,0.04284787,0.007228491,0.02909863,0.047553543,-0.014443595,-0.07201085,-0.008286949,-0.03555156,-0.116931625,-0.023586437,0.124927744,0.0079522915,0.097867265,-0.19590327,0.15443464,0.019600475,0.0075487667,-0.07930493,-0.06991468,0.018854098,0.07645106,0.045310996,0.1543446,0.06884386,0.043137886,0.0833649,-0.070777394,-0.1069066,0.09017662,-0.05001423,-0.025818711,0.1656451,-0.084704556,0.07439871,-0.03900265,0.031678043,0.02581826,-0.12361912,-0.08239012,0.054187465,-0.030460114,0.1470208,-0.07517321,-0.01562949,0.036517803,0.010360752,-0.05791846,-0.07246301,-0.06173377,0.114404246,0.06862412,-0.024018744,-0.20848349,-0.033471446,0.19635722,-0.043808352,0.020446396,-0.03091287,0.01950286,-0.076529406,0.0015457792,0.2225438,-0.018896978,0.060098298,-0.18041973,0.09454093,-0.02774919,-0.09668971,-0.115786284,-0.15307026,-0.036780477,-0.020979214,0.10540336,-0.020539664,-0.02757971,0.06780101,0.08024327,0.018802432,0.026517056,0.11247738,0.14580375,-0.14118911,-0.11591047,-0.086456545,0.07567841,0.07075048,-0.09229708,0.056990698,-0.12911177,-0.087539375,0.039279066,-0.026447868,-0.07892417,0.052632004,-0.1453523,-0.09822145,-0.002727894,0.06033635,-0.021644378,-0.07324503,0.09429166,-0.025379336,-0.054903973,-0.04714358,0.08442855,0.18261276,0.026771061,-0.0564117,-0.04066665,0.10736697,0.04291053,-0.02520751,-0.124248445,0.009082117,0.039532866,-0.07365305,-0.07492938,0.132224,-0.07505999,-0.23757416,-0.13432036,0.18188928,0.21645416,-0.006285507,-0.094266206,-0.056034822,-0.044057004,-0.07366164,-0.11831383,-0.03601151,0.00025737035,0.15172367,0.22847317,-0.08134572,-0.15744029,0.04568353,0.08575199,0.05957808,0.07382414,0.012948515,0.059344284,0.023025645,-0.06423746,0.071068235,-0.027475383,0.051873434,-0.12349841,-0.03757645,-0.034135815,0.052967113,-0.08069597,0.037373684,0.0010917413,-0.0855072,-0.07346096,-0.043496195,0.03884981,-0.13979834,0.07848659,-0.05909362,-0.041986935,0.013080161,-0.10605366,-0.04373487,0.1279331,0.02417041,0.019183021,0.08022823,0.027889635,-0.026748179,0.0016841219,-0.11519232,-0.094388105,0.013160924,0.04724599,0.07216208,-0.0059440327,0.10703057,0.004266459,-0.006434298,0.12346749,0.09899283,0.13083668,0.014009763,-0.1488043,-0.097286426,-0.12404515,-0.079670705,0.0118717095,-0.030056085,0.04443586,-0.014927253,-0.015661674,0.09417045,-0.013669227,-0.024054486,-0.14708738,-0.12640704,0.00201734,-0.09269923,0.08929529,-0.015314359,0.009715571,-0.101945035,-0.056190394,0.06588683,0.11043647,0.059796814,-0.09630623,0.03703309,0.08533807,0.09267505,0.013791458,0.124757774,-0.03437299,0.03874468,0.0069727995,-0.10094189,-0.08539328,0.03369118,0.049003944,0.015623186,0.10157317,-0.067918465,-0.12350346,0.02389962,0.013335596,-0.10783552,-0.09594351,0.16358867,0.06528266,-0.011694632,-0.1415861,-0.010229127,0.04942277,0.018346028,-0.004207534,0.0918054,-0.09197791,-0.104681134,-0.039174158,0.12809576,0.10662351,-0.00350144,-0.02785012,0.04863574,-0.12257103,-0.013922958,-0.07392902,-0.023679527,0.09434817,0.09850607,0.12893206,-0.02877272,0.04468135,-0.13438763,0.028645657,-0.088479064,0.02530573,0.044981066,0.07915401,-0.00570687,0.03796482,-0.003673711,-0.069385484,0.13878535,-0.04417339,-0.046477742,0.105098404,-0.054514267,0.056589007,-0.003821306,0.015361388,-0.100491256,-0.06904042,-0.033875603,0.20370503,0.023715535,0.0035436943,-0.12008316,-0.03762957,-0.1025101,0.0318,0.045500122,0.12516832,0.092446625,-0.03703388,0.012074394,0.08947413,-0.005716596,-0.023714773,-0.03823701,-0.049622137,-0.026711978,0.08325624,0.14521077,-0.03615486,0.17255925,-0.080664545,-0.04676512,-0.010523072,0.25067437,-0.10596981,-0.03997127,-0.041795462,-0.004740049,-0.01684309,0.04999781,-0.030557334,-0.13940108,0.060442224,-0.14979547,-0.020198802,0.08501585,-0.018901573,0.13597763,-0.08980838,-0.094464496,-0.07313652,-0.06772437,0.1536469,-0.042347055,-0.0017672521,-0.08339763,0.014124352,0.023140304,0.015441826,0.009862987,-0.054857295,-0.09425073,-0.14704186,0.05397065,-0.060968027,0.13342115,-0.17245999,-0.041632384,-0.024148274,-0.13465492,-0.057466935,0.016505564,0.031059965,-0.016861523,-0.123450644,-0.022663513,0.052053507,-0.04391338,-0.0031671152,0.14163445,-0.019296918,-0.042151175,-0.02967092,-0.040470008,0.029292043,0.079004675,0.18388775,-0.1306878,0.06557697,-0.010527786,-0.024429502,0.12665705,0.011562831,0.032856897,0.15883298,0.027393376,0.05346552,-0.10340347,-0.042872325,-0.0035198522,-0.1559856,-0.08180929,-0.028846275,0.11904285,0.07021888,0.13016562,-0.1433057,-0.013165916,-0.0097573,0.13790156,0.142215,-0.06488927,0.1505193,-0.08536605,-0.19624935,-0.10759542,0.075836964,0.00077540264,-0.10795217,-0.015532513,0.06621361,-0.03770178,-0.028104933,0.05233234,-0.12868048,-0.14080267,0.07950711,-0.0005361828,-0.025750915,-0.045755543,0.11192014,-0.00973127,-0.05497244,-0.005993225,-0.07652027,0.014595304,-0.0944068,-0.20039755,-0.006977282,0.06917098,0.03520634,0.06486726,-0.090127975,-0.16833462,-0.24271467,0.10143586,-0.0046809935,0.106188,-0.09877486,0.074879505,0.06976614,-0.02311678,0.13941298,0.014918693,0.046340447,-0.040016886,-0.07651476,-0.047357313,-0.04480132,0.019367471,0.03861659,-0.069721214,0.0070933513,0.15459709,0.07870733,0.03596731,0.05065983,-0.05480435,0.08404092,-0.1336056,-0.028305514,-0.021501413,0.020033207,0.093516394,0.025830645,-0.12020577,0.05004782,0.026108515,0.009097215,-0.020126767,-0.021496557,-0.0016043861,0.12232871,0.07614267,-0.10041178,0.03533694,0.0027538408,0.018356504,-0.087148935,0.09893466,0.12204876,0.07678977,-0.0031946702,0.03564372,-0.06844218,0.014185781,-0.100244395,-0.12897658,-0.06563252,0.1288634,-0.014497233,-0.00857856,-0.061620798,-0.03453664,0.121800266,0.0038105466,-0.05148582,0.02529083,-0.0966425,-0.076812975,0.08049358,-0.013831524,-0.011165859,-0.021876903,-0.059377804,-0.023682779,-0.107095644,0.017531604,0.1599996,0.115329415,0.07424772,-0.072573945,-0.0072551807,-0.10159412,0.031891122,0.1072791,-0.0167138,-0.0046306294,0.029069304,0.23999842,-0.1038055,-0.15913138,0.09693254,-0.10145654,-0.13185865,0.016665777,0.07740245,-0.058124933,0.103893965,-0.013501013,-0.0977451,0.03895689,-0.019381916,-0.14130928,-0.040836934,-0.027055636,0.14430232,-0.07097734,-0.038679026,0.0750308,0.08115129,-0.008448033,0.12727778,0.01270429,-0.12622783,-0.0692807,-0.047697455,-0.08075746,-0.037513945,0.18155602,-0.047868043,-0.01902631,-0.011673133,-0.037029814,0.051964957,0.019549618,-0.07817099,-0.05619646,-0.12932555,0.088876374,-0.13603404,-0.076510504,-0.13620672,-0.10762055,-0.07751956,0.04583557,-0.010480343,-0.00072596315,-0.057951037,-0.0031090186,-0.1214314,0.068979636,-0.0284725,0.09656219,0.0015781167,-0.0989605,-0.08228387,-0.11000638,0.00013377817,-0.15835543,-0.008677309,0.0026163186,-0.09997337,0.013380728,0.08885096,-0.044192303,0.045139913,-0.039783493,-0.14921601,0.0020542396,0.07752499,0.12969938,0.019996421,0.1215338,0.1504834,0.027232258,-0.069556475,0.058612604,0.04233449,0.021241438,0.08496538,0.035599437,-0.17664027,0.07967458,0.099268295,-0.19379123,-0.078556,-0.047400516,0.1497322,-0.029771537,0.023120629,0.021611677,0.038596787,0.074993245,-0.11724056,-0.005980918,-0.14265475,0.054646645,-0.009476873,0.09230896,0.075899534,-0.07019041,0.08339575,-0.015473875,-0.0075252806,-0.035646755,0.021646451,0.12109106,0.039907567,0.0055711125,0.11859356,-0.16528727,0.06135176,-0.06256969,-0.024739161,-0.11906173,0.11704013,0.09874004,0.057221655,-0.107767485,-0.0008760086,0.08381417,-0.2115966,-0.015501021,-0.03301201,0.23495968,-0.118623346,0.038564023,-0.02498757,0.07019528,-0.033293653,-0.12962338,0.07015618,-0.073035315,0.0078012287,0.15458436,-0.04421232,0.005198087,0.08260747,0.1224554,-0.04914218,0.12673081,0.06722526,-0.03693609,-0.06086964,0.09344455,0.1052792,0.13983575,-0.14973816,0.049871113,-0.036930796,0.047723863,0.023593774,-0.06303443,0.050742045,0.038461205,0.03859359,-0.04846952,-0.02894277,-0.016922895,-0.12089147,-0.06323812,-0.084709115,0.06155103,-0.15222818,0.08410085,0.052758794,-0.051046155,0.051377222,0.07410624,-0.096365176,0.013407595,-0.10063747,-0.04954384,0.026177939,0.02211953,0.041255157,-0.0022641353,-0.037903402,-0.025065022,0.05729935,0.003094243,-0.044900578,-0.023481706,0.097447515,-0.08029464,0.031590793,0.017567867,0.03433443,0.04822659,0.058665935,-0.013896694,-0.12139588,0.09336008,0.01823187,-0.0012282862,0.045520872,-0.11574629,-0.108126216,0.04699116,0.1654537,-0.0579557,-0.023849182,-0.036957473,-0.00042181514,-0.0036705718,0.016297046,0.065212294,0.009764868,-0.011828759,-0.07129828,-0.10747915,0.06291697,0.02705947,0.035404705,-0.0023895593,-0.05274956,-0.045847703,-0.122204855,0.02631432,0.03126813,-0.07464733,-0.092814334,0.09276472,-0.007297228,-0.05934657,-0.019564366,-0.011161134,-0.0474186,0.04077194,-0.057818063,0.10808431,-0.029265666,-0.061834786,0.00881263,-0.03866167,-0.058604095,0.09462763,0.030096376,-0.008475411,0.09463352,0.020395003,0.008435856,0.15435869,0.049091116,-0.033498142,-0.0056095584,-0.056969266,0.0004763301,-0.02402979,-0.030015316,0.13864097,-0.08149527,-0.043577906,0.09203721,0.22130819,0.0033569199,-0.20693868,0.1593948,-0.12277777,0.058724295,0.11489261,-0.043435436,0.027325882,-0.082690954,-0.13464971,0.12785174,0.19511531,-0.046068206,0.06322624,0.011387763,-0.084458634,0.08868182,0.08399438,0.14483246,-0.10097512,0.034062207,0.06934911,0.023644142,-0.107184835,-0.11832859,0.008796407,-0.0019092982,0.014096913,0.10768478,0.10778983,0.025538642,-0.20156609,0.11903571,-0.1718467,-0.0035993024,0.11733442,0.10546488,0.016652247,-0.23703666,-0.03502165,-0.008881381,-0.0003223609,-0.12324712,-0.09780119,-0.08231727,-0.008400856,-0.083286725,0.12324455,0.017984655,-0.018270953,0.044516,0.043631062,0.045512073,0.09832855,0.049366884,0.07787501,0.021426313,-0.06615451,0.023938607,-0.114846885,-0.025150238,-0.009522662,0.001869211,0.02212719,-0.19222242,-0.07294768,0.0004806745,-0.00073432556,0.14207959,-0.108917944,-0.035031058,-0.089984745,0.11530041,-0.16246039,-0.0070517417,0.13020143,0.14011899,-0.047449037,0.12827526,-0.08566331,-0.122347705,0.22808638,-0.006074798,-0.052512933,0.055634573,-0.14208405,-0.04559523,-0.012016715,0.06318978,-0.028519902,0.076693125,-0.012807339,-0.048188858,-0.20911174,0.12459309,-0.0023683913,-0.07002773,-0.05976019,-0.042120688,0.0050375992,0.0040908265,-0.029527036,-0.026636463,0.016262958,-0.06759707,0.018232208,-0.05854723,0.0062691285,0.113096684,-0.05403747,0.020439396,-0.05759817,-0.09653757,0.015424367,0.011109898,-0.011629496,0.19385377,-0.074424595,-0.034591228,-0.01637084,-0.049080122,0.07001103,0.027367687,0.076375246,-0.08699472,-0.075307414,-0.09125024,-0.13395403,0.1681689,-0.0121134985,0.09565333,0.013300729,0.0021540152,0.05085258,-0.03553331,-0.056131415,0.028937206,-0.026478212,0.01888789,0.07326387,-0.00068451406,-0.096245244,0.07158602,0.04496136,-0.11706528,-0.07791726,-0.10082539,0.008104369,-0.05002334,-0.11425965,0.16320384,-0.01360984,0.06112819,-0.028027471,0.030530963,0.045190103,0.026934125,0.08479049,0.06150265,0.13983826,0.08294937,-0.00903074,0.010023581,0.0025059858,-0.035342675,-0.082800314,0.039279718,0.016716491,0.08479559,0.1312305,-0.15528248,0.026401777,0.03791409,0.008629294,0.021998925,0.061726857,-0.17752776,0.031732854,-0.019763812,-0.14342013,0.19473481,-0.107941754,0.015655419,0.08656705,0.07958576,-0.07103863,0.12759605,-0.041395888,-0.034439452,0.15114911,-0.06899519,-0.024236178,-0.0413515,-0.028909909,0.0316263,0.0729412,-0.11005233,0.100919016,-0.02138923,-0.06716901,0.039153144,-0.025166498,-0.056897577,0.015597062,-0.1492735,-0.040266097,0.040650647,0.16648366,0.001529093,-0.010925665,-0.06940975,-0.026062708,-0.0019676436,0.008463411,-0.17564082,0.010572909,-0.08361622,-0.05918526,-0.014597615,-0.10409327,0.07124967,-0.044057835,-0.059594966,0.111966774,0.036056697,-0.01874264,0.15357889,0.06682918,-0.031195484,-0.15353604,0.21640413,0.10601423,-0.084307246,0.034838058,0.041943155,-0.06527669,0.0353763,-0.052505717,-0.11533593,-0.074665435,0.0767752,-0.08450636,0.11801832,0.017628964,0.05706793,-0.15938386,-0.024648096,-0.028837632,0.0016012577,-0.12185578,0.000104502826,-0.028820995,0.112977706,0.037034154,0.017353851,-0.15780139,0.07743628,-0.18325768,-0.023571555,-0.078773744,-0.10463255,0.060738552,0.260109,-0.016810741,-0.14071041,0.008156088,0.14411472,-0.03175836,0.048024524,-0.042959858,0.033304073,0.01036491,-0.076056674,-0.057118926,0.14596602,0.012294195,-0.06120882,0.1020072,-0.037433922,0.047952864,-0.12766612,-0.07458172,-0.15614386,-0.02634046,0.017567653,-0.010007108,0.012851682,0.12221661,-0.020305132,-0.10381416,-0.0036867515,-0.02478472,0.14317848,0.05613284,-0.10225682,0.09472239,0.20361128,-0.0062540066,-0.013453043,0.09147127,0.07550741,0.16286294,0.1863182,0.09649927,-0.10183175,-0.10897637,0.03616255,0.21159576,0.011180709,0.029422736,-0.08155811,-0.044098433,0.055065677,0.0061357175,0.052418213,0.17276958,-0.094744034,0.018146113,-0.016799906,-0.06932118,0.0080219405,0.030707529,-0.0069916993,0.008305024,0.013827802,-0.031630263,0.07563338,-0.015021382,-0.115479045,0.07466528,-0.026190626,0.048384007,-0.0039361273,0.039553247,0.00893885,-0.10450295,-0.020953575,0.10187133,-0.026557265,-0.111905724,0.032716043,-0.19362468,0.032268066,0.02896851,-0.15720119,-0.12894334,0.06617125,0.058023155,0.13871475,0.034961823,0.08001606,0.19493018,-0.10345194,0.066964395,0.06288398,-0.15601769,0.024519674,-0.16140775,-0.06179613,-0.13526945,0.01271353,0.096255064,-0.0007254313,0.059056282,-0.0068305396,-0.104973845,0.11789309,-0.054643318,0.015815804,0.10371506,0.10572696,0.12633677,-0.14541739,-0.017172731,-0.079139225,-0.023326838,-0.093660444,-0.05554594,-0.030641267,-0.0016497651,0.059365805,0.007282393,0.055371087,0.02597387,-0.110877395,-0.05775547,-0.03845067,0.08811126,-0.021985084,-0.08083052,0.07332526,0.112176165,-0.050354842,0.0023267462,-0.00035640656,0.032732558,-0.19637379,-0.13077569,0.016765371,0.018035367,-0.020996578,0.041633155,-0.050810944,0.16258399,0.032402143,-0.017368048,0.037245642,-0.09814981,-0.04627287,0.023532711,-0.09039676,-0.048930015,0.107991815,-0.13698016,-0.07462126,0.032541573,0.03111564,0.16491027,0.14854932,0.07201062,-0.07319707,-0.0054493695,0.044501293,0.004986984,-0.15355083,0.029010974,0.12907521,-0.032037973,0.10314665,0.037259396,-0.039331123,-0.042454574,0.027708037,-0.043948714,0.05870954,0.079022706,-0.013419288,-0.031558048,-0.023530107,0.061485857,-0.04739819,0.14077066,0.10584348,0.12534374,0.006176923,-0.006089463,0.085797586,-0.098240115,0.039928038,-0.072037354,-0.013047035,0.16201411,-0.035372134,0.018870836,0.025935711,0.051963273,0.11475062,-0.003614142,-0.045851856,0.0478839,0.0059936102,-0.06369983,-0.014978746,-0.1469982,-0.07305987,0.06423618,0.06706862,0.080996595,0.111927696,0.040913813,-0.0781845,0.1441001,0.050911743,0.02388924,0.01531166,0.04181326,0.08359052,-0.05994363,0.0024434908,-0.0551185,0.019498128,-0.105371065,-0.013568626,0.09005626,-0.08858369,-0.019757736,0.1820158,0.04415573,0.104275994,0.0041222624,-0.10117515,-0.02015748,0.10793409,0.15866435,-0.06405454,-0.0029074638,-0.20768836,-0.09038833,-0.076501094,0.07152814,0.06633869,-0.24259853,0.044979922,-0.03710112,-0.098432764,-0.014290129,-0.14303568,-0.015574067,-0.038496904,0.069078885,0.1361136,0.21626094,-0.02161364,0.026644504,-0.0062938016,0.12611283,-0.058594014,-0.12979451,0.13373163,0.03566173,0.07502977,0.0813913,-0.038448684,0.17451128,0.09985393,-0.066153266,0.112136856,-0.057987165,0.06342195,0.096075945,0.03211229,-0.012718151,0.046043072,0.0073720175,-0.036266405,0.009726883,0.08290434,0.09094319,0.010004001,-0.011199134,0.066394866,0.030318147,0.08261709,0.055775452,0.04265306,0.0025615415,-0.11212338,0.010165784,0.025234269,0.03866337,0.0773918,-0.00511379,-0.0519002,0.10170415,0.016618438,0.038665224,-0.073370196,0.12783241,0.12550132,-0.09578376,-0.085759565,0.03476554,-0.03693863,-0.03515177,-0.045919336,0.028419077,0.04821049,0.01347828,0.017899767,0.17161548,0.05456196,0.051448554,-0.060782198,-0.0912641,0.034903396,0.12769808,0.04156217,0.14442752,-0.07161488,-0.17835848,0.021084066,0.16791499,-0.032333966,-0.07982065,0.09877407,0.17132096,-0.10347788,-0.0323894,0.0822102,0.10280893,-0.0050409944,-0.12710296,0.072791256,-0.021440713,0.051033564,0.0032447157,0.035543572,0.11164273,-0.038878992,0.11876989,0.058265336,0.083176,0.080448344,0.028572958,-0.09430959,0.016523171,0.010836882,-0.07803856,-0.04509531,0.12302101,0.15584482,-0.008849128,-0.064953975,-0.21181877,0.10352382,0.07719982,0.1281791,0.016351713,0.040644147,-0.014811801,-0.0010577276,0.14237536,0.031085763,-0.08706042,0.046666518,0.06719948,0.055822924,0.0011544296,0.08895269,-0.08528716,0.10926602,-0.07905241,0.06188176,0.15075953,0.13325128,0.07167248,-0.043658994,0.01970411,0.016288595,0.10618892,0.02670892,0.04354529,0.2024986,0.116566785,-0.13303955,-0.04759335,-0.1279331,-0.009023368,-0.09437166,0.04272484,-0.122342594,0.03420395,-0.08493017,-0.074648425,0.042967424,-0.033154503,-0.061114613,-0.053069755,0.023452438,-0.18967374,-0.0008942234,-0.09617376,-0.023079924,0.0038201844,0.046218332,-0.05154707,-0.09772631,0.07372227,0.119160086,0.044383135,0.0063193412,0.19749188,-0.049446862,-0.022750521,0.02963767,-0.004422946,-0.047720995,-0.0821539,0.09472162,-0.038944446,-0.121606044,0.059650376,0.02054251,-0.14927645,0.13333295,0.07342956,0.0917337,-0.056680046,-0.08442238,0.045666818,0.06533442,0.059668567,0.2728145,-0.019428425,0.08130238,-0.04195052,0.019256188,-0.05648061,0.026642226,0.07592666,-0.088013075,0.02857308,-0.0024567815,0.12223674,-0.036186226,0.0013678336,0.0018405332,-0.13777956,-0.037619893,-0.019356178,-0.029280942,-0.18155128,-0.06813493,0.030571232,-0.08688045,0.049447536,0.026912682,-0.09268891,-0.15984589,0.08270541,0.13481034,-0.015756862,-0.02895989,0.16618021,0.00552593,0.16235,0.014327092,-0.019613277,-0.017731102,0.10835079,-0.10380803,-0.103385635,0.13065423,-0.0035213714,0.08551797,0.084786065,-0.07883693,-0.031948064,0.10228466,0.09118382,-0.0087611405,-0.22772785,-0.07580311,-0.00028864053,0.106753096,0.1358417,0.06268229,-0.13632937,0.09875495,-0.028801745,-0.00025635888,0.07917235,0.061272275,0.14629315,-0.0059245043,0.00983265,0.10347376,0.064562574,-0.0046776934,-0.0062712114,0.026103599,-0.078256644,0.06144601,-0.07793779,-0.026777854,-0.16880506,-0.061217405,-0.048252318,0.04894199,0.10163652,-0.032746963,0.031573787,-0.083982,0.107595935,0.16966231,0.012716043,-0.033634957,-0.05113655,-0.020060444,-0.044384018,0.08375959,-0.05226715,-0.04686421,0.07432201,0.006032379,0.10904214,0.05556731,-0.034028858,-0.05313614,0.08475845,-0.0020874015,-0.15121682,-0.040367108,-0.12364266,-0.014954959,-0.067785926,-0.14248066,-0.022998678,0.018917173,0.15917593,0.1355671,0.09430713,0.098368324,-0.010288895,0.043382928,0.10246783,0.07374174,0.048796967,-0.016099894,0.041557096,-0.047558192,-0.013103891,-0.15699276,0.065633155,0.03748185,-0.13721989,0.1154271,-0.059731387,-0.08642301,0.109052554,0.028671661,0.01928544,0.11164899,-0.07402204,0.072278365,0.009883413,0.050938815,0.012300849,0.059781294,-0.02408549,0.028320197,0.038921736,0.04095171,-0.027857699,0.056828853,-0.103930175,0.04374786,-0.060022566,0.13971046,0.064689934,0.064221784,0.016327454,-0.09186851,-0.042196322,0.06509523,-0.027252275,0.15006322,-0.075144306,-0.0780639,-0.100364745,-0.26365668,0.05817861,-0.14908983,-0.009318881,-0.02714607,-0.08256984,-0.14004697,0.04597515,-0.027433204,0.040183745,-0.035792846,-0.115711376,-0.1819525,-0.06995518,0.024836395,-0.08287935,-0.0022262228,-0.03509206,-0.11420459,-0.027103445,-0.012093283,0.16732913,0.11214746,0.010487315,-0.11529909,-0.018917311,-0.029284861,-0.03750873,0.06295632,-0.09196029,-0.07736677,0.009543004,-0.0006369493,0.0065065566,0.102569245,-0.034915358,-0.020894045,0.03826749,0.012252552,0.025475174,-0.016953005,-0.16770902,-0.04346831,-0.03614264,-0.15184478,0.10261495,0.014752823,0.17345884,-0.09976477,-0.10366239,-0.052466545,0.1766644,0.016439749,0.003661183,-0.017696468,-0.109619774,-0.03361729,0.07721083,-0.053789664,-0.029476035,-0.015942253,-0.06668573,-0.048487328,0.093265325,0.10493562,0.020878788,-0.12864456,0.085980594,0.11834916,-0.013591502,-0.076111004,0.1340359,-0.04297645,-0.15409824,-0.024546577,-0.09610608,0.030296015,0.04538892,-0.00973686,0.17932071,-0.07511582,-0.10887528,-0.014873487,0.17149413,-0.050144833,0.037203796,0.09986026,-0.010515433,-0.006071067,0.005944774,-0.042585306,-0.10880117,0.043236576,0.09205529,-0.09920712,-0.025546288,0.08167818,0.047841907,-0.096740566,-0.08791182,0.10037926,-0.07644458,0.04741939,-0.01919777,0.054557968,-0.02595825,-0.0033404324,-0.036326885,0.07393832,-0.030880863,0.03351819,-0.0018272355,-0.057078257,0.060634542,-0.08442842,-0.09799709,-0.011201988,-0.07279341,0.037375327,0.13042668,0.080577455,0.02298495,-0.09145992,-0.092380844,-0.018323932,0.10240512,-0.033106096,0.15996493,0.026872812,-0.04343645,-0.103519954,0.028515354,0.0011111473,-0.12379322,-0.008363547,0.15077311,-0.08308034,-0.12237776,0.0042344662,-0.18812151,0.11275125,0.022085216,-0.054861505,-0.08153831,0.14370523,0.052873287,-0.01111277,0.013818675,0.11838904,-0.01070239,0.24605377,-0.13831122,0.071184,0.13265945,-0.07113465,-0.04000803,0.038980093,-0.048533957,0.16122006,-0.032504544,-0.18144448,0.019537585,0.04710499,-0.19034688,0.030503642,0.021661954,-0.09532284,-0.019327711,0.1726285,0.03446867,-0.027953882,-0.03791111,-0.080710806,0.03656355,-0.025904303,-0.13237576,-0.15311882,-0.0049263975,0.047687232,-0.10320457,0.018377956,0.105916046,-0.06618347,0.0055889995,-0.01762183,0.021796685,-0.0031110381,0.014831725,0.10880257,-0.05476876,-0.19937463,0.12692566,-0.105552904,-0.16801192,0.01610324,-0.20571841,-0.05414897,0.055935897,0.08628752,-0.020406347,-0.14540796,0.00460686,0.13831307,0.01993192,0.066291906,0.040883183,0.030882955,0.116756044,0.05905313,0.02580006,-0.008220906,-0.026280269,0.16762435,0.0777823,0.112183705,-0.07842654,0.04274878,-0.031992752,-0.11291545,-0.067993134,0.009894735,-0.1564508,-0.004422685,0.012498244,-0.02784434,0.08104629,0.036264144,0.015790531,0.12703061,0.019397985,-0.062566206,-0.035792585,-0.013273453,0.0056986446,-0.16787758,0.005030942,-0.08348943,-0.06433316,0.05177761,0.19319195,0.13372022,0.013080615,-0.042365342,-0.008521485,-0.05608167,0.13391258,-0.034633186,0.020027809,-0.07273231,0.034566272,0.049058527,0.0293616,-0.13203682,0.04295421,-0.016346673,0.05656434,0.003502519,0.08096777,-0.011662596,-0.0016931556,0.049059004,-0.13814072,-0.13706978,-0.09437751,0.026141398,0.016112033,0.14392485,-0.079780705,-0.038713604,0.14045857,-0.00837442,-0.04686856,-0.0256891,0.010231537,-0.12120846,-0.085815296,0.09282095,-0.06993276,0.12765841,0.02706534,-0.10857816,0.047574632,-0.12098119,-0.04257423,0.15401717,0.05550562,-0.10798991,0.037021346,0.15432656,0.080175966,-0.032131936,-0.15128799,-0.011291476,0.07413221,-0.011121639,-0.12904152,0.004364088,0.07457742,-0.045495246,0.05235506,0.023998389,-0.027391074,-0.039623506,0.005530023,0.16343285,0.15672296,0.107618205,0.080410875,0.006154081,-0.055379633,-0.054691225,0.030422555,-0.02044428,-0.010113521,-0.15485406,-0.066676416,0.060038876,-0.053828914,0.0047640083,-0.028143542,0.057253014,0.0035006953,0.07572386,-0.058181107,-0.07043328,0.00829592,-0.04085607,0.08150044,0.1139588,-0.13108338,0.097148314,-0.14320856,0.07623502,-0.027463192,0.0062979935,-0.1039164,-0.012045606,0.23931071,0.1949051,-0.036809508,0.08956195,0.10332281,-0.036765162,0.096228324,0.116631426,-0.15117797,-0.027709246,-0.17689529,-0.071349904,-0.12627758,0.061556652,0.038904928,0.06602274,0.013560454,-0.09348496,0.04493177,-0.038885407,0.09919951,-0.11791046,-0.025329866,0.053542245,0.019112002,0.006271178,0.050220385,-0.020395655,-0.0042632394,-0.081408136,0.037487954,-0.019386621,-0.12873939,0.03039697,-0.07149054,0.17141718,-0.043220926,-0.12100314,0.046629198,-0.035951734,-0.021284556,0.04298327,-0.033696692,0.11020954,0.1567593,-0.15235487,0.015716724,-0.07929017,0.10989633,-0.033769086,-0.04979539,0.08557726,-0.039546777,0.09526956,-0.020199679,-0.1299161,-0.0058948826,-0.0811374,0.064277254,0.11172458,0.02465974,-0.019291636,-0.0046552937,-0.027574299,0.103034094,0.08207417,-0.031369228,-0.06418543,0.0065597743,0.080848634,0.08040241,0.023336025,-0.02227502,0.016566033,0.0020201132,-0.098805204,0.11559753,-0.027835887,-0.027591992,-0.06449592,-0.03102774,-0.009330972,-0.056197572,0.07622852,0.08879774,0.13005175,-0.099459805,-0.15485208,0.06712839,0.12206777,0.008759993,-0.05686723,-0.04405008,0.116119966,-0.07337806,-0.021093449,0.09610752,0.06512894,-0.16398367,-0.043464977,0.012362364,0.12747781,-0.13093081,0.05945205,0.0686211,0.0008601966,-0.013571671,0.02802773,-0.03023962,0.023692232,-0.051611263,-0.059700914,-0.021941585,-0.000327964,0.18076366,0.1097604,-0.008714687,0.064330995,0.056036897,-0.22717279,0.0140195945,0.16142344,0.1245016,-0.08869657,0.014313702,0.069073446,-0.12640226,-0.05759521,0.018638996,0.077518955,0.028524708,0.036201246,0.04581296,-0.011508479,0.00720168,0.14997552,-0.028497862,0.12587704,0.055788208,-0.012075821,-0.05338376,-0.020931453,-0.048300307,0.12728493,0.18334405,-0.020095797,0.04945688,0.08217131,-0.09263868,0.054631285,0.02942977,0.02195992,-0.034602143,-0.013356532,0.023885505,0.01973704,-0.0516805,-0.016025292,-0.12789336,-0.03484111,0.092263445,-0.100162245,0.07461447,0.015819116,-0.08154235,0.23320547,-0.07444321,-0.052455835,-0.0024796987,-0.04491031,-0.08003799,-0.16986062,-0.04329214,0.06350175,-0.03025587,-0.16957246,-0.1070587,-0.06472898,-0.0452172,-0.11677733,0.04785881,-0.005529418,-0.08047646,-0.005217608,0.056578323,0.07708153,0.15295003,0.021599881,0.019727731,-0.064883254,0.07629873,-0.055288445,-0.059854984,0.0051179766,0.026941638,0.026666673,0.04527855,-0.17150983,0.037454076,0.021835973,-0.013437438,0.120356604,-0.011672172,-0.088273354,-0.04484201,-0.003898506,-0.022739671,-0.028832778,-0.031579304,0.00033779742,-0.03287192,0.06483578,0.011745279,0.0048183254,0.10281464,0.21503112,-0.036268517,0.1312427,0.037411183,0.051101536,0.028116366,0.059796076,0.10139424,0.013096813,0.034239735,-0.114489965,-0.20197925,0.05431982,-0.100858755,0.030319842,-0.0034032252,-0.07157908,0.15029594,-0.066067204,0.0111150695,0.035369817,-0.010869724,-0.045757737,0.019279081,-0.05843565,-0.04881864,-0.029069928,0.04431588,-0.08082526,0.016453573,-0.045351747,0.1317348,0.031028438,-0.08155596,0.13540244,-0.056815542,0.13522872,0.024031263,0.04777716,0.05784423,-0.014016382,0.05342591,-0.0009033446,-0.08302316,0.05435687,-0.05505883,-0.008759876,0.03978348,-0.02470024,-0.07674836,-0.051772468,0.010703505,0.13011472,0.08683944,-0.11064499,-0.013909081,-0.095963374,0.15293431,0.04450539,-0.117596306,-0.20083252,0.08573233,0.028955663,-0.0479817,-0.046224147,0.016139632,-0.16558735,-0.017648999,-0.02985145,0.06690109,0.055871572,-0.030538483,-0.11397789,0.031075012,-0.07476073,0.028813358,0.21860883,-0.044654682,0.083194666,0.00040116144,0.08761462,0.09100638,0.12724456,-0.043314423,0.076341756,-0.029882625,0.056598827,0.008655274,0.07883058,-0.009180693,-0.16669407,-0.052672677,-0.12596942,-0.07177123,-0.03536785,0.14062501,-0.030940197,-0.03143871,0.00403816,-0.058071196,0.054616254,0.10768479,0.006947589,-0.1557582,-0.023876384,0.03011659,-0.17574929,0.010177409,0.009089048,-0.14230923,-0.16100515,0.037609976,0.028395263,0.04750264,0.07476536,0.09673538,0.15702438,0.11568271,-0.07252013,0.13347588,0.12814091,-0.05926453,0.033208985,0.0994126,0.022010438,0.023485271,-0.014767482,0.08259747,-0.09782454,-0.08335916,-0.08940114,0.14536276,0.033918407,-0.027683632,-0.043957565,-0.03857594,0.12408928,0.054186434,-0.052339137,-0.16905673,0.10160655,0.004977979,-0.008550297,-0.10071689,0.027425954,-0.02858654,-0.015787968,-0.16187178,0.13059592,-0.08187174,0.02192934,0.017589165,0.14449802,-0.07752978,-0.04669771,-0.026467333,0.030197578,-0.09791666,0.16057444,0.05385679,-0.08151052,-0.013386858,0.07133733,0.0009795154,-0.015853444,-0.124767594,0.02144378,0.00385468,-0.036166992,-0.04278846,-0.10327259,-0.12481841,-0.025066445,0.038086556,-0.06307274,-0.032468066,0.011986795,-0.03659685,-0.11422796,0.034807075,0.015077318,-0.19572686,0.10843632,0.04210467,-0.07199067,-0.0048614284,0.14194433,-0.15595703,-0.030865962,-0.10823572,-0.12893079,-0.11644389,0.06347328,-0.09061448,0.013575408,-0.09576286,-0.06897683,-0.09054792,0.08914159,-0.096829034,0.057946064,-0.032555368,0.020744225,-0.015221694,0.038328845,-0.013490217,0.1252659,0.045748364,0.0018542464,-0.086855404,-0.09712557,-0.06823281,-0.0024864846,-0.021594131,-0.09894505,0.17143013,0.14431022,0.05335692,-0.0066581187,0.026190039,-0.08796758,-0.010414669,-0.1535484,-0.09212673,-0.048251584,-0.031994775,-0.04396612,-0.12953179,0.05850182,0.014791342,-0.18915601,-0.0057284753,-0.028479526,-0.06441606,0.015249538,0.08479097,0.03809202,-0.043158334,0.031560928,0.10431853,0.2389079,-0.13959129,0.073634654,0.12143968,-0.042943783,-0.05236695,-0.039643552,0.10619713,-0.07588528,-0.088092096,0.024071425,-0.07072185,-0.02926489,-0.010581501,-0.073544435,-0.029781004,-0.020409467,0.06614815,-0.033353712,0.02413309,-0.036647357,0.09030266,0.029172247,0.055296406,0.0741707,-0.13441867,-0.08406447,-0.031315207,0.077499956,-0.14640616,0.011265903,-0.02328803,-0.056240752,0.09960015,0.05109776,0.044656746,0.042283002,-0.11741058,0.06914379,-0.0026835941,-0.10946547,0.12402629,-0.0010146247,-0.12657478,-0.0055229184,-0.13906626,-0.0694267,-0.003326183,-0.06081378,-0.059583087,0.014241985,-0.09697151,-0.019152405,0.09123275,-0.04550944,-0.09450102,-0.008692618,0.083577976,0.028523035,-0.0935086,-0.042040277,0.09339669,0.21124022,0.07136656,0.11769358,-0.15808505,0.05171674,-0.043672822,-0.03143509,0.058657993,0.0029645474,0.10341894,0.057109557,0.0020978502,0.11082122,0.1394322,0.18467088,0.085882515,0.12760916,0.04991938,0.12745504,-0.0021950782,0.069781214,-0.013320211,-0.014063532,-0.15172207,0.18733875,0.064629525,-0.010376349,-0.09414531,-0.15868212,-0.0929272,-0.020129729,-0.13299054,-0.03704436,0.028495628,-0.011776005,0.05117825,-0.027716827,-0.008423988,-0.08816012,0.027978437,0.03331867,0.076110005,-0.26606908,-0.097049125,0.06619877,0.027430551,0.063314825,0.07511062,0.0076802997,-0.06570504,0.097005896,-0.011154488,-0.10683643,0.029999394,0.050679013,-0.075417824,-0.020100545,0.05492867,0.015545303,-0.14267974,0.11127663,0.16313145,0.073427856,0.020975962,-0.0043098913,0.009677011,-0.027359005,-0.087075144,-0.089209534,0.016785856,0.05089443,0.060134694,0.06142612,0.15208335,-0.025712673,-0.028946314,-0.044126693,-0.0034261222,-0.07487912,-0.04312041,0.036972865,-0.06471988,0.056525834,-0.09186057,-0.10296782,0.11862028,-0.027920043,-0.025017705,-0.1491752,0.046236373,0.023413071,-0.026127525,0.012674035,-0.13032086,-0.008993229,0.07299852,-0.020851647,0.09396495,0.10384205,0.006734193,0.059845563,-0.021805039,0.08119221,0.015128145,-0.080154225,-0.063782066,0.030885303,-0.19877237,0.01644587,-0.20691024,0.22319603,0.17707224,0.089900665,0.040306546,-0.0602674,-0.0017322102,0.07543164,0.08258652,0.12614669,0.0137748,0.11597547,0.1230809,-0.013881858,0.015727378,0.07217321,-0.09112371,-0.12485903,0.011531674,0.068448074,0.013871102,-0.011124956,-0.1222971,-0.059115294,0.045330066,-0.04557436,-0.02394404,-0.012311736,-0.08829825,0.16134162,-0.030323038,0.023995923,0.02860152,-0.062949896,-0.045574095,-0.032783806,0.022997646,-0.08082614,-0.01591444,-0.21145879,0.10335535,0.04685131,-0.047486737,-0.0036538776,0.04720047,-0.10052866,-0.12657894,0.056212433,-0.073874325,-0.113625586,0.12307187,0.03967814,-0.010095032,0.018094832,0.034717593,-0.052612968,-0.08838768,-0.039647184,0.04627118,-0.040406834,-0.06327824,-0.030763347,-0.11427517,0.008441581,-0.035440978,-0.036833588,0.10148058,0.027743407,0.05167212,0.09662292,-0.10229298,0.09726269,0.021969974,-0.0058681755,-0.019200712,0.0671472,-0.0047865803,-0.06703173,-0.026753241,0.035738863,-0.09184768,0.09473234,-0.20919774,-0.0322267,0.0617555,0.16144346,0.21170087,-0.05853948,0.041955456,0.116094366,0.06244052,0.06461816,-0.008103661,-0.102085285,-0.105141796,-0.18245558,-0.0038227162,-0.007304034,-0.13181546,-0.13313952,0.038060073,-0.14607064,0.0027539977,-0.010480294,0.049416054,0.090553,0.00896817,-0.009037996,0.057793137,-0.121018015,-0.06397121,-0.016593706,0.023619136,0.073885225,0.031989,-0.14099069,0.10988746,-0.11584103,-0.01722086,-0.019302469,0.05854042,0.12554057,0.12900634,-0.005859656,-0.03772628,-0.09567913,0.09731363,0.037381552,-0.08282053,-0.26792663,0.1101332,0.10137191,-0.07397862,-0.092833824,0.05963153,-0.04427989,-0.082952134,-0.0154327825,-0.03281986,0.037006263,-0.10387384,-0.105815165,-0.04297652,0.10352372,0.038303066,0.054548178,0.015963938,0.0747649,-0.023272865,0.08191629,-0.14328082,0.0601598,0.022793407,-0.025004592,-0.010169721,0.07926672,0.0022185137,-0.0021832497,6.823633e-06,-0.15843645,-0.051506314,0.09349859,0.01695855,0.1438908,0.17032038,-0.05319624,0.05443271,0.032287974,-0.0024854138,-0.015668336,-0.1212351,-0.059067413,0.061777346,-0.09948549,-0.036243755,0.07027927,0.1133006,0.028925156,0.15984152,-0.09456621,0.22849311,0.056158617,0.019325843,0.013314418,-0.15646318,0.01711283,-0.08673763,0.020363668,-0.093026415,0.11251421,0.061370067,0.09421583,0.06792897,0.01871766,-0.08663129,-0.037483253,-0.027239636,0.0141010145,0.0038184822,0.10389987,-0.0031037137,-0.041827913,-0.0057438402,-0.058075674,0.04972185,-0.111972,-0.01282907,-0.0032873023,-0.030365486,-0.2409644,0.12565129,-0.21198955,-0.043953523,0.040801886,-0.07494886,-0.066323616,0.010356591,0.058641702,-0.025413424,-0.10256886,0.0765838,-0.17595296,-0.110084616,0.06574373,0.058483824,-0.18970045,-0.098383665,0.06328734,-0.06309769,-0.009084367,0.06168355,-0.07134999,-0.06856658,-0.005535669,0.011444781,0.03538425,-0.070592925,-0.08627284,-0.25055516,0.13743047,-0.051316764,-0.017075209,-0.017568754,0.014075047,-0.064663604,0.050942853,0.0022301013,0.09874205,-0.04417916,-0.070659764,0.08107143,0.12178655,0.11287294,0.15304987,-0.047756277,0.049279135,-0.05171567,0.10206928,0.0031651596,-0.07399155,0.1810752,0.07292364,-0.035054177,-0.028590536,-0.028649954,0.05606359,0.03494686,0.022418711,-0.0053761294,-0.008517928,-0.119879395,-0.0026545073,0.034798328,0.023634665,0.09903484,-0.057986945,-0.028445758,0.062060036,0.07488565,0.031285506,0.023382487,0.030909043,-0.109701395,0.093400724,-0.0052468334,-0.07322355,0.03523113,0.052279,0.0025409828,0.06969861,-0.06838788,-0.024155691,-0.021802336,-0.07518712,0.0058246637,-0.0142756635,0.0804393,0.056718517,0.0051760236,0.070705965,0.17819963,0.06664734,0.0023302492,-0.09616909,0.039068237,-0.0252483,-0.12191332,-0.019092647,-0.20445292,0.015901148,-0.02906956,0.0009049148,0.13826418,-0.053804196,0.019253166,-0.07391133,0.08704686,-0.052257873,-0.039772958,0.025216907,-0.042317826,-0.09496613,-0.016433312,-0.010488333,0.2281461,0.037059635,-0.09994196,0.13764893,-0.041531455,-0.12344054,0.08784396,0.044811316,-0.013159924,0.110387795,0.029269077,0.06702861,0.10603266,-0.039606355,0.05306002,-0.088823974,0.065166526,0.10030945,-0.071043395,0.077490255,0.09694462,-0.07647605,0.08900609,-0.06550747,0.11535035,0.12339388,0.085016295,0.0109574525,0.0910404,-0.024514819,0.010253919,-0.09087937,-0.022046229,0.14773495,-0.0007116794,-0.048009425,0.051767938,0.1459451,0.13748972,0.18501745,-0.098058045,-0.12086793,-0.10588747,0.032218173,0.15284504,0.1602701,-0.0007456568,0.17298697,0.073284596,0.06942742,0.029820438,0.0641859,-0.061319,-0.05047098,0.07348793,-0.05348486,0.018387973,0.0636278,-0.03959295,-0.14881288,-0.12064196,-0.024625637,0.038732894,0.05735736,0.06091362,0.15482211,-0.12368592,-0.0789958,0.1530457,0.016656058,-0.017948007,-0.13804331,-0.04872229,0.07209962,0.00886682,-0.03989401,0.11759107,0.04939989,-0.13101286,0.010891323,-0.011045258,-0.024397016,0.07516131,0.0035856853,-0.04288254,0.0013086272,0.1285617,0.026397279,0.12811853,-0.07228241,-0.038527716,-0.10985897,-0.08362975,-0.028325725,0.0013704116,-0.03462753,-0.12421705,-0.016229032,-0.022036476,0.0067973547,-0.055936936,-0.041159917,0.105320744,0.08793342,0.07933773,-0.045167863,-0.105558075,0.058147766,0.11795367,-0.100846805,0.08076549,0.10312207,0.058918476,-0.06425569,-0.12769817,-0.11397509,-0.024195163,0.102428906,-0.13072428,0.067377955,0.053893905,0.11991295,0.058539227,-0.12637158,0.15178157,0.08673669,-0.020602858,0.029121082,0.026572175,0.0056493892,-0.14465897,-0.17734154,0.00070956454,0.012432894,0.02369734,-0.075019136,-0.003175705,-0.05070604,0.0418844,-0.03676973,0.059886355,0.084409535,-0.04773869,0.010266241,-0.0063993433,-0.18768752,-0.0005824825,0.14436361,0.023181535,0.030154388,0.006529225,-0.12905379,0.075166784,-0.17333312,0.052142475,-0.1812603,-0.08960997,0.11783061,0.003820293,-0.059836246,-0.056807034,-0.10505102,0.07898223,-0.039062068,-0.06588598,-0.18284605,-0.03262841,0.068029724,-0.12663433,-0.027386196,-0.02556437,-0.053424105,0.037027266,-0.17722908,0.029704288,-0.08221877,-0.023607282,-0.10630569,-0.073970586,0.055579443,-0.018583413,-0.016486077,-0.006301907,-0.09440465,-0.097305976,0.081521496,-0.029017292,0.090039715,0.04586389,0.023278376,-0.046663504,0.20800236,0.043878064,0.12527739,-0.056850176,-0.08110302,0.052847624,-0.052239466,0.061063785,0.0036274593,0.15391846,-0.042064957,0.10822948,-0.11226546,0.0034366143,0.18753186,0.032045856,-0.041894812,-0.14613149,-0.097581625,-0.08736301,0.14262524,0.057146788,-0.008485136,-0.027499497,0.07785901,0.19226617,0.09711494,0.11029814,-0.062033102,-0.15756132,0.06647612,-0.075248405,0.046543695,-0.08188637,0.003086131,0.02506935,0.1255301,0.012052721,0.11192909,-0.04922002,0.08501641,0.040027983,-0.042344343,-0.013175904,0.04847279,-0.118327945,0.059240516,0.019430788,-0.11829308,0.17657025,-0.021982322,-0.1310803,-0.026113342,-0.09494188,-0.074394874,0.0795188,-0.10309528,-0.08506793,0.0400122,-0.072665974,-0.13407217,-0.039655212,0.07378986,0.073703155,-0.013576051,0.14963032,0.122963846,-0.11442198,0.18604495,-0.004278788,-0.1160576,-0.096501864,0.08737796,0.0623675,0.077698246,-0.019657109,0.0048635374,-0.08659882,0.07997183,-0.034498177,-0.0740384,-0.0434032,-0.05162177,-0.14469716,-0.059510443,-0.013924294,0.06082635,0.017117163,0.04822319,-0.107842036,-0.06614956,0.043776363,-0.011513675,-0.07984288,-0.022140497,0.12801905,-0.000285186,0.010125491,0.11386902,0.020574182,-0.023106413,-0.031838223,-0.034999073,0.0457769,0.002631479,0.10183674,0.019418458,-0.017742505,-0.105025224,-0.028843375,0.06318749,-0.06083885,0.040674783,0.003608295,0.05744323,-0.037605833,-0.06912454,0.046222944,0.040252108,0.05551205,-0.17455278,-0.016863165,0.05053112,-0.07183996,-0.040015128,-0.029917369,0.05526009,-0.15867741,-0.08310836,0.059713103,-0.008304329,0.0054347897,0.003979237,0.04180557,-0.05349435,-0.005425484,-0.09242952,0.11381842,0.01622092,-0.12025693,0.1290539,-0.037439533,-0.0101086665,-0.12869751,0.049366206,-0.067077026,-0.17598398,0.017401548,0.01721924,-0.058580127,0.086888365,-0.013744832,0.13371693,0.07684251,0.06526736,0.05883337,0.1128458,0.1269252,-0.07085104,-0.030253677,-0.037449762,-0.105254814,0.15878631,-0.07088914,-0.10405946,-0.111111306,0.030363966,-0.033732645,-0.034838066,-0.12962338,-0.0002878754,0.093691684,-0.023654254,0.014086653,0.08967698,-0.0379806,0.0050534145,0.053187564,0.0430433,-0.043048512,0.045469955,0.08332107,0.039778244,0.052923266,-0.014163069,-0.01563764,-0.006481332,0.029079387,0.005207126,0.022854643,0.10371402,-0.06682962,0.09010084,0.10812671,-0.045018684,0.020986183,0.1091494,-0.15775055,0.032246362,-0.15659486,0.08777163,-0.11738967,-0.057934918,0.04194051,0.18046385,0.11839034,0.04042867,-0.009714032,-0.0710769,-0.03698743,0.10356455,0.088842444,-0.11604574,-0.0022810576,-0.09942448,0.032649018,-0.03414976,-0.011800755,-0.032976598,-0.11447712,-0.15853891,-0.06805564,0.02300259,-0.006512688,0.19460581,-0.09809449,0.052188225,0.08347606,-0.02602514,0.13652223,-0.01691528,-0.033394177,-0.017923303,0.051546875,0.141875,0.0690621,0.023002947,0.017653339,0.056210272,0.10848949,0.06898468,0.029855082,0.038791217,0.037611447,-0.055518586,0.053872846,0.018391684,0.21401462,-0.07358363,-0.030168388,-0.20404816,-0.0037664627,0.13474244,0.10584639,0.04017964,0.025817119,-0.08345075,0.07667335,-0.08628951,0.08657712,0.090752974,-0.07389117,-0.12706223,-0.11838305,-0.02598408,-0.008049507,0.10797692,0.11250305,-0.07100031,-0.08376885,0.090758726,0.013954728,-0.033415556,0.08147595,0.088063665,-0.06912231,0.088088244,0.024357503,0.060138933,-0.02905792,-0.11903695,0.050946206,-0.0831985,-0.054201078,-0.08485944,-0.13085891,0.14945556,-0.113449775,0.13300347,-0.034716077,-0.09992217,0.0652378,-0.059195276,-0.00483929,-0.15075321,-0.08510595,-0.09492512,-0.13743135,0.06252947,0.0031167688,0.0005971067,0.12140349,-0.09422661,0.047682904,-0.06612923,0.23569183,0.00065803697,-0.12550695,0.17956804,-0.15121084,-0.086219385,-0.093708694,0.113698006,0.042226896,0.108483724,0.23679681,-0.090797335,-0.028434573,0.1553149,-0.03334313,-0.0048434297,-0.020243984,-0.039964892,0.013117397,-0.03412927,0.09058309,0.094462104,-0.0809952,0.046050794,0.01665257,-0.05155386,0.07854922,-0.03730416,-0.06647113,-0.18869902,0.012190527,-0.030438585,-0.049446594,-0.08567717,-0.13754356,-0.052108467,-0.10087252,0.06263657,0.043083373,0.09439933,0.02774699,-0.030685592,0.07760825,-0.039418757,0.03831639,0.05544751,-0.0089495685,-0.11260599,0.07616888,-0.006315407,0.02712253,0.081837766,-0.014540159,-0.07916184,-0.045248326,-0.018581666,0.15584959,-0.11184912,-0.04452275,-0.07593419,-0.13426615,-0.014530889,-0.038244095,-0.02000805,0.073168,0.090230286,-0.02823193,0.008120894,0.06658799,0.113369696,0.021331789,-0.1696571,-0.05947634,0.15353979,-0.112556115,-0.067315,-0.14042352,0.096979365,-0.028330851,0.028731672,0.04603838,0.075191036,0.011067459,0.054018434,0.085651204,0.002816365,0.05836618,-0.124565884,0.11374382,0.097457014,0.016542176,-0.048985526,-0.11057182,-0.03762573,0.031557273,0.027649857,0.06557831,-0.043470453,-0.052566588,0.011952524,-0.13172299,0.060154684,-0.058078766,0.06564969,-0.0522431,0.0025781938,-0.024434844,0.07282042,-0.002192408,0.024819372,-0.03249223,-0.09827231,-0.06391981,0.041380752,0.07417953,-0.06576297,0.044277612,-0.06866445,-0.011468622,-0.06741965,0.057044107,0.030711228,-0.08840616,0.06218331,-0.13430607,0.09548179,0.060992837,-0.028548423,0.11873509,-0.027645564,0.032943364,0.0047607874,-0.02035089,0.04949033,-0.06704522,0.22729893,0.16189979,0.063500196,-0.064311385,-0.19929022,-0.005962707,-0.07518927,0.08165396,-0.08596121,-0.01009999,-0.13770923,0.18808639,0.11636475,-0.041836105,-0.09811833,-0.035968993,-0.027602244,0.030147033,-0.09997382,-0.054308526,0.06833225,-0.076903164,0.0029053276,-0.04316778,0.00963984,0.034493122,-0.07752687,0.0672291,0.14032838,0.017807448,0.18983798,0.035913173,0.027441876,0.020976212,0.042509813,0.106371894,0.11879659,-0.15324073,0.10021045,-0.14313972,0.08431433,0.03489453,-0.039352667,-0.012439181,0.051881664,-0.065530054,-0.10395025,-0.19732295,-0.13918987,-0.007133145,0.0022133405,0.032313105,-0.09981531,-0.16854496,-0.011192987,0.045242954,0.031239767,0.021614688,0.068355165,0.0994714,0.04979573,-0.17608486,-0.0031667738,0.19443908,-0.040403828,0.045309465,0.09963241,-0.016911257,0.03801531,-0.08520883,-0.044290323,-0.08127241,-0.009116924,-0.15304892,-0.1346494,0.07272245,-0.06210512,-0.1399587,-0.04012873,0.05392017,0.11420599,-0.18416423,-0.060130466,0.09499523,-0.007065271,-0.0067005777,-0.039098654,-0.06565014,-0.0984376,0.070269205,0.10323207,-0.062086847,0.05150895,-0.023873428,-0.035140444,0.05095869,0.059667807,-0.16598071,-0.06826448,0.063402705,-0.015567157,0.028671117,-0.08149678,0.054027062,-0.07372244,0.0478798,0.042905893,-0.032750044,-0.11048039,-0.047917135,0.062010337,-0.0945435,-0.14218421,-0.13043663,0.048171233,0.027663635,0.013435247,0.09488153,0.0571743,0.073430695,-0.09301785,0.082400724,0.06308744,0.0039006798,-0.018096238,0.1452557,-0.042767312,-0.06110654,0.059220783,0.039129168,-0.014197112,-0.028472932,0.11506084,0.009140556,0.08763752,0.122379266,-0.09399725,0.04860397,0.020467598,0.06428187,-0.031442016,0.039070405,0.100892544,-0.030453892,-0.15621819,-0.12727603,-0.085538425,-0.021440541,0.0023540216,-0.04484771,-0.040062282,0.079035126,-0.05034053,-0.1426236,-0.26416382,-0.19599257,-0.09568532,0.004100459,0.10933839,-0.03686975,0.05792178,-0.14203423,0.065707244,0.1376045,0.098437004,0.09367357,0.015561575,-0.0009975822,-0.07091491,0.059173577,0.10684934,0.16333728,0.03229321,-0.11796174,0.08443489,0.09086369,0.05313475,-0.056910172,-0.061729897,-0.13066934,0.081750564,0.068647824,0.11231694,-0.06194016,0.045759927,-0.048343305,-0.024768962,0.022658072,-0.08509744,0.04087232,0.037788145,0.069987245,0.042829733,-0.061581265,-0.14670244,0.084330134,0.0207325,0.13972668,0.1297207,0.059297588,0.032300778,0.02408778,0.094497144,-0.1001651,-0.14506517,0.059754297,-0.10868402,0.044027817,-0.015609745,-0.11621926,0.051045995,-0.0825504,0.04232975,-0.05671086,0.0033466944,0.058786172,-0.0014602874,0.19556364,0.13396777,-0.029257605,0.059506774,-0.057226032,0.13487196,0.10338277,0.11849288,0.03154883,0.08297466,-0.011217421,0.0028792534,-0.08702885,0.121139735,-0.05178259,0.12181158,0.016223034,0.08843206,-0.06614537,0.020904858,-0.041492328,-0.07339879,-0.15097128,0.12265573,-0.10583889,0.1246979,0.08636146,-0.04862467,-0.091607064,-0.071894355,-0.0486733,-0.013490641,0.08878808,0.12658693,-0.15943454,0.015510757,0.037267976,0.033375364,-0.14044134,-0.09406781,0.09191303,0.14166243,0.031230958,0.17819388,-0.020563582,0.063048184,-0.09014484,-0.016326888,0.0830902,0.060333975,0.119564705,-0.040899955,0.13448548,0.010505767,-0.094337314,-0.030768301,0.012532217,0.018563129,-0.01863891,-0.034435455,0.0042831525,0.077089466,0.0736423,-0.01503009,0.104539305,-0.20176855,-0.06841517,0.051916398,0.022053773,0.02655618,0.16579051,0.0076156207,0.015818931,-0.08729049,-0.17616163,-0.06791455,0.100471005,0.0060623186,0.043822277,-0.023363393,-0.063944444,-0.021457067,-0.016422553,0.13043977,-0.002756965,-0.11496049,0.008210735,-0.0018904634,0.05465102,-0.07760018,0.0029655928,-0.056652743,0.026791902,0.24509881,-0.09778955,0.02150423,0.20767172,-0.04114596,-0.17527953,0.051274706,0.106296234,-0.018676583,-0.021496251,-0.078797005,-0.03890985,0.07450905,-0.15211175,-0.018848188,-0.030128507,0.078941055,0.13004085,-0.03313801,-0.12348813,-0.03372793,0.08257838,-0.07965916,-0.03343914,0.031526662,-0.00018320553,-0.044051595,-0.021803945,0.022493659,0.0045143366,0.017406287,-0.08490479,0.10306526,-0.14542346,-0.039044406,0.041394096,0.084719546,0.060907647,0.06603083,-0.110235505,-0.07216158,-0.07427927,0.16160698,0.0002469786,-0.04707445,0.041433506,-0.015280554,-0.009522285,-0.10019923,-0.1518773,-0.07327202,-0.11523565,-0.047317524,-0.09849752,-0.004431417,0.075588055,-0.00514234,0.011690026,0.026277797,0.06479937,0.1881637,-0.03926148,-0.08458088,0.035909902,-0.06612914,0.043518376,0.0005158431,-0.051256057,0.036190104,-0.18968803,0.0586501,-0.22548535,-0.00311605,-0.12997669,0.040218264,-0.03454946,0.061677773,0.13396262,0.04058558,0.036222525,0.035557516,0.0016395437,-0.07680377,0.037056655,0.04722181,-0.04155885,-0.11878879,-0.11262365,-0.058248166,-0.01911591,0.12047329,0.0125561645,0.03991205,-0.07258261,-0.08750944,0.030951211,0.12969352,0.13716562,0.003240799,0.03629649,0.115745366,-0.08305268,0.041460864,-0.015721954,-0.033081297,0.03756835,-0.018628541,0.17128931,0.027768698,-0.12176407,0.14321004,0.024225438,-0.11916432,-0.17702031,0.22253722,-0.21232185,0.03325752,-0.06353092,0.054198045,0.081295356,-0.08076582,0.038060036,0.11570102,0.115470804,0.12186147,0.15397142,-0.004528471,0.17029257,-0.035924636,0.072624736,0.025531992,-0.025710488,-0.0064587067,0.013702909,-0.045674022,-0.15222009,0.13172637,-0.18474239,0.09662168,-0.005993514,-0.0044863946,-0.048897,-0.039156023,0.09107658,0.14723675,-0.17393094,-0.03273253,-0.032410614,-0.06979538,0.055671632,-0.056490507,0.085172154,-0.059298087,0.20166963,0.031335175,0.023028634,0.032470845,-0.07813876,0.04434942,-0.07075657,0.010165093,-0.0056057037,0.050906025,0.052336525,-0.011478516,0.011412325,-0.10193776,0.116967276,-0.033098623,-0.07949888,0.02770357,-0.021108368,-0.03762165,-0.052337255,-0.0101371985,0.03032122,-0.039474137,-0.0064780368,0.0044472157,0.048891794,0.025115412,0.06931894,-0.09775435,-0.0012658702,-0.027949749,0.0035585084,-0.11101579,-0.113398544,-0.027571714,-0.09118544,-0.16390678,-0.027576154,-0.019163612,0.014831675,0.09656816,-0.019821035,-0.0017726711,0.15673062,-0.0036068542,0.031129207,0.09869392,0.0022204868,-0.061872166,0.01649824,0.02725259,0.037313025,0.12530003,-0.02183698,0.101166755,0.08263048,0.023616344,-0.06509251,0.052126415,0.0014144902,0.0653108,-0.022808962,-0.039324757,-0.039184436,-0.09827515,0.036047667,-0.08390807,0.021659208,0.1030948,0.062375158,-0.04686964,-0.03742129,0.040838707,-0.049662884,0.21005213,-0.019685946,-0.040484283,0.028240755,0.00444951,-0.05652489,-0.08100241,0.08703113,0.0013657172,-0.01864285,0.020463334,0.14014672,0.049466573,0.25347963,0.049011394,0.03445924,0.03584782,0.028785363,-0.12792362,0.07187598,0.08461752,-0.10733048,-0.099215776,0.19425984,0.008969312,0.03170796,0.019794691,0.16365011,-0.13389088,0.020066991,0.08693105,-0.053279597,0.031422332,0.06749468,0.10288815,0.075075455,-0.0009626595,0.08312612,-0.0019326458,0.06643215,-0.013494132,-0.12592262,-0.10482007,-0.02969995,0.055477917,0.02847764,0.14356163,-0.069650464,0.018102942,0.108994916,-0.033946373,0.09460857,-0.019521624,-0.065091334,0.06882352,-0.059964627,-0.06802958,-0.113021016,0.12642406,0.109670185,-0.037215985,0.120593935,0.0438182,0.09404557,-0.12212248,0.044602983,0.0072877156,-0.071275204,-0.00521678,0.012577129,-0.23967448,0.0053196517,-0.06886549,-0.08090393,0.029981967,0.059794758,0.09122569,-0.23738076,0.15873808,-0.06488443,-0.04242809,0.023082845,0.072033726,-0.010892286,-0.017795656,-0.04776358,-0.12199501,-0.062205665,0.09592461,-0.060741898,0.010222013,-0.0456963,-0.0067417067,-0.08985673,0.13107468,-0.1088309,0.09967878,0.07578905,0.08034846,0.021110352,0.041758925,-0.06778542,-0.012364183,0.075941294,0.08855432,0.024313632,-0.017534025,-0.088019416,0.019304201,0.13018265,0.052270014,0.06025804,0.09809282,0.04962968,-0.108447514,-0.020091355,0.04996004,-0.115835704,-0.10899162,-0.04639096,-0.0081331665,-0.09401603,-0.07594923,0.12532136,0.098897554,0.01704641,0.011598133,-0.120327614,-0.003978006,0.042054694,0.056105703,0.063929506,-0.12618814,0.08144221,0.056834683,-0.033680063,-0.10971936,0.13814172,-0.11410947,-0.018809807,-0.0882927,-0.032180108,0.044077888,0.11183435,0.15428844,0.03941508,-0.02145055,-0.02301756,-0.14225717,0.12753558,-0.013029773,-0.077795506,0.1006001,0.0053285705,-0.03106149,0.067776114,-0.058770638,-0.14403524,0.0922495,0.16709706,0.009381688,-0.03386367,0.07996572,0.033496045,-0.09553525,0.007216569,0.08803267,-0.14675029,0.0749797,0.114175186,-0.036940247,0.20927936,0.08995117,-0.009520618,-0.04332794,0.0095130615,-0.047315463,-0.15559183,-0.05743454,-0.02145085,-0.10745271,-0.0074610272,0.058519505,-0.10541983,-0.01138387,0.004786242,0.09442022,-0.07659916,0.022362668,-0.06213408,-0.011845486,-0.0039288327,-0.011119518,-0.058685336,-0.05310805,0.11741872,0.13467348,-0.09188888,0.047742028,-0.08507418,0.08620103,0.10350473,0.12405051,0.008047423,-0.03155197,-0.01568423,0.031152561,-0.040221997,0.056104302,0.029161561,-0.07344559,0.03289253,0.006301792,0.00472247,0.10349014,0.101332046,0.036786478,0.040940773,-0.06630589,-0.04530561,-0.020606952,-0.0027389869,-0.03483373,0.061105985,0.02452891,0.10290646,0.06727787,0.11103828,0.0018611318,0.006595567,0.08159239,-0.22014262,-0.15076555,-0.0059791207,0.013058331,0.076030895,-0.09382607,0.022079332,0.0069196043,0.13284099,-0.07584526,0.019370634,0.095750034,-0.0880019,-0.17620845,0.02687735,0.1368306,-0.04322818,-0.015297636,-0.010906861,0.15757594,0.046804514,-0.02476068,-0.06433399,-0.03348441,0.1329059,-0.006031117,0.088549465,0.1189528,-0.041772906,-0.12281316,0.022436133,0.014063092,-0.11894129,0.098868765,0.09572131,-0.09927951,-0.0021927364,0.15376866,-0.08576805,-0.0028702163,-0.035747297,0.11214424,0.061849684,-0.0017500771,0.084870644,0.07003459,-0.035664767,-0.044088844,-0.023590483,-0.061032876,0.106310576,0.04398722,0.043465342,0.048421953,0.027976226,0.04269363,-0.04611525,-0.015435363,0.039275005,0.14109878,-0.044871937,0.14444208,-0.103722736,-0.07970425,-0.13273734,0.021383565,0.0120235225,0.07576902,0.11484583,0.03383195,-0.091390446,0.041682426,0.02060009,0.014322834,0.09896315,-0.0015524423,0.28757548,-0.06499884,-0.10641581,-0.08052556,-0.039268605,0.015915405,0.015512491,-0.05498772,-0.019116173,-0.09655418,0.10951498,-0.11191989,-0.04513153,-0.12000867,0.06425707,-0.024630222,0.025138345,0.09689556,0.049796585,0.09846567,-0.07780715,-0.14705813,0.106160246,-0.07776744,-0.052539896,-0.0577554,-0.011107644,-0.11055832,-0.010775243,-0.15459119,-0.0718156,-0.0667378,-0.049058836,0.027464855,-0.054043148,0.061028995,-0.09205466,0.03036877,0.012861901,0.038271632,-0.005800799,0.026035236,-0.018422887,-0.08823048,0.072976224,-0.100031205,0.00888782,0.075822435,-0.015487993,0.028417606,0.040072262,0.09892646,0.013072846,-0.08142582,0.14246897,0.018930987,-0.0022909255,0.003923673,0.096271314,-0.06645334,0.029072708,0.08379683,0.058782794,-0.05788124,-0.123952165,-0.041351322,0.008746676,-0.017781857,-0.05608029,-0.025418952,-0.13585809,0.15993842,-0.12961274,0.09942369,-0.115972064,0.031349048,-0.064878665,-0.18594523,0.039675757,0.15442643,0.029783266,0.1990234,-0.029800624,-0.048478153,0.065468356,0.10072161,0.11127994,-0.065985434,-0.053049006,-0.10231236,0.040231474,-0.10349279,-0.10562851,-0.089056075,-0.0059922473,-0.10825154,0.048689842,-0.036603436,-0.11494997,-0.17615712,0.17960124,-0.13554914,-0.052538823,0.09156196,-0.04306848,-0.004351421,-0.015183863,-0.016399002,-0.045933574,0.13855775,0.08178453,-0.05212229,0.070223495,0.03390479,-0.06686296,-0.058896802,0.06651597,0.0036566602,-0.1542183,0.073730156,-0.032750037,0.11112935,0.06292683,0.06490774,-0.008675023,-0.047563992,0.114606075,0.05220172,0.019402258,-0.20771073,0.07257459,0.035250977,0.020295504,-0.12592135,0.009038254,0.016539361,-0.09391377,0.04914675,-0.043517094,-0.08484116,0.004632605,-0.124448314,-0.061052583,0.1328787,-0.039796688,-0.037555847,0.05070301,0.057442155,-0.04851329,-0.0067537054,-0.095557936,-0.020616215,0.008871212,-0.10245346,-0.015983177,0.056155436,0.0041404665,-0.093351096,-0.029913332,-0.09684292,0.035856385,0.20947431,0.0027034488,0.014495111,0.045797292,-0.06583898,0.042073723,0.061385933,-0.088261135,0.04174564,-0.075744286,-0.11721487,0.06290174,0.21476668,0.0064433934,-0.03616949,-0.026451796,-0.044817004,0.09146071,-0.06832298,0.00841382,-0.063131586,0.06719618,0.08831495,0.011207272,-0.06897326,0.10638119,-0.014854368,0.008268737,0.18692945,0.08518924,0.07744852,0.10775652,-0.039628234,-0.1324088,-0.04584834,0.10285611,0.021913117,-0.021840453,-0.08218284,0.007031164,0.011777613,-0.018557377,0.09561952,-0.04518675,-0.027744023,0.04914712,0.0015046191,0.029384008,0.035268772,-0.022264266,-0.09871206,-0.007046951,-0.0016800973,-0.0171397,-0.044544023,-0.029627115,0.000900098,0.13447846,0.034956045,-0.02861687,0.050442036,0.1061849,0.016074816,0.09386214,-0.008622999,0.07691152,-0.073300205,0.02711224,-0.100728035,0.010419347,0.0040094336,-0.018584864,-0.017673595,0.06494757,0.09077076,0.21296489,-0.02887347,-0.03563168,-0.081109315,0.025477456,0.021710427,0.043336898,-0.11737727,0.0023672984,-0.17663483,0.119720474,0.17066748,-0.075624175,-0.035767682,-0.067246094,0.06784968,-0.05605787,-0.07151062,0.03312686,-0.007738529,0.08150737,0.02242825,-0.04643645,0.0641881,-0.09689689,-0.04314667,-0.079567306,0.07281085,-0.156759,0.21897867,-0.001431186,0.05237079,0.08485395,-0.020016138,0.08897075,0.1688031,-0.020560468,0.08497569,-0.08158512,-0.034109715,0.042666484,0.1673586,0.031882953,-0.055860978,-0.09676416,-0.0670401,-0.1268446,-0.0048157005,-0.0133627495,0.040373415,0.15128003,-0.084564485,0.05880259,-0.07823931,0.06783235,-0.065386616,-0.10491323,-0.08939154,0.06880086,2.3867964e-05,-0.12912759,0.04117921,0.03956197,0.034702867,-0.17447601,0.056911353,0.13337286,0.091119565,-0.015273642,-0.05392573,-0.048476808,-0.14882125,0.2306969,0.040485267,-0.03749541,-0.02497724,-0.1301128,-0.06776119,-0.0005539698,-0.018357264,-0.0027923824,-0.076207966,0.012080138,0.09492046,-0.1021152,0.09492754,-0.027961137,0.117698275,0.04559217,0.0808764,-0.039311033,-0.14264086,-0.020083264,0.13958986,0.09576904,-0.0256827,-0.119636275,0.07338967,0.025579438,-0.058009364,0.04076024,-0.08093851,-0.13356021,-0.045409914,0.07746245,-0.0071854116,0.11617711,0.11568256,-0.107586645,0.15211253,-0.109284446,-0.010912079,0.0056078583,0.007026019,-0.048592653,-0.14266162,0.07655621,-0.06613533,-0.13534002,0.07927199,0.17766812,0.09538705,0.05294929,-0.11641274,-0.09282848,-0.01748575,0.040332727,-0.020208715,0.043026835,-0.09793938,0.0001861384,-0.014176141,-0.07259336,-0.02260185,0.06573805,-0.065735474,-0.028652439,-0.060551777,0.08371064,-0.015205362,-0.08146366,-0.07934006,0.00089443807,-0.053964894,-0.0012601957,0.008499939,-0.054573093,0.036472768,-0.09458042,0.030433454,0.09569892,0.07455346,-0.06407386,-0.02231687,0.033892862,-0.08999336,-0.17858753,0.16340156,0.003230575,0.21301231,-0.090271816,-0.11701165,-0.032440495,-0.061304506,-0.14213605,0.08241281,-0.01861345,-0.062345378,-0.020595308,0.01643786,0.009867729,0.08060843,-0.06079701,0.039906308,0.053926766,0.05746409,0.11699489,-0.23605192,-0.031780757,0.05941564,-0.117259316,-0.024199473,0.10457008,0.11423064,-0.090437524,0.008565694,0.035421994,-0.030693308,-0.04772984,-0.011917093,-0.120496675,-0.22932342,-0.0499675,-0.09118255,-0.017064797,0.04569941,-0.0720219,0.048525143,0.07716683,-0.0638723,-0.09628657,0.00024543807,0.09907939,-0.0017412927,0.045672018,0.16167147,0.035405565,0.030502556,0.018335534,0.06847203,-0.12322613,0.02341222,0.0906767,0.11208385,-0.13007614,0.08981653,0.0016468188,-0.24359147,-0.016381046,0.050995477,0.22118586,-0.042950995,0.011281354,-0.028752368,0.00080749067,-0.028794952,-0.07847745,0.105902165,-0.017517462,-0.0018427981,0.19779767,-0.019664401,0.09947716,0.0722462,-0.0011504075,-0.06688744,0.059452128,0.08515785,-0.026271684,-0.096800566,-0.015064841,0.12018768,0.075213954,-0.16242921,-0.037201125,-0.062580556,0.09500442,0.085668676,0.045501817,0.02591501,-0.0019253899,0.1265652,-0.08879262,-0.045297567,0.042674214,0.07802627,0.030020028,-0.04259443,0.0045302976,-0.096525505,0.06131809,0.019513639,-0.13182701,0.116009325,0.09242817,0.021335289,-0.03562694,-0.11378227,-0.1722004,-0.09433147,0.00978739,-0.06740503,0.04489434,-0.023452928,0.07896623,0.03851985,-0.048037976,0.01722693,-0.031553235,0.008466845,-0.033793353,0.010624603,-0.047681868,-0.03883345,0.010319116,0.05303765,0.029692192,-0.1315275,-0.003455932,0.022490544,0.01710188,0.085730955,-0.16061427,0.12121235,-0.084819056,0.08004169,-0.0065787383,-0.1674149,0.17378543,0.061058547,-0.035160903,0.085726075,0.018299296,0.07567581,-0.08169497,0.08619281,0.13789131,0.02689042,-0.083216906,-0.114712596,-0.15122196,-0.117544204,-0.030506719,0.0044974424,0.0122895595,0.00554805,-0.0656725,0.08782582,0.018485768,-0.11590144,0.010645833,-0.021725092,0.07228351,-0.014167481,-0.07461389,0.06227995,-0.05042621,0.008944344,0.044796787,-0.016380046,-0.089052565,0.097714804,-0.16064283,-0.100240335,-0.083064824,-0.05947211,-0.009487517,-0.073934145,0.06586904,-0.10405033,0.1637483,0.044237167,0.13167693,-0.0570791,0.06832139,0.0368206,-0.18043713,0.055299755,-0.049759556,-0.019142462,0.009377031,-0.00798824,0.22054754,0.14909072,0.050679885,-0.024487136,-0.048475325,0.14409095,-0.08463865,-0.06315663,-0.07789411,0.08142289,0.1193266,0.0604318,-0.008364218,0.13420185,0.06958091,0.14485286,0.059311096,-0.021436522,0.017659513,0.08814442,-0.09548105,-0.06055086,-0.013090935,-0.10998661,0.027797597,0.04242594,0.031074021,-0.017829524,-0.07900962,0.15969718,0.047416955,-0.0637855,0.10947309,-0.008627745,-0.011850254,0.05437771,-0.17225961,0.063689075,0.0071524847,-0.0018587781,-0.012630957,-0.093351714,0.010174837,-0.08033389,-0.0819336,0.05267581,0.042446394,-0.046894383,-0.0016479123,-0.21081544,0.04042022,0.06500167,-0.11011304,-0.026224291,-0.081840634,-0.10054513,0.048089527,0.11107253,-0.15046729,-0.0074889283,-0.113653265,-0.07456825,-0.19208051,-0.04059983,-0.0110941315,0.16972272,-0.055556193,-0.09170455,-0.12622952,0.047212377,0.10337744,-0.024764067,-0.049724616,-0.018760633,-0.026963452,0.093318395,0.09436811,-0.07660038,0.15460426,-0.05026104,0.094000004,-0.0010185032,-0.003996167,-0.08711658,-0.06807103,-0.110384725,-0.086175285,0.15164559,0.050372455,-0.0368727,0.071553886,0.09638568,0.13300362,-0.033907104,0.04624759,-0.075601965,-0.029700488,0.13846196,0.0932743,0.04132061,0.12656935,-0.0070070773,0.035928696,0.047315426,1.3680037e-05,0.017595902,-0.10798604,-0.0038751545,0.051036045,-0.033032093,0.04468756,0.15461998,-0.031713065,0.037364464,0.083975166,-0.049035378,0.23731655,0.2022269,-0.075236075,0.0058125667,-0.106641494,0.04591595,-0.14272508,-0.15209419,0.027456662,0.00023963868,0.08293021,0.019761177,0.09066139,0.056116894,0.0055998242,0.0750119,0.07784586,-0.10817422,0.0064539528,-0.115146585,0.048138395,0.069866665,0.054441363,0.015089774,-0.007932917,-0.018741209,-0.07198916,0.08714783,-0.016225496,-0.008060722,0.06684835,0.06770467,0.11167095,0.054198347,-0.14514765,-0.086804554,-0.044483315,0.12657474,-0.13677719,0.14128646,0.036448967,0.01801699,-0.110469624,0.10997527,-0.060098175,0.005231442,-0.08307567,-0.016003134,-0.017239904,0.024145387,-0.12655869,-0.043454673,-0.020262862,0.061808847,0.05840626,-0.06703883,0.022798203,0.13233757,0.004386963,0.13186947,-0.21150212,-0.059303004,-0.004687404,-0.096603535,-0.10106474,-0.064385824,-0.18375604,0.033097696,0.03260347,-0.078614734,-0.08281502,0.113637544,0.11224832,-0.043676548,-0.01265597,-0.016743695,0.101921275,-0.030182267,-0.12904637,-0.044437833,0.04504128,0.035639256,-0.068699434,0.053318363,-0.13414964,-0.008404946,0.06144848,0.098493144,0.038663346,0.09790385,-0.09862271,0.11358719,0.03478753,0.16100277,-0.056726154,0.15593281,0.019642256,-0.07015827,0.0048117316,-0.06742468,-0.011725122,-0.13822788,0.107955225,-0.06974193,-0.050810616,-0.046625674,0.1398481,-0.10596085,7.5476535e-05,0.023417318,-0.021327857,-0.058122806,-0.07896486,0.0841227,0.043528702,0.044037636,-0.0036545885,-0.09385278,0.040058658,0.117710635,0.09918667,0.056619246,-0.11223672,0.05543753,-0.050706524,-0.08323233,0.080597945,6.8551795e-05,0.0028877123,0.011939288,-0.0030454975,-0.026313663,-0.08734951,-0.0515033,-0.15316197,0.081948854,0.09882016,0.013753791,-0.038336355,0.06765035,-0.063758336,-0.037659094,-0.012084961,0.11954489,-0.09023129,0.06647386,0.0647948,0.1748369,-0.040681504,0.22476974,-0.09554905,-0.07937006,0.036222093,0.018020432,-0.026684966,0.07304165,-0.05902244,-0.012325612,-0.08229704,-0.06620664,0.11619284,0.15196003,0.16008113,0.025266811,0.027826486,-0.013042876,-0.088884294,-0.09580794,0.026069168,0.04982034,0.037479848,-0.08980503,-0.049383234,0.15850843,0.09612882,0.07234424,-0.031927075,-0.023980321,-0.073323265,0.18696268,0.02249485,-0.21846442,0.046714187,-0.060131118,0.015464263,0.09289235,-0.19554926,-0.091595456,0.08827017,0.00224539,-0.016428784,-0.06297448,0.014889291,0.035832036,0.08921767,0.079663426,0.0337667,0.04471236,-0.036327038,-0.04907967,-0.028242063,-0.23392402,-0.04251546,0.044615068,-0.028048,0.035106923,0.052416105,-0.011047064,0.0376955,-0.051463895,-0.16965297,0.027684456,-0.07389277,0.14568055,0.05971022,0.013217112,0.027541725,0.034499172,-0.13201268,0.05077385,0.0054830173,-0.057406206,-0.063474804,0.06348391,0.030936545,-0.05541495,-0.07557505,-0.14975421,-0.09447705,-0.08115215,0.06757215,0.13308105,0.02353096,-0.042092945,-0.045249928,-0.033675678,0.061687198,-0.049894903,-0.0020886743,-0.0150417825,0.0077146757,-0.16108933,-0.00674173,-0.051723734,-0.026151761,-0.03155607,-0.0279278,-0.17320286,-0.057638843,-0.0039534625,0.16348925,-0.01829644,-0.019440975,-0.050752915,0.059870064,0.18443131,0.050986018,-0.013668644,-0.16338336,-0.05232736,-0.20164709,-0.042841785,0.109408624,0.26499027,-0.043605857,0.00520111,0.0828082,-0.059995227,-0.027839476,0.01681613,0.016487723,0.028552169,0.09678357,0.018133774,0.1769772,0.014851571,0.088798426,0.058980715,0.084254876,-0.034545362,-0.03298427,-0.041862115,0.14573373,0.06162388,0.036501136,-0.034560896,-0.017907014,0.037401386,-0.018200826,-0.005620019,0.03736973,-0.17701888,-0.009257034,0.13521643,0.1351859,0.108040035,0.04727922,-0.09074138,-0.13663933,-0.05979199,-0.033040907,-0.10923785,0.105164155,-0.038917083,0.028523376,-0.039786488,0.02202765,0.09053782,0.1908565,-0.12999678,0.038568463,-0.0873332,0.09436504,-0.021600677,-0.09446067,0.10768095,-0.16300382,0.027675502,-0.1591202,-0.008484058,-0.1197522,0.03786958,-0.005168512,0.05906547,-0.08234646,0.006181025,-0.0743553,-0.010244421,0.18352976,0.06098858,-0.0023055507,0.051985737,0.07785501,0.07400449,-0.08947474,-0.042529237,-0.068512306,0.0477632,-0.029822057,0.08152407,0.09705478,0.024962308,-0.044074137,0.019763248,-0.016829535,-0.04477997,-0.04455835,0.04731685,0.1720606,-0.11615703,-0.03703434,0.082838446,0.06663659,0.028497271,0.09093627,-0.0656959,-0.0153914355,-0.05451112,0.008911985,0.016645633,0.021412047,-0.05427673,0.037496116,0.06807405,0.17287675,-0.048617516,-0.036343046,0.1245574,-0.022958074,0.031378526,-0.09341318,-0.084611796,-0.14171438,-0.0060836,0.027617283,0.004570524,-0.14567493,0.12996556,-0.16353989,0.02592679,0.003206339,0.06149432,-0.031852476,-0.0064058667,-0.043113373,0.051164135,-0.12252614,0.054564163,-0.0013919828,0.025855105,0.05729793,-0.05225822,0.047952864,-0.043142863,-0.025052281,0.10047984,0.15254676,-0.1768404,-0.031487823,0.04060726,0.18965608,-0.078597054,-0.15037325,-0.13309187,0.005064695,0.07451288,0.07202418,0.13346158,0.06095896,-0.10537997,0.12149748,-0.13467853,0.04641947,-0.02253072,0.02673405,-0.021214712,0.076414496,0.010605625,-0.03632738,-0.027124412,0.0790529,-0.046899796,-0.050016966,-0.02244139,0.17324854,-0.014302192,0.087490655,0.08200041,-0.014316583,-0.10440764,-0.10402376,-0.01270556,-0.19489281,-0.12947893,0.1392859,0.12411636,0.021473456,0.08656294,0.013876541,0.021632044,-0.02031069,0.007971844,-0.075173095,-0.18020923,0.031126315,0.045564532,-0.00954922,0.0184178,-0.11818401,0.052126925,-0.16843052,-0.08173641,0.042665415,0.033686534,0.1810614,0.14445063,0.023602176,0.10569873,-0.003002198,-0.038173806,-0.022313692,-0.016052622,-0.085071854,0.1072842,-0.067325436,0.110974126,-0.020334002,-0.13187948,-0.012011825,-0.11523859,0.02271036,0.0031395906,0.1283034,-0.081004426,0.05170222,0.011256271,0.018265596,-0.14150067,0.05523468,-0.080485605,-0.003525946,-0.17761482,0.13290556,-0.09685267,-0.036483828,-0.097556755,-0.025118232,-0.096445985,0.060755298,0.058494058,0.006818058,0.10214694,0.2103876,0.046278138,-0.08360053,-0.036941186,0.006195488,-0.093739666,0.038466398,-0.10860365,0.07644862,0.06883791,0.08848024,0.07523949,-0.098077826,-0.058217626,-0.011477631,-0.11982836,-0.003369357,-0.04413177,-0.14766382,0.03275163,0.107758835,0.068404704,-0.02603291,-0.046277024,0.04068642,-0.107522205,0.09240396,0.054283373,-0.09552571,0.049923316,0.10468078,0.012314017,-0.041536797,-0.060072772,0.049019657,0.023313176,-0.14418913,-0.0050971834,-0.16049406,-0.007983905,0.022916561,-0.09194557,-0.033420425,0.03111366,-0.014738884,0.0235175,0.0012890096,-0.032218993,-0.05171672,0.0658448,-0.06524914,0.027711775,-0.15999961,-0.017002651,0.018110663,-0.025372235,-0.012832492,0.053306863,0.21066889,-0.13293687,0.05623076,0.10000673,-0.12266836,-0.10595575,0.10949828,0.03431999,0.0939791,-0.0053611035,0.040836934,0.081964314,0.11664748,0.050008465,0.08924964,0.0554623,-0.075183734,0.005984362,-0.018096857,-0.020621685,0.18418145,-0.045274455,-0.0052449186,-0.095375195,-0.07698251,-0.0730157,0.18736632,-0.103019,-0.036806658,0.029021844,-0.06543511,0.03858271,0.08401458,-0.057962794,-0.13206163,0.08019461,0.02418548,0.022631641,-0.021973843,0.13978088,-0.021803899,-0.13318914,-0.21766043,0.09439054,0.11740925,0.021594152,0.022739144,0.14286637,0.06385334,-0.0668128,0.012899912,0.0031838662,-0.024561679,0.06161891,-0.08636861,-0.06754239,-0.057865743,0.09271929,-0.016459778,0.038249195,0.055505022,-0.018100195,-0.018587979,-0.07365557,0.06163602,-0.10290185,-0.062332515,0.08410253,0.15305401,-0.00981233,0.06446648,-0.07303885,-0.017261911,0.027250227,0.13826889,-0.011872122,-0.143091,0.07345505,-0.06537726,0.02597641,-0.0021390552,0.097769864,-0.14641596,-0.04701659,-0.04061726,-0.12413046,-0.10237275,0.0779068,-0.07289449,0.010449382,-0.072336,0.042502146,-0.052178536,0.06821278,-0.17329568,-0.02714041,-0.007566182,0.16466343,0.09092998,0.009901343,0.038388383,0.07192819,-0.006242697,-0.06474086,-0.025397671,-0.100361414,-0.10462378,-0.033073843,0.085268155,0.059007496,0.14339432,0.115749374,0.06280908,-0.09572885,0.031391077,-0.027735539,-0.12984084,0.016327938,0.08096167,0.19895509,-0.023391318,-0.13654813,0.05449888,0.12653492,-0.05398194,-0.15952183,0.016680012,0.09673245,0.038514704,0.00906472,0.18696187,0.004692432,0.14246826,-0.036837526,0.109130986,-0.063823335,0.065190546,-0.0046365107,-0.115423635,0.028040163,-0.026181806,-0.034257904,0.17752425,-0.047057904,0.044481117,0.021754554,0.10470085,-0.17419977,0.059833553,0.028984193,-0.018680433,0.034248516,0.13862081,0.01544643,0.17499834,-0.037668355,0.0017707838,-0.011590227,-0.010221705,0.12834895,-0.10513843,0.007772664,-0.070576034,0.115212336,-0.026207887,0.019134952,-0.038357157,0.011900875,0.050436124,-0.13089307,0.09018332,0.07544351,-0.01892297,0.05144903,-0.01915518,-0.03025242,-0.027460817,0.06567238,0.1460616,0.06777714,-0.03583314,0.02254897,0.06557713,-0.1563409,-0.018742403,0.043842845,-0.087177604,0.03110373,0.13079089,-0.15811391,0.12190513,-0.061474945,-0.042786255,0.03457753,0.070997275,0.03217893,-0.1420127,0.04954546,-0.053384,-0.034946863,-0.013206385,0.16773461,0.010317066,-0.015768783,-0.010656225,-0.03290996,-0.019277759,0.01836791,-0.060207814,-0.021838224,-0.018830504,-0.010187516,0.032298155,0.15914501,0.0005373459,0.08393962,0.07545313,-0.034767933,-0.004488053,-0.035303567,-0.011739625,0.051517166,0.050760612,0.081869714,-0.011590013,0.06541324,-0.10092029,0.023728644,-0.003672716,0.24595246,0.015644828,0.08383951,0.095121406,-0.056161173,-0.051793277,-0.022564748,-0.06606472,-0.014451639,-0.08088313,-0.035374578,-0.16107029,0.12184772,0.13505054,0.038101897,0.098846555,-0.001659346,-0.14984481,0.005712654,0.05212313,0.1400019,0.06407685,0.108117424,0.0034723468,0.05942402,-0.013994587,0.05813041,0.09481614,0.07574477,-0.07515609,-0.04447432,-0.08569995,0.04234172,-0.04575864,0.11414636,0.04395008,0.12386904,-0.017275814,0.035188965,0.10047704,-0.025180513,0.043519486,-0.09178007,-0.00969254,-0.044686228,0.004254708,-0.073251225,-0.16076615,-0.10155985,0.124236755,0.0727787,-0.0271446,0.119565934,0.03413834,0.07695951,0.06142446,0.12514731,-0.04723459,0.08368968,0.01912789,0.149697,0.089693025,0.06252908,-0.032027334,0.14837797,-0.031010928,0.049963683,0.14176635,-0.114497095,-0.06290072,-0.20405023,-0.10975637,0.16674146,-0.009959274,0.11181545,0.05108911,0.117690384,-0.046360947,-0.108451515,-0.06486394,0.041977886,0.08554704,0.12536392,-0.011982259,0.042011123,0.04698019,0.05085702,0.07725024,0.023768028,0.0606061,0.020346316,-0.070349716,0.16681801,0.024454724,0.021478476,-0.045326944,0.05411649,0.036008954,0.025270326,0.110166006,0.05749216,0.012722489,0.057885703,0.09629212,0.089009255,0.19255817,0.02444256,0.12340749,0.07098367,-0.0050182655,0.042521935,-0.061532494,-0.0244527,0.12845562,0.034297682,0.07004414,0.09827985,-0.07286424,0.042804416,-0.056477014,0.043537293,-0.18646175,-0.080464944,-0.040138323,0.13637546,0.045908373,0.05494255,0.11141332,-0.07950558,0.053494602,0.0019805972,-0.030188188,0.014687458,0.10414845,-0.005999721,-0.15999635,0.03217768,0.05144507,-0.03626633,-0.045079287,-0.048372526,0.04746024,0.0997283,0.044471364,0.10576279,0.10793371,0.073364854,-0.06962518,0.04950295,0.05219921,0.077396646,0.024936942,-0.0020840736,0.16075775,-0.0847201,-0.08727209,-0.1251008,-0.02762073,0.032448437,-0.04367365,0.13527456,-0.07872182,-0.11039931,-0.12278724,0.015907357,-0.05693077,0.038135275,-0.11833473,0.12816383,-0.033877894,-0.057587497,-0.076748,-0.051425114,0.030616509,-0.052558724,0.06680225,-0.015673451,0.105520375,0.06027948,-0.120923966,0.09421922,-0.1519295,-0.04057162,0.025065636,0.03783046,0.029423729,-0.048434794,0.023053337,0.096493326,-0.027593696,0.0925171,-0.1769434,-0.106934145,-0.18858981,0.0405194,0.07154269,0.005616462,-0.1952421,0.028986542,0.05684059,-0.052300204,0.004013753,-0.034675952,-0.11694737,-0.21746807,0.003915241,-0.058210902,-0.11374559,-0.00405598,-0.08219064,0.006087536,-0.024642661,-0.03908076,-0.04038064,-0.03474893,0.047699008,0.04567343,0.044486698,0.01758836,0.07438732,0.08146529,0.0027460954,-0.030687604,-0.13463037,-0.047244295,0.060173806,0.12855105,0.10713617,0.15104334,-0.020847823,-0.005979579,-0.027439354,-0.045660693,0.13966325,-0.044833466,-0.19323985,-0.14455585,-0.074944265,-0.112719156,-0.040636413,-0.16825862,0.08891561,-0.0811545,-0.08226447,-0.06311371,-0.014813763,-0.04891507,-0.03942136,0.1308734,0.077425815,-0.044538,-0.14056396,-0.007682607,0.0360781,0.040843654,0.16076764,0.063432254,-0.046762276,0.07377283,-0.10117539,0.013074792,0.04903316,-0.047274698,0.025153453,-0.107744105,-0.08095511,-0.043237012,0.002508639,-0.05060685,-0.015319083,-0.0017528102,-0.15283273,0.04491381,-0.029337326,0.0031922131,0.21670645,0.024328198,0.13580328,0.004418182,-0.07956299,-0.02579011,-0.0867999,-0.028450072,-0.049069207,0.032194205,0.15798175,-0.102078244,-0.030620852,0.046036575,-0.064298436,-0.17757113,-0.05696265,-0.013534566,0.12379891,-0.12646404,0.023413926,0.021821855,-0.05033022,-0.1442354,0.12318794,-0.048494883,0.10615305,-0.02407352,0.1821914,0.05371623,-0.14718921,-0.048373397,-0.116444476,0.010177028,0.25131932,0.10006959,0.08153083,-0.05415997,0.052414116,0.07556459,-0.054106597,0.011240684,-0.17668363,-0.07842995,0.032637376,-0.06385867,0.10278008,0.05281597,-0.05570614,0.058923926,-0.042934738,0.06504014,0.021735473,-0.02388517,0.0201684,0.009374107,-0.076019734,-0.0043290416,0.100066036,0.049551673,-0.0015323544,0.09955511,-0.014996811,-0.034344085,0.077740595,0.0389993,-0.09607807,-0.09089622,-0.05285623,0.047191802,0.05097397,-0.037187807,0.016054453,0.016158625,-0.07239768,-0.13541569,-0.116977975,-0.14305829,-0.06393811,-0.0019494877,-0.01213478,0.0049352446,0.1765989,0.089803115,0.0709279,0.09299762,-0.14376976,-0.049409386,0.031472236,0.09895613,-0.03468905,0.0046755304,-0.002794468,-0.03841957,-0.1010393,-0.11226723,-0.102980085,0.054663807,0.07111007,-0.06175723,-0.05705694,-0.032156866,-0.039685678,0.043328423,0.028081754,-0.08313791,-0.008215019,-0.013276936,0.0062613194,0.104006305,-0.039188933,-0.091705255,-0.016252099,0.106352024,0.081181,-0.11913466,0.056725923,0.094430365,-0.08153922,0.1645445,-0.039722234,0.101161316,-0.07714624,-0.02990268,-0.04921569,-0.18267737,0.050375294,0.0028266879,0.00023497616,0.012114518,0.013082857,-0.032532644,0.101318926,-0.070499405,-0.010627089,0.11050328,0.018742023,-0.003416629,-0.21363722,0.2645675,0.15875249,-0.0708224,-0.055066116,-0.055537988,-0.030339578,0.08485625,-0.071013995,-0.10358347,-0.23461853,0.092241384,0.029441474,0.07878315,-0.045070503,0.122983985,-0.14279044,0.0037942014,-0.03064909,-0.09690734,-0.072591774,-0.08206237,-0.07056281,0.08209669,0.11331177,0.04506655,-0.13698387,0.045488592,-0.04660298,0.06241851,-0.12655102,0.008456155,-0.09248348,0.10070039,0.025248319,0.1231806,0.0299744,0.08848364,-0.083532505,0.069582865,0.04441701,-0.025298908,0.009940188,-0.025639372,-0.124262415,-0.09118485,0.031302508,-0.14690262,0.16001804,0.048568286,0.00075824914,0.02852966,-0.033290118,0.08373418,0.022408182,-0.11508278,0.029618673,-0.007520787,0.08897021,-0.024457823,-0.011881737,0.04437604,0.023823252,0.16508935,0.018562904,-0.012326245,-0.047406625,0.033876028,-0.021313906,-0.09492726,0.15887374,0.07798682,0.10338719,-0.029484574,-0.053092305,-0.087053925,0.05494714,-0.03341935,0.0058772806,0.12321895,0.03939656,0.060572486,0.05554632,-0.09355291,0.055749666,0.01761694,-0.038708754,-0.048412483,-0.113937125,0.048033997,-0.056302562,-0.030859692,0.06348205,0.19844657,-0.07293236,0.08123092,0.11038576,0.012291074,-0.2577537,0.023578847,-0.053272955,0.042138986,-0.06941608,0.022304557,0.004632937,0.07321411,-0.02968384,0.05061538,-0.15352611,-0.08454367,0.16560097,-0.07778108,-0.034788627,-0.029785374,0.0059155626,-0.10695765,-0.030992081,0.051615838,-0.07237275,-0.13499916,0.038046055,0.022019584,-0.021592325,-0.010841146,0.10946177,-0.00027378483,0.028998367,0.11036116,0.07311389,-0.016962979,0.017848006,0.055266857,-0.04684023,-0.20645197,0.2554937,-0.056280028,-0.020234114,0.010217573,-0.12939033,0.032549325,-0.038809128,-0.051544663,-0.17797723,0.02669373,0.017018434,-0.049222086,-0.051389325,-0.120442465,-0.03868115,0.023266375,0.06710642,-0.03718735,-0.055088677,-0.06564836,0.036850214,0.17432603,0.15268385,0.070635095,-0.114921935,0.01767631,0.009578413,0.044630125,0.09684473,0.07138714,0.15920997,0.0018536638,0.091659114,0.1432395,0.13962966,0.119246505,0.040360656,0.13848771,-0.0008174552,0.14599544,0.08065554,0.09871534,-0.09957127,0.005412443,-0.102316596,-0.034449074,0.04945294,0.05042472,-0.04047278,0.026123593,-0.06966663,0.00665862,0.011395804,-0.1017954,-0.06696336,-0.011564361,-0.033588707,-0.0018984195,-0.0008636035,-0.18547845,-0.020428771,-0.039081108,-0.09840553,-0.00089030265,0.037134115,0.055583935,-0.021212813,-0.13551216,0.08845312,0.070471995,-0.15118709,-0.12463396,0.037877694,0.06857165,-0.03199458,0.029233402,-0.0354643,0.027147489,0.055135444,-0.03340978,-0.1363412,-0.026373507,-0.06235661,-0.1590846,-0.043597963,0.17519568,-0.18725786,-0.018763715,-0.015003478,-0.033263247,-0.05481987,0.23013127,0.03379402,-0.09452186,-0.048430085,0.0005553131,0.2239804,-0.07216513,-0.0015787256,0.018151665,-0.0025437588,0.025742438,-0.07778515,-0.05056813,0.065935075,0.05378319,0.08240944,-0.02217697,-0.13661756,-0.06611955,0.011939759,-0.032973208,0.044662554,0.013657581,0.056213565,0.05601621,-0.05566078,0.05547472,0.06504792,0.11318408,0.0019032545,-0.11586369,0.09043724,-0.06885033,-0.03770829,0.01956936,0.040876776,0.041965954,-0.058222245,0.12710626,0.14257003,-0.045197748,-0.12713344,-0.10672733,-0.092601866,0.08437926,0.19776443,-0.11843377,-0.0866146,-0.04321352,0.11695541,-0.04267958,-0.08498863,-0.13436824,-0.06148997,-0.032637425,0.0031511886,-0.061033804,0.066442996,0.06537351,0.024589324,-0.010000158,0.08291259,0.07137306,0.04665631,0.005890208,-0.007480297,-0.06538984,0.08461111,-0.106591925,-0.14130789,-0.03659515,-0.08987173,-0.009077812,0.032483645,0.10449013,-0.044427574,0.05790182,0.052723896,0.0151309725,0.08244285,0.05722207,0.07911583,0.025245208,-0.06862726,0.050149594,0.052925464,0.21803266,0.043342274,-0.0007809258,0.096885525,0.045683485,-0.0481516,-0.03224467,-0.06032121,-0.0060984343,0.09468493,0.09411797,-0.16450879,0.09174193,-0.1388453,-0.026016416,0.0631443,-0.06403971,0.12843277,0.07017553,0.13456197,0.13790184,-0.036748983,-0.09963469,0.12005127,-0.1397013,0.012385279,-0.013670424,0.23979029,-0.022904705,-0.038590048,0.01315761,-0.15623185,-0.13483502,-0.060969755,-0.090054944,0.13518825,0.06310853,-0.108327895,-0.03673288,0.037211955,0.058477428,-0.0024311594,0.11260521,-0.09278703,0.08259862,0.08056708,0.0371836,0.010611105,0.12823756,-0.032080524,0.07961094,0.12828974,0.106699854,-0.0541778,0.13416947,0.050907034,-0.0050077597,0.034562033,0.047587045,-0.011411182,-0.020648947,-0.008209718,0.03151961,-0.103609055,0.08301132,-0.133028,-0.041467294,-0.05113194,0.10883016,-0.08698252,-0.03409093,0.10363472,-0.050906185,0.028339993,-0.055728775,-0.10820564,0.059129354,-0.027446685,0.16479844,-0.13600008,-0.12770657,0.09727885,0.07588486,-0.17541529,-0.071196124,-0.0019479952,-0.026356578,-0.026013693,0.017800571,-0.037439503,-0.027705785,0.025446078,0.040517475,-0.08155116,0.06759065,0.06412367,0.014074863,-0.015648397,-0.08543308,-0.027164077,-0.011506469,0.08884164,0.0064150286,0.073559284,-0.025100715,0.045457423,-0.028959531,0.06795827,0.037884988,0.022373622,-0.11690637,-0.049223702,0.108013965,-0.0010434453,-0.05005934,0.21097015,0.049664415,-0.07759554,0.03454212,-0.023849398,0.11053256,0.0248681,0.11944223,0.019318307,-0.05666147,0.10212437,-0.027664963,-0.031708132,0.14512011,-0.018724674,0.0530253,0.02770897,-0.01796775,-0.0824412,0.20100266,0.073728025,-0.013965435,0.034341704,-0.09080628,0.06997573,0.021874014,0.028442165,-0.019694868,0.07104574,-0.043571014,-0.00864902,0.2188595,-0.13885657,-0.081134036,0.020240307,0.0009188767,0.08167234,-0.023932898,0.05284678,-0.11422173,0.020046256,0.08971579,-0.14860609,-0.18826391,-0.08914716,0.22118615,-0.047233842,0.11907083,-0.10061663,-0.038719386,0.0478417,0.0556937,-0.026423793,0.046863567,-0.09619466,-0.14649995,0.10765716,0.06595306,0.004771496,-0.024210079,-0.07516681,-0.018878456,-0.08184127,-0.025521649,0.14898059,-0.005203082,0.017058901,0.09497776,0.15945669,0.03619051,0.05416266,0.02325684,-0.061250076,-0.011022587,0.06441312,0.020183166,0.099995896,-0.018135095,-0.013243996,-0.1145216,0.013645293,-0.10133399,-0.015703648,0.04899984,-0.031585813,0.042117376,-0.1390067,0.06106903,-0.18132998,0.026673662,0.10112572,-0.059940267,-0.0041263225,-0.021886533,0.04096846,0.13610937,0.10277659,0.09211066,0.101184495,-0.02966348,0.0035725667,0.040441975,0.030649053,-0.008354217,-0.14145772,0.062205873,0.0432555,0.10185061,0.22340243,-0.043874804,-0.057286426,-0.035541598,-0.14823355,0.06597383,0.120713726,-0.072677255,-0.19590451,0.024207283,-0.108993,-0.016800752,0.07930673,-0.0023398306,-0.08774831,-0.10455276,0.008320022,-0.04385568,-0.03909756,-0.15946355,-0.015734382,0.09553654,-0.024667058,-0.009914498,0.08092285,0.08801937,-0.006241112,-0.039341744,0.10974134,0.027654495,-0.06717644,-0.100193754,0.083113864,-0.13796161,-0.082604885,0.075626515,0.03222547,-0.029108962,0.13849324,0.03825809,-0.030629715,0.09366975,-0.04067645,-0.11968935,0.03418816,0.06522927,-0.15971456,0.043901056,0.036682412,0.09215278,0.013658239,0.039463,0.02532189,-0.07902432,-0.09610947,0.002530442,0.24571058,-0.091096036,0.016843654,-0.051016968,0.09809185,0.078049324,-0.09390319,0.14276668,-0.014000468,-0.04091695,-0.12930487,-0.01397633,-0.09242024,-0.029439237,0.012415973,-0.086964734,0.1435568,0.015286966,0.018255372,0.073088124,0.027246844,0.17693469,0.041750953,-0.018992487,0.013512155,0.12871662,0.065517634,-0.029066669,