-0.31723216,-0.23912935,0.27571553,0.32177174,-0.24130757,-0.04978686,-0.33275613,-0.17598471,0.24767996,0.13398278,-0.106811814,0.2358591,-0.38592535,-0.2993954,-0.28836024,0.06274301,-0.034399457,0.13870004,-0.24093498,-0.3317337,-0.21776965,-0.31177944,0.24471675,-0.35495457,0.2979123,-0.34410867,-0.2852596,-0.33257443,-0.35176644,0.30314222,0.06511013,-0.25308084,-0.35016307,-0.17855336,-0.26866472,0.104369365,-0.3638735,-0.37398598,-0.41233543,0.13357845,-0.28680277,-0.30153957,0.28407317,-0.03632184,0.27086768,0.13142578,-0.26937762,-0.1784396,-0.17754209,-0.16159432,-0.030778922,-0.31356794,-0.102612734,0.12153759,-0.11844158,-0.3808243,0.0038161688,-0.38402227,0.24205293,-0.38083002,0.27512485,-0.31884465,0.17744812,-0.08314585,-0.21849212,0.28567615,-0.41661206,0.26277193,-0.34349835,0.18196121,-0.31701753,-0.2598825,-0.05797322,-0.31882823,-0.21062218,-0.29266042,-0.0052782213,-0.11689566,0.27744213,0.21308006,0.012709621,-0.21225917,-0.22046778,0.30146864,-0.07247938,-0.2377673,-0.048076358,-0.074309684,0.08564872,0.24151252,-0.19041729,0.065560035,-0.14362954,0.2479203,-0.12025453,-0.09615904,-0.1544603,-0.18652014,-0.14739037,0.20617512,-0.3320424,-0.23475401,0.12900959,-0.057757948,-0.36478055,-0.17558078,-0.43809727,0.131328,0.19152813,0.2495407,0.24552645,-0.19241413,0.053715102,0.19977525,-0.28157964,-0.18880616,-0.29068184,-0.27238682,-0.31805933,-0.5329951,-0.052715514,-0.03417377,-0.19801931,-0.29946643,0.2435807,0.23488468,-0.047837265,-0.05981924,-0.053016786,-0.4447452,0.20852615,0.27815014,0.033306543,-0.3185387,0.09014871,-0.16324538,-0.4386926,-0.32945848,0.17910482,-0.06526817,-0.073915966,0.2893234,-0.18638094,-0.20202994,-0.18952794,0.23083581,-0.29001015,0.27414864,-0.045102425,-0.21782085,-0.14585337,-0.30355373,-0.28819317,-0.45172572,-0.4022097,0.017965257,-0.061837845,-0.088256404,-0.019995477,0.17701511,-0.06345079,0.265765,-0.3307323,0.23827778,0.2038429,-0.17355002,0.24627055,-0.2898331,-0.23969609,-0.32311147,-0.10908775,0.27666658,-0.50082237,-0.23916455,-0.22224164,0.27472857,-0.27051064,-0.3577641,0.23690344,0.14759474,-0.19315125,-0.1984382,-0.22412017,0.019204114,-0.31748807,-0.17074126,0.19020881,-0.210539,-0.1477956,0.17735355,0.35657072,0.16543597,-0.081688926,0.21880978,-0.2890565,0.21287028,0.11813912,-0.2393778,0.28294173,-0.32484284,0.122059025,-0.14191182,-0.20383705,-0.31880534,-0.18690091,-0.13116954,0.14170218,-0.20622061,-0.3138558,0.25235462,-0.07394436,0.1520132,-0.3967596,0.2650561,0.2293457,-0.3656138,-0.19720319,-0.15490152,0.020772005,-0.39700773,-0.16624044,0.18877135,0.1525393,-0.055715784,-0.0756604,-0.26095486,-0.21404812,-0.39543325,0.288571,-0.49940974,0.072047606,-0.20299268,0.19247763,-0.28008348,0.22572212,0.03353891,-0.27331266,-0.20827526,0.32228446,0.08235418,-0.27812234,0.30346614,-0.2918665,0.27712476,-0.43810722,-0.14097738,0.230304,-0.3897352,-0.08956351,-0.31970504,-0.19403987,-0.32487336,0.037128136,-0.19848214,-0.2743892,0.20820294,-0.3011061,-0.4586119,-0.1898398,-0.22148791,0.22282952,-0.18858461,-0.3985406,0.050075132,0.17097269,-0.08360493,-0.07359214,-0.3631225,-0.3688277,-0.005046189,-0.10641259,0.2136664,-0.27353695,0.29039052,-0.3074594,-0.15285704,-0.35328516,-0.111964144,0.13133977,-0.122360446,0.28278244,-0.11043754,-0.003944392,-0.35460714,0.27688634,-0.22851434,-0.38697517,0.13944523,0.17156926,-0.047444455,0.25493658,-0.41434765,0.2666208,-0.2804193,-0.11956648,0.21101606,-0.12083682,-0.29613328,0.27910337,-0.37053704,0.19368356,0.33861226,-0.28287515,0.26513228,-0.15679851,-0.1888394,-0.34010983,-0.32675326,-0.28084967,-0.12849158,-0.29944587,-0.22214313,-0.10240311,-0.31218266,-0.40243918,-0.21785022,0.03506809,-0.22307964,0.21022618,0.021921642,0.06519772,-0.34248385,-0.19341016,-0.17400517,-0.18374877,-0.025176637,0.20920968,-0.28157127,0.34767786,-0.21850677,-0.19299021,0.18871203,-0.17521663,-0.35422596,-0.2844783,0.26233882,-0.14796256,-0.0906261,-0.2502682,-0.24951836,-0.29991314,0.24144626,0.17417994,0.16873465,0.14490283,-0.2632494,0.2393029,-0.32717076,0.23079102,-0.029713677,-0.39776117,0.29272473,-0.15545106,-0.19967464,-0.34299892,-0.12053611,-0.24762811,-0.12248391,-0.1554018,-0.011364908,-0.28636113,-0.31847546,0.24027035,0.06871748,-0.2974873,-0.21977374,-0.2528942,0.23061632,-0.09317824,0.21891381,0.19705752,-0.45232752,0.016305545,0.1931047,-0.093006186,0.21660025,-0.03127577,0.06443788,-0.039320163,-0.19727689,-0.26836878,-0.034165327,0.08939835,-0.088749535,0.06271812,0.14162141,0.21053639,-0.07854102,0.15416871,-0.39071035,-0.13081963,0.123147994,0.26693496,-0.31091163,0.16114146,0.16705082,-0.10043761,0.0100703705,0.18151239,-0.057406973,0.15115903,0.041347593,-0.36019817,-0.4116691,-0.022034485,0.11312783,-0.04975756,0.11079056,-0.291527,-0.24940254,-0.3060323,-0.31024635,-0.2502231,-0.11942754,-0.3536405,-0.2502714,-0.051114205,0.14503925,-0.1928536,-0.37166414,-0.3229334,-0.06008027,-0.32573393,-0.39888495,0.2793498,-0.21016262,0.24065663,-0.24437225,0.13196197,-0.102941364,-0.35724258,0.25371945,-0.18806665,-0.2212815,0.23195034,-0.3333106,0.25969613,-0.12479374,-0.17780888,0.043308172,0.23586886,-0.40245405,-0.09619033,-0.040147897,-0.29685113,-0.23069295,0.2947699,0.2653274,-0.11765894,-0.2818148,-0.30925006,-0.22882815,0.046116494,-0.3746994,-0.32479692,0.15097679,-0.31297958,0.23229936,0.09637692,-0.28669855,-0.019308329,-0.5818343,-0.1199261,-0.47453365,0.24984466,-0.3355314,-0.13254897,0.051881313,-0.3601544,-0.11090345,0.22586927,0.09908616,0.26611,0.15665478,-0.4906114,-0.08275733,0.07533106,-0.041417133,-0.1845873,-0.07180808,-0.26896536,-0.26587173,-0.36357215,-0.20260803,0.058376025,-0.3255933,-0.061059725,0.20516409,0.24610507,0.060402025,-0.16210562,-0.31368992,0.200044,0.18497902,0.18215293,-0.12436703,-0.13070445,0.24091686,-0.29001072,0.23769459,-0.4400095,-0.12489802,-0.1945415,-0.047580935,-0.26925114,0.24955353,-0.34584877,-0.35032102,0.12370409,0.06021881,-0.21090269,0.17099176,-0.14790796,0.043800194,-0.14220974,-0.2099865,-0.31046334,0.2545141,0.2848873,-0.284018,0.19912755,-0.28182012,0.23885316,-0.38548934,0.26519385,-0.009610513,-0.18778451,-0.3356269,-0.16218214,0.089804456,-0.30006036,-0.34863797,-0.11109139,0.27038193,0.2983983,-0.30267826,-0.033790983,-0.020305427,0.17343552,-0.059001397,-0.34560645,-0.22347182,-0.25533122,0.17242418,-0.22818373,-0.23174551,0.28084674,-0.16445105,0.027514063,-0.25195354,0.016554873,0.2755117,-0.31779623,-0.10794924,-0.21854085,-0.41737616,-0.23711957,0.1297555,-0.22923642,-0.4113714,-0.13966642,-0.16077007,0.1737592,0.22018252,-0.39233753,-0.38417146,0.14688224,-0.2404037,0.25931674,-0.041740462,-0.3014238,0.24094525,-0.25697908,0.053735457,-0.19579624,-0.25681096,-0.2226502,0.22910741,-0.2028328,-0.26409945,0.30644894,-0.20722367,0.059981335,-0.15581751,-0.04073179,0.13343681,-0.39092287,-0.25110728,0.19540617,-0.15299173,0.039506454,-0.33231264,-0.20062876,-0.3205117,-0.047534626,-0.2522513,-0.3824624,0.10691793,-0.16272783,-0.24571802,-0.11546943,-0.038761225,-0.28081924,-0.2618554,0.1080921,0.2045932,-0.35949546,0.2072676,0.29776362,0.22097184,-0.20019753,-0.03184383,0.25073302,0.054743394,-0.18504538,0.28443325,0.24099903,-0.4353527,-0.33526903,0.17573932,-0.18455987,-0.2874847,0.26975787,-0.38400966,0.14960949,-0.25560272,-0.33688807,-0.3911482,-0.26969662,0.043619074,-0.21081214,-0.31992498,0.10564198,0.14030224,-0.20705384,-0.048187338,-0.1739802,0.0288885,-0.37669766,0.216699,-0.36242977,-0.25962594,0.24610794,0.28007933,-0.35487342,-0.18897411,-0.2699323,-0.13971518,0.18699986,-0.09974533,-0.07217731,0.2917971,0.10481523,0.078522034,0.11943834,-0.34114915,-0.41794476,0.047410697,-0.1656531,0.2816725,-0.052968755,-0.36764938,0.11716157,0.124292396,-0.3307578,0.1569343,-0.16786867,-0.3812689,0.2640286,-0.20879667,0.20524025,-0.15713869,0.26098362,0.2704122,0.19076434,-0.27063802,0.25162682,-0.2535405,-0.20038596,-0.14174853,-0.45758095,0.18118382,-0.057166077,-0.11404969,-0.37588632,-0.34240782,-0.14911759,-0.091791146,-0.20795009,-0.3543952,0.25152498,-0.3863126,-0.1264156,0.020338489,-0.1050689,0.31596,-0.35415202,-0.09440387,-0.23574765,-0.2773923,-0.2787523,-0.11204678,0.07724288,-0.23850247,-0.13970366,0.13211203,-0.1987366,0.19041854,0.33719006,-0.24109083,0.068428375,0.0834802,0.24339645,-0.17689301,-0.22091143,0.22944649,-0.18123801,-0.2792719,-0.2835239,-0.25331467,-0.24559565,-0.22500843,-0.24189463,-0.25988746,0.25303915,0.24852143,-0.3520288,0.17518151,0.34170005,0.2067914,-0.24792652,-0.2745852,0.1789643,-0.08615005,-0.23022468,-0.09785842,-0.49943602,0.3151559,0.095744625,-0.17458966,0.06065249,-0.19670665,0.24408796,-0.38525277,0.2607872,-0.11854219,-0.48211333,-0.044280186,0.0007661928,-0.20942289,0.045645032,-0.06696516,-0.21830364,0.31518438,-0.3363854,-0.09275125,0.17453052,-0.4388934,0.25703833,-0.101543635,-0.2232455,-0.03675453,-0.13366388,-0.2813971,-0.05855343,-0.32638502,0.21342634,-0.27841994,0.08610112,0.1910915,0.2207749,-0.07821095,0.0063249823,0.2471741,-0.40925145,0.1648753,-0.11950235,-0.4512507,0.1826012,-0.094891295,-0.2440008,-0.22417523,-0.24806826,-0.26456434,-0.38004443,-0.15890568,0.21161386,0.2368007,-0.10629062,0.11055958,-0.18907553,0.1997301,-0.004824548,-0.020778807,-0.30318978,0.12567776,-0.30520955,-0.09508016,-0.020904584,-0.44049326,-0.32937774,0.19359769,-0.26782867,-0.23424923,0.24986859,-0.06978917,0.15745494,0.090760395,0.10531994,-0.24337779,-0.28465772,0.048535857,-0.3734671,0.2178416,-0.098817684,0.24014391,-0.42417586,0.28505063,-0.15095714,-0.12515867,-0.35487804,-0.011257934,-0.37932923,-0.06517608,0.16895562,-0.20381284,0.23943841,0.1807792,0.115015745,-0.28062898,0.06546585,-0.11370581,-0.36986235,-0.06813842,-0.20988692,-0.3246687,-0.039020088,-0.12966593,0.17439535,0.08338231