-0.009516192,0.25249314,-0.06139564,0.22307806,0.06772925,-0.23364922,-0.19262567,-0.063564874,-0.20903125,-0.018126082,-0.07169882,-0.174866,-0.13599353,-0.17848484,-0.24142353,0.054922488,0.114504114,0.056160137,0.13598931,-0.04804592,0.06580605,0.040741786,0.0123396,0.029811855,0.087347165,-0.004814926,0.16432348,-0.1237795,0.044959072,-0.047957506,0.13313058,-0.10621313,-0.07307302,-0.20226574,-0.122736014,-0.13401157,-0.09556597,0.108668745,0.20197703,-0.021260688,-0.1718719,0.10664189,0.11142625,0.07581475,0.18196091,0.11717437,0.116739236,0.11837155,0.15550354,0.047616098,-0.046809204,0.095954016,-0.118685156,0.080996394,-0.019294586,0.19236872,-0.15585795,-0.20262134,-0.0031293815,0.16373858,0.13105138,-0.14262319,-0.13586241,0.0802662,-0.1334208,0.071417585,-0.26902783,0.059284225,-0.027437275,0.18916127,-0.15824863,-0.20910741,-0.07338123,0.12892681,-0.00693204,-0.15650523,-0.11445604,-0.12393574,-0.047594488,0.048330624,-0.1298186,0.103527166,0.017727325,0.08441673,0.017701183,-0.016935265,-0.14740005,-0.23772238,-0.14162199,0.099683225,0.23163952,0.19115761,-0.19130152,-0.23308532,-0.08580973,0.016074326,0.2573596,-0.08642671,-0.17372212,-0.023056304,0.17175156,0.08833723,0.09461381,0.06870501,-0.20132786,-0.12251521,0.04610862,0.20308635,-0.0040516965,0.08055082,-0.2915512,-0.041908238,0.18580703,-0.0019665346,0.0016126179,-0.22696285,-0.15504552,-0.0098149115,-0.020743566,0.016497081,0.24504505,-0.058545727,-0.11884601,0.1596115,-0.08035228,-0.074049294,0.14371134,0.03683072,0.21517482,0.01046406,-0.0671622,-0.102616556,0.11723967,-0.05662637,-0.1297156,0.15381305,0.110134915,-0.17886905,-0.20361573,-0.21698959,-0.08735883,-0.11182969,-0.16742086,-0.08979951,0.10250315,0.008620538,-0.1509331,-0.0139704365,0.19883116,0.16552034