-0.060334552,0.026451884,-0.0912457,-0.046585586,0.07505174,-0.025285378,-0.02164282,0.04529105,-0.02401637,-0.050403465,-0.063414216,-0.039391853,0.08091973,0.045659862,0.04222917,0.04500056,-0.079423405,-0.067384556,-0.027898114,-0.06296947,-0.02058507,-0.033633452,0.07484274,-0.040410705,-0.07631325,0.040549573,0.032077193,-0.06617046,0.031258985,0.032820966,0.05943934,0.033550333,-0.030847676,0.07640678,-0.058959104,0.00017700557,0.00026005972,0.03218711,0.041012704,0.057355087,0.032983143,-0.06305285,-0.04167901,0.034716427,0.042643394,0.02325589,0.022319265,-0.03780416,0.07580812,0.064214304,-0.027797736,-0.038974717,0.060228452,-0.067147,0.020411717,-0.082614325,0.07495731,0.04977101,-0.02891947,-0.08399344,-0.0826588,-0.07947502,0.013542125,0.056405324,-0.06918219,-0.06891887,-0.041899245,-0.08297543,0.008246886,0.02633796,-0.043350674,-0.023368722,-0.033311997,0.050954573,-0.019407593,0.08506693,0.07985731,-0.015174439,0.08661249,0.09153681,-0.0354324,-0.009735333,0.019220691,-0.045887984