-0.120401524,-0.3192582,-0.1842826,-0.1620387,-0.074221924,-0.38710237,-0.23636673,0.21473683,-0.22117043,-0.24870832,0.23372589,-0.04830449,0.23932122,0.2870585,0.15522894,0.32787314,-0.22505362,-0.3562604,-0.3307955,-0.29163018,-0.19112135,-0.29441375,-0.3092539,-0.100597285,-0.19557543,-0.113549076,0.23936014,0.22841941,-0.31697378,-0.21994191,-0.033388887,0.2913872,0.1349807,-0.15058738,0.2220506,-0.27355596,-0.060900144,0.28233078,-0.35641694,-0.33526054,-0.4038798,0.26429996,0.0027554287,-0.27671528,-0.2534797,-0.287817,0.26704666,0.1702625,-0.14709242,-0.23270984,0.2242287,0.1611913,-0.34109044,-0.3670759,0.26971653,-0.01374809,-0.36290172,-0.21235664,-0.32370242,0.35612547,0.29939538,-0.30145872,-0.15053836,-0.16203739,-0.44299868,-0.12602307,-0.21046239,-0.24028468,-0.27198127,-0.34117922,-0.28399953,-0.19183575,0.20460361,-0.40059537,-0.24382356,0.29730058,0.1604879,0.22531158,0.26093307,-0.24357888,-0.21875508,-0.3998122,-0.32393694,-0.18743204,0.23896988,0.21356215,-0.36095995,0.20301169,0.10000875,-0.15279126,-0.24591936,-0.08009488,0.264931,-0.2959529,-0.19125861,0.051360607,-0.21377365,-0.25571868,-0.3319599,-0.20406546,0.21092018,-0.24215202,-0.054607414,-0.13230623,0.16177548,0.22175454,0.122444585,-0.15249528,-0.15873697,0.15353426,0.20756318,-0.21849754,0.23828101,-0.355923,-0.17803055,0.28003156,-0.2316383,-0.32190248,-0.11585461,-0.22208586,-0.258564,-0.13349093,0.015079939,-0.0015324673,0.003917685,-0.21799584,-0.25649488,0.2947201,0.10242093,-0.12211047,0.32566643,-0.26810336,-0.111438245,-0.1654718,-0.309978,-0.14738233,-0.37635982,-0.11723346,-0.31798998,-0.3580432,-0.28232786,-0.15669593,-0.27298653,0.26186192,0.16652814,-0.29706854,0.07478426,-0.33377218,0.062623285,-0.320061,-0.18999127,0.21529593,0.2798162,-0.0395402,0.036289006,-0.18897434,-0.15827389,-0.32492083,0.19236843,0.23847316,-0.20467521,-0.29363114,-0.19835234,0.22295871,0.14176911,-0.2756966,0.24606532,0.12784094,-0.14679421,0.1570624,-0.3066068,0.2699918,-0.2595869,-0.03898634,0.20757446,-0.23809507,-0.26462582,0.31930548,-0.14949791,-0.25513113,0.30788645,0.21782851,0.22979355,0.1714454,-0.088851176,-0.18098094,-0.26123056,-0.31575894,0.25835904,0.19206238,-0.24404438,-0.22492175,-0.2727553,-0.31314364,-0.27795368,-0.09934066,0.24050671,-0.16905734,-0.32567045,-0.12332361,-0.36017984,-0.08970107,-0.21441777,0.2120927,0.30424225,-0.36853993,0.2796404,-0.194648,-0.15417112,-0.3641126,0.3202782,-0.04841441,-0.33179945,-0.13652332,-0.28260803,0.021263512,-0.10765928,0.12528308,-0.28846335,-0.31886637,-0.25214323,0.20506184,-0.24713026,0.27884698,0.30112898,-0.067986466,-0.5025738,-0.08514344,-0.15288031,-0.17673616,-0.38520315,-0.26525456,0.23252544,-0.41037032,-0.22601674,-0.18127777,-0.22550565,-0.31068814,-0.048434556,-0.059421983,-0.17723793,-0.0055436455,0.1267647,-0.23844792,0.3308316,-0.033990506,0.28117028,-0.34103468,0.07045402,0.010806417,-0.34215108,-0.047487877,0.26220706,0.118372604,0.22369663,-0.35906726,-0.28548595,-0.23200148,-0.1784105,-0.031995036,-0.47358763,0.17944454,-0.07126889,-0.23322588,-0.28633684,-0.25940496,-0.27822298,0.21343416,0.21950537,-0.13834251,-0.32943034,-0.040560722,-0.050662026,-0.28918377,-0.23087126,-0.26210666,0.20614569,0.15872008,-0.3817554,-0.33515167,-0.411258,-0.14933111,0.23421487,0.040786143,0.2219143,0.12406512,0.24131247,0.19419903,-0.059009146,0.19517104,0.22939232,0.258323,0.19005835,-0.18682924,-0.33970404,-0.28492233,0.20855895,0.0014442122,-0.20342703,-0.19963202,-0.07832686,0.2538893,-0.24050745,-0.2295729,-0.27303314,-0.20805673,-0.31352213,0.28494063,-0.20054708,0.24027692,-0.34570703,-0.18732375,-0.31297708,-0.22277227,0.17282021,-0.29270968,0.1725504,0.18593152,0.08566253,-0.36923897,-0.40587574,0.14956354,-0.24750648,0.29328504,-0.29936856,-0.21338034,-0.32401615,-0.38803366,-0.27165008,-0.28598577,-0.0852197,-0.27482674,0.23943058,0.13698924,-0.4025589,-0.2933745,-0.103411295,-0.27931693,0.25317344,-0.11910212,-0.3494997,0.0011817412,0.1824544,0.10110379,0.25859332,-0.13864288,-0.28568852,0.25386342,0.04603747,-0.25971308,-0.1535485,-0.14745094,-0.124769814,0.14195167,0.24082585,-0.15065691,-0.21643628,-0.28274667,-0.2924534,0.27515045,-0.21769664,-0.049044758,-0.41273972,-0.28725606,-0.26405177,0.2462014,-0.3090519,-0.38228902,-0.39163232,0.14027523,-0.25968465,-0.2611517,0.16915514,-0.09058501,-0.34845853,-0.071174234,-0.27614298,-0.4004376,-0.211881,0.18812533,-0.17373917,0.016012056,-0.07368214,0.23459603,-0.118384436,-0.4055269,-0.36652783,-0.38309485,0.21758819,0.0050778375,-0.018476013,-0.3163017,-0.13916014,0.26730523,0.026915897,-0.32052505,-0.044599265,-0.18779494,0.20288442,0.19743657,-0.30098185,-0.28665772,-0.38621822,0.15175828,0.20837562,-0.14312677,0.18669416,-0.26178318,-0.13988379,0.25928554,0.1855534,0.23800156,0.043670718,0.17494811,-0.30356687,0.23085795,-0.39389655,0.11202631,0.022026788,-0.1883079,-0.11277924,-0.35921738,-0.30525836,-0.43153372,0.25070995,0.029959615,-0.44166073,0.24085107,-0.3177087,0.1551684,-0.43022186,-0.24951622,-0.26215345,-0.35706952,-0.28916755,-0.29216042,-0.16633952,-0.07313887,-0.1551198,0.26589692,-0.38115487,-0.016740533,-0.009656394,0.20404969,0.26998833,-0.30418116,0.21973994,0.27987108,0.03229751,-0.37936932,0.02095543,0.06624764,0.21085884,0.17829274,-0.049518924,0.147763,-0.00086282555,-0.19950357,0.12848918,-0.14959206,0.22335005,0.20614092,-0.29184902,-0.02857914,0.2650537,-0.17274448,-0.30694914,-0.32770288,-0.31346712,0.16917968,-0.082992256,0.22280915,0.09514976,0.23340528,-0.16351652,-0.07815042,-0.23245595,-0.15018599,0.25002465,-0.12987116,-0.25177157,0.12482604,0.051650804,-0.12601411,-0.30116835,0.1964169,-0.17374094,-0.29107574,0.09949829,-0.22908023,-0.27028614,-0.18911587,-0.14089748,0.14375038,-0.4273773,-0.33108592,-0.12792993,-0.20404665,-0.01620828,-0.09423889,-0.353772,0.08883106,-0.0076850033,-0.24316826,-0.066250145,0.2400179,0.10823022,-0.32971454,0.17639469,-0.27731124,-0.3075297,-0.15633745,-0.022298709,-0.24286386,-0.011508725,0.25906974,0.03353284,-0.29899603,-0.49113902,-0.22551408,-0.37393472,-0.1020545,-0.25080293,-0.22719027,-0.17139001,-0.29720506,0.17229529,-0.028639734,0.1630248,-0.31983465,-0.08431228,-0.26907215,-0.16202423,-0.15914604,-0.16175885,-0.23921102,0.08688258,-0.34368214,-0.18170483,0.2833874,-0.11921171,-0.2657562,-0.18804212,-0.14951235,-0.28110954,0.009000786,-0.26228145,-0.116908975,-0.33545604,-0.1834282,0.26486492,0.25767592,-0.2545272,-0.2417139,0.25719714,-0.13260452,-0.24612975,-0.21568225,0.29496336,0.28842098,0.29696706,-0.2869504,0.1693871,-0.2675572,0.23591663,0.2282976,-0.23877536,0.29776675,-0.049486976,0.28349108,-0.15417236,-0.23056494,0.19604352,-0.3491044,0.19954996,-0.33061823,-0.23068033,-0.09437548,-0.27031466,-0.25844592,0.015475999,-0.04592541,-0.071765676,-0.09872713,-0.14140147,-0.43280566,0.098236956,0.21059485,0.27560025,-0.10870658,-0.36218777,-0.2014847,-0.41604334,0.22263534,-0.21533978,0.089789316,0.15842012,-0.018833326,-0.19470133,-0.32954207,-0.13911897,0.24757189,0.19502063,-0.057422042,-0.1135481,-0.31031987,0.100160114,0.20000216,0.26858297,-0.09231058,-0.08968177,-0.055559773,-0.28933343,-0.1261951,-0.15092699,0.15444534,0.107289135,0.11989772,-0.37112108,-0.04777961,-0.24360682,-0.443301,-0.20866773,-0.36828953,-0.24462588,-0.15688969,-0.09240015,0.2320738,-0.2732153,-0.19403163,0.05832255,0.12802666,0.16473232,-0.0101817185,-0.31191364,0.25170007,0.1025939,-0.30657813,-0.30789578,0.11266713,-0.16580601,-0.43146002,0.2299391,-0.07678773,-0.15034471,-0.053098354,-0.5684814,-0.12658998,-0.29244718,0.28905132,-0.2666681,-0.20653436,0.27988213,-0.3676668,0.16585252,0.27537987,-0.4517974,0.24588455,-0.15849783,0.23802607,0.23343404,0.30883348,0.022037681,-0.20156275,-0.15450709,-0.36103225,-0.36148268,-0.2618096,-0.026137635,-0.2672701,0.1391395,0.28398678,-0.25709823,-0.3287461,0.08792803,-0.085573174,-0.03842734,-0.132048,0.27476627,-0.45705238,-0.046235625,-0.29699725,0.26713684,0.007874465,0.0890062,-0.06450282,0.25861955,-0.26655665,-0.17466499,0.26893646,-0.4737422,0.13050775,-0.4487825,0.19009468,0.2338728,-0.32842764,-0.36915076,0.22587444,-0.180231,-0.07034527,0.05076615,0.023317888,0.2763376,-0.20898733,-0.12222392,-0.26835895,0.05609647,-0.23457922,-0.27367455,0.07704902,-0.073885836,0.081720605,0.3009045,0.264664,-0.01740029,-0.1916499,-0.24300568,0.2780603,-0.26556998,-0.2908142,0.26648366,-0.11620964,0.107588746,0.089084156,0.12967074,0.2689923,-0.42788693,-0.37786388,0.20395058,0.0024316055,0.16503839,-0.16014127,-0.2694151,-0.14582382,0.19455574,-0.015711015,-0.2176736,-0.060347293,0.057171293,-0.20607641,0.16668475,-0.39967364,0.27444917,-0.22737123,0.09213221,-0.37945879,-0.2403012,-0.2507292,-0.33406156,-0.2709671,0.17263916,-0.37135282,0.16991545,-0.36995736,-0.3990944,0.09707327,-0.33626562,-0.35801077,0.1705185,0.18479033,-0.22020231,0.22912969,-0.1308243,0.019935336,-0.0418597,-0.20755246,0.30654094,-0.05836638,-0.33462223,0.060888223,-0.12293327,-0.23114216,0.20886813,0.25106478,0.18424222,0.039764367,-0.2956614,-0.28928244,-0.32701737,-0.1995503,0.09097861,-0.14843635,-0.22562435,0.23373997,-0.025307916,0.21461974,-0.23065624,-0.22234026,-0.36256674,-0.044603642,0.19150063,-0.31144938,-0.26247653,0.083221465,-0.42287531,-0.14701091,-0.06400628,-0.23177624,0.26984316,-0.35816947,0.04392801,-0.10031996,-0.22167379,-0.2788727,0.14945139,0.22257681,-0.38943952,0.10564256,0.20951451,-0.048387915,0.08448112,-0.36457545,-0.18020214,-0.11178884,0.2314554,-0.13397878,-0.014854413,-0.22895788,-0.36066285,0.25822845,-0.31402987,-0.29252547,0.141321,-0.21287253,-0.29026106,0.22017144,-0.27806908,0.05806879,-0.38744402,-0.17607585,0.22410291,-0.0022137964,-0.17252192,0.20149882,-0.35482955,0.14940464,-0.3816965,0.21820627,0.16752432,0.05996178