0.055539705,0.0024331054,0.014718404,-0.014484607,0.030776571,-0.035883337,-0.03390296,-0.041704755,-0.026274743,-0.04954865,0.006703574,-0.014597176,-0.014141432,0.051847056,-0.041383855,-0.050140906,-0.010746127,0.046043772,0.00040650708,-0.021026354,-0.010295792,-0.0004537333,0.023575142,0.0056918915,-0.021958997,-0.040575318,0.042394754,0.042889472,-0.032835662,0.0050105685,0.02058339,-0.011593488,0.016325878,-0.01568307,0.0361182,0.005638596,-0.024067998,-0.025731301,-0.0014549269,-0.026280861,0.030232958,-0.02534061,-0.012380186,-0.0067682737,-0.026929388,0.058510046,0.03291734,0.02285694,0.021686014,-0.04832152,0.04518072,0.032281876,0.016854249,0.045733936,-0.040831264,-0.024493298,-0.014910708,-0.039920494,0.0031319524,0.03627742,-0.041846175,-0.034075014,-0.04536477,0.03761756,0.027427275,0.02385784,-0.011208466,0.04205906,-0.028320927,0.041608285,-0.05087607,0.0032955175,-0.009056234,-0.05048635,-0.04075617,0.050857246,-0.027065402,0.0019032335,-0.016320525,-0.007920583,0.008624573,-0.015014551,-0.041974254,-0.03589693,-0.03289107,-0.01576342,0.045571946,0.029377716,0.017736359,-0.007118257,0.011433934,-0.04236369,-0.032291394,-0.033403967,0.017422471,0.011812079,-0.0037860838,-0.0038492111,-0.019447546,-0.015796559,0.027760165,-0.0052822866,-0.0002519502,0.008848013,0.012977575,0.043488022,-0.0028505917,-0.03130389,0.013062949,0.024385266,0.008272908,-0.007918476,0.034675293,-0.020941617,-0.01487657,0.005135164,-0.028135687,-0.015628997,0.015651053,0.011177636