-0.007021079,-0.012477378,0.036165446,0.014182871,-0.024973642,0.027430559,-0.001258272,0.051496357,0.0018687976,-0.010152752,-0.021246003,0.036388647,0.009282076,-0.01907269,-0.032060105,-0.043498885,-0.010587881,-0.04298238,-0.016576618,-0.02841307,0.029015345,-0.008411935,-0.048965715,0.031156544,-0.032115985,0.041977677,-0.03536631,-0.025627404,-0.017324466,0.045770217,0.017198207,0.007213354,-0.023029279,0.0027218598,0.026891079,0.03290848,-0.013589736,0.0087036975,0.020925215,-0.039090022,-0.0047822697,-0.030608878,0.050644547,0.017393865,-0.012985951,-0.04106359,-0.03896013,0.0329735,-0.012170415,-0.014788483,-0.026178408,-0.040710155,0.02817266,0.0034264487,-0.005069674,0.042758547,0.038884096,0.039002698,-0.022627972,0.014394845,0.0153223835,-0.03936488,-0.023974154,-0.041439828,0.04164024,-0.03309206,-0.025526324,-0.0232762,0.026947211,-0.032945048,-0.034611672,0.02634662,-0.012826951,-0.03238473,0.0062171263,0.034835424,0.051925838,0.041746724,-0.01140186,-0.013265431,0.023555305,0.013586599,0.016039329,0.031336434,0.034645032,-0.00751434,0.042403754,0.028318232,-0.0040097996,0.03829943,0.009868467,-0.0020668807,-0.002475905,0.044465896,0.024889719,0.0214729,-0.017522575,0.0048057805,-0.022503894,0.018216861,0.014297513,0.0439364,-0.031015899,0.04808487,0.0015524986,-0.039680775,0.044077426,-0.017291803,0.011491326,-0.048281293,-0.028791886,-0.047350395,-0.00041557773,0.018641092,-0.03236546,0.04412544,-0.003886303,-0.0041607553,0.027485222,0.015874619