0.095974736,-0.13038264,0.055516757,0.1676294,-0.017623117,-0.14600283,0.057779454,-0.032421954,0.11638495,-0.15777723,0.02936436,-0.08571221,0.00884571,0.20787156,-0.12401883,-0.14723715,-0.13754162,0.11339008,0.18766923,0.06152434,-0.087854125,0.14761367,0.15720516,-0.100889064,-0.099164076,0.24460475,0.012048884,0.014721987,-0.06443784,-0.15936257,-0.100784495,-0.1423437,-0.13374898,-0.16398673,-0.0208855,-0.14004807,-0.0622053,-0.06867796,0.020137856,0.026325218,-0.23145682,-0.08314465,-0.14839752,-0.025515052,-0.003581857,-0.14280082,0.20574309,0.04846737,0.06020832,0.10041311,0.0139153795,0.14232482,0.0514163,-0.10483882,0.13194278,0.054365065,-0.06744737,0.21895929,0.15812649,0.10186118,-0.09631836,0.0048996108,0.02992017,-0.07309956,0.10286842,-0.24022372,0.031423554,-0.18321806,0.10919927,0.15187413,-0.09220992,-0.16782735,-0.16180143,-0.20213595,0.023260599,-0.19280154,-0.13547309,-0.10872516,-0.06276598,0.1582707,0.16755888,0.20901321,0.06938209,0.13004531,-0.074059874,0.08628885,0.16994005,0.049808055,-0.04053369,-0.08627863,-0.15193446,-0.16369711,-0.12187558,-0.104240365,-0.029456954,0.07594842,-0.105118655,0.048581835,0.10177706,0.06980474,-0.15994278,0.12949026,-0.13584438,-0.10731198,0.13445763,-0.16451629,-0.0660886,0.06306526,0.20894682,0.0027479928,-0.074618176,0.14624958,0.16075344,-0.08177243,-0.033829443,-0.034608383,0.14096573,-0.11246377,0.06608159,-0.047170006,0.015276741,0.0012657566,0.060768154,-0.062273975,-0.08994794,0.0014451633,-0.1391863,0.048926882,-0.08358671,0.080187626,-0.09036022,0.110270776,-5.6039236e-05,-0.017874403,-0.17212565,-0.061980393,-0.009263054,0.10251007,-0.117907174,-0.14817454,0.056763988,0.19800872,0.16924362,-0.04359412,-0.24761826,0.018629443,0.03666207,-0.07682315,0.16188686,0.17467082