-0.24469969,0.055939175,0.05892718,0.17397706,0.12054534,-0.20867811,-0.09738509,0.08883093,0.07420169,0.14818215,0.029987,-0.1840799,0.11184319,-0.03373794,-0.023121815,0.052309576,-0.24132556,0.16278756,0.15352982,-0.05186765,-0.087450504,-0.040423013,-0.032871682,0.08088476,-0.05079037,0.08254183,-0.10333063,0.059808467,-0.03034443,-0.17886889,0.055444445,-0.0021606497,0.06644767,-0.13298088,0.03367879,-0.21911176,0.022359665,-0.01613077,0.2344957,0.13996945,0.108155414,-0.18012774,0.16062145,0.043439537,0.12120651,0.13713388,0.06671767,-0.22013102,0.15656815,-0.006172701,-0.0561774,0.03019005,0.19875169,0.15240863,-0.08376303,0.04220618,0.11375321,-0.057110026,0.029000718,0.043446857,-0.22349936,-0.24743599,-0.14121449,0.2006824,0.030435149,-0.053687517,0.0044515864,0.035642542,-0.02216362,0.11429615,0.25569358,-0.19035245,-0.12755919,-0.08797891,-0.031690292,0.17427213,0.05308201,0.11879689,0.09720657,-0.06674899,-0.20045091,-0.03362515,-0.13527633,-0.03484687,0.10562458,-0.22377169,0.06504018,-0.17565118,-0.109975055,0.16691487,0.008515932,0.07013148,0.11771174,-0.05539889,-0.060738973,0.15473598,0.025581589,-0.051317006,0.05377302,-0.09421089,0.020602128,0.099354796,-0.0073312107,-0.022844074,0.07201346,0.052157253,-0.053338353,0.11312561,0.09365954,0.11126487,0.182765,-0.016804561,0.15391292,0.036162,-0.18288834,0.023801897,0.10742867,-0.20133196,-0.05493036,-0.14637661,-0.16823433,0.0333567,-0.22191332,-0.17109737,0.18767406,-0.17414705,-0.15039267,0.020476393,0.12021873,0.004078085,-0.23377015,0.001061109,-0.024471067,0.007092712,0.052018415,-0.04409324,0.05257993,0.15534474,0.22428237,0.040686205,0.025437614,-0.024959838,0.14589797,0.098671295,-0.08810577,0.11940114,-0.030589057,-0.07991737,-0.026548905,-0.06165886