-0.017001165,-0.05993977,-0.026847735,0.0052542887,0.03500648,-0.025663992,0.0372669,-0.0544897,0.011533475,0.020684922,-0.044401042,-0.03661202,0.03236561,0.05204898,0.0011857682,0.021055963,-0.02064097,0.054736488,0.02566426,-0.016931023,0.06304514,-0.1083709,-0.04226158,-0.08603869,-0.13212003,0.024314053,0.020185806,0.116149515,0.058877233,-0.07213969,0.02475027,0.061422445,-0.05870625,0.069961384,0.07715451,0.0068503367,0.024925603,0.016507413,-0.0149599,0.058287892,-0.07489503,-0.098332904,-0.0965865,-0.110116996,-0.071133874,0.00468613,-0.121258885,-0.062259097,-0.042433944,0.0030017314,0.042585164,-0.031083075,0.03971554,0.02274838,-0.015077747,-0.024567634,-0.0010859785,0.041350607,-0.11462819,-0.073409006,0.03452239,0.037068494,0.07104332,-0.049012434,-0.020706022,0.120185114,0.15243827,0.09651282,0.058903143,-0.07128488,0.016733104,-0.016755177,-0.08282511,-0.07761499,-0.002105387,0.11548865,0.022450402,0.07810457,-0.04182421,-0.053380348,0.03902084,-0.039618365,0.06471559,-0.09072857,-0.09210592,-0.012271569,0.04019376,-0.005126281,0.010863159,-0.015289948,0.076462515,-0.012475852,-0.0070132166,-0.0019393277,-0.15308079,0.044003934,0.017229972,-0.012878466,0.027344044,0.054603375,0.06738268,0.100274794,0.09897444,0.048180815,-0.026220402,0.03435077,0.044271972,0.052557465,0.017651066,-0.06626734,-0.04349082,-0.0021175924,-0.11345548,-0.014787983,0.06570724,-0.12846047,-0.053082805,0.0045524733,0.12078124,0.085033394,0.039628875,0.0066031967,0.0022499473,-0.05542257,-0.09810384,-0.062209237,-0.021181948,0.008248178,-0.07633707,-0.10510755,0.079851456,-0.05068836,-0.043943822,0.038629994,-0.010894274,0.07738576,0.030473864,0.044909183,0.12845768,0.15452255,-0.02660671,-0.01700789,0.013936229,-0.0018875656,0.013274477,-0.15258902,-0.14525305,-0.24259594,-0.1305442,-0.04655379,0.09688971,-0.020310609,-0.07858161,-0.036389302,0.028156055,-0.016429985,-0.04201758,-0.066062935,-0.06448427,0.022266518,0.041612513,-0.16620031,-0.096252546,-0.017274776,-0.02189852,0.0140329935,-0.016622456,-0.10911144,0.033696007,0.03398247,-0.0054585007,-0.03971822,0.045591727,0.027094956,-0.059098627,0.013214731,0.047426995,-0.021657705,-0.074624665,-0.044533778,0.019710828,-0.0095704,0.0013137513,-0.01986932,0.020334901,-0.01674958,0.03987521,-0.090325356,-0.06300856,0.013441464,-0.06087696,-0.09336962,-0.021415487,-0.046596315,-0.09940769,0.043382935,-0.045059025,-0.0018465434,0.12119332,0.053550415,-0.04286102,-0.06711139,-0.061526667,0.043059062,-0.038471173,-0.070716135,-0.024751019,0.12898083,0.042106334,0.12564236,-0.016199088,-0.016237143,0.043663368,0.13494839,-0.0483482,0.044450108,0.04889867,0.06954683,-0.028001197,0.031264395,0.007131373,-0.026901841,0.10855679,0.008022352,-0.13312131,-0.017562315,-0.00755417,0.09726433,0.08562743,0.034310903,-0.06408966,0.124229975,0.08817079,0.18196556,0.1395471,-0.087193355,0.10366164,0.11658677,0.1170047,0.096275434,0.033236936,-0.0249533,0.112648934,0.042734433,-0.015070649,0.014645821,0.057951555,-0.03666285,-0.08172937,-0.12613186,-0.116522364,-0.06792568,-0.09191749,-0.07568577,-0.08511254,-0.008894067,0.016484011,0.034091976,-0.04718918,-0.00401011,0.09305324,0.018477622,0.07351825,0.051986977,0.038163327,-0.02056943,0.008175815,0.015417064,-0.06330486,-0.0039353883,-0.012887118,-0.07865083,-0.09398249,0.021402776,-0.091626555,0.053252935,0.06429034,0.022897894,0.08017102,-0.0010915408,-0.037872374,0.07146498,0.0053311544,0.048117597,-0.031070221,0.047324643,-0.10096801,-0.08587149,0.03082091,-0.04006956,-0.055463444,-0.04305289,-0.13314915,-0.055376388,-0.06596475,-0.057504516,-0.05211102,-0.022744022,0.028163051,-0.030003661,0.056411963,0.020776328,0.124754235,0.10131738,0.066676386,0.014034712,0.07193515,0.10267095,0.024010902,-0.049034636,-0.057707746,0.15124299,0.0043536206,0.08079943,-0.037249733,-0.079900615,0.1173601,0.13051443,0.069607146,0.06385884,-0.0932225,0.021622235,0.067762256,0.009083348,-0.0465074,0.06023993,0.08545543,-0.092460886,-0.031898014,-0.11046109,0.010849679,-0.022479333,-0.020796308,-0.037106354,-0.081315994,-0.026829224,0.08402322,-0.06786014,-0.058563486,-0.003547808,0.00525243,-0.05068304,-0.06793169,0.004847583,0.040162303,0.082050264,0.023311066,-0.0044634757,0.08960023,-0.0063681286,-0.0024403797,0.059735786,0.051676147,-0.09234714,-0.02624107,-0.0012794455,0.011403082,-0.02701812,0.12833852,0.043445975,-0.016601635,0.03400477,0.0800893,0.16249952,0.0014192378,0.08711796,0.087327264,-0.004425466,0.12806424,0.109933615,-0.024142645,-0.04546227,-0.01129471,0.022679202,0.013783796,-0.027026912,-0.118320264,-0.14495991,0.0013182289,0.06936077,0.017094271,-0.055210005,-0.08442799,-0.039918117,0.02444189,0.036490466,-0.063270405,-0.062745616,-0.04763977,-0.0139317,0.056108393,0.03606072,-0.038477525,0.035660654,-0.046247296,0.11500033,0.10647347,0.021265203,-0.0683937,0.014892633,-0.10303649,-0.07803041,-0.12611914,-0.086525634,-0.06662858,-0.048640724,-0.060042046,-0.095890455,-0.018445872,0.0065404517,0.02943584,-0.054828513,-0.13025896,-0.1060588,0.03663995,-0.06675632,-0.122086145,-0.06615944,0.02131485,-0.032334406,-0.058302578,-0.107426144,-0.061807703,-0.026939245,0.017716767,0.005933887,-0.033770315,-0.07553833,0.039612785,-0.09788157,-0.041911714,0.11569125,-0.032980263,-0.07282573,-0.04323141,-0.009730638,0.10468658,0.073285535,-0.12033148,-0.12575415,-0.04094327,0.053320453,0.06861615,0.029705966,-0.050729312,0.011512587,-0.014127774,-0.07493561,-0.050686263,0.030096767,-0.040079463,-0.0038167096,-0.07610606,0.060236566,0.031006824,0.05888577,0.04052966,0.07660345,0.022103418,0.060029972,-0.009002807,0.042619582,-0.027070198,0.06612347,0.009219023,-0.067079924,-0.028697988,0.062206727,-0.0663467,-0.044257477,-0.09090745,0.014016033,-0.094558395,-0.060224287,0.057180155,-0.10815053,0.023672663,-0.07846359,0.02701075,0.047998548,-0.054846983,-0.12425495,-0.07198606,0.003657704,-0.12090178,-0.07848424,-0.07499528,0.0440395,-0.08977956,-0.06999932,0.0438731,-0.06658824,0.021311196,0.018270155,0.08638904,0.020651365,0.062821135,0.058812894,-0.058280498,-0.11478359,-0.034487437,0.009712661,0.059522476,-0.040387843,0.12904605,-0.025970886,-0.012091478,0.02106378,0.12651499,0.043890625,0.051716916,0.030408181,0.07163646,-0.0155676585,0.09848079,-0.040281903,-0.090843454,-0.059198517,0.03453876,-0.051003627,0.03957597,0.096050814,-0.0052163964,0.01279619,-0.08222433,-0.012588579,-0.05301222,-0.026565008,-0.005712522,-0.043086648,0.06448678,0.04306916,-0.0056609255,0.07233868,0.0945415,0.07696277,-0.050581094,0.04679166,0.07030927,0.049065273,-0.0071682394,-0.014224364,0.035015896,0.009346341,0.07678851,-0.089847006,-0.07340762,0.0537036,0.04611592,-0.07031775,-0.17975843,-0.009656313,-0.11033642,0.0005130007,-0.02730384,-0.14963381,-0.031878594,-0.007112157,0.007746602,0.065003596,-0.054753702,-0.002255011,0.051373463,0.093726836,0.10322609,0.08664707,-0.026581839,0.09449933,0.15449925,0.096495904,0.088754214,0.0062562013,0.027944155,0.13604143,0.12666285,-0.043392755,0.016165761,-0.05315626,-0.043271653,-0.044433936,-0.14028251,-0.08373187,0.015519972,-0.088978864,-0.08134938,-0.12894186,-0.10355673,-0.047209658,-0.02420342,-0.02756691,-0.0054090214,-0.07872405,0.039192013,0.0634848,0.0509665,-0.08667092,0.028195005,0.03627056,0.14205164,0.104920976,-0.0039568087,-0.0042412537,-0.06386872,-0.0766929,-0.07162129,-0.011739599,0.04765966,0.050578903,0.04433359,0.00045840023,0.09230226,0.060716778,0.05997125,0.07302992,-0.045668636,0.089602634,0.07902767,-0.018597947,0.0065987734,0.05896387,-0.025211062,0.149857,0.0070018303,0.06139313,0.004171476,0.08074856,-0.030674702,-0.021120638,0.035959866,0.08082761,0.03995409,-0.05668903,0.022761947,0.040903974,0.018216936,0.054746844,-0.07077608,0.009908106,-0.057929855,0.001007209,-0.053768538,0.04443825,-0.030970002,-0.044502012,-0.02263786,0.010017433,-0.056978215,-0.080662504,0.008631542,-0.03890528,-0.12668553,-0.17424043,-0.14784977,-0.04044328,-0.046016227,-0.09973269,-0.097797886,-0.15693109,-0.061594736,-0.04159763,-0.14956126,-0.11304027,-0.08446298,-0.013686161,-0.02151571,-0.023540169,-0.049590293,-0.07798859,0.008122238,-0.06408375,0.103385866,-0.0060203136,-0.11250523,-0.03660732,0.02713347,0.021861544,0.029183427,0.053883523,0.016103035,0.004692903,-0.07776283,-0.1159747,0.017944988,0.061187502,-0.08652462,-0.17198128,-0.04086126,-0.0374503,-0.087475516,-0.07493839,-0.15707028,-0.04849852,-0.1444869,-0.044379033,-0.025192901,-0.0064205728,-0.23107709,-0.07691675,-0.039251022,0.06464389,-0.011995415,-0.024789955,0.049335502,0.0064402334,0.09602409,-0.061691772,0.048262365,0.041862026,0.0913513,0.059369113,0.0930655,-0.03690884,-0.020737182,0.017784927,-0.06407034,-0.09684411,-0.15426826,0.048503857,-0.017985644,-0.110422984,-0.14988132,-0.0035254043,-0.016694738,-0.084103875,-0.06926735,0.029105112,-0.08067502,-0.034658734,0.024081672,0.04015877,-0.05855985,0.011057388,-0.016643554,0.00976417,0.039262466,-0.040057443,0.0056779776,0.037018176,-0.05594604,-0.045998044,0.06458709,-0.008504573,0.016132979,-0.10953532,0.014922528,0.004790585,-0.054701734,-0.05473752,0.03777215,0.06839684,0.014464137,0.12020207,-0.007623053,0.03989405,0.06653611,0.06630983,0.047619045,-0.033950727,0.010425373,-0.058576506,0.026506614,-0.062457837,-0.04455216,-0.03917064,-0.028227843,0.0020044274,0.07753453,-0.05064261,-0.11377899,-0.016782591,0.016694305,-0.10126304,-0.07783746,-0.02381082,-0.14395958,-0.03372725,-0.07489651,-0.024049098,0.041340314,0.004131573,-0.08122138,-0.050965518,0.008138393,0.09354388,-0.005773955,-0.03498064,0.035766833,-0.017879168,-0.029012458,-0.054884184,-0.0716603,-0.11697617,-0.067641705,-0.021811478,0.008367968,0.09036845,0.06606552,0.06889227,-0.006786271,-0.010618265,0.13465737,0.022402842,0.04981071,-0.06897835,-0.030489534,0.11201952,0.011561236,0.024078483,-0.07911221,-0.012443727,0.13374642,-0.008813874,0.011616921,0.10139237,0.052835606,0.06084731,0.097049735,0.028096782,0.09107262,-0.0017316777,0.030778933,-0.07264252,0.0015306635,-0.028580436,0.00012836259,-0.014971656,-0.030616133,-0.04026421,-0.022389997,-0.041362926,-0.027531046,-0.07901403,-0.088433705,-0.05942609,0.024974989,0.062399894,-0.013280475,-0.052158404,0.07762758,0.053987917,0.06420946,0.0710483,0.046835292,0.021250054,-0.015328475,-0.065037414,-0.015924016,0.06534385,0.0053888527,-0.027311912,-0.018759092,0.017135682,-0.06446992,-0.042293377,0.013388477,-0.17186661,-0.06529838,-0.10815982,0.00661881,-0.005730909,-0.12267195,0.014602421,-0.05724962,0.06849179,-0.00031541486,-0.0011167758,0.08172877,0.0054474915,0.04651887,0.059915125,-0.097933315,0.016967628,0.03527893,-0.032734454,-0.11083308,-0.114938155,0.008466565,0.04313039,0.095394544,0.029451607,-0.04925528,-0.047173124,-0.09594591,0.071440734,0.03289523,-0.10962148,-0.026827985,-0.113995634,0.046106827,0.06279048,-0.12788463,-0.07225762,-0.081453204,-0.06529981,-0.139446,-0.03704784,-0.045525994,-0.08382447,-0.005599156,0.11665754,0.07610625,0.07116816,0.015234357,-0.09055641,-0.039097097,0.053865094,0.017304143,-0.029199237,0.05816185,0.021127008,-0.09028833,0.011123249,0.015679289,0.05012054,-0.0038084756,-0.03073104,-0.12513639,-0.11184834,0.0068388954,0.015280644,-0.03187107,-0.17839551,-0.17051235,-0.15770319,-0.15122218,-0.034027345,-0.06712282,-0.07745459,-0.11894804,0.054438826,-0.007752474,0.036749367,0.042032473,0.055059955,0.115426205,0.00822893,-0.019330963,0.031576466,-0.044257145,-0.051060047,-0.08862425,-0.0551708,-0.11362554,0.025084013,0.032195646,0.086455114,0.089751944,0.038456813,-0.043405782,0.019666541,-0.12060289,-0.14655778,-0.05181638,-0.12442075,-0.10946802,-0.0020980819,-0.05316179,0.03999574,0.0640037,0.01991605,0.0050523574,0.08883566,0.1127964,0.083339736,0.0171744,-0.018190486,-0.0270306,0.07563638,0.021982545,0.07459198,-0.1101093,-0.007355185,0.05864842,-0.05093613,-0.118743226,-0.16195631,-0.13147914,-0.004199446,-0.015406767,0.008640056,-0.10835149,-0.095241524,0.011865417,0.028348316,0.04577299,0.0038887358,0.03229606,0.016343428,-0.024870556,0.008259694,-0.052378427,0.025844196,0.06341586,0.09356964,0.05264922,-0.07017888,0.02109692,-0.005687183,0.01878347,0.03416883,-0.006312909,0.08958279,0.027559996,0.043756586,0.059782553,-0.009414995,0.050466713,0.0075816168,0.040927317,-0.020815397,0.033351336,0.052988887,0.03125596,0.051790334,-0.02859501,-0.0023703575,0.054641053,0.10775735,-0.040000476,-0.021399284,-0.07666546,0.031057624,-0.067417845,-0.016472505,-0.06780167,-0.007153358,-0.026438048,-0.013415791,0.009100666,-0.048803203,0.071343996,0.083684556,-0.020472929,0.03183376,-0.00821078,-0.015974466,-0.06820806,-0.07774086,0.08521105,-0.03660498,-0.012161683,-0.14331438,-0.14678356,-0.108538,-0.04260329,-0.08715025,0.07053685,-0.008662628,-0.034748677,0.015885642,-0.072155364,-0.065061085,-0.058420032,-0.033012185,-0.03065226,-0.0088138785,-0.029906552,-0.11766838,-0.11024959,-0.11538446,0.010006847,-0.09732865,-0.06877812,0.056187835,-0.049448233,-0.03289857,-0.07264872,-0.06486236,-0.005930287,-0.036753356,0.054538783,-0.021327233,0.06597085,0.03932554,0.018230073,-0.079476625,-0.035836253,0.024988573,-0.04852579,-0.10768162,-0.002895897,0.026052525,-0.015361532,0.07181776,-0.11058909,0.032924835,0.005682671,0.039573893,0.024391986,-0.005252678,0.016427698,0.13504876,0.02574828,0.037079252,-0.061284844,0.025678257,0.076315895,0.058955524,0.08369865,0.039602153,-0.1207345,-0.13321573,-0.048783366,0.04181804,0.13534416,-0.09126936,-0.056129426,-0.027257217,0.08081358,0.101013176,-0.05654692,0.003268006,0.111034706,0.13885447,-0.045670677,0.044446144,-0.0019313406,0.11944134,0.16446517,0.0879839,-0.0068555074,0.04067599,0.04793141,-0.009355532,0.06884399,-0.084442414,0.030982172,0.025899338,-0.011537934,0.12006005,-0.081422366,-0.10711568,0.03709261,0.022726089,-0.0058805062,0.0054070083,0.024512783,0.10626079,0.025572628,0.015391496,-0.04534464,0.046820004,0.028990481,0.04139827,0.008042374,0.025811553,-0.014634926,-0.017181795,-0.079276554,0.0015872534,-0.13481148,0.0053403857,-0.080279134,-0.03374563,-0.077772155,0.02823362,0.028666738,0.010701665,-0.048078287,-0.27494287,-0.023371985,0.02887764,-0.021646041,-0.111238435,-0.03086909,-0.0357121,-0.13890249,-0.033171352,-0.06629247,-0.068506084,-0.06589367,-0.004421233,0.07074067,0.05291336,0.07097133,0.037379008,-0.008364114,-0.033511057,-0.09652167,-0.08603375,0.003366825,0.0014269738,-0.055565543,-0.006039255,-0.08793706,0.038642555,0.014144019,0.0076902835,-0.025045915,-0.10448946,0.066901155,-0.017485619,0.01739558,-0.083041884,-0.01237845,-0.06566612,-0.0321648,0.06665562,0.054565895,-0.01844904,0.028618025,0.050490018,0.12641425,0.101730205,-0.082325585,0.043059636,-0.02852654,-0.07431034,0.04660394,-0.046061758,0.009683524,0.0461402,-0.078343816,-0.023845548,-0.12847932,0.0052388143,-0.07819383,-0.11415533,0.0034460376,-0.16630916,-0.09876859,0.022906967,-0.005295188,-0.04135904,-0.13070337,0.016264131,-0.11054874,0.036212258,0.052477382,-0.0140125565,-0.06647001,-0.013829852,-0.02630525,0.013852856,-0.058769565,0.02151215,-0.09517503,-0.04873261,0.08698469,0.035445422,-0.05680709,-0.05860439,0.022830024,-0.016929558,-0.0050825505,0.0573923,-0.047587886,-0.04351177,-0.025329089,-0.05976787,0.052391868,-0.055170786,-0.05072242,0.08190521,-0.082536936,0.046543546,-0.10778949,-0.07094922,0.01188919,-0.0005428163,-0.029370125,-0.04485977,-0.1153174,0.036031317,0.042262483,-0.011283343,0.02163906,-0.05338712,-0.04786182,0.0020528317,0.104973875,0.00850041,-0.042181116,-0.121757396,0.046797026,-0.05457834,0.03416579,-0.021222526,-0.037416752,0.019277137,-0.09059822,-0.0069915145,0.08655557,0.03517534,0.060175266,0.0023785671,0.0739526,-0.09636519,0.084205694,0.07206631,-0.024032585,0.07947216,0.044048954,0.16578759,0.011610359,0.03908373,0.03443109,-0.005082595,-0.0019332714,0.06412023,0.050684057,-0.028001528,-0.035689376,-0.10560471,-0.1479672,-0.036598418,-0.0699181,-0.11046154,-0.11562033,-0.044486027,-0.059592646,-0.0023861388,0.053522144,0.01863743,0.09859079,0.069482945,0.089710355,0.04195244,0.12736641,0.062701136,-0.026007589,0.022850847,0.050599255,0.043758985,-0.0140400445,0.07043382,0.07575657,-0.010284764,0.11374181,-0.14623812,0.06153688,-0.0045907735,0.041436713,0.10135836,-0.022227734,-0.05844423,-0.031738885,0.015351167,0.055707738,-0.005271129,0.021461748,0.013479586,0.0651383,0.08818048,0.02154032,0.0064908485,0.02039712,0.09287716,0.042965744,-0.0178285,-0.008479653,-0.035800274,0.0609887,-0.009392813,-0.028745431,0.03087733,0.0822004,0.046136416,-0.06277805,-0.041714933,0.0093796635,0.056897014,0.0010850958,0.0011888628,-0.06690208,-0.025978863,0.012977859,0.06731545,0.017436162,-0.027054708,0.0016553304,0.0395585,0.06019655,0.069150746,-0.0039347447,-0.06542319,0.048362333,0.041477386,-0.10025609,-0.085907735,-0.093097925,0.00024072142,0.029086567,-0.061565466,-0.027433353,-0.14833301,-0.07982362,-0.09301278,0.032044653,-0.07683793,-0.16490594,0.02427479,0.01146727,0.005647254,-0.07119886,0.0447255,0.08533652,0.08418108,0.06560072,0.045691773,-0.008208646,-0.103380196,-0.0054478734,-0.031506713,0.022539714,0.011939599,0.07964501,0.07872322,0.0044785845,-0.07663876,-0.06537565,-0.04972732,-0.11594858,-0.07671553,-0.0062679085,-0.13378562,-0.19560643,-0.041883357,-0.05452807,-0.040835954,-0.19593732,-0.045556903,-0.03890409,-0.098654576,-0.027155582,0.0843646,0.10554658,-0.01989189,-0.034104228,0.011205478,-0.0064758062,0.08228389,0.0045644296,-0.09083352,-0.04429518,-0.011672879,0.0013276504,-0.09773837,0.0768188,0.061814394,-0.18171385,-0.15866771,-0.074520156,-0.084434144,-0.06643182,-0.09943944,-0.044643663,-0.0063036894,-0.0155233955,-0.032472912,0.073985666,0.082865626,0.09839468,0.0954891,-0.006488635,0.010988758,-0.012614264,0.07189393,0.037955333,-0.024280196,-0.029153973,-0.041488256,-0.05610386,0.036455296,-0.03177805,0.076544225,-0.11575167,-0.038451456,0.04605269,-0.0037342852,0.079285346,-0.10079728,-0.0118783135,-0.100489624,-0.0080761425,-0.031050455,0.0073224027,-0.010360194,-0.07125708,-0.1470003,0.029288903,-0.0514629,-0.04261522,0.07745727,0.050922792,0.017548922,-0.06781706,0.053828355,-0.0019257176,0.04183463,-0.0042646634,-0.07844098,0.07576788,0.08496674,-0.030755045,0.030444855,0.107206844,0.008525158,0.11787996,0.054344725,-0.06687574,0.0082058385,-0.08022293,-0.022958957,-0.051268388,-0.0151669495,0.04957794,0.008874594,0.013433436,0.025257492,0.0058306768,-0.07972847,0.06381718,0.010169793,-0.073952794,0.08238349,0.047406066,-0.04423127,0.018816669,0.017591888,0.07304876,0.08927106,0.06003824,-0.04120677,-0.021297133,-0.010864094,0.09889715,0.12480637,0.10002903,0.047130607,0.09029015,0.08440043,0.030742118,0.03149063,-0.021634925,0.09231768,0.019265898,0.09313342,-0.05763932,0.023415046,0.04695802,0.12675323,0.06130381,-0.021180568,0.0057853963,-0.026702031,0.05775778,0.053761784,0.013140291,-0.121243484,0.07275322,0.040836398,0.041272216,0.08951193,-0.0030255879,-0.019041967,0.103423215,-0.0032684675,0.05899087,0.0057982206,0.07130232,0.035697497,0.00865894,0.017712919,-0.050351903,0.00251619,0.046024904,-0.056705944,-0.006013455,0.10908186,0.02468082,-0.011390176,0.044808213,0.07394632,-0.0006278496,0.09592459,0.1610205,0.052092355,0.100058876,0.107338764,0.20673117,0.1816587,0.10314705,0.03803021,-0.06127475,0.09747734,0.056535285,0.023337668,-0.058343057,-0.11197638,-0.056361854,0.03127104,-0.012012519,-0.057132583,0.0046207234,0.04054815,-0.018156907,-0.06545102,-0.06400408,0.017782412,-0.07217792,-0.11113231,-0.002657872,0.06219223,-0.015261447,-0.12750746,-0.0456093,0.091432035,-0.07148398,-0.068033405,-0.01957222,-0.008384407,0.06533103,0.027730739,0.036711063,-0.04087626,0.07344566,0.021374898,-0.02257097,0.06819137,0.078763634,0.085739635,0.010713871,-0.070867,-0.08157432,0.010192243,0.020640008,0.06376157,-0.021343015,0.10799276,-0.02378432,-0.038078494,-0.054059003,-0.00019648907,-0.018617144,0.07056483,-0.096916996,-0.07416477,-0.07028652,-0.08881866,0.03256587,0.08073898,0.0013557358,-0.097058505,-0.04956639,-0.04742992,0.0840033,0.005718769,-0.10384901,-0.103044055,-0.085445866,0.027296875,0.043731157,0.073248506,-0.034790624,0.11513983,0.016751347,-0.046191998,-0.036190156,-0.022988575,0.0661358,0.045775775,0.0027575654,0.022836262,0.05141408,-0.06814018,-0.103581086,0.052410245,0.07853567,-0.047149934,0.041491646,0.0025516949,0.0014867244,-0.033832766,-0.07177282,0.069229215,0.0914007,0.02050576,0.013008472,-0.011551265,-0.04945351,0.022484805,0.02817195,0.05670917,0.033238832,-0.078781985,-0.05539357,-0.04908882,0.106071614,-0.10595883,-0.034189425,0.050455343,-0.012130587,-0.14613308,-0.01464896,0.11211273,-0.09379521,-0.040157717,0.036537003,0.108209915,0.058465667,0.090884134,0.003012401,0.045115907,0.07650407,0.07074655,-0.071072035,-0.036426697,0.06804939,-0.024209812,-0.026319603,-0.06413841,0.020665893,0.0044086967,-0.038129717,-0.054157514,-0.0024318984,-0.010860687,-0.01863049,0.032809496,-0.025685227,0.04038163,-0.03038185,-0.016717855,0.06526989,-0.034971602,0.0050795316,-0.042345855,0.033759587,0.03733247,0.062101927,0.043750692,-0.10425088,0.07045865,0.05981222,-0.08125912,-0.13549995,0.07330898,0.073735975,-0.037286036,0.030992482,-0.0076970784,0.14943935,-0.114503294,-0.13065551,0.068654485,-0.071853295,-0.13226435,0.061333235,0.12601532,0.020645883,-0.07632229,-0.03330349,-0.07160885,-0.14924063,0.0777999,-0.014825354,0.017176775,-0.1317172,-0.100315176,0.11511558,0.041230097,-0.097892806,-0.013818005,0.027942363,0.0865354,-0.071775295,0.0116959475,-0.062024713,0.00723586,-0.13590351,0.04009888,0.048997875,0.016459024,-0.031515688,0.0454923,-0.003387445,-0.03681734,-0.08438945,-0.1171789,0.042582,-0.023334997,0.016210282,-0.1310272,0.0100689465,0.009742169,-0.097058274,0.014372832,0.11494374,0.077847324,-0.037394863,0.115419306,0.15558623,0.062667474,-0.09911817,0.0233529,0.011849985,0.018451646,-0.010024199,0.11045044,-0.032492913,0.04731179,0.18218993,0.100705355,0.0644152,0.091595866,0.033873204,0.017454812,0.0041369423,-0.116894156,-0.08104196,-0.004407603,-0.10738135,-0.12673452,-0.050119113,0.025750814,-0.07854998,-0.09029422,-0.053236958,-0.056046445,-0.04600703,-0.080267705,-0.05369499,-0.025675187,-0.074451655,-0.068162404,-0.06311468,-0.03733247,-0.108492985,-0.054098155,0.010839277,-0.08118129,-0.021708159,-0.04161332,-0.0043389527,-0.000738331,-0.10409756,0.007075915,-0.009775727,0.054230206,-0.03436357,-0.034188624,-0.009909034,0.020268088,0.017072195,0.02342707,0.082560144,0.075767666,0.013484482,-0.022282476,0.017377347,0.09024118,0.09555939,-0.06897738,-0.07268667,0.046853367,0.10695497,-0.07425141,-0.07643687,-0.04393012,0.040993854,-0.008051937,-0.11773581,-0.11671637,-0.14252678,-0.056683406,-0.048019454,-0.13183095,-0.08568706,0.043739747,-0.16622572,-0.14088316,0.043531716,0.009155438,0.029289046,-0.03412424,-0.07279672,-0.001098872,-0.11616842,-0.26411793,-0.0026744292,0.07470402,-0.104599185,-0.24325535,-0.102208056,-0.002673919,-0.04521104,-0.027960755,-0.027174097,0.0057969266,-0.09654701,-0.07784875,0.037132688,0.0073258583,-0.07003715,0.048584834,-0.0041853064,-0.025180537,0.08950639,0.01185716,-4.9717593e-05,-0.04098243,0.043244284,0.052709155,0.019719146,-0.011736754,0.07927519,0.0816168,0.04506493,-0.0326997,0.1354391,0.019864578,0.042746093,0.12564321,0.07072344,0.042205635,-0.0649617,-0.03550826,-0.015152648,0.054924145,-0.0975544,-0.068747476,0.059967864,-0.033540685,-0.054626998,-0.017228868,0.01712025,-0.024340903,0.121819794,0.013914249,-0.014383323,0.04920894,0.0219911,0.02978161,0.041251704,0.04956498,-0.026391597,-0.043114804,0.07312832,0.07615359,0.0063100485,0.018587383,-0.023892997,0.00019098466,0.05204432,0.03846095,0.016507404,-0.032710068,-0.012503203,0.00035220955,-0.054992937,-0.075941496,-0.06149692,-0.054071095,-0.110753156,0.01174201,0.048315085,-0.0074190497,0.011483805,-0.12516207,0.13280196,0.022662157,0.025331605,-0.061081305,-0.09069338,0.11732749,0.013007371,0.010076674,0.056895826,0.07167586,0.09055609,-0.019090574,-0.00960155,0.042443775,0.066510044,0.07276106,-0.0105983,0.032153443,-0.03671085,0.047742095,0.02968354,0.01977892,0.12042842,0.060566787,0.12266879,-0.011112065,0.079342775,0.101218164,0.07977314,-0.020662695,-0.012469212,-0.09097025,-0.10274971,-0.017223055,0.027041607,-0.0830237,-0.08739524,-0.0163717,-0.07740708,-0.070187256,-0.09187829,0.020529984,-0.0559833,-0.02887265,-0.10171357,0.031033985,0.10711901,0.12659092,0.086625196,-0.054616332,-0.0141049195,0.012603366,0.012758766,-0.008798676,0.0014466556,-0.078811795,-0.07825664,0.009460452,-0.08103345,0.010891906,-0.057691306,-0.031365007,-0.027563987,-0.091220796,-0.04417759,-0.028639697,-0.0975372,0.02513917,-0.023408893,-0.02419073,-0.033957977,0.06119613,0.015742688,0.14096843,0.022694072,-0.06698451,-0.06368649,0.03311537,0.13482183,0.076901756,-0.17614469,-0.13356164,-0.020510996,-0.09547851,0.0527003,-0.09138026,-0.060722187,0.034379583,0.019341715,-0.038312234,0.01582222,-0.062248576,0.005527467,-0.21320082,-0.050650485,0.100967094,0.01687647,0.050888244,-0.026639957,-0.06791738,0.11585098,0.09996339,0.102754906,0.08235062,-0.06370501,0.017805466,-0.040200233,0.02127173,-0.037373297,-0.09087318,-0.02045458,-0.012341747,-0.042734053,0.059235647,-0.081326865,0.052226126,-0.02113747,-0.012776531,0.02284417,0.0442201,0.04289157,-0.0076240995,-0.08017955,-0.05391551,0.05390975,0.005183479,-0.001020272,-0.015313875,0.03302751,-0.0814005,-0.0290318,0.028634002,0.08006225,0.060817253,-0.03933528,-0.0037261278,0.054931358,0.05671626,-0.04719783,0.052724935,-0.029822921,-0.03771111,-0.07402257,0.014466648,-0.040610086,-0.033756696,-0.0011463251,0.06360317,0.07264152,-0.095096305,0.039897915,0.05832994,0.06943224,-0.005047296,-0.057980783,0.064072944,-0.025431372,0.037579075,-0.006615461,-0.076523915,-0.045760464,-0.03750132,0.11866044,0.09028638,0.0068485886,0.05146403,0.11940978,0.09805495,-0.049974084,0.01415668,0.09649386,0.086278826,0.025831398,0.07566307,0.013293023,0.08885404,0.0010591382,0.03215483,-0.018300408,0.024820581,0.012323695,-0.05647007,0.002032093,0.01644204,-0.10234297,-0.031188002,0.02046585,-0.04690066,-0.06711759,-0.07192949,-0.06393782,0.071468025,0.13146971,0.04240584,0.12613429,0.008124604,0.059144072,0.1199539,0.025983887,-0.0065992577,-0.06795,-0.048082095,-0.009775811,0.04823989,-0.08530198,-0.008767339,-0.09159257,-0.069531195,-0.06658962,-0.111077026,0.0074384115,-0.0088296905,-0.14686126,-0.04540759,-0.10556089,-0.05563067,0.006776232,-0.058973994,-0.056292154,0.085377134,0.04063051,0.10785489,0.12352291,-0.029191084,-0.07599803,-0.016983477,-0.043915033,0.09108131,-0.089941554,-0.1208053,0.059100408,0.05486733,-0.031959545,-0.045608852,-0.14718856,-0.018112997,-0.015031069,-0.095103584,-0.13268693,-0.07817987,-0.11063578,-0.10363831,-0.053758364,-0.056365043,-0.10784225,-0.07442366,-0.05392273,-0.13322228,-0.17152992,-0.053191725,0.012246193,0.014914406,-0.12801379,-0.080094375,0.060237918,-0.030861888,0.023306256,-0.012587451,0.061727203,-0.072202764,0.03687155,0.034864914,0.007362397,-0.033960197,0.024481298,0.07343095,-0.04025292,-0.0073199,0.0009835367,-0.070719935,-0.003524317,0.0097917365,-0.018961813,-0.10192064,-0.17087281,0.06517411,-0.074760154,0.07367393,0.015347383,-0.16781905,-0.09698244,0.06278388,0.09591202,0.011233504,-0.0953738,-0.02983728,0.064644106,-0.010595891,0.07406555,-0.12363341,-0.057086412,-0.014608325,0.035407644,-0.042181022,0.0028356435,0.024413185,-0.071195334,-0.07967852,-0.004300426,-0.060627393,0.021420658,-0.101523645,0.008330008,-0.05026083,-0.057465855,-0.028646875,-0.06342026,-0.12769309,-0.07995251,-0.060095884,-0.026365964,-0.057511467,-0.03458913,0.012171352,-0.016876852,-0.060690325,-0.058883682,-0.046090394,-0.04288299,0.10026643,0.018133674,0.076677404,0.07782221,0.054352924,-0.058573592,0.05938578,-0.02371872,-0.016608227,-0.044595234,-0.03851157,0.030111784,-0.011946747,0.02709963,0.07229468,0.067165144,-0.07301662,-0.0324602,0.03308914,-0.07819281,-0.025080448,-0.011484503,0.0997489,0.018049367,0.04077421,0.028684324,0.08485923,0.10254765,0.14369781,0.14046022,0.09561115,0.070994765,-0.018726869,-0.045326456,0.018853847,0.022269517,-0.037545368,0.0057632104,-0.051508084,0.053582244,-0.11478197,-0.0108253,-0.041118003,-0.0753726,-0.008541724,0.0021721951,0.018186364,-0.046631485,0.021094926,0.016862027,0.054086305,0.01767545,0.033579726,0.08115574,0.02998955,0.0012287074,0.07287357,-0.012249966,0.028962016,0.07320228,0.059486393,-0.04779939,-0.053629674,0.03424322,0.07700093,-0.033647344,0.0819018,0.13836011,0.059114117,-0.04703794,-0.1121776,-0.07153685,-0.074905366,-0.07517467,-0.10978503,-0.08283561,0.0020730416,-0.08023764,-0.09157965,0.06080845,0.040968306,0.09167543,0.10236013,-0.019790888,0.05854825,-0.039457582,-0.03545314,0.038966447,0.08214471,0.013423444,-0.013072082,-0.039872494,0.028852563,0.019843971,0.062414207,0.047611043,0.04990947,0.06528732,-0.08202116,0.0016919505,-0.00018632083,-0.06309924,-0.065302216,-0.014667578,-0.083684586,0.03465015,-0.09440365,-0.10910107,-0.15556371,-0.17514385,-0.11318977,-0.057360783,-0.098285414,0.062601276,0.027203364,0.0026251148,-0.097801484,0.12475027,0.026651088,0.120758206,-0.006895348