0.10211992,-0.050195836,0.0009693695,-0.051798362,0.10409791,0.04207278,-0.0063021104,-0.09089512,-0.075449035,0.021652997,-0.075072154,0.023754096,-0.09827063,-0.13936847,-0.009829011,0.018977579,0.040088154,0.01657637,0.008893095,-0.016872486,0.054257356,0.043009356,-0.01169964,0.01851951,-0.11881356,-0.0983607,-0.058752686,0.031213535,0.05065326,0.05253632,0.00078561157,-0.043475073,-0.025301164,0.038825262,0.05029629,-0.12317233,-0.03168805,-0.084118195,0.0047279373,-0.10503744,-0.05568165,-0.0470655,-0.00406013,-0.027337497,-0.07360282,-0.05723177,0.0012952491,0.01262309,-0.08194969,-0.029142095,-0.007847688,-0.020846657,0.036132053,-0.027719762,-0.019552022,-0.023217225,0.009946656,0.056934576,-0.05822579,-0.0028288318,-0.03837807,0.00032888303,0.0021097348,0.020403078,-0.066660054,0.061071213,0.0062924307,0.026293145,0.027161077,0.027965937,-0.013504685,-0.0834399,-0.012040266,-0.05756029,-0.057127587,-0.073625356,-0.10403723,0.059017386,0.0071414416,0.038416427,0.010812774,0.08702207,0.08160074,0.005760588,0.017510168,-0.012841903,0.012006239,0.06254774,0.022805538,-0.052278627,-0.0014376023,-0.046978317,0.042531863,-0.08337551,-0.06328669,0.0149192335,-0.07836944,0.064729854,-0.007911782,0.02845239,0.045076102,0.018266872,0.048404336,-0.041823495,-0.019713562,0.082893774,0.026598053,0.039739158,0.030782826,0.056391552,0.013905055,0.0829381,0.2170751,0.053482145,0.13874613,0.008866692,0.028906273,0.11549591,0.016321605,0.11661862,-0.035198938,0.073559865,0.014514554,0.036258467,0.08452471,0.025417883,-0.06667963,0.056847956,-0.015994921,-0.03624068,-0.011748799,-0.058394164,-0.013645715,-0.045455266,0.043859947,-0.10933325,-0.036951885,-0.054248855,-0.047965113,-0.035826046,0.005257645,-0.0018867475,-0.099625334,-0.06847224,0.0053963363,0.03773445,-0.018935332,0.033576958,-0.07780767,-0.05768293,-0.022732314,-0.021926384,0.047536723,0.011535566,0.050078552,0.013651103,-0.034869265,-0.042570956,0.071979254,0.10971931,-0.07019751,-0.03956859,-0.041303966,0.0063647907,-0.06783249,-0.012924464,-0.050076343,0.1454782,-0.012697694,0.01553127,-0.009022834,-0.025568286,0.029181771,0.071705,0.10737651,-0.0075687603,-0.019992992,0.02883831,0.04154787,0.013667848,-0.004820961,-0.059441894,-0.07794185,-0.014227168,-0.012937762,0.051517628,-0.07947121,-0.03395122,0.07364304,0.01582424,0.00025712012,-0.070442826,-0.12436362,-0.03767689,-0.030856427,-0.0043071737,-0.05427509,-0.114140555,-0.0062366324,-0.088133715,-0.031248668,-0.012499643,-0.051410805,-0.041423734,-0.011330837,-0.06794706,-0.0029230912,0.02382794,-0.06296978,0.044711314,-0.027271897,-0.0076512666,-0.021768067,-0.05481376,-0.07145154,0.019143105,0.019285433,-0.005869953,-0.025612157,-0.0832791,-0.045169614,0.04902564,0.029255206,0.0032870786,-0.08882299,0.028936684,-0.013214251,-0.011076627,0.0046347394,-0.052200574,0.026050918,0.06716518,0.050672747,-0.034486443,0.035958547,-0.006774194,0.031285394,0.072316974,0.03895072,-0.056728546,-0.08135405,-0.00017667736,-0.049176227,0.07452917,-0.059727393,0.03184636,-0.044547673,-0.005583646,0.052749187,0.012094853,-0.021602111,-0.013225267,0.04955914,0.057799857,0.06250469,-0.02641261,0.013073593,0.01842919,0.103512794,0.112194926,-0.027220154,-0.035985783,0.032622643,0.046046775,-0.0032480126,-0.0032515223,0.038549688,0.016355988,-0.033968758,0.0028162957,0.091336235,0.044082873,0.02347746,0.0029342477,0.024771543,0.0029402315,-0.061189823,-0.061520092,-0.012033329,0.021421982,-0.064168684,-0.0032205507,0.06955273,-0.040533267,-0.029788367,-0.005690543,0.06858489,0.033634182,0.0054010893,0.025566328,0.078010805,0.00020635928,0.07343217,0.07214954,0.07052192,-0.009645563,0.022400549,0.03876446,0.006978004,0.011592561,0.06207216,0.03138074,0.08728897,0.05126916,-0.032791402,-0.011682323,0.05393772,0.033729136,-0.06886837,-0.0900351,-0.018859603,-0.004877997,-0.041744176,-0.034260813,-0.07061015,-0.08403289,0.10114413,0.13535367,0.047421224,0.05796503,0.07089809,0.1405723,0.13402484,0.12518957,0.15377611,-0.0074322633,-0.040083192,-0.012670596,0.011640333,0.014006874,-0.0033678447,-0.03818146,0.03740378,-0.012953695,0.08349841,-0.056295786,-0.13676842,-0.036251448,0.0552788,0.02063017,-0.06397604,-0.062499087,-0.0968287,-0.049298055,-0.04510412,0.03970006,-0.08302281,-0.14137581,-0.070445046,-0.066680536,0.025435077,0.08614478,0.039910235,-0.08864937,0.0008606445,-0.07422875,0.1175103,0.04858477,0.01606208,-0.003952988,0.037660144,0.09893249,0.071013935,0.10505208,0.05646493,0.04356007,0.08291262,0.0024449057,0.12727986,0.08178764,-0.037475098,0.023358041,-0.07391154,0.015862197,-0.12007679,0.084489666,-0.045900546,0.011380891,0.0039234604,3.353626e-05,-0.0035091785,0.0049176626,0.027565345,0.041815385,-0.010502199,-0.08393304,-0.055440415,0.012126655,0.0020840326,-0.037165474,-0.010176136,-0.049545556,-0.07037191,0.005684621,-0.04936932,0.006246571,0.05264673,-0.041809283,-0.09870966,-0.12184585,-0.056439403,-0.038511522,0.06934167,0.06994488,0.06776156,0.006536972,0.06099229,0.035991613,0.060521606,0.064945474,0.019978033,0.01823867,-0.017181484,0.03679181,0.09280841,0.087433435,0.029317306,0.027302224,-0.056366082,0.0057503767,0.02079202,-0.033330955,-0.12257733,-0.07989442,-0.10509123,-0.122631975,-0.045106564,0.032352746,0.0023652266,0.046238218,0.05392178,0.0060905437,0.010983711,0.025196163,0.04491964,-0.036170173,0.02590306,0.030138044,-0.013740215,-0.046459183,0.022759307,-0.05939888,-0.015976226,-0.04337874,-0.03440519,0.07589037,0.0833439,-0.009336376,-0.048272397,-0.046868253,-0.018515164,-0.10117211,-0.08963996,-0.067087926,-0.043342568,-0.012072148,0.049007777,-0.03547035,-0.10918134,-0.05323275,0.052651983,0.0012964861,0.008580465,0.049963072,-0.040026113,0.051152807,-0.016542008,-0.065228604,0.0041998,-0.05483192,-0.07821922,-0.16335087,-0.006072994,0.054433078,0.035109047,-0.037465744,0.015019876,-0.056659654,-0.0050551295,0.010523834,-0.0011347384,-0.012412413,-0.035996888,-0.07620565,-0.032836065,0.07588746,0.024685495,0.06587999,-0.042032406,-0.032666247,0.091682084,-0.024750654,0.068632625,-0.028076487,-0.08569989,-0.014830545,-0.03372585,-0.035947613,0.008364247,-0.07094047,0.0036040274,0.038177717,0.026949279,-0.1092514,-0.13855451,0.0383331,-0.023192722,0.07722405,-0.060953494,-0.034890004,-0.005504547,-0.0478083,0.019952128,-0.006093149,0.0052120276,-0.1072801,0.020366365,-0.027656317,-0.00755143,0.02361304,0.057240132,-0.029997693,0.107648216,0.026100652,0.10794442,-0.049489684,-0.064967185,0.0037949772,0.033533778,-0.098197706,0.077168666,0.028462088,0.041176785,0.04797177,0.0011744271,-0.050845195,0.033304855,0.046106033,-0.031225136,-0.024258649,0.019469725,0.0021013084,0.016398322,-0.019500703,-0.0044236826,0.013310026,-0.034571737,-0.11005902,-0.11148161,0.05810407,-0.10033295,-0.045958925,0.0029530572,0.038052205,0.017784866,0.11144605,0.072340496,-0.041475255,-0.060109105,0.015622575,-0.017889267,0.020078829,0.032295696,-0.012072753,-0.034916073,0.058107346,0.002791587,0.056424145,-0.022918751,-0.030105194,-0.017070327,-0.017309718,-0.015600491,-0.022666164,-0.0040295008,0.04191824,0.069410756,0.024480078,0.029173331,-0.011531107,0.019243462,-0.014563001,-0.0110375825,-0.069712594,-0.035415396,0.03810446,-0.037746105,0.025390247,-0.04067921,0.009725395,0.08795944,0.023437958,-0.022734005,-0.03775004,0.03870734,-0.031608686,-0.052291688,-0.07265201,-0.028284295,-0.007829889,0.008456222,0.068213105,0.04849721,-0.0056616347,0.017449802,-0.029022133,0.0034214477,0.015296659,0.08252651,0.0496316,0.06883288,0.087051995,-0.018782135,-0.02324167,-0.1341693,0.025963547,0.047395416,0.006510054,-0.000515356,0.026225697,0.058943123,-0.026853314,-0.09067122,-0.06827875,-0.05734865,-0.0110944845,0.08315952,-0.07461299,-0.09900139,-0.12873134,-0.02513785,-0.03297341,-0.13566287,0.022143478,-0.083667606,0.08372176,-0.06273484,0.040277578,0.052026495,-0.022739368,0.10917157,0.004251098,-0.0048340918,0.022905542,0.027566165,0.058192,0.04228214,-0.0481265,0.06357751,0.02002556,-0.0780707,0.01163946,-0.0073856213,-0.03710106,0.064995505,0.028291976,-0.018483797,-0.05432038,0.027348023,0.020700015,-0.077030085,-0.01509145,-0.025010211,-0.06369876,0.04230423,-0.066995606,0.053976074,-0.0053904424,0.038256958,-0.0189225,0.022064367,0.07990063,-0.0009910248,0.030485598,-0.026934166,-0.057031404,-0.012350929,-0.02680153,-0.10690864,0.0017374258,-0.041217256,-0.07666643,-0.012481955,0.040805753,-0.09728109,-0.06706433,0.034537014,-0.015755467,0.05966304,-0.08576297,0.039261103,0.02990561,0.0409749,0.04964793,-0.0057736523,0.13162126,0.05712797,0.022624383,-0.0056230566,-0.09348681,0.034110133,0.010749882,-0.010273709,-0.07269952,-0.07609295,0.026069095,-0.058527946,-0.07483914,-0.1159495,-0.012491541,-0.019788366,0.0756711,0.02449452,0.007956908,0.006819164,0.03002609,0.116130546,-0.022058928,-0.0368088,-0.0036289806,0.034060474,0.08121972,0.0057075834,-0.018719897,0.03687884,-0.0154883815,0.03479227,0.07382968,0.04260651,-8.004144e-05,0.0022091866,-0.035229027,0.042491842,0.01740861,0.033512767,-0.007146567,-0.0028039867,0.02222412,0.052574992,-0.020763494,0.051810026,0.03742892,-0.05622031,0.019331615,-0.0027000734,0.02491687,0.03948499,0.013138956,-0.043672312,0.05604717,0.013010688,-0.11157613,-0.10612443,-0.031742662,0.0153566385,0.027709754,0.01965738,-0.08643946,0.067638166,0.035628557,-0.05511394,0.04315481,-0.077910356,-0.020062495,-0.07953166,0.0077071837,-0.007448843,0.04748972,-0.004411505,-0.012979128,-0.05586364,0.040804803,0.042909756,0.05708789,0.058561604,0.05346403,-0.053466577,-0.040387753,-0.01615483,0.040579055,-0.09335374,-0.03585198,0.020615619,0.057674147,0.005049426,0.09975636,0.07962019,0.047613278,0.06600426,-0.031510696,0.0038930862,0.022527223,-0.02288379,0.0011220117,-0.032077283,0.02457422,-0.042468924,-0.01174728,-0.0678373,-0.070745006,0.024988355,-0.06295231,-0.084398136,0.018248944,-0.04332315,0.07338853,0.0493876,-0.054768827,-0.11483109,-0.09718231,0.13281332,0.015794601,0.003589158,-0.07851982,-0.023144474,0.026024997,-0.035162523,-0.058711797,0.04601457,-0.0070988243,-0.06858595,-0.057512634,-0.012784773,0.024772497,0.065489866,0.05342959,-0.06593186,-0.056396212,-0.0637086,-0.07478495,-0.0020504151,-0.025203062,0.056632545,0.005951259,-0.07502588,0.00694158,-0.106519036,-0.10555919,-0.017478852,-0.032983348,0.014902554,0.012725968,-0.09060769,0.051218383,0.058182746,-0.027424945,0.0051465137,0.06864593,0.029825535,0.040672366,0.062937215,0.1373577,0.06789318,0.029651484,-0.022385385,-0.0045354166,0.1080483,0.0018207037,0.06760827,-0.01892467,0.0027287682,0.09015971,-0.019662669,0.011771141,-0.0026683207,-0.062088892,-0.013845797,0.04219258,0.03290274,-0.016981194,-0.12887664,-0.07027663,-0.008151436,0.015947374,-0.08030089,0.019959323,-0.015058123,0.023752281,0.06829223,0.12961102,0.015611688,0.0013062543,0.029419422,0.089731656,0.11698061,0.07705311,-0.045797195,0.0035955568,0.021789307,0.03944842,0.01754909,0.008992469,-0.010029527,0.01779239,-0.09151245,-0.012472591,-0.0055550863,-0.038518224,-0.08254954,-0.12081558,0.035227496,0.055964243,0.093414545,0.07758502,-0.033383425,-0.04613148,-0.018326482,0.07605967,0.0012370877,-0.004995877,-0.0008666128,0.06614645,0.046548426,-0.039445378,-0.018059775,0.04607297,-0.045046218,0.033245042,-0.0022466087,-0.025101284,0.06946894,0.012127314,0.06346198,-0.03536832,-0.014554672,-0.030862233,-0.028079027,0.0026117058,0.08370678,0.11856056,0.029802548,-0.045372818,0.010894269,-0.0023222668,-0.03408284,0.0897195,-0.010642804,0.06056124,0.003826817,0.0018209233,0.020095859,-0.06915092,0.0106259,0.05172734,0.050138164,-0.07601559,-0.010640241,0.062178463,0.044616573,0.06533322,-0.020004965,0.0025745693,-0.04443021,0.051016018,-0.036040556,-0.06124503,-0.02766098,0.064647384,-0.0032703762,-0.08673435,0.106710635,-0.055512536,0.005069327,0.021310952,-0.01738141,-0.009088623,0.012627928,-0.10163827,-0.01721001,0.031040544,-0.025808763,0.0013516623,-0.021805607,0.04727443,-0.041117653,0.07294983,0.04768591,-0.030671524,-0.044903062,-0.013359682,-0.017103462,-0.0690981,0.022905085,0.050297692,0.051615417,0.018225146,0.0343255,-0.023532549,-0.027022924,0.016609695,-0.007939412,0.059155747,-0.010200997,-0.0044096177,-0.05082541,-0.055502396,-0.052531593,-0.046749342,-0.0011213246,0.051281653,0.0055242935,-0.09583104,-0.07447755,-0.06609242,-0.012133357,0.01775516,-0.0035934066,0.014740684,0.02592434,0.054935943,-0.05124098,-0.11310193,-0.039865345,0.021490453,0.08672452,-0.016440006,-0.0010956767,-0.0762072,-0.035129253,0.1153986,-0.06802028,-0.0111866025,0.026945839,0.036820915,0.040721335,-0.049852952,-0.00024000324,0.050780315,0.15074718,0.15780559,-0.078606166,-0.014136939,0.0016644981,0.029024303,0.0018938448,0.025764694,-0.0043016267,0.0604602,0.018060517,0.036084298,0.0728268,0.049634997,-0.026204718,-0.013747069,-0.06465739,-0.03553449,0.03291755,-0.03685098,-0.026536113,-0.018062875,0.0781484,0.02835593,0.08943237,-0.07668354,-0.09349833,-0.01986486,0.002585738,-0.05983142,-0.124166906,-0.02962045,-0.036573946,-0.019129355,-0.06632495,-0.005208162,-0.010337185,-0.11826975,-0.022701971,0.052936114,0.08262286,0.018822318,-0.0036306246,0.006610502,0.09844819,-0.0077222944,0.029366482,-0.0035452244,-0.016473176,-0.064697936,-0.046806388,0.0047248504,0.019253418,0.073611915,-0.015204714,0.030967303,0.091131955,-0.0062392126,0.044381637,0.060381033,0.012949005,0.019520074,0.014964631,0.040390406,0.04772138,0.012842821,-0.056701355,0.04485044,-0.07367951,-0.0042371405,-0.03294027,-0.13193175,-0.110201,-0.06692471,0.0826936,0.096151695,0.072605535,-0.037154775,0.0057030544,0.011419247,0.08947041,0.0024528266,0.053948566,0.08041043,0.07816182,0.028063366,0.06862922,0.10018261,0.049876813,-0.02831028,-0.014114496,-0.057575244,0.060000483,0.07620792,-0.04690127,-0.07376412,-0.09984007,0.021931294,-0.027002808,0.033399656,-0.08968065,-0.050987817,0.0027578806,0.086370625,0.08652102,0.03666747,0.016822815,0.017137708,-0.056964554,-0.03887967,0.011459014,-0.04458976,-0.0629992,-0.033314317,-0.032664716,0.00579937,0.037302032,-0.03613371,-0.052648176,0.10062071,0.023148293,0.005328938,0.051621903,0.15285727,0.043756943,-0.0541896,-0.037928138,0.05142397,0.10228627,-0.0034568966,-0.010501015,0.091497615,-0.02232206,0.010648898,0.028584091,-0.041113265,0.0436069,-0.010919349,0.05968958,-0.084834665,0.012739742,0.0098546725,0.021781035,0.02394585,-0.03067635,-0.05407016,-0.03837302,-0.051247343,-0.035248537,-0.020116378,-0.008554863,-0.024602398,-0.043126747,-0.038832873,-0.043927383,0.039398268,-0.03480661,-0.004547759,-0.08161247,-0.118713826,0.025847528,0.004032743,0.017235927,-0.057818238,-0.06696522,-0.034221884,-0.08102572,-0.03556507,0.022705607,-0.06732954,0.024730744,0.026042975,0.0061655333,-0.021082439,-0.011795846,-0.04695105,0.03246558,0.036996502,0.11463825,0.0266399,0.031980876,0.07771598,0.014341501,0.000338489,-0.008406193,-0.036545742,0.0062608155,0.026906988,0.014735221,0.0031011042,-0.05493559,-0.08236299,-0.010525311,0.042186,0.022554904,-0.039481327,0.013354364,0.014883661,0.0019248835,0.017476827,0.025261817,-0.012331009,-0.021556143,0.062112845,0.04042957,0.04719559,-0.017241666,-0.009635272,-0.024909224,0.03953374,0.08172406,0.010635036,-0.054103352,-0.034311328,-0.019338507,0.035003595,0.030871771,-0.04200815,0.0044732187,-0.032041367,-0.004294392,-0.07638693,-0.08492142,0.0020971547,0.020988476,0.042736772,0.031789366,-0.12004825,-0.10161126,0.05681067,0.11593499,0.0775761,-0.082430854,-0.018049313,-0.039623953,0.009061499,-0.010106369,-0.08599387,-0.00310016,-0.032554436,-0.057164118,0.013675591,-0.025651196,-0.019429702,0.06374728,0.03419607,0.013190258,0.01135235,0.045265716,0.03497204,0.04950807,-0.014284721,-0.026449986,0.062124178,-0.04243253,0.07451457,0.0042970506,-0.059339013,0.06298349,0.050170768,0.009433301,-0.0031709175,0.019514795,0.008653453,-0.061627142,-0.060011793,-0.12491802,-0.041082542,0.017537706,0.0051956233,-0.07063338,-0.034121823,0.06645152,0.06645982,0.02144712,-0.0200122,0.01591881,0.020951545,0.05909845,-0.00016622462,-0.08765744,-0.09074452,0.048083972,-0.001803157,-0.12963778,-0.08850607,-0.060101017,0.037822977,0.0020273079,-0.009243301,0.032737292,-0.004591526,-0.008640837,-0.04363494,-0.118377484,-0.09653775,-0.0051271347,0.07400901,0.044098794,-0.011295383,0.052619856,0.032441203,0.0069020647,0.008083498,-0.017248342,0.14336759,0.060334705,0.038068403,0.010771459,-0.0098341685,-0.06718968,-0.03188954,-0.07631537,0.0099585885,-0.00045492506,-0.07189978,-0.04009816,-0.06807155,-0.028677061,-0.04749208,-0.0827874,-0.018283002,0.06335316,0.08937807,0.020041859,0.05142134,-0.11254405,0.09902143,0.1034584,0.011429446,-0.08715586,-0.06683222,0.09370091,-0.01402925,-0.05773935,0.026190562,-0.048872013,-0.047427706,-0.087443046,-0.054751795,-0.011399144,-0.051563155,-0.020694101,-0.0761012,-0.014304758,-0.10372209,-0.08968654,-0.043176565,0.004071953,0.020394335,-0.030617237,0.048896275,-0.047887817,-0.03728231,0.01431848,-0.025007313,-0.06387822,0.078286104,0.15144141,0.06303756,-0.028959056,-0.027916009,0.099698484,0.1187661,0.010244618,0.023005255,0.058622353,-0.007466593,0.025909996,0.04597172,0.07417298,0.049969506,-0.029137371,-0.022582978,0.07582371,0.041293807,0.056303237,-0.08518009,-0.027964575,0.024197638,0.073868476,0.08939092,-0.03918336,-0.040302556,0.0168468,-0.025253318,0.06037186,0.026922178,-0.045991898,0.035553098,-0.015596292,-0.046648305,-0.014191364,-0.015446114,-0.037276197,-0.025333112,-0.038841125,0.016463531,0.048970252,-0.066194564,-0.016726539,-0.079822235,-0.06300844,-0.062963895,-0.040702,-0.06472352,-0.114890024,0.05350514,-0.024690118,-0.04501705,-0.09470283,-0.0066449638,0.030338911,0.038578734,-0.105021685,-0.02409448,-0.02831482,-0.093707465,-0.08998297,-0.11315526,-0.0883919,-0.052433316,-0.07211836,-0.046760045,0.046696365,0.042246036,-0.033064615,-0.071149215,-0.046995915,0.030764803,0.0019887895,-0.081701316,-0.11181779,-0.022568027,0.03685807,-0.04850219,-0.051190868,0.07126211,0.04966839,0.10676729,0.10136812,-0.068221584,-0.040017683,-0.01102148,0.0802512,-0.02341788,0.022337968,-0.026002437,0.073758356,0.0665169,0.020077301,0.009929721,-0.004883493,0.035981573,0.07660626,0.07218437,0.0111396555,-0.05001239,0.06313872,-0.05424888,0.04704499,-0.077759966,-0.03831029,0.019876117,0.0078023756,0.006329466,-0.02624519,0.044144616,0.037230708,0.04666908,0.11259098,0.031652886,0.023743996,-0.029357271,-0.12062917,-0.071996845,0.020268414,0.0061596897,-0.08570923,-0.05732415,-0.11199207,0.041393586,0.07433196,0.03110809,-0.058065597,-0.058048185,0.03867488,-0.017859165,-0.018772673,-0.117642075,-0.052758176,0.08692311,-0.03402652,-0.06187972,-0.13579847,0.012208056,-0.079473905,-0.040653817,0.015412592,0.04502233,0.0055521685,0.013378543,-0.0013243108,-0.00355339,0.06516837,0.004846138,0.0053175497,-0.021229353,-0.057088874,-0.0076786643,0.102930985,-0.06333388,-0.023845524,0.0059290305,-0.0038587586,0.039677143,-0.08796668,-0.067683145,0.005613134,0.078253746,0.05643541,-0.024520714,-0.07786074,-0.009973276,0.04561417,0.04357257,0.05037808,-0.014126035,-0.09867735,-0.02278272,0.027230028,0.06187399,-0.0705808,-0.081726685,0.00072141644,0.0034105524,-0.017029043,-0.020775313,0.046240184,-0.03205322,-0.03462904,-0.023245482,0.036985766,-0.053743623,-0.017572576,0.08883577,0.02068363,0.051808838,0.1271321,0.17093618,0.021669926,0.043989178,0.08522678,-0.0009291907,0.029284203,0.084578045,0.04691203,-0.034119863,-0.004191084,0.0042303605,-0.0068811923,0.039943572,0.015630675,-0.025278028,0.09854646,0.018311514,0.024848774,-0.012436607,-0.049824934,0.05367477,0.02136242,0.03248017,-0.043933015,0.06590769,-0.015800856,-0.014391181,-0.16224828,-0.06533813,-0.09587702,0.108469374,0.10382751,-0.035667606,0.023935461,0.023385374,0.013648474,0.008868285,0.027875071,-0.076738566,-0.019799074,-0.012481135,0.008126,-0.043398377,0.0048544966,0.003007837,-0.0055513107,0.030054385,0.024477093,0.0771604,-0.0015601217,-0.104123235,0.0062187905,-0.079044685,0.032359518,-0.04205074,-0.08647752,-0.019630115,-0.05850185,-0.10525671,-0.045802332,-0.015201949,-0.016493993,-0.027196746,0.028517375,0.06285969,0.0017645144,-0.010903319,0.03512512,-0.013588524,0.07372408,-0.022394264,-0.043652236,-0.006373275,-0.069848835,-0.08070307,-0.023237297,0.03713214,-0.041243304,-0.06645768,-0.11281547,-0.112019144,-0.02783973,0.06540893,-0.037680283,-0.027458565,-0.094874054,0.019854518,0.071568295,-0.02511124,0.1357954,-0.0769509,0.00642191,0.046607703,0.040227506,0.02644699,-0.014793509,-0.08502024,-0.041910894,-0.051378302,0.024776213,-0.046389457,-0.15840189,-0.052402083,0.043354426,0.08348302,-0.009611139,-0.016867775,0.016921123,0.0146360565,0.041560985,-0.054943357,0.007621691,0.0764,0.01427928,0.06902943,-0.06455288,0.02142217,0.014931843,0.011862675,0.0026978834,-0.024241379,0.08769852,0.038117245,-0.04065174,0.06788181,0.035390735,-0.014923762,0.074300304,0.068220295,0.027144639,-0.027762407,-0.08076839,0.034435272,-0.064846896,-0.020374049,0.021716496,-0.00081397465,-0.08421713,0.083690256,-0.00013305832,0.00694638,0.033719808,-0.07653826,-0.084494434,-0.014815162,-0.035709783,-0.045399133,0.007428059,0.0272619,-0.08507273,0.0090012085,-0.07091727,-0.046504144,-0.011297675,-0.05382186,-0.01379597,0.014742498,-0.09609973,-0.0907445,-0.052843638,0.023724526,0.0070210584,-0.051301304,-0.002109901,0.005674541,-0.020017793,0.026817033,-0.014513643,0.025048641,-0.056225017,-0.03410598,-0.049975704,-0.062154274,-0.026923478,0.01155146,-0.0027504335,-0.11179233,-0.12452142,0.006702637,-0.01808675,-0.05306892,-0.061809484,-0.05879931,-0.07084492,0.02221867,-0.01662227,-0.066750735,-0.066967525,-0.042562287,0.025092535,0.05104859,-0.07749352,0.038556974,-0.05208776,-0.06666763,-0.035321772,-0.061037336,0.0061425213,-0.01022962,-0.010249331,0.037882283,0.09743907,0.019280557,0.001957962,-0.085177526,0.0046014716,-0.09672574,-0.03386792,-0.07054282,-0.06906132,-0.11222395,-0.10327359,-0.049532592,0.0018441834,0.038680628,-0.014618189,-0.054391917,-0.060095068,0.06224933,0.03572804,0.12127451,0.11351502,0.014383477,-0.0660274,0.03791191,-0.004092952,-0.099126786,-0.032112,-0.034478884,-0.0941165,0.046651594,0.07040229,-0.00023140442,-0.006493018,0.025529005,0.04329812,0.02684502,0.07754543,0.06957584,-0.04665411,0.037208896,0.0027965899,-0.009200406,0.11254241,-0.015008712,0.054657564,-0.03012886,-0.0055196914,-0.089939386,-0.061675552,-0.040037226,-0.11453483,-0.025297401,0.052607074,-0.03177496,-0.029915364,0.004880758,0.013442075,0.02354736,-0.03818261,-0.07984245,0.028223375,0.044863343,-0.021866187,0.016013965,0.0016219823,0.0014360567,0.017844442,0.01178561,0.002204881,0.09590966,0.05662406,-0.006519634,-0.016426563,0.0382093,-0.030777203,0.035285223,0.062486235,-0.019115733,0.023637265,0.011512521,0.003093123,0.03909928,-0.09179558,0.033263788,0.01146664,0.0008892283,-0.076200604,-0.028672114,-0.0018627626,-0.020375425,-0.049642753,0.027293935,0.035172176,-0.013905362,-0.009342493,0.022952985,0.034020282,-0.035666663,0.03286018,-0.00924903,-0.0057820533,-0.017147828,-0.024212701,0.022615345,0.058169186,-0.016274963,0.08386656,0.060857125,0.0031360858,-0.07617234,-0.024554523,0.011476201,-0.012164382,0.008317804,0.09901532,-0.01245723,-0.020080442,0.011881525,-0.01392644,-0.018355837,-0.01697839,0.014362356,0.018803567,-0.057535157,-0.06707048,-0.06549912,-0.031488117,0.06917167,0.06031491,0.055307567,-0.0361932,0.0039107227,0.018476758,0.015053303,0.071262754,-0.040093515,-0.05356233,-0.019230649,0.036858827,0.04833496,0.08227524,-0.04081304,-0.07686549,0.0017396784,0.066408694,0.06828914,-0.08498558,-0.039402667,-0.005209414,0.09502187,0.04793994,0.020784229,0.046363294,-0.055910204,0.048408646,-4.948207e-05,0.010394358,-0.032179184,-0.005253286,-0.047130533,-0.11257153,-0.09810757,-0.061506238,0.0062491265,0.037057724,0.038842916,0.0016803329,-0.011539987,-0.010107554,0.033881847,-0.035369527,-0.03973315,-0.05082142,-0.012763884,0.061545786,0.043071836,0.061240636,-0.007989836,-0.060977373,0.07647261,0.100675486,0.056872927,-0.022414982,-0.09093496,-0.02840474,-0.09938457,-0.052021325,-0.04605452,-0.07782906,-0.029637517,-0.11341809,0.008166384,0.047444656,-0.056274462,-0.040968515,-0.04545627,-0.02374552,0.022267198,-0.007632348,0.008548616,0.06127428,0.015278614,0.0185619,0.08585065,-0.059950832,-0.06853491,0.027976638,-0.002556976,-0.066490985,0.00043031262,-0.03018704,-0.09968781,-0.005271773,0.076252244,0.10164098,0.014038228,0.02980105,-0.032847565,0.034152966,0.106441,-0.06363717,0.018017156,-0.011692801,0.02019633,0.037835438,0.059529845,-0.029191192,0.0240186,-0.01922277,0.006957801,0.012872559,0.0738584,-0.086912386,-0.048282336,-0.021822652,0.09822061,-0.030854732,0.019118141,0.03123164,0.032129567,-0.0068869325,-0.02128632,0.020511536,-0.050099764,0.009212282,0.038208302,0.029856518,-0.01536932,-0.020241126,0.041830514,-0.042693336,-0.029440256,0.036626134,0.065729395,0.056521747,-0.018226046,0.116088055,-0.011270116,0.035233695,-0.004213656,0.06706511,-0.02658623,-0.0027400635,-0.0920958,-0.06289761,0.051431715,-0.00081141014,0.023488805,0.004142722,-0.020550426,-0.06567337,-0.088791534,0.010239211,-0.01891638,0.023019128,0.054903053,-0.0675614,-0.056611806,0.024027154,-0.05704829,-0.055659436,0.030419504,0.0040495824,0.028997611,0.049033843,-0.016168868,0.016234942,0.04792302,0.053291306,0.05048978,-0.030256605,-0.0513435,-0.014953629,-0.05395873,-0.00371384,0.03035784,0.12757716,-0.025477001,-0.007719661,0.05079433,-0.003923056,0.042909417,0.044912815,0.019990638,0.03888146,-0.016437398,-0.10001486,-0.012271083,0.09367259,0.09613584,0.06273827,-0.08448503,0.012488454,0.050360378,0.01467976,-0.017981479,0.026640305,0.14008541,0.13810709,0.044323344,-0.11345656,-0.03522503,0.018888222,-0.039144833,0.02137803,-0.09644044,-0.0092579145,0.0066149603,0.030707603,0.020104595,0.054825395,-0.048328396,0.036978252,-0.011097596,0.045362063,0.06292548,0.010032326,0.022212638,0.04189351,-0.008966469,0.0850903,0.07067712,0.054125037,0.07492944,0.14834012,0.19793193,0.19170195,0.053847443,-0.006239762,-0.004309458,0.043750208,0.008327099,0.033505,0.020596795,0.017820874,0.016868507,0.024016498,-0.082068756,-0.019573059,0.029093504,0.0057736607,-0.029835576,0.023650011,-0.037536696,0.025746644,-0.008715746,-0.058814093,-0.036031123,-0.08745355,-0.035083055,-0.07328201,0.04597293,0.0540468,-0.008559676,-0.039254915,-0.04650251,0.04709242,-0.012920507,-0.02264352,-0.00057017914,0.08285439,0.05348833,0.015791899,0.0007570126,0.07452225,0.016184248,-0.010044388,0.00613047,-0.018314976,-0.0027660187,0.07156114,-0.021092122,-0.054998446,-0.03710564,0.0010769172,0.02061962,0.072031155,-0.04285704,-0.016519569,-0.020279288,0.055335302,0.09018517,-0.045634598,0.030768592,-0.013740744,-0.023035081,-0.062771805,-0.02334086,-0.06643445,0.017851293,-0.0448094,-0.07668752,0.019176513,-0.027769847,-0.03608267,0.026123093,0.037081443,-0.059742816,-0.10172056,-0.21319541,-0.20763972,-0.12306069,-0.01844029,-0.018190825,-0.021079428,0.049199957,-0.03858765,-0.022572806,0.062277667,0.039830446,0.013905273,0.032673087,-0.04301534,-0.020778136,-0.0021723139,0.04605248,-0.12650247,-0.067919426,0.020036796,-0.01438562,0.049006317,-0.11712492,0.116994165,-0.006846957,-0.06511128,-0.12500033,-0.07943222,0.018746467,0.026521051,-0.033443272,-0.10257002,-0.1487318,0.029608373,0.019394057,-0.013943703,-0.014017453,-0.07489823,-0.06733692,-0.03918639,0.040128805,0.03567839,0.06287152,-0.05135331,0.027688045,-0.060009167,-0.076184794,-0.0022670324,0.018828133,0.010774199,-0.040229667,0.06500018,0.103763185,-0.044706598,-0.0003944107,-0.026687492,-0.009562273,0.10186719,-0.051233806,-0.020298064,0.06551295,0.08624149,0.037757922,0.0009525763,-0.05690326,0.039798096,0.046171512,0.07405432,-0.035858326,-0.046715807,-0.015576725,0.0579956,0.08368902,0.09243091,0.035971846,0.033343498,0.035898726,-0.025912853,-0.031750947,-0.017991157,-0.011500103,-0.026196178,-0.034903795,0.032389145,0.05580767,0.04423488,0.013641779,0.04109111,-0.016538255,0.011023284,-0.0027327363,0.037348565,-0.014299754,0.015663391,-0.01594206,-0.025762526,-0.02916081,0.015193835,0.09710767,0.10981069,0.002440959,-0.060465742,0.08958122,0.0016814052,0.012903303,0.045251083,0.00441616,0.012453571,-0.022502186,-0.07956849,-0.097927526,-0.028034046,-0.031496823,0.016350579,0.042197462,-0.07867546,0.07323848,-0.015378853,-0.008807339,-0.03706019,0.062499817,0.07690266,0.084206924,0.05489831,-0.016891759,0.12838626,0.051303145,0.14029795,0.0006704995,0.03933785,-0.016747711,-0.0023661135,0.011709622,-0.045887064,0.03497797,0.02103303,-0.013349354,-0.02938779,-0.08969294,-0.06672165,-0.0684184,0.056484118,0.022622304,0.008319603,-0.035217483,0.020190733,-0.041940022,0.052408073,0.004323873,0.029410897,0.0016214403,0.014154287,0.02276422,0.001314965,-0.06009598,-0.07049702,0.035898898,-0.02029484,0.03161678,0.019079823,0.039973397,0.033829387,0.019574447,-0.007495135,0.041691933,0.006998354,0.056223445,0.036089025,0.005734768,-0.020401405,0.054462004,0.020104958,0.079938255,0.04224751,0.16857575,0.07954248,-0.016163398,0.04043474,0.0051738573,-0.01594008,-0.016493684,0.037669152,0.024427515,0.009015687,-0.026835784,0.019145185,0.0008646158,0.037657425,0.01647196,-0.028368972,0.07442253,0.07000461,-0.005820595,-0.057964742,-0.08240485,-0.029301254,-0.0027958318,-0.009186603,0.070357606,0.049181156,-0.05062754,-0.15802541,-0.10089718,0.0030845448,-0.017864803,0.03454081,0.014614255,-0.00651215,-0.022741018,-0.068098836,-0.018436093,-0.011943098,-0.022460325,-0.01762983,0.006142467,-0.008597619,0.1131927,0.141767,0.011025732,0.059116594,-0.05584446,0.04177495,-0.031135,-0.021157296,-0.048418667,-0.06694113,-0.010113497,-0.110124774,-0.06491196,0.010119052,-0.026119376,0.007815235,0.033235636,0.04513443,0.078648895,0.05543466,-0.007890528,0.019252062,-0.06433521,-0.009312403,-0.065924756,-0.03597594,-0.06648953,0.039653003,-0.090540305,-0.044301566,-0.05485152,-0.10456726,0.005089406,-0.021185825,-0.005385219,-0.09381353,-0.17600963,0.008542296,-0.09200063,-0.06941956,-0.0755125,0.027414652,-0.048176527,-0.15004669,0.036776524,-0.06638734,-0.06789591,0.0060295505,-0.01584967,0.085259594,-0.10030504,-0.05357618,0.028885009,-0.0058284877,0.0070025763,-0.08060976,-0.007827678,-0.052445132,-0.011731176,0.05107391,0.016882753,0.087762564,0.064507924,-0.0020416733,-0.037569765,-0.03294934,-0.1835685,-0.013545174,0.006524811,0.09330374,-0.006430096,-0.122262724,-0.027982522,0.046395354,0.04561909,-0.0005335283,-0.06312118,-0.015208565,0.07420111,-0.0015527271,-0.053090964,-0.15965317,0.017658252,0.0075498447,-0.055083536,-0.06754157,-0.0051778406,0.0092658885,-0.025959717,-0.083536856,-0.0022993085,-0.0151315145,0.0066924635,0.10935558,0.038255624,0.019608717,-0.032025114,0.0723787,0.042497654,0.0522146,0.02951766,0.0018568987,-0.054055657,-0.07245516,0.024497977,0.073615976,0.058880072,0.046878252,0.019846344,0.100246884,0.02736911,0.09543099,0.0512129,-0.030380793,-0.016423156,0.022824876,0.015622602,-0.016277941,0.037382763,-0.021477513,0.0043712924,-0.02618795,-0.053512894,-0.024351917,-0.040832695,-0.037156966,-0.12017388,-0.017441979,0.027013633,-0.011862156,-0.069817685,-0.11457544,0.07196868,-0.01896814,0.0056095845,-0.044450182,-0.07834122,-0.072726704,0.022762576,0.02345186,0.074619316,0.066195704,-0.04611357,0.0104277395,0.053335655,0.0985866,-0.02871156,-0.008978138,-0.034219783,-0.011515067,0.057683706,-0.03592391,0.061706662,-0.043435033,-0.061698087,-0.028277656,0.0037766828,0.06109874,0.029987866,0.010839276,-0.048159294,-0.026217777,-0.012754764,-0.0687878,-0.043223772,0.04719844,0.03211643,-0.10446652,-0.035318572,-0.008118195,0.044978805,-0.00082675053,0.009649372,-0.0073808655,-0.080270894,-0.039210316,-0.03662847,0.00012392111,-0.06134309,-0.05655406,-0.001131643,-0.016531631,-0.039315477,-0.047877964,-0.110239476,0.013447168,0.0024977478,0.045169637,0.08442564,0.011493873,-0.01646415,-0.0899322,0.021813143,0.0066363374,0.039951917,-0.017880654,-0.07566596,-0.09834551,0.018976718,0.02150532,0.112817645,-0.052178282,-0.02263919,0.011225709,-0.045343496,-0.008413908,-0.11598081,0.04943114,0.03882586,-0.081846766,-0.07279447,-0.05301756,-0.009021794,0.0052234167,0.023734074,-0.17300878,-0.04442897,-0.039053936,-0.017427213,0.052778192,-0.005469288,-0.0955303,-0.045100752,0.004331119,0.030874165,0.0063558826,-0.003376214,-0.08165156,-0.068502225,-0.11035341,-0.040760886,-0.024989046,-0.01884444,0.02165069,-0.012620869,0.08416926,0.046061333,0.0037989644,0.045513023,0.025830775,-0.012371911,0.05726844,-0.03353508,0.035389546,0.04598325,0.047952995,-0.022831991,-0.053942043,-0.079930976,0.012050945,0.11719385,0.071706094,-0.030153114,0.04439178,0.06384782,-0.011414953,-0.0125750005,-0.05066483,0.013186281,0.068430595,0.049167268,0.0018400449,0.053082522,-0.004139879,0.10015523,-0.02738546,-0.044777073,-0.030645855,-0.071882896,-0.05834676,0.053816255,-0.0019766476,-0.1055929,-0.033027142,0.06749242,0.0010202916,-0.008850394,-0.07176524,-0.043498173,-0.024953982,0.069156006,-0.0558252,0.016335627,0.041555777,-0.039945297,-0.09547401,0.13763063,0.052039493,0.10806443,0.07657579,0.007618953,0.024906883,0.057273176,0.05208628,0.0025556972,-0.038708862,-0.030549629,0.04224156,-0.019470097,0.0023571597,0.09468623,0.07538204,-0.022236688,-0.06830975,-0.06370198,0.012907281,0.05727344,-0.008241427,-0.013583288,0.05539171,-0.012348669,-0.0038701983,0.018821286,-0.02599305,0.035129484,0.10369261,0.029496016,-0.07194955,0.02174534,-0.031407304,-0.022656046,-0.038217817,-0.022574067,0.014090355,-0.07335856,-0.060096934,0.009784529,-0.053677805,-0.061161626,-0.07938007,0.0146977715,0.026385805,0.009932875,-0.039157726,-0.030354084,0.027650356,0.075656615,0.09974949,-0.09276762,-0.06184349,0.013308499,-0.0013929984,-0.07668676,-0.15640326,0.03952436,0.032724638,0.033028413,-0.051785577,-0.06684048,0.059897553,0.013795764,0.09953535,-0.025208035,-0.0152389,0.06783102,0.019181672,-0.051796764,-0.05173686,-0.005558689,0.036642745,0.007148834,0.06070353,0.0027047142,0.051614158,0.042369485,0.045870863,-0.017021716,0.033167936,0.010408379,0.030925702,0.0869833,0.0023902433,-0.04531714,-0.005281648,0.0801291,0.063322216,0.0009859384,0.063410506,-0.008775229,-0.044758342,-0.049492206,-0.07924575,0.051532783,-0.031781122,0.022356356,-0.03511683,-0.020891787,-0.026889877,0.05419817,-0.029214099,0.08698411,0.0729503,-0.0662408,-0.07794736,0.011233773,0.033366248,0.06117046,-0.013856178,0.00026676222,-0.0324107,0.039333217,0.0041575,0.009240575,0.03118546,-0.009769433,-0.050055057,0.028851883,-0.013598524,-0.0058462876,-0.032377213,-0.013702801,-0.06532387,-0.10699737,-0.056826387,0.03847809,0.1199534,0.007771508,-0.09100241,-0.028967239,0.053889602,0.06677777,0.10437935,-0.05368335,0.012220151,0.058740225,0.085888594,0.00038578222,-0.024731318,-0.044810306,0.02641929,0.049140316,0.020387564,0.01471077,-0.02388154,0.0054267547,-0.0013474178,-0.016266886,0.030484777,0.084397316,0.07727255,-0.024211938,-0.087217346,0.028110534,-0.00075448805,0.067760155,-0.056848247,-0.085909605,0.07959239,-0.03432532,0.11379263,-0.041402895,0.012188398,0.031846907,0.05021785,0.13192382,-0.01547495,0.03301621,-0.00783581,0.0640829,-0.0022401751,-0.026253786,-0.01719979,-0.026355835,-0.037663445,-0.053594455,-0.032449555,-0.04835931,-0.008599814,-0.042584144,-0.018173328,-0.103448845,0.03578193,-0.03803594,-0.055384584,-0.03895453,0.035151225,0.023281367,-0.020918304,-0.033742204,-0.031291444,-0.055765867,1.7850296e-05,0.054167066,-0.007378681,-0.026193291,0.016214848,0.09519708,0.038815856,-0.0016159967,0.04460809,0.0645463,-0.0052755047,0.009810075,0.016916314,-0.015817197,0.0059764488,-0.05221196,0.01845739,0.008231799,0.09817263,0.010304993,0.05019281,-0.006438886,-0.0069970707,0.09030347,0.021393958,-0.00965672,-0.056170966,-0.011522286,-0.030370273,-0.0360878,-0.019772692,-0.057324875,0.041124657,0.015743798,-0.012845944,-0.00836104,-0.08562671,0.008047917,0.009670798,0.01925721,0.10436045,-0.023291944,0.011244832,-0.08030561,-0.046890557,0.08600589,0.03323756,0.06615001,0.012568699,0.07280716,0.11722415,0.009277568,0.032626607,0.04202925,-0.016233308,-0.035024133,-0.04654858,0.015063297,0.072057284,0.06845461,0.051073395,-0.058321584,-0.019913604,0.013706689,0.05016725,0.019688556,-0.042463496,0.034120657,0.08529502,0.08525459,-0.01035593,0.03063546,0.045396637,-0.061503,0.06066535,-0.038250867,-0.063739575,-0.051331554,0.03439534,0.05764715,0.00447862,-0.097946845,-0.07287555,-0.09296703,-0.045506503,-0.054499064,0.024613615,-0.02916175,0.009425758,-0.042533256,0.020299567,0.039372467,0.03485721,0.046596877,0.032957517,0.012014561,0.008601918,0.03210218,0.05291994,0.07731441,-0.033956982,0.0075617568,0.008262215,0.057746287,0.08100564,-0.019323712,-0.002414814,0.05060833,-0.013796877,-0.029173957,-0.089150585,-0.008402712,0.0671064,-0.004964008,-0.08909393,-0.022332968,-0.019581828,0.011217061,-0.07537202,-0.025464093,-0.052485667,-0.016035203,0.012563988,-0.092244476,-0.059756637,-0.0249971,0.005530909,-0.04180705,0.031833403,0.0503064,0.0011787679,0.0060360925,0.11069175,0.10530059,0.054509215,0.035510432,0.05211578,0.018761793,0.043479763,-0.016950766,0.02890222,-0.05203194,-0.07100338,0.037681308,-0.0027615083,0.006615118,0.033912648,0.033014465,-0.013218869,0.03470617,0.011812316,0.08603649,0.0007874004,-0.057677876,0.043261763,-0.0038629298,-0.048984803,-0.03444552,0.024299927,-0.027647763,-0.03312468,0.021697689,0.046378087,-0.06921602,-0.049637992,-0.034536432,0.048124697,-0.02527092,-0.02837352,-0.058402147,0.008320395,-0.020167131,0.02045911,0.0019606329,-0.04262321,0.007872178,0.049213074,-0.053511158,0.042680603,-0.03658816,0.028370557,-0.025978213,-0.020294331,-0.08588803,-0.023748837,-0.12704,0.04012558,-0.13560377,-0.06358661,-0.17322183,-0.14620502,-0.07482524,-0.09495982,-0.10022954,-0.010734161,-0.022985423,-0.007852036,-0.12887475,-0.032762054,-0.038006276,0.036562633,0.008108741,0.02219922,0.018689487,0.012621368,0.02701755,0.037428834,0.10014431,0.018038543,0.0614013,0.094198935,-0.006267123,0.051768813,0.006222832,0.07581172,0.022348871,0.002272962,0.004068269,-0.011954358,0.052216362,-0.08869962,0.06838954,0.01759178,0.062221732,0.045547955,0.013540233,0.070827834,0.038201753,0.0107084615,0.00067518593,0.07326827,-0.1330092,-0.025815945,-0.041292462,0.021344498,-0.02065221,-0.049905214,-0.07973313,0.038081832,0.0407568,0.032110542,0.040747706,-0.022214238,-0.021588705,0.07112888,0.09144694,-0.0007308371,0.010954592,-0.10089054,-0.05794316,0.021013262,0.011340056,0.015488133,-0.029691178,-0.009391375,-0.01990335,0.104656816,-0.08428995,-0.15137425,-0.10013696,-0.071696386,0.07573268,0.05491019,0.0308376,-0.14912288,-0.06674685,-0.0050230636,0.08434527,0.0053396216,0.02735486,0.028666763,0.08658005,0.08032402,0.058833055,0.018341986,0.052016452,0.025960555,-0.024055975,0.04789689,0.07759334,0.059011586,-0.057530526,-0.124132775,-0.06144226,0.03263689,-0.026313292,-0.07814717,0.035549384,0.048303626,0.053353097,0.02555382,-0.037911966,-0.05732584,0.08115301,0.06598375,0.03747306,-0.081307456,-0.0080804285,0.0010804497,-0.034382313,0.044554222,0.048092186,0.0046264925,-0.009704315,0.055945545,-0.01656389,-0.013620225,-0.043041684,-0.060539607,0.030016406,0.09422727,-0.116691135,-0.08282782,-0.06424865,0.05660901,-0.05641104,0.0015046487,-0.07153978,-0.0052502328,0.11186511,-0.024606278,-0.0013886692,-0.034206912,0.008271556,-0.0068541104,-0.023285214,-0.061897557,-0.060307793,-0.06983721,0.018254833,0.03229094,-0.016690113,-0.018009882,-0.07590014,0.02040113,-0.005551887,-0.0011341231,-0.08304646,-0.048934855,-0.016213704,-0.029570285,-0.057772342,0.011395603,0.03390271,0.042851444,0.023455223,-0.038636047,0.008448522,-0.03170875,-0.04904274,-0.0069839335,0.060541254,0.011484822,-0.041334566,-0.02794945,0.0019728644,0.049603645,0.027240044,-0.028929036,-0.032674097,0.04033798,0.013104629,-0.037775926,0.0006590126,-0.10328454,-0.017021084,-0.017297124,-0.03645001,0.030919248,0.023219382,0.053946946,0.030482553,-0.039928127,0.027218541,-0.038540296,0.055090368,0.07104574,0.03404029,0.13028301,0.11778618,0.112464555,-0.07051975,-0.02292227,-0.02821981,0.033853464,-0.03794855,0.051862672,-0.040511448,-0.014943196,-0.057176895,-0.1431028,-0.068079405,-0.067540295,-0.04980203,-0.01676246,-0.005258452,-0.024501745,0.022675253,0.07445952,-0.044685632,-0.062731266,0.026299268,0.011981923,-0.037381623,0.009072316,0.0061358423,0.03992194,0.0034342175,0.038327456,0.020141724,0.011038042,-0.00061248237,0.09541834,0.0603683,0.103436604,0.0025289252,0.06845246,0.05828936,-0.014470245,0.040020954,0.032859907,0.07284445,0.005313738,0.023572598,0.045823842,0.015564689,-0.025640838,0.065783426,0.08800957,0.081528075,0.0042359848,-0.057546515,-0.14118414,-0.05201694,-0.103617124,-0.062798545,-0.054747134,-0.021979531,0.0014013377,-0.06514617,0.043323513,-0.008205671,-0.034793396,0.010339001,-0.045992546,-0.032714184,0.0463255,-0.0142554315,-0.01679642,-0.0026962971,-0.029544245,-0.028918454,-0.015902406,-0.013878661,0.03011748,-0.030879304,0.016604988,-0.1411062,-0.06835309,0.042050045,0.023998939,-0.08525028,-0.03748632,0.009769452,0.0249067,-0.007590782,-0.031553034,0.030680614,-0.0050755143,0.002149929,-0.011636911,-0.028811257,-0.0031488482,-0.050791644,0.015377295,0.07378707,0.013926761,0.031438727,0.030513598,0.0060400916,-0.033057634,-0.10971669,-0.11649894,-0.05314295,0.023912705,-0.10420734,-0.009319433,-0.09508261,0.004386889,0.04886694,0.031534668,-0.1611153,-0.1736507,0.011307908,0.018563392,-0.0018878077,-0.12447196,-0.064895734,0.030888446,-0.041373268,0.017693397,0.0035921233,-0.082023405,0.02686513,-0.019069407,-0.010503925,-0.023800584,0.06519451,-0.017463919,0.015081088,-0.070586905,0.034899674,-0.023604782,-0.052590925,-0.07098862,-0.08585425,-0.004451035,-0.027358051,-0.034140505,0.050332375,-0.020852167,0.0054098237,-0.020778265,-0.047518577,-0.029733948,-0.015179627,0.025015354,-0.049077224,-0.13773099,0.044696413,0.03692262,-0.0043021934,0.10344596,0.097755134,0.032231912,-0.06283235,0.029341228,0.05810086,0.012585892,0.031130543,0.0030526258,-0.011941718,-0.04444496,-0.020729365,-0.012812259,0.019731868,-0.035886776,-0.019432267,0.017513538,-0.001213531,-0.028139759,0.05138158,-0.03451581,0.049719907,-0.013854657,0.026703378,0.039657686,-0.034208193,-0.038635843,-0.047511395,0.06202417,0.030093795,-0.08693146,-0.0019257775,0.012148212,0.00025502115,-0.07545669,0.013070041,0.03359293,0.012932552,0.050545193,-0.025030287,-0.022570858,-0.01051534,-0.009919037,0.0026153566,-0.084981754,-0.04018638,0.040101055,-0.052088846,-0.09288626,0.047939282,0.07390647,0.12839125,0.045420356,0.0646523,-0.03970821,0.091691695,-0.037545625,-0.022359345,0.019024907,-0.030011926,-0.092407785,-0.07207502,-0.09734805,-0.07335645,-0.031189047,-0.010666534,-0.014593822,-0.040686004,0.036362655,-0.031696457,0.029237539,-0.12201538,-0.11513149,-0.06261654,-0.04208645,-0.031968325,0.05424029,0.044248663,-0.010214392,0.034330815,0.036834337,0.021817748,0.034050353,0.031245146,-0.05207075,0.0072866613,0.055228245,0.023018843,0.033842687,-0.07490316,-0.16487297,-0.06582513,0.03602767,0.02130774,0.05278151,-0.060420524,-0.014445948,-0.043712847,-0.036239527,-0.05809266,-0.06724495,-0.09815401,-0.02140913,0.026083855,-0.07350614,-0.027101526,-0.14475562,-0.037283514,-0.04577131,-0.053636957,0.038980313,0.027218234,-0.063683935,0.037449524,0.016304899,0.0385246,0.08529528,-0.031111695,-0.04045754,0.054434747,0.009272149,-0.022281466,0.03732407,-0.047179993,0.08313615,0.011328319,-0.018469118,-0.03295519,-0.013287503,0.025042258,-0.0058269515,-0.0089293,-0.01495524,0.018982934,0.10106223,-0.017487682,0.008438554,-0.012512113,0.04685254,0.10804067,0.06784806,0.049548257,-0.01807905,-0.03182957,-0.028873064,0.059794,0.0032133572,-0.10976489,-0.01971321,-0.12803167,-0.041309185,-0.082156226,0.025455287,-0.0064808507,0.04751109,-0.05957015,0.02386012,0.054306474,-0.04809921,-0.07421882,0.047093507,0.02806306,0.027087223,0.04762269,-0.056623723,-0.047878228,-0.09355488,-0.089331426,-0.005319179,0.04176638,-0.09679178,-0.13320793,-0.05971789,0.02081806,-0.0034613858,0.042063743,-0.007068701,-0.09652311,-0.0032511114,0.059480876,-0.004239488,0.029957416,-0.042095844,-0.024899956,-0.012032871,0.030533701,0.03648906,-0.0060979165,-0.067019574,0.050353564,0.02643265,0.047440797,0.093720324,0.005039647,-0.09178921,-0.13250954,-0.04507338,0.015603079,0.05190529,0.0057931887,0.011728449,0.03716695,0.03587376,-0.06467454,-0.011548012,-0.0049737645,0.00853934,0.005558669,-0.024528693,0.049312133,-0.027178813,-0.028141724,-0.057223003,-0.012273033,-0.008161095,-0.025697328,-0.13797212,-0.022981033,0.043931846,-0.02490804,-0.012396707,0.034570664,0.07693505,0.03805671,0.032220095,0.026967974,0.009416933,0.023180325,0.0015699044,0.0072834617,-0.019279692,0.025383795,-0.035206456,0.013689883,-0.020073103,-0.07545362,-0.0034240738,0.086911455,0.017990338,0.049587544,-0.05258579,0.034465335,0.047687497,0.023647824,0.039148618,-0.09860116,0.07302029,0.051608924,-0.024728961,0.020437213,0.02082831,0.034298413,0.026329124,0.06966361,0.01125514,0.030544586,0.0075577074,-0.047926933,0.012860487,0.053983063,0.04160508,-0.038464148,0.036406964,0.009485586,0.0061954563,-0.05172875,-0.08124518,0.13835408,0.07362205,-0.014161439,0.0023357123,0.022967026,-0.028671766,-0.11660567,0.01587836,-0.055443175,0.027687106,0.07386349,-0.048680525,-0.005897701,-0.01474765,0.067746,0.07796945,0.002409085,0.033557907,0.009526065,-0.050180603,0.03262948,-0.015621924,0.0026739526,-0.08738517,-0.040027156,0.0162445,-0.015657736,0.11731899,0.071258344,0.08924357,0.13221428,0.075448,0.022381993,0.096226156,0.091227464,0.076643474,-0.015235022,-0.027489174,-0.04089532,-0.049868673,-0.02869933,0.007742677,-0.017675593,-0.032294333,-0.031553026,0.054720543,0.071712114,0.023334216,0.021238493,-0.017662607,0.064690776,-0.022685036,0.004047278,-0.004206937,0.050615482,0.046814196,0.052085564,-0.011475935,-0.0013296686,0.07547707,0.09612494,0.07824039,0.0025271617,-0.032931987,0.021126993,0.019085642,-0.057803154,-0.052519143,-0.022562472,0.080950506,0.054021887,0.029856108,0.0013233642,-0.00422704,-0.18442476,0.00062028505,0.011346191,-0.01830063,0.037163418,-0.038085703,0.090133764,0.110282786,0.059317738,0.022072358,0.0072310707,0.053478725,0.07712096,0.07111266,0.05290647,0.030983508,0.07086575,0.02401788,0.060746897,0.029446393,-0.052452385,0.04454162,0.025117554,-0.051627725,0.060567867,0.011697231,-0.09792687,-0.07660854,-0.14115033,-0.18099453,-0.15721467,-0.10176942,-0.091484055,-0.013990958,0.011604616,-0.03441847,-0.010467035,-0.07753701,0.003837983,-0.03588799,-0.06277487,-0.06763196,0.0008994929,0.046939924,-0.03689197,-0.06980831,0.059780497,0.008945884,0.01484981,-0.028078143,0.0141261425,0.062722914,0.12559336,0.095501184,-0.064357325,-0.06357376,-0.07442239,-0.016070124,-0.025554039,0.054926716,0.013771024,-0.019681888,0.09765423,0.008975305,-0.028805802,0.0144029325,0.053137813,0.024876647,0.030890021,-0.10347125,-0.032195356,0.057103697,0.13258567,-0.021838903,-0.03878001,-0.06451553,-0.046858404,-0.024049977,0.055957027,0.049916707,0.07713288,0.09589189,0.039967712,0.0111292945,0.04014206,0.006036034,-0.078157105,-0.04525604,0.008006126,0.036631748,-0.011858783,0.036304746,0.0125619,0.05172351,-0.0200514,-0.04068701,-0.052177057,-0.07086971,-0.040506113,-0.056077015,0.0070831985,0.052480374,-0.031776756,0.0068000425,0.020666467,-0.01967678,0.06372391,-0.03841636,-0.0680174,-0.082157135,-0.06820252,-0.10774129,-0.11171713,-0.08127894,-0.027792063,-0.046522986,0.008994669,-0.06785987,-0.03935845,0.02722856,0.035673667,-0.04788,-0.008568586,-0.03467982,-0.053128764,0.024423467,-0.010992496,-0.0412496,-0.011238373,0.03207002,-0.14285788,-0.097008005,-0.1557047,0.04997463,0.016739089,0.0070021222,0.04129434,0.04118506,0.0017735886,-0.040253207,-0.014584889,0.049422815,0.024079625,-0.059101984,0.058852255,0.105985805,0.030439083,0.033596616,0.011590685,0.097260766,0.08156434,0.012111048,-0.10156224,-0.0024261714,-0.052535303,0.070029095,0.013974549,0.057272963,0.055982653,0.009012244,0.019360194,0.030215368,-0.118101746,0.026457978,0.04042407,0.0013550628,0.09161164,0.026422981,0.0014697515,-0.056118555,0.026163284,0.046008997,0.05285171,-0.028302813,0.0224778,-0.09475261,-0.07679008,-0.019292181,0.0069425716,0.02092225,0.032872923,0.004480125,0.07950617,-0.08803654,-0.097819686,-0.009949757,-0.090946615,0.08252204,-0.034320828,-0.02005288,0.0027180389,0.02028249,0.02683718,0.06070928,0.011460725,0.01769639,-0.03350456,0.022089675,-0.013068635,-0.06863368,0.030518256,-0.015667232,0.03884334,0.099397644,0.060751904,-0.01709132,-0.12133102,-0.11064624,-0.018613331,-0.056561,-0.039742906,-0.07794748,-0.014723096,0.016399212,0.006549353,-0.03213828,0.0037118315,0.056424376,0.068259075,0.06626553,-0.037838712,0.008984607,0.053854775,-0.017447997,-0.018160298,-0.03955599,-0.009083555,0.0017676399,0.026336435,-0.07950068,-0.093058266,-0.09339268,-0.12069712,-0.14094025,0.03229208,0.06314109,0.047994547,0.06175053,-0.14548959,-0.086085744,0.0028352425,-0.07936121,-0.017379284,-0.055576984,-0.0064211376,0.0007419896,0.06757516,0.06492276,-0.08965722,-0.024641104,0.017269673,0.014776764,-0.011427338,-0.008289042,-0.006063406,0.04833856,-0.029187558,-0.028813088,-0.12883076,-0.050309617,0.075128846,0.080269255,0.14532274,-0.09855193,-0.0012344052,0.042079587,0.022699602,0.12564011,0.027138434,0.100593515,0.016018687,-0.030119114,-0.02622901,0.01218031,0.0346684,0.025923373,0.069289915,0.008879497,-0.008417174,-0.023181278,-0.022936588,-0.007293172,-0.054592527,0.07399753,0.038518563,0.046743285,-0.04190947,-0.022789799,-0.021961194,0.124765545,-0.0023575556,-0.012054664,-0.09757069,0.0071291192,0.05236232,0.012773299,0.0804719,-0.044828847,0.02781495,0.008055633,0.06494466,0.02836121,0.02175627,0.022775589,0.01038919,-0.042141005,-0.11723891,-0.13426477,-0.06755609,-0.010105878,-0.056056388,-0.06046443,-0.011147925,0.014017481,0.025447361,-0.020517183,0.059324242,0.021825425,0.07630905,-0.033550836,0.021080725,0.018207328,0.07153535,0.014474616,-0.03589357,-0.021519015,0.074111,0.10427487,-0.012033579,0.0417041,0.010258766,0.00776422,0.09806907,-0.011451039,0.02160638,-0.006852947,-0.08601242,-0.06558878,0.067005046,-0.07344906,0.05161027,-0.09004769,-0.032952886,0.06450577,-0.05219729,-0.002575757,0.0024154568,0.06657396,0.07780641,-0.02563002,-0.06281096,0.021874193,0.061029326,-0.01947123,-0.09912165,0.0011933484,-0.06182366,-0.03702031,-0.06413191,-0.057941496,0.039172966,0.007349971,0.053136285,-0.012580872,0.0123718055,-0.031007716,-0.006664714,0.021724476,-0.039897185,0.0030049414,-0.035118032,0.029520849,0.007823035,-0.033801418,-0.07152484,0.034329336,0.044593733,0.06769604,0.07925279,0.023529738,0.018511107,0.050317552,-0.010347033,-0.04935299,-0.034534775,-0.037851732,0.09903743,0.13395487,-0.055454083,-0.11636937,-0.020120252,0.016437532,-0.06522205,-0.05177606,0.03367338,-0.014243318,-0.05521664,-0.026772302,-0.0035849395,-0.02890415,-0.010424646,-0.064339854,-0.033597,0.012968023,-0.027813062,0.029749194,0.04008568,0.007037381,0.010935705,0.040842555,-0.039096776,0.043560173,-0.034986462,-0.021558529,0.0016466108,0.090678595,-0.07072826,0.059379615,-0.084862225,-0.06439258,-0.07707892,-0.08592558,-0.055557374,-0.05842496,0.02708037,0.047394577,-0.0014041039,-0.05366809,0.011807463,0.033267725,0.05835008,0.0065891887,-0.1123881,-0.085736714,0.014927879,-0.012677909,0.06636308,-0.0214405,0.09148734,0.019773467,0.04385598,-0.119286425,-0.04597839,0.10295699,0.08025715,-0.07479883,-0.081307575,0.06306354,0.017937038,-0.02637078,0.0053125923,0.016877487,0.032894824,-0.0060941754,-0.0035060162,0.09989405,-0.042382378,0.03475067,0.016795672,0.072154604,-0.0040676165,-0.11382956,-0.09552274,-0.029616466,0.023124019,-0.004008873,0.051606752,0.043334723,-0.043078106,0.04393331,-0.010768016,0.036190193,-0.052086346,-0.031462215,0.028653122,-0.039660938,-0.04189069,0.028386647,-0.0625564,-0.06613776,-0.054129742,-0.054444876,-0.012264955,0.009717396,-0.01803853,0.0050081513,0.047449358,0.017542316,0.020308523,0.012935941,-0.02127748,0.023044229,-0.061589167,0.10638963,0.019646073,0.03653337,-0.036948126,0.008640294,0.008004519,-0.04291073,-0.052756544,-0.07027378,-0.08941569,0.0054788045,-0.05687147,-0.005124376,0.0014215424,0.048127644,-0.043173827,-0.017150177,-0.05560683,-0.013529165,-0.010605479,-0.07658124,-0.019313607,-0.0006802142,-0.045605987,-0.014437637,-0.0029122508,-0.05402178,-0.015425438,0.03606441,0.04192717,0.020052789,-0.01857842,-0.06892395,-0.043879967,-0.00085743156,-0.059784867,0.0027664616,0.0013149712,0.020998938,-0.066734284,0.073570736,0.02578448,0.0390423,-0.05054802,-0.057730976,-0.032887552,-0.08353578,-0.044459336,-0.07358053,-0.12818821,-0.08414403,-0.087120004,-0.010264289,0.008336985,-0.03507739,-0.08801401,-0.010179927,0.05175986,0.091371275,0.006861524,-0.10104047,-0.11950065,0.062967375,0.0053365123,0.15169878,0.0066207424,-0.059393294,0.07841071,-0.009516844,0.03561328,-0.044297528,-0.0110122375,0.054740828,0.026795916,0.019788574,0.07227272,0.049110252,-0.007300481,0.047616597,0.096620165,-0.018257456,-0.0722842,0.020024868,-0.09010685,-0.07675963,0.06441752,0.01546259,-0.108818874,-0.12716572,-0.15008563,-0.06886477,-0.08653987,-0.110337645,-0.051517762,-0.055700958,0.0334996,-0.0085898135,-0.045607038,-0.00077039,-0.0798692,0.010712077,0.07436049,-0.0645834,0.035693992,0.010998607,-0.025790004,-0.04937215,0.042871717,0.025760291,-0.02384426,-0.08539616,-0.011841693,-0.031038279,0.11368384,0.07365504,-0.10055635,-0.03413161,-0.00980304,0.056844205,-0.021171227,-0.09115266,-0.09114647,0.008711806,0.068391725,-0.038251933,-0.06052978,-0.040227886,0.054058265,-0.0056766835,0.062196188,0.022963222,-0.039380528,-0.050000068,0.018577013,0.016016176,-0.046162985,0.0004830546,-0.018848373,-0.024230588,-0.04232006,-0.097983144,-0.04078346,0.004994364,0.05917139,-0.019213527,-0.07998825,0.022845192,-0.011996442,-0.0027899176,0.052307006,0.003642861,0.03472853,0.057782825,0.041274257,0.03569687,-0.061755016,-0.12939085,-0.0018639986,0.042288095,0.09715731,-0.050352138,-0.036854062,0.009728265,0.05129545,-0.040553838,-0.016645785,0.045238495,0.08602811,0.06853274,0.09655127,0.013296694,-0.04261478,-0.077622555,-0.008762875,0.110623345,0.012683777,0.082386926,0.03022995,0.09575266,0.077939175,0.021614335,0.1033889,-0.013258797,0.057761945,-0.05062381,-0.07905012,0.0006544889,-0.021145118,0.008264857,0.0021164252,0.099095605,0.043922298,0.1457983,-0.00704628,0.022240927,0.05214059,0.1520271,0.0008219578,0.0025629585,-0.09037773,-0.04109088,0.012853247,0.024976399,-0.043427084,0.045062512,-0.08791341,-0.030823486,0.07024656,0.019987093,7.226363e-05,-0.007042055,0.0124497665,-0.028886331,0.0046634753,-0.018650327,-0.07995601,-0.10063346,-0.062369302,-0.071030684,0.06700874,0.05028173,0.0069693285,0.035727795,-0.047835797,0.009911401,0.17220095,0.10083307,-0.01609451,-0.046518292,-0.09514719,0.021002002,0.037210625,-0.0222306,0.08108272,-0.008066255,-0.12905611,0.025519121,0.016724348,0.0030711615,-0.014940929,-0.006533531,0.044241328,0.06314943,-0.059744943,-0.054264676,-0.022044238,0.014524729,0.01383913,-0.03167317,-0.094689645,-0.03478894,-0.14949565,0.0029354224,0.03210973,0.0071621654,0.112998195,0.0076639373,0.032352164,0.0022632785,0.068341784,0.061910126,-0.0023546573,0.02581452,0.02253476,0.07192375,-0.05664462,-0.029772239,-0.023993077,0.008028293,-0.064077176,0.052514773,0.102056816,0.10129503,0.0011623575,-0.016700542,-0.0031840773,0.06316775,0.05041401,0.07674243,-0.053782105,-0.09572753,-0.045280855,0.027547957,0.013938944,0.03001183,0.03333946,-0.03056326,-0.015312511,-0.026033895,0.10207405,-0.03612665,-0.040661413,-0.013748688,0.020445412,0.07874657,0.07782349,-0.04616132,-0.07840458,0.013832169,-0.018247876,0.021287719,-0.0016513518,-0.036344014,0.0034238878,-0.008064922,-0.06136666,-0.003795789,0.008987544,0.058891997,-0.022176133,-0.020368235,-0.040124577,-0.064898275,-0.026022293,-0.011137026,-0.012942787,-0.022906912,0.078055,-0.013326579,-0.017723735,-0.034112506,-0.004415187,0.032869995,-0.06603459,-0.038494308,0.066012956,-0.0258007,-0.112320796,-0.057182252,0.07036194,0.024734233,-0.017952245,0.015569549,-0.06722898,-0.037731335,0.006190984,0.023829821,0.059006386,-0.06572371,-0.08490759,-0.030804409,-0.063522406,-0.06513509,-0.008640441,0.047745217,-0.04671937,0.032203685,0.05450871,0.011598534,0.03293324,0.101268426,0.15330964,-0.010368108,-0.047058407,8.53272e-05,-0.007945209,0.06228262,-0.08749844,0.031611748,0.043236732,-0.04631985,0.0007216781,-0.05481826,-0.0009760509,-0.032354575,0.022649754,0.023793112,-0.02847726,0.01329245,-0.0895139,-0.052423038,-0.015167835,-0.0037663172,-0.082843035,-0.035418525,-0.012184621,-0.062892586,-0.033152446,-0.09246105,-0.07721236,0.036878888,0.023402886,0.03922041,0.03407014,0.05152313,-0.024524214,-0.065801226,0.02260491,0.08243296,0.005396917,0.00050428737,-0.038580492,-0.054956406,0.036545865,-0.011397268,-0.025543982,-0.0006176925,0.012695878,0.09768016,-0.041867618,0.02229282,-0.042913675,0.03006133,0.0049324892,-0.02536613,0.030929256,-0.0046559926,-0.04839065,-0.043650325,-0.026897471,0.067073815,-0.10711497,-0.042441856,-0.021519313,0.07127281,0.023172187,-0.0021413784,-0.011737875,-0.032157253,0.054674268,0.03882902,0.009230499,-0.030049905,-0.0059809755,-0.012921721,-0.0020245467,0.0671975,-0.022733463,-0.021789525,0.026088053,0.09746279,0.029624978,-0.016996177,0.008079738,-0.013775583,-0.048598174,-0.012843526,-0.014332918,-0.067514636,0.06377408,-0.021128582,-0.08668333,0.0031195467,0.0029960324,-0.082946576,0.019188683,-0.08703118,-0.010071239,-0.058621097,-0.06216921,-0.05369644,-0.09905869,-0.14027515,-0.0070057395,-0.08665951,0.07505019,-0.027736688,0.0079786815,-0.031881563,-0.053436913,0.02737599,-0.07004472,0.029282143,0.018244019,0.12884551,-0.02597531,0.0028311992,-0.009042965,0.011845134,0.035459694,-0.027377106,-0.07950891,-0.03307758,-0.07090098,-0.022030083,0.107868545,0.061439306,0.0075777583,0.012766134,0.020234225,0.012116113,-0.021574304,-0.015980208,-0.041015074,-0.0013442871,0.03203213,-0.055591043,-0.06284869,-0.088285744,-0.057098694,-0.04677832,-0.057179034,-0.11318719,-0.04639153,-0.007175567,0.038485378,0.039134108,0.026017519,0.04053416,-0.011473594,0.03516108,0.07170652,0.08934656,0.0059034657,0.007669998,-0.022245817,0.07360847,-0.005644483,-0.045193937,0.07169417,-0.021764368,-0.0036234693,-0.03113173,0.0014945462,0.0059881834,-0.13081028,-0.04048321,-0.009355045,0.050342042,0.034215372,-0.06460075,-0.007947033,0.024469474,-0.034074254,-0.0016842134,0.07020572,0.014894559,-0.00035862223,0.021996954,0.013818033,0.082306445,-0.018204492,-0.015548365,0.082205825,-0.022208571,-0.12379301,0.006206376,0.013590154,0.06176622,0.034741133,-0.042362463,-0.12755947,0.0086368555,-0.014223214,0.0011879554,0.0029540972,-0.05446063,-0.063076705,0.06000752,-0.04297001,0.017106151,0.0011585499,-0.031873535,0.031845547,-0.001107038,0.08342369,0.0810423,0.008545195,0.013343782,0.029039335,-0.006135725,0.056524605,0.0056518023,-0.03478092,-0.07570264,-0.042981636,0.015136846,-0.040877424,-0.036765303,0.026359607,0.017007085,-0.0332804,0.0022167633,-0.03267764,-0.05316986,-0.053489935,-0.024472903,0.015317664,0.009757573,0.04933159,0.02511445,0.055952337,0.081500515,0.0013022538,-0.095602416,0.004160407,-0.03548646,-0.048844837,-0.07837349,-0.04417983,0.026193114,-0.023569223,0.010571452,0.044202648,0.07811446,0.013917123,-0.0423191,-0.0013197052,0.022340775,-0.04228197,-0.03409975,-0.074637525,0.0556172,-0.12274113,-0.009666971,0.03489696,-0.023243146,0.022795748,0.0056544123,0.023684207,-0.030588636,0.0054784976,-0.06991915,-0.030674059,0.037883602,-0.073118106,-0.034970928,-0.07491095,-0.053301737,-0.0445286,-0.047037397,-0.012050964,0.11128036,0.022713162,-0.10748047,-0.031869598,0.056621898,-0.015071789,-0.10274598,-0.027435113,-0.07633761,0.079409935,-0.06457083,-0.013567045,-0.070063874,0.07323926,0.06744167,0.06681144,-0.04168065,-0.018933635,0.055197142,0.049375176,-0.0134103,-0.06966085,-0.022734066,0.0022086762,0.042970043,-0.08498785,-0.018025452,-0.03322573,0.023715144,0.006295751,0.03361074,0.055505797,0.06048496,-0.012771014,0.031638246,0.008411372,0.013742544,-0.009924268,-0.031718966,0.021791449,-0.10642352,-0.066562146,0.013221368,-0.062267777,-0.056351405,-0.0033648724,-0.047852013,-0.0073422845,-0.050399628,0.017549077,-0.06666294,0.07408539,-0.028629381,0.001619484,0.071484044,0.0040794155,-0.08654152,-0.022826161,0.08418711,0.10931968,-0.03889363,0.0039818794,0.015556928,0.055940777,-0.0057075727,0.022192916,-0.014371084,-0.040258065,-0.029810108,0.0031568028,-0.022949314,-0.0041891155,-0.07725414,0.019512253,0.0050099078,-0.03183123,-0.054796822,-0.017995264,0.018347904,0.042531572,-0.13061786,-0.07538276,-6.0438484e-05,0.03895279,0.101006895,0.035255324,-0.0030160157,-0.06277102,0.015199177,0.018534325,-0.06260399,-0.082503095,-0.06535085,-0.04461738,-0.050536923,-0.014725562,0.05632293,0.027627906,0.015135812,-0.070051074,0.0076805325,0.010525027,-0.06099238,0.022739517,-0.012675962,-0.0973007,-0.07387961,0.008732541,-0.013883106,-0.082663335,0.020897275,0.0829323,0.068924695,-0.016153153,0.042839367,0.002711371,-0.045131713,-0.0119159715,-0.027490402,-0.058974944,-0.06054261,0.00036810964,-0.075990885,0.0018396172,-0.019612703,0.036314297,0.06564763,0.0193436,-0.04708308,0.0029515675,-0.0040839883,-0.052587416,-0.11509358,-0.0986713,0.019280735,-0.08260794,-0.08896054,-0.112028904,-0.054918367,0.015734376,-0.0017871907,-0.03619032,0.03533066,-0.007512343,-0.033469018,-0.0028619613,-0.053447876,-0.111215524,0.044662036,0.011905806,0.024634637,-0.09000674,-0.049749784,-0.02670566,0.022141693,-0.023272583,-0.21908504,-0.03632946,-0.058736246,-0.092190474,0.021582384,-0.08493342,0.031778794,0.0587807,-0.022282116,-0.07399533,-0.032915812,-0.0018965692,-0.0021994065,0.021098355,-0.027996903,0.020862127,0.04887986,-0.025922041,-0.049957838,0.042457577,0.047157962,0.01026793,-0.031370565,0.011134269,0.044977568,0.110756926,0.055099297,0.058032088,-0.0037763903,-0.010402019,-0.06378854,-0.033967204,-0.001083931,0.017154628,0.02500358,-0.045885224,0.011382704,0.030994644,0.009753617,-0.017453013,-0.032302506,-0.00018545584,0.040466525,0.018382855,-0.06673791,0.038897026,0.050164763,0.01859181,0.02994893,0.05597999,0.048113447,-0.08262855,-0.011063947,0.0068356674,-0.011964429,-0.017166618,0.08074009,-0.057359636,0.0038996418,0.09407273,0.119931675,0.10814502,0.0162681,0.024540655,0.021904252,-0.05222313,-0.013596819,0.060775295,-0.009996051,0.025518704,-0.08625944,-0.07924707,0.059792038,-0.06345217,-0.0900803,0.026900848,0.04251586,0.0018094409,-0.004665435,-0.062433906,0.003041244,-0.034059323,0.064566135,0.010819904,0.020915804,-0.009420148,0.034672197,-0.0022415896,-0.069517486,-0.0626601,-0.0037187582,-0.039813735,0.011878254,0.027906008,-0.08158506,-0.029843515,0.029822187,-0.06362187,0.00045661532,-0.041917898,-0.059486926,0.0145961195,0.06444849,0.05703852,-0.037865866,-0.036197327,-0.06954079,0.038303398,0.052360423,-0.018099979,-0.022635674,-0.0074000126,0.11580169,0.049361344,-0.03287969,0.026911441,-0.005095594,-0.0046144337,-0.03459404,0.086446576,0.0514293,0.050124254,-0.031720307,-0.032488033,0.060635146,0.001372565,-0.059107747,0.1001227,-0.06031814,0.055234745,-0.011426314,0.023166748,-0.09538619,-0.07225059,0.09250292,0.05809442,0.08246428,0.031591356,-0.0022063153,0.015632348,-0.01615014,-0.0281259,0.017605836,0.0016397401,0.08082755,0.050191596,0.111513555,-0.05140998,-0.0019692578,0.13548642,0.045675367,0.003197024,-0.0033137556,0.12824667,0.014090105,-0.022611722,-0.05826074,0.08972707,0.021047754,0.07764584,0.11605248,0.062877275,-0.039556287,0.03436321,0.06280399,-0.02643187,-0.044724315,-0.0030444786,0.04455787,0.041078072,0.04730789,-0.027507097,-0.036756832,-0.023250874,-0.066011295,-0.055817228,0.015330031,0.075622566,0.033551637,0.004887834,0.0015972487,-0.017520186,-0.0007444028,-0.01742559,0.015405439,-0.015879495,0.06987947,0.0069006574,-0.006409155,-0.027055923,-0.02531754,-0.042329445,0.057542723,-0.01937483,-0.023244724,-0.06704781,-0.06654492,-0.031991884,0.0072381683,-0.01358371,-0.043622024,-0.11094564,0.0037544153,0.07023679,0.010460618,0.0019358849,0.010001577,0.102988094,0.08792316,-0.06811156,-0.028508926,0.038816705,-0.0153672015,-0.06815035,-0.074676745,-0.015011286,-0.0524167,-0.04198525,-0.07336635,-0.14029147,0.002032806,0.070243955,-0.042395256,-0.060249534,-0.030980503,-0.03450737,0.086351685,-0.020008901,-0.0537376,-0.058928534,0.015078069,0.013496093,0.028752422,0.04287083,0.0497996,0.057226434,-0.036592785,-0.024086647,0.00948104,0.04021997,-0.009161974,-0.02257304,-0.03992056,-0.054381818,0.029701931,0.11526158,0.019142805,-0.026949601,0.045247667,0.033252843,0.025019161,0.03926772,-0.062010568,-0.046399634,0.019707954,-0.013064076,0.0135895405,-0.061783843,-0.027860884,-0.059148792,-0.033445872,0.009649216,0.0075114914,0.0030901893,-0.0032908225,-0.032069456,-0.001142357,0.012242231,0.04895898,0.01138987,-0.0490258,-0.0044962172,-0.041179206,-0.046251293,0.049303632,-0.064660005,-0.103173934,-0.012992297,0.012155536,0.047584254,0.121519454,-0.016310321,-0.051346894,-0.012433543,-0.07933124,-0.004997768,-0.015337447,-0.08588379,0.010576831,0.047006194,0.054482438,0.08616447,-0.0047462634,0.020080414,0.04577772,0.020948337,0.010951057,-0.0076304316,-0.04351586,-0.05255085,-0.05514325,-0.089206114,0.03061396,0.01312692,-0.09002545,0.032139923,0.04278599,0.033921324,0.03966136,-0.020939982,0.007330749,0.024960367,-0.025781386,0.06967753,0.07691427,0.02990675,-0.105344504,0.0691497,0.03557734,0.052032534,0.019384885,-0.13377403,0.067110546,0.047352828,-0.04291241,-0.10405112,-0.052776836,-0.009891731,0.0533461,-0.043500856,-0.030085076,0.021604601,0.0026591562,-0.0023169017,0.0468959,0.029515851,-0.041763056,-0.0045173466,-0.10199979,0.0018317252,0.052669853,0.09492495,0.06044116,-0.007050786,-0.03063442,-0.04399275,-0.09963246,0.091359,0.08483437,-0.016795978,-0.028176436,-0.124768205,0.01682465,0.03620272,0.06336606,-0.0031595163,-0.10129248,0.13751003,0.068291456,0.034931976,0.011994754,0.08042431,-0.0031680427,0.03870462,0.08307375,0.043003656,-0.02711911,-0.0054327864,-0.09833568,0.01288203,0.039375216,-0.030073969,-0.076382115,-0.076019876,-0.049863502,-0.060700186,-0.006960231,0.04758495,0.029376255,-0.0841831,0.06365552,0.01151063,0.04277389,0.013130918,-0.022158535,-0.0017476152,-0.017002381,-0.0005071878,0.0395243,0.014986509,0.033151668,-0.027608464,-0.013297994,-0.025832888,-0.06947002,0.005014791,0.05414944,0.013956092,-0.04751243,-0.08400297,0.008343113,0.028272606,0.02501304,-0.018671248,0.07377279,0.021935105,0.06410704,0.018295964,0.108374335,0.09082091,0.044645265,-0.013053293,-0.008403491,0.00889168,-0.07622029,0.0023438754,0.022097586,-0.059329018,-0.060851276,-0.061690778,-0.031080728,-0.007845794,-0.05315372,-0.025210587,-0.08209112,-0.009404918,-0.05409576,0.053069454,-0.06289473,-0.061876427,0.048137452,0.010933365,0.047923565,-0.056679387,-0.013130606,-0.057543118,-0.010502048,0.0108826095,0.02904762,0.02791953,0.046500433,0.09725561,0.056625426,0.012383657,-0.021824295,0.055994827,0.067862675,-0.06858474,-0.032471813,-0.034567486,0.0039582783,0.00024493673,-0.04151425,0.031998143,-0.011357888,0.06312055,-0.027850367,-0.09598478,0.003496401,0.029572878,-0.07848991,-0.10870703,0.0726289,0.053241733,-0.034614597,-0.06803772,-0.15393604,0.004195971,0.10845821,0.015768195,-0.08763568,0.039949395,0.019836126,-0.0035921172,0.04504331,0.03174905,-0.010204153,0.0204654,0.0074376455,0.014541729,0.061643403,0.047121692,0.030029722,0.11206601,-0.0290435,-0.022897344,0.023863278,0.0068562957,-0.0131812915,0.028138684,0.107800804,0.022658087,-0.097811095,-0.047250427,0.017700853,0.00097041525,0.034889687,-0.064964294,-0.089754954,-0.10122889,-0.15036403,-0.09619538,-0.040847998,0.036676962,-0.021858681,0.061465632,-0.11495847,-0.019701235,-0.041955452,0.059167456,-0.04747261,0.00046347838,-0.022623004,-0.08631317,-0.068709105,0.014819904,0.10114143,-0.062069934,-0.08184912,-0.063814975,0.06482772,0.03195115,0.011777671,-0.06622827,-0.12448943,-0.022202518,0.011661139,0.0015960044,-0.09341503,-0.045436263,-0.05840028,-0.068095945,0.03331055,-0.12054606,-0.060840003,-0.040404264,-0.016682465,-0.026600543,-0.03130115,0.045348886,0.06213376,0.020117478,0.02468299,0.057304442,0.006288315,-0.064060956,0.052005246,0.026016572,0.0025175707,0.048598398,-0.040592324,-0.16371717,0.018755747,0.106753245,0.07594935,-0.04987667,-0.051537886,0.09299497,0.005922207,0.017505066,0.00015480947,-0.05662701,-0.020936653,-0.036341444,0.008201554,-0.11655196,-0.13443838,0.008502031,-0.034786105,-0.07529069,-0.112824626,-0.09074791,0.0682117,-0.08270668,-0.031162474,0.010985677,-0.107795164,0.036380142,0.039214514,0.01549256,-0.016485194,-0.017946023,0.06101434,0.0015082736,-0.034003075,0.027036574,0.07042735,0.08081327,-0.054240815,-0.04741597,-0.0365745,-0.072714716,-0.016473329,-0.09668702,-0.0021638924,-0.069088385,-0.05480489,-0.034099527,-0.0251303,-0.028993215,-0.09729746,-0.05145921,-0.021394603,0.04883502,0.04970563,-0.034451075,0.050615985,0.02465494,0.03121327,-0.031137371,0.0054907515,0.0591431,-0.05050018,0.0371853,-0.06621542,0.024038758,-0.07994032,-0.06969157,0.0061759,0.04589558,-0.009559021,0.058181893,-0.0004957295,-0.041047435,-0.0036330314,0.04278195,0.040004726,-0.02789906,-0.02221346,0.0025284886,0.03208452,0.0821805,-0.040282715,0.074591406,0.028921051,0.14185421,0.06426653,-0.019250091,-0.073722094,-0.038862366,-0.030304804,-0.018084453,0.04453276,-0.006212406,-0.0059305998,-0.033138048,-0.004640466,0.04105094,-0.061842777,-0.11890585,0.010130875,0.0075026103,-0.015852435,-0.04924288,-0.010493601,-0.019518826,0.044996195,-0.026315937,-0.042085577,-0.046781063,-0.013109104,0.02807069,-0.0289706,0.026994402,-0.0182074,-0.031752523,0.112991765,-0.014147949,0.035964306,-0.0037655858,0.10187377,0.12258161,0.004141028,0.0371444,0.0288225,0.07929787,0.025315626,0.013915955,0.022571297,0.06779856,0.092759326,-0.045432635,-0.048741203,-0.015155776,-0.009205997,0.020427091,-0.13555527,-0.004805262,0.029079724,0.034969214,-0.07348965,-0.005198159,0.014586306,-0.0063306047,0.028533313,-0.062279534,-0.08750168,-0.08928309,-0.057577915,-0.15003277,-0.10249549,0.011835113,0.016260073,-0.04389118,-0.03182502,0.050902978,0.08663442,0.03960453,0.010725507,-0.0032350116,0.06240199,0.07531949,0.03752187,0.0010599637,-0.006421124,-0.05654173,-0.0819315,-0.04509284,-0.05733002,-0.0045106853,-0.018921707,-0.07343359,-0.09571003,0.017355315,-0.037451725,-0.034386903,0.078749225,0.05942913,0.06310012,-0.0017033261,0.07549494,0.0934126,0.04477302,0.02414346,0.026263915,0.01354044,-0.017020173,0.043728005,0.08692418,0.040828157,-0.06166304,-0.038245898,-0.013850832,-0.007855173,0.03174708,-0.043996636,-0.09314117,-0.021762569,-0.027763132,0.010597456,-0.089601696,-0.10652558,-0.011907683,0.014442278,-0.093226805,-0.12958978,0.02886685,-0.058983393,0.012403804,0.030171268,0.058863282,0.11849744,-0.09402313,-0.09120915,-0.07131984,-0.015507217,-0.0035796363,0.07642267,0.05394391,-0.045872036,-0.06808675,-0.050719727,0.060760763,0.015008357,-0.0029286074,-0.07325029,0.016282836,0.11937343,0.027699377,-0.0075131604,0.031748127,0.06595284,0.058486793,0.021215152,-0.03101655,0.01826816,0.079624556,0.016318455,-0.028873919,0.036432065,-0.051417746,-0.08556667,0.06727809,0.012054847,-0.033570632,-0.0991258,0.036752246,-0.025484342,-0.0003382412,-0.07963318,0.0037932512,0.07523946,0.020172361,-0.020155301,0.032555144,0.08486015,-0.006956812,0.04662938,0.12222701,0.095291525,-0.008499255,-0.023495838,-0.04041407,-0.036942765,0.008600864,0.0014239252,-0.028025491,-0.03608309,0.02176858,0.087366626,-0.030909875,0.017184848,-0.07760909,-0.013987951,0.03126361,-0.038269,6.033428e-06,0.04000964,-0.008619124,0.0130167585,-0.08288834,-0.06370248,0.045901574,-0.034399554,-0.079016775,-0.109201446,-0.061481196,0.038639568,0.0013932781,0.015799679,-0.036895655,0.025115978,0.01112101,-0.0033321187,0.025980396,0.007884299,-0.043434367,0.016451366,0.029115185,-0.0448837,-0.08302073,-0.060836203,-0.05106567,-0.056291092,-0.0823789,-0.04583524,-0.041744865,-0.07792068,0.028317975,0.044211663,-0.038492866,-0.029500786,0.05544685,0.06367517,-0.040294558,-0.010085134,-0.013774672,0.038651492,0.016136425,-0.072145656,-0.061615925,-0.043891963,0.08988503,0.06793699,-0.029913522,-0.0046144645,0.070728354,0.026614543,-0.0036404892,0.101824835,-0.020373229,-0.07825468,-0.0076546133,0.08209596,0.00083372055,-0.11762368,-0.17054279,0.010719297,0.022995388,0.025584968,-0.025822485,0.06256347,0.017938526,-0.014515643,-0.040833663,-0.09449873,-0.00023866523,-0.05386395,0.06538155,-0.050870262,-0.024012884,-0.051913306,0.036496215,0.0108993435,-0.0007853372,0.0643634,-0.059039004,7.450236e-05,0.005588771,0.02248043,0.04761549,0.01778471,-0.05093068,-0.0135898795,0.06674329,0.03497058,0.056030307,0.029688494,0.04839233,0.085419595,0.08571898,0.02182539,0.06893409,-0.02014405,0.035666637,0.08288991,-0.033512376,-0.038867485,-0.061064824,0.016345093,0.017830852,-0.10560212,-0.042819813,0.085882284,-0.04820175,-0.10457973,-0.08385943,0.079638496,0.042247605,0.002999159,-0.07755132,-0.061087187,0.07827358,0.06710198,0.032494877,-0.10432903,-0.063824154,-0.008474313,0.046463195,-0.07568467,-0.0641889,-0.0062342416,-0.037824947,0.021172218,0.0037360324,-0.05083907,-0.039093073,-0.005976925,0.023265233,0.029128231,0.0049608,0.046837807,-0.12543844,-0.067725934,0.05788142,-0.0019319861,0.040692177,-0.092025876,-0.12628321,-0.08471618,-0.02620194,0.07644117,0.045738827,-0.07682009,-0.0319981,-0.019916415,-0.015969813,0.019590786,0.0741685,0.03775649,0.009728153,0.033118024,0.03258724,0.00038427924,0.020866668,-0.0054283338,-0.0016840504,0.039215717,-0.03482775,-0.038569134,0.035730906,0.07185867,-0.00646952,-0.08670205,-0.015573215,0.07122939,0.13334006,-0.04315538,-0.019930901,0.020163864,0.025585607,0.10256686,-0.026455503,0.01779591,0.15607926,0.032359015,0.063335106,0.018266344,0.050448872,0.030836299,-0.024040125,-0.061855163,0.048202332,0.06574998,0.115294546,0.062299635,-0.089306116,0.025893165,0.09454249,0.11393593,0.1338408,-0.0020669387,-0.0007734777,0.0071514626,0.07694678,-0.035613973,-0.028508773,0.036729302,0.02389789,-0.016500914,-0.034978587,-0.020181369,-0.01791555,-0.024512906,-0.061501358,0.02762646,0.0063381386,-0.04403438,-0.0874632,0.0018476618,0.03627869,0.094383396,0.111224905,0.007216915,-0.0040370463,0.049633756,-0.032547764,0.038358897,0.037978776,0.019498628,0.034060057,0.038983162,-0.056826502,0.01780602,-0.03321336,-0.04001903,-0.048566792,-0.025017742,-0.08282767,-0.044920266,0.023156842,0.020137668,0.049096964,0.057462227,-0.024127422,0.018090334,-0.008835615,0.027522441,0.0038664022,-0.0088342065,0.07697721,-0.090295255,-0.0041797776,0.012590813,-0.027216965,-0.004084205,0.027314635,0.0794444,-0.022794986,-0.04730742,-0.04311228,0.0020590762,-0.057057466,-0.04228103,0.0021773104,-0.044918142,0.00084772106,0.0050387396,0.015440312,-0.023920191,-0.062621064,-0.034487765,-0.090257816,-0.043758396,0.011541751,0.052830014,0.037218284,-0.068285614,-0.03433484,-0.0077456366,0.05220334,-0.027568245,0.011918682,0.015236096,0.018839732,0.07440877,0.026563194,0.023334138,0.0065948823,-0.06760179,-0.0038379764,0.06494005,0.070695885,-0.045698803,-0.08881927,0.0045256834,-0.014360906,0.035541963,-0.14909212,-0.05245534,0.00055504794,0.025250614,-0.02321181,-0.038362775,-0.027755009,-0.003174636,0.054755498,-0.07266079,0.023343245,0.08452427,-0.003692002,0.078318685,0.06052402,0.05332883,0.03107799,-0.007207513,-0.0038794759,0.04161127,-0.011900701,0.043095425,0.030365989,-0.025270145,0.07756223,-0.00038769862,0.004186706,-0.074425906,0.0015533827,0.039202444,-0.03149593,-0.037013683,-0.004488164,0.015389347,0.04332039,-0.04479868,-0.019027025,0.026788367,0.025487125,-0.039359592,-0.036367532,0.0623679,-0.039482877,0.06527629,-0.12234318,-0.06271367,0.0043791183,0.029432153,0.08858592,-0.118208155,-0.002509929,0.042893704,0.008207418,0.016937787,0.053881537,0.022771914,0.07004121,0.038061455,0.04291698,0.08340881,0.004807767,0.021424128,0.029201072,0.062831156,0.0054764785,0.08798574,-0.0302351,-0.060854107,-0.03135568,-0.039707426,0.017997723,0.045517962,-0.018936222,-0.08764292,0.040996425,0.04917921,-0.034202006,-0.016807642,0.043391306,0.16440552,0.0684388,-0.033576045,-0.00111631,-0.021380823,-0.0030942569,0.045521107,-0.04425326,-0.04431213,0.031661548,0.051068235,-0.01663804,0.00019085799,-0.022246312,0.031633627,0.030112237,-0.019305483,-0.0075959293,-0.074563675,-0.12415496,-0.021844242,-0.0022818118,0.039109286,0.023500638,-0.12622379,0.0048485245,0.0017516004,-0.055041686,0.03114848,-0.011467489,0.11988374,-0.04545157,-0.03520185,0.015475154,-0.10269842,0.016413877,-0.031144073,-0.03591841,-0.04534546,-0.073160484,-0.06627995,-0.048172113,-0.085793875,0.009081148,0.050022975,-0.06582078,-0.0027405748,-0.0072035147,-0.08167129,-0.06798987,0.08817741,0.0369699,0.01559064,0.040938433,0.016853623,0.096909605,-0.0037811508,-0.04528259,0.034902714,-0.035290465,0.032353733,-0.065130375,0.056541603,0.04124648,0.051016204,-0.042589463,-0.053600162,0.0012753245,-0.10464067,-0.14198443,0.022965444,-0.045209706,-0.0524447,-0.11643975,-0.0032842949,0.027402999,-0.08440878,-0.0022565722,-0.0078929635,-0.012800641,-0.044529703,-0.10863599,0.10294155,-0.05082528,-0.048241857,-0.028174577,0.050088387,0.03656437,-0.026864175,-0.0275428,-0.029219594,-0.12950267,-0.05708875,-0.02360298,-0.047396723,-0.028882397,-0.056969553,-0.119347975,-0.052051283,-0.019094486,-0.019669209,-0.027217614,0.026269075,-0.04396604,-0.085140936,-0.025848215,0.06779394,0.08284579,0.07098641,0.067218974,0.05023618,0.0045086327,0.04318585,-0.015735677,0.059333723,0.032176036,0.067131296,0.023443814,-0.08147791,-0.041890003,0.045360744,0.11871668,0.043504134,-0.051854454,-0.108274065,0.09902528,0.053749062,0.064130805,-0.0597585,-0.08169722,0.0107594095,-0.053106587,0.037621908,-0.060076226,-0.056283575,-0.08232526,0.01340117,-0.018426282,0.024835678,0.06837478,-0.081510544,0.03362627,-0.030962957,0.04409594,0.05808301,0.03774924,0.020019883,-0.05364738,0.0064558517,0.012157425,0.026658505,-0.04498892,-0.030187512,0.041226074,-0.003362875,0.0069944006,0.01981321,0.058659308,-0.010941358,0.030345397,-0.009273347,0.052875523,-0.02276808,-0.02848127,0.03673459,-0.039276578,-0.052144915,-0.011015108,-0.014955842,-0.080319695,-0.09880716,-0.029459571,-0.052987747,-0.06354195,-0.027058896,0.032323316,-0.03720435,0.053855687,0.035307482,0.018524293,0.030299924,-0.085373074,0.011699419,0.03146078,0.009291222,-0.019404732,0.037924193,0.064749405,0.017715441,0.061010372,-0.0024959214,-0.0047195493,-0.012930532,-0.015161386,-0.064494856,-0.12463545,-0.02772987,-0.022126133,0.0144572845,0.007887797,0.037530284,0.0198795,0.03434893,0.0074600047,0.10273404,0.013082891,0.05985652,0.013548136,0.055598866,-0.019364402,-0.003434067,-0.049105857,-0.05214892,-0.105756894,-0.045911472,0.069292285,0.019894045,0.05730535,0.013915132,0.12670778,0.0464844,-0.024514351,-0.0088583,-0.029940167,0.044769112,0.10815836,0.060373455,-0.003673387,0.043120865,0.06040717,0.02107592,0.061850265,-0.046630315,-0.06227657,0.01940688,-0.0063791517,-0.030677773,-0.0024392235,0.017088566,0.03602879,-0.0059790835,0.029271986,-0.037292697,0.09323751,0.052823633,-0.07282719,-0.042453405,-0.07906237,0.019508265,0.049318623,-0.02930833,-0.051211603,-0.05709538,0.0108155515,0.01657938,0.013354138,-0.056751955,-0.036423504,-0.008964459,0.009771101,0.02854696,0.012974253,-0.049075745,0.027629333,0.036071282,0.037202172,0.005651938,0.04437781,0.0133137,0.012886943,0.098995484,0.03143276,0.022152053,0.05996946,-0.011734461,-0.063724205,0.023286708,0.0065716286,-0.014609285,-0.011767819,-0.067234546,-0.08082242,-0.06973267,-0.049052387,0.004347822,-0.0008540115,-0.1006199,-0.02500928,0.013375427,0.05055019,-0.012855769,-0.06792172,-0.040815752,-0.07291704,-0.024835711,-0.13816427,-0.015538448,-0.084684685,-0.07218192,-0.068425365,0.05205468,0.014986145,0.017069127,-0.042265728,0.04893666,0.011662743,-0.012202874,0.022660451,-0.022552405,0.0033282763,-0.020218303,0.037062407,0.0044335867,0.04683026,0.0012018485,-0.09251232,-0.0616074,-0.069550954,-0.096136115,-0.011596654,-0.1242328,-0.04431843,-0.026528422,-0.021807294,-0.066636175,0.023750758,-0.010021288,-0.03310771,0.030472377,0.08390867,-0.027983401,-0.05435526,0.07566505,-0.031870104,0.0014950542,-0.014512281,-0.03588113,-0.07022177,-0.07836748,-0.11407907,-0.0073563796,0.03051915,-0.022791816,-0.050883457,-0.042992264,-0.00041195579,-0.010731042,-0.024654185,-0.02345812,0.07409583,-0.0018466052,-0.05164499,-0.013461731,-0.059153743,0.0022753777,-0.08068757,0.00022472216,-0.015683202,0.035965297,0.08715753,-0.13677578,-0.023077026,-0.035496797,0.057856873,-0.0011014974,0.03805037,0.05256004,0.033264123,-0.032550916,-0.019815968,0.04368351,0.004660954,0.056979936,-0.0051937043,0.052677236,0.027325762,0.0021980908,0.04291997,0.0807367,0.0786354,-0.007007901,-0.023434058,-0.017420588,-0.0063982485,-0.0072285007,-0.10621342,-0.06297804,-0.05576748,0.008550728,0.07559292,0.028275117,0.030750375,0.03863525,-0.029753987,0.06379037,0.0012562056,-0.034003973,-0.03577351,-0.0025500285,0.04589704,-0.026992204,0.02166599,-0.055762623,-0.022907883,-0.07682076,-0.095886126,-0.026882937,-0.07440709,0.038000602,-0.024579855,-0.010774555,-0.05377883,-0.038849413,-0.013953345,-0.04048403,0.061066765,-0.05875228,-0.06459463,-0.08509525,-0.032503158,0.07931725,0.0071948506,-0.04160986,-0.024474034,0.064737216,0.13016127,0.03803112,-0.009318162,-0.04017484,-0.012361395,0.052023653,0.010352371,-0.036302026,-0.017350577,0.020341966,0.078808405,0.025005514,-0.11413675,-0.07979605,0.04585451,0.048203416,0.068702444,0.036798704,0.035422917,0.040805962,0.052244786,0.03876399,-0.0014834953,0.0932486,0.10980869,0.08891474,-0.0741372,0.0067232866,0.041141983,0.07453518,0.09694176,0.059070166,-0.06840277,-0.050902028,0.034291826,-0.0008736364,-0.04699197,0.026582958,0.044226777,0.03766317,0.022390956,0.058582406,-0.0019479608,0.04097379,0.04841214,-0.020329723,0.06678658,-0.018238403,-0.009590665,0.02632611,-0.1565558,-0.036301006,0.023709184,0.027987551,-0.03809002,-0.12977698,-0.18568829,-0.024908125,0.020741649,-0.034631565,-0.05945075,-0.097616024,-0.08984248,0.052676294,-0.044408683,-0.028259002,-0.096001156,-0.12979983,-0.08249966,-0.05609274,-0.02418644,-0.06524317,0.004970423,-0.043393385,-0.05307989,0.055755872,0.048213843,-0.06337505,-0.020318525,0.04765897,0.19553016,0.12952404,0.09242024,0.021565802,-0.024229366,0.052482612,0.082479484,0.0054268003,-0.06050066,-0.05117951,-0.044706058,-0.0795197,-0.013608538,-0.03293081,-0.09634144,-0.007688591,-0.0531532,0.0059014773,-0.022454388,-0.02298129,0.01922556,-0.031756394,-0.09864432,-0.07220425,0.032208983,0.053948354,0.05598883,0.018412156,-0.022759264,0.016535716,0.009554611,-0.052956264,0.032556552,-0.03758009,0.01724738,-0.010617157,0.06343456,0.015126476,-0.024488648,-0.04749804,-0.15596323,0.01921614,0.025958216,-0.013354416,0.040544353,-0.15022542,-0.08646703,0.033101555,-0.07342339,0.005436225,0.053858515,0.013961804,-0.022983534,0.06748439,0.011472212,0.008533648,-0.08058523,0.04509744,0.043030165,0.011004453,0.08389527,-0.025327094,0.04643441,0.054686498,0.0045992807,0.105238885,0.08483825,0.06523768,-0.04081366,0.00031443307,0.08598842,-0.000412152,0.015500172,0.054462034,-0.029478112,0.064888276,0.0047535035,-0.016177984,-0.019964602,-0.07137001,0.01911015,0.030582897,0.064210005,0.021013489,-0.08931424,0.0014757215,-0.013248589,-0.041559786,0.011363211,-0.012319178,0.057169046,0.043208048,-0.0021888232,0.07997198,0.052989088,0.0005815959,-0.021949926,0.052437864,-0.006454928,-0.016248683,0.068710916,0.02081046,-0.010023248,0.02741259,0.03361392,0.034335945,-0.04034892,-0.021670548,0.015367237,-0.01010555,0.08506709,-0.08400024,-0.028112525,0.0770989,0.032974046,-0.08804345,-0.09213309,0.031621438,-0.012335315,-0.0016824491,-0.009989633,0.025248231,0.062950455,-0.047211297,0.07191129,-0.004761866,-0.06945215,0.08308499,-0.023605399,0.045118265,0.027237995,-0.03481001,0.0153657785,0.020013189,-0.07539284,0.089180514,0.04294446,-0.007295021,0.072235,0.040102046,0.03638271,0.033394497,0.04843261,-0.0049526785,-0.0143689355,0.07144347,0.014535714,-0.0039466256,-0.055866137,-0.013339333,0.034952506,0.052335072,0.05241598,0.029588174,0.06367711,-0.024972742,0.044446345,0.024836434,0.032472685,-0.0066563166,-0.031259492,-0.03227205,-0.012388219,-0.045847826,0.032166723,0.056907307,-0.022310821,-0.10935811,0.020802736,0.02277137,-0.018148858,-0.04406911,-0.09550057,0.018375982,0.013405246,-0.09943957,-0.09370131,-0.15123315,0.017675858,0.024798395,-0.00030513792,-0.094234124,0.060325094,0.05060557,0.08012333,0.021424765,0.0046673752,0.06409391,0.0093044285,-0.013696635,0.09716497,0.01524007,0.090966456,0.03967507,0.015777104,-0.061004214,0.04493323,-0.0087476615,0.04673626,0.16121653,0.052617162,0.07710268,-0.026294503,0.07482581,0.0042793276,-0.03544621,0.088487566,-0.03135861,0.004657339,-0.029294526,0.041353777,0.05819842,0.046300143,0.029443357,0.033746194,0.08802049,0.0786366,0.03723092,-0.007551977,0.03472208,0.036883064,0.054315526,0.057194684,0.08660107,0.032744676,0.11460638,0.060486224,0.01795802,0.015397275,0.10786715,0.02781752,-0.035283804,-0.052200146,-0.072702885,-0.00203999,0.014552605,-0.03223497,-0.0665872,-0.008388088,0.018479882,-0.067308925,-0.07746675,0.01623329,0.010846147,-0.08095446,-0.008672402,0.06715701,0.06109524,0.04351366,0.011432731,0.12310763,0.075184494,0.038769763,0.058894742,0.035643075,0.09249506,-0.011720365,-0.05037055,-0.07176508,-0.039022483,0.043181308,0.04483777,-0.024101645,0.034826998,0.02946539,-0.087910846,0.038843375,-0.038776487,-0.009226467,0.057714093,-0.06481074,0.011728226,-0.019795839,-0.07465544,-0.03532365,-0.04242051,8.0672806e-05,-0.08717254,0.071797095,0.014815785,0.037954725,-0.024620516,-0.00068005815,0.03545008,-0.018182905,-0.10614157,-0.08661521,-0.05534269,0.043079525,0.095657624,-0.028674979,-0.006787838,-0.0005937092,-0.05362993,-0.033214893,0.035152428,-0.024535652,-0.0519491,-0.03579942,-0.012395214,0.01066327,-0.073568545,-0.00041625925,-0.040340792,0.039637763,-0.058209863,0.027026385,0.023925176,0.017002892,0.011782294,-0.12793347,0.027023617,0.055830628,-0.03914628,-0.029747525,-0.051454738,0.017897079,0.035483908,-0.04879432,-0.013128218,-0.1485837,-0.053245615,0.07989783,0.028220583,0.0039858897,-0.0907479,0.0039995094,0.013728822,0.08961373,-0.03689895,-0.08082508,0.007797611,0.11398825,-0.0032906265,-0.030861564,0.036790255,-0.021006571,-0.07364413,0.023528576,-0.08920516,-0.042292647,-0.056389436,-0.044763315,-0.07953106,-0.032198656,0.042040177,0.022913257,-0.099919304,-0.018837988,-0.102544755,-0.051124502,-0.1427291,0.017741619,-0.03465694,0.02702353,-0.03589525,0.017973933,-0.030466896,0.033843383,-0.029224979,-0.06636463,-0.051355094,-0.048230212,0.052239385,-0.016185457,-0.03418826,0.010630939,-0.09557717,-0.0715068,0.049027376,0.15236302,-0.02968738,-0.06371661,-0.010184561,0.05163481,0.041144174,-0.033221908,-0.032054517,0.047985394,-0.05052276,-0.03231567,-0.0021237773,-0.02461041,-0.016742071,0.04361654,0.060134824,0.04483825,-0.011153273,-0.021017421,-0.016951403,0.059340116,0.10635402,-0.019152341,-0.025509005,-0.057922203,-0.0894474,-0.09544167,-0.031402152,0.08603305,0.018347599,0.009181563,0.03589009,-0.031151254,-0.023165977,-0.031566013,0.034535322,-0.013463088,-0.033999577,-0.013269554,0.041333064,-0.006789971,0.07077431,0.060324147,0.062106993,-0.05282858,-0.0067765783,0.13469264,0.02422865,-0.020527666,-0.066186465,-0.0716485,-0.0022134883,0.047456827,0.050206125,-0.043294836,0.0023497085,0.08799573,0.040351685,0.006485653,-0.0003408155,-0.069364496,0.0067640413,0.12651889,0.046370644,0.020350816,0.016418636,0.054165084,-0.046727806,-0.06670574,-0.055078983,0.06569933,0.04642391,-0.018951599,-0.011235395,0.0036567173,0.069369026,0.0094706,0.0076728584,0.08254535,0.014437578,0.096164696,0.09383148,0.08043738,0.06272472,0.061483,-0.031848006,0.07240545,0.02109347,0.06966263,0.060982674,-0.04764433,-0.09617231,0.009189024,0.03574043,-0.053241614,-0.027323494,-0.06107594,0.0036255887,-0.048485316,-0.007828719,-0.049610283,-0.17080104,-0.07329924,-0.11942204,-0.06894219,-0.078766264,-0.08534183,-0.121866375,-0.05341589,-0.065366164,-0.07891909,0.009052787,-0.011643946,-0.03550788,-0.033911288,0.025273217,0.0298005,-0.0039237235,0.017564125,-0.035264023,-0.033483922,0.0027054339,0.06797267,-0.03319305,0.014505806,-0.049535748,-0.04599981,-0.014841488,-0.057095308,-0.016936854,-0.035058808,0.0098176,-0.068405114,-0.06808986,-0.020875698,-0.10001335,-0.008138877,-0.029920805,-0.012514952,0.01757227,0.009595718,0.065566756,0.030794935,-0.041374896,0.00049636257,0.022392785,0.0020330956,0.0016326797,0.038756087,0.07992631,0.017135872,0.06138493,0.02076107,-0.0011616672,0.022809222,0.06927379,-0.0019032952,0.01422105,0.03365992,0.024078181,-0.088128045,0.032525424,0.05312351,0.012198366,-0.04381267,-0.031396765,-0.027294945,-0.021852281,-0.006189632,0.053624086,-0.0957658,-0.008470849,0.0039831456,0.022284012,0.14918904,-0.070198305,0.037319463,0.020530345,0.057892233,-0.02895741,0.015104356,-0.021671936,-0.035371747,-0.005719654,-0.0696783,-0.027153706,-0.023993853,0.003133494,-0.012870009,-0.01681834,0.028773362,0.067992434,-0.020277381,0.058882788,0.03830675,-0.08051424,-0.023439785,0.0038184419,-0.013800897,0.031766158,0.033504583,0.038375646,-0.02718192,0.00046240783,0.017843904,-0.028075304,0.063946106,0.03980516,0.024709733,0.016007146,-0.014123434,0.007438167,-0.105723135,-0.07376195,0.00068792916,0.013786583,0.032208215,-0.013481297,-0.047311928,-0.03251767,-0.0030721996,0.038429618,-0.042486656,0.07756327,0.012744337,0.061805684,-0.095476344,-0.0561278,0.06495314,-0.065783665,-0.0432266,-0.057697628,-0.12418981,-0.051277313,0.020186568,-0.1171233,-0.033084895,0.035660762,0.033327576,-0.023338286,0.03543419,0.024542963,-0.028963698,-0.11614944,-0.08041477,-0.018834097,-0.02718509,0.030252827,-0.07280508,-0.02475322,0.015702628,-0.16843402,-0.077768974,-0.021481456,-0.028262775,-0.057626784,-0.10611145,-0.08545531,-0.11334691,-0.06842111,-0.13039447,-0.14060675,-0.10536157,-0.101669535,-0.047076833,0.04105044,0.06833114,-0.008331123,-0.05710717,-0.063461654,-0.049050607,0.007066528,-0.0061512045,-0.04274178,-0.053978663,0.0074932147,0.0855335,-0.03424243,0.014230818,-0.0013650376,-0.06750447,-0.06859449,-0.06101354,-0.002340354,0.020608773,-0.13142805,-0.08531427,0.010909313,0.026716584,0.07061591,0.027898641,0.010287043,-0.003957144,0.018277392,0.0035268068,-0.02053309,0.039829347,-0.00077485444,0.030204097,0.074089415,-0.036658354,0.018401122,-0.105416425,-0.06139823,0.009545382,0.0046659717,-0.022982964,-0.05155939,0.035119724,-0.033800576,-0.009503292,0.05292357,-0.0009320795,0.01847371,0.034178976,-0.004010437,-0.046497382,-0.014325182,0.031180715,0.09979474,-0.05406235,-0.08996486,-0.012655472,-0.03950003,-0.025084186,-0.01853091,0.012329768,0.068729445,0.0152865825,-0.046026457,0.025071587,0.05595483,0.036263324,0.0681437,-0.044156626,-0.033689056,-0.13793145,-0.1460905,-0.14528298,-0.09011754,0.07062949,0.07906791,0.05626041,0.0020186931,-0.021884235,0.07969643,0.0010144704,-0.07004298,-0.07541731,-0.035869,0.054198645,0.025963929,-0.0013019793,-0.03566994,0.06140905,-0.01821762,-0.036220178,0.06611587,0.026893474,0.015030199,-0.018859625,-0.023060407,0.004131501,-0.03423286,0.05875806,0.031230377,0.005238777,0.017197046,0.023346925,0.035090644,0.015752096,0.012157797,-0.036958247,0.0096203685,0.11020988,-0.047151756,-0.025683932,0.031950902,0.10995907,-0.06146737,-0.042094573,0.07418742,0.04071118,0.035261612,0.013431542,0.050613582,-0.012896772,0.015479232,0.12901852,0.09603869,-0.00755835,0.05908442,0.01156221,0.043017402,-0.031033413,-0.00037980702,0.049108382,-0.0044568093,0.05528398,0.032495275,0.008038736,-0.041466787,-0.059376583,-0.0030573779,0.038074918,0.001883961,-0.053952757,0.027180294,0.010735693,0.008141033,0.006908519,-0.11030001,-0.11092792,-6.067293e-05,-0.026539607,0.0076526357,-0.028010966,-0.14321092,-0.03667215,-0.014551564,0.07117782,-0.010297729,-0.050195124,0.01616693,0.007558379,0.019678336,0.009486805,0.011111878,0.0029646046,-0.09242791,0.10372441,0.061511822,-0.05908696,0.039296225,0.02631286,-0.08136966,0.027963823,-0.03960614,-0.0055436227,-0.01675398,-0.031848013,-0.0008892501,0.040815085,0.058597162,0.00957247,0.04873885,0.023973694,-0.06534985,-0.017760998,0.0034438707,-0.017493462,0.017127916,0.02444547,-0.012132123,-0.09942967,0.027620682,0.08465792,-0.011569236,0.03653864,0.03588698,0.04640825,-0.011280119,-0.0633552,0.037996404,0.041105762,0.030583125,0.025388801,0.018039633,-0.04551533,0.012857966,-0.042619348,-0.047285285,-0.00062231126,0.019684624,-0.027665883,-0.0008761428,-0.02979601,-0.08521629,-0.07405823,-0.035505924,-0.008080216,-0.11226941,-0.021404872,-0.012144166,-0.07006067,-0.14557858,-0.09703361,-0.024903646,0.008347903,-0.0019714362,-0.04550671,-0.026475344,0.022586726,-0.04221598,0.0037048855,-0.105258584,-0.066813014,0.09813341,8.886441e-05,-0.025673345,-0.0061443876,0.0119066285,-0.008623606,-0.0135658095,-0.08077294,-0.02092278,0.07708666,0.013929827,-0.061321363,-0.048307773,0.029815827,-0.035915155,0.036085024,-0.026163222,-0.022362048,-0.1063052,-0.089461304,-0.046367344,0.026465204,0.09626044,-0.017211365,-0.025928315,-0.004801263,-0.0088740215,0.08333508,0.04931284,0.12076082,0.0333506,-0.024835294,-0.013259015,0.08094195,0.025601901,-0.054932054,-0.087696254,-0.09668549,-0.014968888,-0.03796351,0.01725486,-0.08048638,-0.03844514,-0.039955545,0.05359457,-0.042570747,0.09874469,-0.028779777,-0.007968611,0.0190693,-0.016792046,0.06602094,0.02349533,0.028628146,0.047893856,-0.03645374,-0.036226504,0.031954005,-0.022064706,0.03316145,0.022735152,-0.00089367415,0.039591927,0.053110622,0.036253512,0.059174195,0.03108717,0.07809927,-0.0012805264,-0.08747967,0.033667978,-0.07848131,-0.02673828,-0.023651,-0.028080458,-0.017999768,-0.016072005,-0.06848452,-0.07065205,0.008938896,0.04745343,-0.004911244,0.014284866,-0.07928945,0.084255464,0.026503049,0.039162055,0.03730219,-0.021865947,-0.037194986,0.004772752,0.07499133,-0.022348214,-0.017204452,0.015182327,-0.0107935555,0.031437214,0.018704284,0.024829552,-0.06447697,0.12374398,0.05211965,0.09583267,0.10686062,0.067098826,0.03969327,0.018145885,0.057317447,0.07886904,-0.033131234,0.048051108,0.1092491,0.03231911,-0.03709393,0.1040125,0.09735378,0.081284925,0.04665529,-0.11513225,-0.14320531,-0.08197536,-0.025618708,0.06789974,-0.025130095,0.019338785,0.08816009,0.0174418,-0.032875087,-0.036493648,0.034463003,-0.025498094,0.022035971,0.038055964,0.07926678,0.056404497,0.03199451,-0.008543966,-0.08174031,0.06355645,-0.0285894,-0.02762198,-0.019428587,0.07252454,-0.077497825,-0.14620645,-0.12406611,-0.1084855,0.10535444,-0.039205033,0.005914646,-0.044953775,0.0548331,0.03939912,-0.051984683,0.083314806,0.0025766648,-0.074034624,-0.076207966,0.05066331,0.07471416,-0.02031835,-0.10504596,-0.006219658,0.009690433,-0.019303445,0.012148831,-0.013153,-0.023335867,0.063635394,0.060539596,0.064769946,0.0556165,0.06702563,-0.033562873,0.035934296,0.0132765835,0.02649509,0.038622655,-0.08363651,-0.06923173,-0.017800456,-0.113024674,-0.079241954,-0.001137436,0.05945147,0.026028937,-0.097495526,-0.017202957,0.025799086,0.06414,0.08968608,-0.04681692,0.018706126,0.023893883,-0.02215461,0.029692752,-0.01684349,-0.002117566,0.05656276,0.083892375,-0.006474991,-0.04976024,-0.028771155,-0.055370808,-0.043558985,-0.018272158,0.035713796,-0.040495686,-0.06464871,0.07209324,0.028174315,0.053299252,-0.058539536,0.06028432,-0.043627888,-0.029058533,-0.038581554,0.00112059,-0.021746494,-0.021545427,0.05112215,-0.05638113,-0.02620284,0.021850346,0.0029147388,-0.04432636,-0.03264037,0.08840857,-0.085703135,-0.092406765,0.017550975,0.10370248,0.06917479,-0.028576098,-0.03449363,0.071293145,0.04960586,0.115243584,-0.0009890663,0.052322924,0.08334905,0.11429498,0.02112468,-0.018716533,-0.032477196,-0.05159273,0.044521205,0.06037351,0.09881202,0.023998875,-0.012029223,0.0008384997,0.024689762,0.10913374,-0.024946913,-0.098445676,-0.034421306,-0.050352257,0.06741778,-0.053888198,-0.1541068,0.0004687548,0.028082097,0.011890614,-0.024571639,-0.052830476,0.0029068117,-0.013768087,-0.010175653,0.04203064,0.02454116,-0.025889268,-0.009055922,-0.008469009,0.0006714958,-0.048205107,-0.05518291,-0.038441896,0.0073632733,-0.09425189,-0.06478458,-0.04722814,0.0700916,-0.11294196,-0.028323444,0.028431244,-0.061423622,-0.032753807,-0.024187658,0.032352872,0.013485007,-0.04075724,-0.00044993265,0.059352722,-0.0025641627,0.014560911,-0.07950764,-0.01672642,-0.0048682545,0.036831405,-0.05523222,0.0088039385,-0.08192444,-0.050558876,0.008337581,-0.0035943598,0.00062781456,-0.034333054,-0.028806804,-0.07024994,0.061533235,0.066207476,0.06721455,-0.050149634,-0.044019368,0.18841504,0.093585126,0.054864127,0.05408057,-0.037153173,0.017092273,0.0629775,0.017729824,0.07386501,0.049288545,0.018798986,-0.0016792587,0.0014208843,-0.009467762,-0.016376978,-0.034665287,-0.022072887,0.034458604,0.036810596,-0.02887622,0.03693999,-0.0971026,-0.06043305,0.024611842,-0.023519624,-0.04356818,-0.064855926,-0.04952695,0.040213667,-0.00016315962,0.053821113,-0.0104501145,-0.03400143,-0.057664078,0.038928848,0.041370127,0.054007016,0.088676505,0.04883024,-0.03027656,0.030210933,0.079019256,0.0613527,-0.04005044,-0.048395995,0.0349922,-0.029351644,0.028943235,0.028915891,-0.01717012,0.013366611,-0.06803711,0.010647472,0.0010761187,-0.021506326,-0.004005755,0.053047538,0.02546946,-0.059733126,-0.0051528313,-0.014586589,0.05973881,0.050902672,-0.029103382,0.044927012,0.11234391,-0.0017781776,0.023724813,0.07242412,0.023222066,0.03812187,-0.046379752,-0.14254606,0.054442655,0.01436659,0.026378911,-0.09462054,-0.10643997,-0.11343509,-0.069703184,-0.03000638,-0.0040554167,-0.012008026,-0.0011788079,0.013969843,0.023322918,0.020932209,0.034742292,-0.0013533272,0.04244204,0.034930516,0.045165993,-0.005255184,0.058581423,-0.046139322,-0.08923754,-0.007421246,-0.059733342,0.004497866,0.0024942274,0.071514726,-0.09589622,-0.1537397,-0.04268464,-0.13445783,-0.03871348,0.034107346,0.027584437,-0.03679531,-0.033114035,0.0570731,0.005372928,0.062850684,0.0013770569,-0.0548725,0.048238587,0.01985242,-0.029949788,-0.008665292,0.022699302,0.05816879,-0.042432576,-0.1348747,-0.03561215,0.029153455,-0.029701184,-0.030732645,-0.017209752,-0.009245324,0.033375908,0.043780405,0.026017025,0.036011737,-0.12016248,-0.006013643,0.05835796,0.057932705,-0.02093693,-0.09358387,0.013935444,0.029055469,-0.0033158169,0.050319616,0.09760642,-0.090418324,0.12679967,0.02935326,0.06500592,0.016322669,-0.031455785,-0.04517058,0.08798956,0.055043034,-0.0009067658,0.051931173,0.057770714,0.019326005,0.05435932,-0.021426588,0.056307994,0.0393971,0.052837234,0.032759767,0.012800671,0.03905105,-0.06322454,0.10868179,0.003706824,0.030455662,0.07296491,0.0048704315,0.054103084,-0.04886848,-0.011845082,0.0501432,0.0335358,0.07874545,-0.016508099,0.065561675,0.09491408,0.059463773,0.006354082,0.04865302,0.0029709833,0.025901418,0.029781578,0.090172805,-0.030869456,0.073491044,0.009994665,0.028213503,0.114942074,0.09649739,0.037286673,-0.02122146,-0.01252984,0.016549362,0.08458405,-0.019971048,-0.050857108,0.058896393,0.0021690084,0.054584034,0.0082125645,-0.031633116,0.041933678,-0.03409254,-0.011627356,0.008848754,-0.0114859305,-0.10403221,0.005720319,0.034856033,-0.069940954,-0.07081221,-0.08702922,0.06698818,0.10335889,-0.010221035,0.111970074,-0.02509469,0.052747674,0.10434369,-0.093144454,-0.015930362,0.01062542,0.050695278,0.04795661,-0.008709541,0.016700473,-0.09624071,0.05235783,-0.013172839,-0.018474698,0.009584895,-0.0058968407,0.029225748,0.053756293,-0.019979918,-0.0836202,-0.020313537,0.06516985,0.10223586,-0.013508622,0.008389395,0.07447494,0.027122093,0.03929263,-0.028387269,-0.0787105,0.051022675,0.02532902,-0.012913372,-0.013814455,-0.0048563564,-0.013846777,-0.022215951,0.006445498,0.06538947,0.030146161,0.05771455,-0.08641101,-0.03757335,0.032810234,0.012169137,-0.08767321,-0.051915895,-0.106364794,0.032444194,-0.078588404,-0.06568682,