-0.16487354,0.023022383,-0.007471427,-0.01572954,-0.103443325,-0.019203085,-0.09310669,-0.029521974,0.02433449,0.05992586,-0.015758045,0.010624887,-0.04070311,0.07459877,0.048408944,-0.09648786,0.016581329,-0.0017705744,0.008808174,0.06213316,0.015401546,-0.010221416,0.08177331,-0.013186647,0.011252295,0.06532953,-0.10396126,0.09379605,-0.08645678,-0.058328114,-0.12705946,0.052250903,-0.09225163,-0.10983596,-0.036129285,-0.035933435,0.12640367,-0.08674327,0.02576247,-0.012578748,0.12361845,-0.15778571,-0.15000488,-0.008970539,-0.03659396,0.020812385,-0.043651592,0.06169291,-0.12822138,0.072633944,0.11720569,-0.09824378,-0.0041535785,-0.013101845,-0.07079263,-0.06603716,-0.0481931,0.05948622,-0.015030584,0.020081086,0.05930718,0.1035151,0.095974274,0.008625593,-0.031223057,-0.03912383,-0.03850713,0.019389026,0.027510148,-0.015597117,-0.004064219,-0.044941615,0.017264413,0.057915572,-0.04619283,0.11434863,0.02902546,-0.051192936,0.106769755,-0.051188894,0.094399154,-0.07064445,-0.012232003,0.008673433,-0.04207313,-0.0045844186,0.016958134,0.07879703,-0.02738535,-0.0216182,0.021255724,-0.04389384,-0.0734243,0.04329625,0.018450024,0.06970098,0.044831514,-0.027841764,-0.07574808,0.069511384,0.037014335,-0.15076506,-0.095532745,-0.0011886072,-0.0090743145,0.019745257,0.008958839,0.06544572,-0.14599988,0.045225326,-0.012960745,0.13052137,0.009772913,-0.06499507,0.07445095,-0.04799402,0.022090271,-0.12908721,0.072218575,-0.1519161,-0.06499399,-0.07704181,-0.036967605,-0.0889616,0.07534647,-0.19126612,-0.12810577,0.031348433,-0.0028701655,-0.050676763,-0.041776888,-0.048901413,0.054112513,0.08042184,0.052116927,0.07692621,-0.049152788,0.045108847,0.018467141,-0.025900243,0.08883115,-0.1256593,-0.0709517,-0.08695756,0.1222786,0.13519701,-0.018788015,-0.0762333,-0.03713517,-0.09964525,0.03198272,-0.043224506,-0.04944324,-0.04261297,-0.056848384,0.10127063,0.04168888,0.03489702,0.065516464,0.0045439727,0.0086101405,-0.0062968773,0.092434146,-0.030548315,-0.06145926,-0.08746235,0.06759623,-0.08690341,0.00073681853,-0.0063384087,-0.024402596,-0.011365382,-0.01349648,0.057581306,0.007310966,0.15939298,0.08252638,-0.05807736,-0.15120225,-0.051310327,0.04061808,-0.0077495654,-0.17233235,-0.054986797,0.013745662,0.04981741,0.045152854,-0.06845562,0.06882977,0.01861131,0.11428948,-0.07632219,0.07604054,0.113814324,-0.06697092,0.007065345,-0.1213805,0.051957827,0.055664048,0.05509263,0.06525019,0.047736004,-0.014453369,0.014785802,-0.031148642,0.070199236,0.014223766,0.085556895,0.047485307,0.08361007,-0.022022313,-0.036553875,-0.022852503,-0.026159067,-0.00016644265,-0.14173123,-0.043868314,-0.02589626,0.081159174,0.120275594,-0.060228016,0.10646816,0.061100088,0.021352751,0.028585494,0.08905687,-0.028058857,-0.09108689,-0.011842359,0.005987669,-0.09477271,-0.03412674,0.16908263,0.017636616,-0.050423674,0.010096967,0.012324802,-0.018534608,-0.104505576,-0.040882554,0.03807875,0.043008637,-0.11807533,-0.04701502,-0.044898797,0.12855078,0.025854744,0.038720075,-0.0025075597,0.0927349,-0.037922833,0.05822036,-0.099691615,0.045506004,-0.05642481,0.034826286,-0.08226952,0.09641295,-0.15213816,0.0679047,-0.011937733,-0.014566291,0.06817175,-0.0058441437,-0.018755164,-0.028038153,-0.094399706,0.07977097,-0.017781291,0.07484593,-0.010889322,0.18879852,-0.08346833,0.040068943,-0.048172835,-0.02544087,0.008572192,-0.03436351,-0.095313065,-0.0385087,-0.10329559,0.09941319,-0.03377252,0.04586768,0.0738521,-0.11188648,-0.0934137,0.17065698,0.112408854,-0.091390386,0.07397917,0.042864088,-0.03059327,-0.013655834,0.029797107,-0.09552231,-0.06579776,0.073163494,0.052187063,0.056614336,-0.0076328167,-0.01840101,-0.058925632,0.00016955816,0.063553534,-0.03343347,-0.13353749,-0.13434005,-0.03573996,-0.001326497,0.027267674,-0.0049473476,0.012452948,-0.06042779,0.005509557,0.023022778,-0.00820028,-0.15123661,0.13429093,-0.07125447,0.056725748,0.01854502,0.008842528,0.03723325,-0.011356971,0.074894674,-0.09768853,-0.03360287,-0.042277083,-0.059354592,0.107312866,-0.071066804,0.063374475,0.1294283,-0.05610896,0.011919461,-0.06996711,-0.033746302,0.025423005,0.034832444,-0.013369895,-0.00010368808,-0.07047742,-0.034305204,0.03801488,-0.12287422,-0.028635042,-0.006614784,-0.05157973,0.012661273,0.042374443,-0.09224879,-0.0059505375,-0.060720157,-0.027911115,0.09514244,0.12765326,0.028452646,-0.06383061,0.12971069,0.17544645,-0.05950118,-0.012654363,0.018453062,-0.13343213,-0.052482776,-0.14724758,0.1105505,-0.086989686,0.05663608,0.08468099,-0.018967684,-0.11091804,-0.047329124,0.026704295,0.00964872,0.001357732,-0.102746256,-0.0009938146,0.03017887,0.073568396,-0.06511612,0.039068926,-0.056383528,0.032188628,-0.064644225,0.021749036,-0.012443085,0.03619039,0.0049612215,-0.071002536,0.06469878,0.096803546,-0.021501329,-0.06248994,-0.07421265,-0.025424957,0.07856232,0.040951714,-0.05040124,0.008168351,0.1291438,-0.005696822,0.042936683,-0.04945936,0.04217848,0.006897845,0.058377665,0.07388597,-0.03671238,-0.030310422,-0.03615452,-0.14299062,0.000568441,0.15549672,0.09232481,-0.034159586,0.00021202603,0.04856398,0.1413263,-0.05520037,0.09550118,-0.049248938,0.10922731,-0.056422018,0.09040306,-0.08903799,-0.14597958,0.08071042,0.047292084,0.01501488,0.044949245,-0.029424526,-0.124046616,0.055006288,-0.0026608696,0.121766046,-0.019861039,-0.013687096,0.061752897,-0.037495054,-0.037030313,-0.07041786,-0.026751358,-0.06802547,0.050866682,-0.099534996,-0.06383204,-0.09059146,-0.05805375,0.08589269,0.02896982,-0.02277416,-0.105012625,0.023212,-0.116278544,0.03870042,-0.108521596,0.033784293,-0.09149651,0.074188404,-0.04581664,-0.10105829,-0.11671936,-0.034979384,-0.029382216,0.10733628,-0.026458303,0.05658275,-0.070596844,0.1050701,-0.091345154,0.026488544,0.05570145,0.006192368,-0.01752062,-9.693623e-05,0.016022295,0.036225583,-0.0015220197,-0.0887637,0.066537015,0.17546076,0.034883115,-0.019472804,0.008028393,-0.018560933,-0.14367467,0.079562336,-0.065637216,-0.13209462,-0.026571952,0.06075573,0.05801675,-0.018112866,-0.103525326,0.012213083,-0.039822385,-0.11092249,-0.021919766,-0.16060509,0.021886015,-0.087980896,0.0036520907,-0.10739364,-0.07422843,-0.01673589,0.1312706,-0.08617742,-0.0388257,0.022488268,-0.09239752,-0.08863237,0.03757021,0.014108366,0.070858955,0.009941877,0.072603956,-0.10557217,-0.010106113,-0.047360376,-0.08764826,-0.03604266,0.040586784,-0.018590074,0.093577996,-0.08524563,-0.08435482,0.0462576,0.15247193,0.0610424,0.009223759,-0.024792053,-0.009985811,0.0014398908,0.0012316108,0.038065407,0.02277012,-0.11465507,0.008179977,-0.019082153,-0.056699503,0.037945032,0.03932516,-0.07600616,0.033502188,-0.005029122,0.0670476,0.012256021,-0.026828356,-0.017044906,-0.019957518,0.004499024,-0.105409026,-0.012416686,0.041562907,-0.02912993,-0.010639308,-0.08315052,0.16604319,-0.18649231,-0.006126139,-0.13870838,0.04088383,0.035443246,0.042437285,0.07652164,-0.05813157,0.101370096,-0.16824332,0.057078507,0.057086743,0.08144169,-0.0051930863,-0.0027731722,-0.06489783,0.061920993,0.059555087,-0.056153852,-0.06288556,-0.088616244,-0.041588653,-0.03365448,0.031475745,-0.05473961,0.03679279,-0.0040028496,0.038757842,-0.0019222671,0.02579671,0.105632566,0.01518405,0.016268546,-0.009333115,0.0042458796,-0.15193976,-0.053114012,0.05367681,0.03035305,0.01892397,-0.07319238,0.03424905,0.060467724,0.05315329,0.007946494,-0.09320584,-0.06221425,-0.06983523,-0.06708862,0.059931125,-0.05448514,-0.020273011,-0.08486343,0.023169024,0.046084136,-0.053473014,-0.11857958,-0.030184574,-0.12239541,-0.041916706,-0.020395268,-0.12352146,0.005909405,-0.10528313,0.10106576,-0.03334326,-0.04662987,0.009906597,-0.01339408,0.00817483,0.05956986,0.1262676,-0.067220815,0.016043812,0.04128918,0.0708611,0.04407202,0.0046286634,-0.039865077,-0.12304088,0.049424037,0.020692276,-0.057617743,0.10453741,-0.035081703,0.06091991,-0.17765336,0.116991766,0.06849425,-0.07684304,0.009098422,0.03160812,-0.052606933,0.114664264,0.12289667,0.09379166,0.029636757,0.048303686,0.016538206,-0.008143837,0.10520267,0.05525759,-0.03260161,0.029689098,-0.025317637,0.020651245,0.03487799,-0.031936835,0.039631493,-0.13560563,0.09487972,-0.16789247,0.096535474,-0.034686428,-0.017002542,0.07745256,-0.0793371,-0.083144076,0.07508185,0.0047228346,-0.036377,-0.06640997,-0.0975781,0.13924225,0.05391159,-0.024328057,-0.03223221,-0.0011250024,-0.01711243,-0.07524852,0.047228932,0.028459812,0.140677,-0.013607429,0.09331596,0.023149256,0.017174192,0.007979639,0.0962501,0.0051595187,-0.02159232,0.004614203,0.056377467,0.0024039494,-0.113879204,0.093831524,-0.062522575,-0.039463732,0.0048180404,-0.024166325,0.08274203,0.0062592523,0.0191448,-0.062380783,0.032984976,-0.071343265,-0.09945652,-0.103615165,0.04857104,0.0040767733,0.13810524,0.012722063,-0.115992695,-0.1072699,-0.06668094,0.06842879,-0.007617447,0.1672233,-0.12435337,0.07371194,0.08189929,0.058005672,-0.055397335,0.02794835,-0.102927506,-0.049503725,-0.05194268,0.02672517,0.013721973,0.14126562,0.09777655,0.06135513,0.07053886,-0.022750448,0.09220508,-0.008261427,-0.07220119,0.020352315,0.096611,-0.05080159,0.016324585,0.021774411,0.029574549,0.07103623,-0.054675773,-0.032185853,-0.12131668,-0.037945997,0.016638182,-0.07856776,-0.017852066,0.06998214,-0.015983809,0.05530605,-0.052838884,0.016989168,0.022541145,-0.04959609,0.008338928,-0.042994488,0.022090513,0.023748219,-0.11048076,-0.13003261,0.03349496,-0.05338249,0.013597336,-0.11825509,0.10099622,0.12919778,0.074002996,-0.018906025,0.028264292,0.13644251,-0.011507577,0.060662664,-0.13167337,-0.10649094,-0.0033067015,0.035135947,-0.14179678,-0.015499161,0.13942614,-0.045861363,-0.036497675,0.006981525,-0.010105481,0.008516683,-0.011880905,-0.064878404,0.044048868,0.011063691,0.07278461,-0.11336621,-0.060979992,0.05742263,-0.16914545,0.04468743,-0.039324004,0.07042887,0.09668162,-0.036758393,-0.07505532,0.015770512,0.05759601,0.00097071205,-0.067670465,-0.043610185,0.06582491,0.055973377,-0.023072358,-0.021113953,-0.04178208,-0.065554895,0.054044176,-0.051885955,0.117003374,-0.108453706,0.04010917,0.039472457,0.024212295,-0.09141511,0.08786827,0.04369704,-0.08173564,0.025806732,0.020827718,-0.04206718,-0.033917077,0.04951004,0.009938571,-0.060501315,-0.05380163,0.17344539,0.004053768,-0.07136966,-0.006092526,0.0007892833,-0.1488837,-0.052267663,-0.04148148,0.0654818,0.07546697,0.04238492,-0.060365524,0.027984012,0.011893439,0.023644174,0.025827903,-0.09422294,-0.03453894,0.12026925,-0.001607747,0.174039,-0.1481999,-0.01861854,0.026044149,0.114006475,-0.11528671,-0.16989838,-0.016204925,-0.005123013,0.015597286,0.05724437,-0.04260453,-0.07452489,-0.15818845,-0.028351912,-0.0072691115,-0.09649383,-0.05356932,-0.009438265,-0.01519705,0.04101725,0.004013084,0.019036239,-0.030606106,-0.010078334,-0.022722963,-0.074318945,0.098454855,0.04741924,-0.04801242,0.09714608,0.021020174,-0.0426669,-0.137808,0.07734673,0.007601034,-0.05035419,-0.11615987,0.022500698,-0.07364749,-0.03761334,0.068597056,0.0049693137,-0.08519725,0.010962733,-0.071001604,-0.021278853,0.061519805,-0.028262764,-0.08518988,-0.027568847,-0.027900644,-0.08827841,-0.10089572,-0.013266324,0.09456136,0.07231006,-0.003167781,0.005884322,0.06312146,0.058786947,0.08934577,-0.044609778,0.1182184,-0.0067802425,-0.0087894555,0.0018103564,-0.041908138,-0.0900748,-0.00088592333,0.03006182,-0.0068891714,-0.009319816,0.055671014,0.093864456,-0.19859149,0.14415745,0.071909934,0.08610583,0.020821705,0.053536955,0.032000262,0.06075868,-0.063084096,0.05123061,0.013357748,0.033392962,0.06700499,-0.07320215,0.0006962214,-0.06318061,-0.08873043,-0.06230616,0.12584735,-0.036986157,-0.019847054,-0.06025008,0.11860701,-0.07924662,0.06641395,0.01751732,-0.06663195,-0.07865639,-0.013587156,0.1060918,0.11394292,-0.026516661,0.012849387,-0.037592936,-0.01467229,-0.010258508,0.0011645628,-0.038801,-0.030064117,0.013288108,0.030778224,-0.04569108,0.016090315,-0.04652556,0.02377452,0.08012608,-0.005718706,-0.12392942,-0.0960331,0.11272602,0.0564295,0.11489372,-0.010792149,-0.014028181,0.07187659,-0.034317546,0.131475,-0.0517233,0.043379825,-0.028669482,0.0071212705,0.070424184,-0.04093092,0.019977748,-0.029645192,-0.037418492,0.040546697,-0.033336144,0.07547072,0.019119535,-0.031871945,0.11967153,0.007986879,0.102767125,0.07277994,0.016327467,-0.16893661,-0.009517092,0.1985785,-0.044185225,-0.12561843,-0.036232553,-0.015950406,0.07323943,-0.06078414,-0.026505569,-0.062111028,-0.0069491803,-0.0081364475,-0.08312899,-0.065154836,0.01831381,-0.074953996,0.04231761,0.039936054,-0.008958281,0.06871193,0.007058704,0.0826779,-0.010418733,-0.12209569,-0.050291255,0.01816216,0.0061145537,0.050615195,-0.01763321,-0.030829402,-0.11825529,0.048181277,-0.115340605,0.065804735,-0.08965343,0.011959376,0.08164985,-0.02978984,-0.024573619,-0.087774366,0.018569786,0.1556979,0.02789304,0.124587126,-0.011542887,0.046234958,-0.07337665,0.03106862,-0.005938717,-0.030741874,0.07849312,0.11098863,-0.0070539466,0.06747099,-0.13641989,-0.024755817,0.033680737,0.04595879,0.026999066,0.0894039,-0.06456466,-0.055727255,0.093841955,0.0215935,-0.018045876,0.115398556,-0.11110113,-0.14188653,-0.11098954,-0.047598206,0.1069112,0.12874097,-0.0064505124,0.05834153,-0.011417829,-0.009318438,0.082614556,0.09781797,-0.020333014,0.064004876,-0.07628035,-0.06438307,-0.040917233,0.060542725,-0.020340102,0.08431627,-0.005286341,0.007621543,0.04781259,-0.05819924,-0.03049252,0.001451931,-0.10887419,0.005691453,0.020773344,-0.17712647,0.101218835,-0.0031465746,0.07825494,0.06517507,-0.05292897,0.11902582,-0.046136145,0.03678854,0.011044933,0.054476913,0.045669418,-0.008164699,0.04203551,-0.029477248,-0.16324623,0.022221718,0.054900218,0.045645785,-0.067548364,-0.07864794,0.05740926,0.05210553,-0.08597942,-0.08668286,-0.025617016,-0.026176,-0.08269688,0.05598132,-0.022162462,-0.13372853,0.09840188,-0.060926083,-0.057739303,-0.00087855186,0.07144459,-0.05503858,-0.11186652,-0.12996054,0.042099852,0.11015165,0.02293111,0.0963632,0.026040636,-0.011199392,-0.03022184,-0.028237835,0.0054359585,-0.051503398,-0.09547233,0.02196006,0.0055995644,-0.026829885,-0.1668588,-0.06501717,-0.013678029,0.010271295,0.007987167,0.040146664,-0.034868237,-0.08281594,-0.09806126,0.052914146,0.029711025,-0.09514003,0.00832548,0.09069984,-0.00077933376,0.006058094,0.06322158,-0.10695158,0.009701441,-0.003856917,0.08714153,-0.077381685,0.062357977,0.021279346,0.00899559,0.034236528,-0.1261479,0.08668647,-0.030777887,0.003247826,0.09979504,-0.07207981,-0.03476524,0.060252897,0.20600764,-0.112334415,0.0145963775,-0.008736362,0.047054004,-0.031760827,0.030852072,-0.06382975,-0.009246683,0.002749141,0.04164528,0.051941805,0.079378024,0.008609673,-0.117956854,-0.044270247,0.011821062,0.0011121265,0.03956782,0.033127807,-0.02615759,-0.013419348,0.07156201,-0.11273193,-0.047897298,0.09060385,-0.11053325,-0.020129792,-0.0325268,-0.012734242,0.096076116,0.09265373,0.11182972,-0.042591404,0.042069238,-0.023223326,0.028572418,0.026030224,-0.028204381,-0.004935664,-0.03059694,-0.06771422,0.12925982,-0.06892289,0.063201696,0.05003399,-0.04104321,-0.059714228,0.07902671,0.008059681,0.023295058,-0.0568344,0.09584688,0.111324236,-0.03682977,0.026367685,0.11301215,-0.009731361,0.04145418,0.076277144,-0.130891,-0.03499918,0.034726728,0.07083609,-0.02568262,0.10763473,0.09436348,-0.085520685,-0.13145062,-0.09356645,0.00052166043,0.09605922,-0.07296298,-0.14858267,-0.017668013,-0.002210665,-0.15266429,0.058280375,-0.010130712,0.059476256,0.031616975,-0.10887299,-0.0129625015,-0.03226767,-0.012853526,0.020082053,0.0966056,0.041203298,-0.022793198,0.016567415,0.050797794,0.043686327,-0.19060378,0.065896235,0.029204974,-0.013408203,-0.1322265,0.051957354,0.032436684,-0.071472876,0.0004590817,0.042249594,-0.08045674,-0.15221448,-0.04746734,-0.086277224,-0.22143114,-0.04744782,0.063974455,0.13241598,0.083376996,0.07617815,0.013608506,-0.028430043,-0.05256481,0.04468702,0.08006981,0.03297415,-0.057330154,-0.06593404,0.0030527872,0.12492282,-0.13272595,-0.016501654,0.075098515,0.00843718,-0.023583574,-0.025173478,0.007869898,0.11923293,0.01805655,0.090152055,-0.041902464,-0.002109227,0.010684329,0.053987112,-0.067433015,-0.042350013,-0.043332223,0.033785217,-0.11133882,-0.019105136,-0.03979635,0.10910994,0.071160465,-0.022255292,-0.0111104585,-0.021479134,0.02902919,0.004396573,0.027646514,0.0035445627,0.012150048,0.095874935,-0.06948288,-0.061680183,-0.067111865,-0.15551198,-0.1556795,0.0670993,-0.120960824,0.13339768,0.0983541,0.03500418,0.005897374,0.011255633,-0.078072965,0.1289675,-0.050629046,-0.0013580868,-0.016558893,-0.11655799,-0.104668334,-0.0023962262,-0.065901004,0.10446472,-0.12353088,-0.11072876,-0.09551517,-0.00078404904,-0.03241123,0.003860915,-0.071313284,0.02065513,0.054179028,-0.04292487,0.019859768,-0.15738025,0.044671904,0.05003087,0.054730795,-0.0038524528,0.13800526,-0.06567607,0.10027427,-0.002418429,-0.11522632,-0.032566186,0.015475611,-0.02051972,-0.037219565,-0.011361772,-0.12665696,-0.13620916,0.0006672881,0.10037009,0.030555246,0.046576362,-0.086366594,0.03617973,0.030714033,0.16856837,-0.013243175,-0.0909937,0.0659885,-0.016626976,0.0054657348,-0.069854796,-0.0038170666,0.02666576,-0.011984705,-0.04619015,-0.016220415,-0.052006602,-0.051965896,-0.06720391,0.04031713,0.043411203,-0.11262421,0.06480435,0.045686234,0.0047450564,0.1154175,0.008068764,0.008238732,-0.019976538,-0.011779149,0.081895456,-0.021756059,-0.01694529,0.008767043,0.12910861,-0.05323206,-0.010472729,0.050401695,-0.027545359,0.052326113,0.07813746,-0.04613315,-0.09359557,-0.023863466,-0.095464565,0.0665012,0.0881434,-0.099861026,-0.17762937,-0.010056596,-0.031583533,0.03254902,-0.08154862,-0.027069952,0.099695444,-0.066797346,-0.01611975,-0.088800415,0.028377764,-0.03470641,0.10293824,0.05436062,0.015068277,-0.1377683,0.03806384,0.050109126,0.1567387,0.07981891,-0.03265332,-0.09503611,-0.03188449,0.04543135,-0.086738884,-0.056570712,-0.018088674,0.036868453,-0.022819923,0.08417107,-0.11534319,0.09255827,0.04562206,-0.03848548,-0.0844379,-0.09241685,-0.006382229,-0.07976934,0.058395922,0.094321325,-0.036121223,-0.010316246,0.03403138,-0.0070379823,-0.011971516,0.069859646,0.0055855573,0.08901758,0.24476716,-0.12003783,-0.07150616,0.01662771,-0.031491052,0.0340629,-0.002541044,0.050079234,-0.1283768,-0.1329493,-0.037125565,-0.050383355,0.14443259,0.06529726,-0.08631127,-0.07515219,-0.035168875,-0.053464696,-0.05002624,0.00129869,0.068175785,0.017529856,0.09249329,0.07010569,0.036715012,0.014624971,-0.048141133,0.01187837,0.02137542,0.016910812,-0.06492387,0.012798413,-0.120481394,0.045330662,0.010335391,0.03788109,0.06965742,0.13562548,0.008887756,-0.009752319,0.03588981,-0.012483522,0.009250062,-0.057069875,0.019625064,-0.07723203,0.048592985,-0.059279215,-0.032079503,0.18894991,-0.13185881,0.0045720963,0.04511974,0.034186553,0.0013752871,0.06231002,0.01582897,0.06359383,-0.041497637,-0.05302343,0.06804434,-0.015853561,-0.038826473,-0.09415489,0.012597866,-0.07953101,-0.038926203,0.04735561,-0.031213665,-0.02651853,-0.06850586,-0.11224045,0.005700097,0.10546537,-0.108161725,0.007687683,-0.01035612,-0.11905276,0.021526024,0.07237189,-0.021843545,0.09164736,-0.10742317,0.0813276,-0.029397883,-0.006477246,-0.029130638,-0.07945714,0.12550347,-0.13945362,0.17200255,-0.08601956,0.011131866,0.036297478,0.08894729,0.036517974,-0.038595803,0.014015159,0.06692714,0.054513104,-0.07746837,0.11813299,0.031357482,-0.08928773,0.021272799,0.07857461,0.09686141,-0.14824931,0.004505547,0.043693196,-0.061873958,-0.03077327,0.10651324,0.111938335,-0.10960785,-0.0311257,0.005671556,0.08620611,0.08006029,-0.01894613,-0.04656542,-0.115331054,-0.04130847,-0.04705933,0.029753167,0.014874591,0.068014435,0.11949652,-0.012131016,-0.049925264,-0.106681556,-0.0101255765,-0.013805449,-0.116463624,-0.09253503,-0.07781837,-0.001069741,-0.0782631,-0.09815097,0.09991242,-0.1743764,0.012538689,0.0719807,-0.06698022,0.027767304,-0.0043017436,-0.05119291,-0.011177954,0.01994988,0.04372456,-0.080638975,0.09828055,0.021162387,-0.019799123,0.10985685,-0.03782958,0.06882082,0.099200055,0.006145567,0.004942081,-0.043798953,-0.019580511,-0.05814998,-0.08359426,0.043274645,0.049865,0.040519368,-0.058473006,0.02264013,0.008059827,0.06750098,0.05541727,0.07869713,0.0071186614,-0.075038895,-0.08903026,0.018015144,-0.0858774,0.04176975,0.00016235193,-0.028261034,0.02948713,-0.047928814,-0.0903384,0.1324533,0.1269067,-0.037014205,-0.087340325,-0.028433733,-0.05170526,-0.0056355097,0.038157087,-0.08892923,0.04067816,0.07009223,-0.0581701,0.04602336,-0.0873387,0.08005094,0.14691298,0.03428839,-0.089258,-0.02578048,-0.1456851,0.035693318,0.0751031,-0.011517572,-0.13005665,0.037319254,0.052857935,0.0404772,0.02200379,0.048675265,-0.058576554,-0.06031149,-0.031190317,0.08510239,-0.022774097,0.017369932,0.012668017,0.07040987,0.054427985,0.081357256,-0.14233455,-0.084541574,0.013046443,-0.088679515,-0.006680468,0.02665849,0.014196758,0.120477304,-0.12886469,-0.047478344,0.0014651079,0.056603186,0.07814261,-0.03249515,0.03312601,0.07998548,0.045285366,0.028221276,0.012639625,0.008742368,0.05733378,-0.09905472,-0.07427985,0.01895068,0.0035243789,0.11138639,0.058167573,0.011835637,0.07969654,0.005750023,-0.06766994,0.0007505641,0.09469966,0.010882005,0.0013649324,0.02196873,-0.07692739,-0.093886815,-0.022998374,-0.012896442,-0.11154165,-0.00529236,-0.027166707,0.008829338,0.092284866,-0.07874329,-0.0423111,0.05443841,-0.085578404,0.02766711,-0.081107765,0.11231618,-0.022000862,-0.17844391,0.05285939,0.0075762826,-0.12926394,0.13346699,-0.17084816,-0.05899882,-0.09519428,-0.115759276,0.03193393,-0.02759926,0.041208062,0.0018296882,-0.002333066,-0.0824222,0.033397797,-0.00086005183,-0.014202271,-0.054562338,0.009953888,0.04303597,-0.09761579,-0.08096111,-0.11237398,0.15115249,0.09247907,-0.12968421,0.022764815,-0.015737498,0.13997829,0.101664476,0.0051431274,-0.10609097,-0.0642722,0.06517835,0.09842872,0.09632642,-0.065332875,-0.051674597,0.01252942,0.12951574,0.013524662,-0.037867095,-0.030927898,0.07540513,0.13673466,0.01534607,0.09898088,-0.13139316,0.0057143983,-0.025457358,-0.085848406,-0.049066305,0.009160813,-0.028419076,-0.10021821,-0.03501306,0.016590701,0.011297348,0.025495045,-0.10765811,0.031937458,-0.046974294,-0.08259177,-0.024361353,-0.06873459,-0.059538804,-0.035435293,0.069632046,0.06089116,0.11138689,0.03812106,0.089346275,0.017797094,0.04672874,-0.053318758,0.0073028393,0.05740467,-0.07827022,-0.08346234,-0.15464315,0.02147093,0.12544385,-0.032709718,-0.087780274,0.043273088,-0.0009274436,-0.10310428,0.077568345,0.09662236,-0.11478041,0.038092203,-0.12725002,0.033433776,-0.03718189,0.16910231,0.065931655,-0.041067667,-0.012615058,-0.15558407,-0.016719373,0.0057696206,0.027379027,0.025410341,0.055403505,-0.066290304,0.05996755,0.04186848,0.06198286,-0.09817217,-0.03051253,0.1020648,0.007966867,0.020790113,0.09914498,-0.07189133,-0.0045516007,0.023760758,-0.093522884,0.056829188,0.04885325,0.079923324,-0.11241164,0.019456238,0.03421782,-0.015062287,-0.024384063,0.10367158,0.103482746,0.009580248,-0.1741157,0.011461952,0.008776871,-0.015773376,-0.04120675,0.010949609,-0.10641831,-0.027596397,0.033724062,-0.049818665,0.101009354,-0.020172901,-0.086586416,-0.01104476,-0.046523478,0.07523309,-0.017026035,0.044897728,-0.046293613,-0.08053994,-0.005471879,-0.025836328,-0.035215434,-0.08060094,-0.095713,-0.1222007,0.10638141,0.111648686,0.046970785,0.024641417,-0.073692515,-0.021245213,0.07504108,-0.021280997,-0.02489288,0.06156512,-0.023762736,0.11367191,-0.054550733,0.03749917,-0.09042618,0.12091952,-0.10089226,-0.122685604,0.03768722,0.012747837,0.062477473,0.110443264,-0.030845298,-0.0075360057,-0.12184586,-0.0008516808,-0.10186617,-0.10527595,-0.0495553,-0.017591001,0.07869095,0.038234446,-0.033349052,-0.01383687,-0.04487369,-0.058791537,0.03051581,0.026654331,-0.012128188,0.0138003435,-0.050819553,0.072037816,-0.0313147,0.095119774,0.003106167,0.03996136,0.08473114,0.054144286,0.09723236,0.019342935,-0.1327743,-0.08216633,0.07065587,0.046071663,-0.154241,-0.019179087,-0.027936395,-0.03773551,-0.06278283,0.04317815,0.08321438,0.10962296,-0.005292721,-0.11133671,-0.05991906,0.08443235,0.07598285,0.0720546,0.045822833,0.04398926,-0.061278153,0.013616297,0.07420356,0.007359038,-0.009257234,0.069812015,-0.035029948,-0.031272776,-0.021246217,0.002553084,-0.026721863,-0.0028554867,-0.034735326,-0.10911464,-0.02693133,-0.009908223,0.004519089,-0.041477874,-0.01257311,0.18143322,0.06890937,0.06839106,-0.07614369,0.049115784,-0.024307514,-0.017963497,0.113592915,-0.045486342,0.111015186,-0.13773786,0.09687832,-0.015731126,-0.068395294,-0.07400763,0.090022825,0.09360737,-0.039568592,0.12636226,-0.15820941,0.013720208,0.13052087,0.034797765,0.036972143,-0.096493155,0.024625763,-0.09427912,-0.03395139,0.03993938,-0.047471747,-0.15460783,0.010755098,0.12935755,-0.1345184,-0.07257391,-0.11425382,-0.026687957,0.07726112,0.029037634,-0.02619967,0.034465257,0.042249195,-0.034737308,-0.14446753,0.0077952244,0.058845226,0.092134304,0.0002784228,-0.030267,0.15080053,-0.06833528,-0.02711331,0.049231246,0.093987174,0.005069421,-0.01804762,0.027699623,-0.039461643,0.044729766,-0.05569159,-0.024993408,0.035389967,0.028067494,-0.020080104,-0.0006027507,0.025599223,-0.08590141,0.06917589,0.036184892,-0.070183784,0.0030229634,-0.044194687,0.08903686,-0.016351694,-0.050439212,0.061273318,0.07430973,-0.014820895,-0.038599234,-0.049582954,-0.0006910611,-0.09844837,-0.1396857,-0.012423246,0.076774746,-0.09075104,0.017649103,0.0012589467,0.014173382,-0.035846233,0.008355184,0.027873876,0.09027934,-0.07261434,0.0043188264,0.005102948,0.10517853,-0.030612748,0.16301301,-0.091505334,0.0863741,-0.08315437,-0.005314595,0.12923966,0.076908536,0.03715133,0.08191791,0.058233026,0.011258619,-0.12581314,-0.031199802,-0.021392211,-0.0670917,0.019629646,-0.036150645,0.0956771,-0.015329131,0.052526455,0.028149933,-0.04169394,0.09644761,0.03320334,0.058955695,0.03332028,0.023611069,0.10473063,-0.010632194,0.038333226,0.065659806,0.08281521,-0.008336413,0.09414942,0.098330915,-0.080429606,-0.19568937,-0.02109177,-0.019814234,0.08893999,0.0173556,-0.06270403,0.008407468,-0.046835035,-0.046285447,-0.019498564,-0.02297791,0.019964417,-0.047859117,-0.089340456,-0.0059813373,0.10567403,0.027936868,0.062429853,-0.093953416,-0.114713326,0.058805108,0.045987066,-0.13280821,0.11457888,-0.12589964,0.08224522,0.11743405,-0.0028627384,0.10933543,0.08378151,0.06546159,-0.031880368,0.103200085,-0.043017797,0.019337771,-0.034413263,-0.070392616,-0.042152263,-0.12899311,-0.027452948,-0.04945668,0.0048058745,-0.061567787,-0.07744396,-0.04104908,0.051995687,-0.09049227,0.046622355,-0.04114492,-0.09602878,0.028611219,-0.071346276,-0.12141377,-0.06458959,0.013263315,-0.0095159365,0.03318736,-0.040667944,0.043422885,-0.14452974,-0.12069098,-0.005447607,0.012269861,-0.04193666,-0.035830963,-0.00039623235,0.12169298,0.038768955,0.09642828,-0.027151756,0.079767935,0.19385614,0.010499348,-0.014438701,0.08581204,0.11229572,0.063445896,-0.10118484,-0.11579477,0.017084848,0.03414431,-0.022696892,0.021472292,-0.04966813,-0.03372302,0.021660792,-0.101209655,0.0857291,0.07102425,-0.044587865,0.016292237,0.10587723,0.0062030433,0.10899536,0.017707435,-0.02098495,-0.028110752,0.01941902,0.017204354,-0.11610058,0.11123262,0.14544678,0.023769243,-0.046455957,0.13360569,-0.026972152,0.0667344,0.022771358,-0.03430206,0.031186799,0.111779906,-0.013428279,-0.0062303892,-0.056403007,-0.079760306,-0.09884006,-0.011501281,0.12428838,0.05388277,0.10910747,0.067792,0.015995009,0.009348244,0.060026348,-0.028298678,0.023115275,0.044543445,0.045477174,0.09799925,-0.041058306,0.10520655,0.005423928,0.03455069,-0.05535783,-0.025516788,-0.0802969,0.017558726,-0.0024863926,-0.09608935,-0.05425966,0.0025607198,-0.0037751198,0.01633052,-0.15431325,0.042676214,-0.06311623,-0.008087644,0.061698835,0.087589376,-0.041754566,-0.09470534,-0.0023413345,0.003478004,0.10132438,0.024960203,-0.12263837,0.013472923,-0.05431819,0.049047567,0.102544904,-0.02597585,0.098309405,0.12248731,-0.099390745,-0.075626574,-0.1040344,0.024454229,-0.044384994,0.008376929,-0.061524324,0.18022573,0.045328315,0.10310668,0.10066551,0.068863496,0.07786084,0.0316599,0.022917507,0.116788425,0.045112707,0.08953367,-0.0952653,0.10235591,0.07016418,0.096909165,-0.006497783,-0.033694383,0.090376936,0.09094724,0.09950611,-0.01988825,-0.12868743,0.011432957,0.06005471,-0.041589547,-0.052277494,-0.026355365,-0.038496964,0.0053998074,0.13911991,0.0077673304,0.046854723,0.0078025255,-0.05601252,0.023298593,-0.025505316,-0.01760594,-0.081163734,0.09364217,0.0722178,-0.059184268,-0.037852325,-0.09258781,-0.07253414,-0.061876487,-0.0058293613,-0.03600718,0.013866211,-0.08349965,0.03503742,0.0150434,-0.06377683,0.016759694,-0.038945545,-0.022625681,0.04124392,-0.023473877,0.005825255,-0.1469571,0.05407784,0.013256521,0.028831063,0.0011761383,0.066672914,0.006511522,0.067615025,-0.014524023,-0.004790278,-0.053598665,-0.098566785,0.008888396,-0.05777247,-0.022455182,-0.016636057,0.013116815,0.06776133,-0.0014442676,0.0023710576,0.0316505,-0.023018463,0.015479893,-0.015399259,-0.054686915,-0.028418439,-0.026541445,-0.020362783,0.16397749,0.028304264,-0.05189414,-0.03226795,0.14553979,0.0053392393,-0.06798163,0.12847157,-0.07607691,0.07590502,0.10174185,-0.026713448,-0.028522972,0.020898655,-0.02080311,0.040427495,-0.035580833,0.03448241,0.041372776,-0.0009301384,0.043139864,0.0595981,-0.13692029,0.011413966,0.06478392,0.15085925,-0.10417022,0.004492524,-0.12260377,0.05234458,-0.017459903,-0.09886471,-0.06449299,-0.10224652,0.018467411,0.04826489,-0.014011415,-0.086082086,-0.06262143,0.056765586,-0.12090743,-0.08398328,-0.04990573,0.012083138,0.081800565,-0.0051015154,0.05296161,0.006795905,-0.03285576,-0.0680592,0.15255108,0.16939364,-0.025533123,0.033159103,0.06744354,0.04859452,0.044888675,0.12010674,-0.01164672,0.02048543,0.03679663,-0.024385218,-0.037706476,0.019333007,0.039510302,-0.015938252,-0.0009366761,-0.0068448936,-0.028279467,0.0016892072,-0.10236101,0.009900736,0.021818494,-0.10293641,0.006730041,0.11286651,0.006914487,-0.04582725,-0.0031003798,-0.088844575,0.066004895,-0.06336983,-0.043603197,0.023139894,0.13647448,-0.07476372,0.059135273,-0.065558575,0.030177683,0.034244005,-0.038304254,-0.062040012,0.014739303,0.0012191467,0.11257644,0.035203785,0.01593338,-0.08244652,0.029048122,-0.080838814,0.09381746,-0.021410372,-0.02844381,0.066575214,0.012447758,-0.0831814,-0.015874136,0.025234997,-0.1476901,-0.016450707,-9.175839e-05,0.15437776,-0.05233921,5.4651984e-05,-0.039792906,-0.11465617,-0.01871614,0.0049225856,0.014103616,0.0031374446,-0.017540395,-0.010937462,-0.058268126,0.008266204,0.017121013,0.037924573,0.059325986,-0.10643647,0.030237338,0.0003680049,-0.09068575,0.04682194,0.009641923,-0.037554316,-0.08796363,0.03934565,-0.035530128,0.094641075,0.1265317,-0.089950554,0.07921176,-0.06622359,0.009073017,0.08924513,0.016162412,0.0020622571,0.044985995,-0.033090368,0.027256992,-0.020748233,-0.035184886,-0.051655773,-0.07433991,-0.16002502,-0.09101134,0.056052472,0.021656964,0.009175708,0.028353272,-0.026521744,0.026240177,-0.07716986,0.03363239,-0.049601108,-0.0681343,0.15635324,-0.047036305,-0.12906039,-0.019508371,0.037839018,0.14323296,-0.09857885,-0.011713084,0.11632426,-0.016724205,0.06324702,-0.023845354,0.11668504,-0.024898473,0.07620075,-0.043266114,0.09583485,0.0062318,-0.019410118,-0.008112547,0.02361376,0.21213081,0.042028982,-0.021027029,0.09353573,-0.10432955,-0.05607628,-0.04326861,-0.05275219,0.119137116,0.07854093,0.04692347,0.063720554,-0.14622012,-0.14928973,0.11829821,-0.048509084,-0.091310345,-0.08405765,0.06881949,0.11295741,0.02121943,-0.06158605,-0.042494033,0.07354041,-0.08005114,0.064081766,0.0014055703,-0.07439274,-0.003178988,-0.034671765,-0.05034212,-0.05234543,-0.12466115,0.14116713,0.0096117025,-0.055631615,0.15216447,0.06609701,-0.097459495,-0.07396792,-0.04302606,0.055521954,0.035117798,-0.050657757,-0.07913265,0.06985939,0.0018196688,0.07560919,-0.16890809,0.029186036,0.07785756,0.006491826,6.623984e-05,0.016639331,0.017033305,0.023193492,0.045302253,-0.0219846,0.037614096,-0.023131678,-0.061575543,0.051709164,-0.01702248,0.0051061483,-0.008633861,0.035147227,0.00306885,0.13568445,-0.06333686,0.023210973,0.16753247,-0.03434684,-0.0039164927,0.007439659,0.060730677,-0.0015646655,-0.0132958945,-0.019825837,-0.014770803,0.033774175,-0.08898183,-0.11978274,0.024495153,-0.035795365,-0.07152955,0.008241916,0.025212025,0.00043112924,-0.06900597,-0.0060308776,-0.056035243,-0.14176421,-0.07579267,0.0052441475,0.012275666,-0.05137957,0.013670598,-0.037853774,-0.07784192,0.09249218,-0.01941211,-0.085737795,-0.025996277,0.1014331,-0.046069164,-0.16952865,-0.04747976,-0.042877197,0.039263688,0.106122985,-0.032489277,-0.00959682,-0.041398644,0.118602954,-0.08085426,0.01803912,0.09202949,-0.054597,0.07071095,0.00092591316,0.1143019,-0.023755725,-0.0134670995,-0.076493286,0.06247744,0.03679213,0.07951059,-0.050615743,0.10493093,0.09000942,0.09162216,0.11834946,-0.009551537,-0.04293043,0.06341068,-0.043576963,-0.05036013,-0.067762,-0.051880907,0.11391961,-0.04613531,-0.066945836,0.05414696,0.0064562373,0.032538477,0.09206672,-0.027431902,0.049514387,-0.036788043,0.06728092,0.033188704,0.066147365,-0.02897856,-0.027116803,-0.06419933,0.058699198,0.026527392,0.13569547,-0.005605059,-0.05522957,0.09812383,0.08352383,0.15865399,-0.12086221,0.038160145,-0.0012574209,0.1527256,-0.0020829325,0.0028401199,0.022403067,-0.016004248,-0.047397655,-0.045191295,-0.05718732,-0.021401543,0.03750507,0.0084350975,-0.05422891,0.09087072,-0.12535284,0.12460308,-0.057480585,-0.10986542,-0.020786857,-0.12205039,0.08926132,0.13835998,0.021024495,-0.09138689,-0.050449446,0.10200848,-0.06557282,-0.08408404,0.04825657,0.09962844,0.012197671,0.13475451,-0.03410207,0.06298625,-0.09992179,0.08678321,-0.07774667,-0.021587124,-0.00817483,-0.03854561,0.030387254,0.03081162,0.049189407,-0.07761335,-0.05875383,-0.05906259,0.042928036,-0.024658676,0.0040846355,0.08071386,-0.10072424,0.08398707,-0.010170797,0.12856515,-0.06609263,0.04762686,0.054057915,0.081670746,0.0060346904,-0.043010183,-0.17671564,-0.095385134,0.06091442,0.082398824,0.038651552,-0.03706248,-0.044418205,-0.029220995,0.07617871,-0.066799715,0.05862128,0.12318136,0.0033284144,0.067944594,-0.10534213,-0.027738346,-0.029772682,0.031613026,0.026851917,0.12973343,-0.061386764,0.11324857,0.0088351015,-0.057860266,0.011309379,-0.13216414,-0.025251511,-0.009066116,-0.005002461,-0.06714563,0.02258938,-0.04028587,0.037872635,-0.0743109,-0.0045370515,0.0521352,0.07492607,0.09722929,0.035970338,0.06739906,0.11331573,0.06724382,-0.012133564,0.08274149,-0.13903837,0.036459457,0.0423981,-0.037921738,0.07230449,-0.05369235,0.041442763,0.091157265,-0.06269764,-0.041868143,-0.011482586,0.019635113,-0.11534323,0.067909,-0.05499988,-0.08989795,-0.06230578,-0.094415225,0.023457285,-0.002756408,0.07420263,0.06862661,0.012230918,0.06177178,0.045966458,-0.11213968,0.0027197239,-0.013588103,-0.03702569,-0.08964963,0.08090432,-0.117545806,-0.09356594,0.14027649,-0.064697824,-0.14930552,-0.068017244,-0.11742237,-0.031551253,0.092070304,-0.068208136,-0.012105117,-0.047225725,0.02880519,0.02085469,-0.07655098,-0.10187655,0.020804776,0.07799606,0.017139245,0.06205463,-0.03297007,0.054415494,0.14464228,0.031060241,0.11532198,0.12742431,-0.013848223,-0.04565452,-0.10453421,-0.05651496,-0.051410954,0.07343915,0.027249957,-0.1207163,-0.012518072,0.08352519,-0.06859788,0.052293185,0.014570459,0.010614872,0.00062620605,-0.061303675,-0.05763484,-0.094299234,0.044844296,-0.00015996123,-0.022552634,-0.06702272,0.0066618337,0.038285013,-0.10847128,0.07158743,0.14520186,-0.015014731,0.12650916,-0.045236897,-0.10083484,-0.029600188,0.00737202,0.0051740296,0.09234308,-0.08186719,-0.060591046,-0.044129238,-0.017176108,0.03310188,-0.20487875,0.040334683,0.050392225,-0.083288014,-0.0046649263,0.046243425,-0.084065735,0.028937392,-0.042055193,-0.011727755,-0.028790243,0.027608639,-0.11764614,-0.016805192,-0.03542631,0.1082562,-0.04595941,-0.02868445,0.023920272,-0.07032525,-0.13852799,0.045537565,0.050108574,0.09615198,0.03924272,0.013127619,-0.030374307,0.037578106,0.082955554,0.05664761,0.093193404,-0.0006442716,-0.03949396,-0.06048653,0.0341943,0.21656865,0.028319752,0.03347593,0.049013164,-0.058445066,-0.038749795,-0.12157318,-0.0021796285,0.029521648,0.06594645,-0.1140765,0.0389202,0.18504345,-0.001960522,0.028159702,-0.15971997,-0.13684425,0.06379226,0.08145823,-0.015073769,0.09168129,-0.030815024,0.0026942354,0.05029055,0.09525123,0.0075596203,-0.022393456,-0.08000242,0.045136083,0.08762089,-0.13034803,-0.023049336,-0.017947167,-0.12626703,0.04159711,0.05593288,-0.04026998,0.011822701,-0.086942,-0.038715456,-0.07298964,-0.018158613,-0.0007768503,0.024469987,0.007585958,-0.040266432,-0.015225168,2.625538e-05,-0.06663316,-0.015644012,-0.088675894,-0.019596273,0.05892989,0.05477441,-0.04867423,0.006063353,-0.13964109,-0.09675825,-0.06259922,0.031491023,0.044213407,0.01690774,0.046605483,-0.023068383,0.038301587,0.068465285,0.05219587,-0.045999385,-0.02308907,-0.0983959,-0.099192835,0.07485098,-0.08601126,0.05822246,-0.0443731,-0.0017164013,-0.04795744,-0.028186698,0.08640442,0.0420697,0.029915059,-0.022772936,0.01386052,-0.009452179,0.15155911,0.023169626,-0.03386879,-0.03510567,0.04645585,0.0055469708,0.06954702,-0.048154913,-0.016430346,-0.008843746,-0.17387713,0.09605815,-0.09907969,-0.042247135,-0.014255748,0.015039482,-0.027499905,0.046515353,-0.0010480948,0.12960447,-0.12925501,-0.09695757,0.12756883,0.0021265359,0.1635295,-0.04977046,0.051864844,-0.034668926,0.055289734,-0.031306025,0.058211,-0.018835919,0.03483804,0.10678109,0.04294816,-0.060481187,-0.0525741,-0.023125634,0.015662841,-0.020248774,0.08632568,0.104046695,-0.09110179,-0.058226027,-0.014899901,0.06127984,-0.067314476,-0.08200948,-0.1331156,-0.08430692,0.120103724,0.061509375,0.018927788,0.009357684,-0.007512132,-0.0036646288,-0.07719955,-0.10785208,-0.0069533675,-0.025888255,0.05194906,0.2042938,-0.0068610627,-0.07075433,-0.0877642,0.14782639,-0.048157066,0.0014274281,0.089985974,-0.017261159,-0.013032001,0.08395711,0.003104703,0.008303942,-0.18155682,-0.0138388015,-0.11948646,-0.087584145,-0.070269756,0.0369787,-0.0061702356,0.107622914,0.013952433,-0.091075145,0.038673185,-0.08904548,0.10871912,0.043723788,0.03281515,0.08348904,-0.058404367,-0.014445086,-0.07311988,-0.024949243,-0.102996506,0.039172385,-0.07244923,0.029162189,0.024731563,-0.06455689,-0.08086952,-0.017501567,0.060574003,0.039494786,-0.16305229,-0.10357724,-0.07295927,0.049212903,-0.03243258,-0.05454057,-0.04243827,-0.028390752,-0.051869363,-0.015646037,-0.09838483,-0.02478568,0.070540614,0.0006119579,-0.090837084,0.07653077,0.0782189,-0.07412504,-0.025719367,0.06328566,0.045878965,0.042395893,-0.017641015,0.04927189,-0.05412956,0.030525556,0.03834962,-0.022566041,0.048989516,-0.13978823,0.14091234,-0.036839336,0.08859463,0.15296964,-0.078077294,0.12255387,-0.05697749,-0.045925207,0.03482862,-0.009316502,0.027871948,-0.08291629,0.02683363,0.03116634,0.122128144,-0.033707485,0.012081549,0.038736068,-0.06775357,-0.14236353,-0.009321873,0.11806141,-0.09030606,-0.007367345,0.0080217905,-0.049960937,-0.12306263,-0.10039141,0.004256116,-0.06836996,0.045538362,-0.086589195,-0.019692905,0.03160099,0.061283145,-0.03697195,0.00800617,0.06535802,0.17955674,-0.01463055,-0.039456982,0.04198133,-0.01828382,0.051573757,0.08574092,-0.05359242,-0.10753536,-0.07099149,0.13694455,0.016845189,0.016032614,-0.087489,-0.03327937,0.054982673,-0.080986544,0.018056355,-0.04295943,0.026115293,0.020523876,-0.00038425246,-0.0019931365,-0.08053103,0.017595474,0.101268284,-0.011560201,0.072848685,0.0059003355,-0.038295202,0.122629285,-0.025348574,0.074463524,-0.13079491,-0.020746281,-0.057453986,-0.15662915,0.080520615,-0.025906451,-0.10807997,0.06202394,-0.041987978,-0.017867358,-0.11075435,-0.0326126,-0.08625245,-0.041434135,0.053351663,-0.033156954,-0.12489143,-0.02140942,-0.038295142,-0.0466713,0.06291492,0.093776725,-0.114937216,0.11092992,0.08544662,0.056604564,0.09964598,0.032890014,-0.022598872,-0.096386194,-0.039646618,0.07665675,-0.09103907,0.04355963,0.014442349,-0.053875744,-0.070262514,-0.095085844,-0.04750364,-0.113145895,0.05738432,-0.010916854,0.0702415,-0.1030602,-0.078494854,0.08326542,-0.016868165,-0.0068948334,-0.11556967,-0.074617654,-0.03676874,0.029708961,-0.055057865,0.013644281,-0.07714908,0.017727666,0.09377148,-0.0517378,0.040788013,0.01726761,-0.005115662,-0.027415244,0.07573748,-0.111070044,-0.021153053,-0.047095045,0.01057447,-0.0007796234,0.077475384,0.0013628858,0.11810626,0.014213219,0.08084295,0.07747271,0.017483778,-0.039853275,-0.045554657,-0.1344347,0.00675432,-0.032445546,0.07075104,-0.016876636,-0.100315616,-0.0037911583,-0.009892889,0.03025154,-0.14031218,-0.015671507,0.092993796,0.051557977,-0.10324672,0.027315214,-0.13461222,0.02573091,-0.005801196,0.079598315,0.010630765,0.037713554,-0.121952735,-0.0342098,0.0009783824,0.023808796,-0.008511585,0.009494097,-0.0678602,0.003802273,-0.08104335,-0.05209122,-0.108671404,-0.08403071,-0.028387535,-0.010595268,-0.10706951,0.12765978,-0.09547948,-0.14734308,-0.015547858,-0.12812144,0.07455419,0.05146894,0.012106479,-0.028539104,-0.060347468,-0.008770241,-0.040134247,-0.13480568,0.037027363,-0.028558554,0.031300284,-0.07116854,0.08611655,0.009169313,0.050912607,0.03116926,0.105985425,0.008444378,-0.047695547,0.123723134,0.08797071,-0.03195681,-0.08924412,-0.036229067,0.067795,-0.07723043,-0.04706744,-0.04199799,-0.07585596,0.0029078145,-0.066694975,0.13880086,0.0373879,0.036337256,-0.02599043,0.16834283,-0.065743156,0.016138548,-0.028621962,-0.10476119,-0.017393596,0.026704732,0.012606355,-0.051235247,0.019315407,-0.07591974,0.032201715,-0.13411932,0.03607689,0.029635787,0.09206404,-0.04684032,0.011096399,-0.08949438,0.059771016,0.056060478,0.068966106,-0.03160407,-0.08602206,0.06613534,0.102247566,-0.090422705,-0.00023237712,-0.048734117,-0.002627509,0.06691913,-0.09218696,-0.038634587,-0.014305694,0.17780586,0.01179994,0.05362553,0.0011999627,-0.06321075,0.024738766,0.09888109,-0.12083571,-0.09009417,-0.019303763,0.06317814,0.017608983,0.006894632,0.05248767,-0.11831077,0.02144315,0.11072368,0.08356452,0.07597431,-0.04497958,-0.07109232,0.02340982,0.13793845,0.027244775,0.060862523,-0.05053712,0.07060463,0.02792577,-0.09245193,0.030504828,-0.15636803,-0.08602662,0.13548753,0.01567889,0.030899193,-0.045608543,-0.06829151,-0.11637786,-0.03797281,0.11493366,-0.013264489,-0.052251663,0.051087588,0.073283605,0.0061202333,0.019078985,-0.05098579,0.11408486,0.09207337,-0.020270864,0.021037104,0.11914112,0.088881634,-0.014035542,0.08211806,-0.019889753,-0.08412834,0.07236226,0.0050174417,0.037605938,-0.063751325,0.047834262,-0.12507647,-0.03370681,-0.012410405,0.0024539558,0.060101017,0.026403245,0.016074853,0.039797697,0.06478594,0.09882524,-0.115991026,0.047534313,-0.14160691,-0.065640494,-0.091108665,-0.04759923,-0.010513056,-0.022229005,0.053932633,-0.1580823,-0.07964119,-0.008292734,-0.008692405,0.084533356,0.0732439,0.030591823,-0.021777602,-0.021015085,-0.037565496,-0.09355377,-0.06608769,-0.08139395,0.027169447,0.074235536,0.10896345,-0.08855396,-0.08164077,0.043673087,0.0054866932,-0.028156586,0.009202512,0.12809,-0.12419119,0.018521596,0.05170265,-0.047220133,0.052878298,-0.038425438,0.07769768,0.042055126,-0.0871393,-0.07442568,-0.038361616,-0.00878027,-0.04711862,-0.16158037,-0.04216394,-0.07395508,-0.15241542,0.06595511,-0.0021869014,-0.068097845,0.022717847,-0.073484056,-0.01547587,0.114797965,-0.025153046,-0.037621625,0.07102797,0.11785252,0.048089024,-0.0031871258,-0.034049023,0.08569533,-0.04593623,-0.02982261,-0.024782894,-0.017592276,0.017985165,-0.15736939,-0.036492433,0.014386119,-0.10771807,0.05405156,0.080367744,0.101271935,0.04472448,-0.05049129,-0.036577567,0.050143618,0.061120555,0.041481525,-0.0045367884,-0.05962497,-0.02158676,0.047234386,-0.046533257,0.06337327,0.009040124,0.06870482,0.029872255,-0.003209619,-0.007536357,0.010713708,-0.07907615,-0.019199703,-0.07896086,-0.011424398,0.16163275,0.051751617,-0.07253992,0.13375561,0.11388192,0.029213142,-0.0674185,0.032181658,0.15289818,0.07833023,-0.044186164,-0.10014807,-0.09895973,0.052375652,-0.015637191,0.01919123,-0.01463218,-0.007151246,0.15423912,-0.06853594,-0.0042890566,0.059106696,0.0070034172,-0.0387753,0.06373992,-0.0836867,-0.057754215,0.011028202,0.021400493,-0.086824186,0.028916378,0.12661982,-0.04624298,-0.124846935,-0.108021826,-0.09372413,-0.09614749,-0.09973175,-0.008438874,-0.010446135,0.0565873,0.039559573,-0.028444396,0.117016405,0.15378867,-0.03116686,0.041805834,0.027189117,0.05250886,0.18580277,0.017715367,0.07213748,-0.06368634,-0.014310825,0.0024586748,-0.045882758,0.032319453,-0.027586212,-0.04004296,0.07805694,0.046304394,-0.058575053,0.008325464,-0.011618104,-0.073591165,-0.07143474,-0.016373072,0.12724349,-0.067555375,-0.02324017,-0.059097823,0.07334014,0.076239266,-0.041350458,0.0016892292,0.05725038,0.12256078,0.04415299,-0.0056869285,0.04543225,-0.049528357,0.050267633,0.10057447,0.07715968,-0.011513515,0.11277022,0.021282386,0.07395348,0.029991388,-0.0511445,0.016523808,-0.080644555,-0.014404811,0.15207526,-0.01702814,-0.04687848,0.053740334,0.051526457,0.03935213,-0.077250324,-0.036495287,0.11604972,-0.09275347,0.076968275,0.105077736,0.07659221,-0.009347446,0.037566,-0.052983455,-0.068028204,0.06802276,0.06617103,0.09230975,0.03417398,-0.015821654,-0.0719005,-0.021676604,0.048581105,-0.14597622,-0.14243063,0.05771007,0.03435524,-0.08274054,0.018813483,-0.00017789158,0.008056321,-0.008281315,0.030600663,0.109287515,0.024722219,0.05277417,-0.13715401,0.070290305,0.0009072757,0.0052831443,0.06251281,-0.07050655,-0.105882555,0.05276046,0.023939451,-0.06880671,-0.081201464,0.023700243,0.0074597388,0.015460988,0.008967629,0.11783917,0.039595522,0.040495493,0.078568175,-0.04995893,0.07537486,-0.018855538,0.039907504,-0.13909788,-0.022225942,0.03386397,-0.017472178,0.03224319,0.011497256,-0.014672866,-0.05521751,-0.00793422,-0.04439195,0.10194056,-0.024397079,-0.05015524,-0.012011372,-0.015390664,0.0591907,-0.05895048,0.18440281,0.03549386,-0.05525153,0.094436176,0.033148706,0.0049006063,-0.067147866,0.014446683,-0.013984157,0.060204428,-0.05585631,0.07374143,-0.076996915,-0.014995566,0.019585585,-0.111153975,-0.053779513,-0.08486816,-0.084206246,0.031591956,0.18174699,0.008960729,0.018877933,-0.040084664,0.05086207,0.0004229753,-0.018561803,0.05741022,0.037654165,-0.03055584,-0.08236927,-0.19057144,-0.06170768,-0.0063027726,-0.0034010436,-0.045712717,-0.06252864,0.04056402,0.029616106,-0.06401691,-0.037060495,0.025593784,0.01625123,0.012363388,0.10222754,-0.12181414,-0.05813592,0.057970744,0.056845605,0.05658389,-0.13767107,0.07329058,-0.07495923,0.06336202,0.10478737,0.111723244,-0.07164978,0.05625575,0.009711148,0.078605786,0.1056591,0.05291913,-0.05082968,0.010359331,0.13935804,0.08978013,0.066000834,0.12965815,-0.053090442,-0.04257791,-0.005717492,0.030079672,0.02834393,0.06421859,0.02268045,0.1041195,0.08469188,-0.013244579,0.11246888,-0.050461028,0.049173683,0.0070850924,-0.023078814,-0.04818132,0.035774533,0.056636453,-0.05013536,-0.10562643,-0.027678832,-0.064827606,-0.026710333,-0.008639598,-0.036190446,-0.033735774,0.07031406,-0.11619317,-0.037993144,-0.019799046,-0.059371196,-0.036549613,0.004833725,0.10279115,0.13614918,-0.082972065,0.028894296,0.006759226,0.047110934,-0.002528127,0.03572845,0.018119577,0.11031436,0.014994803,0.019343352,0.0007057278,-0.10040917,0.06872598,0.07124606,0.07814938,-0.15757962,0.11373032,-0.07452839,0.004520324,0.030115481,0.026490767,-0.052218072,-0.10022267,0.055202313,-0.06749116,-0.10329666,-0.060722537,0.1770789,-0.059127327,0.08816774,0.08005808,0.037219066,0.05415817,0.10557723,0.03167314,0.09021205,0.048189726,-0.12553598,-0.028191239,-0.049567007,0.18721512,0.051238403,-0.04861738,0.09342531,-0.019696431,0.042839184,-0.15282255,0.016862934,0.098049134,-0.045853097,0.06104474,-0.049445525,-0.009131852,-0.082876205,0.01699582,-0.09703827,-0.019146707,-0.04038877,0.06353998,-0.03412835,-0.08421632,-0.05091819,-0.08344161,0.13446896,-0.005241204,-0.024376232,0.05597211,0.07472182,0.044783954,-0.019946411,0.0143530425,-0.102252364,0.03509358,-0.093339734,0.057508796,-0.077390365,-0.03911721,-0.12479047,-0.06489665,0.0026434883,0.06553011,-0.06502061,0.00023568916,-0.02296017,-0.036670886,0.083171666,0.054821942,-0.035400882,-0.017328827,0.052315276,-0.031987764,-0.054585773,-0.07194425,-0.07488546,0.064099826,-0.10311581,-0.06910696,-0.0146696875,-0.051645603,-0.058991063,0.07017087,-0.092647426,-0.08813756,-0.03247988,-0.015524854,0.018327823,-0.08634933,0.026881404,-0.00011149142,-0.12781575,-0.09838115,0.16466601,0.00951758,0.11790031,0.033016965,0.0009085045,-0.048512768,-0.053985752,-0.068047695,0.08345944,0.0014648924,-0.13389389,-0.04349819,0.109650515,0.022919763,-0.091332644,0.09362896,0.1207956,-0.10871755,0.13499132,0.13747555,0.043291524,0.025727998,0.0001725526,-0.019709662,-0.019739298,-0.08319929,-0.05025506,0.07550617,-0.112333834,0.036057677,-0.06970532,0.060649917,0.18794222,-0.010225397,0.08360613,-0.09769344,-0.056948476,0.008147627,-0.07970214,-0.079546995,-0.038798437,-0.0077414154,-0.063907094,-0.014490249,-0.16951501,0.057322595,-0.0936578,0.08385996,0.027269017,-0.027384251,0.08360668,0.08444483,-0.07500556,0.046677772,0.012079911,-0.00044155453,-0.016760042,-0.15556943,-0.02064811,0.014426803,-0.14575766,-0.13062821,0.10536146,0.08727719,-0.095298685,-0.05821194,0.06593641,-0.04595816,-0.035019003,-0.031311687,0.0413659,0.0013011917,-0.005361401,-0.13914081,0.022701014,-0.0437815,-0.019204194,-0.07693018,-0.13142826,0.09629776,0.11513107,0.04741215,0.036332,0.11849446,0.017495219,0.068984695,-0.01699665,-0.02541996,0.055827305,-0.054915927,-0.082467705,0.053970788,-0.03493189,-0.053483248,0.028593816,-0.1594255,0.03751164,0.15072493,-0.050930142,0.044896886,0.15308319,-0.025774442,0.0026711002,0.04960639,-0.033707526,0.04517439,0.053677995,-0.021310942,0.049388543,0.0041214107,-0.056112997,-0.102802545,0.020526262,0.09734681,-0.07326964,0.08868743,-0.034307875,-0.022358904,0.08393118,0.08237399,-0.0056977053,0.01360228,0.045210138,-0.112037435,0.013170055,0.07233369,-0.019796263,-0.010133137,-0.002256409,-0.063849814,0.09078683,-0.049652796,-0.036376346,-0.019351395,-0.05509921,-0.08347535,-0.006185039,0.124650255,-0.12142987,-0.014515228,-0.06855591,0.08935694,0.07383008,-0.009518539,-0.04195167,0.080733515,-0.07869533,-0.05048231,-0.06991234,-0.010188401,0.02853584,-0.03299049,-0.13008745,-0.044724457,-0.026699146,-0.07695232,0.093685485,-0.14046077,0.120208666,0.059675317,-0.027250959,0.12010297,-0.031125816,-0.08403518,0.042389285,-0.06756542,-0.09210711,-0.1045845,0.002701837,-0.032114014,-0.0035261335,-0.061891563,0.116744585,0.01741929,0.078575574,0.007204955,-0.09889206,-0.07758799,-0.13970008,-0.0443837,0.08842957,-0.05239162,0.04946057,-0.08148546,0.07088483,0.113310724,-0.045274585,-0.0151012475,0.021799475,-0.13379279,0.029160108,-0.06254948,-0.06089916,0.02670727,-0.03341657,0.026562264,0.044236198,-0.057112414,0.08566603,0.025980841,0.059529144,0.011031387,0.072789155,-0.08739733,0.019401554,-0.092999086,0.08756852,0.03655583,-0.03875899,0.0003864479,-0.06426345,0.08150339,-0.008797095,-0.009394857,0.14966367,0.07329998,0.083356276,-0.041317776,0.16998953,0.069316626,-0.06601213,0.06416096,-0.069453076,-0.03260641,0.015358856,0.07358415,0.027420476,0.067274265,0.08906305,-0.04691111,0.02992621,0.03410287,-0.027710028,-0.013332496,-0.049828228,-0.037637234,-0.042242188,0.038477868,-0.017479654,0.1376754,-0.045065485,0.013615682,-0.03398382,0.0027535767,0.10068797,-0.10428424,0.11271894,-0.023189994,-0.0855862,0.0034758588,-0.111263566,0.05927333,-0.11305637,-0.022009954,0.092453815,0.09337823,-0.02792742,-0.049525682,-0.049144745,0.04060189,-0.11815819,0.10663283,-0.005778193,0.068466514,-0.02212786,0.03562071,-0.0032351003,-0.12000565,-0.10530211,0.13297084,0.030423021,-0.09379183,-0.079117246,0.0568303,0.08257442,-0.050002206,-0.08874209,-0.019414496,0.026209092,-0.042332307,-0.10608232,0.011667794,-0.056577556,0.013856285,-0.061734017,0.112994544,0.005664104,-0.082782716,-0.0010553364,-0.025830675,-0.052632585,0.0521086,-0.013251418,-0.08605151,-0.1054547,-0.009603622,0.08684172,0.038063504,0.1312811,0.026434913,0.13012926,0.05171175,-0.024526538,-0.085917994,-0.048730362,0.098517336,-0.10351984,-0.059570536,-0.014354859,-0.05660611,0.054962475,0.115171365,-0.0008369127,-0.014186896,-0.09544165,0.040816247,0.16512133,-0.052558318,-0.07847824,0.14805007,0.042699315,0.008517646,0.087548435,-0.0514158,-0.034038387,-0.04039583,-0.023061125,0.070913605,-0.06021448,-0.01778762,0.12995197,-0.040235423,0.13906394,0.017998561,-0.064983785,0.19370542,0.0480056,-0.06103698,-0.043329038,-0.008532009,0.0430658,-0.105473615,0.024105288,0.098403186,-0.07935059,0.029841451,0.016491644,-0.079763204,-0.003658045,0.031081585,0.0505737,0.028833417,-0.084514745,-0.01088682,-0.08062757,-0.07165349,0.040344473,0.012503916,0.031992167,-0.0067411163,-0.0032154173,0.017915603,0.093235366,-0.03488051,-0.008345338,-0.12720752,0.038768966,0.05612711,-0.02547277,-0.10685248,0.049027123,-0.053900104,-0.039790217,0.09234178,-0.02134592,0.004558567,-0.03055057,-0.061076716,0.02104351,0.14543207,0.007592384,0.049652126,0.062682316,0.04518531,0.049104884,0.07947223,0.01659692,-0.024640717,-0.004280296,0.16440594,0.027373642,0.029371755,-0.07732166,-0.029341953,0.025913948,0.021432912,-0.031348612,0.05683002,-0.09472543,0.03277881,-0.031666853,-0.12159591,-0.0045667524,-0.032348182,0.060326558,0.06924773,0.16053411,-0.03963441,-0.044430535,0.034063697,-0.07179637,-0.016974038,-0.082374245,-0.00258046,0.01793742,0.10586694,-0.11709512,-0.018824304,-0.07923139,-0.06030244,-0.05197365,-0.071848705,-0.085853815,0.04518072,0.10339367,0.14286098,0.030305343,-0.05226392,0.10676556,0.067676425,-0.0041275336,-0.024561312,-0.14945781,-0.07105682,-0.007643989,0.08329124,-0.056830287,-0.063904,-0.002683757,0.062296957,-0.060170524,-0.03653525,0.039277244,-0.018714758,-0.03650248,0.056245994,-0.014639724,-0.052463822,-0.016273506,-0.06325443,0.018577334,0.00035947718,0.06344293,0.05031918,-0.01590306,-0.023539722,-0.08805233,0.040471446,-0.022912255,-0.052474443,0.053068638,-0.018046603,0.08105269,0.03721956,-0.09207718,0.024799375,0.094168894,-0.00013043293,-0.027353734,-0.023848668,0.017295616,0.054355852,-0.025844427,-0.08321717,-0.10847678,-0.05725621,0.005162819,0.034589842,-0.040577,0.009731546,-0.119886644,0.009125793,0.038604047,0.033451747,0.11901558,-0.050953396,-0.042468786,0.021542478,0.026705123,0.07808027,0.075028785,0.051114336,0.13895443,-0.04470829,0.0826692,-0.029478643,-0.04404479,0.08919001,0.030646678,0.018926937,0.1400453,0.053183902,-0.14748913,-0.013808491,-0.041457184,0.04065707,-0.103535056,0.043792564,-0.101504736,0.067798436,0.05108217,-0.058611017,-0.07966298,0.13427918,0.181555,0.0008134599,0.16182725,-0.09407147,0.009575746,0.07342451,0.049986612,-0.05608196,-0.15431577,0.110817455,0.11633318,0.023202512,0.084685326,-0.055397592,0.08661944,0.00012395244,0.12337165,0.06418037,-0.13136573,-0.013153323,-0.016609073,0.02262718,0.105465546,0.13044061,-0.0576649,0.0025735067,0.069049045,-0.07831099,-0.07649368,0.030714244,-0.03460432,-0.025056815,-0.13114437,-0.12532432,0.110642366,-0.09890835,-0.04529311,0.06995974,0.060592234,-0.0783942,-0.01540515,-0.040977564,0.089020036,-0.06741669,-0.06656379,0.09123329,0.07514897,-0.026559874,0.075803325,-0.037317958,-0.00051552407,0.13861115,-0.0102818785,0.028150728,-0.07865378,-0.01795951,0.029933363,0.011417898,0.010440817,-0.025663292,-0.028039377,0.1241066,-0.020848125,0.05109409,-0.053925853,-0.03308127,0.033233363,-0.11910251,0.105684176,0.10302128,-0.12451546,-0.015033192,-0.039061774,0.03746597,-0.04473497,0.029696913,-0.008024999,-0.17275079,0.0011482125,0.035102095,-0.11172757,0.05777929,-0.08378702,-0.081156895,0.11098474,-0.046474654,-0.021478275,-0.022340786,0.006382684,0.048629854,-0.06473721,0.108195275,-0.0710564,-0.15539716,0.0326971,-0.11203348,0.008858453,-0.058640543,-0.033324104,-0.050360594,-0.047600243,-0.05315997,-0.03878503,-0.045021974,0.05086128,0.070799164,-0.057733145,0.012930961,-0.04855955,0.079565,0.07889086,0.0519571,-0.011361515,-0.010996431,-0.16390048,0.046873525,0.039195735,-0.04203135,-0.047177248,0.05589102,0.13489963,-0.022783477,-0.013585175,-0.0963824,0.001491769,-0.023323143,-0.009037827,0.008377958,0.15483224,-0.091103226,-0.10255435,-0.009900325,-0.019141154,0.05466494,-0.028569166,0.034396727,-0.06373327,-0.057970993,0.04508915,0.010576734,0.024484482,-0.038532935,0.07250242,-0.00286794,0.0035287319,0.08814051,-0.04112123,0.00814351,0.123410136,0.063416734,-0.10008866,0.02964161,0.12199118,0.16005455,-0.11876739,0.13998531,0.06683462,0.029436832,0.007804541,-0.03783083,-0.006560898,-0.017381985,0.09745756,0.101053335,-0.091795586,-0.037965026,0.0529873,0.027436929,-0.039367136,-0.0076205633,-0.017283577,0.013740504,0.022948751,0.025786234,-0.052596305,0.11062441,-0.0770669,0.1690352,-0.11501254,-0.028980657,-0.009981608,-0.08924661,0.0010377665,0.047756232,0.05253637,-0.08544899,-0.090907484,0.07243598,-0.12548937,-0.04882097,0.06256764,-0.037298016,-0.00097002205,-0.020089721,0.054668717,0.06256532,-0.028948195,0.017503627,0.08042298,0.12569098,-0.02552551,0.079015926,0.08993924,0.08996991,0.02598738,0.020293884,0.016441407,0.010316894,-0.071056694,-0.07323096,-0.059559826,-0.0798922,0.009213766,-0.012827363,0.077067725,0.10101641,-0.06167987,-0.022668904,-0.079671234,0.07150273,-0.005820259,0.008222236,-0.013037189,0.062847756,0.06296088,-0.08461888,-0.026762558,-0.04678832,-0.0324927,0.026301404,-0.08882205,-0.009025339,0.11688551,-0.07991904,0.036648348,-0.12716176,-0.018971963,-0.09996412,-0.06986436,-0.046179462,-0.035340976,0.010848343,0.11002828,-0.036982827,-0.029929861,-0.18709226,0.0039934777,-0.043769844,-0.00085181586,-0.043761156,-0.04417191,-0.0026934182,0.09502975,-0.1292131,-0.06667462,-0.04215505,-0.10068503,0.08005171,0.0067518842,0.0025680885,0.1086152,-0.09706943,-0.009447685,0.026581464,0.040249836,0.028778205,-0.12483232,-0.012761636,-0.029277818,-0.054404587,-0.08124324,0.03580681,0.122084066,0.06152214,0.07713144,0.009775967,-0.08082907,0.02035417,-0.0002966352,0.09419424,0.11011073,0.06408141,-0.04209646,-0.0021330218,0.051951904,-0.10779539,-0.014202615,-0.15599103,-0.07434956,-0.03306838,0.020495936,-0.11412447,-0.040367164,-0.07355256,-0.062900804,-0.07690857,-0.07209031,-0.040065166,0.011192726,-0.0019301565,-0.044417024,-0.08517134,-0.10673926,0.10163516,-0.0038695573,0.030471323,-0.023343056,-0.01506536,0.09486774,0.0071188607,-0.113354824,-0.14016075,0.03638675,0.05650325,-0.00122241,-0.0106952805,-0.021146452,0.033629842,-0.024218138,-0.042456474,-0.033714447,-0.0032443241,0.135345,-0.05574082,-0.085622944,-0.09672203,0.11691236,0.043750457,0.06795084,-0.040887527,0.100750685,0.00030183687,-0.016243463,-0.070877366,0.043803766,0.11504044,-0.06523369,0.13888289,-0.07419145,0.041886885,0.05453323,-0.008678519,-0.028126698,-0.008624139,-0.07817573,-0.024453614,0.06590051,-0.0433385,0.013844157,-0.14186007,-0.018927539,-0.09594355,0.088635184,0.09242018,-0.059059355,-0.09411991,0.13816583,-0.07986882,0.0362693,0.01581349,0.04120409,0.0049375556,0.06776181,0.0075528272,-0.058203492,0.010401521,-0.0087152,-0.050105195,-0.13692884,0.08272051,0.049492948,0.08478994,-0.03735395,0.0471878,-0.05179572,-0.029860549,0.052179065,0.07155614,0.03863084,-0.047544584,-0.04327245,0.036468174,0.106338754,-0.040661518,0.028028585,-0.04184389,-0.08642887,0.09148383,0.10860629,-0.0029480811,-0.1362925,-0.1093364,0.090431675,0.061609082,0.042568218,0.019267278,0.009970397,0.08974955,0.0937672,0.07999268,0.10737178,-0.03544785,0.020884123,-0.0012674305,-0.10210191,-0.016908703,0.05640064,0.034189094,-0.094034486,-0.03301298,-0.036021892,-0.09339326,-0.08238543,-0.021921176,0.111171804,-0.017203586,-0.05852915,0.07516624,-0.020845853,-0.07641244,0.022464959,0.030814368,0.046186894,0.04011308,-0.08434614,-0.00835708,0.014784389,0.06321111,0.10483207,0.09539918,0.05236325,-0.016010933,-0.031359557,-0.0993557,-0.07814785,0.17747025,0.049698822,-0.028178195,-0.15628357,0.05268219,-0.026280534,-0.0048505077,0.010732777,-0.026437474,0.10991162,-0.079891846,-0.09692707,-0.05241954,-0.004841129,0.030340148,-0.113062516,0.044593934,-0.101224415,0.020607214,-0.12490435,-0.008234374,0.07097066,0.03540014,-0.06963862,0.037780482,-0.045225237,0.044615004,0.044727605,-0.05673149,0.03138587,-0.11910422,0.068772845,0.02380683,-0.09800301,-0.14166658,0.10349675,0.007789297,0.035722636,0.024023985,-0.0024578534,-0.11534721,0.104013376,0.06064837,0.015529769,-0.106785946,-0.03103084,0.06764896,-0.036950585,-0.08643496,0.087473765,0.039420467,0.030701429,0.006387968,-0.0031673089,0.00082966103,-0.0758819,-0.060538564,0.07107236,0.07007726,-0.16877283,-0.061467797,-0.07890949,0.032817237,-0.06525842,0.070434846,0.03465246,-0.005175816,0.0018639865,-0.059470147,0.004536167,-0.08610752,-0.041501146,0.12440837,-0.016720789,-0.094964765,0.04326291,-0.05446714,-0.08809197,-0.052024998,0.056397628,0.05549448,-0.05595674,0.10200621,-0.06650944,0.040538512,-0.123662956,0.118731014,0.09352172,-0.025602054,0.07929118,0.14268999,0.14769486,0.08030358,0.05642973,-0.06376139,0.066307396,0.02021763,0.15757774,0.022103371,-0.021467667,-0.040888045,-0.009841532,0.038296405,0.0599007,-0.06416982,0.056923144,0.08392902,-0.03272718,-0.10054547,0.07070222,0.07087128,0.045292377,0.012101621,0.020602925,-0.078770936,0.027723864,0.0039079636,-0.0147992,0.11785067,0.020169282,0.07110047,0.12445099,0.13700534,-0.033394165,-0.029541308,-0.059422754,-0.031732965,-0.044375636,-0.108896315,0.029900366,0.005066925,-0.23597664,0.0042962832,-0.06565499,-0.012595245,0.1385155,-0.08596096,-0.0041973614,0.012007487,-0.076892175,0.059410684,0.07211536,-0.04950084,0.07478004,-0.08040538,-0.00041046692,-0.083246924,-0.020912504,0.0053449115,-0.038913753,0.07374144,0.02195272,0.117664516,-0.021178411,0.02317498,0.05744444,-0.05607816,-0.0036284933,0.024997165,-0.046343993,0.054128382,0.044825584,-0.006375945,-0.08687019,0.028315935,-0.103365675,0.011100471,0.039158806,-0.034363046,-0.14349967,0.028382659,0.06018125,-0.10141581,-0.077209346,0.06796177,-0.103504404,-0.1261881,0.058092784,-0.082275964,-0.012494998,-0.11452695,0.07918241,0.04896578,-0.040549453,0.029133419,-0.03287169,0.05690897,0.05277766,0.031330124,-0.00035452383,0.1221999,0.08074148,0.034284357,0.042178806,-0.14158697,0.0063581066,0.08069856,0.0016961895,-0.013699572,0.09720963,-0.09956801,0.05275002,0.054329652,-0.105057776,0.0565719,-0.13151124,0.11014805,-0.020343868,-0.09313378,0.009238825,0.014031678,-0.0015502567,-0.10126518,-0.011336569,-0.11552045,0.0019475333,-0.059420567,0.022603065,0.11819847,0.029387765,-0.030588986,-0.07954326,0.0627418,0.012594757,0.048022266,0.013329814,-0.044979803,0.017927146,-0.09029599,0.055895325,0.020044971,0.006054537,-0.063581884,-0.06558924,0.044471823,-0.021277335,0.1795297,-0.07239954,-0.007934949,-0.03128938,-0.079354666,-0.039420642,-0.05695168,-0.036070585,0.095692016,-0.07970741,0.05685896,0.07338364,0.029740334,0.06990634,0.1491774,-0.067312226,0.0048411326,-0.051666826,0.032909684,-0.0603867,-0.06771144,0.13992302,0.061422653,-0.03382719,-0.032365993,-0.1411528,-0.015859118,-0.13892083,0.03022535,-0.07260964,-0.06775208,-0.08817861,-0.03123397,-0.104048386,0.07689177,-0.15846556,0.041428797,0.06148355,0.08627459,-0.06197526,0.016468951,0.08296584,0.046862178,-0.0115016755,0.14521402,-0.013328851,-0.0009223891,-0.124468476,-0.0186905,-0.021846347,-0.09372339,-0.11121916,-0.018909734,0.073879436,-0.006124405,-0.111848034,-0.0028176003,0.06602463,-0.109235995,-0.076933496,0.00034610595,0.07580386,0.080388874,0.05699893,0.041424178,-0.067044124,0.062176567,-0.100276805,-0.0673023,-0.06088966,0.03599805,-0.0060674273,-0.0013932973,0.058204506,-0.033322874,0.00985949,-0.03212425,-0.068936,-0.026762497,0.012658784,0.024034332,-0.050679967,-0.025544351,0.035418723,0.06289818,-0.029739631,0.03367178,-0.04814375,-0.0023694085,-0.091046706,0.060072776,-0.009488179,-0.043171357,-0.107695274,0.11404935,0.09806982,0.08282519,0.03448356,-0.086199716,0.11548766,0.06228419,0.085773595,0.08998221,-0.010243683,0.045921396,-0.020443974,-0.03578338,0.14853452,-0.042353928,-0.07593899,0.032749362,-0.068247214,0.026499486,-0.010144707,-0.044200424,0.08738523,-0.054418564,0.12905473,0.0041811652,-0.0657903,-0.0831932,-0.009641656,0.020096136,-0.06371992,-0.055590842,-0.07029067,0.1536045,-0.009618601,0.05138138,-0.051364016,0.019558627,-0.09684556,-0.05033801,0.019113416,-0.031394575,-0.05399036,0.10582523,0.024880795,-0.011413793,-0.033945795,-0.109482236,-0.067845196,0.020849835,-0.06396062,-0.120743565,0.0005652664,-0.03486748,-0.006985078,0.032959078,-0.0011519586,0.016727492,0.021732539,-0.013453435,-0.011315372,0.034369405,0.18001379,0.036654986,-0.010227209,-0.096759535,0.009054248,-0.05951244,-0.0025634486,-0.0005160987,0.028904418,0.112398386,-0.01473203,0.0135061275,-0.01804888,0.039924715,0.07015283,-0.061150543,0.09960649,-0.080877624,-0.019344315,0.09967708,0.074113525,-0.0738587,-0.06348498,0.0536391,0.11696096,-0.08815521,0.18361692,-0.057827357,0.075465545,-0.065227315,0.1236464,0.0018815926,-0.12937298,0.10154033,0.023847828,-0.00019954762,0.06933359,0.08549041,0.058470752,-0.012268819,-0.061117675,-0.043371372,-0.0717366,0.06979798,-0.014852562,-0.005084736,-0.06016448,-0.1754071,0.12796839,-0.05584052,-0.20605905,-0.001230438,0.07737022,-0.022747178,-0.014254967,-0.031757567,-0.11676055,-0.06325009,0.021122444,0.12157135,0.051346906,0.011239357,0.05229308,0.00085058564,0.07958889,0.050126486,0.14152008,0.02458538,0.0931357,-0.104103334,0.017208671,-0.11186629,-0.06784565,0.015224253,0.0440036,0.04191944,-0.04515362,0.021201812,-0.011980891,-0.014905272,0.028312167,0.05269476,-0.05822684,0.0981198,-0.016611317,-0.06638806,-0.019058857,0.15374084,0.025045248,-0.10960181,0.030956525,-0.0032954528,-0.07036388,0.044797465,-0.1430277,0.0035544222,-0.09055367,-0.0041304664,0.01037925,0.02277837,-0.19272393,0.010689593,-0.108593374,0.03817251,0.060363144,-0.02061192,0.018350739,-0.1406947,-0.011885058,-0.10728337,0.06917803,0.018905837,0.0029452657,-0.025924556,0.09430596,0.04636622,-0.013230498,0.09074087,-0.13604663,0.008198484,-0.06921121,-0.07248264,0.0736812,0.12372178,-0.0010960838,0.008907904,-0.005115087,-0.040530883,0.044041187,-0.07050242,0.009881411,0.024859587,-0.0044948217,0.15292251,0.088777855,-0.03756486,-0.013963258,-0.07688091,-0.027771648,0.060759056,-0.06716683,-0.038401987,-0.00023615306,0.00054159865,-0.045984585,-0.014965024,-0.114535764,-0.09395826,-0.027668849,-0.112942174,-0.01733725,0.05767998,-0.10596595,-0.03005039,-0.03923691,-0.01920755,-0.033994466,0.13370377,0.07954382,0.18673807,-0.026160372,0.011258943,-0.18122615,0.015054664,-0.0046508047,0.07388196,-0.004234095,0.10308413,-0.10229807,-0.009533932,0.023619067,-0.014915818,-0.024946334,0.04802979,-0.038518086,-0.015719011,0.015989888,0.025558172,0.061467487,-0.0058442433,-0.020036036,0.040743332,0.04974211,0.08306849,-0.070568986,0.026580159,-0.025271855,0.03205845,-0.1299674,0.09541127,0.08624094,0.07883092,0.095075056,0.028886639,-0.014542657,0.09745167,-0.05463277,0.021624008,0.00075973227,-0.003734143,-0.00962704,-0.10099673,-0.04534815,0.03920441,-0.083308354,-0.024937067,-0.08609903,0.11711499,0.06004368,-0.11917374,0.08664263,-0.06399845,-0.030605782,-0.105282515,-0.016238086,-0.07023402,0.0039113015,-0.07493014,-0.048010603,-0.00093842956,0.035772324,-0.015079867,-0.022411661,-0.054452423,-0.074761815,0.094188415,-0.0040659346,0.056615107,0.093226925,-0.15369725,-0.007890953,-0.035479844,0.02659297,0.015844064,-0.068517305,0.019245304,0.023759466,-0.011832575,-0.00380043,0.093726106,-0.11805616,0.0047906926,0.11437352,-0.013685532,0.026067708,-0.078236416,-0.039919164,0.046168316,-0.07063671,0.08574214,-0.022359518,-0.0583954,-0.055313226,-0.034991004,-0.057957765,0.0053493422,-0.027307307,0.12627573,-0.0128785595,-0.003527795,-0.0185493,-0.010590042,0.038947478,-0.0038472407,0.00034932903,0.10305343,-0.13137048,0.022384107,0.08292869,0.19865367,-0.025593188,0.11051839,-0.06283713,-0.025212899,-0.091466404,-0.036158226,0.010260404,-0.13914189,0.12625484,0.13262175,-0.05403692,-0.04330644,-0.0017794315,-0.038816378,0.012737923,-0.0038118497,0.036644686,-0.015663113,-0.08176075,0.070079125,0.08528789,-0.05790893,-0.03613835,0.007129021,-0.042625617,0.07890989,-0.059689242,-0.05800433,-0.12218658,0.06627564,0.007917058,-0.036635075,-0.02330867,0.023869867,0.033747185,-0.006455562,0.03270999,0.06996108,-0.022491293,0.04837433,0.023452943,0.06085619,0.12723717,0.074879825,-0.16320574,-0.07705114,0.046236783,0.10690007,-0.029223217,0.0064969645,-0.010379715,-0.06259704,-0.012401051,-0.042515263,-0.0080266185,0.011234991,-0.018460378,-0.0030024117,-0.124901995,0.02704364,-0.029335804,0.02078358,0.02648889,-0.025801724,0.014028418,-0.029082067,-0.030444022,0.07583591,-0.023955353,0.0864125,-0.034024835,-0.0505857,0.044436097,0.01460742,-0.0603188,-0.0036575273,-0.003486067,0.04137433,0.16957873,-0.052633975,0.07665783,-0.05613931,-0.04128832,0.011196893,0.023766292,0.054665603,0.055969123,0.041255694,-0.10659315,0.08271238,0.06363162,0.033697166,0.045566466,0.016015626,-0.14994521,0.100597896,-0.004086435,-0.08092749,-0.040821847,-0.00340986,-0.12863798,-0.0029639225,-0.061112795,-0.027173063,-0.02610437,-0.035792608,0.19638097,-0.021818664,-0.039123613,0.0047631506,0.0021819426,0.06598324,-0.009261515,0.04952658,0.14311136,0.097465895,0.021126365,-0.10102009,0.065052114,0.011800167,-0.14392859,-0.010666887,0.013422854,-0.066197075,0.07666962,0.14879386,0.018746527,0.12755902,-0.16091955,0.06494977,-0.03291862,-0.05463086,0.014886434,0.062858686,0.05871903,-0.019834137,-0.07206414,-0.019547662,0.0039363033,-0.038837068,0.0014459328,-0.033023454,0.003834578,-0.046396524,-0.03883375,0.012046981,0.16880529,0.06522319,-0.05764039,-0.036591604,-0.09128789,0.071468,0.028868085,-0.025102293,0.049524028,-0.15041745,-0.08668595,0.033089392,-0.07622308,-0.023934644,0.0087321745,0.014476523,-0.019481642,-0.00396945,0.124901,0.13597974,-0.09060955,-0.0059681674,-0.096112125,-0.08920808,-0.12668861,-0.0792442,-0.08953242,-0.008398632,-0.0023035214,0.001924179,-0.09956084,0.02564903,0.11777305,-0.06582889,0.014443138,0.04130328,-0.064176105,-0.11614184,-0.027795332,-0.072399415,-0.027272796,-0.06502203,-0.048238847,-0.030140894,0.01899688,0.06289695,0.064019665,-0.03162755,0.107356794,-0.0067612673,-0.00088680163,-0.11201537,-0.043299,-0.009834632,0.012672067,-0.080796845,0.005620965,-0.10255419,-0.0055199303,0.13100795,0.00017341049,-0.031036273,0.06555461,-0.048663933,0.025279148,-0.10281774,0.005788193,-0.036583684,0.12306339,-0.013285887,-0.11012322,-0.08647312,-0.04352427,-0.02535733,-0.042878583,0.07327205,0.09238487,0.01831359,0.12013321,-0.051971283,-0.08129563,-0.038487572,0.106703125,0.009014464,0.08595747,-0.0145932725,-0.0013718059,0.022179626,-0.028214948,0.0731232,-0.09517253,0.06802701,0.006371528,0.044008337,0.016213357,0.035830196,-0.01939255,0.00074570056,0.02223415,-0.037957355,-0.039459314,-0.03160635,0.029332174,0.104979955,-0.050232813,-0.039465226,0.004654984,0.028409502,0.04389077,0.028291048,0.17646934,-0.07500896,-0.051968653,-0.07057425,0.07726962,0.00818111,-0.13798764,0.0149064725,-0.0067698588,0.008726171,-0.15067135,-0.08258631,0.061591852,-0.0015264647,0.119626775,-0.05351504,-0.04580568,0.08595291,0.055355646,0.07918725,0.07282522,0.07872318,0.017169356,0.016527522,-0.020618869,0.04079028,0.027187275,-0.0084555335,-0.09316728,-0.111245655,-0.076771475,-0.06020852,0.03246569,-0.0064367903,0.09400293,0.055006705,0.00093623786,-0.057172507,-0.026185913,0.016962985,0.10525633,-0.013958272,0.011082392,0.014584416,-0.051439725,0.060619984,0.12882276,0.024918756,-0.03196074,0.05512081,-0.052632198,-0.03236124,-0.092186086,0.13389254,0.02341898,-0.005939499,-0.0063216956,0.020063333,0.022618946,0.0016714372,-0.0251381,0.046781756,0.20234197,0.024823062,0.033639204,0.098988,-0.08906927,-0.09354179,-0.03532809,-0.014814314,0.08281005,0.066852205,0.04694686,-0.0969371,-0.0626929,-0.03042347,-0.016836897,0.055824187,-0.12000457,0.05753556,0.1102996,0.008420712,-0.17483218,0.028377464,0.03971865,-0.0727119,-0.025904052,0.059507776,0.04038963,-0.08944793,0.15187699,0.008840776,0.062478587,0.102477215,-0.16033287,0.06344371,-0.012445965,0.011548762,0.12093113,0.08048565,-0.0032031157,-0.02120759,0.09022957,-0.006375885,-0.056026846,0.068952546,-0.14762233,0.032066002,0.012909764,0.055250075,0.034227323,-0.13402845,-0.039490692,0.08848402,0.04251306,0.11676146,0.071243346,0.044713333,-0.044703867,0.041119862,0.11295002,0.118811354,-0.039624006,0.13290092,0.009101157,-0.030347032,-0.031906918,-0.09070556,-0.100345425,0.088194855,0.027540825,0.04955616,-0.045209013,-0.055702988,-0.057403326,-0.011298886,-0.12876938,-0.044403713,-0.022401301,-0.024341965,-0.031895097,-0.05684652,-0.007495791,-0.0018683777,0.08560634,0.044240836,0.015152384,0.0963814,-0.0072630644,-0.05747406,0.09365464,-0.012053437,-0.016256435,-0.06699369,-0.0004569005,-0.016051289,-0.015431898,-0.013066326,0.05531745,-0.0353013,0.0371122,-0.032546744,-0.037527148,-0.080964044,0.04277858,0.06878682,0.12173781,0.01559708,0.060944628,0.00014603732,-0.07475511,-0.025014596,-0.058233473,0.0152327,0.1098189,-0.12123501,-0.07053679,-0.0046665347,-0.15868878,-0.023913672,-0.064650126,0.13137019,-0.020940892,-0.07914096,-0.032625962,-0.025734087,-0.033916216,0.005568092,0.0052127354,-0.058686547,0.012881739,0.059581302,0.017995002,-0.051038075,-0.06079126,-0.069152445,0.07426724,-0.13300002,-0.11951118,-0.0020904425,-0.037018273,-0.15967071,0.0020132056,-0.057656456,-0.17915665,0.057795744,-0.047081716,-0.12108988,-0.15162297,0.09011568,0.028946612,0.088399105,0.077657185,-0.07336447,0.075328626,-0.08079103,-0.045758,0.023642609,0.09133681,0.140653,-0.010007004,-0.028150596,-0.045189567,0.06793763,-0.095712,-0.037623167,-0.0214644,0.06781865,0.06906562,0.14123902,-0.052642047,0.051168762,-0.1019833,-0.02258789,-0.07920224,-0.0005353176,-0.085996784,-0.041901004,0.09455881,-0.04568805,0.035541438,0.09938769,-0.090915516,0.08991987,-0.09562614,0.037578672,0.07704648,-0.15934731,0.032225214,-0.04905764,0.047236055,0.042318087,-0.03445243,0.025606256,-0.14294447,0.086206086,-0.12230045,-0.0008199914,0.021149054,-0.10512696,0.00012676534,-0.029039433,-0.007542313,-0.053190134,-0.09325273,0.06850405,0.058281384,0.011962246,-0.056663893,0.08061379,0.049709205,0.004136296,-0.007160939,-0.008801988,0.026088292,0.027669545,0.03862886,-0.06568211,0.008332922,-0.032369327,-0.028182488,-0.1786562,-0.019731984,0.07737606,-0.10635099,-0.035123687,-0.012017684,0.006884747,-0.023731729,0.027187536,0.053122513,0.02792101,0.08609293,-0.078429125,-0.08301084,-0.05251757,-0.030496769,-0.04299571,0.02874245,0.04284126,0.07183227,-0.061088312,0.08764012,-0.08450806,0.025700843,-0.14582203,0.028751895,0.050943483,0.11942133,-0.011660339,-0.070813246,-0.029122476,0.118417144,0.02316689,0.053821117,-0.050590426,0.03390396,-0.005939489,0.09317816,-0.09403626,-0.022934388,-0.0030693472,0.06783486,-0.14501937,-0.056435708,0.10532133,0.028996544,0.0334824,-0.045830786,0.13926598,0.076523066,0.016543576,-0.026019232,0.014032408,0.0068990258,-0.08259055,-0.022642922,0.042621985,0.062891506,-0.082390316,0.0043671196,-0.029108105,-0.11618741,-0.006392115,-0.052910496,-0.005778858,-0.06485691,0.00024018827,-0.047351226,0.05331129,0.06786427,0.0928492,-0.017649949,0.11249506,-0.030275935,0.0081367185,0.10316129,0.099249676,-0.070328616,0.03315381,-0.026575109,0.029142208,-0.008590746,0.06883962,-0.039133653,0.10644677,-0.0050100368,0.090465486,0.051677775,-0.01994584,0.074216366,0.0795663,-0.012865758,-0.05036015,-0.027008308,0.026910923,-0.023061762,-0.092558965,0.015133927,-0.0694421,-0.011626418,0.16678114,-0.055269435,0.112267256,-0.06810558,0.0811235,0.010819723,0.04410046,-0.092339054,0.031836044,0.08820051,0.07952464,-0.060128633,-0.17544895,-0.045732934,-0.05199524,-0.034465954,0.014679899,-0.06828528,-0.056979034,-0.068494424,-0.07089685,0.028643405,-0.09811088,-0.1399707,-0.027865395,0.09082109,-0.016924644,0.003988105,0.10686418,0.11792007,0.007860492,0.0046910397,0.07755995,0.03393202,0.11922611,0.12361477,-0.00405797,-0.01622734,-0.07190167,0.07547332,-0.006114474,-0.051365092,-0.00980957,-0.09515569,0.020621128,-0.08744033,0.03804473,-0.100838415,-0.059728283,0.059329018,0.104125075,0.09017948,0.10966334,0.028129244,-0.097786866,0.009723117,-0.026879253,0.0163373,-0.058457766,0.13210113,-0.058910202,0.038092546,-0.008808176,-0.0740665,-0.059048004,0.035760477,0.012502024,0.10493866,0.04271779,-0.089079686,-0.032658767,-0.043787785,-0.10515269,0.073288634,-0.10272403,0.08881739,0.0034415405,-0.055103865,0.027489785,0.10312756,0.08260586,-0.048831634,0.02067721,-0.1414856,-0.24422692,0.033254765,0.055050954,0.030039212,0.0045594443,-0.16073073,-0.015728194,-0.11305756,-0.03546127,0.12913921,-0.08475833,-0.047441754,-0.04641645,0.04296113,-0.07959314,0.05737769,-0.035897374,-0.035159405,0.005723015,-0.033828884,-0.09931192,-0.085419476,0.06054628,-0.00016682193,0.081455596,-0.12723722,-0.05645149,0.065611474,-0.09172185,-0.02943929,-0.03181133,-0.050452646,0.012137439,-0.10431279,0.086691394,0.026684081,-0.10130699,-0.023398645,-0.024529913,0.036578365,0.097327605,0.012471988,0.055781364,-0.024383903,-0.12710552,0.007235147,-0.065527536,0.06454557,0.07409138,0.107592754,-0.02298008,0.023052242,-0.057822526,0.08064667,-0.0018011769,0.06817035,-0.018314138,0.0017020585,-0.061135367,0.004677082,0.08397424,0.13385808,-0.10056644,0.081112035,-0.11042768,0.0075243823,-0.05255754,-0.06187021,0.027340394,0.03020141,0.05244285,-0.1884676,-5.498946e-05,-0.013157492,-0.0792857,0.09710416,0.10628056,0.04369239,0.0684807,-0.067637034,-0.08493378,0.053324934,-0.04390079,0.106126614,-0.050525226,0.12708692,0.09114505,0.049072947,0.06874523,-0.024072675,-0.05897863,0.02869778,0.1114216,-0.05632544,0.072545946,-0.05774944,-0.09946244,0.04099196,0.08015426,0.0060781906,-0.005706443,-0.06501708,0.08614883,-0.010246862,-0.053406555,-0.014570664,-0.031603448,-0.043201026,0.039867073,0.024595808,0.059037298,0.004319829,0.09237324,0.070554815,0.07955565,-0.089043304,-0.01643382,-0.018034926,0.01707275,0.02089957,-0.17879601,-0.0055310004,0.13541898,0.12149083,0.014862194,-0.11249564,0.09557616,-0.048289828,-0.13838346,0.0458163,-0.035222124,0.0003890663,0.10335695,0.0695491,-0.082237124,0.04132742,-0.0115739005,0.08705186,0.0030885783,-0.06070458,-0.050889507,0.034321528,-0.10715428,0.083767496,-0.052300163,-0.013889372,-0.06396281,0.08396693,-0.07357854,-0.0011782554,-0.014523596,0.052850496,-0.08493784,-0.014004128,-0.011478012,-0.05526103,0.0033173033,-0.06863493,-0.003907069,-0.06755825,-0.037733667,-0.025325842,0.020471761,0.060788106,0.057612583,0.027507203,-0.058369145,-0.05384106,0.0003717454,-0.046951167,0.07107498,-0.039657135,-0.04117613,0.07198959,0.004945373,-0.10200992,-0.07875351,0.08319171,-0.010530708,-0.09133702,0.079376824,0.034442525,-0.014143112,-0.10323294,0.048569243,0.021302106,0.08113026,0.051364496,-0.023318054,-0.07671987,0.01481925,-0.13833684,-0.04619302,0.01253418,-0.0019833283,0.089810036,-0.13682191,-0.057319447,0.031076368,0.12016547,-0.0427533,0.042175997,-0.046064075,0.11448023,0.13813642,-0.10214384,0.1648191,0.10430527,-0.11495821,-0.033862475,-0.087051705,0.008665111,0.09857674,-0.050859425,-0.068659544,-0.0012597151,-0.043384597,0.09317647,-0.11292924,-0.026269827,0.13045998,0.045493573,0.08521401,-0.033323612,0.08276164,-0.010582423,-0.06300094,-0.024234947,0.024006775,0.037406866,0.0062674093,-0.0105271125,0.09015679,0.051057186,0.028111197,-0.023721118,0.046586026,-0.12958589,-0.08744351,0.01571986,0.0959135,-0.058658257,-0.13809627,-0.03594126,-0.043532945,-0.0038242673,-0.0025487335,0.020365408,-0.05969872,0.0146448715,0.021590129,0.10860938,0.0066518295,-0.012225599,-0.05089029,0.082002945,-0.027634252,-0.002814536,0.121349394,0.07853457,0.110959925,-0.014854038,-0.09805059,-0.11033276,0.01069239,0.11816574,-0.07262934,-0.09509717,-0.0046757315,-0.062929995,0.012941971,-0.055216126,-0.07275774,-0.04364264,-0.10433115,0.022769224,0.007958672,0.004398998,0.09231624,-0.04533073,0.05302835,0.09158503,-0.044597473,-0.1593097,0.10854768,-0.120574735,0.0688178,-0.06427278,0.019435672,-0.048903223,0.06857357,0.06133818,0.004804197,-0.11646426,-0.073686466,-0.028126994,-0.09743897,-0.03809576,0.060575724,-0.081746005,0.04884669,0.050328773,-0.079759315,-0.10375961,0.09460266,-0.025976934,0.056672703,-0.04066153,-0.090810224,-0.040544644,-0.017818445,0.009722992,-0.07690122,0.10951199,0.016225148,0.0021458066,0.0041817203,0.041139223,-0.009414621,0.10903871,0.07049783,0.03758249,0.053097785,0.03746424,-0.079963714,0.052439068,0.048240058,-0.0014945276,0.08351738,0.1693203,-0.048244078,0.051834106,0.045845333,-0.041914027,-0.0039579207,0.024273988,-0.14639881,0.08608326,0.0438735,-0.059776183,-0.01104154,0.09129192,0.055895973,0.02778747,0.079295695,0.019052377,-0.038364742,-0.048706714,-0.02437925,0.048989076,-0.026111813,-0.012463294,0.09414571,5.4325646e-05,-0.0049633803,0.18024884,-0.02709602,-0.027483085,0.06068874,-0.14227553,-0.03184311,-0.09596321,-0.05599497,0.023399545,-0.13686535,0.074735895,-0.05404514,0.009406102,-0.049481723,-0.13557237,0.03978872,0.01268842,-0.027278675,-0.094341084,-0.072089374,0.1097733,0.14013068,0.04885554,-0.031091468,0.02104854,0.031336557,0.084992655,-0.0115892235,0.012806205,-0.0840288,-0.098134466,0.07097015,-0.0072356323,-0.077103406,0.012584583,-0.079199746,0.00038651505,-3.4061028e-05,0.029818352,-0.068547376,-0.016572684,0.01840505,0.057847258,0.09909248,-0.0471338,0.109554015,-0.10164166,-0.12297594,-0.06845515,-0.10124792,-0.069131695,0.014028388,0.10670456,0.034575615,0.021985797,0.10861088,-0.1346513,0.054292902,0.026883556,0.06332405,0.1031305,-0.025004284,0.0618831,0.042338658,0.04788133,-0.054192398,-0.021329569,0.023665652,0.004619407,-0.009373167,0.09954709,0.07043085,-0.11120835,-0.042934835,0.09088216,0.08579539,0.02784214,0.035612833,-0.040718183,0.030306406,0.063159324,0.15260665,0.10003818,0.12940818,-0.1094188,0.14332533,0.001575361,-0.044155885,-0.09109909,-0.0459199,-0.038870256,0.023936175,-0.012617318,0.00905661,-0.079259455,-0.028312594,-0.0052945516,-0.113125995,-0.01795752,0.05042368,-0.07681524,-0.0502864,0.034290273,-0.08456478,0.012465147,0.018813647,0.053048056,-0.1451475,-0.1439842,-0.08641573,0.01943287,0.050635226,0.0829926,-0.035986185,-0.029585602,-0.015416878,-0.041915674,-0.016173566,-0.0733231,0.11432914,0.025610866,-0.008675099,-0.029107997,-0.0689672,-0.0401815,0.0035062162,0.007172436,-0.0782905,-0.13131541,0.099274136,0.079985954,-0.061528236,-0.022856552,0.09555588,-0.029612914,0.040652316,0.04572687,0.012846378,0.08582909,0.0046661715,-0.0058905394,0.01361038,0.05501652,-0.018670594,0.07296073,-0.023773465,-0.025116943,-0.11983364,-0.05712435,0.103378676,-0.0012450153,0.10098423,-0.15332282,0.07369136,-0.10651363,-0.021214915,-0.060879283,-0.036975626,0.033359364,0.027670266,-0.020435682,0.0349301,0.056267336,0.1737955,0.08818171,0.019828932,0.0316032,0.11446093,-0.065357044,0.011213473,0.03409118,0.15597586,0.026926903,0.08618349,-0.044955283,-0.13349399,-0.09695628,0.04134781,0.09297462,0.08062154,0.07399527,0.01421568,0.022856474,-0.061386622,0.08191219,-0.01545278,0.012114407,0.057630047,-0.06360688,0.042853087,-0.008852411,0.107723705,0.019718088,0.05504942,-0.003981876,-0.015145782,0.024585638,-0.0760642,0.024920225,0.052489534,-0.023522157,-0.07420374,0.11016316,-0.11590149,-0.01846033,-0.015937714,0.04263848,-0.015465702,-0.15173861,-0.017478757,-0.005243239,-0.088027015,0.0033988236,0.025665367,0.002841972,0.019010872,-0.0040226416,-0.027212137,-0.022893554,0.058554836,-0.12050581,-0.11925239,-0.04806367,-0.015220033,-0.121127434,0.019730715,-0.08338361,-0.06735386,0.057342656,0.0005225496,-0.045226295,-8.43085e-05,0.07724762,-0.07502406,-0.027459566,-0.04854957,0.1661678,0.039781675,0.0670342,-0.041594815,-0.093919754,-0.009353975,-0.010764443,0.13265516,0.021478986,-0.0005433551,0.04153858,-0.10867926,0.010002467,-0.01699826,0.07504087,0.045318224,0.030648174,-0.05653649,-0.08364036,-0.042596757,0.034834664,0.069569476,0.10695194,-0.049862362,0.06919668,0.004731049,-0.03724659,-0.008633699,0.07992307,0.056976575,0.05098992,0.05991482,0.015865939,0.005614106,-0.0064235837,0.009420825,-0.025830278,-0.14542545,0.014375661,-0.15881696,0.098267555,-0.019797446,0.052780233,-0.13605201,-0.18471143,0.077969864,-0.10576836,0.09706119,-0.01625971,0.063608386,-0.02183136,-0.026543414,-0.04408937,-0.015123913,-0.0018047523,0.084686786,-0.00054673984,-0.04381767,-0.067206636,-0.009856289,-0.1304955,-0.008955156,0.042163484,0.0043240744,0.055590916,-0.055627998,0.11714919,-0.00022244433,0.016984189,-0.032386113,0.122838974,-0.08421218,-0.0486122,0.0027115615,-0.024678513,-0.10429251,-0.14431082,-0.048467055,0.09569875,0.08843221,0.009035382,0.029555796,0.0643134,0.03364609,0.039059576,-0.0019426362,-0.013183711,0.14069176,-0.032140046,0.16553363,0.027030056,-0.11790258,-0.13395987,-0.13139698,0.09708692,-0.14428233,-0.074872494,0.01691001,-0.038063344,-0.056382675,-0.10147456,-0.009939107,0.009945864,-0.084093586,-0.12056559,-0.08108196,-0.041508026,-0.09939203,0.03296096,-0.031166725,0.042320404,-0.011073276,0.061654143,-0.04140872,-0.055379994,0.054824933,0.007994777,0.008962873,0.058768053,0.08410934,0.019617742,-0.06499936,0.045254815,-0.0045280983,-0.11054361,0.0076103453,-0.043478705,0.08375972,-0.027896645,0.022146609,-0.043108042,0.057911865,0.03189358,0.0054369103,-0.039190006,0.06022313,0.036764972,-0.06532302,0.07513989,-0.08996985,-0.06743497,-0.11569559,-0.041479465,0.025637036,-0.06442244,-0.115336,0.06956223,0.020253286,0.0029570565,0.05668883,0.0075126165,-0.03780107,-0.039555915,-0.08584364,-0.014476575,0.015954955,0.0911099,0.099998556,0.112017736,0.032631557,0.090106875,-0.010340862,-0.025527293,0.103221186,0.10559465,-0.039260853,0.02622202,-0.02947377,-0.027325056,0.015826724,-0.007325247,-0.13183872,-0.022074474,0.07589017,0.085493915,0.08038142,-0.08500305,0.050223492,0.13514157,-0.029306248,0.12897487,0.09953926,0.032487847,-0.107629195,-0.08492558,0.109398164,-0.06351353,0.018640928,0.066647895,0.05814739,-0.10162514,0.07220158,-0.05202692,0.027389454,-0.09043379,-0.080171354,0.09572472,-0.060287848,-0.18878686,-0.045501433,-0.10835056,-0.013134908,0.0063626193,0.03147303,-0.082017116,-0.031763904,-0.09679276,-0.11253304,0.11967129,-0.047480296,-0.046306036,-0.012897622,0.0774257,-0.022965796,-0.061024155,0.005748888,-0.07502878,-0.032370564,-0.06514257,-0.017304929,0.0036777323,0.10267105,0.039821938,0.022772089,0.059070222,-0.015859796,-0.0994054,-0.0095003415,-0.058090225,0.004323466,-0.025410268,-0.045231707,0.08569221,0.02271295,-0.02129215,-0.029390642,-0.06821976,-0.014796426,-0.03286325,-0.02218137,0.08545757,-0.12486424,-0.058297634,-0.13738053,0.021739004,-0.07964258,0.04403715,-0.10861686,0.12511101,-0.09815739,0.05049415,0.037487503,-0.053125296,0.0833385,0.020782493,0.019769069,-0.044992246,0.041059177,-0.053068463,0.0121267615,0.09531843,0.097743414,0.07054158,-0.008871045,0.06115611,0.06487949,-0.016110225,-0.040540125,-0.018234104,0.062059592,0.015549025,-0.033916432,-0.009735288,0.07239786,0.07478206,0.017872348,0.046771545,-0.09832755,-0.06902589,-0.15013646,0.041250903,-0.054014795,-0.051388264,-0.10065024,0.006995252,0.1034965,-0.11796415,0.1217155,-0.029849658,0.052872367,-0.12355448,0.09084195,-0.01895045,0.03526768,-0.017973572,0.10312069,-0.14427297,-0.0629854,-0.13815555,0.035854124,-0.1665831,-0.11467773,0.016925992,0.075554304,-0.08067804,-0.049807526,0.059741013,-0.02822797,-0.06818681,-0.050966322,0.12381212,-0.04548358,-0.073008925,-0.016018627,-0.028728617,0.079901494,-0.04182296,0.07684847,0.0049736397,0.1288306,0.0439175,0.03487512,0.008394237,-0.03310424,0.102910735,-0.0829478,-0.03925653,0.14025778,-0.029602243,0.047333013,-0.063965514,-0.029633027,-0.0936814,0.020338442,0.03310586,0.03870491,0.06409139,0.044993524,-0.02970384,-0.0340348,-0.05006721,0.018831061,-0.023549637,-0.031953838,-0.013000208,-0.034416292,-0.052050658,0.003546288,-0.06097833,0.040663306,-0.0464605,-0.096738696,0.06731456,-0.05855434,-0.0050887465,-0.08633113,0.1266863,-0.012497952,0.016974166,0.02907998,0.05126193,-0.06105516,0.04370837,0.08877677,-0.010924882,-0.046706337,-0.036362037,-0.006260735,-0.13781606,0.028317971,0.05825033,0.031139579,0.097733796,-0.029732395,0.061324116,-0.013905934,0.0057312166,-0.114001915,0.10949681,0.07768518,0.11398797,-0.09864676,-0.14062236,-0.04294655,0.05315338,-0.06464998,0.056598123,0.06772528,0.018303143,0.03919524,0.0016728177,0.07471696,-0.002665918,0.037863962,0.06868937,-0.08802606,0.012543123,-0.040361077,0.1499045,-0.056382753,0.03695235,0.027668776,-0.03746039,-0.026689786,0.04445461,0.058089953,-0.045560677,-0.0416311,0.03938389,-0.09349968,0.027088415,-0.030621342,0.003430829,0.03360331,0.018689532,-0.084388815,0.020927915,-0.103554495,-0.0156902,0.085554354,0.058225986,-0.014147654,-0.13860852,-0.10940083,-0.13249834,0.022947704,0.01850545,0.07030768,-0.011157668,0.09582588,-0.11360739,0.018667348,-0.06695761,0.11546394,-0.001001201,0.03210543,0.10083703,0.067974225,-0.048711672,0.06906576,-0.021989027,-0.042861648,0.058807883,-0.031483322,0.06919994,-0.12321803,-0.05134489,-0.028831653,-0.006338391,0.18962912,-0.1357058,-0.0044155177,0.054995634,-0.10131543,0.07462771,0.07290161,-0.04142606,-0.045531996,0.055300128,-0.06006294,-0.100264534,-0.14924482,0.006076158,-0.047849454,0.07373094,-0.006524611,-0.085553624,0.01858058,0.09118373,-0.043443106,0.053872555,-0.10983523,0.065215304,0.0693862,0.02669611,0.019916968,0.089042544,0.004755528,-0.061618082,-0.13097925,-0.062263943,-0.024578532,-0.093721084,0.06654028,0.14610603,0.022152845,-0.058044773,-0.010377767,0.09229422,-0.053965557,0.07489044,-0.08137681,-0.016869584,0.076667085,0.053299483,0.030453142,-0.08059384,-0.057204388,-0.029212845,-0.0056279935,0.057854112,-0.004786347,-0.07289745,0.05351264,-0.07635454,0.043615747,-0.08387074,-0.046533495,-0.04205786,-0.1031885,0.08679571,-0.053816378,0.063078165,-0.07654681,0.031442683,0.06406526,-0.07774024,-0.013433244,-0.036909405,0.052624915,-0.07121197,0.038483746,-0.020737616,0.004107063,-0.095638216,-0.00011239582,-0.031364013,0.043201085,-0.06834939,0.007940431,-0.021572763,0.04731363,0.04901094,0.1407409,-0.009237042,0.011892932,-0.10987094,-0.09304956,-0.09697888,-0.018144218,-0.06261724,0.10307727,-0.0617594,0.0355789,-0.041918512,-0.082048014,0.08838957,0.03832828,-0.11628118,-0.06598248,0.04128451,0.073109046,0.006515661,-0.00367317,0.016140962,0.023394048,0.003582612,-0.06411772,0.07127906,0.06903469,0.010860181,-0.12947913,0.06876699,0.016809192,0.11008825,-0.076875806,0.0707787,0.050006907,-0.14450495,-0.01535733,0.05735792,-0.04562189,-0.043956436,0.16179621,0.007929166,-0.02267005,0.10090823,0.10546462,-0.078580104,-0.029421534,-0.09115303,0.02022692,0.108428076,-0.115547046,-0.10418887,0.0034017388,-0.107889436,-0.0023477797,-0.07730993,0.13550965,-0.07710866,-0.005369668,0.107370876,0.024004875,-0.07651744,0.013321995,0.12666164,-0.039823662,-0.052141886,-0.04503431,0.15402043,-0.05169801,-0.12575209,0.017576884,-0.06441754,-0.05476095,-0.03576312,0.043407,0.010766808,-0.19242908,0.04082115,0.024076717,-0.050449096,0.038783852,0.024813661,0.009566123,-0.118340254,-0.04247548,0.07970344,-0.06476409,-0.018213598,-0.048271235,0.093711466,0.11249411,0.045004703,-0.10870565,-0.15984638,0.020504462,0.017590208,0.0036970405,-0.08063555,-0.014196629,-0.046396863,-0.0059836777,-0.051728625,0.067636915,-0.047070254,-0.12413003,-0.072666176,-0.009597844,0.097436965,0.050442085,-0.052900873,-0.11544936,0.019089585,0.0025600381,0.03959217,0.0813896,0.021290464,0.007859934,-0.077178925,0.10986173,0.12417667,-0.028801255,-0.0066502606,-0.09618277,0.0048440606,0.02212428,-0.10454673,0.036477875,-0.0029580586,-0.15378895,0.05568203,0.05323621,0.007157413,-0.064737335,0.07533452,-0.108706996,0.099305026,-0.021640731,0.05945852,-0.08998752,-0.07431867,0.05304307,0.063211806,0.011793401,-0.09335807,0.082477055,0.032859568,0.09648221,0.042521846,0.023183523,0.14994779,0.007284001,0.14316152,-0.018603921,0.08216148,0.051594626,-0.06693875,0.042482715,0.05608788,-0.14011365,-0.049421627,0.06371976,0.017713925,0.008814754,0.017782865,0.05832193,-0.059208594,0.012092209,-0.10709463,0.04219061,0.061012436,-0.0013536346,-0.15226671,-0.096303545,-0.056332897,0.12504722,-0.012670654,0.05690772,-0.0420122,0.018742057,0.10037746,-0.036375526,-0.01800665,-0.08457429,0.016217547,0.013102564,-0.020100562,0.055691205,0.037194528,-0.038318243,-0.063358925,0.084877156,-0.036568828,-0.018232338,0.051717576,0.07770146,0.03274922,0.13208681,-0.043013927,-0.15675734,-0.027020494,-0.045573283,-0.0016732286,0.08397499,0.08031233,0.040371392,-0.018302001,0.14220104,0.024807058,-0.024294998,0.039410748,0.021750882,-0.004888509,-0.07725577,-0.056999505,-0.0030532756,0.120307386,0.07347744,-0.014215338,-0.0037842959,0.055921838,0.039819967,0.04993525,-0.019930333,-0.040437605,0.11597673,-0.02088534,-0.07752357,0.12975505,-0.042515818,0.15756097,-0.047252666,-0.049077593,-0.042820252,0.03659119,0.072491966,0.08745919,0.006221442,0.059596047,0.067408845,0.06788154,0.031705987,-0.080871716,-0.013686266,0.027227905,0.062473565,-0.02896233,-0.13256733,0.022293493,0.094348304,-0.08641046,0.00041158148,-0.020602161,0.01240853,-0.10706119,0.016234247,-0.0122928275,-0.012546721,-0.0064695994,-0.07755196,0.03168396,-0.037599735,0.06362222,-0.04047705,-0.076147296,-0.05858362,-0.022614108,-0.108516574,0.15028758,0.118156366,-0.044602152,-0.005945035,-0.08391385,-0.029691162,-0.066156365,0.0025414873,-0.035053425,0.02471982,0.08697167,0.081766404,-0.14470592,-0.010747972,-0.04472944,-0.17112014,-0.05129762,-0.02020477,0.07380776,0.030474428,-0.17200457,-0.042274546,0.02011934,0.0817548,-0.11597586,0.053397596,0.037525933,0.014447011,-0.06763386,-0.06800404,-0.0041179573,-0.058819238,0.13767058,-0.030076312,-0.05281527,-0.06763974,-0.07550065,0.04043554,0.04385568,0.032206472,-0.035891797,-0.030971047,-0.0032353853,-0.07913401,0.0144207515,-0.020242613,0.099251814,0.074217804,-0.050873023,-0.12867911,0.008344815,0.021244382,-0.036541276,0.03348456,-0.030335125,-0.024887055,0.028619578,0.0024582227,0.10562615,0.043902934,-0.1353016,0.016762393,0.17271554,-0.056497127,0.0030831967,-0.07705554,-0.06883916,0.10376133,0.10751338,-0.06002665,-0.074982196,0.012479877,-0.046340708,0.13821234,0.08969472,-0.021266136,-0.14283498,-0.06291879,-0.09531088,0.028052831,0.0057669766,-0.08889305,-0.13319638,-0.09144602,-0.027872324,0.03494728,-0.05209484,-0.052668888,0.060640164,-0.049307477,0.002705935,0.003949323,0.09078922,0.06280702,-0.07945282,-0.13036239,-0.057177503,-0.017222162,0.003960824,-0.023023114,0.12937178,-0.07307427,-0.020390036,-0.013910515,-0.12764384,-0.037847012,0.08938331,0.05362548,-0.02526115,0.13098446,-0.14905003,-0.023695568,-0.0032620302,-0.09201574,0.02752603,-0.06498141,0.061998993,-0.105000064,0.09987143,0.1306088,-0.015040296,0.033231482,0.09148334,-0.0050149215,0.05592676,-0.058660083,0.016273968,0.14135763,0.026504554,-0.03509561,0.017656635,-0.08095615,0.06761752,0.040009227,0.038729012,-0.0066551464,7.8708224e-05,-0.018920379,-0.0124594,0.041073546,-0.06235094,-0.06814095,-0.040713944,0.04831298,-0.10431999,0.0055137686,0.086302765,0.06224055,-0.043797977,-0.007043145,0.052430104,0.08150943,-0.090565994,-0.015994003,-0.052498393,-0.004643589,-0.07179705,-0.08225684,0.070773415,-0.12143732,0.04428495,0.09681632,-0.016597785,-0.0767587,0.064681046,0.036140952,-0.020351395,-0.061812337,-0.019027486,0.06375261,-0.024300322,-0.1539087,-0.06701427,0.081749804,0.11714568,-0.02518263,-0.009723165,0.04571809,-0.08626832,0.0146342255,0.059217066,0.09048223,-0.048881333,-0.011562486,0.08272049,0.094658345,-0.119819015,-0.08251315,0.028618414,-0.02000361,0.07576349,-0.02008643,0.05421268,-0.008648624,0.027451493,0.0046349196,-0.11344852,-0.019265661,0.016808316,-0.04446145,0.06579566,-0.02307847,-0.005139782,-0.030465253,-0.078074545,0.00072636973,0.075728126,0.08163797,0.0008377292,0.04698326,-0.11781681,0.030897392,0.07923097,-0.03336417,0.00084322016,0.07320684,0.09074846,0.13955139,0.03816979,-0.022069808,-0.079696134,-0.03207939,0.007406407,0.14302668,0.0724064,-0.011888034,0.047030196,0.0044949087,-0.022540985,-0.06495521,-0.023091521,-0.022643726,-0.039889872,0.11981253,-0.025951933,-0.041534785,-0.056827996,0.010149541,0.1573894,0.057606157,0.117273994,0.01997672,-0.051200666,0.057999067,-0.059520002,-0.10675774,0.04070544,-0.003776157,-0.08254688,0.046957158,-0.02431795,-0.11228023,-0.06804602,-0.07287819,0.10239649,-0.02219528,-0.06558865,-0.02121997,-0.04131517,0.002781815,-0.068697155,0.022276405,-0.064778864,0.037394118,-0.100928865,-0.007912138,-0.09335907,0.06851804,-0.055762004,0.06246102,-0.110193476,0.014010733,0.02230649,-0.11791009,0.0028254343,-0.11644748,0.009280572,0.0037098967,-0.09393388,0.10789289,0.099380866,-0.05849784,0.013012653,0.05149226,-0.11593947,0.018459056,0.104943715,0.00018559606,-0.029296514,-0.018238446,0.062023968,-0.13867132,-0.06222291,0.028752726,0.007396185,-0.14086601,0.043670796,-0.018757824,0.07039708,0.032705233,-0.07171236,0.086647175,0.097503826,0.12000947,0.15733099,0.03158826,0.016601771,-0.0030450316,0.0851229,-0.0087880865,-0.10814215,0.024140708,0.0061258916,0.045230743,0.02925877,0.029575508,-0.041574825,0.038556945,0.07651686,0.052835405,0.0950146,0.06277424,-0.04847758,-0.1186584,-0.022219997,0.06243116,-0.03953046,-0.087006204,0.003977566,0.016921725,-0.01900425,-0.09418289,-0.029731542,-0.036634356,-0.038302682,-0.040400393,-0.07361383,-0.05385399,0.012666712,0.047033694,0.028860193,-0.1408453,0.07178637,0.08015158,0.11405457,-0.058611665,-0.02103267,0.07657297,0.03843174,0.03425645,-0.019010775,-0.06872705,-0.012104106,0.037165694,0.046744406,-0.05331848,-0.034098357,-0.028384896,-0.12746927,-0.05665838,0.05156111,0.13887854,0.018057698,-0.09687119,-0.047801975,0.026605802,-0.015490332,0.07932637,0.116264455,-0.011402995,0.032324404,-0.016963968,-0.023495276,0.02459132,0.1612689,-0.07110465,-0.09025126,-0.108138464,0.023878178,-0.070021525,-0.11829473,-0.052286614,-0.011127253,0.07798281,0.05732075,-0.022479644,0.06835366,0.10822923,-0.0030127647,-0.102322996,0.022784429,0.09944605,0.02415002,-0.13128966,0.1294872,-0.0578337,-0.15383027,0.029129786,0.0011123371,-0.05377515,-0.15534961,0.07943949,0.024789443,-0.112290226,-0.107615784,0.028651992,-0.038866114,-0.071476184,0.06986669,0.1461539,-0.02002148,-0.12404337,-0.06693637,0.06660077,0.046762515,-0.07706085,-0.023673875,-0.13346298,-0.05377237,0.17402372,-0.028689526,0.035278827,-0.013221307,-0.06289338,0.06927139,0.10839848,0.009720951,0.095316336,-0.014658778,0.098192185,0.13183908,-0.10210721,0.032885257,-0.11534686,0.008341161,0.031139277,-0.0962664,-0.056000125,-0.12197224,-0.05660805,-0.06009517,-0.10071415,0.034683745,-0.0144465845,-0.043481786,0.05183682,0.038577456,0.057069752,-0.067067064,-0.03796106,0.053295363,0.03271359,-0.03806245,0.059739176,-0.07133552,0.0012817953,0.020674149,-0.021835214,0.005715626,-0.06731173,0.052874714,0.028281275,0.044355452,-0.08489336,-0.021567555,-0.08147301,-0.021955427,-0.009388306,0.0351444,-0.024711747,0.016727785,0.06195453,-0.0034367377,0.07823185,0.09989799,0.008358866,-0.03581014,-0.17256182,-0.034074634,-0.13440637,0.07156742,0.021901412,-0.061110407,-0.0293893,-0.14666192,-0.027138472,0.03890959,0.041359067,-0.016185775,-0.10498233,0.12299098,0.08566632,-0.0097902035,-0.13886134,-0.021710569,-0.0020032534,0.023353335,-0.028920144,0.010193313,-0.058021523,-0.07340281,-0.15062375,-0.042287767,-0.044827532,-0.08730899,-0.005686889,0.12874228,-0.055234246,0.09796061,-0.045463987,0.121353135,-0.18849853,-0.07412514,0.11225066,0.014543146,-0.010488222,0.015120864,-0.1216155,0.031900357,0.017794788,-0.017145023,0.09603198,0.02101053,-0.06564725,0.0841372,0.05456177,-0.12529276,0.018976532,-0.06924938,0.006024425,0.05142689,-0.04779262,-0.03243356,-0.07496721,