0.0017033287,-0.043342758,-0.07189361,0.051936645,-0.04419553,-0.04452683,-0.08626346,0.065512545,-0.05793074,0.057438247,0.05111228,-0.023218697,-0.040186215,-0.071516894,0.02680629,-0.066744715,0.060258083,0.009151018,0.0043857,-0.044643562,-0.03556828,-0.010730548,-0.04852216,0.07705658,0.021582961,0.075285256,-0.08894965,-0.086301535,0.038040716,0.018085988,0.043822315,-0.08249755,0.055559825,0.015602207,-0.08670091,-0.061880488,0.0237607,0.01569382,-0.069571376,0.00881789,-0.06587018,-0.0007067042,-0.05109894,-0.028752973,0.07247321,0.07248625,0.08278163,0.032101642,-0.07347338,0.054799017,0.015276867,-0.08650158,-0.009091468,-0.06981317,-0.050257266,0.036544565,-0.04052036,0.0782145,0.061978716,-0.014261497,0.04267382,-0.050070282,0.022644166,0.035983525,0.01860784,0.03941874,0.037658595,7.0815506e-05,-0.054482322,-0.06416558,-0.059947375,-0.0885723,-0.08877899,-0.059295483,-0.055838007,0.01449084,0.007009381,0.029860642,0.034959797,-0.07928627,-0.08235744,0.048544794,-0.07596765,-0.060818665