-0.008182939,0.04628974,0.07079357,0.06211844,0.026290042,0.07742812,0.07619253,0.05446165,0.055243917,-0.07942242,-0.004517539,0.029990794,0.039512474,-0.074176066,0.02445165,-0.07918404,0.061132964,0.05391904,-0.057844214,0.026705395,0.055209506,-0.019104807,-0.07955566,0.06624676,-0.081711166,0.036491986,0.010860353,0.040644564,0.065051176,-0.03205571,0.026957247,-0.036088016,-0.079577126,-0.053416584,-0.07581262,-0.037606273,-0.07604405,-0.014514882,0.06886309,0.06369311,0.027786203,-0.009932642,0.010141664,0.027461914,-0.0075195124,0.049917314,-0.060924076,0.021020465,0.09798708,-0.07278366,0.029869046,-0.043084085,0.06702968,0.072635725,-0.028597271,-0.03249445,-0.041226048,-0.07366648,-0.029739851,0.046395488,0.01730026,0.0663057,0.036193643,-0.012646505,0.083731264,0.07966317,-0.003265848,-0.04894109,-0.05937566,0.06760395,0.022874732,0.08233684,-0.06340651,0.09085053,0.03095689,0.049326215,-0.07147993,-0.043404423,-0.032100827,-0.037335094,-0.09269145,0.06966154,0.015388373,-0.057810944