-0.3509942,0.19935474,-0.10028693,0.12391573,-0.33107108,-0.10052367,0.18789965,-0.40969107,-0.20212235,-0.17030634,0.1332315,-0.03744895,0.23344775,0.28598222,0.20320673,-0.13180321,-0.13088466,-0.011749686,-0.16982955,-0.11953403,-0.22816569,-0.34541705,-0.12351204,-0.3741048,0.16926235,-0.04718982,-0.23422074,0.22902107,-0.23769602,0.21893547,-0.18154785,-0.20067108,0.07113443,-0.22950654,-0.26862985,-0.28212032,0.234984,0.1541787,-0.15218079,-0.12094948,-0.18461037,0.045685098,0.16613938,-0.35494122,0.265132,-0.28388178,-0.10952379,0.16781901,-0.05551432,-0.17036009,0.1219005,0.14016923,-0.18576346,-0.29355484,-0.3735964,0.2973535,-0.1768897,0.16558537,-0.14264372,-0.2645093,-0.09418926,-0.16576639,-0.28258228,-0.23435938,0.22156505,0.27275258,-0.2309145,0.24998936,0.1968914,-0.20166628,-0.07551651,-0.23980235,-0.24860677,0.21614563,-0.15799855,-0.22798346,-0.3107981,0.026594816,-0.23219408,-0.20043905,-0.15738532,-0.24752581,0.20876037,-0.21533288,-0.15902887,0.08456295,-0.287379,-0.3042474,-0.142367,-0.16246931,-0.28527245,-0.11913892,0.24871038,0.25738055,-0.29106683,-0.055377867,-0.2674117,-0.32370758,-0.29454002,-0.18857919,-0.014470025,-0.17435694,0.113929175,-0.13990217,0.19535214,0.2920997,0.12089174,-0.04921364,-0.27628326,-0.14176977,-0.04812961,0.18414709,0.0017343833,-0.26965323,-0.20797719,0.14765595,-0.34708738,-0.24788082,0.19046335,-0.038053665,0.16643973,0.23234871,0.2570653,-0.048770178,0.23531763,-0.13108093,0.053840056,0.14836673,0.24013466,0.16908889,-0.12333328,0.16801693,-0.19100958,0.24429938,-0.33781993,-0.18252473,0.18972458,-0.2086505,-0.17280617,0.20785911,-0.30514312,-0.2945555,-0.2979218,0.24182682,0.022956764,0.22796734,-0.25611138,-0.18755147,-0.07789114,-0.349817,-0.20384891,0.004897369,-0.3033859,-0.18580046,0.08391532,-0.1506342,-0.2994678,0.10928705,-0.22771916,-0.09711846,0.23812544,-0.23418209,-0.19277804,-0.029418195,0.17079377,0.010738356,0.110182166,-0.07410068,0.10079616,0.27439743,0.0138889365,-0.3874613,0.099901974,0.21695848,-0.2725919,0.096184656,-0.1808256,-0.33095637,-0.14693597,-0.2331666,0.10299606,-0.09730172,-0.12542346,-0.387741,0.29395115,0.28472045,0.045901585,-0.3381654,-0.22889563,-0.02049314,0.24917877,0.19902554,-0.33482486,-0.36929834,0.1856691,0.04241171,-0.2385079,-0.32245573,-0.22360216,-0.18920118,-0.0951543,0.044557378,-0.21354398,0.17584074,-0.2975486,0.18161367,-0.1284527,-0.15845476,0.08273222,-0.316815,0.1665611,-0.2824502,-0.0035648197,0.07264628,-0.26248345,-0.2914892,0.21228479,0.054563005,-0.33437034,0.107491374,-0.29268536,0.28664023,0.24444994,-0.09289371,-0.20467536,-0.3440423,0.122798026,0.0054524983,0.20190525,0.016840536,-0.019480161,0.2558818,-0.14311334,0.17202601,-0.049128417,0.20420149,-0.22151506,-0.35696253,-0.1075785,-0.23204845,0.059636153,0.013239581,0.099200256,-0.27490783,-0.05952219,0.22324122,-0.18243316,-0.28620115,-0.31435442,-0.10850297,-0.16712348,0.20704184,-0.30271262,-0.3093969,-0.16293503,-0.208931,0.1611331,-0.0025424738,-0.26628017,0.19911373,-0.07031937,-0.14349651,-0.23838775,-0.1324752,-0.23460722,0.23410322,-0.20102076,0.20820977,0.15737695,0.12666763,-0.24534495,0.23356876,-0.24674885,-0.33690074,-0.34275568,0.08440761,-0.26386145,-0.22046633,0.18526791,-0.16105695,-0.24286741,0.21964383,0.093341716,-0.14451666,-0.07998395,-0.04919531,0.20977196,0.024685452,-0.1303034,-0.101165175,0.1966229,-0.17983703,-0.16561761,0.14311315,-0.084048174,-0.37470835,-0.06937835,0.1523414,-0.16891797,-0.24581932,0.12172563,-0.3536274,-0.32543665,0.21358278,-0.2167779,-0.25182235,0.18735115,-0.29036894,-0.2825382,0.024460463,-0.16242562,0.15436047,-0.08810411,-0.2695234,0.102640845,-0.18255043,-0.019024702,-0.25264072,0.008339436,-0.22467396,0.1807377,-0.1603419,0.26002866,0.15908515,-0.15569392,0.23802282,0.24229883,0.26054996,0.08488266,-0.17813751,0.22901215,-0.20195362,-0.33463636,0.22596365,-0.06078661,-0.12796062,0.17478973,-0.08025269,-0.19917592,0.22725102,0.07308244,0.11203528,-0.31284124,-0.17938235,-0.0013719106,-0.061436914,0.24662152,-0.20071985,-0.25694644,-0.2741305,0.2300822,-0.27578533,-0.21589173,-0.16873175,-0.17562173,0.1460583,0.25287065,0.2320036,-0.20891176,-0.23001625,0.017378308,-0.3462178,-0.3455694,-0.039688315,0.18416479,-0.15228036,-0.22060421,-0.22481108,0.14694177,-0.2978797,0.22362123,0.11160632,-0.19214536,-0.15168238,-0.118742004,0.20587122,-0.31120524,-0.32587248,-0.27031723,0.19132297,-0.25691733,-0.13298796,-0.049935043,0.273506,-0.29669523,0.2609802,0.15933804,-0.2783172,-0.059032552,0.10781046,-0.25923526,-0.3102589,0.2354854,0.15049504,0.06007205,-0.1796929,0.21354528,-0.25417075,-0.055972066,0.14104548,-0.3344294,-0.33287752,0.19394325,0.14600281,-0.42836958,-0.02703467,0.14028282,-0.1372995,0.0041495594,-0.110059515,-0.16819559,-0.31551635,-0.0716237,-0.17502278,0.019631,0.050663706,-0.06930021,-0.072898194,-0.06964317,0.21175218,-0.29636312,-0.23117666,0.23151854,0.21186802,-0.19326928,-0.2538935,0.1390648,0.08362401,-0.065187916,0.24780945,-0.23716713,-0.1735734,-0.067146614,-0.17543353,-0.2849135,0.23727277,0.21543093,-0.21586184,-0.11291452,0.17747168,-0.17688191,-0.10671074,-0.108677246,0.03907285,-0.0942336,0.18984197,0.2316335,-0.15513735,0.24723902,0.22685449,-0.12515736,-0.13734953,-0.11743091,0.16916046,-0.058062196,-0.07644607,-0.28904137,-0.12821656,-0.24752979,-0.12545353,0.24465327,0.1720724,-0.17830472,-0.21776815,-0.19360399,-0.31143686,-0.16410449,-0.2573639,-0.20634478,0.01794912,-0.056187548,-0.17514735,-0.18401723,-0.1402651,-0.33378023,-0.18943349,0.2079915,-0.25261953,0.20508502,-0.27329716,-0.37834612,0.018692996,-0.25539264,-0.13419406,0.21597011,-0.15390496,0.073254384,0.18266033,0.19962618,-0.068851255,-0.0026172139,0.10882394,-0.01733377,-0.12430739,-0.165355,0.01847308,-0.20278385,-0.0699161,-0.14895383,0.25802693,0.16166504,0.2567558,-0.23786347,-0.33153534,-0.30009475,-0.17943649,-0.16876829,0.13429148,0.2204155,-0.09813813,-0.089172125,-0.06532797,0.29950637,-0.113527365,0.20056906,0.2418014,-0.05448532,0.08904872,-0.22947395,-0.21927422,0.11448128,0.17077237,0.15103185,-0.21681954,-0.3124754,0.14697352,0.27508152,-0.21831985,0.26513642,0.25397184,0.19447488,-0.36785975,-0.018895786,-0.1267264,-0.16416016,-0.20359832,0.27099732,0.16201086,-0.20762236,-0.15653156,0.023032695,-0.24709849,-0.29575545,-0.31427538,0.06898121,-0.17557743,-0.25590265,-0.15006502,-0.14260843,-0.2675312,0.27568638,0.075847134,-0.17186569,0.028277205,0.2072637,-0.044844683,-0.11244038,0.13556224,-0.21036446,-0.18055017,-0.06090859,-0.13096489,-0.2565919,-0.14561068,-0.33842483,-0.16181767,-0.25237238,-0.12889707,-0.064319074,-0.16334924,-0.335026,-0.19612074,-0.05468359,0.18801577,-0.20640175,-0.21232148,-0.3208366,-0.1251526,-0.26207918,0.2839429,-0.21255997,0.22879443,-0.3100294,-0.1293861,0.2538386,-0.10038586,0.22635563,-0.23722558,0.18911175,-0.25238514,0.24107425,0.16074884,0.022255568,0.22399342,0.12821388,-0.13848527,-0.11559782,-0.13288501,0.20032425,-0.18906756,0.22607015,-0.17828126,0.14611879,-0.1081063,-0.3150014,-0.2498087,-0.09686396,0.21687484,-0.08218207,-0.31013575,-0.14805281,-0.058900055,-0.244819,-0.31554672,-0.16689199,-0.01596168,-0.20638478,-0.25064602,0.21862838,0.17039636,-0.38359278,-0.29412198,-0.14748918,0.25384983,0.20902061,-0.22753495,0.15724778,-0.109953925,-0.29269156,-0.02273059,0.21874195,0.18491139,0.051814087,0.20246938,-0.27396014,-0.22633837,-0.124113515,-0.21497674,-0.18887372,-0.32420367,-0.048356142,0.12936254,0.093647644,-0.08778604,-0.26211667,-0.24735267,-0.31202585,0.19924201,-0.08276455,0.19680417,-0.13724642,-0.056980178,0.016028993,-0.054703545,-0.36107132,-0.023072235,-0.31682464,-0.28077474,-0.12471331,0.26199088,0.25272045,-0.29123786,-0.28794774,0.100490645,0.14948821,-0.0072428114,0.17224157,-0.029840928,0.18120804,-0.12957187,-0.23352957,-0.20464991,0.2555615,-0.021867016,-0.10689968,-0.28683674,-0.23588805,-0.3271061,-0.22326533,0.16365893,-0.14481409,-0.19087657,-0.16207129,0.19374856,0.048548557,-0.12569915,0.077499345,0.14956088,-0.18544534,-0.29438818,0.26335993,-0.24183954,0.24800944,-0.12515014,-0.021000056,-0.1469993,-0.15283348,0.16155073,-0.10640533,-0.23614521,0.18619438,0.01744307,-0.093279526,-0.0678914,-0.22040106,0.19423291,-0.103894696,-0.13113618,-0.20298885,-0.21162097,-0.21952759,0.27532625,0.20355831,0.26372027,-0.27885666,-0.31052637,-0.09448995,-0.2951076,-0.16362584,-0.17243616,0.13963273,-0.27386016,0.06221843,0.17066753,0.22733904,-0.16542557,0.19283396,0.12664363,0.15750329,-0.26342687,0.0760275,-0.14967099,0.15420307,0.18345407,0.1297094,-0.17623529,-0.2842801,-0.027536971,-0.20895621,-0.23290385,0.18403153,0.2508001,-0.3156874,-0.24594365,0.23868935,0.15846208,0.18368515,0.0051272437,-0.11893378,-0.15612058,-0.1217914,-0.3425442,-0.21381362,-0.22378078,-0.010093314,-0.20385236,0.11696784,-0.11587296,0.092191584,-0.06372335,-0.16909747,-0.057703145,-0.052328583,-0.109201856,-0.12513125,0.15849344,-0.024983045,0.16551001,-0.30499315,-0.13969323,0.10905563,0.004681495,-0.21087568,-0.33330888,-0.42021683,-0.20968056,-0.14590305,-0.26360622,-0.109765016,-0.27674618,0.25287503,-0.27583513,-0.2757857,0.2075529,-0.19311178,-0.07780122,0.1995791,-0.068363,-0.27918744,0.2324312,-0.20444643,0.13331558,0.13082922,-0.18607871,0.21746734,-0.042834632,-0.06782642,-0.09677674,-0.26176327,0.17157385,-0.14815724,-0.29264066,0.14227642,-0.18636464,0.19829457,-0.20863816,-0.13884696,-0.26201132,0.14842196,-0.2657785,-0.30137566,-0.10675652,-0.050675627,0.20923364,0.1773742,-0.2751252,0.21266773,-0.1473743,0.18260323,0.20462978,0.20012015,-0.021222107,0.15601753,-0.31481388,-0.02451661,0.15118174,0.14767613,0.19185776,-0.21202838,-0.33567658,0.05964516,-0.36392847,-0.22289008,-0.1415193,0.16059406,0.2150117,-0.25790897,-0.16585484,-0.08650015,0.18373655